732 128
707 0.175847 0.132097 -0.082752 -0.104301 -0.089212 -0.227265 0.020366 0.019877 -0.055139 0.050406 -0.007816 0.110845 -0.004870 0.108574 -0.061948 -0.044376 0.136359 -0.053096 0.127821 0.000348 0.069169 0.029947 0.034209 -0.038615 -0.134548 -0.199388 -0.022439 -0.059367 0.025957 -0.076892 -0.019144 -0.108948 -0.085760 -0.056954 -0.182415 0.139095 0.174648 0.106433 -0.052783 -0.167703 0.158458 0.173955 0.089239 0.072468 -0.144210 -0.113918 0.133949 -0.020176 -0.153346 -0.022105 -0.142439 -0.030787 0.099469 -0.046471 0.031001 -0.182422 -0.083607 -0.040536 0.205224 0.046930 0.094933 -0.064030 -0.177105 0.003044 -0.051864 0.080933 -0.017155 0.145745 -0.007831 -0.092803 -0.015204 -0.022585 0.139096 -0.019390 0.079707 0.017514 0.084508 0.061960 0.015582 -0.092932 -0.032918 0.037489 -0.178257 0.078710 0.072765 0.040491 -0.129135 -0.035495 -0.208262 0.070047 0.257465 0.119280 -0.177243 -0.048574 0.033301 -0.083643 0.017279 0.037099 -0.131644 -0.014923 0.051148 -0.076651 -0.250451 0.102338 -0.027416 0.003742 0.001805 -0.061970 -0.051564 -0.023029 -0.177851 -0.037483 0.009834 -0.038896 -0.095231 -0.034088 -0.042642 0.030143 0.195583 0.079568 0.070553 0.045468 0.173056 -0.230853 -0.047150 -0.028633 0.172382 -0.175434
4 0.066469 0.027241 -0.167377 -0.008519 -0.013488 0.060061 0.093018 0.117075 -0.177942 0.034039 0.178260 0.028395 -0.081981 0.064850 0.044082 -0.072562 0.194540 -0.103368 0.240364 0.043484 -0.018419 0.085265 0.182372 0.246881 -0.006176 0.040998 -0.132460 -0.120202 0.172842 0.005256 0.099254 -0.035553 -0.063221 0.026373 0.059389 -0.099822 0.032062 0.058889 -0.051920 -0.245234 -0.057169 0.065899 0.137874 -0.088890 -0.059529 0.038251 -0.108412 -0.019414 0.088359 0.058135 -0.058584 0.023002 0.022652 -0.057691 0.060705 -0.197074 -0.094483 -0.066222 -0.007926 -0.186438 0.095616 -0.062666 0.063500 0.041624 0.041557 0.069175 0.010971 0.097581 -0.129153 -0.108025 -0.060027 -0.119827 0.073749 0.227976 0.015940 -0.031947 0.083849 -0.119939 0.076000 0.061139 0.094637 -0.013311 -0.029717 -0.029940 0.063235 -0.038982 0.089698 0.025840 0.000273 0.132665 -0.086342 0.094061 -0.187241 -0.099089 0.090469 0.017243 0.128873 -0.018081 -0.082180 0.065603 -0.000012 0.011941 0.090612 -0.029055 0.145639 0.052809 -0.118138 -0.029624 0.029402 0.196108 -0.263200 -0.221248 -0.021587 0.079140 -0.145521 -0.135840 0.005162 0.068203 0.043312 0.079661 0.079006 -0.060709 0.178023 -0.004529 0.063542 -0.070825 0.103349 0.046961
263 0.251720 -0.230169 -0.101184 0.077561 -0.171212 0.024556 -0.098745 0.047049 -0.056713 -0.109765 0.095054 0.040698 -0.017969 0.018714 -0.027143 -0.080808 -0.048529 -0.197468 0.050439 -0.144336 -0.115519 0.038006 0.130851 -0.026956 -0.099496 -0.114809 0.009229 0.011799 0.030155 0.100826 0.112876 -0.169877 -0.039994 0.094624 0.065495 0.163251 -0.016317 0.115495 0.074180 -0.058629 0.201845 0.082471 0.044942 -0.160200 0.024156 0.136054 -0.042274 0.023612 0.105790 -0.060381 0.007210 -0.023022 -0.036396 -0.076200 -0.109297 0.013564 -0.162200 0.063557 -0.057635 0.044454 -0.109873 0.014373 0.029455 0.003942 0.002660 0.086684 -0.080173 0.179597 -0.254081 0.151967 0.100271 -0.026342 0.147433 0.086610 -0.127974 -0.010816 0.072294 0.170845 -0.025689 0.023216 0.155950 0.099175 -0.077749 0.110612 0.072868 -0.044442 -0.028686 0.009033 0.039723 0.235613 0.167342 0.052953 -0.052492 0.039198 -0.104042 -0.003139 0.134546 -0.073645 -0.089041 0.018416 0.079976 -0.121539 0.037416 0.044530 0.130282 0.105909 -0.201846 -0.102182 0.033648 0.092181 -0.119409 0.031464 -0.137026 0.012654 -0.086856 -0.056337 -0.050112 0.208033 0.169859 -0.038725 -0.020872 -0.113303 0.009217 -0.126732 0.105441 -0.027579 0.100611 0.113053
46 -0.018199 0.068700 -0.015660 0.176293 0.113779 0.180100 -0.003713 -0.011488 -0.112555 0.095903 -0.042296 0.110600 0.040458 0.172676 0.053201 0.017558 -0.007274 0.031299 -0.052988 -0.065490 -0.090717 0.074880 0.157409 -0.080999 0.056373 -0.120111 0.026836 0.071566 0.010535 0.107173 -0.091153 -0.191932 -0.130628 0.032551 -0.075409 -0.048504 0.061810 0.019325 0.066980 0.002615 0.239832 -0.052910 -0.119788 0.150407 -0.007489 0.048466 -0.081490 0.025482 0.015818 -0.212468 0.096602 0.110368 0.222224 0.103409 0.029886 -0.028498 -0.226485 0.121054 0.081957 0.131811 0.088798 0.102527 0.083265 0.060822 0.034660 -0.003170 0.040053 0.147428 -0.065882 -0.134100 0.047633 -0.022520 0.102456 0.117904 -0.172639 -0.131354 -0.167273 -0.125139 0.261400 -0.003101 -0.026221 -0.136142 -0.002792 0.046360 -0.213738 0.007811 0.093393 -0.116709 -0.053846 0.132922 0.227283 -0.027549 -0.193074 -0.212386 -0.039671 -0.066607 -0.086740 0.033069 -0.047626 0.086416 -0.038977 -0.052460 -0.035890 0.171418 0.182009 0.087124 -0.095195 0.014042 -0.186348 0.088865 -0.070733 -0.078216 -0.111364 -0.003843 -0.103645 -0.230952 -0.034968 -0.095266 0.219200 -0.153206 -0.170597 0.019156 0.000119 -0.130201 -0.022596 0.154731 0.056980 -0.070816
583 -0.002206 0.163852 -0.073672 -0.115172 -0.004367 -0.040883 -0.170521 0.074710 -0.093956 0.086575 -0.074677 0.025643 0.028366 0.194030 -0.082842 -0.253193 -0.042846 -0.188880 0.188562 -0.138090 -0.018819 -0.066116 0.047306 -0.102459 -0.132750 0.050221 -0.137143 0.124280 0.086734 -0.090586 0.076917 -0.036662 -0.029042 0.102641 -0.054832 0.099586 -0.119501 -0.014442 0.100426 0.005524 0.037716 -0.060876 -0.009104 -0.084903 -0.066753 0.085841 -0.095246 -0.047949 0.026259 -0.172296 0.026134 0.073283 0.038519 -0.130497 0.061496 0.021817 0.094167 0.081113 0.096084 0.096454 -0.097298 -0.025415 -0.020726 0.058696 -0.006778 -0.002559 0.039791 0.136913 0.073971 0.046862 -0.054927 -0.070129 0.108691 0.068972 -0.023209 -0.140276 0.056616 0.010117 0.236439 -0.081173 0.033743 -0.117533 0.027233 -0.012780 0.007400 0.085900 0.122110 -0.031042 -0.027617 -0.055592 0.167529 0.076922 -0.060137 0.056946 -0.037115 0.174980 0.168352 0.141939 -0.030276 0.002764 -0.182186 0.015775 -0.072985 0.143475 0.036996 -0.099804 -0.172957 0.221597 -0.170782 0.216265 -0.115695 0.006686 -0.049797 -0.001406 0.028945 -0.091948 0.196802 0.033545 0.050234 -0.059367 0.106319 0.129552 -0.039185 -0.077783 0.000504 0.170843 0.140514 0.016805
558 0.204884 -0.051608 0.061651 0.157265 0.173595 0.059636 0.253593 0.157934 -0.151913 0.027394 0.014552 -0.020161 -0.013165 -0.055248 0.022602 -0.146494 -0.001852 -0.100135 0.009402 0.175808 0.114321 -0.090644 -0.062560 -0.166559 -0.008640 -0.004478 0.146072 -0.040359 0.128176 -0.117157 0.129244 0.005187 -0.079672 -0.174764 0.082757 0.052465 0.002114 -0.020834 0.123384 -0.129419 0.071323 0.091727 0.039497 -0.109339 0.062542 0.088894 0.186685 0.038563 -0.041814 -0.054096 0.061720 -0.155771 0.106500 0.011632 -0.114048 -0.126930 0.122522 -0.098507 0.107463 0.161823 -0.016937 -0.015382 0.074932 0.007135 -0.099509 0.150916 -0.005494 0.088265 -0.014975 0.069865 0.141962 -0.071741 0.153863 0.122530 -0.025783 -0.106657 0.137149 -0.081272 -0.044790 -0.018354 0.031797 -0.048273 0.061871 0.036397 0.084815 0.035022 0.052294 -0.063619 0.042237 0.172049 0.184600 -0.022443 -0.077228 -0.011564 0.125255 0.072918 -0.036739 0.184913 -0.071752 -0.080001 -0.039403 -0.009065 -0.056635 0.010514 -0.140796 0.047810 -0.146754 0.155256 -0.101598 0.293185 -0.085541 -0.127402 -0.035074 -0.054553 0.095227 0.001763 -0.097429 0.268901 -0.039065 -0.017966 0.037671 0.065243 -0.031674 -0.115547 0.104448 -0.033458 0.275174 -0.043399
191 0.148885 0.001377 -0.062833 -0.020311 -0.029079 -0.064238 -0.024800 -0.087163 -0.020608 0.069838 0.044566 0.018364 -0.029119 -0.000144 -0.161203 -0.174918 -0.030083 -0.144334 0.082992 -0.062356 0.000351 -0.093242 0.095930 -0.101960 -0.176941 0.114486 0.181560 -0.190452 0.163670 -0.087746 0.071097 -0.159061 0.033196 0.025043 0.018185 -0.089346 0.150052 0.028221 0.322602 -0.087283 0.104292 0.044576 0.210524 0.012199 -0.124139 -0.005202 0.101843 -0.015126 -0.035581 -0.173953 -0.063720 -0.126901 0.112865 -0.131014 -0.078076 0.001328 -0.140950 0.113081 0.086015 0.052062 0.023685 -0.048926 0.022222 -0.074047 -0.009742 0.028876 0.158847 0.050744 -0.015784 -0.210450 0.049174 0.057097 -0.055059 -0.038338 -0.084351 -0.147529 0.124977 -0.004957 -0.004563 0.069392 -0.044846 0.007992 0.029103 0.126208 -0.028492 -0.057254 -0.145641 -0.019701 -0.008210 0.123378 0.088012 0.163872 -0.170199 -0.152809 0.107958 -0.117405 0.075201 -0.107941 -0.046107 -0.091038 0.113754 -0.000965 -0.067034 -0.091692 0.018760 0.111280 -0.071777 0.073517 0.110639 -0.026171 -0.114637 -0.073405 -0.014053 0.022167 0.041147 -0.079166 0.091680 0.099684 0.207466 -0.049763 -0.198360 0.102102 -0.086499 -0.067245 0.004751 0.073682 0.207532 -0.112646
285 0.083161 0.057351 -0.003244 -0.137959 0.043696 0.021555 0.082248 -0.078956 -0.136247 0.068855 0.193478 0.075215 0.062014 -0.009293 -0.149929 -0.080482 0.112740 -0.145168 -0.050143 -0.088373 0.113657 0.033652 0.081607 -0.118856 0.076203 0.040217 0.040368 -0.074097 -0.003927 0.160628 -0.019479 -0.008354 -0.006264 -0.111775 -0.098667 0.060538 -0.031848 0.200942 0.239809 -0.073104 -0.057092 0.202334 -0.005187 -0.019925 0.072355 -0.082207 -0.051836 -0.130306 0.093393 -0.052500 0.176202 -0.141013 0.041770 -0.018108 -0.031425 -0.079105 0.017967 0.163524 -0.069856 -0.022602 0.188592 0.020175 -0.195301 -0.095878 0.017112 0.062391 -0.037184 0.047801 -0.167267 -0.032383 0.189333 -0.130728 -0.130245 0.086665 -0.010743 -0.176919 0.154655 -0.157220 0.259745 -0.178751 0.129854 0.059386 -0.063319 0.043301 -0.159497 0.052061 0.085607 -0.050611 0.044017 0.054570 0.101882 0.207787 -0.116085 -0.023222 0.189929 -0.012810 0.309084 -0.010740 0.111971 0.150030 -0.021210 0.093207 -0.125680 -0.050049 -0.038470 0.260018 0.034773 -0.012323 -0.000451 -0.002104 -0.170330 -0.030225 -0.178719 0.164604 0.093158 -0.086893 -0.071267 -0.089411 0.131697 -0.049802 0.032073 0.024760 0.140819 -0.163602 -0.035873 -0.019762 0.050546 -0.021998
522 -0.063267 0.042853 -0.038996 0.044550 0.057065 0.133876 -0.106905 0.017482 -0.032895 0.024898 0.010773 0.182879 0.222197 -0.037661 0.078842 -0.044660 0.069118 0.120606 0.070791 -0.038485 0.034992 -0.174608 -0.046886 -0.094117 -0.019519 -0.060727 -0.072719 0.005830 -0.010576 -0.131548 -0.078175 -0.046255 0.203545 -0.069121 0.159557 -0.090284 0.053637 0.157390 0.221531 0.070623 0.220089 0.034783 -0.020621 0.039580 0.024081 0.086563 -0.071140 0.164257 0.164682 -0.065767 -0.060904 -0.051263 0.016846 -0.046391 0.014897 -0.001406 0.100359 -0.136411 0.097374 -0.031753 0.085195 -0.020523 -0.026808 0.203539 -0.003277 -0.068559 -0.051173 0.290203 -0.058011 -0.095561 0.007401 -0.084684 0.167012 0.019868 -0.219181 -0.030227 0.010649 -0.094730 0.015901 0.058888 0.171949 -0.097671 0.008274 -0.022289 0.045942 -0.042281 0.023454 -0.095278 -0.027529 0.109053 0.113425 0.086362 -0.193292 0.013396 0.060114 0.136261 0.170305 -0.080935 0.067466 0.096292 -0.108534 0.094371 0.073913 0.162420 0.025255 0.085513 -0.185953 0.029409 0.049378 0.002767 -0.048098 -0.204062 -0.094246 -0.022856 0.037003 0.056433 -0.018774 0.087175 -0.003096 -0.117714 0.045760 -0.050849 0.209754 -0.087566 -0.097028 0.042894 0.161595 -0.086339
684 0.043199 -0.010040 -0.099328 0.048436 0.055231 0.239894 0.014209 -0.068797 -0.302836 -0.025310 -0.193793 0.058849 -0.006830 0.151125 -0.082494 -0.093302 0.125197 -0.040829 0.051096 -0.136298 -0.058465 -0.018917 0.289322 -0.127431 0.120419 -0.032995 0.134015 -0.027519 -0.078868 0.003897 -0.027054 -0.034875 -0.138749 0.040603 -0.048264 0.065844 0.007718 0.187090 0.129729 -0.167641 -0.047090 -0.037802 -0.007996 -0.033116 -0.043119 0.050421 0.032008 0.033843 0.111804 0.029205 0.062690 -0.091080 0.098064 -0.085063 -0.142271 -0.074708 0.014385 -0.152129 0.162944 -0.079804 -0.022452 -0.053635 -0.132756 0.057577 -0.036864 -0.057108 -0.224269 0.078327 -0.019602 -0.012681 -0.012506 -0.154365 -0.088858 -0.066766 0.045946 -0.022451 0.107366 0.052937 0.158784 -0.100851 -0.081077 0.101263 -0.135741 0.113960 -0.089749 0.044221 0.072208 -0.087657 -0.000044 0.074900 0.144609 -0.019882 -0.067061 0.339737 0.045295 -0.117759 0.068657 -0.056032 0.068219 0.109156 -0.004561 0.044543 -0.290717 -0.016606 0.058795 -0.114682 -0.059209 0.000126 0.071766 -0.005838 -0.260854 0.048566 0.067688 0.037120 0.039267 -0.227665 -0.003063 0.033202 -0.081722 0.035650 0.204033 -0.079353 -0.022569 -0.180767 -0.053957 0.036619 0.106957 0.042138
425 -0.059115 0.060303 0.153354 0.010555 -0.068143 0.019214 0.035009 0.117959 -0.080992 0.107723 0.067828 0.039149 0.057186 0.094804 -0.104154 -0.032580 -0.002121 -0.050671 0.116377 -0.038077 -0.165614 -0.188357 0.248733 -0.152083 -0.003262 -0.080149 -0.090847 -0.183429 0.027707 -0.049813 0.136924 -0.019904 0.040238 0.267058 0.105664 -0.019088 -0.029072 0.059226 0.005922 -0.249151 0.186594 0.106723 0.178222 0.073691 0.053860 -0.076001 -0.132234 -0.037070 0.154271 -0.032534 0.040452 0.089284 0.213380 -0.101295 -0.090925 -0.087846 -0.149045 -0.007056 -0.074775 0.057388 0.257796 -0.102903 -0.012993 0.110271 0.045618 -0.110211 0.054215 -0.039594 -0.031321 -0.025714 0.013186 -0.011920 -0.060014 0.161813 0.046317 -0.201578 0.061877 0.078907 -0.121617 -0.066755 0.213089 -0.081944 -0.054914 0.103745 -0.001876 -0.010190 0.179917 -0.172817 0.022127 0.218372 0.224015 0.021798 0.029532 0.018513 0.061482 0.187481 -0.102339 0.070292 -0.271168 0.015158 -0.005904 0.109375 -0.004070 0.010649 0.102798 -0.022741 -0.135923 0.015310 -0.102525 0.145227 -0.233974 -0.060392 0.074252 -0.082015 0.038171 -0.259012 0.086827 0.112983 0.178175 0.031576 -0.117782 0.021277 0.064694 -0.012500 -0.027558 0.127597 -0.051803 -0.012473
216 0.178202 0.227355 0.055992 -0.052869 0.080748 -0.111407 -0.060150 -0.014096 -0.164175 0.082338 -0.016285 0.158515 -0.004281 0.009948 0.097590 -0.081156 -0.061264 0.034938 -0.042101 0.170065 0.024714 0.054088 0.067619 -0.026355 0.105918 -0.016731 0.017524 -0.115038 -0.072749 0.217493 -0.052373 -0.242574 -0.134906 0.165782 0.099361 0.091589 0.172277 0.260240 0.214540 -0.049121 0.013061 0.135906 0.031024 -0.079829 -0.119127 -0.029832 0.042789 -0.078703 0.013119 -0.047009 0.094375 -0.173932 -0.051697 -0.121692 -0.011379 -0.175954 -0.010591 0.066066 -0.144719 0.102916 0.057200 0.068995 0.082861 -0.050945 0.221058 -0.011503 -0.033914 0.107356 -0.181948 0.015534 0.082005 -0.107514 0.062931 -0.013928 -0.047634 -0.036243 0.154964 0.105592 0.060515 -0.087029 0.044037 0.059643 0.030474 0.013476 0.259171 -0.042681 0.098395 -0.021243 -0.098381 0.154360 0.032491 -0.091867 -0.174637 0.075839 0.029006 0.145530 -0.069768 0.180608 -0.047322 -0.186749 -0.039925 0.046703 -0.056434 0.059115 -0.089592 -0.035539 -0.034045 -0.047097 -0.086630 0.103661 -0.020394 -0.092070 -0.127556 -0.031558 -0.157376 -0.073446 0.155004 0.057124 -0.095789 -0.088195 -0.098305 0.030840 0.053422 -0.103272 -0.019993 0.097230 -0.014393 0.028157
213 -0.061445 0.182165 0.077510 -0.105684 0.089816 0.193784 0.053867 0.018258 -0.176138 0.078305 0.040517 0.043333 0.019463 0.007071 0.104247 -0.152898 -0.076171 0.010140 -0.081614 0.136812 -0.127699 -0.079037 0.075232 0.051398 0.071808 0.028119 0.082589 -0.115159 0.268873 -0.085451 0.024081 -0.104196 0.045429 -0.044077 0.090765 -0.005647 -0.031276 0.140401 0.044044 -0.014268 0.098466 0.008845 0.092777 -0.231124 -0.021837 0.106439 0.149649 0.066482 0.051395 -0.128328 0.032310 0.139767 0.031088 0.142347 -0.074475 -0.048646 0.018970 0.080425 -0.085619 -0.051447 0.136881 -0.024474 0.157194 0.002171 -0.019816 -0.078881 -0.101268 0.042249 -0.119549 -0.030818 -0.089623 -0.071854 0.122404 0.128613 -0.037430 -0.038338 0.092989 -0.071413 0.256003 -0.103362 0.066594 0.084447 -0.083979 0.102131 0.114047 0.160848 -0.016607 0.157808 0.085010 -0.033826 0.249408 0.168483 -0.122504 0.112939 0.061651 -0.027111 -0.024135 0.157254 0.001982 -0.050365 0.002573 -0.101440 -0.072037 -0.022450 -0.073339 -0.103485 -0.147252 -0.027864 0.057375 0.073870 -0.356897 -0.137250 0.027271 0.176687 -0.010076 -0.219970 0.087892 0.082560 0.039829 -0.127364 -0.139927 0.026610 0.149793 0.074922 -0.148592 0.088062 0.139799 -0.048378
509 0.092221 0.281744 0.120797 -0.036392 -0.100293 0.103712 0.159638 0.066119 -0.134886 0.058179 -0.027856 -0.003860 0.008187 0.035132 0.127076 -0.151357 -0.028883 -0.005753 0.104468 -0.042263 -0.078102 0.032662 0.145173 -0.013693 -0.044525 0.092858 0.030614 0.107304 -0.050587 0.145072 -0.003384 -0.071432 0.147728 0.022956 0.075640 -0.070130 0.097499 0.206881 0.039170 -0.113624 0.119316 0.051630 0.072278 -0.014684 -0.114093 0.073319 0.075961 0.136325 0.217485 -0.048874 -0.008822 0.018438 0.144711 0.038107 -0.023264 0.052898 0.038262 0.075273 0.135170 0.046976 -0.032169 0.153615 0.120200 0.247326 0.132397 0.052409 0.082300 0.071567 0.001328 -0.031173 0.030288 -0.073516 -0.005600 0.105867 -0.020538 -0.040243 -0.022920 -0.112182 0.129638 -0.078669 -0.019739 0.284193 0.054818 0.011734 0.140688 0.096294 -0.054948 -0.064125 -0.090502 0.031125 0.105898 0.196986 0.002758 0.064480 0.023308 0.054620 0.183403 0.174703 0.094945 -0.142503 -0.026953 0.103968 0.019050 0.075990 0.077937 -0.070523 -0.034470 -0.004687 -0.063516 0.096627 -0.293638 0.088240 -0.151046 0.066345 0.111167 0.009763 0.118670 0.178776 0.116134 0.205584 -0.096745 -0.081390 0.126358 -0.037574 -0.043884 0.013910 0.159201 -0.017906
466 0.012236 -0.003055 -0.030147 -0.067044 0.140674 -0.058915 -0.036495 0.128345 -0.106258 -0.196230 0.125527 0.051393 -0.019614 -0.025463 0.062963 -0.121265 -0.141763 -0.053456 0.100936 0.179452 -0.005516 -0.125604 0.234814 0.020026 0.125311 -0.021654 -0.141203 0.009258 0.153849 -0.027696 0.098210 -0.252533 0.044907 -0.001848 0.076021 0.022917 0.036992 -0.038764 0.206625 -0.067347 -0.012011 0.098012 -0.102193 -0.103100 0.137248 -0.009144 0.096154 -0.151322 -0.024344 -0.229326 0.079979 0.023395 0.017637 -0.255474 0.029639 -0.039066 -0.056571 0.076114 0.129508 -0.028613 0.006673 0.048164 -0.087384 0.020906 0.047944 0.122412 -0.070838 0.127866 -0.107281 -0.208587 0.193373 0.081911 0.125535 0.068033 -0.008504 0.037625 -0.072247 -0.043182 0.146296 0.137706 0.040248 0.185947 0.051438 -0.025221 0.047641 -0.075883 0.025725 -0.017101 0.198745 0.205527 -0.020293 -0.087665 -0.123338 -0.160266 0.038558 0.025846 0.141792 0.139128 -0.186364 -0.127515 -0.000625 0.024342 -0.045192 0.013029 0.021130 0.076715 -0.117853 0.036669 -0.221871 0.019441 -0.212157 -0.164487 -0.259720 0.009644 0.128452 -0.033168 0.083095 0.068230 0.073478 0.105278 0.087891 -0.015226 0.060947 -0.070176 -0.096403 0.050961 0.178145 0.057990
549 0.041725 0.108257 -0.175530 0.084380 0.078958 0.094965 0.113947 0.056046 -0.138637 0.074844 0.157162 0.032061 0.121196 0.135522 -0.080083 -0.152043 -0.005456 0.001277 0.036708 -0.017523 0.073901 0.137181 0.081349 -0.042831 -0.074892 -0.168127 -0.011741 0.131294 0.057222 0.098506 -0.047136 -0.045039 0.023014 -0.013265 -0.072139 -0.030589 -0.192086 0.159064 0.156242 -0.007975 0.070567 0.116661 0.023037 -0.050297 0.079431 0.084515 -0.014341 -0.118552 0.074247 -0.018436 0.064976 0.054644 0.048443 -0.150184 -0.033971 -0.171624 -0.024051 0.081211 -0.011672 -0.184948 -0.041593 0.000824 0.051851 -0.025459 0.031875 0.085770 0.217192 -0.006701 -0.083910 0.002033 -0.031846 0.049370 0.214171 0.205488 0.086442 -0.109796 0.131782 0.002357 0.124945 -0.077226 0.131325 -0.080650 0.024074 0.152555 0.241467 0.011564 0.063981 0.022392 -0.104491 0.025408 0.090052 0.005883 -0.433794 0.105305 -0.051581 -0.039329 0.098741 0.011991 0.150010 -0.065599 0.082263 -0.217503 0.003697 0.207383 0.127935 -0.070444 -0.078734 0.107830 -0.074566 0.042054 -0.081208 -0.122728 -0.164683 0.017768 0.100637 -0.028625 -0.131439 0.161619 0.018536 0.079647 0.123147 0.013249 0.375731 -0.048246 -0.070497 -0.040735 -0.095334 -0.184196
109 0.150539 0.048896 -0.201799 -0.137932 -0.009353 0.266880 -0.075288 -0.067073 -0.048711 0.069754 -0.138044 0.004262 0.018109 0.112148 -0.054803 -0.146708 -0.214243 -0.238705 0.149328 0.111154 0.077035 0.055508 0.191691 -0.270652 -0.081494 -0.198818 0.160585 -0.194576 -0.060298 0.073690 -0.105550 -0.019348 -0.218812 -0.074274 -0.108624 -0.069646 -0.064271 0.287585 0.079626 0.044311 0.056655 0.068445 0.075410 0.036664 -0.056798 0.086698 0.063775 0.209193 -0.103270 0.090995 0.070034 -0.110350 0.024938 -0.190284 -0.118607 0.020773 -0.031748 0.201899 0.068120 -0.148099 -0.032387 0.040720 -0.101269 0.064588 0.006469 -0.110618 -0.036411 0.070260 -0.062398 -0.176257 0.178964 -0.245773 0.145514 -0.023003 -0.058523 -0.059302 0.006363 0.042456 0.141032 -0.117179 0.061368 -0.011377 0.100497 -0.095929 0.188347 0.184399 0.173908 -0.154979 -0.241037 -0.125904 0.181635 -0.032459 -0.085106 0.116032 0.035857 -0.075635 0.078537 -0.071485 -0.095424 -0.061971 0.177031 -0.123568 0.064305 0.064137 0.005053 -0.017313 -0.177991 0.086564 -0.027152 0.081264 -0.044890 0.166861 -0.048754 0.021641 -0.102174 0.120702 0.096099 0.127422 0.017249 0.111046 -0.060766 0.154803 0.194833 0.082282 -0.111394 -0.102878 0.047663 0.063530
175 0.180441 0.280675 -0.177831 0.137260 -0.075355 -0.055271 -0.022261 -0.063674 -0.068295 0.085899 0.101250 0.116023 0.217377 0.039654 0.017882 -0.163022 -0.101647 -0.005993 0.082680 -0.041594 0.147005 0.243661 -0.043442 -0.010083 -0.105196 0.022923 -0.131746 -0.002225 0.073819 0.067598 -0.071237 -0.127716 0.132257 0.125609 0.158836 0.073922 0.123002 0.138833 -0.011956 0.094851 -0.207586 0.167410 0.055660 0.015491 -0.236837 0.007114 0.034833 -0.089906 0.190971 -0.022756 0.031184 0.034576 0.225376 -0.018096 -0.136820 -0.050177 0.061533 0.004935 0.098863 -0.069661 0.015711 0.099078 -0.012288 0.158115 -0.033166 0.005419 0.031001 0.063681 -0.061949 0.053106 0.147626 -0.004648 -0.004086 0.090696 0.099616 0.001632 0.060032 0.031694 -0.075334 -0.066865 -0.045605 0.005638 0.117972 0.101209 0.038140 0.049234 -0.094286 -0.082214 -0.136356 -0.031208 0.098862 -0.037367 -0.197983 0.113465 0.076731 -0.052422 0.009785 -0.153765 0.058444 0.047226 0.000779 0.106801 0.072072 0.110894 0.190055 0.022866 -0.188530 0.053232 -0.141895 0.132687 -0.180788 -0.234326 -0.069058 -0.070333 -0.123967 -0.131166 -0.053582 0.095630 0.254101 -0.012143 -0.048649 -0.209526 0.107573 0.005033 -0.159007 -0.037829 0.140508 -0.107845
617 0.152366 0.132859 -0.006141 -0.011493 0.103227 0.006994 -0.214728 -0.015774 -0.177877 -0.017817 0.008452 -0.075805 0.138313 0.150220 0.161617 0.031557 -0.001025 -0.088040 0.001021 -0.100849 0.066727 0.040307 0.168577 -0.236917 -0.040890 0.040975 0.071115 -0.093407 0.016170 0.003204 -0.041256 -0.216387 -0.000223 -0.026207 0.008784 -0.139341 0.257319 0.106486 0.229147 -0.217036 0.185540 -0.078498 0.132690 -0.145632 -0.042872 -0.111713 0.048532 -0.017366 0.132989 -0.097591 0.105602 -0.000863 -0.043497 0.080610 0.068912 -0.179854 0.007469 0.108990 -0.051575 -0.000868 -0.128258 0.043127 0.108900 0.098934 -0.047062 0.130943 0.012879 0.046664 -0.022779 0.034694 0.075368 -0.005499 0.026547 -0.048062 -0.057606 -0.008476 0.084436 0.043042 0.061276 -0.351463 0.003828 0.047693 -0.081970 -0.031363 0.001596 0.089559 -0.075941 -0.052626 0.132790 0.151353 0.008495 0.041433 -0.128022 0.017359 0.141783 0.117784 0.082562 -0.001221 0.067536 0.020770 -0.016514 0.027420 -0.278835 0.024629 0.127423 -0.066820 0.061805 0.056158 0.044176 0.210577 -0.133315 -0.081264 0.138368 0.084970 -0.155417 0.071784 0.147617 0.119838 0.124448 -0.091774 -0.167939 -0.012133 0.076365 0.111251 -0.147089 0.217872 0.062025 0.053388
279 0.043158 -0.044570 0.043659 -0.031067 -0.097639 0.046690 -0.068831 0.065080 -0.030880 0.167312 -0.008995 0.009380 0.135740 0.005763 0.002233 -0.097574 0.118277 -0.090544 0.125731 -0.083261 0.004476 -0.019601 -0.010570 -0.071893 -0.133703 -0.140029 0.115893 -0.025805 -0.058695 -0.023849 -0.018723 -0.133543 -0.108767 0.123887 -0.045531 0.111958 -0.081618 0.107979 0.138031 -0.041228 0.150824 0.030198 0.158002 -0.168650 0.043848 0.044114 0.086625 0.115073 0.131184 0.130529 -0.038244 -0.005855 0.169069 -0.268285 -0.053790 -0.104643 0.097515 0.094947 0.053700 0.008808 -0.026949 0.226797 -0.069787 0.046072 -0.049302 -0.036458 0.044695 0.111608 -0.156953 -0.036281 0.008839 -0.110970 0.075881 0.045056 -0.120884 -0.167677 0.172843 0.030661 0.019352 0.105246 0.176693 0.053545 -0.027029 -0.162330 -0.029180 0.134996 0.031125 -0.198808 -0.193582 0.116162 0.039118 0.055417 0.037819 0.019479 0.047573 -0.169790 0.252847 0.066708 0.157933 -0.032573 0.102781 0.222110 -0.034596 -0.012921 -0.027682 0.023052 -0.241789 0.210412 -0.233813 -0.011965 -0.059060 0.011205 0.046242 -0.125839 -0.134503 -0.074946 -0.053638 -0.012364 0.104582 -0.060835 0.009251 -0.051927 0.221715 0.005399 0.169909 -0.121152 -0.018552 -0.056276
590 -0.011639 0.011198 0.103673 -0.012112 -0.089421 0.025223 -0.145319 -0.029043 -0.021218 -0.003319 0.030581 -0.077492 0.015223 0.038792 -0.014527 -0.114801 0.060929 0.070234 0.084977 -0.123938 -0.047975 -0.195079 0.079948 -0.113232 0.140577 -0.057961 -0.091434 -0.205219 -0.068203 0.080739 -0.113781 -0.155701 -0.213952 0.020885 0.204439 -0.098727 0.189113 0.090155 0.056040 0.044355 0.267351 0.027776 -0.028170 -0.179420 -0.274023 -0.029565 -0.022980 0.044563 0.251989 -0.094053 0.075805 0.091141 0.002970 -0.029740 0.006708 -0.020261 -0.007117 0.017919 -0.013258 -0.209375 0.086201 0.163066 -0.118639 0.090433 0.072438 0.134540 0.065216 0.168850 0.036882 0.195388 0.083079 -0.108859 0.006907 0.222755 -0.052904 -0.019871 0.024471 -0.109560 0.226407 -0.125610 0.067226 0.302723 0.023005 -0.145223 0.037569 -0.026557 0.014692 -0.026334 -0.114529 0.180144 0.128381 0.036193 -0.189247 -0.029276 -0.058786 0.148355 0.045966 0.007209 -0.111499 -0.087995 -0.027623 0.058336 -0.150653 -0.111442 -0.124384 -0.010656 -0.199559 -0.163536 -0.029689 0.184948 -0.023156 0.188560 -0.035652 0.037315 0.117084 0.044664 0.312094 -0.131445 -0.022956 -0.075900 -0.011455 -0.044029 0.071180 -0.036260 -0.093472 0.282506 0.104491 -0.036852
529 0.181254 0.036482 0.162473 -0.122056 0.110854 0.003661 0.007825 0.167624 -0.221251 -0.069429 -0.040645 0.121872 0.050222 0.029870 -0.093966 -0.001680 -0.065917 -0.071444 -0.048773 -0.025128 -0.032817 0.056617 0.164661 -0.030736 0.082861 -0.138284 -0.020493 -0.046735 -0.030082 0.005048 0.028394 -0.057595 -0.093409 -0.104320 0.135788 0.115280 -0.008805 0.009548 0.079704 -0.092502 0.126743 0.174859 0.060552 0.054543 0.048513 0.133315 0.064015 -0.025020 -0.075121 0.025054 0.107643 -0.089174 0.081249 -0.229359 -0.174752 -0.014810 0.030157 0.028777 -0.168059 0.014265 0.123465 0.104014 0.035473 0.165151 0.128020 0.166211 0.070340 0.167084 0.153000 -0.123164 0.032085 -0.039311 0.226677 -0.036069 -0.113415 -0.067008 0.116334 0.074060 0.100517 0.021777 0.002107 -0.120487 0.065408 -0.115156 -0.060774 0.028586 0.156162 -0.158502 0.018179 -0.166769 0.191415 0.129631 -0.210951 0.059843 0.136087 0.019769 -0.178144 -0.014328 0.007124 0.019677 -0.043415 -0.144570 -0.086602 0.089539 -0.121746 -0.105672 -0.008548 -0.041298 0.014729 0.028296 -0.247325 -0.145967 -0.178323 0.155028 -0.056520 -0.070188 0.006976 -0.078847 0.204331 -0.032293 -0.029372 0.096769 0.145547 -0.078601 -0.142907 0.056530 0.057143 -0.214813
22 -0.120700 0.094133 -0.161073 -0.044416 0.009915 -0.048766 0.097969 -0.102987 -0.027204 -0.215440 -0.024570 -0.122425 0.082095 -0.051726 0.194561 -0.077304 0.033415 0.009967 0.113590 -0.061699 0.031828 0.100617 0.086027 -0.106814 0.098305 -0.229609 -0.177827 -0.225242 -0.009400 -0.123614 -0.032303 -0.320541 -0.183776 -0.001628 0.003733 0.190118 -0.042168 0.109496 0.173632 -0.019291 -0.115441 -0.184756 0.205589 -0.003243 -0.037215 -0.131394 0.009753 0.169615 0.074912 -0.192912 0.048388 0.015051 0.004574 0.086132 -0.023653 -0.357612 -0.022444 -0.009230 -0.106059 -0.050208 0.119734 -0.077869 0.055588 -0.000007 0.264043 -0.121419 -0.082122 0.117441 -0.068590 -0.090859 0.066273 -0.181239 -0.043047 0.147888 0.150296 0.072257 0.034282 -0.012800 0.016911 -0.076653 0.186914 -0.095317 -0.061012 0.027200 -0.021632 -0.058130 0.026764 0.052401 -0.083724 0.047749 0.204509 0.039693 -0.077007 0.006854 -0.016823 -0.054044 0.017224 -0.048040 -0.013349 -0.147725 0.096579 -0.059144 0.093457 0.244106 0.004672 -0.040977 -0.074799 0.112661 -0.078867 -0.067514 -0.074972 0.125425 -0.027213 -0.082020 0.191389 -0.022123 -0.070216 -0.059597 0.074287 -0.071545 -0.033647 -0.166730 0.151644 -0.122874 0.043758 0.147766 0.196505 0.012146
132 -0.021456 0.083116 -0.061014 0.110218 0.067687 0.137325 0.082694 0.181891 -0.192415 -0.009673 0.070077 0.031920 -0.054787 0.115665 -0.253082 -0.224338 -0.030563 -0.023734 0.154875 -0.004515 0.016231 0.011205 0.094205 -0.075787 -0.140475 -0.113289 0.003821 -0.031930 0.045295 0.010506 0.001037 -0.098570 0.015664 -0.013732 0.088848 0.090007 0.001935 0.063505 0.081683 -0.210848 0.085157 0.145307 0.265092 0.095193 -0.047998 0.131543 0.097275 0.133827 0.234874 0.037193 0.033104 -0.198062 0.093580 -0.165662 -0.089512 -0.034905 0.052829 0.011717 0.018155 -0.177154 -0.087373 0.097501 0.099163 0.152630 -0.177596 0.348643 -0.092088 -0.080877 0.090638 -0.112044 -0.003411 0.054678 -0.082314 0.065866 -0.071017 -0.021724 0.035465 -0.114305 0.069328 -0.144257 0.144605 -0.021000 -0.039616 -0.046859 0.096590 0.020122 0.070740 0.013165 0.017184 0.202566 0.065305 0.215430 -0.064846 -0.109938 -0.093163 -0.148576 0.134279 0.018806 -0.003273 -0.014667 -0.035500 -0.070479 -0.115458 0.113659 0.052148 -0.243300 -0.085085 0.035121 -0.195558 0.095243 -0.159169 -0.065357 -0.115874 -0.139839 0.020464 0.029639 0.079060 -0.131918 0.105136 0.208102 -0.026864 0.069450 -0.030952 -0.101164 -0.030084 -0.032240 0.055616 -0.092630
669 0.022247 -0.094274 -0.166282 -0.057063 0.072814 0.088402 0.069537 -0.035548 -0.124143 0.136998 0.125431 0.154876 0.141287 -0.143156 0.090248 -0.121444 0.048140 -0.075359 0.044892 -0.197056 0.012303 -0.154641 0.258274 0.016332 0.017931 -0.125350 0.019908 0.099205 0.043857 0.083286 0.059386 -0.204329 -0.076297 -0.046720 0.171397 -0.159676 0.075792 0.116281 0.146453 -0.194934 -0.006703 0.086748 0.249978 -0.131995 -0.146329 0.118849 -0.063132 -0.166230 0.088407 -0.157087 0.122081 -0.033819 -0.015795 -0.264509 0.102857 0.019271 0.136827 -0.070433 0.126750 0.112554 -0.087586 -0.123482 -0.152075 -0.057828 0.249139 0.191875 0.082524 0.041683 -0.068870 0.158223 0.115617 0.017932 0.128474 -0.047106 0.033338 0.022147 -0.058429 0.101676 0.011727 -0.082543 0.068528 -0.034199 0.000228 -0.050154 -0.002923 0.121383 0.035544 -0.108724 0.029799 -0.217404 -0.040373 0.096262 -0.039372 0.090676 0.194736 -0.091684 -0.115069 0.077971 -0.215743 -0.120141 0.065890 0.150092 -0.104129 0.228684 0.009616 -0.066601 -0.045825 -0.021235 0.068108 0.086210 -0.021545 -0.008881 0.073951 -0.150634 0.072170 0.090918 -0.141342 -0.092099 0.162827 -0.029670 0.087469 0.040320 0.043622 -0.037689 -0.063539 0.027624 0.127557 -0.074162
575 0.049130 -0.007265 0.105375 0.039039 0.197061 -0.005444 0.028701 0.140952 -0.059763 -0.003764 -0.123332 0.171472 -0.083097 0.210054 0.067178 -0.069073 -0.020114 -0.177517 0.209009 -0.089176 -0.060290 0.048526 -0.164888 -0.047805 0.008684 0.030401 0.000414 -0.064583 0.008183 -0.144998 0.051028 -0.235700 -0.053040 0.015897 -0.038101 0.073840 0.121481 0.069032 0.117891 -0.317995 0.101074 0.166640 0.234519 -0.022532 0.000748 0.062845 0.043517 0.036033 0.038000 -0.002191 0.024266 0.032069 0.125168 -0.047426 -0.071265 -0.238102 -0.063724 0.132685 0.034879 -0.114020 0.196762 -0.124069 0.080429 -0.049727 0.034354 0.100007 -0.175465 0.071711 -0.249240 0.057042 0.159540 -0.091150 0.066029 0.128572 -0.268009 -0.043646 0.152529 -0.048373 0.134847 -0.025457 0.100529 -0.021519 -0.081541 0.036209 0.046497 0.130854 0.122009 0.060219 -0.119934 0.060807 -0.061802 -0.021069 -0.076875 0.070924 -0.033742 0.042716 0.083061 0.025614 -0.182912 0.021654 -0.036349 0.018839 0.041901 0.098378 -0.023528 0.128320 -0.096451 -0.031201 -0.107555 -0.063060 -0.088106 0.187955 0.212719 -0.020902 -0.249794 -0.282874 0.084306 -0.073306 -0.104680 0.003881 -0.020935 0.134058 0.101663 -0.047698 0.138220 0.236268 0.056450 0.004875
268 -0.020501 -0.083220 0.126117 -0.104358 0.129579 0.002558 0.099199 -0.003037 -0.077293 0.061738 -0.161440 0.058844 0.472515 -0.030565 0.079486 0.060005 -0.024038 0.047419 0.085090 0.032691 0.077303 -0.036767 0.027711 -0.202165 -0.008592 -0.051469 0.162277 -0.197915 -0.110915 0.075919 -0.159827 -0.069878 0.067887 0.074305 -0.051457 -0.155394 0.071779 0.036814 -0.148261 -0.263590 -0.039443 -0.150830 0.085202 -0.018893 -0.029136 0.111804 -0.087040 0.103539 0.110303 0.019321 -0.052285 -0.112520 0.187279 -0.050028 -0.019643 -0.077568 0.054341 0.061911 0.202709 0.108239 -0.081414 0.081243 -0.042531 0.105301 -0.056460 0.275044 -0.052495 0.089659 -0.146758 0.007509 0.110181 0.014449 0.105515 0.043647 0.003627 -0.158519 0.106908 0.072071 0.129709 -0.082069 0.090847 0.030600 -0.086664 0.081624 0.070913 0.035850 0.030690 0.159159 -0.027411 -0.005301 0.146318 0.101683 -0.094836 0.018966 0.013919 0.202481 0.131770 -0.027842 -0.081096 0.099278 -0.063289 -0.105945 -0.159976 0.070736 0.081513 -0.274034 -0.264291 -0.148330 0.014846 0.034340 -0.130303 -0.256841 -0.043139 0.142387 -0.024732 0.066435 0.159764 0.032296 0.185375 0.046382 -0.099553 -0.053089 0.070774 -0.086575 -0.066296 0.043809 0.146340 -0.003539
730 0.104522 0.120403 0.022813 -0.068608 -0.062537 0.023192 0.068554 -0.153235 -0.189972 0.361661 0.076478 0.011868 0.265016 0.183502 0.089047 0.098140 -0.060609 0.042974 0.016744 -0.042822 0.051104 0.013297 -0.167790 0.061475 0.085823 -0.087069 -0.196814 -0.034950 0.173483 0.142516 0.063177 -0.013558 -0.014130 -0.191246 0.134062 -0.040444 0.190105 0.103939 -0.104555 -0.188651 0.098277 -0.021364 0.048738 -0.255792 -0.059498 -0.060708 -0.044805 0.060957 -0.113656 -0.056134 -0.003858 -0.018370 0.165830 0.212997 0.077647 -0.175532 -0.112719 0.150278 -0.069501 0.075672 -0.003142 0.138739 -0.100816 0.078810 0.079276 -0.003191 0.108505 0.074875 -0.164458 -0.188261 0.153702 -0.118245 0.110064 0.043574 -0.196139 -0.073416 -0.114321 -0.110926 -0.017759 -0.040574 0.021703 -0.073571 -0.099260 -0.011059 -0.019933 0.171576 -0.007610 0.187318 -0.100090 0.095873 -0.087329 -0.045382 -0.079309 0.057180 0.121585 -0.159587 0.027428 0.015129 -0.149646 -0.007130 -0.120134 -0.117960 0.020205 0.103416 -0.017047 0.057101 0.014124 0.173568 -0.090339 -0.008734 -0.121539 -0.087252 -0.012817 -0.220249 0.010182 -0.041285 -0.032721 0.105871 -0.040022 -0.099335 -0.050523 -0.128498 0.052145 0.005272 0.168738 0.015512 0.060642 -0.116790
363 0.081560 0.147709 -0.092435 0.049911 -0.143364 0.103633 0.039322 -0.020005 0.059562 0.024168 0.072955 0.228134 0.044194 0.004776 0.123244 -0.011039 0.094801 0.118920 0.073141 0.120505 0.060471 -0.000886 -0.308721 -0.100011 0.111456 0.024838 -0.028255 -0.145970 0.161786 -0.074775 -0.074448 -0.084472 0.004634 -0.158646 -0.097929 0.007305 -0.023990 -0.085411 0.204160 -0.237849 -0.111938 -0.011044 0.144604 -0.188679 -0.088647 0.251301 -0.162872 0.147295 -0.159897 -0.104696 0.079094 -0.042723 0.172649 -0.161538 0.100576 -0.077272 -0.206240 -0.149057 0.147765 -0.045260 -0.006105 0.110928 0.033783 0.026229 0.009567 -0.042875 0.032650 0.070913 -0.272605 -0.085721 0.095946 0.139155 0.092977 0.022008 0.070032 0.013732 0.251113 0.053062 0.099681 -0.025123 -0.023820 -0.038556 0.137891 0.098946 0.110277 -0.126289 -0.037759 -0.026091 -0.046559 0.067514 0.140951 0.022056 -0.149218 -0.123004 -0.006251 0.026333 0.094158 -0.027224 -0.099057 -0.108756 -0.179196 -0.098828 -0.098711 0.275976 -0.049473 -0.008972 -0.039405 -0.010509 0.036722 0.150532 0.100054 -0.077493 0.165230 0.059767 -0.014925 -0.225734 0.103942 0.012000 0.052645 -0.072451 0.175863 -0.039586 0.059408 -0.082822 -0.033386 0.045069 0.139145 -0.027103
393 -0.039207 0.116754 -0.040221 -0.014532 0.289282 0.097921 0.077679 0.128826 -0.076550 0.019218 -0.017638 -0.011732 -0.020438 0.125789 0.155002 0.013537 -0.253359 0.022992 -0.088021 -0.039419 0.030457 -0.089123 0.097339 -0.215516 -0.020059 0.035213 0.124910 0.008823 0.041528 -0.020733 -0.040793 -0.052111 -0.067669 0.025944 0.132401 -0.160380 0.027203 0.165263 0.143455 0.005565 0.121156 0.187224 0.216447 -0.099726 0.023271 0.026312 -0.124282 0.050868 0.001006 -0.056761 0.005691 0.196598 0.203291 -0.198054 -0.041804 -0.052792 -0.026082 0.039020 0.007868 -0.034836 -0.048114 0.159681 -0.011190 0.097567 -0.071480 0.053933 -0.187531 0.211882 0.160420 -0.157722 0.034959 0.084054 -0.074721 0.169235 -0.096412 -0.033000 0.067573 -0.050688 -0.166971 0.030881 0.105948 -0.042220 0.059721 0.040349 -0.032351 -0.071547 0.054901 -0.063549 -0.029969 0.147350 0.098513 0.065956 -0.136919 0.097558 0.053419 0.032119 0.062364 0.090553 -0.108349 -0.032658 -0.082473 -0.209170 -0.030466 0.029373 0.059824 0.075299 -0.019669 0.072929 -0.111296 0.208106 -0.182759 -0.060839 -0.055837 0.044150 0.003646 -0.036333 0.061916 0.008089 0.099241 0.104853 -0.006223 -0.032727 -0.062011 -0.128951 -0.012685 0.135671 -0.034167 -0.103801
56 0.155272 0.091956 -0.111225 -0.049621 0.144328 -0.043531 0.025331 0.076109 -0.235139 0.151858 -0.089560 0.219104 0.143358 0.061186 0.047158 -0.252771 0.163169 -0.072583 0.130684 -0.085739 0.086542 0.086733 0.033629 -0.031501 0.044816 0.071226 -0.047139 0.033060 0.108247 -0.221089 0.075544 -0.028141 -0.019234 -0.139669 0.059948 0.134158 0.030611 0.283280 0.014211 -0.121275 0.066558 -0.046904 0.099481 0.037707 -0.095984 -0.083718 -0.114878 0.017826 0.150363 0.015929 0.061034 0.088939 -0.001235 -0.090394 -0.061028 -0.012490 -0.086006 0.101733 -0.106017 0.033352 0.021734 0.234791 -0.046966 0.058417 -0.030014 0.138736 0.074798 0.157580 0.214745 0.039938 0.067379 -0.282977 0.007939 0.273208 -0.001314 -0.177954 0.038656 -0.182339 0.042312 0.152707 0.162034 0.014511 0.081325 -0.011186 0.043366 0.010279 0.264872 -0.042202 0.019730 0.180847 0.112919 0.001404 -0.105420 -0.139980 0.081562 0.218437 -0.018453 0.170675 -0.072212 -0.062422 0.013737 0.013545 -0.078218 0.097504 0.065817 0.056924 -0.122987 -0.128636 -0.031025 0.031777 -0.045779 -0.004454 0.046818 0.078056 -0.100872 -0.238272 -0.050664 -0.088613 0.211618 -0.100442 0.052233 0.045737 0.252539 -0.044017 0.014392 -0.051502 0.107359 -0.042568
31 -0.095779 0.163969 -0.084447 0.011339 -0.038997 -0.042616 0.046481 -0.096763 0.163244 -0.040954 0.004013 0.119151 0.013387 -0.110662 0.083928 -0.068028 0.120446 0.034289 0.117721 -0.030826 -0.143522 0.047183 -0.069737 0.008014 -0.050151 -0.027560 -0.006741 0.011676 -0.004651 -0.040624 -0.161249 -0.097573 -0.190425 0.094966 -0.186206 -0.126474 0.019185 0.152137 -0.009021 -0.232909 -0.061601 0.019056 0.121237 -0.072519 -0.243052 0.020853 -0.257511 -0.133659 0.273915 -0.071819 -0.055217 -0.110159 -0.002842 -0.152908 0.022354 -0.045483 0.117154 0.154251 0.264467 -0.002993 0.070325 0.166726 0.131224 -0.002576 -0.045156 -0.041511 -0.120114 0.142566 -0.104180 0.031031 0.136864 0.019014 -0.026396 0.086685 -0.062047 0.008903 0.132922 0.070998 -0.239298 0.026092 0.039677 -0.262489 -0.053955 -0.126401 0.068677 -0.023759 -0.113263 -0.061832 -0.179465 -0.074308 0.051250 0.209573 -0.206623 -0.021212 0.015671 0.165932 0.030375 -0.030665 0.094661 -0.180783 -0.039551 -0.165194 -0.159948 0.090763 -0.022817 0.260562 -0.241710 0.216334 -0.039346 0.034875 -0.165064 -0.077338 0.051604 -0.013153 0.032648 -0.155386 -0.110004 0.016596 0.109115 -0.073861 -0.029986 -0.112347 -0.002176 -0.146309 -0.108600 0.161672 -0.058912 -0.043074
261 -0.028967 0.092308 0.157946 -0.189264 0.062067 -0.050242 0.018020 -0.127675 -0.021925 0.109502 0.199877 -0.000288 0.068880 0.088209 0.084282 0.033731 -0.121524 0.026975 0.102712 -0.097788 0.026523 0.117915 0.127917 -0.099180 0.038352 -0.025290 0.352379 -0.029788 0.015047 0.148801 -0.021933 -0.152861 -0.054818 -0.024590 -0.062272 -0.111348 0.076934 -0.023988 0.203787 -0.223404 0.087703 0.100175 -0.087852 -0.018828 -0.128444 -0.026505 -0.058211 -0.105662 0.115761 0.031003 -0.019988 -0.006820 0.077750 -0.191483 -0.082957 0.016775 -0.048056 0.185684 0.046811 -0.040045 0.101556 0.048288 -0.117119 0.081986 0.062979 -0.093783 -0.040653 0.134708 -0.192725 0.063846 0.065356 0.187869 0.112720 -0.043569 -0.031851 -0.099606 0.046669 -0.103670 0.261325 0.121666 0.069942 -0.076720 -0.192727 -0.002279 -0.034224 0.067748 0.091656 -0.009796 -0.247084 -0.079218 0.143956 -0.166630 -0.078609 0.034372 0.128367 -0.147808 -0.033423 0.149637 -0.036584 0.004016 -0.153367 0.198115 0.087947 0.137684 0.028984 0.160961 -0.108426 -0.027647 0.026866 0.104792 -0.168325 -0.121765 0.011097 -0.015908 -0.026028 -0.274510 -0.017562 0.044455 0.113631 0.034376 -0.115536 0.060552 0.012527 -0.289602 -0.113064 0.196128 0.160611 0.125618
587 0.051410 0.023871 -0.062759 -0.039969 0.005157 0.158896 0.168132 -0.163702 0.088436 0.086147 -0.149008 0.106957 0.311691 -0.001840 0.183124 -0.191138 -0.102298 -0.166139 0.032657 0.063271 -0.183707 -0.052940 0.109156 0.104865 0.032937 0.211422 -0.081709 0.160249 0.133376 0.115075 0.004040 -0.052985 -0.157141 0.079651 0.142902 -0.092095 0.003959 -0.054571 0.126901 -0.009787 -0.132662 -0.046403 -0.123533 -0.028436 -0.005028 0.072302 0.036770 -0.203709 0.078522 -0.057323 -0.076011 0.038902 -0.067748 -0.261675 0.037274 -0.038993 -0.103796 0.005789 0.134026 -0.046670 -0.007485 -0.000044 -0.055889 -0.012656 0.119041 0.064500 -0.067406 0.154696 -0.060951 -0.061557 -0.021062 -0.106568 0.123344 -0.136327 -0.032271 0.036196 -0.094272 0.108313 0.072965 -0.114018 0.316887 0.077023 0.003349 0.289668 -0.033261 -0.054225 -0.252534 0.113553 -0.065525 -0.117077 0.075655 0.199763 -0.201139 -0.070129 0.007145 0.116944 0.168062 0.146881 -0.222661 0.084009 0.119133 -0.057742 -0.258018 0.264130 0.095330 0.071316 -0.051503 -0.016325 -0.169406 -0.149651 -0.369262 -0.131667 -0.004569 -0.049143 0.055537 0.094746 0.015086 0.003489 0.067063 -0.226604 -0.046703 0.082231 0.161857 -0.069250 -0.060192 0.014032 0.242207 0.114916
562 -0.162829 -0.020982 -0.021022 -0.115212 -0.064013 0.030012 0.161958 -0.346825 -0.082445 0.153513 0.093170 0.007734 0.060803 0.084101 -0.147169 0.000673 0.030591 0.030055 -0.055338 -0.103408 -0.102508 -0.228393 0.230582 -0.130308 0.137171 -0.082132 0.107985 0.034283 0.048515 -0.003463 0.063465 -0.104519 0.102333 0.037615 -0.031911 -0.102191 0.044089 0.120378 0.098393 -0.001404 0.113441 -0.044231 -0.032968 -0.131359 -0.117863 -0.109975 -0.009354 0.054120 -0.047133 -0.209622 -0.012475 0.065734 0.065903 -0.013727 -0.166149 -0.085153 -0.123886 0.041419 0.219838 -0.048910 0.113011 0.100964 -0.017603 0.039252 0.030022 -0.167458 -0.212806 0.068978 0.150172 -0.054064 0.268416 0.005493 0.178761 -0.034253 -0.130005 -0.111587 0.202479 -0.016037 0.197784 -0.077288 0.162580 0.032613 -0.114400 0.145139 0.160969 0.065990 0.029534 0.091863 0.153367 0.100689 0.079149 -0.057942 -0.340400 -0.053255 -0.109491 0.034982 0.154024 0.038381 0.063954 -0.122271 -0.098759 -0.135663 -0.007583 0.121751 -0.114185 0.027109 -0.129764 0.073696 -0.114873 0.225444 -0.043403 -0.054477 -0.196141 -0.186730 0.000062 -0.084263 0.044664 0.030443 0.086380 0.024401 -0.023037 0.136696 -0.018906 0.061266 0.114538 0.125571 0.118209 0.013099
242 0.184858 0.091854 -0.043700 0.215678 -0.194218 -0.102067 -0.071900 0.152417 -0.080527 -0.016331 0.049795 0.063538 0.235328 0.154268 0.116752 0.073263 -0.069075 -0.098970 0.002768 -0.012998 0.090032 -0.065904 0.052019 -0.127463 0.176518 0.086092 -0.066693 -0.060526 0.128769 0.147905 -0.014631 -0.176084 -0.074127 -0.098731 0.118901 -0.011579 0.024840 -0.028952 0.073013 0.079288 -0.088306 0.018215 0.167973 -0.079994 -0.151333 -0.096546 -0.107301 -0.030075 0.014685 0.047935 0.041546 0.245480 0.175437 -0.096923 -0.004566 -0.051037 0.073056 0.021155 0.007573 -0.087772 0.034341 0.012590 0.049604 -0.015352 0.012256 0.021426 -0.226860 0.008514 -0.066690 -0.091571 0.181560 -0.234219 0.168477 0.265118 -0.061470 -0.218811 0.072111 -0.007384 0.013163 -0.030678 0.100707 -0.132560 0.021676 0.048889 -0.010649 0.009897 -0.019540 -0.227073 0.152894 0.087905 0.022961 -0.047141 -0.127431 0.150038 0.038694 -0.191702 0.023137 -0.101644 -0.180263 -0.013127 -0.057358 -0.025707 0.058494 0.183345 -0.154108 0.073894 0.032076 0.015059 -0.042686 -0.002654 -0.023783 -0.033229 0.184440 0.053515 -0.022912 -0.225770 0.036416 0.130698 0.119049 0.045097 -0.005251 -0.097544 -0.175412 -0.080428 0.159974 0.047255 0.187795 0.097020
490 -0.172399 0.239630 -0.090890 0.089020 -0.028498 0.109186 0.049671 -0.040958 0.002961 0.127546 -0.098127 0.058377 -0.011329 0.171370 0.163875 -0.037344 -0.080459 -0.183633 0.201819 -0.102367 0.071800 -0.025186 -0.035228 0.014388 0.120794 -0.095231 0.075611 -0.018005 -0.035334 -0.111919 -0.156140 -0.252146 -0.312375 0.007560 0.072404 0.014304 -0.002241 -0.026275 0.089351 -0.067658 -0.082356 -0.063181 -0.028265 -0.032049 -0.013238 0.134585 0.000781 0.051025 0.027278 -0.000577 -0.118860 -0.193148 0.189049 -0.122288 0.115148 -0.056872 0.179154 -0.094194 -0.008342 -0.041106 -0.065586 0.052619 0.091639 0.073358 0.058495 0.097745 -0.057631 -0.047002 -0.305598 -0.083205 0.049335 0.001502 -0.042109 0.009827 0.035461 -0.056431 0.112334 0.096764 -0.133462 -0.188297 0.196293 0.105081 -0.008308 -0.079239 -0.119843 0.025491 0.150360 -0.154345 -0.006815 -0.026950 -0.074089 -0.153350 -0.048058 0.066448 0.026395 0.004446 0.054450 0.071123 -0.079697 0.079498 -0.029930 -0.143215 -0.066738 0.031409 0.151661 0.223758 -0.243637 0.041567 -0.035871 -0.064992 -0.255411 0.002848 -0.036644 -0.051167 0.011876 -0.064020 0.061230 -0.039274 0.070175 -0.021333 0.069313 -0.095015 0.007398 -0.023941 0.027567 0.306835 0.247636 -0.011398
116 0.143107 0.110488 -0.137135 -0.018800 -0.007670 0.179293 0.061037 0.053634 -0.037372 -0.107509 0.217995 0.022652 0.097592 0.102466 -0.102988 0.126445 0.042045 0.027140 0.103575 0.029554 0.029112 0.119044 -0.104652 -0.113753 0.106070 -0.355657 0.053564 -0.201786 0.065131 -0.164093 0.149417 -0.041443 -0.132279 0.030750 -0.000681 0.195861 -0.004537 0.158998 0.049194 -0.166243 0.010150 -0.066719 -0.050408 -0.095237 -0.003304 0.076390 0.137858 -0.040948 -0.118098 -0.073759 0.049313 0.204663 0.057343 -0.127870 0.085366 -0.171182 -0.334902 -0.057618 -0.128750 -0.079755 -0.017345 -0.000064 -0.024280 -0.030882 -0.235889 -0.036524 -0.083155 -0.009445 -0.100336 0.032304 -0.106104 0.025135 -0.110053 0.158112 -0.246716 -0.002810 0.233614 0.031010 0.256380 -0.084228 -0.000647 0.012559 0.029498 -0.074158 -0.017208 0.130846 -0.037851 0.042324 -0.157722 0.096602 -0.006083 0.100485 -0.213703 0.010205 0.045137 0.053779 0.102749 -0.128663 0.030258 0.058393 -0.005583 0.003092 -0.189831 0.106441 0.152969 -0.013764 -0.174361 0.041900 -0.090690 0.059464 -0.064437 -0.059544 -0.065538 -0.174973 0.019036 -0.102525 0.103078 0.102804 0.131380 -0.077325 0.172491 0.061535 -0.062870 -0.172039 -0.044161 -0.074882 0.139317 0.024647
510 0.040795 0.023904 0.036366 -0.027164 0.109517 0.047046 0.063615 -0.096178 0.164506 0.079733 0.041302 0.116906 0.083969 -0.114828 0.039552 0.079489 0.089884 -0.052704 0.054751 -0.067418 0.040520 -0.010290 0.120698 -0.011143 0.174010 0.003544 0.053612 0.001660 -0.092993 -0.284597 0.016268 -0.074886 0.010273 -0.013777 0.086080 -0.004527 -0.028148 0.044174 0.135728 -0.053908 -0.060640 0.109625 0.213049 0.161941 -0.074991 0.001475 0.115009 0.082024 -0.055003 -0.080995 -0.031220 0.011338 0.068950 -0.131166 -0.053462 -0.078952 0.118542 -0.065912 0.061699 0.011731 -0.049531 0.118344 0.184221 0.017535 0.234515 0.017520 -0.090520 0.210471 -0.181793 0.006642 -0.054215 -0.135274 0.096555 -0.139549 0.185030 -0.039658 0.075557 0.179483 0.170656 -0.275996 0.002002 -0.071969 0.018591 0.086661 -0.052322 -0.007745 0.069185 0.025119 -0.139660 0.069251 0.123263 0.204251 -0.233377 0.272932 0.067598 0.122492 -0.018213 0.018901 0.118520 0.010934 -0.095258 0.092046 0.059117 0.294657 0.204276 -0.083498 0.135600 -0.000390 -0.018481 0.066043 -0.196279 -0.032830 -0.211053 -0.055014 -0.035819 -0.139057 0.038468 -0.057653 0.184398 0.018127 -0.009379 -0.037662 0.187950 0.000193 -0.072096 0.010493 0.253337 -0.256899
196 0.107148 0.063248 -0.050044 0.210319 -0.085671 0.022183 -0.006398 0.101739 -0.177328 -0.046210 0.162421 0.058400 0.110162 -0.022814 -0.163715 -0.160829 0.019711 -0.040084 -0.250295 -0.091751 -0.142215 0.058341 0.035302 0.000085 0.079661 -0.119967 -0.109602 -0.023177 -0.095725 0.017095 -0.006632 -0.103840 -0.024877 0.037350 0.136409 0.027592 -0.066053 -0.035814 0.069703 0.049105 0.045797 -0.080201 0.021574 -0.236855 0.012733 0.033662 0.079590 0.020597 0.046363 -0.014156 -0.033534 0.090107 0.151580 -0.030522 -0.086114 -0.013707 0.055434 0.026367 0.118457 0.119149 0.015061 0.034535 -0.126110 0.144562 0.081437 0.040081 -0.041572 -0.149348 -0.036449 -0.040134 0.013827 0.091820 0.105854 0.025406 0.268848 -0.057351 0.011349 0.047145 0.162039 -0.057742 0.037809 -0.105524 -0.041203 0.277620 -0.248789 0.108483 -0.129650 0.098194 -0.102483 0.371572 -0.066678 0.169817 -0.196948 0.113696 0.189367 0.023677 -0.121677 0.158730 0.183481 -0.195320 0.152340 0.062045 0.050874 0.314828 0.119898 0.048600 -0.193728 0.219463 -0.050540 0.136203 -0.035506 0.085196 0.004640 0.002030 -0.105778 -0.107255 -0.076438 0.250816 -0.012859 0.042859 -0.091133 -0.076894 -0.025362 -0.164041 0.070097 -0.002247 0.003967 0.009439
627 -0.069547 0.010037 0.148977 0.051057 -0.030173 0.018431 0.145233 -0.080494 -0.095024 0.056302 -0.050591 -0.039818 0.043733 0.066847 -0.033220 -0.045512 0.191500 -0.119291 0.224127 -0.068209 0.038092 0.043781 -0.250545 -0.274563 0.051164 0.017740 0.064596 0.078496 0.021260 -0.002424 0.126975 -0.072621 0.043097 -0.189461 0.266670 0.039101 0.138957 0.100784 0.258181 -0.197326 0.033339 0.022004 0.163154 -0.164022 0.045284 -0.192368 -0.158018 -0.101351 0.207650 -0.044220 0.203439 -0.057335 -0.090806 -0.118454 -0.011041 0.013595 0.081681 0.083739 0.104378 -0.035808 -0.015575 -0.088516 0.093796 0.037072 -0.187401 0.097549 -0.041757 0.219996 0.033220 -0.125167 0.115385 0.186852 0.129685 -0.021475 0.069293 -0.160024 0.022796 -0.061201 0.025103 0.108268 0.134723 -0.003858 0.025890 -0.054712 0.046380 0.267639 -0.096536 -0.107748 0.002075 -0.143336 0.070527 -0.013396 -0.226429 -0.164562 -0.071793 -0.201387 0.038777 -0.060961 -0.045353 0.063302 -0.099414 -0.153087 -0.260592 0.139744 -0.145180 0.180850 -0.107926 0.014152 -0.041574 0.153689 -0.165025 0.007525 -0.190484 0.027587 0.034876 0.045266 0.060526 0.133369 0.133766 -0.085611 -0.059843 -0.232538 -0.068820 -0.080208 -0.167126 0.009539 0.005641 0.002295
438 -0.000691 -0.037502 0.024400 0.001805 0.052451 0.111496 -0.034953 0.039290 -0.162141 -0.012429 -0.068366 0.169730 -0.002244 -0.002835 0.066834 -0.181012 0.148213 -0.142157 0.270154 -0.027438 -0.064410 -0.001122 -0.007788 -0.046290 -0.071706 -0.073789 0.016030 -0.063639 0.047627 -0.149652 -0.016183 -0.054217 -0.139863 -0.072852 -0.040408 -0.064262 0.089433 0.089590 -0.043612 -0.182205 -0.061500 0.107678 0.173828 -0.078418 0.022129 -0.030409 -0.113869 -0.110589 0.074397 0.011028 0.060759 -0.236657 -0.119050 -0.236192 0.118562 0.097004 -0.148894 0.011851 0.227892 0.077278 0.012316 0.335001 0.175161 -0.074322 -0.016468 -0.033544 -0.093247 -0.041718 -0.021321 -0.029010 0.136563 -0.029420 0.195515 0.049003 -0.079370 0.118245 -0.094679 -0.123973 0.164682 -0.207167 0.063289 0.000144 -0.155522 0.235913 -0.099606 -0.137312 0.036547 -0.087809 -0.068285 0.026880 0.109423 0.111382 0.048739 0.050512 -0.137302 -0.008919 -0.065550 0.088713 0.022541 -0.193113 0.040735 -0.092558 -0.139403 0.132389 -0.030669 0.186732 -0.349577 0.188662 0.032977 0.010847 -0.117535 -0.082457 -0.000108 -0.068971 0.087896 -0.045117 -0.022185 -0.163596 -0.009515 0.053095 -0.036058 -0.029369 -0.029076 -0.061521 0.026703 0.125687 0.081909 -0.004423
659 0.089350 0.070957 -0.138205 0.086858 -0.012385 0.047509 0.049549 0.110654 -0.059062 -0.031893 0.049758 0.062284 0.041623 -0.172159 -0.076793 -0.007084 0.060734 -0.098728 0.275316 0.061657 0.043032 -0.014542 0.080927 -0.036878 -0.087024 0.059997 0.078613 0.096734 -0.032943 0.000822 0.072665 -0.155371 -0.083989 0.113140 0.028247 0.092221 -0.063774 0.066809 0.157782 -0.013583 0.025013 0.079540 0.006315 0.077265 -0.093054 0.169303 0.018255 -0.096492 -0.043404 -0.098445 0.058661 -0.044416 0.198509 0.090251 0.092405 -0.011168 -0.008337 0.141506 0.101978 -0.106579 -0.136022 0.099312 -0.086879 -0.070805 0.253258 0.145043 -0.084662 0.056457 -0.067690 0.053747 0.044412 -0.131315 0.037764 0.124967 0.098273 -0.234922 0.080547 -0.021781 -0.124711 0.022643 -0.006191 0.144117 -0.053526 0.142919 0.081571 -0.027600 0.218343 -0.027753 0.000431 0.051572 -0.162404 0.040640 0.062387 0.211248 -0.150882 -0.013171 -0.009753 -0.056453 -0.059863 -0.146570 0.168175 0.071423 -0.094019 0.222702 0.028990 0.048558 -0.056061 0.078292 -0.079299 0.055137 -0.096093 -0.102611 -0.153319 0.009083 0.089969 -0.277231 -0.135260 -0.124619 0.089819 -0.293706 0.079824 -0.311089 0.179030 -0.026695 0.011348 0.001538 0.079406 -0.132706
241 0.053047 0.244949 0.046804 0.010631 -0.064225 0.275870 -0.090894 -0.032700 -0.074420 -0.010406 -0.031757 0.162412 -0.018764 0.076567 0.020829 0.002311 0.183808 -0.175372 -0.015280 -0.032906 0.088478 0.175575 0.183276 0.149769 0.017337 -0.260747 0.122240 -0.120870 0.186481 -0.219111 -0.031984 -0.067240 -0.173095 0.105840 0.199545 0.059598 -0.063461 -0.025577 0.060286 -0.136040 -0.017981 0.069920 -0.108890 -0.058329 -0.246398 -0.010236 -0.297093 -0.042025 -0.098284 0.110500 0.173056 -0.203903 0.111390 0.035563 0.020588 0.017566 0.045649 0.112255 0.060142 -0.154542 -0.070199 -0.147210 0.123008 -0.052994 -0.097082 -0.040611 -0.041204 0.159299 0.079031 -0.027871 0.058842 0.032211 0.230017 0.211571 0.050305 -0.150737 0.214481 0.014458 -0.002188 -0.032115 0.237348 -0.060100 -0.001652 0.044861 -0.108814 -0.028750 0.074276 -0.071960 -0.028375 0.067894 0.095729 0.095306 -0.194972 -0.061326 -0.120348 -0.126872 -0.139541 -0.002399 0.066814 -0.050509 0.076628 -0.031914 -0.014393 -0.062032 0.145381 0.063299 -0.163291 0.082001 -0.079390 0.053463 -0.073825 0.124319 -0.125369 -0.024580 -0.016886 -0.064127 0.139193 -0.130589 -0.050882 0.027922 -0.104141 0.115505 0.177369 0.032754 0.061366 0.110873 0.035550 0.018074
643 0.075676 0.012947 -0.069835 -0.067451 0.016321 0.164934 0.050747 0.149659 0.117274 0.260893 0.123426 0.006656 0.092241 0.065442 0.129152 -0.099196 0.141623 -0.166829 -0.079387 0.267943 -0.002653 -0.061836 0.084293 -0.236242 0.050541 0.058971 -0.068131 -0.095114 -0.054464 -0.106611 0.101028 -0.073853 -0.264757 -0.016845 -0.164092 0.041150 -0.031045 -0.067143 0.043628 0.048515 -0.066057 0.151342 0.017850 -0.055009 -0.129690 0.119423 0.099216 -0.209344 0.049272 -0.101644 0.036624 -0.253991 0.231714 0.021474 0.088003 -0.088376 -0.026147 0.120323 0.011535 0.147396 -0.049727 -0.059746 0.078207 -0.009601 0.075052 0.017675 -0.120215 -0.040882 -0.000576 -0.043943 -0.036000 0.030417 0.173555 0.044247 -0.109162 -0.006922 0.085165 -0.036950 -0.167291 -0.122207 0.172814 -0.029864 -0.164438 -0.050683 -0.045996 0.055238 0.056947 -0.154900 0.010789 0.168748 0.099918 0.004489 -0.157366 0.088999 -0.129061 0.043111 0.036925 -0.107122 -0.070845 -0.089100 -0.127039 -0.054394 0.063398 0.200449 0.033468 0.017664 -0.197906 -0.019788 -0.198347 0.076904 -0.224618 -0.016108 0.032040 -0.071107 -0.105947 0.044149 -0.167196 -0.037153 0.094313 0.014586 -0.064247 0.007573 -0.007341 -0.133844 -0.054318 0.059119 0.093616 -0.092230
718 0.139194 0.133774 -0.008523 -0.044338 -0.074164 0.053010 -0.108285 0.062753 -0.259413 0.249909 -0.030919 0.209870 0.217355 0.090924 -0.112797 -0.066807 0.122641 0.015667 0.193971 -0.183280 -0.082688 0.065402 0.062891 -0.169063 -0.105803 -0.041958 0.025710 0.068496 0.094374 -0.115006 -0.004961 -0.166019 -0.061038 0.076097 0.171532 -0.065865 0.157142 0.167023 0.022912 -0.022329 0.072298 -0.022196 0.033584 -0.040919 0.042071 -0.028484 -0.026500 -0.033478 -0.077483 0.035822 -0.091264 -0.110825 -0.014052 -0.128734 0.138921 -0.033052 -0.202750 0.009664 0.062018 0.125912 -0.071045 0.155953 0.010448 0.083286 0.235154 0.140816 0.004534 0.032112 -0.001797 0.086404 0.126024 0.092312 0.267464 -0.110635 -0.026855 0.079751 0.082208 -0.008855 0.159135 0.065095 0.065650 -0.222971 0.038150 0.243986 0.044566 -0.086405 0.008451 -0.045957 -0.072783 0.003690 0.202633 0.013268 -0.205150 0.019139 0.009016 0.075936 0.220345 -0.084952 0.103207 0.192848 -0.073522 0.063103 0.064116 0.080023 -0.137779 0.138730 -0.141460 -0.021058 -0.113123 0.074782 -0.087138 -0.040541 -0.086667 -0.009407 -0.095280 -0.037421 0.099750 0.131771 0.010355 -0.016537 0.069668 0.015634 -0.056559 -0.033311 -0.059243 -0.020121 -0.055192 -0.041787
674 0.060985 0.140277 0.163952 -0.090463 0.027961 0.224911 -0.077687 0.199648 -0.125533 0.163514 -0.025234 0.062932 -0.003755 0.155469 0.122033 -0.097344 -0.010478 -0.118059 -0.013889 0.025217 0.047209 0.061140 0.109620 -0.022153 0.108513 0.092443 -0.045371 -0.043920 0.226112 -0.036332 0.026651 -0.157707 -0.187729 0.053054 -0.102441 -0.159467 0.053153 0.054332 -0.061684 -0.064766 -0.069070 0.017294 -0.025561 -0.058412 0.104651 -0.044487 -0.029469 0.082562 0.123553 -0.260612 0.174311 -0.097996 -0.042741 0.065153 0.148855 -0.084776 0.041635 0.026873 -0.104521 -0.102868 0.121037 0.111410 -0.074781 0.109745 0.188585 0.064324 0.057977 0.060081 -0.139313 -0.068365 0.197688 -0.186305 0.066920 0.164903 -0.177366 0.100247 0.127508 -0.105372 0.264408 -0.128685 0.119071 -0.090484 0.065361 -0.121937 0.066591 0.114141 0.078740 0.102439 -0.022973 0.061700 0.080927 0.122194 -0.295570 0.063082 -0.201657 -0.099338 0.044546 -0.041679 -0.109578 -0.180729 -0.015926 -0.133071 -0.119547 0.095428 0.076133 -0.008205 -0.115176 -0.115292 -0.004826 -0.247817 -0.010593 -0.043928 0.042620 0.007845 -0.190270 0.036344 0.128681 0.073163 0.060393 -0.056091 0.245487 0.124911 0.009345 -0.051657 0.025721 -0.003151 0.059351 0.126256
371 -0.092703 0.008065 0.002154 -0.084585 -0.127230 0.079614 0.117282 -0.054729 -0.163247 0.064947 0.309630 0.156644 0.131023 0.032190 0.044707 -0.118315 -0.066473 0.081936 0.090819 0.050868 -0.013987 -0.089935 0.054763 -0.138442 0.032662 -0.153606 -0.034791 -0.069718 0.001717 0.184498 0.055605 -0.128463 -0.234275 0.089216 0.068362 0.008720 0.004579 0.026403 0.071013 -0.006600 0.034621 0.015441 0.067883 -0.076258 0.054720 -0.103073 0.021163 -0.067990 0.032515 0.092028 0.094627 -0.131652 0.127677 0.048705 0.074826 0.065289 -0.012387 -0.065698 0.063056 -0.025018 -0.050371 0.065937 0.046925 0.049058 0.003990 0.066294 -0.093271 0.017266 -0.024128 -0.205178 0.107445 -0.051181 0.088709 0.016882 -0.008888 0.072850 0.087075 -0.038906 -0.080716 -0.129754 0.175439 -0.150544 -0.097294 -0.159382 -0.073181 0.189062 -0.074988 -0.090866 -0.148041 0.092889 -0.080525 0.171410 -0.009457 -0.156741 -0.016400 0.118765 0.127726 0.029688 0.009908 0.014562 -0.034447 0.230551 -0.008901 0.055021 -0.060352 0.137611 -0.253461 -0.052704 0.155990 0.121359 -0.110054 -0.149828 0.117290 0.023475 0.051225 0.011708 0.011523 0.235990 0.133499 -0.039600 0.103761 0.025471 0.048126 -0.115155 0.190080 0.058517 0.116874 0.104334
208 0.170895 0.009393 -0.026197 -0.082198 -0.031920 0.058920 0.014596 0.150379 -0.057549 0.104823 -0.121464 0.282321 -0.045237 0.095591 -0.148799 0.009698 -0.085853 -0.053506 -0.006266 0.075379 0.038111 0.100325 0.066452 -0.155674 -0.217768 -0.125292 -0.079033 0.149137 0.063501 -0.095216 0.169734 -0.163647 -0.066916 -0.126606 -0.036962 0.032168 0.171459 0.149865 0.209931 -0.133141 -0.085194 -0.057623 0.243424 -0.179794 0.025972 -0.096130 0.090883 -0.050353 -0.016056 -0.060270 0.144855 -0.060440 0.190749 -0.125261 0.155657 0.043859 -0.106736 0.149093 -0.053903 -0.064967 -0.046950 0.031123 -0.199886 0.033376 0.177223 0.213550 -0.065655 0.039883 -0.024388 -0.069770 0.011383 -0.162345 0.019635 0.063865 -0.284794 0.093003 0.054121 -0.006727 0.049079 -0.080128 -0.034606 0.036190 -0.108500 0.089417 -0.032500 0.200909 -0.054815 0.083189 0.076029 0.047488 0.236768 0.020431 -0.050264 0.052834 0.093094 0.050923 0.223102 -0.044144 -0.163310 -0.046688 -0.110160 -0.135462 -0.095914 0.127726 0.017283 -0.024120 0.020961 0.070675 -0.019779 0.021800 0.029013 0.135444 0.004182 0.191948 0.178825 -0.053331 0.034826 0.062600 0.038177 -0.036186 0.051005 0.012436 0.175659 -0.053514 -0.081483 -0.248312 0.008244 -0.044013
637 -0.171513 0.081086 -0.040549 0.065559 -0.112086 0.181408 0.077399 0.010318 -0.066898 -0.079685 0.145768 0.088918 0.058464 -0.069981 0.079818 -0.122218 0.121438 -0.135518 0.171100 0.076018 -0.081702 -0.211833 0.066364 -0.166358 -0.083827 -0.169384 -0.085626 0.010781 -0.050169 -0.025231 0.009382 0.054214 -0.162216 -0.147598 0.069804 -0.093497 -0.119067 -0.088967 -0.003713 -0.147472 -0.075546 -0.081019 0.068650 -0.076276 -0.111214 -0.166864 0.009001 -0.026612 -0.016546 -0.124802 0.051419 0.221102 -0.179476 0.101439 0.052431 -0.118959 0.089709 0.005441 0.006024 0.017599 0.076754 0.270025 -0.098440 0.015375 0.061491 0.146524 0.033654 0.437698 -0.261241 -0.102613 0.189887 -0.113430 -0.045209 0.101193 -0.047376 -0.034064 0.123980 0.028733 0.073651 -0.097201 0.116714 0.118925 0.120455 0.081011 -0.010363 -0.063192 0.012967 0.017559 -0.181225 0.050227 -0.067435 0.013678 -0.094903 0.103656 0.103344 0.144129 0.195213 -0.084135 0.080967 0.182879 -0.000003 -0.119437 -0.035595 0.122034 0.178775 0.008753 -0.089660 0.049439 0.029804 0.167752 -0.024531 -0.129619 -0.125226 -0.204652 -0.002333 -0.237024 -0.131478 -0.331115 0.119449 0.045457 -0.177345 0.226639 0.114018 -0.123653 0.038486 0.053576 0.183698 -0.078632
106 0.074247 0.050990 -0.061729 -0.086232 -0.198701 -0.119827 0.187947 0.120326 -0.210236 0.028199 0.040529 0.355572 -0.056382 -0.021153 0.108625 -0.103090 0.221308 -0.092535 -0.002447 -0.036436 -0.075080 -0.049988 0.027667 -0.234864 0.052593 0.061334 0.057209 -0.092140 0.248295 -0.114122 0.116177 -0.119009 -0.144990 -0.093637 -0.015462 -0.157507 0.006195 0.042905 -0.137403 -0.225498 0.004259 -0.026180 0.026571 -0.178476 -0.099248 0.011942 -0.070004 -0.082624 -0.068085 -0.122011 -0.147091 0.021996 -0.034564 -0.156564 -0.110909 -0.023849 -0.049598 0.034588 0.033344 0.045792 -0.122388 0.135520 0.129483 -0.070561 0.081691 0.055971 -0.143111 0.106173 -0.197379 0.094801 0.042800 0.139542 0.122501 -0.050307 -0.078349 -0.088898 0.123807 -0.110169 0.037456 -0.007560 0.019779 0.014976 0.057650 0.162820 -0.122196 0.035568 -0.007623 -0.073049 0.154283 -0.073051 0.188461 0.116430 0.051011 0.113073 0.166443 0.064254 0.125731 0.128509 0.090286 0.094523 -0.039018 -0.030579 -0.139060 0.225168 0.149268 -0.011674 -0.151468 -0.046511 -0.122617 0.212202 -0.160376 -0.251673 -0.062664 -0.060795 0.008765 -0.021177 -0.131525 0.001856 0.175067 0.014443 -0.170785 -0.009925 0.054875 0.037816 0.173977 0.113799 0.173474 -0.339423
34 0.037722 0.083586 -0.074036 0.124818 0.083215 0.107954 -0.085608 0.025482 -0.211018 -0.043086 0.079183 -0.104997 0.163549 -0.017971 0.049806 -0.117992 0.177262 -0.161022 0.060721 -0.018780 0.277747 0.016579 0.033319 0.016900 0.003778 0.009496 -0.041853 -0.130218 -0.108353 0.125656 -0.197298 -0.084973 0.188397 -0.158146 0.194511 0.001935 0.036435 0.031193 0.007428 -0.186202 -0.098057 0.098910 0.121155 -0.125288 0.030671 -0.099127 -0.124338 0.022902 0.188664 -0.011928 -0.008500 -0.048456 0.162704 -0.180297 -0.073715 -0.030355 -0.127616 -0.023511 0.143710 0.037450 -0.164639 -0.272372 -0.217721 0.033393 0.040662 0.160613 0.062719 0.230019 -0.016460 -0.112068 -0.029488 -0.002073 -0.100903 0.056289 0.026619 -0.009835 0.172684 -0.070508 0.230549 -0.191166 0.138231 -0.051358 0.066806 -0.011819 -0.211329 0.031232 0.031975 -0.018602 0.112892 -0.023711 0.139744 -0.001704 -0.212771 -0.034280 0.113000 -0.050124 0.116500 -0.056424 0.056044 -0.024585 -0.105515 0.059458 -0.148628 0.068949 0.263375 -0.142600 -0.078400 -0.146519 -0.092265 0.157162 -0.044146 -0.137720 -0.253303 0.018538 -0.212111 -0.139224 -0.127892 0.080042 -0.109445 0.108384 0.044749 0.043717 -0.063620 -0.072838 0.135972 -0.086809 0.108007 0.197234
662 0.065527 -0.114889 -0.130077 -0.306475 0.013408 0.102888 -0.032961 0.051894 0.231702 -0.077015 -0.011363 0.034688 0.104350 0.001035 -0.020755 -0.010408 -0.039979 0.018067 0.184704 0.083060 -0.053803 -0.010978 -0.227995 -0.023598 -0.250960 -0.053312 -0.182095 0.020710 0.168035 0.058169 0.118253 -0.056503 -0.348210 0.155875 0.281308 0.030315 0.206431 0.064288 0.068858 -0.117799 0.119889 -0.063592 -0.106461 -0.292180 -0.009732 -0.163949 0.043905 0.192181 0.237149 0.085395 0.132500 -0.090226 0.080813 0.036000 -0.006871 -0.187407 -0.000982 -0.136169 0.063101 0.123371 -0.168550 -0.164540 -0.014535 -0.036557 0.172679 0.128777 -0.066782 0.188812 -0.112137 -0.041099 0.118575 -0.086990 0.162958 -0.120600 0.017239 -0.094410 0.068119 -0.011233 -0.048226 -0.165591 0.042815 -0.061213 -0.033528 0.004708 -0.210549 0.095800 0.001481 0.098295 -0.122043 -0.056555 0.169697 -0.079394 -0.091126 0.117852 0.041361 0.084001 0.035027 0.005465 -0.308762 0.028779 -0.064977 -0.037858 -0.050751 -0.116073 0.048732 0.127844 -0.172032 -0.094040 -0.238834 -0.062811 -0.004267 -0.082389 0.017920 0.157140 0.068761 -0.064067 0.002244 0.027962 0.073085 -0.189508 -0.139342 -0.064221 0.178261 0.079328 0.055162 0.060677 0.049602 -0.189176
446 -0.053557 0.189351 -0.283360 0.027064 -0.012325 0.082030 0.113035 0.126590 0.055677 0.095645 -0.185943 0.212454 0.232091 -0.122694 -0.141093 0.081759 -0.019322 0.013402 -0.001763 0.083202 0.048492 -0.000944 0.057381 0.066191 0.131135 -0.192213 -0.134256 -0.089844 -0.013634 -0.009869 0.088457 -0.020261 -0.233751 0.038188 0.006315 -0.124014 -0.001522 -0.008637 0.093171 -0.005054 -0.010619 0.064729 0.004023 -0.010803 -0.051081 -0.008046 -0.091997 0.006183 0.032564 -0.129210 -0.094577 -0.123215 0.105635 -0.180741 0.020419 -0.221762 -0.105242 -0.092776 0.166491 0.018843 0.085656 -0.174916 -0.326670 -0.070027 -0.090822 0.108013 -0.080961 0.091445 -0.112073 -0.122135 0.133302 -0.078576 0.046847 0.070952 0.017914 -0.196347 0.122255 -0.101744 -0.051336 -0.016061 0.141088 0.010520 0.120628 0.114029 0.026220 0.009815 0.025276 -0.103685 0.116355 0.136695 0.102042 0.003308 0.070181 -0.120038 0.054093 -0.033575 -0.207923 -0.067333 0.012856 -0.109654 -0.030593 -0.185985 -0.106491 0.156743 0.079835 0.203070 -0.097332 0.299873 0.031000 0.160090 -0.047792 0.042724 -0.043008 0.030012 -0.060934 -0.086929 0.003129 0.104059 0.262844 0.133350 0.057372 0.040410 0.089769 -0.147431 0.079509 0.099476 0.078956 -0.149915
354 0.005025 -0.070078 0.056504 0.141392 -0.020616 0.176490 0.068705 -0.130083 0.060064 -0.025423 0.051852 -0.054697 0.049823 -0.071411 -0.091322 -0.180506 0.023696 -0.009504 -0.045348 0.105968 -0.125797 -0.060125 0.017987 -0.240267 -0.230869 0.179861 0.014102 0.069704 0.062722 -0.015584 -0.061322 -0.141732 0.152160 -0.112000 0.283932 0.036243 -0.063889 0.118532 0.136314 -0.133801 0.187560 -0.011266 -0.174170 0.060109 -0.166081 0.069555 -0.081841 0.039028 0.070577 -0.210607 0.290814 -0.131283 0.237316 -0.084386 -0.040218 0.205841 0.054222 0.022485 0.023049 0.004717 -0.256699 -0.019217 -0.067766 -0.106317 0.052628 -0.044925 -0.112908 -0.028257 -0.310921 0.012242 0.021013 -0.198482 0.002474 0.012976 -0.053834 -0.151356 0.100009 -0.141992 0.108204 0.043214 0.043418 0.050084 -0.090780 0.067525 -0.116935 -0.093275 -0.074025 0.177773 -0.052978 0.021918 0.175401 0.137326 -0.048310 0.132254 0.044960 0.175054 0.235680 -0.143307 -0.085168 -0.071859 0.021648 0.109707 0.089323 0.173689 0.043465 -0.008788 0.006280 -0.027124 -0.109469 -0.169062 -0.110803 -0.163494 -0.202747 -0.031338 0.043548 -0.133890 0.077004 0.025844 0.156348 -0.024661 0.047885 0.064429 0.058206 -0.086399 -0.028464 -0.047423 -0.069675 0.049333
646 -0.091911 0.163127 0.072627 -0.021027 -0.109554 0.023664 -0.096485 -0.045471 0.152089 -0.056604 0.214635 -0.092867 0.228816 -0.099081 -0.132606 -0.003671 0.046250 -0.037546 -0.073965 0.036040 -0.055747 -0.062376 0.030751 0.034427 0.272559 -0.074185 0.187228 -0.037693 0.016251 0.165946 -0.234269 -0.024011 -0.120735 -0.205136 0.153554 -0.084281 -0.064428 0.102113 0.135435 -0.192721 0.145096 0.253993 0.042368 -0.127882 0.112632 -0.155678 -0.257674 0.205260 0.074386 -0.023357 -0.054457 -0.162084 0.089111 -0.116231 0.156333 0.071479 0.014297 0.028194 0.091286 -0.019719 -0.152646 -0.000711 0.085996 0.192711 0.036004 0.035116 0.046295 0.055101 -0.186885 0.030874 -0.053769 -0.132014 0.168473 0.225415 -0.047821 -0.023190 -0.093518 -0.044473 0.069354 -0.018410 0.016054 -0.159240 -0.050729 0.036856 -0.018448 0.012682 -0.061649 -0.086168 -0.174274 0.148485 0.030835 -0.058832 -0.041540 0.038717 -0.032929 0.039890 0.122800 -0.030829 -0.105855 -0.111958 0.020072 -0.005104 0.023990 0.059187 -0.100719 0.019435 -0.218713 0.106047 -0.036522 -0.086336 0.003929 -0.121167 -0.106137 0.156974 -0.051270 -0.005638 -0.005051 0.069716 -0.038204 -0.120779 -0.146620 -0.416202 0.022361 0.100736 0.184399 0.089714 0.182489 0.021685
574 0.252962 0.095203 -0.059494 0.004042 0.069081 0.009231 0.089370 0.037858 -0.140184 -0.104270 -0.186918 0.178598 0.005610 0.039850 0.005460 -0.013848 -0.095416 -0.220424 0.150891 -0.137961 -0.041614 -0.067515 -0.042011 -0.118742 -0.022794 -0.178777 0.085413 0.006661 -0.127557 0.005902 0.121281 0.117624 -0.112644 0.012901 0.324591 -0.010287 0.023043 0.004852 0.159449 -0.016188 0.078778 0.099474 -0.214368 0.090053 -0.119162 -0.132644 -0.055115 0.119183 0.154272 0.006535 -0.178770 -0.027524 0.044541 -0.007060 -0.095661 -0.066951 -0.077448 0.037844 0.187987 0.151514 0.082940 0.121926 0.047761 0.035554 0.073493 -0.038076 0.158434 0.224317 -0.182243 -0.171773 0.234500 0.047952 0.029180 0.156743 -0.084363 -0.111890 -0.120528 0.240251 -0.027528 -0.055223 -0.056619 -0.000011 0.148258 0.070262 -0.205962 0.184535 0.102453 0.012771 -0.045164 0.137000 0.045856 0.217589 -0.275530 -0.207267 0.071651 0.099324 0.097005 0.011282 0.009208 -0.224063 0.016564 -0.017507 0.188532 0.113957 -0.090087 -0.017811 -0.109891 -0.115102 -0.068766 -0.074247 -0.321261 -0.130889 -0.013547 0.035849 0.062508 0.057701 0.038272 0.238602 -0.022814 -0.068767 0.097009 0.085275 -0.077508 0.120718 -0.067304 0.165937 0.225630 -0.034708
426 0.091555 0.136436 -0.056718 -0.009955 0.079240 0.128506 0.086522 0.009119 -0.126665 -0.250402 -0.069115 0.079227 0.069306 -0.019092 -0.013801 -0.035315 -0.022520 -0.023589 0.060677 -0.156444 -0.031941 -0.029620 0.147604 -0.213485 0.185161 -0.094473 -0.018428 -0.097342 0.171085 -0.040000 -0.051752 0.165393 -0.143499 -0.089936 -0.036156 0.136563 -0.052850 -0.058971 0.125956 -0.213642 0.176832 0.203751 0.264648 -0.033935 0.099916 0.041824 0.032019 -0.041190 -0.045238 -0.018402 -0.069348 -0.169163 0.049103 -0.063349 -0.100753 -0.075496 0.174250 0.041763 0.049851 0.130593 0.054031 0.131914 0.057422 0.063962 0.088890 0.132129 -0.121943 -0.032589 0.062808 -0.145609 -0.072032 0.161982 -0.143039 0.299589 0.003434 -0.002203 0.092053 -0.079649 0.052019 -0.113481 0.022412 0.092063 -0.125833 -0.068194 -0.059839 0.011562 -0.009245 0.113772 0.069649 0.129815 0.037651 -0.201101 -0.220328 -0.055886 -0.058008 0.201087 0.012498 -0.182896 0.050531 -0.066844 0.128069 0.010150 -0.003133 0.072824 -0.035315 0.261907 -0.019835 0.079248 0.012584 0.217356 -0.045969 0.016965 0.203877 0.026984 0.205978 -0.058701 0.059509 0.083843 0.107111 0.025256 -0.017115 -0.144284 -0.129315 -0.150840 -0.210288 0.268549 0.045778 -0.082010
326 -0.054241 -0.016409 -0.068481 0.046215 -0.068297 -0.051713 -0.180603 -0.050163 -0.219717 -0.164050 0.089590 0.181038 -0.033224 0.233939 -0.047851 -0.004083 -0.055970 -0.117313 0.318324 -0.227805 0.109491 0.031455 0.076817 -0.044814 -0.126051 0.009378 0.001848 -0.203782 0.213953 -0.235955 -0.187233 -0.385668 0.026467 -0.128320 0.033225 0.160894 -0.056279 0.256234 0.047428 0.061212 0.161730 0.124924 0.037728 -0.041636 -0.054458 -0.129427 0.104455 0.126981 0.051070 0.015707 -0.023295 -0.049506 0.024144 -0.026726 -0.057753 -0.333388 -0.105872 0.008722 0.249399 0.112293 -0.119246 0.087914 -0.065875 0.007739 0.109515 0.235855 -0.088680 -0.217010 -0.137503 -0.034664 -0.190796 -0.155684 0.064782 0.066927 -0.232642 0.096079 0.007731 -0.216961 0.199277 -0.229653 0.058701 -0.003504 -0.135351 0.229157 0.031008 0.093147 -0.131037 0.007969 0.040075 0.115844 0.178220 0.006380 0.081088 -0.118221 0.037478 0.119884 -0.039405 -0.072249 0.081127 -0.090756 -0.143751 0.004697 0.049886 -0.027957 0.078228 -0.100997 -0.078715 0.037371 -0.145218 0.008070 -0.071211 0.127769 0.101937 -0.175998 -0.118006 -0.205836 0.104531 0.097950 0.027889 -0.094830 0.197598 -0.017357 -0.177953 0.137522 -0.046696 0.089381 0.107021 -0.147654
134 0.120656 -0.046247 -0.179373 0.015203 -0.055088 0.136181 0.147541 -0.117033 -0.037267 -0.000450 0.149033 0.153275 0.183563 0.098539 -0.058532 0.003061 -0.031372 -0.022518 -0.085248 -0.140860 0.139957 0.006087 0.059353 -0.165255 -0.013408 0.079528 -0.044597 -0.020381 0.122600 -0.082733 0.101773 0.075858 -0.136969 0.117145 0.135503 0.046646 0.070197 0.157165 0.110821 -0.083873 -0.047892 0.005974 -0.056883 -0.043923 0.055165 0.170310 0.232920 -0.182209 0.057012 -0.117304 0.053546 -0.056777 0.100090 0.094878 -0.040571 -0.026132 0.032068 0.079911 0.145892 0.113971 -0.082910 0.051155 -0.080089 0.098055 -0.061253 0.227669 0.092367 0.024130 0.117983 -0.045735 0.013255 -0.040929 0.014040 0.183712 -0.011319 -0.039336 0.126630 0.080532 -0.052070 0.014463 -0.071002 -0.047882 -0.000860 -0.072790 0.110777 -0.034319 0.176031 -0.068283 0.058830 -0.240151 0.049479 -0.139151 -0.155811 0.024081 0.009691 0.076341 0.156679 0.069415 0.060917 -0.090195 0.069082 0.197827 0.120642 0.207508 0.001106 0.135657 -0.307815 0.056056 0.050109 0.054627 -0.181493 -0.160105 0.073415 -0.004752 0.088828 -0.005113 -0.090407 0.148087 0.171586 -0.000854 0.052090 -0.081189 0.083521 -0.092756 0.153460 0.185577 0.274149 -0.044795
249 -0.066735 0.162476 -0.046241 0.048943 -0.189955 0.355504 0.057805 -0.083074 -0.286569 0.056193 -0.013632 0.018920 0.088561 -0.060276 -0.095371 0.062698 -0.151224 -0.074651 0.212046 -0.154172 -0.058888 0.052698 0.187528 -0.141089 0.049645 -0.035818 -0.032032 -0.058879 -0.085472 -0.032461 0.118442 -0.092319 -0.282716 0.014251 0.030069 0.000059 -0.060219 0.307523 0.110651 -0.178642 0.101304 -0.064935 -0.190745 -0.128361 -0.038050 -0.045075 0.098466 0.105192 0.078659 -0.026688 -0.063710 -0.025251 -0.060603 0.097529 0.101330 -0.071396 -0.000052 0.135084 -0.022041 -0.045222 -0.088159 0.093186 -0.101675 -0.127231 0.144908 0.289198 -0.067200 0.158183 -0.015763 -0.056282 0.022190 -0.178656 0.090722 -0.011494 0.045673 0.116516 0.016043 0.155639 -0.051478 0.080195 0.090275 0.079627 -0.151585 -0.101854 -0.370478 -0.050728 -0.203436 -0.141411 0.157742 0.054968 -0.040859 0.033996 -0.017863 -0.007911 -0.106435 0.088498 0.094023 -0.030378 0.079578 -0.224115 -0.286664 0.109587 0.122631 -0.114722 0.083289 0.068663 -0.015981 0.024390 -0.045262 0.073142 -0.028627 0.001937 0.062935 0.021753 -0.032286 -0.050134 0.081970 0.107875 0.012706 0.018949 -0.153197 -0.077657 0.056499 -0.125320 0.052651 0.083971 0.016095 -0.075206
297 0.015284 0.116069 0.110190 -0.101405 -0.052232 0.151730 0.151279 0.127895 -0.178278 -0.199168 -0.131049 0.090736 0.025036 0.257878 0.014744 -0.075772 -0.004934 -0.031932 0.193614 -0.003501 -0.119032 0.068628 0.193865 0.078421 -0.007897 -0.100569 -0.104551 0.109644 -0.082433 -0.031058 0.104201 -0.135678 -0.039368 -0.017197 -0.049384 0.075699 0.024713 0.151896 -0.019669 -0.031109 0.120271 -0.001442 0.084155 -0.148270 0.130271 0.119288 0.157276 -0.100511 -0.141265 0.084346 0.100726 -0.147986 0.151201 -0.105938 0.034777 -0.131295 0.023738 -0.035764 0.106968 -0.227756 -0.059844 -0.160302 0.001726 -0.065497 0.002603 0.217185 0.309536 0.153812 -0.148870 0.059320 0.186208 0.014437 -0.054567 -0.220469 -0.107315 0.117010 -0.078621 -0.219658 0.164823 -0.174872 0.091382 0.049648 -0.101865 -0.016600 -0.120366 0.016255 0.057246 -0.148521 -0.172266 0.240439 -0.085478 -0.053341 0.049639 0.179472 -0.107482 0.060175 0.133601 0.020323 -0.217176 -0.109424 -0.075156 0.139194 -0.060385 0.073337 -0.092257 0.190496 -0.097173 0.355049 0.040692 0.214651 -0.136335 -0.079009 -0.054685 -0.056114 0.092619 -0.058656 -0.030323 -0.117302 0.088627 0.142918 -0.151792 -0.088942 0.020369 0.024576 -0.205042 0.060506 0.186000 -0.065495
250 0.017973 -0.050661 -0.033879 -0.033597 0.058318 -0.019819 -0.041511 -0.133127 -0.102901 0.060882 -0.003423 -0.060318 0.112298 0.037909 -0.084209 0.032104 0.195174 -0.031880 0.147359 -0.071053 -0.013643 0.044119 -0.167924 -0.194469 0.013974 -0.006524 -0.194555 0.042006 0.091410 0.034105 -0.017986 -0.040863 -0.195713 -0.019882 0.267230 0.116954 -0.060209 -0.102980 0.088708 0.038757 0.021943 0.093150 0.085325 -0.166327 -0.133031 0.010124 -0.178014 -0.032960 -0.072216 -0.079598 0.223278 -0.009711 0.114739 0.035413 0.124544 -0.146801 -0.066305 0.141641 0.013563 0.092511 -0.076763 -0.137562 -0.027312 0.063310 0.026872 0.177964 -0.176998 -0.024826 -0.134897 -0.115308 0.005003 0.085534 0.134893 0.106927 -0.093279 -0.189646 0.118406 -0.107499 0.092381 0.004754 0.203363 -0.067264 -0.017604 0.086772 -0.102350 0.134015 -0.002268 -0.067293 0.045372 -0.165038 -0.007137 -0.106424 -0.185809 -0.031665 -0.056675 0.088518 -0.133452 -0.082944 -0.104442 0.075645 0.003947 -0.007218 -0.096728 0.049894 0.207434 -0.020427 -0.276117 -0.033906 -0.001373 -0.011677 -0.133274 -0.235046 -0.139212 -0.069523 0.135617 -0.201577 -0.012176 -0.058853 -0.131475 -0.121666 0.056123 0.088402 -0.134168 -0.228817 0.148955 0.052631 -0.021039 -0.062041
298 0.154208 0.133799 0.194101 0.073537 -0.040745 0.179232 -0.008373 -0.027079 0.176124 -0.025476 0.022351 0.115664 -0.001910 -0.121372 0.127980 -0.114147 0.141898 0.103850 0.107318 -0.166683 0.004967 -0.025033 0.171239 -0.080697 -0.015485 0.206137 -0.155951 0.200617 0.016046 0.004877 -0.025882 0.208054 -0.235923 -0.123940 0.049174 0.221280 0.204447 0.222459 0.164608 -0.064348 0.017469 0.039447 0.090559 -0.040119 -0.046685 0.054443 0.085082 -0.017296 0.186438 0.009972 0.092122 -0.123530 0.250371 -0.204105 0.024572 -0.104678 -0.125319 -0.100503 -0.035764 0.161353 0.063364 -0.077219 -0.022099 -0.005142 0.117881 0.147096 -0.196697 0.135519 -0.039888 -0.025158 0.100902 0.048941 0.026513 -0.100629 0.200082 -0.050963 -0.036271 0.203458 0.137922 -0.237028 0.193783 0.149244 0.050579 0.036608 0.186996 0.051171 -0.017095 0.113710 -0.103637 0.072996 0.018454 -0.145062 0.113164 0.002451 0.081678 -0.115776 0.000019 -0.051955 -0.189859 -0.107654 -0.039197 0.026794 -0.004871 0.115515 -0.067866 0.073643 -0.202329 -0.151847 0.129233 0.055335 -0.187380 -0.127952 -0.075147 -0.043761 -0.028107 0.088257 0.039010 0.157378 -0.201159 0.131208 0.049610 0.131616 0.117154 -0.304992 -0.131237 0.155315 0.139358 -0.102395
687 -0.025891 -0.082012 0.004069 -0.033364 -0.128836 -0.021772 0.167149 0.050941 -0.163725 0.061918 -0.001063 0.220753 0.060867 -0.082618 0.011962 -0.068052 0.042189 0.052969 0.102662 -0.060925 0.099225 0.100743 -0.011595 0.033744 -0.013038 -0.251621 -0.080268 -0.000622 -0.044684 -0.090517 -0.045380 -0.097051 -0.072507 -0.144776 0.236822 -0.134894 0.065164 0.104559 0.071494 -0.124771 0.075448 0.004466 0.040445 -0.226654 0.123261 0.075115 0.013495 0.043017 -0.045761 0.023937 0.033687 -0.100092 0.282815 -0.040332 -0.100084 -0.069963 0.176328 0.235182 0.000519 -0.081556 -0.027587 0.106094 -0.043401 0.115802 -0.274044 0.076018 -0.167692 0.098747 -0.064875 0.145134 0.145077 -0.249670 0.104701 0.198804 -0.051482 -0.134537 -0.096964 0.182793 0.142034 -0.026122 -0.061916 -0.075641 -0.191021 -0.158641 -0.238457 0.022691 -0.183417 -0.025665 -0.061843 -0.013300 0.001426 0.068068 -0.014451 0.022899 -0.077723 -0.031413 -0.078539 -0.205574 0.101466 -0.059404 -0.111454 0.106743 -0.166518 -0.007466 0.082897 -0.075900 -0.101526 0.006347 0.082189 0.249168 -0.025137 -0.100240 -0.087901 -0.107467 0.073622 -0.163081 0.027203 0.138200 0.082606 -0.142557 0.041253 -0.185338 -0.045007 -0.173638 0.183544 0.146341 -0.014328 -0.121979
615 0.102005 0.090050 -0.037558 -0.084243 0.046286 0.050784 -0.020236 -0.067782 0.038253 0.100029 0.015810 0.042576 0.021452 0.003432 0.075409 -0.031528 -0.091161 0.151478 0.008583 0.193671 -0.117965 -0.039215 -0.017134 0.025949 0.161203 0.119018 0.120251 0.014457 -0.156228 -0.146041 0.036027 0.104885 -0.064439 0.012689 0.132656 -0.016359 0.030116 0.239833 0.149317 -0.045747 0.144809 0.160869 0.101544 -0.069420 -0.117377 0.100620 -0.028160 0.105577 0.104923 -0.136706 0.005391 -0.047569 0.137785 0.004699 -0.043991 -0.140529 0.117256 0.001585 0.026019 -0.092419 -0.144697 -0.002760 -0.130736 0.034956 0.144885 0.246611 0.040930 0.141022 -0.046273 -0.025851 -0.023869 -0.078097 0.059836 0.069471 -0.065466 -0.033058 0.227238 0.012949 -0.029010 -0.039852 0.001218 0.083646 -0.161514 0.159854 0.036813 0.220560 -0.174616 0.142930 0.084175 0.228261 0.003323 0.320157 0.036391 0.006017 -0.093141 0.161504 -0.012727 0.153087 0.002617 0.063629 0.142444 0.061868 0.195127 0.175091 -0.126738 0.039304 -0.179257 -0.086933 -0.147648 0.009594 -0.112620 0.010231 0.053325 -0.052527 -0.075155 -0.227978 -0.064967 0.194730 0.203300 -0.012899 0.027616 0.059780 -0.059582 -0.120818 0.103118 0.146950 0.218258 -0.056532
98 0.026456 -0.068686 -0.135875 -0.044084 -0.154960 0.295534 0.035531 0.109795 -0.028533 0.015389 -0.046002 -0.079325 0.097540 0.025217 -0.174523 -0.161299 0.084681 -0.250464 0.110818 -0.202568 -0.006402 0.041547 -0.087905 0.055031 -0.048369 -0.189918 -0.125360 -0.020722 -0.131536 0.027211 0.007906 -0.202601 -0.096416 0.133791 0.155458 -0.098635 -0.088727 0.160434 0.090844 -0.094545 0.077121 0.074616 0.024030 -0.028259 -0.029412 0.083679 0.031818 -0.037201 0.063845 -0.160931 0.130227 -0.002535 -0.011879 0.094248 -0.094184 -0.145502 0.028063 -0.048812 -0.044210 0.058415 -0.200162 0.121916 -0.027483 0.055344 0.077168 0.000139 0.103788 0.100020 -0.097232 0.065795 0.118744 -0.027283 -0.100606 -0.168747 -0.183259 -0.030284 0.200377 0.059127 0.366060 0.064681 0.231346 0.060162 -0.265476 -0.027769 0.115899 -0.058783 -0.040147 0.013379 0.030735 -0.079584 0.076185 0.019864 -0.014889 -0.049654 0.094129 -0.112823 -0.095138 0.007771 -0.087044 -0.253198 0.084129 0.258186 -0.087121 0.182553 0.055354 0.010498 -0.083332 0.050923 -0.080341 -0.063509 0.074694 -0.028612 -0.151732 0.071414 0.164661 -0.097551 -0.160716 -0.005250 -0.016547 0.169253 0.004842 -0.018142 0.062124 0.038815 -0.000067 0.110619 0.217687 -0.324974
259 0.064062 0.291014 -0.268738 0.120713 -0.125293 -0.007146 0.053798 0.020846 -0.101255 -0.160609 0.182679 0.095614 0.246038 0.218468 0.030199 0.074286 -0.043632 -0.209591 0.036778 0.017610 0.011310 0.007151 0.057682 -0.149140 0.010397 0.055924 0.042025 -0.013119 0.047870 0.073687 0.051609 0.013647 0.034938 0.039662 -0.005349 -0.010531 -0.071593 -0.087925 0.106641 -0.024491 -0.027088 -0.064877 -0.026292 -0.045289 0.131479 0.233062 0.112415 -0.083025 -0.006804 0.087421 0.118250 -0.207710 0.304884 -0.205735 0.027315 0.078156 -0.005221 -0.020172 -0.017726 -0.076837 -0.037237 0.105214 -0.071141 0.188520 -0.005797 -0.018555 -0.039349 0.052799 -0.081032 -0.031719 0.240024 -0.069742 -0.064985 0.199239 -0.085056 -0.299430 -0.029131 -0.040527 0.052613 -0.153880 -0.053683 0.023768 -0.023517 0.143375 0.025978 -0.048838 0.026190 0.062037 -0.026735 0.063194 0.114218 -0.010975 -0.100695 -0.128372 0.044360 0.012577 0.016167 -0.089224 -0.193074 0.030537 -0.024698 0.029327 0.044509 0.047574 0.218840 -0.164451 -0.085356 0.106109 -0.073076 0.167698 -0.264295 0.017985 -0.016898 -0.053723 0.061900 -0.153891 -0.131503 -0.102207 0.048302 0.006658 -0.292910 -0.026523 -0.075912 -0.015312 0.013925 -0.056447 0.156279 -0.010976
188 -0.089649 0.148958 0.166768 -0.119254 -0.031655 -0.025723 -0.053966 0.026008 -0.155160 0.058664 -0.151621 0.038796 0.010852 0.100602 0.041468 -0.041846 -0.044774 0.042413 0.046919 0.109332 -0.014926 -0.000749 -0.019739 -0.138271 -0.039522 0.055826 -0.038703 -0.065238 0.048350 -0.062409 0.077234 -0.125577 -0.259962 -0.061566 0.041165 -0.031075 0.206438 0.030773 0.024644 -0.172686 -0.037476 -0.011114 -0.014467 -0.120115 -0.119319 0.158420 -0.026058 0.015727 0.102708 -0.124628 -0.236753 -0.033750 0.144833 -0.253710 -0.063402 -0.005095 -0.020307 0.149539 0.156554 -0.027805 0.000405 0.057901 -0.102469 0.011778 0.180356 0.053124 -0.019493 -0.001769 0.049885 -0.173783 0.046234 -0.291543 0.041076 0.081121 -0.107303 -0.048682 0.136425 0.016815 -0.110861 -0.131027 -0.005965 0.021765 0.008323 -0.010232 0.062274 0.270509 -0.051542 -0.203240 0.071468 0.079961 0.047944 -0.146945 -0.157258 0.021150 -0.163017 0.053768 -0.309112 -0.136382 -0.153214 -0.061881 -0.027456 0.044356 -0.073229 0.095219 0.035139 -0.038578 -0.153332 -0.019576 -0.099440 -0.090613 -0.166202 0.021442 -0.031789 -0.040577 -0.129503 -0.117250 -0.097886 -0.065689 0.178273 -0.170166 -0.107870 0.104201 0.020551 0.029698 0.003726 -0.108032 0.213553 -0.017585
642 -0.111001 0.139093 -0.168780 0.148846 -0.118944 0.068380 -0.015519 0.053035 -0.099382 0.055058 -0.099188 0.088797 0.083365 0.193802 0.138053 -0.018612 -0.038813 0.033447 0.075516 -0.057190 0.077811 -0.065597 0.132027 0.051135 0.104916 -0.214694 -0.180957 -0.089464 0.017288 -0.046184 -0.084002 -0.107696 -0.282390 0.118489 0.014274 -0.014375 0.099148 0.160222 -0.007635 -0.142523 0.095936 0.015101 0.048157 0.026941 -0.141625 0.121079 0.030926 -0.076186 0.174853 -0.071453 0.040177 -0.080329 -0.010473 -0.090380 -0.053337 -0.189367 -0.009115 0.043793 -0.037154 -0.120860 -0.172724 -0.106656 0.151744 -0.124901 -0.037728 -0.024119 -0.055553 0.074900 -0.033705 0.048923 0.044889 -0.043817 0.079399 0.069850 -0.066787 -0.029176 0.111779 0.194633 -0.031955 0.025447 -0.002531 -0.167882 -0.286928 0.274746 -0.037837 0.052023 0.005108 0.061753 0.040474 0.043320 0.094228 -0.094019 -0.234975 0.172675 0.124894 0.022023 0.024093 -0.138815 0.049493 0.051079 -0.108797 0.150221 -0.384779 0.111604 -0.149039 -0.105932 -0.184868 0.072846 -0.053369 -0.124956 -0.115185 -0.074567 -0.112170 -0.168978 -0.043053 -0.047592 0.058676 0.112628 -0.057903 -0.059739 0.113822 -0.213257 -0.079018 0.049930 0.006203 0.088469 0.065938 0.140349
68 0.183056 0.173717 -0.118176 -0.092619 -0.015058 0.041906 0.003042 0.089372 -0.100480 0.152282 0.029704 0.028277 -0.012738 -0.044984 -0.023735 -0.137935 0.131182 0.060086 0.062369 -0.033261 0.035745 0.004297 0.168633 0.070511 0.087741 0.116402 0.041269 0.030413 0.034767 -0.022533 0.246183 -0.058835 -0.175055 0.046183 0.032751 -0.121762 -0.027922 -0.025136 0.166674 -0.024000 -0.009422 -0.023830 0.129106 -0.203737 0.075526 0.162159 0.022576 0.047339 -0.026602 -0.159660 -0.024581 -0.028218 0.110969 -0.078574 -0.278388 -0.088644 0.100645 0.217654 0.041724 0.132866 0.043208 0.093662 -0.062048 -0.024457 0.205619 0.083485 0.062144 0.097254 -0.030392 -0.234222 0.233888 0.033955 -0.040319 0.095368 -0.015410 0.038987 0.268150 0.041536 -0.021401 0.047265 0.015281 -0.099611 0.052798 0.101416 0.091714 0.037509 -0.060350 0.104579 0.090404 -0.018570 0.009774 0.096586 -0.111836 0.065760 0.176486 -0.023340 0.039515 0.015371 -0.064451 -0.082782 0.083627 -0.007745 0.120022 0.166299 0.034379 0.064732 -0.027203 0.094274 -0.045216 -0.010319 0.005504 -0.185197 0.089966 -0.132019 0.011020 -0.100248 -0.255720 0.101629 0.001297 -0.092386 0.214009 0.005612 -0.106987 -0.033595 0.053549 0.270374 0.065342 0.023045
675 -0.164156 0.158604 -0.000947 0.177534 0.093284 0.132264 -0.104023 0.012755 0.200139 0.101149 0.151466 -0.020962 0.103090 0.004626 -0.156083 -0.125127 0.069931 -0.049509 -0.086182 -0.057439 -0.066514 -0.092929 0.079826 -0.257014 -0.161222 -0.084930 0.005142 0.094400 0.033602 -0.000608 -0.115750 -0.152341 -0.283051 -0.060528 0.129816 -0.125690 0.039352 -0.042789 0.123148 -0.043762 0.137218 0.077669 -0.138847 -0.200897 -0.080333 0.191029 0.048702 0.020905 0.021529 0.003031 -0.128632 -0.006362 -0.085902 -0.061722 0.232714 0.042304 0.026510 0.051225 0.029225 0.056525 -0.089549 0.036791 -0.028144 0.068069 0.199601 0.163680 0.000598 0.030289 0.077476 0.074243 -0.016862 -0.076367 0.169610 -0.133179 -0.003092 0.043870 -0.009667 -0.177909 0.055163 -0.008265 0.226350 -0.052914 0.038694 0.149800 -0.135984 -0.072748 -0.134177 -0.019116 -0.054811 0.022751 -0.029059 -0.038290 -0.147457 0.301350 -0.020039 -0.066187 0.080938 -0.131810 -0.099918 0.004906 -0.048259 -0.098909 0.000549 0.172379 0.010753 0.255137 -0.213365 0.141039 0.132354 0.013596 -0.133894 -0.155527 -0.107071 -0.033029 -0.107993 -0.035712 0.027368 0.002004 0.048170 -0.047788 0.074791 0.036727 -0.055459 -0.029566 0.080752 0.053926 -0.067072 -0.115895
293 0.032786 0.057676 -0.121827 0.045643 -0.216786 0.064293 0.044935 -0.053919 -0.218092 -0.032525 -0.080380 0.017399 0.149901 0.086720 0.015016 -0.073323 0.099891 -0.130723 0.112590 0.285979 -0.204181 -0.172118 -0.013779 -0.119422 0.104976 -0.166139 -0.107531 0.107381 0.029238 -0.063597 -0.014815 -0.032888 0.000995 -0.045315 0.084292 0.085749 0.086564 -0.162284 0.153548 -0.143152 0.127738 0.274848 -0.087001 -0.182264 -0.125975 -0.014254 -0.005491 0.032021 0.071339 -0.022553 0.131063 -0.053586 0.057851 -0.011062 -0.046664 -0.217446 -0.008221 0.018766 0.105082 0.007956 0.207429 0.337572 -0.019046 0.057605 0.107265 0.016728 -0.024660 0.074941 -0.159767 0.025062 0.040014 0.075512 0.146138 0.131144 -0.079856 0.038098 0.124219 -0.089176 0.096651 -0.058948 0.158822 -0.133796 0.123558 0.018127 0.182491 0.282059 -0.130331 -0.151893 0.133722 -0.001178 0.172691 0.144759 -0.042813 0.093706 -0.027043 -0.224797 -0.016388 -0.133146 -0.062846 -0.139718 0.033127 0.122573 0.003541 -0.187079 0.088227 0.019403 -0.075954 -0.061993 -0.155430 -0.152886 -0.118061 -0.067101 -0.028699 0.149326 -0.104776 0.001245 -0.186146 0.072229 -0.126344 -0.101119 -0.280178 -0.117798 -0.108168 -0.226404 0.118580 0.113712 -0.001206 -0.115155
91 0.094955 -0.077754 -0.092741 0.050930 -0.027728 0.209074 0.049881 -0.091674 -0.236712 0.038815 0.180819 -0.038984 0.321449 0.046967 0.149203 -0.013750 0.026129 -0.109885 0.065198 0.017122 -0.038752 -0.121007 0.166912 0.020975 -0.176901 0.026461 -0.131566 -0.162123 0.059454 -0.011759 -0.041989 -0.138988 -0.163907 -0.059470 0.026676 -0.010671 -0.055017 0.110876 0.143968 0.007372 0.000541 -0.141609 -0.069980 0.011782 -0.088601 -0.043230 -0.054442 -0.032447 0.168692 -0.001656 -0.003855 0.058650 0.095982 -0.233081 0.178017 -0.129278 -0.122659 0.111389 -0.165389 -0.192209 -0.159120 -0.094204 0.031492 0.086042 -0.007745 0.190478 -0.182684 0.110157 -0.050958 -0.068590 0.150865 -0.198978 0.149991 0.067414 -0.214902 0.055305 0.018298 -0.149999 -0.023474 0.113236 0.104948 -0.027158 -0.100040 -0.131175 0.092572 -0.050255 0.105845 -0.017326 0.059156 -0.025539 0.179198 -0.040469 -0.115788 -0.037182 0.178757 0.191815 0.133521 0.097006 0.080456 -0.025533 -0.261502 -0.013292 0.048224 0.126081 0.096101 -0.049796 -0.040618 0.035539 -0.072034 0.057715 -0.014280 0.039186 0.013439 -0.023530 -0.114103 -0.057908 -0.125204 -0.067672 0.054803 0.008298 -0.115301 -0.211542 0.011928 -0.272251 -0.075896 0.015058 -0.031781 -0.026180
415 -0.076101 0.017445 0.043834 0.012206 0.080654 0.020472 0.044484 0.045466 -0.050363 0.057466 0.054100 0.090039 -0.024823 0.137809 0.211803 0.015156 0.109333 -0.041366 0.059610 -0.082723 -0.181385 -0.104563 0.061762 -0.217247 -0.040638 -0.023456 -0.160771 -0.142682 0.095228 -0.013138 0.000746 -0.185701 -0.058908 -0.285171 0.221160 0.070150 0.134692 0.230073 0.129739 -0.113671 0.128787 0.041929 -0.064350 -0.028257 -0.213067 -0.002210 0.017072 -0.036822 -0.010078 -0.073639 0.228384 0.101416 0.144705 -0.039414 0.135704 0.144287 -0.062453 0.003042 0.163928 0.029066 0.033066 -0.270815 -0.068083 -0.193336 0.073067 -0.103333 -0.162502 -0.009879 -0.185719 -0.084192 0.036835 0.113616 0.025699 -0.096326 -0.182003 0.076106 0.015525 -0.069157 0.187904 -0.124032 0.253108 0.014565 -0.013108 -0.219546 -0.233099 -0.111785 0.018259 0.115617 -0.137536 -0.143298 -0.178200 0.126586 -0.019145 -0.050902 -0.057416 -0.243567 0.239182 0.123041 -0.050657 0.081066 0.132787 0.002054 0.018487 0.230030 -0.009715 0.018437 -0.184522 0.255678 -0.020063 -0.005810 -0.076697 0.065528 -0.236190 -0.049573 0.133476 -0.202820 -0.214133 0.162642 0.126589 -0.182916 0.105302 -0.065234 0.004153 -0.044874 -0.049408 -0.114792 0.054435 0.022767
198 -0.155160 0.125025 -0.063941 -0.046893 0.093431 0.112075 0.077148 0.037046 -0.087419 0.038227 0.046377 0.122760 0.094972 0.235191 -0.004804 -0.251560 0.125558 0.059665 -0.027007 -0.056152 0.031311 0.052098 0.065266 -0.142580 0.130359 0.145315 0.026121 0.029119 -0.064968 -0.070672 0.011314 -0.139328 -0.016680 0.060054 0.182942 0.159855 -0.207365 -0.060688 0.069559 -0.047865 -0.026351 0.116056 0.040755 -0.102143 -0.143567 -0.019280 -0.052316 0.021443 -0.103558 0.071665 0.153569 0.028330 0.173358 -0.195770 0.073535 -0.275876 0.051466 0.123195 -0.079991 0.061348 -0.148072 0.031992 -0.073148 0.077594 -0.109192 -0.068780 0.007923 -0.007499 0.042597 -0.034904 -0.105781 0.060003 0.173594 0.087073 0.238889 -0.010758 0.344397 0.037606 0.147289 0.215839 -0.077570 0.111227 -0.282290 -0.118613 -0.171527 0.002870 -0.108539 0.031663 -0.134742 -0.168384 0.070035 0.016923 -0.001699 0.060944 -0.032336 0.080864 0.185222 -0.060141 0.028792 0.080343 -0.076646 -0.019030 -0.124547 -0.069976 -0.050687 0.034752 -0.272665 0.289535 0.112164 -0.087808 -0.062396 -0.080216 0.014754 -0.020651 -0.018646 -0.003593 -0.002938 -0.192714 -0.009569 -0.207493 0.248195 -0.081783 0.003989 -0.129341 -0.189376 0.177436 0.292764 -0.110661
122 0.042935 0.199964 0.026834 -0.063277 -0.076827 0.272234 0.217025 -0.004273 -0.080518 -0.087406 0.149426 0.084128 0.021787 0.122918 0.111110 0.035933 0.043583 -0.275928 0.169434 -0.011763 0.123906 -0.052512 0.042648 -0.188931 -0.068053 0.164498 0.020440 -0.003404 -0.019216 -0.043591 0.118630 -0.163649 0.103124 -0.014487 0.164799 0.107140 0.108274 -0.144807 0.120992 -0.021627 0.102827 0.056637 -0.129489 -0.343215 0.077461 0.116835 0.080215 0.121415 0.033424 -0.105211 0.128628 -0.174914 -0.109083 -0.150913 0.156228 -0.077392 0.107927 0.089408 0.131082 0.152066 0.199557 0.119087 -0.184401 -0.032721 0.058233 0.010972 -0.033832 -0.011769 -0.064619 -0.004075 -0.175849 0.059158 0.165031 0.058831 -0.005455 -0.150282 0.246196 -0.048019 -0.029078 0.080310 0.123737 -0.097014 -0.128513 -0.069982 -0.106056 0.070913 0.128080 -0.048297 -0.021597 0.125940 0.006487 -0.098786 -0.036255 -0.089452 -0.049101 -0.058465 0.178085 0.048609 -0.058727 0.058990 0.076999 0.131200 0.061073 0.157264 -0.044831 0.216475 -0.170972 -0.009942 -0.060195 0.112757 -0.092940 -0.069162 -0.079893 -0.124478 -0.004406 0.041422 0.073626 0.065095 0.077214 0.010640 -0.041058 -0.003595 0.015884 0.010882 0.092612 -0.028530 0.080928 -0.085493
289 -0.025270 -0.039699 -0.122872 -0.021517 -0.004316 0.281903 0.102193 0.070718 -0.096055 0.025988 0.032812 0.011071 -0.073767 0.089374 0.198015 0.103834 0.092764 -0.039583 0.128369 -0.181669 -0.082169 -0.250837 0.132057 -0.062234 -0.088443 0.001397 -0.050779 -0.109076 -0.007949 0.066721 -0.052190 -0.011820 -0.095636 -0.040032 0.030863 -0.056027 0.133679 0.064523 0.218057 0.135535 -0.014577 0.025939 0.017786 -0.123661 -0.046262 -0.115115 -0.075263 -0.052919 0.073069 0.041187 -0.016840 -0.152995 0.185930 0.016917 0.077476 -0.136963 0.118221 -0.166020 0.024815 0.019503 0.053590 0.146171 0.042102 0.087574 0.110763 -0.161630 -0.119258 0.002255 -0.090585 -0.100817 -0.009693 0.127160 0.034773 0.068147 -0.062657 0.012963 0.039992 -0.087785 -0.133111 -0.136854 0.095671 -0.254595 0.079801 0.107681 -0.118688 0.098217 -0.177397 -0.025191 -0.031520 -0.014283 0.018942 0.181565 -0.263851 0.108850 0.132740 0.038376 0.043739 -0.106995 -0.045327 -0.078327 -0.046351 0.147132 -0.002375 0.178711 0.187396 0.037542 -0.093357 -0.213912 -0.077461 0.115744 -0.239183 -0.129646 -0.069958 -0.203103 0.159999 -0.052087 -0.034216 0.265483 0.204216 0.119387 -0.029708 -0.074622 0.125349 -0.209051 -0.110298 -0.126610 0.180646 0.044441
405 0.221755 0.181189 -0.035782 -0.130455 -0.035442 0.130173 -0.117302 0.029763 -0.005664 -0.075996 0.025913 0.031992 0.131772 -0.039872 0.053484 0.026197 0.092365 -0.123575 0.405423 0.099368 -0.078060 0.070996 0.032775 -0.027503 -0.034937 0.024838 0.090244 -0.151279 -0.057362 0.090221 0.023169 0.006485 -0.019275 -0.120487 0.176803 0.168335 -0.205996 0.182377 0.002687 -0.042128 0.019999 0.088003 0.184606 -0.195265 0.042116 -0.046096 0.136253 -0.096222 0.074875 0.037546 0.215541 0.086082 0.041156 -0.127750 -0.039580 -0.132967 0.124214 0.015058 0.003543 -0.000116 0.095697 0.206069 -0.180565 0.102497 0.128866 -0.116619 -0.026084 0.000089 -0.146887 0.001775 0.017355 0.103403 0.233652 0.017416 0.016693 -0.245360 0.082879 0.067751 -0.052817 0.189505 0.035518 0.004951 0.177399 -0.032606 -0.152721 0.087861 -0.121713 0.102719 -0.042811 -0.042422 -0.125149 -0.014983 -0.061473 0.122844 -0.028249 -0.096175 0.193404 0.060461 -0.043353 -0.094542 0.190279 0.053661 0.207820 0.211207 0.073664 -0.077383 -0.266462 0.263293 0.074443 0.283645 -0.178102 -0.039919 -0.052247 -0.058019 0.053614 -0.048668 0.070649 -0.062768 -0.064190 -0.078128 -0.069061 0.100344 -0.140930 0.037102 -0.164034 0.261991 0.170886 -0.018962
468 -0.108985 0.109067 0.088666 0.069319 -0.035559 -0.049893 0.094448 0.094905 -0.002752 0.254592 0.002301 -0.076409 -0.018007 -0.064839 -0.063770 -0.190667 0.047821 0.133793 0.167221 0.087281 -0.209107 -0.043820 0.162678 -0.117520 -0.000962 0.114197 0.081059 -0.190301 -0.189610 0.134544 0.014127 -0.015850 -0.154369 -0.020914 0.049755 -0.044935 -0.010904 0.137661 0.102675 -0.217959 0.119252 0.062609 0.045691 -0.123348 0.005922 0.035156 0.050632 0.175990 -0.013691 -0.135876 -0.056660 -0.003894 0.044451 0.176689 0.067239 -0.021406 -0.030172 0.039554 0.009591 -0.013968 0.255475 0.061336 -0.171884 0.135295 0.251566 -0.044582 0.016964 -0.072113 -0.266147 -0.105909 0.128948 0.062896 -0.155954 0.094233 -0.050433 -0.062326 0.093298 -0.029115 0.102136 -0.024916 0.044812 0.087137 -0.019041 0.152290 0.010061 -0.128172 -0.072924 0.044496 -0.123970 0.233030 -0.080992 0.013435 -0.192319 0.056973 -0.038281 0.098735 0.148217 -0.206818 -0.047320 -0.007497 -0.086856 -0.003421 -0.177583 0.079161 -0.032962 -0.034331 -0.195601 0.081218 0.018537 0.073976 -0.220636 -0.116208 -0.084599 -0.128076 0.153265 -0.019223 -0.039678 0.035346 0.132756 -0.192976 -0.242376 -0.031164 0.073266 0.032679 0.025600 -0.012600 0.187274 -0.064259
504 0.290247 -0.027926 -0.221346 0.072694 0.059712 0.160554 0.055288 -0.031283 -0.125026 0.222809 -0.027322 -0.009553 -0.025936 0.109097 0.006946 -0.166621 0.202814 -0.067592 0.053642 -0.145442 -0.043854 -0.322590 0.280803 0.014849 -0.272883 -0.090955 -0.022061 0.084710 0.021007 0.044725 -0.044870 0.073676 0.172733 -0.172170 0.188322 -0.034460 0.140416 0.104630 0.140093 -0.077641 0.071400 0.075827 -0.041659 -0.264766 0.070761 0.044634 0.012144 0.138035 -0.043348 -0.162244 -0.029169 -0.015545 0.182756 0.006303 0.162580 -0.023468 0.063753 0.088117 0.102324 0.051665 0.143594 -0.095104 0.037626 0.115026 0.130073 0.141029 0.233568 0.093589 0.151280 -0.223970 0.143626 -0.132471 -0.164004 0.091718 0.051759 -0.055716 0.069628 0.173393 0.071701 -0.053612 -0.000829 0.091500 -0.178081 0.029976 -0.048051 -0.043165 0.002306 -0.029670 -0.029661 -0.162033 0.049604 0.067051 -0.167384 0.113050 0.076299 -0.055977 0.084461 0.007850 0.072358 0.090434 -0.038442 -0.040083 -0.052532 0.078580 0.114983 0.331997 -0.102676 0.060264 -0.043784 0.167086 -0.088922 -0.053123 -0.055457 0.130713 0.055387 -0.034036 -0.085294 -0.204993 0.156302 -0.118814 0.188457 -0.037813 -0.056904 0.030501 -0.019115 -0.033632 0.109647 -0.046153
418 0.209641 0.184714 0.020095 -0.017410 0.066574 0.089269 0.104779 0.026733 -0.184352 -0.032099 -0.135594 0.075896 0.027378 -0.044016 -0.068479 0.138637 -0.238642 0.001370 -0.012706 -0.051247 -0.120307 0.074087 0.030929 -0.105989 0.139933 -0.111039 -0.035564 -0.108382 -0.052577 -0.091386 -0.183697 0.009117 -0.345935 0.049505 0.161560 -0.014655 -0.021238 -0.124398 -0.084571 -0.027202 0.163580 0.106298 -0.120544 -0.095858 -0.108336 -0.092302 -0.192491 0.009648 -0.073730 0.172073 -0.027677 -0.089893 -0.001915 -0.009527 -0.036757 -0.048626 -0.042352 0.283276 0.083965 -0.016274 -0.142488 0.054429 -0.031371 -0.142188 -0.059902 0.089612 0.035469 0.095172 -0.079016 -0.038383 0.108196 0.039035 0.096707 0.051730 -0.235130 0.068508 0.156449 0.010699 0.223329 0.068410 0.076693 -0.072339 -0.183615 0.171236 -0.038292 -0.007655 0.034282 0.106947 -0.097080 0.118117 0.016496 0.191534 -0.077167 0.193115 -0.053284 -0.102390 -0.023120 -0.150580 -0.083181 -0.059081 0.069842 0.173355 -0.015072 0.084687 0.155405 -0.022579 -0.028495 0.027007 -0.297718 0.022436 -0.095409 -0.071874 0.079010 -0.008136 0.183092 -0.104349 0.227431 0.103846 0.064622 -0.059572 0.060248 0.197532 -0.079985 -0.194863 0.337698 -0.002553 0.222494 0.117606
