732 128
261 -0.103525 -0.013146 0.173774 -0.061128 0.014392 0.035395 -0.079121 -0.124856 0.019059 0.052601 0.188356 -0.003663 -0.244856 -0.064089 0.126751 0.106730 0.231246 0.032376 -0.029315 0.084048 -0.045857 0.129500 0.125883 0.034155 -0.053919 0.062820 0.092864 0.004242 0.215417 -0.058756 -0.172531 0.161906 -0.035337 0.057553 0.008546 -0.160865 -0.121771 -0.147468 -0.091619 0.020719 0.075520 -0.101693 0.005683 -0.150153 -0.017037 -0.323951 0.155013 -0.007368 0.112900 0.164761 0.261329 -0.070462 0.062241 -0.011241 0.109810 0.007827 -0.020901 0.085318 -0.011448 0.284666 -0.175297 0.057370 -0.177911 0.000151 0.050229 0.001850 -0.050056 -0.050665 0.038477 0.150983 -0.044741 -0.109293 0.112030 -0.212839 -0.097046 -0.106876 -0.051538 0.158366 0.095439 -0.038760 0.084259 0.037828 0.073942 -0.057049 -0.099569 -0.061400 0.017299 0.151620 -0.189701 -0.014088 0.073966 -0.042712 0.189331 0.041474 0.043657 -0.119184 0.012101 0.083885 -0.115113 -0.025785 -0.011240 -0.048304 0.048406 0.112085 -0.074352 -0.063304 -0.043689 0.020236 -0.010674 0.048200 0.015851 -0.169570 -0.172389 -0.138760 -0.001211 -0.153779 0.180040 -0.052135 -0.064957 0.012737 0.054976 0.067077 0.016343 0.022077 0.041886 0.034202 -0.096784 -0.127608
57 -0.020146 -0.098209 0.063490 0.046251 -0.137219 0.064794 -0.081057 0.035221 -0.037557 -0.034247 0.177729 0.065075 0.051916 -0.233650 0.025875 0.191642 -0.103441 -0.027792 0.142100 0.008652 -0.244631 0.141837 -0.041810 -0.083074 0.001361 -0.011378 -0.152130 -0.032432 0.008033 0.033285 0.080351 0.009797 0.020126 -0.180106 0.021182 -0.075553 0.050850 0.158568 -0.088711 0.159795 0.219469 0.015739 0.075613 -0.248401 0.146257 -0.068320 -0.138914 0.009822 0.050592 0.032768 0.079115 -0.144637 -0.002066 -0.004966 -0.028682 -0.007832 0.092518 0.174429 0.000987 0.065304 -0.080024 -0.069548 -0.114847 -0.215459 0.059141 -0.085882 0.041830 0.260488 -0.136637 -0.099926 -0.094771 -0.066707 0.179211 -0.236957 -0.075205 -0.032631 0.130810 0.056991 -0.225249 -0.051488 -0.021237 0.252637 -0.120079 -0.071962 0.114780 -0.050995 0.044257 0.093322 -0.011463 -0.023341 0.019945 0.121797 0.280898 -0.088216 0.032190 0.003911 -0.049427 -0.108628 -0.135751 -0.311693 0.003543 -0.076682 -0.153933 -0.130214 -0.119208 -0.143922 0.048987 -0.058710 0.138551 -0.202158 0.114224 -0.031621 -0.002458 -0.065353 -0.057847 -0.021460 0.072502 0.020668 0.044703 -0.023696 0.090751 0.023466 0.107369 -0.021912 0.001303 -0.098584 -0.155606 0.067434
721 0.138196 0.024999 0.020350 -0.192350 0.087554 -0.197589 -0.030730 0.152899 -0.146281 -0.122684 0.168882 0.135321 0.005063 -0.181831 -0.046540 0.154399 0.094208 0.033829 -0.080853 0.081552 -0.156003 0.068063 -0.025396 0.024868 0.230661 0.117869 0.017325 -0.119552 -0.020241 -0.117074 -0.010610 -0.020230 -0.248014 0.032040 0.062157 -0.006253 0.122851 0.031243 -0.054970 0.075963 0.058651 -0.070079 0.230975 -0.057182 0.159321 -0.404873 -0.038430 -0.011570 0.013380 0.018109 0.083449 -0.141476 -0.025224 0.070275 0.120830 0.073249 0.135985 -0.026752 0.017756 0.191941 0.022336 -0.113792 -0.091203 -0.135150 -0.086534 -0.011935 -0.206593 -0.223800 -0.093090 0.069102 -0.039329 -0.013688 0.080608 0.004765 0.025289 0.075590 -0.009039 0.155661 0.100097 -0.144189 -0.123998 0.020251 -0.055243 0.189402 0.105183 0.077696 -0.001199 0.042345 0.047213 -0.049286 0.024409 0.133937 0.163185 0.074816 0.010397 -0.075814 0.023886 -0.043808 -0.091108 -0.119422 0.089336 0.113404 0.011426 -0.117817 -0.004299 -0.075622 -0.072876 -0.077213 0.116997 0.048812 0.089406 -0.209501 -0.055102 0.084566 0.065096 -0.155805 0.072342 -0.017473 -0.156596 0.120898 0.037819 0.039711 0.034790 0.168596 -0.101522 -0.003455 0.086676 0.048211
545 -0.009622 0.043214 -0.166740 -0.041929 0.159829 -0.057670 0.114142 0.227989 -0.048882 0.006442 0.264730 -0.064772 0.097675 0.103990 -0.056401 -0.043900 0.173888 -0.152450 -0.009295 -0.151193 -0.120873 -0.065192 0.131982 -0.133765 0.171789 0.079735 0.262129 -0.028903 -0.018400 0.090367 -0.264229 -0.023617 -0.101656 -0.032620 0.049617 0.088346 0.016780 0.198384 -0.014472 0.232659 0.113675 -0.150820 0.057817 -0.156422 -0.076143 -0.108854 0.031424 0.032631 0.174212 -0.156433 -0.081070 -0.179597 0.017695 0.073710 0.005522 -0.143469 -0.017969 0.139573 0.102710 0.052083 -0.097718 0.142130 -0.114729 -0.124168 -0.014957 -0.053504 -0.024377 -0.128590 0.109441 -0.046361 -0.056299 -0.276977 0.014367 -0.001758 0.050679 -0.230245 0.048762 0.185288 0.089606 -0.098857 -0.038423 0.160424 -0.149420 -0.262251 0.164797 0.000492 -0.176407 -0.152087 0.190324 -0.081875 0.135987 0.208786 0.010319 -0.039039 0.030964 -0.170109 -0.172874 0.004548 0.004692 0.025472 -0.063545 -0.143660 0.087798 0.057059 -0.033699 -0.089366 -0.029565 0.028057 0.006150 -0.101322 -0.028795 -0.319399 -0.016447 0.160176 -0.032619 0.005068 0.014781 0.079611 0.031038 -0.166626 -0.194036 0.050403 0.203895 -0.194572 0.314512 -0.024156 0.185364 -0.058438
480 0.032174 -0.103033 -0.045542 0.042649 0.034239 -0.015805 -0.063003 0.155619 0.089016 -0.221523 -0.142135 -0.090753 -0.029557 -0.119692 0.008949 -0.028126 0.234617 -0.029068 -0.011794 0.212469 0.049099 0.050935 -0.011928 0.105400 0.142786 0.172916 0.095900 -0.250359 0.231761 -0.073586 -0.028250 0.247182 -0.236471 0.230575 0.133644 0.051015 -0.016749 0.054088 -0.089178 -0.004267 -0.000959 0.021286 -0.088840 0.099122 0.167476 -0.442417 -0.046087 0.125499 -0.084528 -0.015849 -0.020624 -0.140922 0.170489 0.197592 0.144625 -0.174611 -0.112017 0.102041 0.081788 0.346400 -0.151775 0.144875 0.125741 -0.081384 0.060154 -0.223375 0.077101 -0.012619 -0.038681 -0.067332 -0.006382 -0.188499 0.179276 -0.084065 -0.007284 0.001572 0.136101 0.044020 -0.229302 0.037997 0.057568 -0.143315 0.109386 0.132692 0.184646 0.104343 0.028211 0.097132 0.115650 0.023870 -0.023840 0.091819 0.008475 0.054972 -0.037593 -0.003310 -0.127825 0.047503 0.097883 0.103066 -0.091399 0.075418 -0.087012 0.077697 -0.138320 -0.015527 -0.122391 -0.089493 0.089494 -0.065192 -0.086300 -0.111347 -0.143884 -0.093364 0.111156 0.041388 0.050634 -0.153761 0.064514 0.098572 0.033476 0.007706 -0.090257 0.103450 -0.112665 0.062534 0.129292 0.048029
658 0.120519 -0.076984 -0.024832 -0.038816 -0.031380 -0.016456 0.127427 0.021376 -0.114936 0.069311 0.093810 0.069765 -0.262448 0.138929 0.056879 0.000843 0.029241 -0.061252 0.016735 0.020791 -0.142590 -0.010549 0.067424 -0.039549 -0.034821 -0.089710 0.130660 0.039240 0.045624 -0.060256 -0.146450 0.055207 -0.103548 0.064209 0.178866 0.011736 0.157085 0.050479 0.086536 0.047798 0.042711 0.283641 -0.054482 0.050000 0.089555 -0.122235 -0.026571 -0.059916 0.152132 0.116678 0.096638 -0.096128 -0.009330 -0.145133 -0.052123 -0.024554 -0.023767 -0.037664 0.030728 0.160262 -0.114592 -0.045478 0.130813 -0.191018 0.030292 0.043472 0.070872 0.050118 -0.053889 -0.006006 0.097531 -0.195030 0.301231 0.159050 -0.243681 -0.078060 0.155605 0.018315 -0.068558 0.047411 0.087337 0.056847 -0.183379 -0.010735 0.019208 0.081833 0.084078 0.042447 -0.081614 -0.061412 0.148465 0.169264 -0.126483 0.020520 -0.051746 0.142311 0.103293 0.057274 -0.049214 0.084209 -0.179493 0.036410 0.050210 0.106161 -0.175461 -0.106756 -0.077314 -0.058857 0.195687 0.051153 0.125703 0.068756 -0.282789 0.076485 -0.136255 -0.155665 0.230614 -0.028423 0.037507 0.027359 0.153676 0.064889 -0.020217 -0.060864 -0.015964 -0.085967 -0.061800 0.166997
418 0.027679 -0.123168 -0.041229 0.097145 0.019123 0.040318 0.070478 0.058237 0.128233 0.084844 0.188196 0.056699 -0.053355 -0.090235 0.136195 -0.036268 0.257357 -0.103368 0.163726 0.097530 -0.065582 0.139915 0.110053 -0.053461 -0.138054 0.080378 -0.121001 -0.061054 -0.013796 -0.007833 -0.060318 0.144588 0.029608 0.107848 -0.117981 0.065721 0.037489 -0.022371 -0.096960 0.126313 -0.059123 -0.040395 -0.158901 0.081889 0.057275 -0.035973 0.010093 -0.020209 0.002208 0.323991 0.016733 -0.200293 -0.026578 -0.172313 0.262413 0.027991 -0.099652 0.077140 -0.053305 0.182455 -0.089444 -0.060772 -0.020878 -0.336192 -0.095275 0.050261 0.066237 0.226338 -0.130404 -0.080468 0.148581 -0.028262 0.113062 -0.045032 0.094328 -0.071370 0.083199 0.039222 0.009420 -0.012976 -0.012780 -0.073766 -0.049342 -0.201790 -0.029411 0.203300 0.036921 0.031294 -0.012704 0.154496 -0.117538 0.145858 0.157802 0.086791 0.023701 -0.084983 -0.019350 0.080013 -0.115742 0.074510 -0.005065 -0.180564 0.155970 0.252957 0.096104 -0.204975 0.054399 0.040268 0.179285 -0.027534 -0.109294 0.048486 -0.202234 0.090190 0.006989 -0.119585 -0.048123 -0.048391 0.197023 0.169059 -0.036948 0.062503 0.128745 -0.007897 0.076376 0.100100 0.162065 0.147586
41 -0.131361 0.050197 -0.131971 -0.011095 0.209210 0.060835 0.217823 -0.039187 0.030040 0.025533 0.196332 -0.084730 0.089302 -0.084055 -0.225452 0.179559 0.166986 -0.046117 0.061839 -0.074718 -0.128479 0.112790 -0.023731 -0.022682 0.110038 -0.069481 0.045662 -0.027745 -0.082048 -0.048919 -0.032368 0.055293 -0.105343 0.012187 -0.056182 0.019767 0.089133 -0.070963 -0.062722 0.138205 -0.004308 -0.111474 -0.044684 0.081776 0.115091 -0.108185 -0.017755 0.012738 0.060183 -0.049240 0.081820 0.094832 -0.044881 0.006113 -0.039648 -0.173256 0.005377 0.208743 0.099802 0.037569 -0.001377 -0.005468 -0.299938 -0.105924 0.029073 0.003362 0.046457 0.026038 -0.149103 0.034288 -0.013006 -0.110455 -0.022305 0.190416 -0.212205 -0.032337 -0.110966 -0.039595 0.021068 -0.184955 0.119666 0.062784 -0.067343 0.063821 -0.031812 -0.008283 -0.134755 -0.041745 0.111168 0.047672 -0.118284 0.081854 -0.045130 -0.040086 0.091601 -0.271148 -0.018656 0.052380 -0.114506 -0.209516 0.144085 0.081885 0.026190 0.150793 -0.225714 -0.003191 -0.075209 -0.080812 0.388284 0.058362 0.049365 -0.005344 -0.230894 0.106805 0.059888 -0.091436 0.204511 -0.064025 -0.158571 -0.180500 -0.063282 -0.039662 -0.033676 -0.039235 -0.073594 -0.119888 0.071880 0.062650
198 -0.187762 0.064188 -0.037282 0.112168 -0.120325 -0.301306 0.178551 -0.021462 0.032692 0.003758 0.100923 -0.069317 -0.019611 -0.122404 0.030670 0.190396 0.195472 -0.048261 0.196327 0.125968 -0.163102 -0.002397 -0.114373 0.049901 0.292591 0.165027 0.176179 -0.022255 -0.138380 0.005642 -0.016990 0.030026 -0.182507 -0.204588 0.251625 -0.120375 0.062337 0.239287 -0.038944 0.161277 0.094456 -0.088181 -0.139290 -0.171531 0.068073 -0.203361 -0.081859 -0.161350 0.132494 -0.064991 0.086559 -0.046410 -0.017295 0.132600 0.087343 0.063716 -0.031734 0.039634 -0.038457 0.014942 -0.014691 -0.080271 0.082339 -0.125056 -0.026567 -0.329785 -0.021395 0.086269 -0.131901 0.071072 0.065929 -0.150156 -0.027095 0.014843 0.107004 -0.085265 -0.091202 -0.244798 0.067949 -0.001712 0.087401 0.018766 0.020402 0.002694 0.090508 -0.152368 -0.158229 0.044443 0.073187 0.041263 -0.028136 -0.043581 -0.015345 -0.045517 0.163855 0.010493 -0.155056 0.040610 -0.231958 -0.018162 -0.094523 0.080641 0.112231 -0.011085 -0.144937 0.110393 -0.107974 -0.213938 0.093954 0.094567 0.183902 0.089327 -0.175203 0.186381 0.085827 0.073720 -0.046601 -0.318554 -0.002421 -0.162389 0.099535 -0.077777 -0.087207 -0.016547 0.058140 -0.092577 0.208500 0.201200
690 0.098516 0.056617 0.017108 0.141216 0.139199 0.101513 0.059327 0.154092 0.037919 -0.100948 0.141281 -0.085423 0.065709 0.007420 0.054688 0.400264 0.042748 -0.026286 0.058324 -0.172197 -0.198660 0.003425 -0.192984 -0.016338 0.019641 0.010718 0.094181 -0.174721 0.059112 -0.113835 -0.012475 0.240521 -0.020972 0.093444 0.104674 -0.006641 0.202312 0.054485 0.147040 -0.032792 0.045453 -0.044801 -0.162454 -0.205562 0.122268 -0.270452 -0.205551 0.005846 0.210374 0.050216 0.170453 -0.341450 0.046869 -0.066042 -0.157356 -0.222805 0.120615 0.042257 0.082996 0.082567 0.011486 0.172250 -0.141175 0.029024 -0.192720 -0.040072 -0.101412 0.106696 -0.117948 -0.117568 0.086052 0.089225 -0.134293 0.226582 -0.100035 -0.143306 0.033639 -0.002673 0.081969 -0.074644 0.072915 0.262223 -0.008149 -0.119013 0.110388 0.146922 -0.106248 0.061186 -0.090254 -0.029216 0.197996 -0.162645 0.055906 0.106347 0.100865 -0.064768 -0.163254 -0.220443 -0.057787 0.012525 0.013598 0.000443 0.202950 -0.046733 -0.117286 0.065493 0.211334 -0.127091 -0.040461 -0.001589 -0.071511 -0.047677 0.000339 -0.086252 0.236503 0.027837 0.128992 -0.094934 -0.016999 0.142468 0.249751 0.006176 -0.087195 0.019492 0.037049 0.013934 -0.078077 0.023451
111 0.051585 0.079026 0.040649 -0.085766 -0.050152 -0.148204 0.184228 0.024970 -0.123275 -0.017369 0.269754 -0.068365 -0.152191 -0.017599 0.143459 0.077596 -0.022115 -0.151032 -0.090775 -0.210877 -0.030703 0.114507 -0.129114 -0.054197 0.017883 -0.205148 0.188449 -0.032240 -0.008978 0.181104 -0.101143 0.227534 -0.054970 -0.041759 0.126918 -0.037835 0.043430 -0.052410 -0.011764 -0.097945 -0.011976 -0.074832 -0.066552 -0.038433 0.032198 -0.003894 -0.056734 0.062348 0.225895 -0.079107 0.033612 -0.012247 0.214318 -0.116408 0.088339 0.117623 0.061666 -0.059440 -0.101148 0.039471 0.067512 0.038078 -0.120303 -0.054034 0.174945 0.024721 0.207438 0.136161 -0.018823 -0.030388 -0.056833 0.038792 0.125827 -0.049322 -0.286795 0.156327 -0.135498 0.217558 -0.040199 -0.325650 0.110984 0.053090 -0.020370 -0.002858 -0.072647 0.155573 0.037031 -0.024987 0.025469 -0.009307 0.038661 0.014380 -0.031423 0.150591 0.173991 -0.044539 -0.083796 0.025078 0.102560 0.016045 -0.040909 -0.085565 -0.003080 0.109135 -0.073555 -0.071898 0.224323 0.030802 -0.143844 0.199255 -0.045757 0.108317 0.023823 0.115843 0.043242 -0.117979 0.000261 -0.121699 0.024207 0.000603 0.180704 -0.218775 0.230481 -0.026932 -0.063682 0.140215 0.151417 0.066646
301 -0.081169 0.117186 -0.164612 0.015800 -0.125199 0.072134 0.086056 0.095558 -0.165183 0.004676 0.083348 -0.015919 -0.048353 -0.177962 -0.001961 0.122889 0.369655 -0.084327 -0.032874 0.058638 -0.150656 -0.164136 -0.094064 -0.038760 0.157830 0.161595 0.009901 -0.147271 0.193015 0.109592 0.051240 0.001254 -0.123550 0.054649 0.031302 0.066189 -0.045264 0.062012 -0.095031 -0.058367 0.055296 0.065706 0.081529 0.057461 0.095898 -0.243878 0.028553 0.210088 0.086455 -0.030389 0.131480 -0.291083 -0.010149 0.131974 0.086589 0.094592 0.052274 -0.019217 -0.098397 0.080947 -0.104614 -0.104240 0.115138 -0.051898 0.113432 -0.041899 0.074813 -0.088641 0.029165 0.020965 0.077108 -0.157553 -0.143176 -0.097392 -0.126736 -0.063972 0.118959 -0.085426 0.125026 0.035979 -0.045136 -0.046966 -0.061108 -0.150040 0.121763 -0.007833 0.087578 -0.051333 -0.097588 0.070358 -0.113423 0.114563 0.266105 -0.089174 -0.060923 -0.335217 -0.145479 -0.112463 0.216234 0.018409 0.000262 0.071083 0.099906 0.009811 -0.052561 -0.292783 -0.064625 -0.071196 0.166413 -0.136408 0.184860 -0.044330 -0.248504 0.094061 0.045545 -0.215966 0.057440 -0.111721 -0.067269 0.228980 -0.048343 0.016947 0.058416 -0.155421 0.136117 -0.088090 -0.049652 -0.013795
730 -0.015870 0.072879 0.046364 -0.142212 0.111383 -0.102830 0.036081 -0.105603 -0.103665 -0.197179 0.090242 0.010577 -0.057365 0.009024 -0.048021 0.090689 0.346071 -0.023471 0.056130 0.040648 -0.204483 0.008009 -0.077377 -0.057028 0.068930 0.020381 0.031115 -0.140821 0.025046 0.060347 0.131394 -0.083725 -0.112439 0.038474 0.027966 -0.014773 0.041642 0.002707 0.058408 0.091011 0.082473 0.015133 -0.180747 -0.099003 -0.023617 -0.163820 0.090995 0.138874 0.160607 -0.109345 -0.018418 -0.192164 -0.132016 0.109610 -0.005538 -0.131296 0.094402 0.057580 -0.062970 -0.052694 -0.165037 -0.006902 -0.099975 -0.345963 0.139443 -0.119849 0.008835 0.083702 -0.109744 0.038464 -0.163771 0.054382 -0.037863 -0.017034 -0.005306 0.021955 0.065125 0.221530 -0.195715 -0.056959 -0.028040 -0.095845 0.164009 0.101683 0.165646 0.137068 0.105051 -0.050508 0.105452 0.113555 0.060927 0.050589 0.173918 0.125559 -0.095377 0.094316 -0.032073 0.089241 0.064624 -0.023186 -0.100020 0.123654 -0.069437 0.064480 -0.064581 0.070432 0.072371 -0.037697 0.152016 0.109300 -0.107137 -0.053828 -0.131028 0.125128 0.061535 -0.041795 0.152568 -0.056541 -0.090497 0.030080 -0.073128 0.011017 0.035830 0.194423 0.153291 -0.056024 0.171519 0.150127
245 0.042079 -0.059650 -0.173303 0.012705 0.082037 -0.124592 0.195910 0.150064 0.082925 0.153030 0.091265 -0.214900 -0.143389 0.178060 0.041228 0.226322 0.156655 -0.024328 0.086833 0.019190 -0.102939 0.013882 0.013127 0.092466 -0.073925 0.111600 0.104858 0.184382 0.225420 0.155679 -0.038731 -0.007885 -0.117000 -0.032006 -0.074847 -0.070343 0.064891 -0.058018 -0.055247 0.056726 0.067663 -0.001174 0.229484 -0.099388 0.037457 -0.266513 0.027633 0.101104 -0.055106 -0.002137 0.237616 -0.176102 0.162229 0.028526 -0.000635 0.090513 -0.028818 0.168633 0.016375 0.150529 -0.232463 0.173360 -0.157612 -0.024977 -0.022418 0.145177 0.082230 0.148747 -0.136279 -0.006202 -0.024731 -0.093126 0.065615 -0.006649 0.014293 0.099085 -0.133312 -0.049259 -0.059274 0.138331 0.150327 0.144496 -0.086848 0.100237 0.086166 0.109392 0.042639 0.261524 0.048895 0.049985 -0.032431 -0.034063 0.079099 0.010062 0.139551 -0.099909 -0.011691 -0.160765 0.091758 0.125373 -0.224435 -0.095323 -0.064918 0.063605 0.129881 -0.088180 0.178427 0.062585 0.074354 -0.021527 0.179449 -0.036316 0.126558 0.102803 0.137622 -0.066997 0.163302 0.049368 -0.170882 -0.179987 -0.035550 0.022043 0.103398 0.049057 -0.038856 0.002908 0.252731 0.129871
225 0.122188 0.241401 -0.100659 0.094286 0.081934 -0.113696 0.174509 0.042154 -0.102396 -0.018389 0.046394 0.108532 0.086990 -0.233925 0.025965 0.084696 0.147797 -0.041053 0.040474 -0.010596 -0.185696 -0.020059 -0.191226 -0.038173 0.137652 -0.046067 0.120240 0.007370 0.105079 -0.079363 0.064919 0.028581 -0.231419 0.017619 0.101536 -0.065696 -0.077486 -0.096051 0.081050 -0.142279 -0.108972 0.054878 0.113635 -0.204374 -0.101296 -0.208003 0.020554 0.071412 -0.080043 0.094392 0.077771 -0.200127 -0.073830 -0.157221 0.189742 0.030742 0.056095 0.032307 -0.050495 0.153744 -0.043841 0.036590 -0.099377 -0.114647 -0.142520 0.052606 -0.250618 0.118369 -0.158568 -0.063969 -0.043505 -0.162539 0.320901 0.019846 -0.058331 -0.072465 -0.004253 0.187352 -0.129757 -0.032543 -0.022860 -0.020600 0.067742 0.087250 0.065650 0.054876 -0.080701 -0.032816 -0.088979 -0.136943 -0.226825 0.060101 0.054669 0.106403 0.020881 0.078174 0.021676 0.029184 0.138331 -0.278734 -0.037303 -0.174197 0.122095 -0.091713 0.002707 0.012222 0.099462 0.054583 0.002900 0.079295 0.158823 0.098280 0.022282 0.050853 -0.068000 -0.141365 -0.010481 -0.210211 0.011409 0.010662 -0.083659 -0.120961 -0.077566 0.235897 0.175975 -0.251659 -0.042932 -0.031775
61 -0.032604 -0.070899 -0.155418 -0.209494 -0.015961 0.021835 0.122126 0.159123 -0.097230 0.067106 0.025273 -0.021973 -0.232049 0.008266 0.207718 0.116825 0.117378 -0.083104 0.095938 0.008267 -0.269944 0.122331 -0.084595 -0.010810 0.169391 -0.122328 0.035857 -0.072643 0.205562 -0.060402 -0.074301 0.188462 -0.022212 0.122587 0.210708 0.105223 0.063648 -0.030697 -0.009861 0.128815 -0.018347 0.057383 -0.007417 0.012161 0.067058 -0.030468 -0.072312 0.088606 0.067274 0.039701 0.035855 -0.359902 0.030547 0.094573 -0.086996 0.003791 -0.088494 0.029467 0.102461 0.148231 -0.005985 0.156991 -0.057325 -0.050361 0.019114 0.078568 -0.143946 0.066394 -0.097411 0.185168 -0.021058 0.066038 -0.035710 0.025665 0.004810 -0.006455 -0.052063 -0.100403 -0.122944 0.014220 0.026660 -0.055752 -0.039758 -0.121769 0.253819 -0.164952 -0.064439 0.184007 0.099977 0.063963 -0.016724 0.219921 0.420286 -0.131384 0.218690 0.037656 -0.050412 0.127108 -0.083001 -0.094620 0.029794 0.031530 -0.030938 0.076190 -0.091538 -0.302341 0.054647 0.086395 0.314934 0.050424 -0.015241 -0.074485 0.056704 0.125927 0.026847 -0.092028 0.017122 0.065407 0.031387 -0.127139 0.213943 -0.057550 0.051070 -0.002625 0.199132 0.004995 -0.144950 0.130144
537 0.061552 0.031504 -0.051052 -0.265731 -0.059288 0.149322 0.070574 -0.152860 0.154883 -0.099399 0.181149 0.015684 -0.147162 0.006728 -0.092689 -0.088056 0.226214 -0.108780 0.115406 0.113194 -0.143703 0.066180 0.012869 0.031525 -0.024361 0.033597 0.043988 -0.098396 0.089817 0.103400 0.042132 0.159247 -0.077285 0.105425 0.180995 0.090704 0.139621 0.203484 -0.063041 -0.137020 -0.082949 0.047350 -0.132473 0.127354 0.195115 0.078879 -0.209491 0.054156 0.094163 0.003859 0.063384 -0.210010 0.230557 -0.064286 0.042808 0.060753 -0.085839 -0.083290 -0.096958 0.151497 0.081473 0.048547 0.099447 -0.072160 -0.022447 0.044966 -0.070166 0.054968 -0.035264 -0.130984 -0.006240 -0.300037 0.009792 -0.248896 -0.244987 -0.068923 0.046752 -0.113363 0.029907 -0.110276 0.198981 0.024281 0.029341 -0.118714 0.129001 -0.052168 0.071971 0.078863 0.111750 0.247451 0.090496 0.191377 0.193905 0.110434 -0.006921 -0.075825 -0.024279 -0.058374 0.228886 0.012311 -0.199633 -0.077986 -0.086052 -0.144173 -0.047759 0.070819 -0.080936 0.023987 0.171653 0.027335 0.272318 0.027244 -0.210893 0.002958 0.079667 -0.076647 0.062618 0.038547 0.043698 -0.076660 -0.003824 0.231492 -0.296135 0.013497 0.058964 0.003631 0.269415 -0.061589
309 -0.095827 0.020120 0.083842 -0.131345 0.078895 -0.022671 0.017503 -0.036469 -0.043460 -0.188918 0.178147 -0.111077 0.015856 -0.149801 -0.036935 -0.022623 0.123452 0.039940 0.075970 -0.138813 -0.164641 0.057440 -0.172813 -0.349234 0.072733 0.131582 0.016466 -0.085155 -0.075661 0.165260 -0.187947 0.191283 0.015982 0.070496 0.004437 -0.084242 0.106274 -0.105692 0.114717 0.019374 0.066701 -0.129529 -0.271224 0.038559 0.038729 -0.101002 -0.008777 -0.109433 0.180328 0.047716 -0.130322 -0.198711 0.050517 -0.109994 0.165050 -0.075767 -0.107307 -0.117811 0.000192 0.150574 -0.102873 0.088922 0.038118 -0.172285 -0.072271 0.034172 -0.156869 0.045815 -0.106322 -0.003480 0.055866 -0.092018 0.062458 0.133844 -0.037175 0.118571 -0.009429 -0.041106 -0.105871 0.013862 -0.038836 0.061187 -0.157035 0.112100 0.107811 -0.094426 -0.059782 0.061400 -0.013212 0.012753 0.142855 0.179829 -0.006166 -0.017656 -0.042249 -0.077350 -0.019582 0.004744 -0.183177 -0.265293 -0.080279 0.018137 -0.014870 -0.213076 0.001413 -0.101085 0.111815 0.001670 0.099315 0.037152 0.079359 -0.000259 0.051635 0.100062 -0.089610 -0.094882 -0.074470 -0.113712 -0.074609 0.066903 -0.106400 0.071920 0.142547 0.012148 0.031833 0.008467 0.062712 0.034033
224 -0.034341 -0.076051 0.021461 0.063024 0.207742 0.126514 0.110854 0.081169 0.022403 0.021366 0.177695 0.067268 -0.177093 0.103797 -0.088359 -0.088057 0.351219 -0.053968 0.066075 -0.033162 0.107400 0.105175 -0.010453 0.052843 0.234586 0.032986 0.159643 0.011210 0.072334 0.115155 -0.156957 0.125396 -0.222452 -0.114488 0.068100 0.115897 -0.025162 0.105582 -0.067290 -0.094795 0.250854 -0.075592 0.024434 0.064370 0.088075 -0.057525 -0.023473 -0.068073 0.067384 0.104339 0.064532 -0.136866 -0.189558 -0.056757 -0.084141 0.175551 0.013644 -0.023393 -0.069227 0.137527 0.031435 0.077181 0.077754 0.184174 -0.053716 -0.050180 0.094598 0.193326 -0.082849 0.102088 0.281474 0.049226 0.030659 0.038437 -0.200672 -0.055202 0.177936 -0.170405 0.072951 -0.218687 -0.036212 0.150956 -0.135500 0.131626 -0.029996 0.147979 -0.097025 -0.228520 0.067778 0.227038 -0.053403 0.097466 0.130130 0.061653 0.081476 0.027991 -0.095466 -0.139053 0.104046 0.025285 0.065998 -0.047579 -0.025068 -0.023768 -0.210756 0.091737 -0.055484 0.008719 -0.044321 -0.003056 0.026387 -0.101132 0.036861 0.052122 -0.097420 -0.214904 0.006849 0.048498 -0.065535 0.012724 0.161761 -0.045358 0.042942 -0.070037 0.031996 -0.074929 -0.002025 -0.005325
703 0.029846 -0.000908 0.024377 -0.292120 0.054366 0.118242 -0.051464 0.203035 -0.098291 -0.052384 0.022629 0.012267 0.029217 0.159963 0.057435 -0.005845 0.067054 0.037804 -0.010797 0.004485 -0.074737 0.135170 0.046075 -0.072971 -0.085542 0.190930 0.069991 -0.135404 0.064996 -0.072548 -0.135924 -0.073121 -0.232824 -0.060993 0.064409 0.180120 -0.240599 0.057050 -0.149516 0.006999 0.004632 0.092670 0.071677 -0.089987 0.072693 -0.198606 -0.145939 0.190247 -0.041008 0.064950 -0.088786 -0.165918 0.116605 -0.134632 -0.047412 0.013694 -0.099285 -0.107711 0.182449 0.089706 -0.078182 -0.043994 -0.118397 -0.036232 -0.056474 -0.061625 0.063344 -0.029226 -0.017785 -0.081336 0.008911 -0.035109 -0.121284 0.129933 0.114739 -0.225201 -0.083461 -0.061640 -0.103380 0.011492 0.074118 -0.056881 -0.202194 -0.061576 0.052778 0.049967 0.025107 0.041236 -0.001799 0.025337 0.017850 -0.046177 0.132167 0.038109 -0.042736 -0.117163 -0.079115 0.108356 -0.029586 -0.047923 -0.006000 -0.086999 0.070644 0.002316 -0.116142 -0.350052 0.351633 -0.035301 0.246546 -0.027066 -0.081939 0.107234 -0.087546 -0.021194 0.071221 -0.254810 -0.046390 -0.295789 -0.125430 -0.118203 0.024141 0.027949 0.165199 0.063859 -0.090132 0.014699 0.003732 0.002165
463 0.153481 -0.184196 0.119179 -0.258258 0.051276 -0.143352 0.054592 0.101400 -0.201222 -0.109811 0.279941 -0.144537 0.084089 -0.002104 0.056281 -0.008779 0.023585 0.085828 -0.046145 -0.005710 0.024942 -0.242102 -0.060579 -0.023715 0.106920 -0.041090 -0.093454 -0.122214 0.077995 -0.112555 0.019716 -0.101039 -0.096916 0.129893 0.012460 -0.076077 -0.034835 0.119302 0.098675 0.285219 0.132462 0.180083 -0.002713 -0.014747 0.120975 -0.067748 -0.001442 0.227366 0.218035 -0.012011 0.051405 -0.054946 -0.007738 0.090234 -0.051997 0.010890 -0.026675 -0.096885 0.031772 0.134995 0.222863 -0.101662 -0.192145 0.014483 0.037341 -0.053237 -0.013383 0.081581 -0.016093 -0.137811 0.170405 -0.160297 0.072962 0.081643 -0.141771 -0.061133 -0.022474 -0.027597 -0.246313 -0.044468 0.186206 0.218994 0.067286 0.077838 0.325230 0.124746 -0.165716 -0.015312 0.019797 -0.129318 0.056938 0.048304 0.061307 0.065727 0.139984 0.004436 0.005164 -0.070447 0.148996 -0.131578 -0.023544 -0.053678 -0.206932 0.035552 0.119874 -0.081065 -0.051052 -0.063485 -0.047017 0.165613 -0.094926 -0.180797 -0.222091 0.100051 0.023875 -0.185802 0.039261 -0.328326 -0.051470 -0.046745 -0.072879 0.090784 -0.047183 -0.046149 -0.052123 -0.077505 -0.026819 0.153396
123 -0.052004 -0.018074 0.096390 -0.012372 0.030138 -0.151934 0.195450 -0.155234 0.096224 -0.037151 0.298419 0.061714 0.000187 -0.009443 -0.012255 -0.069114 0.266845 -0.100235 -0.056260 0.082408 -0.155691 -0.175126 -0.104233 0.219967 0.092032 0.119780 0.013783 -0.010058 0.011630 0.118555 0.043783 0.075830 -0.136211 0.166468 0.003995 -0.077461 -0.005928 -0.076828 -0.171946 0.091606 -0.007425 -0.041599 0.047135 0.077246 0.165466 0.027099 0.160696 0.057184 -0.017806 -0.169432 -0.042082 0.018382 -0.248122 0.044282 0.165417 0.122427 -0.037684 -0.225869 -0.008432 -0.118060 -0.118698 0.144394 -0.148790 -0.009689 0.085329 -0.103483 -0.163400 -0.007001 0.138045 -0.146435 0.101837 0.005688 -0.084494 -0.181368 -0.100621 -0.202608 -0.060232 -0.039744 -0.151194 0.037413 -0.026182 0.095166 0.071876 0.059795 0.015326 -0.027588 0.028304 -0.000328 0.052303 0.127692 -0.169038 0.159388 0.229725 0.074625 0.023960 -0.077158 -0.077414 -0.131018 0.140577 -0.049424 -0.089962 -0.153949 0.234615 0.091306 -0.106847 0.072203 0.226734 -0.141531 0.124195 -0.015620 0.040070 -0.143289 -0.145402 0.166766 0.174824 -0.132478 0.171847 0.041691 -0.070782 0.071267 0.177249 -0.088247 -0.077363 -0.037870 -0.084265 -0.097183 0.090184 0.082945
528 0.061584 -0.096585 -0.064942 0.150504 0.030033 -0.150948 0.008178 0.014948 -0.043527 0.026839 0.209621 0.049536 0.042865 -0.118126 -0.094009 0.106112 0.118351 0.043158 0.102633 -0.166303 -0.033481 -0.041899 -0.053883 -0.071928 -0.066220 0.272928 0.068758 -0.001783 -0.008257 0.218992 -0.001694 0.173369 -0.155289 -0.018442 0.169836 -0.163642 0.127162 0.086188 -0.129263 -0.116858 -0.066460 0.031947 0.030970 -0.027566 -0.006146 0.115940 0.106314 0.016026 -0.040329 0.186574 -0.101796 -0.151902 0.024808 -0.177250 -0.018159 0.124720 0.054647 -0.337687 0.090695 0.025087 0.036556 0.283321 -0.003887 -0.074620 0.175737 -0.053129 0.061027 0.130525 -0.019805 0.143747 0.038835 -0.059511 0.208404 0.128293 -0.092159 0.132168 0.032799 0.054736 0.123783 -0.063669 0.073878 0.011531 0.039459 -0.000465 0.072870 0.010266 0.075351 -0.030866 0.210207 -0.103846 0.315823 0.196946 0.075189 0.133492 -0.023801 -0.157274 0.215476 0.026440 -0.229278 0.006908 -0.012405 -0.160141 0.174564 0.032335 -0.113808 -0.104232 -0.087059 -0.345590 -0.046303 -0.023474 -0.084599 -0.136704 -0.205329 0.066740 0.004719 -0.022943 -0.110449 0.078522 -0.218920 -0.048548 0.209949 -0.081896 0.129861 0.067817 0.006724 0.031489 0.249785 0.021270
289 -0.095315 -0.002503 -0.224714 -0.135892 -0.121397 0.057789 -0.028835 -0.009343 0.118861 -0.035163 0.252973 -0.066910 -0.143826 -0.043149 0.080100 0.067368 0.074344 0.092071 0.009991 -0.080884 -0.022534 0.083932 -0.043232 0.165715 -0.071488 0.008611 0.094095 -0.049373 0.009417 -0.194449 -0.099813 0.141932 -0.094141 0.020474 0.176555 0.010886 0.066484 -0.052329 -0.124484 0.062069 0.216336 -0.095221 0.100640 0.039606 0.112459 -0.139430 -0.070454 0.084379 0.207847 0.099402 0.024481 0.024523 -0.111957 0.057241 0.039434 0.126006 -0.065347 -0.183416 -0.037009 0.033056 -0.046636 0.054020 0.068079 -0.093862 -0.112977 -0.156965 -0.152160 -0.066613 -0.176535 0.071683 -0.115928 0.021516 0.269643 -0.019236 -0.091936 0.034928 0.065271 -0.029314 -0.139903 -0.111924 0.020392 0.152155 0.047604 -0.091868 0.124035 0.069133 0.096769 0.043318 -0.058475 0.047271 -0.092701 0.031476 0.351686 -0.001979 0.002322 0.057331 -0.258844 -0.184074 -0.207221 -0.182309 -0.089710 -0.139656 0.171200 -0.093621 -0.087418 -0.015109 0.128358 -0.233769 0.227989 0.071706 0.042122 0.009729 -0.032926 -0.110865 -0.206356 0.301069 0.190669 -0.025800 -0.074304 -0.043987 0.189854 0.035214 -0.046848 0.044166 0.002260 0.160172 0.132872 0.149013
711 -0.064482 -0.140448 -0.050725 0.024709 -0.011328 0.023955 0.214033 0.166150 -0.181205 0.021091 0.110773 -0.017647 -0.171803 -0.088970 0.102811 -0.041004 0.067097 -0.116687 0.137958 0.060382 -0.026036 0.253547 0.039266 -0.003542 0.057486 0.028762 0.090241 0.100652 0.071041 0.030537 -0.210202 0.189505 0.009101 -0.196434 -0.039686 0.277971 0.127369 -0.021372 -0.161528 0.043350 0.047625 0.041078 -0.105883 0.007871 0.019420 -0.099286 -0.055218 0.149638 0.070518 -0.091648 -0.243056 -0.067386 -0.025672 -0.070318 0.148057 -0.067501 -0.002565 0.045020 -0.113529 0.112787 -0.068146 0.057357 0.023918 -0.043617 0.110805 0.119715 0.020643 0.170715 -0.092614 0.010229 0.167663 -0.143211 0.103381 -0.121661 -0.005986 -0.093983 -0.020113 0.324091 -0.251104 -0.209800 -0.076591 -0.000005 0.035297 -0.073229 -0.036804 0.173932 -0.094002 0.025741 -0.035772 -0.034373 0.034542 0.149073 -0.038944 0.224606 0.174587 -0.024173 0.037487 0.124257 0.100964 0.076831 0.221215 -0.165877 0.096158 -0.122806 0.002248 0.006028 0.010951 0.118057 0.209424 0.176439 -0.030178 -0.125109 -0.135414 0.056976 0.028861 -0.084964 0.076873 -0.120283 0.056795 -0.033725 -0.161704 -0.009284 0.068187 0.131778 0.012191 0.285528 -0.073740 -0.125618
597 0.215874 -0.003646 0.052491 -0.020674 0.107846 0.099164 0.046335 -0.010019 -0.024835 0.039951 0.398465 -0.128743 -0.183480 -0.055524 0.026103 0.052858 0.019909 0.090747 -0.086605 -0.058440 -0.162497 0.066399 -0.093899 0.076588 0.146896 -0.174565 0.133766 0.031847 -0.092185 -0.222732 -0.263368 0.123758 -0.128816 0.285113 -0.043689 -0.132633 -0.178134 0.084291 -0.159625 0.173310 -0.033475 0.008841 0.081348 -0.261898 -0.061411 -0.138758 0.042910 -0.103718 0.132284 0.184666 0.200835 -0.140611 0.111202 0.004596 0.047387 0.002713 -0.013208 -0.006007 0.243156 0.214242 0.023420 0.134256 -0.130347 -0.062840 0.059295 -0.009252 0.230110 -0.194680 -0.049051 -0.142538 -0.015420 -0.133152 -0.005419 -0.072868 -0.045443 -0.077058 -0.167006 0.005731 -0.091491 -0.173817 0.206382 0.076565 0.046275 0.009209 0.005597 -0.026715 0.010653 -0.046470 0.123188 -0.072930 0.017324 -0.157727 0.196281 0.006466 -0.010565 0.010238 -0.036351 -0.031688 0.167451 -0.351137 0.071372 0.162043 -0.037127 0.032227 -0.028215 0.060358 -0.032098 -0.284281 0.228249 -0.088746 -0.157891 -0.129376 -0.075558 -0.053085 0.267554 -0.071937 -0.003475 -0.075967 0.033165 0.005737 0.123565 -0.319535 -0.022889 -0.080229 -0.018024 -0.073953 -0.033853 -0.034486
403 0.002670 -0.075268 -0.045366 0.008325 0.193667 -0.009118 0.108178 0.066079 0.071868 0.097568 0.153347 -0.016973 -0.035703 -0.033783 0.163119 0.225305 0.207126 -0.321828 0.013575 0.042889 -0.199508 0.274932 0.132539 -0.000901 -0.153098 0.270084 -0.069250 -0.132292 0.020687 -0.066286 0.015284 -0.021586 -0.143885 -0.107506 0.042373 -0.091805 -0.049170 -0.096842 0.158635 0.096575 0.032990 -0.184076 0.042048 -0.130024 0.196994 0.033847 0.068167 -0.002519 0.074078 0.010519 0.021580 -0.198675 -0.052555 -0.213549 -0.073723 0.109761 -0.076690 0.068923 -0.083729 0.363812 0.011325 -0.015019 -0.046754 -0.308546 -0.048974 -0.100338 0.076466 0.026514 0.031210 -0.102156 0.275173 -0.128780 0.071166 -0.060970 -0.059559 -0.079789 0.149685 -0.040506 -0.033117 0.005370 0.088359 0.123382 0.152361 -0.140473 -0.096351 0.013250 -0.143456 -0.149756 0.196999 -0.019583 -0.012190 0.124562 0.304031 0.088963 0.096015 0.104732 0.133679 0.039439 -0.003174 0.149735 0.026427 -0.105738 0.131126 -0.035465 -0.098858 0.207224 0.075227 0.176229 -0.053446 0.143137 -0.024566 -0.314745 0.096791 0.045352 -0.076662 0.031653 0.023219 -0.082173 -0.249352 -0.159134 -0.038313 -0.008289 0.025223 -0.158890 0.193737 -0.213123 0.011660 -0.048409
492 0.033433 -0.136446 -0.035005 0.095681 -0.105551 -0.151995 0.060370 0.075896 0.130771 -0.075509 0.141913 -0.060224 -0.130142 -0.011187 0.065965 0.098259 0.196827 -0.192832 0.140983 -0.120451 -0.009536 0.151027 0.063593 -0.279784 -0.015464 0.163657 0.005219 -0.072078 0.034238 -0.162669 -0.124528 -0.040028 -0.278804 -0.136082 -0.045070 -0.203365 0.029155 0.206220 -0.155921 0.156525 0.091864 -0.071849 0.159603 -0.160671 -0.182767 -0.100650 0.023764 0.049685 0.246395 -0.029668 0.089694 0.063151 -0.275021 -0.139233 0.097590 -0.064917 0.051269 0.243662 -0.003976 0.378091 -0.073382 -0.033107 0.021332 -0.026573 0.156607 -0.040486 -0.189459 -0.310933 0.195526 0.172828 -0.102097 -0.076458 0.022001 -0.043678 -0.076735 -0.159265 0.029990 0.273444 -0.085477 -0.132223 -0.091997 0.136352 0.066847 -0.065922 0.072420 -0.093678 0.056944 0.035327 -0.053294 0.058457 0.067424 0.028881 0.196399 0.069954 0.133175 0.009876 -0.096300 -0.012255 -0.109380 0.077172 -0.131042 -0.132415 -0.017090 0.003414 -0.127958 -0.193969 -0.032178 -0.024551 -0.035596 0.084482 0.048357 -0.382368 0.036483 0.081513 -0.088835 -0.068377 -0.181174 -0.026033 0.064829 0.048447 0.066425 0.002790 0.118671 -0.122710 -0.203171 -0.200870 -0.011877 -0.024576
662 -0.069446 -0.165499 0.155361 -0.089952 0.142442 -0.195572 0.001627 0.177045 -0.126129 0.137937 0.099177 -0.162388 -0.020573 -0.220992 -0.012005 0.217070 0.093902 -0.087450 0.148778 -0.174638 -0.213630 -0.024891 -0.106452 0.110950 -0.019951 0.061454 -0.000335 -0.027780 0.192231 -0.175795 -0.014071 0.129040 -0.232063 0.110335 -0.026102 -0.032712 0.060982 -0.057755 -0.011056 0.104719 -0.088928 0.011167 -0.070093 -0.050446 0.007559 -0.184761 0.016297 0.250590 0.011092 -0.138865 0.143899 -0.137231 -0.103028 -0.225429 0.001825 -0.041623 -0.125643 0.096486 0.018318 0.172522 -0.133782 0.223919 -0.063469 -0.046105 0.017347 0.012933 -0.054127 -0.015302 -0.244041 -0.088457 0.008083 -0.305127 -0.124586 0.174237 0.031788 -0.094087 0.005212 0.142936 0.155237 0.020968 -0.056579 0.115780 0.003987 -0.090296 0.056442 -0.018860 0.022246 -0.018427 -0.106755 0.106643 0.104484 0.162396 0.027644 0.036776 0.068613 -0.086049 -0.024502 0.031346 0.196909 0.134827 -0.232908 -0.049528 0.166019 -0.121393 -0.024957 0.028899 0.194746 -0.089498 0.154719 -0.078097 0.044682 0.058936 0.083828 0.036263 0.154578 -0.103946 -0.184278 0.048963 0.051144 -0.037869 -0.166822 0.000919 0.230862 0.026144 -0.074437 0.143276 0.011958 0.104261
88 -0.176820 -0.063317 0.154672 0.006728 -0.074162 0.100397 0.263372 -0.057763 0.200775 -0.026628 0.093502 -0.070443 0.006990 -0.107330 0.027405 -0.083865 0.057942 -0.095626 0.179212 0.056941 0.054895 0.163944 -0.027308 0.031084 0.219085 -0.239983 0.109329 0.028891 0.078942 -0.083213 -0.059669 0.056033 -0.158997 0.032052 0.261976 -0.024755 0.054444 0.081505 -0.056788 -0.047114 -0.031208 0.109274 -0.053998 -0.121261 0.053405 -0.025030 -0.058703 0.083848 0.175323 -0.010165 -0.052264 -0.045826 -0.116012 -0.090302 -0.005519 0.036400 0.055491 -0.094448 -0.052853 0.207916 -0.082361 -0.109985 0.086669 -0.135872 -0.200520 0.061189 0.139452 0.074520 0.128845 -0.000123 0.077473 0.042945 0.261950 -0.006257 -0.253948 -0.103236 -0.180677 0.011098 -0.103142 -0.030545 -0.134315 0.013658 -0.048265 0.031835 0.088907 -0.217878 -0.043942 -0.213511 0.024276 0.010053 -0.046194 0.205716 0.156710 0.025290 0.159290 0.001739 -0.000784 -0.170527 0.156336 0.077991 -0.155094 -0.177021 -0.039695 -0.031393 -0.097981 -0.160258 0.005917 -0.239669 0.080141 -0.079422 -0.039448 -0.042837 -0.138328 0.228671 0.083865 -0.061930 0.129370 0.198274 0.064054 -0.146734 -0.101395 0.003192 0.032238 0.131324 -0.024265 0.096860 0.100387 -0.007900
640 0.102434 -0.041739 -0.101528 -0.105976 0.130549 0.081449 0.123491 -0.015107 0.101133 0.004672 0.106346 0.097679 -0.043875 -0.084925 0.023271 -0.084518 0.012432 0.060195 -0.055220 -0.028822 -0.372459 0.089889 0.177740 0.053294 -0.181436 0.164783 0.037629 -0.016803 -0.021196 0.131334 -0.138771 0.106695 0.046927 -0.104414 0.043522 0.025272 -0.074943 0.006190 0.036280 0.109687 0.176141 0.112475 0.087583 -0.077341 -0.007955 -0.031911 0.022271 -0.175276 0.151658 -0.043928 0.045539 -0.149902 -0.020579 0.045345 0.036607 0.057504 0.016731 -0.035240 -0.023914 0.214114 0.007766 0.024267 0.167534 0.080765 0.036144 0.042610 -0.062853 0.036163 0.002153 -0.114090 -0.145078 -0.214214 0.202862 -0.087373 -0.112489 -0.054281 0.033207 -0.137202 0.027995 -0.104295 0.083047 0.177578 -0.036574 0.129260 0.198834 0.130702 -0.040829 -0.018538 -0.075361 0.094642 0.094235 0.007787 0.308820 0.106164 0.049764 0.044970 -0.125027 0.091672 -0.059101 -0.083311 -0.020076 0.006578 -0.039765 -0.054429 0.048700 0.021060 -0.041772 -0.120566 0.141004 0.040437 0.149580 0.033796 -0.158013 0.018347 0.078312 -0.173831 -0.049461 -0.023512 0.056576 0.104047 0.130544 -0.039075 0.018236 0.123420 -0.026579 -0.033293 0.153489 -0.045194
551 0.064063 0.259077 0.038287 -0.163416 -0.008232 -0.000038 0.209753 0.230364 -0.019943 -0.163955 -0.100395 -0.130763 -0.072613 -0.036600 0.180332 0.063086 0.082814 -0.042909 0.023745 -0.154633 -0.139709 0.120690 -0.027351 -0.039424 -0.183927 0.072244 0.069641 0.027223 0.112211 0.053269 0.030215 -0.153846 -0.111638 0.036627 0.075529 0.017300 0.070053 0.083839 -0.094466 -0.001389 0.111466 0.078578 -0.253802 -0.126026 0.130117 -0.067752 0.034372 0.055634 -0.011947 0.065421 -0.211893 -0.016909 -0.058768 -0.204380 0.177494 -0.151748 -0.022262 -0.058586 -0.035067 0.239097 -0.111042 -0.061635 -0.118593 -0.064480 -0.041562 0.047617 0.051215 -0.002668 -0.058251 -0.064522 -0.036177 -0.024610 -0.038222 0.017953 -0.007848 -0.083089 -0.129934 0.080460 0.053823 -0.093571 0.068594 0.030674 -0.030080 0.209791 0.063523 0.018993 -0.033225 -0.094710 -0.132293 0.028818 0.152801 0.072586 0.208204 0.075501 0.253383 -0.004409 0.016513 -0.114313 -0.006521 0.055643 0.091630 -0.006199 0.127991 -0.045947 -0.089355 -0.055973 0.082665 -0.230563 0.316569 -0.010026 0.044818 0.089051 0.065024 -0.078285 0.267246 -0.147417 -0.009345 -0.104315 0.006288 0.175343 0.352704 0.097477 0.054203 0.008604 0.053982 -0.124668 0.061803 0.038866
639 -0.049899 -0.102744 -0.070864 -0.171328 0.000985 0.026640 -0.018219 0.290519 0.007856 -0.054068 0.238152 -0.190053 -0.219639 -0.052724 -0.049643 0.098942 0.134221 0.002834 -0.021123 0.068649 -0.292493 0.065976 0.038417 -0.078433 -0.115224 0.031494 0.112797 0.008624 -0.198516 -0.143513 -0.068710 0.078936 -0.286727 0.082657 -0.214011 -0.120418 0.093816 -0.043720 0.133874 -0.004502 0.035993 -0.078977 -0.082585 -0.031106 0.201999 -0.166413 -0.036025 -0.076583 0.110668 0.012574 -0.054938 -0.159854 0.015597 0.058064 0.125390 0.026339 0.109548 -0.045419 -0.053319 -0.100686 -0.021150 0.051769 -0.055946 -0.074327 -0.298716 -0.045394 -0.104316 -0.178766 0.041545 0.080915 -0.174669 0.093591 -0.034484 0.121932 -0.176383 0.081719 -0.104556 -0.003275 0.075542 0.006221 0.207507 0.237088 -0.129464 0.020267 -0.115116 0.001166 -0.085554 0.117827 -0.050440 -0.017077 0.043123 0.124748 0.227932 0.226295 0.066501 -0.129387 0.076011 -0.096450 0.007591 -0.118922 -0.296787 -0.031150 0.032339 0.041717 0.017999 -0.067497 -0.153600 -0.103908 -0.017073 -0.001592 -0.041501 -0.160429 -0.118923 0.138124 0.118271 -0.076769 0.085337 -0.131770 -0.043657 -0.055704 -0.128503 -0.028813 -0.123343 -0.253967 -0.016415 -0.051989 -0.063848 0.008586
558 -0.001650 0.035294 -0.036549 -0.070750 -0.079808 -0.177245 0.175818 0.097417 -0.040514 0.018309 0.070164 0.035068 -0.177992 -0.035245 -0.168174 0.086269 0.050434 0.025295 -0.063977 0.311848 -0.073030 0.079080 0.093587 0.211808 0.182057 -0.081268 0.029440 -0.087457 -0.147814 0.144484 -0.019426 -0.130187 -0.129266 0.061906 -0.059442 -0.092754 -0.031081 -0.105734 -0.011277 -0.110784 -0.030964 -0.101302 -0.070929 -0.166654 0.085086 -0.169429 -0.049052 0.074272 0.216317 -0.024344 -0.021026 0.060341 -0.241809 -0.044876 0.094769 0.022194 -0.137894 -0.031426 0.063651 0.081287 -0.015591 0.048448 -0.068355 -0.122534 0.076062 0.075823 -0.018534 0.151582 -0.087501 0.075480 0.199386 -0.203496 0.140604 0.070891 0.097735 0.114549 0.046257 -0.105127 -0.093028 -0.447624 0.217004 -0.056751 0.033537 -0.271795 0.345251 -0.050896 0.130234 0.080765 0.187598 -0.003695 0.224435 0.097232 0.091837 -0.160089 0.287682 0.048997 0.074330 0.037897 -0.041395 -0.099165 -0.105079 -0.095477 0.141181 0.009385 -0.145872 -0.007927 -0.005738 -0.126506 0.011538 -0.109252 0.023890 0.102848 -0.172293 0.091163 0.045108 -0.109450 0.266063 -0.123948 0.006109 -0.111259 0.103814 0.113851 0.054354 -0.027152 -0.197128 0.099916 -0.117970 -0.059285
1 -0.117122 0.083227 0.071479 -0.153042 0.054895 0.126537 -0.207204 -0.084607 -0.016869 0.157731 0.145644 -0.070214 0.161618 0.087032 -0.000257 0.154484 0.197046 0.061309 0.026343 0.024832 -0.077190 0.093081 -0.063077 -0.010412 -0.069176 0.178068 0.017061 -0.215331 0.022049 -0.143516 -0.152502 0.040334 0.010550 0.163807 0.028966 -0.021467 0.202931 -0.081726 -0.084591 -0.050487 0.045918 -0.042712 -0.022079 -0.355982 0.017955 -0.033559 0.090080 0.067270 0.032024 -0.049881 -0.029652 -0.136934 0.005895 0.105263 0.202946 -0.234851 0.139108 0.039273 -0.031978 0.115334 -0.339988 -0.075038 -0.065172 -0.000822 0.005075 0.095286 -0.098093 0.122533 0.037234 -0.042221 0.122032 0.023143 0.002470 0.014347 -0.180141 -0.055406 0.235185 -0.102520 -0.112424 -0.157956 0.245491 0.122973 0.063163 0.132314 0.121597 -0.277638 -0.096696 0.083049 0.071851 0.104990 0.150392 0.017520 0.183505 0.147577 0.087048 -0.078036 0.041399 0.181753 0.010368 -0.004542 -0.038882 -0.019699 0.101848 0.080788 -0.126068 -0.010417 0.009813 -0.015210 0.180917 -0.008874 0.218240 -0.173444 -0.153224 -0.003054 0.001755 -0.032070 -0.015268 -0.012125 -0.028475 -0.071591 0.105340 -0.008618 0.242888 -0.131280 -0.028723 0.002351 0.127851 0.156955
293 0.022918 -0.203902 -0.021218 -0.154969 0.122981 -0.172753 0.298526 -0.103774 -0.033084 0.091177 0.111637 -0.205805 -0.086106 0.068717 -0.016596 0.092358 0.146264 -0.027704 -0.135055 -0.065240 -0.140110 -0.165585 -0.198170 -0.099695 -0.083098 0.040525 0.264835 -0.006804 0.015548 -0.060235 -0.281546 -0.093087 0.044466 -0.073510 0.048140 0.024712 -0.106716 -0.054192 -0.009884 -0.074949 0.050143 0.091784 0.110846 -0.088531 0.101768 -0.051615 -0.102468 0.235093 -0.129292 0.015883 0.203882 -0.028793 -0.144516 0.144499 0.153846 -0.090236 0.178509 -0.164964 -0.027538 0.218674 -0.038168 -0.129990 -0.129632 0.044778 -0.250996 0.112647 0.029578 0.074624 -0.203831 0.057299 -0.003165 -0.053470 0.064011 -0.111614 -0.093717 -0.006138 -0.037914 0.228366 -0.080708 -0.259115 0.063129 0.209776 -0.068933 -0.109395 -0.038431 0.033688 -0.066555 0.008074 0.011809 -0.048926 0.050375 -0.029644 -0.010686 0.218019 -0.164317 -0.177969 -0.113143 0.041746 0.113981 0.171217 0.015644 -0.040686 -0.001802 0.078122 -0.164198 0.007316 0.165670 -0.019754 0.242444 0.236034 0.136811 0.113144 -0.019886 0.074043 -0.029864 -0.009479 0.102676 -0.305311 -0.026225 -0.036180 0.075889 -0.184201 -0.022034 0.059868 -0.166286 -0.029089 0.029652 0.190607
608 0.035779 0.089137 0.042757 -0.073684 0.020083 -0.018262 -0.022323 -0.035682 0.045041 -0.117185 0.395809 -0.178005 0.050089 -0.144798 0.253868 0.086364 -0.008024 -0.205673 0.045545 0.042746 -0.182836 0.272374 0.137512 0.085926 0.109818 -0.094088 0.129196 0.035710 -0.034173 0.121250 -0.084251 -0.017956 -0.052939 -0.047759 0.033043 -0.011620 -0.173899 -0.000677 -0.107686 0.190805 0.065101 -0.001084 -0.032834 0.064340 -0.233582 -0.030290 0.233811 0.010280 -0.093151 -0.043944 0.016550 -0.187699 -0.117763 -0.010942 -0.092174 0.137731 0.131984 0.070855 0.091162 0.059063 0.050504 0.055079 0.032985 -0.018575 -0.192420 -0.111299 0.018663 -0.158443 -0.080255 0.055861 0.089332 -0.092065 0.312221 0.139747 -0.028166 -0.120887 0.120103 -0.035217 -0.082073 0.165922 0.006608 -0.148110 0.162003 -0.024053 0.079806 -0.046265 -0.061451 -0.097779 -0.094655 -0.080537 -0.083087 -0.200446 0.088282 0.160890 0.130400 0.134187 0.084063 -0.232991 0.101968 0.096841 -0.207825 -0.052041 0.062198 -0.139395 -0.304173 -0.084080 0.015029 -0.116433 0.238966 -0.001859 0.071772 -0.244750 -0.141035 0.130704 -0.022182 -0.122284 0.053835 -0.112061 -0.057462 0.027139 0.064048 0.029686 0.068820 -0.052740 -0.064163 0.054399 0.097731 0.012275
724 0.085996 -0.122828 0.009012 -0.105710 0.140703 0.124865 0.036007 0.174333 -0.064594 0.046460 0.053151 0.112448 0.046717 0.123491 0.147752 0.102698 0.208647 -0.194735 -0.085017 0.168910 -0.232464 -0.088393 0.119166 0.137811 -0.154802 0.278209 0.195876 -0.072832 0.035410 -0.158518 -0.061430 0.257121 0.087441 0.182226 0.059412 0.264419 0.095500 0.021084 -0.182115 0.032362 0.018365 0.017620 -0.097279 -0.141055 0.160191 0.056981 0.014821 -0.029522 -0.004932 -0.000258 -0.048551 -0.046006 0.024560 -0.002028 0.098316 -0.108148 -0.030409 0.110098 0.063070 0.228885 -0.093303 -0.140362 -0.019053 -0.013311 0.086788 0.010994 0.076661 -0.108556 0.020207 0.113645 0.121706 -0.126085 0.044464 -0.104105 -0.099924 -0.020898 0.014160 -0.091073 -0.057706 -0.296786 -0.087938 0.073456 -0.050940 -0.092873 0.000535 -0.067944 -0.052930 -0.010569 0.088847 0.049007 -0.150401 0.065914 0.053119 0.076702 -0.018521 0.115546 0.009203 -0.042488 0.028652 -0.065501 -0.122658 0.066029 -0.059318 -0.135923 -0.100676 0.149429 -0.072028 -0.153445 0.164107 -0.058692 0.048247 0.122282 -0.164936 0.243790 -0.070559 -0.192488 0.058026 -0.067385 -0.143458 -0.224196 0.240604 0.018304 0.105502 0.091447 -0.042152 -0.131453 -0.011446 0.021619
2 0.052355 -0.047379 -0.108388 0.056421 -0.075599 0.003246 0.183929 -0.173591 -0.145837 -0.190760 0.227066 -0.066708 -0.023553 0.033527 0.162745 0.208779 -0.004798 0.031587 0.032600 0.042600 -0.305759 -0.052960 0.131598 -0.169935 -0.142060 0.014466 -0.073538 -0.101619 0.058098 -0.009045 0.026566 -0.057120 -0.185188 -0.207011 0.119497 0.161976 0.013437 0.112713 -0.087588 0.050615 0.142792 0.051631 0.044370 -0.234288 0.107388 -0.057148 0.018534 -0.136081 -0.064790 0.029114 -0.112525 -0.075734 -0.053646 -0.085825 -0.190555 -0.071048 0.230469 0.023805 -0.025600 0.173462 -0.020991 0.040742 -0.201078 0.047295 0.198312 -0.008698 -0.047617 0.188020 0.007912 -0.044166 0.117970 -0.025285 -0.067600 0.087504 -0.183680 0.053444 0.016040 0.119874 0.110848 -0.217144 0.077330 0.082743 0.045923 0.088295 0.023250 0.004084 -0.067652 -0.002151 0.168433 -0.080774 0.034962 0.092411 0.095152 0.089652 0.092044 -0.098742 -0.112665 -0.136364 0.046891 -0.098398 0.039208 -0.209488 -0.046192 -0.127951 -0.041406 -0.182132 0.117053 -0.216582 0.039968 -0.063476 0.001309 0.206919 -0.008696 0.015981 0.113211 0.019538 0.032619 -0.128482 0.015948 0.243435 0.026428 -0.043500 0.067087 0.140453 0.065369 0.079603 -0.068700 0.075596
652 0.050389 0.071125 -0.167789 -0.209136 0.157073 -0.186437 -0.023414 0.117957 -0.110375 -0.001716 0.114164 -0.133895 -0.157037 -0.097044 0.103542 0.046629 0.071654 -0.230111 -0.007367 -0.105243 -0.329915 -0.050926 0.019339 0.029886 0.098250 0.036856 -0.048443 -0.139654 0.144696 0.094144 -0.176874 0.091554 -0.099226 -0.011433 0.006317 0.114395 0.128906 0.003270 -0.317002 0.126643 0.116076 -0.297023 0.088101 -0.045505 0.090461 -0.063217 -0.000388 -0.035758 0.014009 0.100070 -0.131938 -0.086500 -0.074458 0.043404 0.147393 -0.093009 0.140168 0.180232 0.069955 -0.033008 0.040072 -0.009725 0.014298 -0.001741 0.134496 -0.045487 0.287122 -0.157861 -0.013754 -0.226459 0.085547 0.083553 0.063013 0.180951 -0.151446 -0.086460 0.038428 -0.138676 -0.076789 -0.200286 0.091800 -0.115586 -0.027096 0.143931 0.255021 0.086031 0.182177 0.043115 0.069193 0.113348 -0.050200 -0.059337 0.096734 -0.092498 0.161597 -0.250577 -0.032617 -0.238214 -0.047575 -0.066905 -0.046080 0.037608 0.102716 -0.032605 -0.022734 -0.100337 -0.017211 -0.171415 0.210039 -0.070376 -0.032048 -0.167346 -0.073785 -0.116085 -0.039761 -0.129570 0.077017 0.111548 0.077947 0.108082 -0.014576 0.204033 0.089460 0.098787 0.086369 -0.154528 -0.045041 0.053207
228 0.067153 0.075599 0.005294 -0.146346 0.061002 0.008155 0.030038 0.027098 -0.033434 0.051084 0.277558 -0.122008 -0.185485 0.067190 0.034870 0.188844 0.154055 0.012916 -0.042713 0.019158 -0.249592 0.090453 0.244796 -0.188728 -0.079967 0.215444 -0.010408 0.067941 0.059659 0.002057 -0.143417 0.071052 -0.025079 0.096653 0.097254 0.169362 -0.148027 0.062768 -0.038517 0.137188 0.176234 -0.017281 0.163664 -0.263400 0.161680 -0.032073 -0.175583 0.118596 0.106282 0.033021 0.111469 -0.102680 0.006788 -0.032925 -0.010099 0.000627 -0.001232 0.018497 0.124559 0.094171 -0.171282 -0.092123 -0.185840 -0.083952 0.026153 -0.214677 -0.120800 0.043181 0.056903 -0.160056 -0.028520 -0.064511 -0.000629 0.084617 0.102629 -0.115319 -0.013120 0.133198 -0.086255 0.098626 -0.046016 -0.041702 -0.154065 -0.141000 0.195183 -0.066996 -0.002293 -0.003647 0.046986 -0.052806 0.185097 -0.017308 0.044824 -0.076013 0.109897 -0.001217 0.039366 -0.146670 -0.052908 0.136471 -0.235115 -0.057618 0.109036 -0.031503 0.098615 0.010539 -0.029404 -0.251047 -0.061080 -0.008864 0.092014 -0.027516 -0.153870 0.033034 -0.017261 -0.120595 0.122201 0.041561 0.064397 -0.133666 -0.045409 -0.286209 0.218647 0.009636 -0.009606 -0.148532 0.148447 0.034201
697 -0.074558 0.008276 -0.010661 0.047165 0.067932 -0.212367 0.178568 0.232038 0.047120 -0.086293 0.213264 -0.055929 -0.019975 -0.104917 0.032310 0.048524 0.010007 0.069835 0.064027 0.018229 -0.224257 0.024851 -0.053986 0.076873 0.064685 0.049262 0.038470 0.197051 0.097960 -0.030282 -0.119421 0.110107 -0.249321 -0.166014 -0.005224 0.077441 0.116614 -0.123832 -0.011440 -0.047021 0.026496 0.011126 -0.019713 -0.080780 -0.011212 -0.055307 -0.002075 -0.035880 -0.084705 0.152987 -0.099807 -0.107361 -0.053680 -0.056576 0.022678 0.006002 0.090259 -0.102966 0.112517 0.005780 0.093657 0.143069 -0.135575 -0.090867 -0.003352 -0.184181 -0.106069 0.060333 -0.084409 -0.018200 0.048145 -0.051138 0.048474 -0.008916 -0.145673 -0.093908 -0.065487 0.101918 0.013326 0.094502 0.042547 0.048771 -0.003099 0.034330 0.129418 0.298059 -0.038176 0.044519 -0.029986 0.028822 -0.016994 0.076757 0.197822 0.128785 0.001771 0.210328 0.000108 0.117021 -0.181324 -0.093104 0.076667 0.009164 0.084739 -0.057028 -0.224215 0.036593 -0.025373 0.048907 0.022810 0.221506 0.063490 -0.036380 0.040802 -0.122698 -0.030839 0.090720 0.220435 -0.292694 -0.032793 0.027418 0.305003 0.106670 0.089095 0.064147 -0.146011 0.286047 -0.094660 -0.116079
138 -0.020105 -0.054871 0.025445 0.131278 0.091454 -0.022295 0.265683 0.051405 0.156433 0.052116 0.229437 -0.001432 -0.151202 0.094834 -0.000281 0.165377 -0.105434 -0.000167 0.080839 0.040734 -0.026092 0.199277 -0.031279 0.016078 0.025579 0.081044 -0.121644 0.135826 -0.010674 0.037719 0.128824 0.117040 -0.120725 -0.024919 0.176680 0.020586 -0.014363 0.071679 0.047696 0.261570 -0.021367 0.088781 0.111796 0.130015 -0.211979 0.117275 0.179678 -0.004479 0.000354 0.040612 -0.056471 -0.243544 -0.080712 -0.211216 0.085490 -0.011282 -0.105372 -0.122410 0.089890 0.124073 -0.203710 0.134734 0.195939 -0.060835 0.170706 -0.105069 -0.046790 0.149871 -0.252462 0.173448 0.069432 -0.197293 0.188530 0.132959 -0.163122 0.165276 -0.084807 -0.061422 -0.059064 -0.054365 -0.023926 0.076895 -0.056771 0.149509 0.042806 0.069996 -0.016099 0.134028 0.140278 0.259059 -0.065019 0.193501 0.033909 0.000204 0.225024 0.088784 0.117190 -0.143320 -0.224739 -0.320432 -0.131980 -0.126488 -0.086994 0.095279 -0.144032 -0.114945 -0.044412 0.026920 0.056374 -0.093455 -0.019571 -0.057154 -0.167181 -0.044062 0.034482 -0.059250 0.035123 -0.003433 0.023129 -0.102350 0.076628 0.016786 0.004804 0.116308 0.063046 -0.169354 0.091419 0.011931
644 0.004631 0.023915 0.010365 -0.053849 -0.124449 -0.051769 0.080910 0.182222 -0.054981 -0.034179 0.077727 -0.111237 -0.010703 0.100228 0.073090 0.013436 0.110804 -0.125100 -0.022135 0.058963 -0.110871 0.050731 0.002405 -0.109480 -0.077356 0.340995 0.306765 0.115980 0.197161 0.058635 -0.019787 0.095380 0.070304 0.036912 0.188437 -0.126828 0.017044 0.186341 -0.012030 0.058096 -0.141300 -0.074586 0.075869 -0.104586 0.106103 -0.027694 0.151211 0.261005 0.148126 -0.081004 -0.089388 -0.014972 -0.113075 -0.259515 0.081759 0.064494 0.110382 -0.012840 0.313535 0.195772 -0.205448 -0.012136 -0.062717 -0.083038 0.165587 -0.073874 -0.187022 0.036890 -0.002011 -0.077956 -0.049510 0.000204 0.006755 -0.050303 -0.207371 -0.051385 -0.014454 0.028350 -0.145117 0.060711 -0.003743 -0.004374 -0.076346 0.128414 -0.041093 0.072721 0.088007 -0.084947 0.069754 0.020590 -0.000828 0.165647 -0.001746 -0.014825 0.104230 -0.040656 -0.090023 -0.015756 0.025807 -0.054444 -0.091937 0.084538 0.112835 0.036149 -0.108524 -0.233009 0.222299 -0.069802 0.024743 0.084077 0.102246 -0.032544 -0.046539 0.116376 0.093098 -0.033032 0.185882 0.108836 0.032339 -0.055228 0.026992 -0.000515 -0.017674 0.026505 -0.086389 0.057591 0.147275 0.048428
496 0.090512 0.030968 0.058976 -0.227167 -0.086672 -0.089186 0.096908 -0.049354 -0.033365 0.064099 0.266231 -0.011906 -0.004308 0.038083 0.191611 0.042624 -0.039503 -0.193195 0.005419 -0.034845 -0.104472 0.226059 -0.127547 -0.033788 0.104647 -0.089824 0.075163 -0.067303 -0.161459 0.211043 -0.169488 0.108704 -0.162590 -0.022003 0.047660 0.096317 0.077091 0.105941 -0.009861 0.045213 -0.019575 -0.070183 -0.143278 -0.246912 -0.016202 -0.027407 0.026957 0.247097 -0.081386 0.039879 -0.003592 -0.176235 -0.206485 0.041067 0.111340 0.160897 0.084589 -0.098789 -0.226446 -0.053735 -0.118582 -0.124042 0.032827 -0.011187 -0.121994 0.102221 0.112432 -0.032606 0.022337 -0.078251 -0.063898 -0.116168 0.261269 0.002435 -0.083189 0.028189 0.016286 0.081574 -0.074140 -0.066562 0.136599 0.110509 0.098966 -0.097243 0.075037 0.182467 0.117139 0.029033 0.055070 -0.093412 0.001176 0.006614 -0.013932 -0.086141 0.221703 0.286932 -0.203420 -0.066571 -0.112036 -0.039548 0.032021 -0.034527 -0.041919 -0.003699 0.074248 -0.037003 0.046561 -0.142422 0.326099 0.018807 -0.149779 0.133559 -0.006918 0.057724 0.066483 -0.169266 0.033588 0.033933 -0.082263 -0.067699 0.098117 0.006027 0.316886 0.065674 -0.174179 0.115597 0.133035 -0.134418
122 0.103002 -0.125847 -0.094992 -0.074255 -0.013809 -0.121757 0.204851 0.111958 0.032878 0.143737 0.105427 -0.233294 -0.057749 0.022708 0.095867 -0.022797 0.216970 0.078761 0.069369 -0.197095 -0.168347 -0.008528 -0.020985 -0.277753 -0.202107 0.132655 0.014344 -0.219016 -0.122046 0.132033 -0.115023 -0.116180 -0.028494 0.020733 0.211548 0.064392 -0.059926 0.181262 -0.006666 -0.145366 0.319038 -0.179791 -0.121488 0.053418 -0.048759 0.076923 0.074706 0.132263 0.044762 0.084510 0.048862 -0.075162 -0.118693 -0.045067 0.010190 -0.218049 -0.011689 0.009183 0.101980 0.103157 -0.159692 -0.017805 0.042300 0.009941 -0.013223 0.111120 0.190888 0.078758 0.016234 -0.188141 0.042120 0.114557 -0.046631 0.009987 -0.027530 -0.153414 -0.017815 0.003529 -0.213370 0.082405 -0.073426 0.245349 0.235803 -0.009151 0.039264 -0.024625 -0.024208 -0.121102 0.054083 -0.016512 0.024858 0.313350 0.166948 -0.060254 -0.001321 0.074727 -0.092354 0.023081 0.015117 0.048543 -0.031114 -0.323182 -0.081887 -0.011397 -0.098930 0.017642 0.182527 -0.010310 0.266338 -0.104896 0.265535 -0.255686 -0.067231 -0.036372 0.273520 -0.124974 -0.075954 -0.161088 -0.010463 -0.126758 0.016938 0.063349 0.218832 -0.093730 0.104211 -0.023977 0.130785 -0.057141
671 0.240084 -0.109280 -0.165564 -0.160909 -0.098252 0.221718 -0.002828 -0.038086 -0.145516 -0.016246 -0.022668 -0.030734 -0.162060 0.228298 -0.044504 0.162088 0.104096 0.015284 0.087219 -0.038426 -0.172557 0.054618 -0.055084 -0.004235 -0.057034 -0.068950 -0.068335 0.031788 0.096168 0.046667 -0.380660 -0.109976 -0.174119 -0.044154 0.162470 -0.031823 0.032295 -0.164660 -0.059206 -0.278202 0.020608 -0.011335 -0.225531 -0.028706 -0.024037 0.106000 -0.012855 0.020555 0.108823 0.244156 -0.057758 -0.088979 0.046913 -0.127733 -0.100556 0.013009 0.124848 -0.124393 -0.084570 0.076248 -0.125298 0.188927 -0.222230 0.160968 -0.046572 -0.054262 -0.140492 0.111667 -0.058005 0.032830 -0.041936 0.119594 0.164481 0.052447 0.072202 -0.159212 0.152057 0.003493 -0.194589 -0.176245 0.113066 0.083588 -0.074001 0.118267 0.071249 0.075038 -0.154238 0.131618 0.250460 -0.121206 0.048656 0.073438 -0.079582 -0.039382 0.065037 -0.217067 -0.025402 -0.123274 0.035273 -0.096400 0.006605 -0.098740 0.044062 0.070076 -0.121274 -0.087101 0.031706 -0.116156 -0.095487 -0.060936 -0.028647 0.208492 -0.333392 0.112948 0.042878 -0.151239 0.041955 -0.258083 -0.323230 -0.113378 -0.149173 0.023953 -0.158766 -0.002203 -0.041523 -0.040139 0.034563 -0.082034
677 0.079289 0.145524 0.039891 -0.056812 0.039787 -0.127264 0.048867 -0.057484 -0.004960 -0.010393 0.270163 -0.247828 -0.063924 0.131756 0.204584 -0.007743 0.015929 -0.225660 -0.052408 -0.037627 -0.030069 0.156783 -0.053224 -0.022795 0.033551 -0.106750 -0.037817 0.135121 0.020967 0.068722 -0.033937 0.210624 -0.255512 -0.053366 0.129004 0.047625 0.195709 -0.209835 -0.083375 0.367634 0.010704 0.003231 0.041050 -0.257285 0.180112 -0.209705 0.195064 0.058772 -0.128417 0.046079 0.080831 -0.287135 0.086892 0.064475 0.001711 -0.168916 -0.063633 -0.165807 0.215879 0.143682 0.047115 0.036804 0.006438 -0.182594 0.118699 0.034121 0.048492 -0.057562 -0.048725 0.136642 0.115693 0.039437 0.158303 -0.159849 -0.132056 -0.087451 0.115226 0.262317 0.025531 -0.123905 0.066563 0.006202 0.077124 0.121132 -0.111915 0.135942 -0.148129 0.051045 -0.089661 -0.114750 0.185576 0.142118 -0.092050 0.084985 0.026554 -0.254086 -0.097516 -0.049148 0.136032 -0.188635 -0.150324 0.130474 -0.048240 0.115483 -0.048201 0.001024 -0.021210 0.099141 -0.019048 -0.073170 0.182435 -0.107417 -0.079016 0.062195 0.163339 -0.081157 0.055585 -0.049310 -0.127853 0.105151 0.209155 0.046554 -0.045668 0.028397 0.100663 -0.161021 0.161846 0.140944
550 -0.079713 -0.061078 -0.134018 -0.202484 0.022564 0.064994 0.048077 0.093782 -0.100647 0.018760 0.148988 0.143435 -0.012513 -0.098288 -0.038976 -0.020115 0.021502 -0.050370 -0.068805 0.075081 -0.155992 -0.109218 -0.125617 0.122676 0.056603 0.104092 -0.014950 0.007758 0.153104 -0.058088 0.004466 0.074917 -0.057213 0.053875 0.106136 0.031110 0.007998 0.147051 -0.027973 0.124623 0.132906 0.068707 -0.057626 -0.127871 0.112529 -0.091871 0.113862 0.073571 0.045228 0.001975 -0.142509 0.019694 -0.099047 -0.093573 0.105820 0.002413 -0.168519 0.029986 -0.164281 0.237858 -0.031809 0.146470 -0.011269 0.126654 0.192386 -0.147207 -0.200615 0.000418 -0.112062 0.105693 -0.104723 0.094614 0.036750 -0.089580 -0.255373 -0.217763 -0.006193 0.225320 0.209413 -0.021743 0.029786 -0.090999 -0.004620 -0.001180 -0.024120 -0.026954 -0.063719 -0.107068 0.043275 0.010490 0.165857 0.130658 0.269120 -0.138744 0.119383 -0.045562 0.102401 0.134465 -0.043113 -0.132370 0.050107 -0.134819 0.139637 -0.029372 -0.173377 -0.227225 0.173940 0.017685 0.023437 0.009929 0.023469 0.073644 -0.164233 0.069139 -0.083234 -0.121144 0.027646 0.043850 0.186148 0.122578 0.197860 0.023845 0.128848 0.003892 -0.085258 0.020732 0.246172 0.042339
240 -0.187249 -0.017455 -0.086759 0.024080 0.112933 0.124816 0.033971 0.206890 0.067761 -0.033770 0.159471 0.198153 0.078076 0.107609 0.031785 -0.038308 0.016008 -0.337498 -0.026737 -0.226223 -0.273340 0.216874 -0.092053 -0.070235 0.028612 -0.025086 0.144179 0.017358 0.152056 -0.048369 0.012396 0.135976 -0.178338 0.060175 0.056958 -0.085133 0.032841 -0.038928 -0.129166 -0.079238 0.223858 0.150419 -0.055298 -0.094558 0.107646 -0.107126 -0.012526 0.190561 0.042252 0.010195 -0.175456 -0.084312 -0.062332 -0.056284 -0.089497 -0.019164 -0.230753 -0.007755 0.040954 0.031721 -0.138574 -0.015242 0.066002 0.204852 -0.044830 0.009482 -0.023571 -0.123116 -0.117022 0.026499 0.043915 -0.246800 0.099442 0.048959 -0.064153 -0.147605 -0.157213 -0.036154 -0.204711 -0.083544 0.057642 0.154939 -0.181041 0.105393 0.220863 -0.008914 0.001083 0.135485 -0.046142 0.028753 0.203394 -0.127805 -0.115024 0.138517 -0.073713 0.072704 0.108047 -0.000173 0.112113 -0.204044 -0.071068 -0.069007 0.032708 0.076867 0.177595 -0.005576 0.153131 0.018339 0.141700 -0.029868 0.149949 -0.217254 -0.091419 0.093467 -0.069505 -0.023247 0.010950 0.004611 -0.232605 -0.168080 0.064565 0.116975 0.017894 -0.049972 0.200691 -0.071481 -0.020780 0.070887
118 0.122038 -0.277786 0.119193 -0.153367 -0.098987 -0.065183 0.096337 0.070005 -0.104510 -0.048128 0.100063 -0.025621 -0.128330 0.007434 -0.150697 0.039529 0.058960 -0.286183 -0.071776 -0.157776 -0.146612 0.077798 -0.018831 -0.093806 -0.005575 0.071296 0.026813 0.061123 -0.074094 0.304548 -0.012425 0.143332 -0.117038 -0.013208 0.028613 -0.103787 0.097323 0.063868 -0.039845 -0.016680 0.010849 -0.144456 0.245044 -0.029578 0.045619 0.001896 0.121821 -0.068002 0.112623 -0.086385 0.105506 -0.266894 -0.179136 -0.019815 0.221271 -0.139649 -0.252172 -0.135325 0.150958 0.037737 -0.106180 0.085157 0.101477 -0.105678 -0.049697 -0.016237 0.109504 0.099891 -0.297171 0.059510 0.036943 -0.156596 0.108912 0.034778 0.005018 0.183422 -0.119651 0.105145 -0.103388 -0.185485 0.100633 0.100607 0.044567 0.037415 0.075036 -0.239735 0.060931 0.184282 -0.147466 0.024022 0.189873 -0.036858 0.031443 -0.026904 -0.039583 0.115948 0.053733 -0.080597 0.060252 -0.146481 -0.056256 -0.220700 0.034211 0.016766 -0.140863 -0.101017 0.118742 0.217701 0.252960 0.105817 0.014862 0.014213 -0.085348 0.102643 0.231940 -0.165974 -0.223441 0.013792 0.025496 -0.001449 0.070982 -0.052837 -0.121168 -0.078495 -0.088375 -0.094341 0.045751 -0.016969
641 -0.064480 0.257804 -0.151485 0.012791 0.088206 0.097299 0.302776 0.135552 0.092601 0.030517 0.178991 -0.103103 -0.170350 0.046619 -0.031843 0.087338 0.328988 -0.076937 0.120467 -0.077546 -0.069479 0.170381 0.138229 0.039110 0.164261 0.023807 0.009648 -0.077748 0.088459 -0.027228 0.005168 0.049515 -0.230325 0.152328 -0.064877 0.004461 0.221288 0.134916 -0.195468 0.060559 -0.006268 -0.034587 0.169716 -0.012827 0.068942 0.008353 0.077144 -0.088299 -0.150537 0.057696 -0.054928 -0.290045 0.011338 0.080005 0.011818 -0.057123 0.005451 -0.112592 0.065277 0.236509 0.082780 0.183936 -0.131773 -0.027482 -0.085113 -0.009172 -0.203222 -0.003105 0.043491 0.029544 0.056501 -0.046058 -0.035532 0.039766 -0.264095 -0.090699 -0.195955 0.124769 -0.147216 -0.109078 -0.077060 -0.050467 0.002509 0.053894 0.066130 0.023908 0.079680 0.230633 0.027208 -0.281746 0.034863 0.173961 0.087627 -0.215751 0.023728 0.026991 0.084760 -0.034106 -0.029533 -0.056715 -0.073864 0.138396 -0.042592 -0.087938 0.050602 -0.185206 0.017877 0.040126 0.254390 0.111151 0.039666 0.096495 -0.157045 0.125015 0.062609 -0.094231 0.165881 0.069109 -0.059318 0.098979 0.100769 -0.044225 -0.135440 -0.106820 0.107065 -0.109976 -0.108563 0.029256
20 0.003003 -0.271954 -0.043937 -0.205446 -0.075400 -0.157854 0.078286 0.120452 0.074772 0.012072 0.291671 -0.035123 -0.300424 0.177916 -0.137470 0.228496 -0.020425 -0.193297 -0.150330 0.050119 -0.298858 -0.096859 -0.080167 -0.069747 0.121319 0.051790 0.037953 0.103084 -0.017196 0.061083 -0.109249 -0.085206 -0.123115 -0.148429 0.082459 -0.041869 -0.068469 -0.049601 -0.086059 -0.229326 -0.002522 -0.030083 -0.010221 -0.254668 -0.025122 -0.043467 -0.007814 -0.071237 0.216616 -0.033142 0.144711 -0.082600 -0.088909 -0.092428 -0.044675 -0.014828 -0.080824 -0.009179 -0.035215 0.154646 0.010509 0.013700 -0.202097 0.056935 -0.144714 0.029970 -0.153685 0.054888 0.089763 -0.122702 -0.073226 -0.103628 -0.013621 0.039156 0.053692 -0.093698 -0.013755 0.237303 -0.169590 -0.078017 -0.012316 -0.057500 -0.150594 -0.083569 0.084055 0.051950 -0.032116 0.094346 -0.023743 -0.182594 -0.127344 0.036824 -0.041813 -0.007658 0.004984 -0.118870 -0.088805 -0.008842 -0.029930 0.012898 0.069692 -0.001594 0.163683 -0.218263 -0.064862 -0.115719 0.143758 -0.157963 0.052116 0.211281 -0.027586 0.158467 -0.179545 -0.004104 -0.092149 -0.194375 0.015397 0.049703 0.124347 0.232337 -0.049301 -0.057733 0.173506 0.128505 -0.074489 -0.205749 -0.096259 -0.141749
401 0.098064 -0.048580 0.033887 -0.040185 -0.129822 -0.180973 0.143973 0.096483 -0.009077 -0.137583 0.126572 -0.132938 0.017216 -0.039162 -0.024295 0.243470 0.221147 0.132092 0.153509 -0.150247 -0.226243 0.133842 0.001605 0.022531 -0.063998 0.081157 -0.054049 -0.029024 -0.053170 0.081609 -0.092390 0.166179 0.031949 0.208220 0.027151 -0.108753 0.182284 -0.125499 -0.014937 0.080213 -0.047230 -0.043035 -0.040477 -0.175163 0.015440 -0.096332 0.133428 -0.061999 -0.061135 0.169580 -0.040060 -0.068336 0.230542 0.123611 0.037695 -0.076571 0.024641 0.160653 0.045471 0.190691 -0.206356 -0.070734 -0.099944 0.054871 -0.019171 -0.178209 0.054365 0.179469 0.113842 -0.046043 0.073177 -0.141857 -0.019794 0.094529 -0.046207 0.008765 0.015753 -0.072641 -0.254065 0.144786 0.121664 0.048528 -0.136309 0.024470 0.201397 -0.057357 0.013627 0.196086 0.048600 -0.035281 -0.013226 0.224494 0.177564 0.059636 -0.030283 0.219377 0.025850 0.086896 0.157580 0.036351 -0.063536 -0.196088 0.192337 0.048335 -0.165892 -0.131128 0.087591 -0.031075 -0.009617 0.201415 0.175462 0.080844 0.086973 0.029047 -0.268540 0.120381 0.132807 0.023747 0.067819 0.110502 0.037477 -0.008015 0.098440 -0.161507 -0.198185 -0.195598 0.131809 0.026937
316 0.114757 -0.209978 0.022343 0.053753 -0.203803 -0.060042 -0.033888 -0.011693 -0.013856 -0.098598 0.130364 -0.232418 -0.066071 -0.019753 -0.043507 0.207837 0.171210 -0.174183 -0.011551 -0.143538 -0.052164 0.190760 0.027228 0.058792 -0.093373 -0.016949 0.200328 -0.031439 -0.143894 0.119355 -0.043100 -0.016081 -0.111661 0.002216 -0.025921 0.136963 0.103656 0.025638 -0.183992 -0.044040 -0.159798 0.137550 -0.004519 -0.022773 -0.068214 -0.101902 0.061739 0.107384 -0.050164 0.078319 -0.156456 -0.109955 -0.009016 -0.133774 0.102124 -0.034732 0.094778 0.267594 -0.086053 0.001264 0.056436 0.131045 -0.045394 -0.005657 -0.002175 -0.011684 0.017428 -0.071916 -0.308140 -0.075932 -0.054405 -0.113508 0.200495 -0.071464 -0.027577 0.079437 -0.035686 -0.149639 -0.077379 -0.099510 0.222953 0.191933 -0.067918 -0.198219 0.073786 -0.059858 -0.155894 0.009830 -0.135677 0.015317 0.015763 0.128489 0.066964 0.110083 0.043697 -0.097778 -0.193407 -0.161694 -0.144146 -0.000783 0.020857 -0.052067 0.217493 0.077533 -0.170635 -0.067292 0.172304 -0.007992 0.078999 -0.186790 0.082388 -0.217307 -0.053755 -0.006980 -0.117540 -0.089521 0.054758 -0.040028 0.083657 -0.001512 -0.183363 -0.067572 -0.072743 0.116388 -0.058767 0.113783 -0.099454 0.048188
263 0.097457 -0.018612 -0.016660 -0.116483 0.081145 -0.066617 0.097733 0.232991 0.153220 -0.002348 0.298539 -0.232365 -0.231945 -0.293615 0.094582 0.041868 0.270028 -0.111295 0.013782 0.062024 -0.103422 -0.020742 -0.063238 -0.087278 -0.107826 -0.100789 0.166495 -0.242767 0.055810 -0.032166 0.005933 0.225989 -0.123902 0.109255 -0.118883 0.064370 -0.033119 0.036338 0.029992 0.023886 -0.146287 -0.029653 0.145473 0.012053 0.029498 -0.117326 0.056872 0.023873 0.102454 0.013069 0.038078 -0.126840 -0.048797 -0.007471 0.070918 0.263978 -0.108686 0.101316 -0.186543 0.089159 -0.154002 0.144221 -0.165655 0.329666 0.025531 0.111501 -0.354948 0.015572 -0.099531 0.037531 0.007301 -0.038430 0.007882 -0.102218 -0.016630 -0.214781 0.133823 0.085650 -0.053322 0.084210 0.020814 0.118238 0.103150 0.079135 0.016592 -0.009936 0.100856 -0.018001 -0.006384 -0.163173 0.119004 0.151557 0.036049 0.113119 0.006804 0.009523 -0.162438 -0.021400 0.150780 -0.367020 -0.118262 -0.275738 -0.031385 -0.241642 0.028897 -0.163975 0.042989 0.154656 -0.047808 0.063553 0.106115 0.092868 -0.214325 0.069242 -0.080452 0.052030 0.375827 0.237274 0.126857 0.184444 0.075184 -0.117824 0.066221 -0.005311 -0.086370 -0.231163 0.188312 -0.050026
637 -0.107675 -0.079953 -0.057665 -0.076976 -0.111574 0.168190 -0.048146 -0.184114 -0.024580 -0.027217 0.154753 -0.062233 0.161356 0.051724 0.015010 0.113900 0.309813 -0.106837 0.095522 -0.160659 -0.227406 -0.016416 0.031492 -0.115051 0.104448 0.079741 0.090876 -0.027303 0.103055 0.000883 -0.030268 0.161497 -0.028640 0.345406 0.169547 -0.018938 -0.079084 0.168616 -0.187821 0.119773 0.021470 -0.176092 -0.066696 -0.132741 -0.079731 -0.054141 -0.058988 -0.086071 0.005227 -0.046528 0.006671 0.032328 -0.069875 0.109170 0.220571 0.035895 -0.024226 0.041471 0.092342 0.093258 0.027228 0.117753 0.147531 0.034737 -0.218463 -0.051876 0.173226 -0.091674 0.104743 0.101754 -0.121476 -0.030456 0.107674 -0.000228 -0.175996 -0.236483 -0.092287 0.250002 0.064493 -0.053226 0.072239 0.093144 -0.171795 0.087402 -0.017025 -0.120046 0.119981 -0.007960 -0.054170 0.114033 0.036570 0.122596 -0.094880 0.088757 -0.041361 0.195730 -0.024145 -0.122304 0.210789 0.002921 0.038302 -0.223228 0.434180 -0.091977 0.003685 -0.115466 0.097754 -0.036125 -0.083147 0.035799 0.108500 0.094157 -0.107008 0.058763 0.010943 -0.069423 0.058391 -0.243555 -0.014143 -0.090157 -0.118620 0.075147 0.009136 -0.011048 -0.103387 -0.061706 0.100896 0.033784
580 0.137341 0.101257 0.004753 -0.097616 0.047292 -0.051295 0.159735 -0.014741 -0.026056 0.068101 0.248992 -0.148106 -0.021846 -0.154750 -0.007915 0.084883 0.241830 0.144644 0.195672 -0.064674 -0.050745 0.019641 0.041384 -0.050554 -0.119199 0.022184 0.140399 -0.103450 -0.158327 0.219832 0.081521 -0.058405 -0.200035 0.176507 0.076372 -0.226916 0.055231 0.154889 0.012042 0.080222 0.197160 0.019566 -0.083837 -0.059610 -0.175323 -0.105664 0.121450 -0.004914 0.046642 0.033503 -0.065308 0.027625 -0.160378 0.204015 0.070958 -0.223724 -0.072051 -0.060056 -0.084994 0.243078 0.036579 0.031586 -0.059227 -0.193455 0.023622 -0.007351 0.156944 -0.097835 0.099949 -0.151164 -0.033600 -0.134046 0.029254 0.197315 -0.082348 -0.099010 -0.136031 -0.086021 -0.186878 -0.172922 0.207122 -0.166257 -0.033679 -0.058776 -0.078933 0.061009 -0.142450 0.015991 -0.101948 0.040576 0.112087 0.158351 0.186186 -0.020703 0.111210 -0.166207 -0.126555 0.151707 0.184479 -0.061317 -0.086659 0.046761 0.244956 -0.118188 -0.017443 0.168499 0.001670 -0.034793 -0.024208 0.111737 0.145713 -0.107719 -0.129740 -0.095444 0.045403 -0.052885 0.107636 -0.153801 -0.198225 -0.078457 0.097360 -0.034439 0.033170 -0.019693 -0.033731 0.058374 -0.026437 -0.090676
415 0.130544 -0.057637 -0.075934 -0.070807 -0.066380 0.019978 -0.040590 0.044723 -0.017330 -0.046282 0.371501 -0.153467 -0.034598 0.120812 -0.099422 0.120641 -0.027231 -0.089563 0.132861 -0.103666 -0.131619 0.136349 -0.343529 0.014922 0.037853 -0.106587 0.234978 -0.065860 -0.094380 0.029226 -0.050123 -0.016337 -0.017673 -0.009730 0.136853 0.016544 0.178092 -0.108136 -0.151646 -0.044112 0.033938 -0.227143 0.228336 -0.127213 0.016759 -0.075276 0.012273 -0.018784 0.046571 -0.017840 0.107853 -0.284914 -0.024420 -0.163147 -0.116135 -0.109998 -0.017929 -0.069744 0.069926 0.091241 -0.015955 -0.039703 0.036606 -0.174553 0.017947 0.179041 0.231190 -0.074508 0.058592 -0.298924 0.055029 -0.233227 -0.032382 -0.075522 -0.161959 0.053904 -0.048301 0.045668 -0.112288 -0.104864 0.346322 0.101611 -0.109352 0.015793 0.052302 0.026089 -0.022013 0.126239 -0.186989 0.176678 0.021655 0.046934 0.034886 0.061765 0.155944 -0.189921 -0.317702 -0.076198 0.006000 0.036126 0.115655 -0.016286 0.061875 0.026930 -0.076770 -0.057897 -0.042770 -0.155812 0.022981 0.136765 0.064510 -0.029949 -0.075634 0.034344 0.065971 0.026114 0.054552 0.136625 0.049621 0.083598 0.128098 -0.073556 0.016956 0.018019 -0.007571 -0.231305 0.006257 -0.117344
196 -0.218071 -0.017400 -0.078749 -0.175960 -0.228631 -0.036522 0.131352 0.041962 0.085250 -0.017557 0.015256 0.361612 0.008205 -0.016540 -0.171710 0.036333 0.006116 -0.132334 0.095064 0.031723 0.183582 0.013450 0.021250 -0.078765 -0.058383 0.084537 0.092956 0.064963 0.021207 0.087441 -0.110330 0.097648 -0.115951 -0.081334 0.205534 0.169690 -0.096985 0.097340 -0.164081 -0.132027 -0.180749 -0.228217 -0.156257 0.011504 0.010704 -0.003202 -0.172139 -0.195889 0.234101 -0.007025 -0.039973 -0.183250 -0.027672 -0.162230 0.194135 -0.047077 0.138003 -0.195709 0.034610 0.103967 -0.087750 0.102208 -0.017676 -0.055709 0.245859 0.160228 0.181813 -0.033780 0.042580 0.049913 0.031319 -0.015085 0.260837 0.062980 -0.043530 -0.012150 0.024762 0.075610 -0.128162 -0.169099 0.058541 0.146094 0.026151 0.060659 0.230229 0.080521 -0.060300 0.045920 0.100248 0.091624 -0.037660 -0.028043 0.120105 0.134890 0.285251 -0.119816 -0.032053 0.157418 -0.004560 0.035191 -0.032703 -0.167051 0.065507 -0.168993 -0.236089 0.129014 0.102240 -0.073685 0.106946 0.177129 -0.040045 -0.200607 -0.111014 0.019508 0.109090 -0.044690 0.096688 -0.221656 0.166284 0.053100 -0.033834 -0.108234 0.023670 0.044567 0.007973 0.047967 0.012088 -0.066918
77 -0.076147 0.013886 0.013949 -0.018121 -0.070047 0.079291 0.034495 -0.127361 0.008798 0.187497 0.076870 -0.169065 -0.020303 -0.160089 0.295929 0.075810 0.114207 -0.040456 0.054367 -0.101768 -0.225168 -0.065472 0.107130 -0.051201 0.176809 -0.014627 -0.096784 0.022381 0.080097 -0.050063 -0.072778 0.022969 -0.108482 -0.066096 -0.032106 0.164879 -0.072958 0.215942 -0.351877 0.044092 0.204536 0.080255 -0.152910 0.079668 0.180467 -0.177403 -0.224461 0.110876 0.033575 -0.094635 -0.212069 -0.140628 0.127558 0.044375 0.066881 -0.206557 -0.018508 -0.118044 -0.026596 0.065269 -0.230337 -0.025160 -0.041638 -0.024621 -0.130797 -0.028949 0.005184 0.089364 -0.038946 -0.264959 0.163359 -0.060560 0.012662 0.013589 -0.105385 0.114139 -0.018371 -0.031813 -0.112763 -0.274906 0.082521 -0.037812 -0.008344 0.161162 0.230814 0.106033 0.036266 -0.205191 -0.098332 -0.064581 0.186362 0.192699 -0.072741 0.003994 0.084761 0.034412 -0.103135 0.054586 0.049994 0.048625 -0.235422 -0.058444 -0.007975 0.075901 0.029592 0.064903 0.022025 -0.075085 0.035112 0.116938 -0.046152 0.093842 -0.147678 0.093875 0.056176 0.021849 0.030351 -0.052193 -0.001828 -0.172301 0.111240 0.036846 0.103051 0.218667 0.023646 0.098530 0.128016 0.241972
559 -0.100599 0.000794 -0.074205 0.034980 -0.130066 0.159407 -0.175819 -0.044962 -0.072660 -0.002605 0.141208 0.035280 -0.117258 0.050009 -0.030397 0.157874 0.204809 0.081754 0.107131 -0.131849 -0.196321 0.042617 0.021050 -0.167202 0.022928 0.156807 0.109323 0.074435 0.127759 0.106728 -0.077648 0.037652 -0.117063 -0.031148 0.146535 -0.311583 0.135077 0.064908 -0.081505 -0.006100 0.089445 0.096712 0.007676 -0.026611 -0.012872 -0.143249 0.313786 -0.016447 -0.088601 0.036807 0.139114 -0.152249 -0.028037 -0.097063 0.165154 0.084503 0.209098 0.184491 0.005240 0.094176 0.108734 0.114768 -0.150760 -0.034534 0.062068 0.012246 0.061747 0.061065 -0.201197 -0.035648 -0.162221 -0.012949 0.020512 0.034085 -0.155518 0.024495 -0.005855 0.077015 -0.156920 -0.190908 0.045108 0.238275 -0.027597 0.037833 0.135357 0.062957 -0.078628 0.224757 0.193679 0.030501 -0.084210 0.101139 0.051309 -0.060138 -0.201959 -0.321125 -0.074031 0.004687 -0.104062 0.116537 -0.110704 0.047059 -0.051940 -0.057679 0.037369 0.076154 -0.076401 -0.000139 0.300855 0.068125 0.253143 -0.058800 -0.017474 0.207573 -0.037269 0.035556 0.132513 -0.047925 0.024543 0.159960 -0.021512 -0.103085 0.060738 -0.033180 -0.039200 -0.064385 0.314360 -0.004291
267 -0.078790 0.019261 0.092809 -0.158962 -0.167269 -0.026885 0.089889 0.090581 -0.010640 -0.150212 0.134236 -0.114141 0.034374 -0.012489 0.108790 0.031506 0.147569 0.006488 0.057786 0.002340 -0.037553 0.094607 0.003755 0.084088 0.082290 0.028099 0.241618 0.071512 0.079804 0.081940 -0.036853 -0.040655 -0.210728 0.019763 0.239891 0.071434 0.003364 0.113519 -0.233429 -0.025477 -0.103747 0.088331 -0.037916 -0.073997 0.265037 0.084433 -0.076615 -0.038740 -0.063987 0.180187 -0.335416 -0.121940 -0.121564 -0.030744 -0.104538 -0.066772 0.011633 0.013378 -0.034203 0.047258 -0.043861 -0.000036 -0.122972 -0.168244 0.110274 0.026828 0.120448 0.207563 0.111752 0.035462 0.010984 -0.225574 0.010104 -0.175426 -0.036319 -0.001301 -0.048046 0.035068 -0.075698 0.010930 0.186718 0.076359 0.126351 -0.117715 0.056091 -0.227621 -0.114977 0.070145 -0.015098 0.118838 -0.073260 0.053981 0.120939 0.128402 0.056153 -0.182134 -0.117362 0.025401 0.018095 -0.032073 -0.018507 0.159813 -0.100978 -0.130226 0.062554 -0.238825 -0.000479 0.166075 0.206646 0.200376 -0.049957 -0.176174 -0.102201 0.103513 0.036765 -0.203242 -0.125887 -0.082423 -0.177694 0.018121 0.097688 0.045719 0.469218 -0.063531 0.166853 -0.017010 -0.069674 0.187421
446 0.129452 -0.119738 -0.241098 -0.085212 0.059308 0.031186 -0.061327 0.024912 0.027730 0.088469 0.197749 -0.132766 -0.054295 -0.142251 0.149732 -0.067441 0.111040 -0.214687 0.206889 0.123310 0.066032 0.128589 -0.058402 -0.004875 0.117935 -0.019171 0.107046 0.102097 0.038151 -0.059082 0.023823 0.125728 -0.024257 0.067207 0.217638 -0.029305 0.009879 -0.191348 -0.130278 -0.100992 -0.026143 -0.026933 -0.110010 -0.195055 0.055445 -0.075293 0.083639 0.022814 0.288826 -0.010275 0.149278 -0.176597 -0.102296 -0.077395 -0.084922 0.032111 -0.015243 0.150598 -0.102937 0.079234 0.048760 0.015837 -0.047723 -0.129353 -0.107283 -0.031866 -0.076841 -0.108434 -0.000651 -0.146664 -0.057723 -0.141282 -0.062272 0.177968 -0.091466 -0.059393 -0.163275 0.152788 0.074901 0.005445 -0.028064 0.125254 -0.103129 0.090081 0.193722 0.159706 -0.257086 0.207787 -0.088939 0.171528 0.132516 0.171022 -0.060520 0.073421 0.057445 -0.118185 -0.006888 0.195980 -0.003538 -0.089396 -0.065771 -0.111314 0.075428 -0.024466 -0.130200 -0.089186 0.139340 -0.117045 0.227341 -0.040031 0.026512 -0.156425 -0.048541 0.040394 0.208870 -0.113444 -0.029399 0.018268 -0.123396 0.034715 -0.044753 0.015462 0.175838 0.030956 0.068943 -0.050360 -0.077149 0.011018
180 0.060722 0.029757 0.150664 -0.158476 0.043016 0.149205 -0.058962 -0.148902 0.129345 -0.013815 -0.080539 -0.145667 -0.130030 0.011470 0.203863 0.059321 0.264236 -0.059591 0.287208 0.078546 -0.240133 0.251201 0.014557 -0.108587 0.121494 -0.104067 0.122106 0.043220 0.161926 -0.075071 -0.025475 0.206816 -0.125284 -0.048498 0.110057 0.098437 -0.065026 0.159286 -0.166795 0.096255 0.031021 0.196076 0.047544 -0.025755 0.025925 -0.182799 0.034825 0.189455 0.025133 -0.025223 0.029538 -0.238710 0.030445 0.139840 0.075927 -0.032484 -0.006573 0.091528 -0.041286 0.128307 0.091652 -0.053339 -0.125463 -0.074276 -0.088474 -0.149688 -0.100113 0.005648 -0.088623 0.105546 0.219789 0.005699 0.004970 0.046479 -0.021168 -0.135949 0.053819 -0.163964 -0.031935 -0.187530 0.137802 0.132255 0.167696 0.029872 0.084387 0.022288 0.104251 0.017839 -0.101211 0.004407 0.012469 0.104411 0.053202 0.084603 0.179937 0.052818 -0.097483 -0.148444 -0.222818 0.041320 0.061518 -0.065613 -0.006408 0.021733 -0.051027 -0.056726 0.029679 -0.191933 -0.075004 -0.230332 -0.114388 0.072089 -0.163935 0.157230 -0.097648 -0.055814 -0.070175 -0.149068 -0.014300 0.071875 0.058917 0.186782 0.271902 -0.072420 -0.171275 -0.007247 0.163371 0.022122
516 0.027179 -0.016349 -0.027598 -0.199781 -0.096076 -0.093383 -0.014210 0.116572 -0.028008 -0.064104 -0.009248 -0.006377 0.165985 -0.054405 0.077106 -0.033101 0.226697 -0.133760 -0.141811 -0.099617 -0.141855 0.290208 -0.077568 0.069179 0.116133 0.014992 -0.034179 -0.096097 0.201782 -0.162166 0.090966 -0.006181 -0.089746 -0.189940 0.095850 0.081417 0.274644 -0.008083 -0.042193 0.088135 0.071925 -0.137849 -0.195314 -0.110563 0.078391 -0.097037 0.011451 -0.017307 0.081929 0.113282 0.129469 -0.196434 0.086854 0.017436 0.166529 -0.079760 0.024383 0.110833 0.049074 0.045549 -0.179657 -0.019986 -0.240311 0.154799 0.077353 0.073106 -0.134482 -0.080612 -0.014882 -0.009270 -0.025393 -0.108971 0.252073 0.005617 -0.211144 -0.179204 -0.038730 -0.107762 0.031853 0.125164 0.109499 0.096722 -0.033384 -0.016172 -0.061511 0.039969 0.122101 -0.126783 0.034885 -0.111171 0.206899 -0.165585 0.155701 0.071536 -0.194325 0.166455 0.011626 -0.000409 0.089700 -0.021407 -0.031178 -0.213479 0.006796 -0.020658 -0.096939 0.078497 0.073950 -0.037631 -0.060444 0.000349 0.116008 -0.193785 -0.202944 0.109265 -0.257324 0.022792 0.201370 -0.204831 -0.127597 -0.120336 -0.284014 0.006677 0.128816 0.227180 0.224142 -0.044378 0.124602 0.036387
699 -0.002551 -0.087543 -0.086744 -0.321246 -0.120696 0.028893 0.213004 0.246153 -0.163849 0.136553 0.114769 -0.133363 -0.041849 -0.026955 0.176736 0.307579 -0.055989 -0.084629 0.137569 -0.128181 0.072388 0.290048 0.020211 0.098191 -0.098256 0.001379 0.115153 0.006585 -0.064307 0.020274 -0.093804 -0.004947 -0.067743 0.061781 -0.023328 -0.009996 -0.002189 0.186487 0.192312 0.049633 -0.099083 -0.211716 -0.055738 0.007930 -0.066688 0.055405 -0.130831 0.168449 -0.128250 0.000768 -0.049037 -0.047435 -0.031914 -0.145499 -0.022071 0.009378 0.005710 -0.051229 0.128341 0.133334 0.008543 0.056602 -0.065810 -0.106790 -0.058464 -0.025794 -0.040130 0.010211 -0.153983 0.104245 0.023735 -0.085574 -0.130857 0.097632 -0.168640 -0.126675 -0.184315 0.096258 -0.225676 -0.248974 -0.011749 -0.059967 -0.226237 0.109096 0.059911 0.088184 -0.210725 0.057624 -0.082795 -0.145291 0.069322 0.184259 0.323509 0.196550 0.241010 0.278328 0.033879 0.176129 0.101268 0.016334 -0.137256 0.075919 0.265058 -0.065256 0.015560 0.002856 0.105016 -0.002254 0.064277 -0.068418 0.123772 0.018484 -0.140751 0.113196 -0.111039 -0.018923 0.015773 -0.289848 -0.086130 -0.186968 0.094832 -0.129894 0.199266 -0.163104 -0.078940 0.001842 0.005282 0.158019
384 0.164402 -0.199357 -0.204272 -0.132900 -0.079126 -0.097888 0.092253 0.103414 -0.168320 -0.038455 0.222229 -0.179377 0.098507 -0.037275 0.242258 0.192089 0.278047 -0.011332 0.145020 -0.093483 0.015270 0.054466 0.088886 0.058245 -0.006897 0.095349 -0.135656 0.124402 -0.175647 0.165212 -0.166500 0.178375 -0.117265 -0.212757 -0.046801 0.052755 0.024866 -0.142543 -0.040128 0.055769 0.118973 -0.085593 -0.073643 -0.061333 0.126136 -0.118117 0.060917 0.093832 -0.135954 0.014982 0.150708 0.106997 -0.007789 -0.075446 0.119727 -0.202756 -0.025861 0.153842 0.179522 0.029866 -0.053780 -0.014602 0.066696 -0.107688 -0.210250 0.015370 -0.014884 0.084885 -0.078510 -0.021684 0.043253 -0.041371 -0.037702 -0.068425 0.034872 0.165772 0.228942 0.073668 -0.021517 -0.160681 0.024222 -0.144994 0.166099 -0.084233 0.008265 0.158564 -0.120236 0.013260 -0.028509 -0.112744 -0.076926 0.222148 -0.041111 0.098387 -0.018339 -0.060125 0.217262 -0.081873 -0.024920 -0.006524 -0.363261 -0.291919 0.043869 0.054738 -0.146295 -0.027432 0.289346 -0.062167 0.057812 -0.001084 -0.119119 0.006034 -0.064337 0.147742 -0.106280 -0.092211 0.223659 -0.179040 0.133725 -0.074121 0.052279 -0.086436 -0.059278 -0.002534 0.172825 -0.053171 0.125280 -0.178909
258 -0.069172 -0.075237 0.017057 -0.260052 0.157044 0.041526 0.080414 0.028121 -0.064217 -0.004008 0.051006 -0.061780 0.043832 -0.021241 0.040734 0.096474 0.210498 0.116492 0.056469 -0.231813 -0.117434 0.028455 -0.213445 0.133895 0.119237 -0.076894 0.069452 0.025975 0.058549 -0.090238 -0.075005 0.060285 -0.203840 0.038776 -0.018379 -0.177057 -0.056973 0.044262 0.011368 0.141515 -0.003590 0.149466 0.188005 0.081988 -0.014869 -0.065161 0.098556 -0.105835 0.080591 0.212022 -0.072921 -0.080420 -0.143343 -0.093145 -0.019930 -0.001972 0.059829 -0.125540 0.072099 0.204267 0.019279 -0.003255 -0.016400 -0.015283 0.019476 0.133777 -0.066612 0.000874 0.019035 0.034291 -0.230801 0.034430 -0.062091 0.008149 0.124527 -0.027942 0.164352 -0.036585 -0.063674 -0.137450 0.016143 -0.031795 0.286274 -0.068319 0.106382 -0.039898 0.088454 -0.169794 -0.025327 -0.054588 0.016292 0.210915 0.067617 0.211376 -0.044961 -0.159460 0.017959 -0.160216 0.062801 -0.182076 -0.027305 -0.005368 0.229374 -0.180310 -0.176466 -0.133192 0.192675 -0.033888 0.003619 0.038913 0.048607 -0.295242 -0.222028 0.206029 0.077273 -0.063676 0.047616 -0.170885 -0.114890 -0.086624 -0.128406 0.188688 0.123871 -0.059578 0.028061 -0.006216 0.012119 -0.100824
146 -0.018908 0.027999 0.093140 -0.223119 0.000390 -0.020553 0.035806 -0.162024 0.155592 -0.008613 0.170414 -0.105812 0.107181 -0.145417 -0.182705 -0.079525 0.206410 0.074138 0.093722 -0.059380 -0.342367 0.117901 0.052750 0.090497 0.114481 0.045983 0.007400 0.054555 0.059421 0.073746 0.014612 0.070606 -0.219193 -0.132736 -0.089968 0.082666 0.020349 -0.095521 -0.023124 0.103273 0.191002 0.075789 0.011324 -0.093913 0.049531 -0.234035 0.067928 0.075436 0.041666 -0.035950 -0.021818 -0.215804 -0.131089 -0.113001 0.044092 -0.089951 -0.080809 -0.019426 0.135203 0.047985 0.033701 0.026402 0.195743 -0.241659 0.077011 -0.043776 -0.152126 0.177405 -0.135699 -0.047910 -0.032729 -0.121236 0.201129 0.102748 -0.121306 0.002031 -0.051702 -0.059078 -0.039743 -0.097788 0.046899 0.210158 0.038222 0.094367 0.121216 0.085007 0.065186 0.083022 -0.159950 -0.088427 0.024967 0.003402 0.129378 0.103729 0.044773 0.213406 -0.110544 -0.015977 0.061582 0.162079 0.090000 0.084096 0.016225 -0.216952 0.108166 0.129724 0.001252 -0.124429 0.051846 -0.034420 0.002835 -0.042697 0.050599 0.169052 0.053886 -0.048452 0.152466 0.087027 -0.084569 0.030475 0.078124 0.019140 0.028823 0.199716 -0.199324 -0.258609 0.099033 0.029721
79 0.151641 0.017857 -0.095080 -0.277449 0.024065 -0.045453 0.120213 0.222932 -0.113680 -0.056208 0.197332 -0.184575 0.032935 -0.041200 -0.001985 0.046100 0.167325 -0.074949 0.086737 -0.084907 -0.224664 0.090429 -0.075094 0.035838 -0.173641 0.081043 0.097748 0.058893 0.100320 0.019045 0.033386 0.092694 -0.112132 -0.005379 0.091834 -0.133004 -0.112468 0.030525 -0.068348 0.078284 -0.021027 -0.240899 0.062266 0.121452 0.009056 -0.091233 0.215391 0.043300 -0.121021 0.082296 0.137276 -0.087610 0.058555 0.058986 0.091633 0.028779 0.073734 0.068339 0.177334 0.123680 -0.003993 -0.074834 -0.068308 -0.082580 0.032918 -0.063985 -0.232783 -0.021211 -0.100099 0.019898 0.117720 -0.123765 0.131017 -0.207559 -0.034709 0.163889 -0.034404 0.163567 -0.039331 -0.072358 0.242453 0.013897 -0.076969 -0.059855 -0.049212 -0.124783 -0.256707 0.039337 -0.080533 0.051632 0.252198 0.038889 0.146577 -0.007844 -0.034418 0.096844 0.046307 -0.292926 0.051700 -0.135481 -0.079754 0.110489 -0.063403 0.210992 -0.112294 0.017358 0.066395 -0.142888 0.024613 0.081096 0.240328 -0.067060 -0.235498 0.150626 0.210399 0.188490 0.088678 0.001829 0.006538 -0.098072 -0.101658 0.037270 -0.004117 -0.075807 -0.138635 -0.082613 0.090905 -0.073085
147 -0.179029 0.183267 0.014539 -0.149007 -0.056626 -0.206325 -0.174015 0.040870 0.179950 0.090070 0.090026 0.016933 0.041048 -0.235916 0.173026 -0.033762 0.094777 -0.066484 0.066452 -0.150507 -0.199576 0.154870 0.059239 0.026801 0.040291 -0.064328 -0.097311 -0.194933 0.000573 0.149033 0.000823 0.105258 -0.254522 0.014325 0.056173 -0.178343 0.037780 0.021651 -0.113594 -0.009662 0.041670 -0.197018 0.100139 0.012941 0.117471 -0.138840 0.205776 0.067570 0.043562 -0.056647 0.170326 0.013430 0.024532 -0.060689 -0.069093 0.015501 -0.105553 -0.034863 -0.029520 0.055854 0.020692 -0.012753 -0.051687 -0.071198 0.094233 -0.131161 -0.095975 0.122607 -0.258901 0.106088 0.077127 0.047321 -0.011119 0.069154 -0.041894 -0.164729 0.071464 0.220725 -0.193503 0.006451 0.128854 0.072778 -0.039699 -0.097671 0.111433 0.136788 0.078575 0.031880 -0.020840 -0.104751 0.168618 0.177273 0.054660 -0.091218 0.019214 0.114475 -0.016619 0.022902 -0.168241 -0.011755 -0.039546 -0.109112 -0.062385 0.174914 -0.120712 0.001628 0.338103 -0.181939 0.243055 0.135047 0.076383 -0.084837 -0.004374 0.101112 0.054370 -0.001732 0.158406 -0.059216 0.208148 0.070170 0.345731 0.083557 0.071652 -0.006841 -0.128902 -0.158216 0.303965 0.021792
521 -0.095655 -0.029725 -0.091199 -0.143217 -0.134822 0.029116 0.333602 0.238273 0.017009 -0.064191 0.173494 0.128327 -0.154082 0.048279 -0.104897 0.199542 0.165728 -0.162632 0.051672 0.260012 -0.084097 0.027363 -0.177483 -0.211081 -0.144425 -0.118159 -0.136193 0.180688 0.244830 0.120445 0.112479 0.005437 0.010006 -0.010589 -0.126186 -0.086300 0.020108 0.161252 -0.189661 0.139275 0.086794 -0.039720 -0.026906 0.106977 0.053420 -0.116421 0.313997 0.154792 0.124988 -0.048585 -0.141826 -0.089740 -0.027492 -0.211020 0.127811 0.005199 0.064452 0.045722 -0.019184 0.195741 -0.205681 0.062635 0.056344 -0.057965 0.128026 -0.047674 -0.087178 -0.183734 -0.108576 0.024450 0.045445 -0.146071 0.140974 0.193876 0.150048 -0.053415 0.119986 -0.132510 -0.021685 -0.205459 0.072385 -0.159474 -0.168866 0.020554 0.138924 0.080248 0.020956 0.080993 0.172160 0.147728 0.062735 0.240063 0.084812 -0.095356 0.025282 0.131200 -0.065245 0.127703 0.143003 -0.164146 -0.164759 -0.175448 -0.000070 0.083586 0.182643 0.070201 -0.037847 0.053509 0.068275 -0.126200 0.062576 -0.259016 -0.135451 -0.107148 0.084166 -0.066673 0.052066 -0.120749 -0.125135 -0.073729 0.117595 -0.124073 0.108152 -0.109033 -0.095205 0.142250 0.126855 -0.165328
438 -0.051380 0.027115 -0.224250 0.080108 0.062666 0.066816 0.014685 -0.125383 -0.019736 0.025361 0.160631 -0.044255 0.089234 -0.008209 0.086212 0.045167 0.311168 -0.166288 -0.035015 -0.011099 -0.196644 -0.119098 0.023302 -0.061147 0.001878 0.005428 0.037439 0.040934 0.049321 0.072303 0.171637 0.032776 -0.186462 -0.095444 0.118668 -0.120500 -0.123971 -0.007180 -0.084994 0.125459 -0.101162 -0.003376 -0.062781 0.047936 0.007324 0.012965 -0.079561 0.115080 0.035196 0.000617 0.080809 -0.107673 -0.212171 -0.123261 0.282153 -0.211777 -0.130576 -0.123329 0.041233 0.206160 0.068360 0.094596 0.116259 -0.090071 0.095971 -0.019992 -0.128058 0.072916 -0.029072 -0.276957 -0.019953 0.001364 -0.098205 0.194013 -0.143054 -0.256364 -0.144903 0.062765 -0.162593 0.075177 0.062572 -0.019430 -0.008001 0.056186 0.203413 0.041755 -0.099256 -0.016787 0.037479 0.022428 -0.028717 -0.138591 0.020045 -0.013313 0.077345 -0.226363 -0.075690 -0.111536 -0.077136 -0.122482 0.214761 -0.056014 0.025401 0.194953 -0.129706 -0.093540 0.269547 0.010218 0.120250 0.019015 0.122363 0.003862 -0.154440 0.166994 0.047470 0.002689 0.094179 -0.058579 -0.174729 -0.024705 0.156775 -0.145413 0.108941 -0.056797 -0.063609 0.068740 0.059154 -0.133668
296 0.013796 -0.069460 -0.097201 -0.093668 -0.023965 0.122796 -0.001159 0.067055 -0.078893 -0.267200 0.157504 0.139467 0.027486 -0.019615 -0.138683 -0.002951 0.209031 0.091291 0.098508 -0.132840 -0.071528 0.054073 -0.080825 -0.041023 0.188317 -0.072801 -0.224592 -0.050973 -0.199658 0.083326 -0.123603 0.134081 -0.003594 0.080540 0.006944 0.112201 0.086308 0.196180 0.066512 -0.107392 0.013579 -0.000078 0.185610 -0.255634 0.142891 -0.309786 0.143098 0.154640 0.097099 -0.015091 0.022125 -0.039709 0.105322 0.112925 0.023795 -0.135457 0.041251 0.161588 0.128320 0.062394 -0.010943 0.004581 -0.210470 -0.104380 0.036960 0.136098 -0.034530 0.187840 -0.178083 0.112331 -0.044785 -0.044938 0.172632 0.194080 -0.081539 -0.011062 -0.089419 0.077830 -0.010628 -0.037443 0.149714 -0.088102 0.141605 0.149053 0.067794 -0.026152 -0.115357 0.159920 0.111631 -0.051198 0.102428 0.144454 0.102935 0.066360 0.040173 0.007425 -0.103699 0.070778 0.003159 0.043008 -0.021575 0.046494 0.115554 0.145602 0.024375 0.010435 0.116603 -0.119972 0.006637 0.134216 -0.083575 0.135155 -0.234885 0.172433 -0.036287 -0.194188 0.160031 -0.131553 0.053459 0.011592 -0.101788 -0.055476 -0.037393 -0.122646 -0.199246 0.060374 -0.057275 -0.141036
685 -0.002724 -0.018245 0.155126 -0.061797 -0.121704 -0.071354 -0.145851 0.124700 0.147332 -0.067989 0.239766 -0.127485 -0.010631 -0.166368 0.005954 0.225948 0.078750 0.005597 0.087190 0.080290 -0.081126 0.101914 0.128183 -0.071489 -0.080789 -0.105913 -0.046642 -0.110866 0.048497 0.088915 0.028679 0.147927 -0.158117 -0.154631 0.361304 0.060256 -0.036683 -0.043420 0.057591 -0.080166 -0.014570 -0.225141 0.038502 -0.009078 0.300782 -0.125441 0.130486 0.060738 -0.085609 -0.094764 0.006635 -0.116855 0.101880 0.022705 0.107309 -0.081521 0.020033 0.032715 -0.014508 0.148016 -0.105079 0.175419 -0.035315 -0.040758 0.012173 -0.391158 -0.218968 0.031034 -0.151626 -0.030006 0.056037 -0.111742 -0.072669 -0.127573 0.114461 0.059248 -0.183661 -0.008052 -0.129786 -0.043669 0.169692 -0.015813 0.136226 -0.035993 -0.013853 0.111912 -0.123262 -0.256555 -0.064496 0.173135 0.187471 -0.038941 0.161726 -0.007483 0.091403 0.059436 -0.094798 0.119739 0.051772 -0.042363 -0.107343 0.028936 0.017671 0.051287 -0.156405 -0.220745 0.077588 0.068875 0.007672 0.118488 0.120763 0.098289 -0.104086 -0.077356 -0.018235 -0.023636 0.226338 0.045690 0.047693 0.085765 0.053582 0.181882 0.067157 -0.142547 0.107614 0.000063 0.026046 0.098098
45 0.145827 -0.233228 0.080372 0.023189 0.167706 -0.074552 0.125087 -0.013233 0.246321 -0.126339 -0.016865 -0.096452 0.002080 -0.041858 0.147899 0.255340 0.204010 -0.176729 0.040481 0.005457 -0.141150 -0.024036 -0.093802 0.110264 0.171950 0.080070 0.043498 0.031045 0.122928 0.046930 -0.279393 0.137582 -0.125334 -0.087082 0.260204 0.090765 -0.092637 -0.171510 0.025202 0.189118 -0.074920 -0.156108 -0.140438 -0.077807 -0.164260 -0.021664 0.021202 0.031982 0.154671 -0.048301 0.153081 -0.020155 -0.012646 0.047267 0.190037 0.126367 0.128229 -0.111131 -0.086699 0.160066 0.188172 -0.193968 0.056679 0.129361 -0.092002 0.083662 -0.165384 0.065493 -0.158250 0.013464 -0.098149 -0.069271 -0.077932 0.209555 -0.223066 0.337489 -0.050673 -0.015871 -0.166687 -0.168370 0.121179 0.021913 0.180247 -0.018636 0.071121 0.018971 -0.064631 -0.193620 0.196329 0.000680 0.003702 0.051315 0.189625 -0.201758 -0.102013 0.202210 -0.056754 -0.204815 -0.081581 -0.176245 -0.210860 0.035919 0.144399 0.075448 0.018952 0.036859 0.069895 0.168815 0.212007 -0.025530 0.101190 -0.081740 0.003972 0.195361 -0.013153 -0.256869 0.170507 -0.301274 0.035153 0.101516 0.274730 0.008279 0.088370 -0.069955 -0.183299 -0.251671 0.096144 -0.037379
642 0.038454 -0.227356 0.082858 0.199648 -0.271997 -0.110080 -0.174143 -0.092651 0.041867 0.054685 0.258653 -0.150338 0.096325 -0.103349 -0.074127 0.024004 0.063954 0.204208 -0.071712 0.150812 -0.183250 0.052840 -0.071559 -0.171128 0.168612 0.021682 0.108858 0.049234 0.066110 0.044778 -0.049594 0.131928 -0.106880 0.038029 0.097028 -0.020234 0.041043 0.109941 -0.121756 0.001698 0.344501 -0.007170 0.009871 -0.067991 -0.019607 0.107025 0.137428 0.135648 0.030660 0.135119 -0.183819 -0.238346 -0.045901 -0.086589 -0.105656 0.040976 -0.076812 0.047155 0.035519 0.234622 -0.091330 0.054532 0.065556 -0.100871 0.026207 -0.015416 0.133000 0.080336 -0.192575 -0.209989 0.044221 -0.007938 0.205199 -0.080825 -0.195206 -0.066832 -0.038545 0.024700 0.025482 -0.194542 -0.057330 0.175174 0.031964 -0.050909 0.113588 -0.082843 0.098176 -0.122175 0.034155 -0.088965 -0.076199 0.033522 0.197536 0.158646 0.125393 -0.125375 0.017592 0.044642 0.029502 -0.335551 0.000105 -0.078128 -0.125798 0.111800 -0.029016 0.017221 0.119431 0.195502 0.155388 0.076270 -0.085962 0.036346 -0.151413 0.020611 -0.005318 0.086696 0.170125 0.009975 0.146851 0.072790 -0.043018 0.139005 0.160069 0.013766 0.114555 0.199319 0.077731 -0.080386
140 0.064020 -0.143113 -0.157830 -0.384035 0.051941 0.098735 0.022139 -0.005489 -0.039669 -0.164539 0.147120 0.113943 0.000683 -0.084191 0.003466 0.268493 0.225130 0.190862 0.418206 0.147994 -0.252254 0.131413 0.010814 0.010704 0.061985 0.063626 0.038347 -0.205572 0.125034 0.076847 0.173811 0.231966 -0.070685 -0.144257 0.018288 0.174044 0.085553 -0.100815 -0.030571 -0.069232 -0.066818 -0.070924 -0.066784 0.065352 -0.025737 0.007423 -0.023624 0.080005 0.045689 0.096793 0.172904 -0.045413 0.071011 0.028272 -0.007366 0.021673 -0.123865 -0.038514 -0.041221 0.157502 0.033161 0.075969 -0.186470 0.119657 0.144584 -0.199100 -0.066115 0.033824 -0.151569 0.114053 0.075077 0.065698 0.050636 0.102531 -0.009464 0.101717 -0.052147 0.001958 -0.105419 -0.049197 0.143700 0.050509 -0.179517 -0.012851 0.061132 -0.059504 -0.049663 -0.068832 0.173574 0.205010 -0.034823 -0.173534 -0.020325 -0.043193 0.076581 -0.004384 0.111007 -0.043722 0.060772 0.064735 0.025156 -0.015309 0.262811 -0.016216 -0.143938 0.057409 0.083209 0.112652 -0.147344 -0.104447 -0.111605 -0.066041 -0.134313 0.043233 0.175054 -0.160998 -0.033432 -0.365705 0.192456 -0.099873 0.178750 0.097766 0.073809 -0.032739 0.181993 0.162585 0.092301 0.183691
62 -0.182365 0.063957 -0.053477 0.111157 0.083508 -0.004509 0.047678 0.070219 -0.014689 -0.052644 -0.004372 0.001424 -0.133836 0.128069 -0.075334 0.087693 0.056911 -0.149652 0.020931 -0.116291 -0.311753 0.049554 0.066676 -0.291146 -0.031737 -0.032396 0.127858 0.044586 0.042799 0.119357 -0.025936 -0.002524 -0.139086 -0.021833 0.146246 0.021595 0.043918 0.097543 -0.092643 -0.060848 0.043287 -0.056467 0.038036 -0.052959 0.034206 -0.084245 -0.025222 -0.051933 0.006622 0.211028 -0.073815 -0.305994 -0.100913 -0.181721 -0.022363 -0.002355 -0.096334 0.125147 0.142650 0.255617 0.019314 -0.042872 0.158623 -0.026426 0.157027 -0.042688 -0.143743 0.004673 0.014094 -0.233512 0.016928 -0.042858 0.105051 0.092250 0.009175 -0.112110 0.263575 -0.055808 0.072288 -0.022938 -0.169951 0.096544 -0.062340 -0.094778 0.263116 0.028330 -0.160362 -0.086257 0.159643 -0.054600 0.180665 -0.017744 0.068224 -0.091347 0.234433 -0.017538 0.101416 0.092028 0.297574 0.042196 -0.120416 -0.176823 -0.017665 0.000077 0.089973 -0.192361 0.027304 0.025890 0.017654 -0.038911 -0.237071 0.145112 -0.062219 0.238738 0.115585 -0.176613 0.193335 -0.140964 0.075511 0.152612 0.201998 -0.100672 0.034887 -0.067554 0.132184 0.044977 -0.107979 -0.045228
679 -0.138200 -0.174679 -0.266604 -0.105875 -0.108112 -0.125639 0.202298 -0.016491 0.216622 0.008512 0.452157 -0.192894 0.043117 -0.101416 0.133226 0.167070 0.151174 -0.215258 -0.153364 0.082028 -0.084370 0.121619 -0.122949 0.182938 -0.129586 -0.006934 0.017434 -0.088744 0.137132 -0.077203 0.019334 -0.017488 -0.195366 -0.071569 -0.024420 0.127588 0.014060 -0.062847 -0.017677 0.113879 0.068355 0.123687 0.284383 0.110799 0.049951 -0.018228 0.037737 -0.130399 0.022888 0.069571 0.287003 -0.046228 -0.057044 -0.043584 -0.121689 0.028531 0.029759 -0.074818 0.064104 0.140809 0.107261 -0.006427 -0.161636 -0.160637 0.103286 -0.032835 -0.003255 0.255499 -0.068027 -0.045508 0.085771 -0.004845 0.148681 0.006968 0.046805 0.011127 -0.125827 0.003179 -0.080976 0.081063 0.028282 -0.175254 -0.203617 -0.061218 0.076143 0.173071 0.021769 -0.042626 0.057900 -0.066042 -0.015107 0.037429 0.033094 0.085443 -0.109347 0.016810 0.048872 0.000306 0.031159 0.092038 0.007977 -0.092387 0.066183 -0.005985 0.140872 -0.150127 0.127007 -0.142805 0.028597 0.207355 -0.130616 -0.095919 0.083605 0.008163 -0.138189 0.023917 -0.030413 0.037807 -0.036751 -0.020510 -0.125033 0.241368 0.055492 0.172063 -0.058834 0.036226 0.234233 -0.061145
76 -0.058008 -0.056208 0.058228 0.088695 -0.147140 -0.021728 0.109268 -0.065921 -0.049421 -0.045358 0.152630 0.043283 0.115532 -0.137806 -0.012672 0.095819 0.085083 0.081700 0.396530 0.103480 -0.250268 0.127926 -0.225323 -0.133786 0.199088 0.224248 -0.046426 0.102399 -0.027189 -0.097161 -0.158136 -0.013914 0.009636 -0.024528 0.073914 -0.119282 0.039542 0.175701 -0.077337 -0.153911 0.087963 0.154066 -0.233965 -0.118815 -0.072588 -0.309678 -0.020103 0.041307 -0.029482 -0.021494 0.028889 -0.173432 0.171776 -0.253487 0.070671 -0.209469 -0.134607 -0.103962 0.022411 0.088059 -0.081957 -0.186223 -0.052494 -0.083718 0.087681 -0.089928 0.039773 0.163546 -0.084469 -0.000054 0.094299 -0.104068 0.172447 -0.113149 -0.051313 -0.091828 -0.082449 0.004512 0.158732 -0.140077 0.272241 0.036740 -0.024420 -0.020365 0.070206 -0.057850 -0.194754 -0.039894 -0.080159 0.005753 0.024916 -0.047587 -0.059807 -0.021633 0.064049 0.005057 -0.205577 -0.150399 0.011005 0.002844 0.117628 0.017977 0.085252 -0.011142 -0.073873 0.007470 -0.008981 -0.170462 0.150070 -0.023311 -0.024961 0.100291 -0.115298 0.022870 -0.009650 0.007115 0.282535 -0.070848 0.119298 0.009733 -0.043541 -0.144989 0.153866 -0.052443 0.067367 -0.047769 -0.041083 0.067123
