732 128
587 -0.066694 -0.060339 -0.075718 0.051228 -0.072087 0.072365 0.011329 -0.190403 0.175453 -0.058408 -0.142174 0.031251 -0.174716 0.038270 -0.094297 -0.073000 0.123180 0.071075 -0.003061 -0.116761 -0.045661 0.081176 0.145291 -0.019258 0.137803 0.194976 -0.036559 0.016459 -0.066638 -0.012851 -0.029657 0.067018 -0.062162 -0.031370 -0.173519 0.128710 0.096480 0.128357 0.096233 0.072608 0.118203 0.023584 -0.052602 0.092056 -0.012138 0.129881 0.133120 0.002395 0.101765 0.012605 0.071376 0.119250 -0.154344 -0.035325 -0.099909 -0.036168 0.096295 -0.021362 0.247767 0.199088 -0.046912 0.026890 -0.196320 -0.081184 0.170648 -0.060198 0.142342 0.044457 -0.156945 -0.255691 0.034873 -0.041191 0.000687 -0.167335 -0.021776 -0.185455 0.129765 0.031309 0.047714 0.031823 -0.047922 -0.137368 -0.092299 -0.239901 0.112880 -0.252894 -0.023833 -0.034495 0.057260 -0.030285 0.048732 0.109428 -0.153617 -0.125118 -0.201306 -0.025211 0.106960 -0.166646 0.049470 -0.010967 0.046929 0.066816 -0.213405 0.008969 0.002665 0.085290 -0.147135 -0.143890 0.184591 -0.034650 -0.070273 -0.110736 -0.050381 -0.021888 -0.074412 0.091827 0.015173 0.030006 0.015249 0.015536 0.121166 0.070622 -0.210400 -0.221519 -0.044129 -0.013774 -0.049022 0.127321
627 0.065198 -0.067068 0.053187 0.069178 0.044663 0.058674 0.062189 0.017240 0.053790 0.032312 0.042407 0.051265 0.032834 0.153811 -0.099372 -0.137800 -0.085867 0.062259 0.264146 -0.038621 -0.091790 0.118293 -0.032905 -0.059073 0.112727 -0.174550 -0.141085 0.186888 -0.032084 -0.073497 0.038187 -0.183719 0.016756 -0.204087 -0.088069 -0.151304 -0.021432 0.121167 0.236017 0.001234 0.031585 -0.039676 0.022411 0.007204 -0.099415 -0.060829 0.025118 -0.056970 0.325465 -0.077403 0.255206 0.233730 0.066834 -0.053945 -0.051298 0.063007 0.159336 0.173669 0.095657 -0.078112 0.098160 0.000661 -0.071936 0.158881 0.160497 0.124383 0.220973 0.208523 0.023458 -0.142944 0.006207 0.127551 0.148554 0.142864 -0.055878 -0.062324 -0.079594 0.052770 0.020821 -0.027674 -0.000389 -0.063871 -0.013337 -0.145937 -0.131156 -0.001041 0.113081 -0.018662 0.039453 0.001489 -0.089014 0.168769 0.021465 -0.213098 -0.122443 0.106339 -0.074065 -0.152290 0.208356 -0.072852 -0.068193 0.046454 -0.156603 0.120403 0.039783 0.240800 -0.162858 -0.013547 0.180784 0.163784 -0.125448 -0.004069 0.047997 0.035479 -0.118613 0.074229 -0.055443 -0.192315 -0.029646 0.050957 0.075445 -0.091527 -0.107833 -0.195709 -0.178328 0.041608 0.217673 -0.014618
537 -0.217860 -0.117264 -0.174235 0.229263 -0.063496 -0.005585 -0.222943 -0.001962 -0.019320 -0.106562 -0.137574 0.278805 -0.160451 0.146633 -0.164819 -0.147773 -0.025066 -0.002564 0.053761 -0.142532 -0.090292 0.017073 0.158568 0.031939 0.273335 0.068354 -0.051086 -0.140809 -0.040954 -0.125792 -0.141666 0.103168 -0.164973 0.184735 -0.196753 -0.168372 -0.068382 0.010129 -0.173370 0.182819 0.083156 -0.058000 -0.120758 -0.033652 -0.035399 -0.089309 0.210790 0.010904 0.063519 -0.209463 0.120806 -0.094683 -0.055022 0.036902 -0.028958 0.075962 0.053199 0.187411 0.026265 0.025913 0.130244 0.037588 -0.295613 -0.000660 -0.208026 -0.102282 0.119020 0.177024 -0.193583 -0.067140 -0.068153 0.007426 0.126251 -0.088827 -0.033701 -0.063781 0.154172 0.258757 0.055156 -0.094991 -0.233133 -0.010209 -0.263640 -0.069102 0.051763 -0.024624 0.198021 0.032300 0.136535 -0.103266 -0.188406 0.078162 0.004351 -0.082680 -0.103005 0.094975 0.096978 -0.126652 0.200640 0.059247 0.046162 -0.120195 -0.025426 -0.001452 -0.016664 -0.036661 -0.339778 -0.167776 -0.020605 0.030714 0.004200 -0.080176 0.022412 -0.102690 -0.189356 0.022055 -0.018730 0.022284 0.078346 0.166819 -0.019782 -0.030554 -0.135257 -0.084744 -0.007606 -0.022853 0.195197 -0.040631
278 -0.071453 -0.077703 -0.171692 -0.018471 0.021093 -0.043595 -0.038902 0.002129 0.023434 -0.045338 -0.022160 0.099405 -0.223746 -0.054216 -0.064501 -0.156946 0.048333 -0.019684 -0.006280 0.097134 -0.169021 0.311769 0.049200 -0.021421 0.034435 -0.131715 -0.039630 -0.033905 -0.096532 -0.102883 0.041511 0.020585 -0.271311 -0.002674 -0.124147 0.198874 -0.097714 0.075265 -0.103165 -0.250823 0.047094 -0.177534 -0.086481 -0.137881 0.088381 0.024097 -0.149197 -0.052481 0.073760 0.086527 0.004557 0.172650 -0.173367 -0.190035 0.096127 0.068183 0.143517 -0.012720 -0.042859 -0.096703 0.055611 -0.022165 -0.021273 0.126896 0.108124 0.037646 -0.005397 0.020069 -0.229349 -0.169450 -0.010882 0.010200 0.107932 -0.253598 -0.025812 -0.075797 -0.061061 0.082121 0.043937 -0.079943 -0.016506 0.245045 -0.158508 -0.155944 -0.136401 0.117049 0.040704 -0.100618 -0.091704 0.201940 -0.153535 -0.226096 -0.125244 -0.148486 -0.235177 -0.012358 0.152967 0.049997 -0.279913 0.063273 0.072339 -0.078234 0.025532 -0.046308 0.154968 0.026894 -0.069205 0.084648 -0.096791 0.026849 -0.171239 0.132101 0.270260 -0.019824 -0.234882 0.047241 0.022003 -0.068619 -0.139500 0.090180 0.023118 0.005591 0.074024 -0.194032 0.061362 -0.031969 0.123747 -0.000637
95 0.071271 0.027711 -0.062543 -0.009602 -0.161230 0.102453 0.106057 -0.062730 0.083814 -0.055994 0.057141 0.137839 -0.153687 -0.027937 -0.203433 0.017042 -0.019034 -0.134755 -0.154379 -0.139800 -0.154372 0.114463 -0.086549 0.165029 -0.014677 0.091674 -0.107841 -0.024607 0.010375 -0.074250 -0.048332 -0.004460 -0.234301 0.191033 -0.275297 -0.062038 0.067630 -0.062368 0.056999 0.043205 -0.084813 -0.202762 -0.011119 0.062009 -0.214910 0.018093 0.108770 0.086457 0.011406 -0.006496 -0.019887 0.219477 -0.171760 -0.062567 0.036412 -0.079425 0.079379 0.105818 0.018943 -0.230713 0.101103 0.000694 -0.028021 0.143462 0.126778 0.015037 0.108108 0.109640 -0.095637 -0.123476 0.055435 -0.043707 0.135647 -0.050784 0.096506 -0.066773 0.067281 0.000960 -0.095161 0.078692 -0.107152 0.067199 -0.033289 -0.104978 -0.175962 0.040581 0.003368 -0.234730 0.081372 -0.064749 -0.137096 -0.062361 -0.188232 -0.084638 -0.219955 -0.202080 -0.035102 -0.170600 0.140007 -0.019660 -0.186241 -0.134920 -0.057683 0.052989 0.083899 0.041196 -0.123772 -0.165998 0.045779 -0.118509 -0.084667 0.026845 -0.038453 0.091463 -0.054766 0.089083 0.157310 -0.110999 -0.068943 -0.049120 0.032422 0.134789 -0.134697 0.012253 -0.015624 -0.037043 0.031255 0.148812
140 -0.243881 0.032387 -0.115041 -0.071142 0.031548 -0.017120 0.151013 0.026511 0.044094 -0.108341 0.118187 0.005137 -0.055757 0.163149 -0.243468 -0.050861 -0.094310 0.065200 0.071394 -0.154595 -0.246540 0.064204 0.005085 -0.041927 0.048479 -0.059167 -0.067112 0.032253 -0.073938 -0.030562 -0.041077 0.109403 -0.159512 0.012506 -0.210331 -0.122251 -0.052578 0.070227 -0.021632 -0.081781 -0.034106 -0.246102 0.018698 -0.045286 -0.098897 -0.071561 0.084192 0.002579 0.071534 -0.042004 0.165586 -0.087901 -0.097899 -0.125346 0.123266 -0.118120 0.173028 0.078217 0.041032 -0.111905 0.046738 0.015747 -0.096106 0.078074 0.303763 -0.035690 0.240128 0.177318 -0.067097 -0.116196 0.258908 0.024181 -0.055812 -0.039882 -0.032694 -0.315429 0.000679 0.109217 -0.029229 -0.002595 -0.082021 -0.073504 -0.060748 -0.187910 -0.079101 0.118463 0.044192 -0.005592 0.103463 0.091305 0.005853 0.126002 0.158990 0.047832 -0.140430 0.007462 -0.085798 -0.031470 0.019512 0.115780 -0.114395 0.202784 0.019697 -0.035803 0.119093 0.191952 -0.146001 0.015733 -0.108011 -0.086713 0.012805 0.014355 -0.260651 0.134631 0.021614 0.095382 -0.113794 -0.163713 -0.107076 -0.096620 0.204793 0.079767 -0.114308 0.107454 0.045304 -0.029257 0.038661 -0.006691
125 -0.234273 0.187259 -0.008419 0.099191 0.060321 0.247099 0.283362 -0.118608 0.195915 -0.112243 0.056335 0.187675 -0.130671 0.143695 -0.074416 0.069620 -0.051363 0.013226 0.155118 -0.129397 -0.055909 -0.062247 0.415649 0.216126 0.058152 -0.169792 0.192522 0.043720 -0.147462 0.200327 -0.209664 0.200463 0.083597 0.210560 0.016598 0.180403 -0.011396 -0.070261 0.129292 -0.027049 0.065176 -0.228110 -0.115877 0.097236 -0.148602 -0.191317 0.176377 -0.148105 0.117618 0.106681 0.263838 0.127376 0.133254 -0.056865 -0.110344 -0.108455 0.228430 0.116946 -0.017610 0.040208 0.119082 -0.060710 -0.107914 0.254805 0.181517 0.129307 -0.116229 0.082491 -0.088448 0.057611 -0.066574 0.172874 0.255277 0.152349 0.047116 -0.166370 0.082891 0.042782 -0.145249 -0.116055 0.011175 -0.114469 0.140074 -0.019987 -0.085026 -0.035068 0.001980 -0.210039 -0.029447 -0.078334 0.009384 -0.225784 -0.058871 -0.207806 -0.270919 -0.007705 -0.157083 -0.276879 0.327202 -0.006341 0.024844 0.100485 0.161290 -0.095516 0.002394 0.273441 0.015547 0.074811 0.295232 0.149032 0.036919 -0.086460 -0.139738 0.154846 -0.271046 0.157049 0.009422 -0.069808 -0.137501 0.067006 0.023541 -0.057140 -0.091564 -0.051911 0.013072 -0.097966 0.166548 0.110221
307 -0.017190 0.003216 0.092030 -0.049369 0.034944 0.107134 -0.034041 -0.023590 -0.063987 0.011512 0.010594 0.185087 0.019874 0.000752 -0.114714 0.056159 -0.056843 -0.040080 0.053526 -0.126024 -0.211888 -0.038334 0.200489 -0.051605 0.250015 0.139168 -0.008939 -0.032121 -0.101394 -0.125795 -0.192175 0.264636 0.104637 -0.129571 -0.213509 -0.024586 0.067644 0.008701 -0.145147 0.000857 0.037603 0.080147 0.061954 0.079369 0.038865 -0.139063 0.013042 0.170555 -0.006315 0.049253 0.036231 -0.131085 0.076335 -0.009325 -0.099673 -0.021581 0.052788 0.111974 -0.274693 -0.151272 0.061974 -0.068271 0.021080 0.121039 0.136253 -0.048273 0.192018 0.004167 -0.131735 -0.203152 -0.092220 0.018716 0.316471 0.207903 0.080838 -0.083943 -0.117168 -0.021288 0.081413 0.091846 0.093370 -0.076997 -0.116472 -0.175735 0.014386 0.186282 0.084850 -0.169696 0.207491 0.015953 -0.272806 0.056219 -0.193869 -0.015021 0.003625 -0.139046 0.009929 -0.104223 0.161326 0.152940 -0.258631 0.169239 0.046925 0.104982 -0.129155 0.008319 -0.181141 -0.235439 -0.085105 -0.052474 -0.077303 -0.015235 0.084710 0.205017 -0.181044 0.053259 0.212328 -0.186903 -0.121929 0.030896 0.035291 -0.050017 0.145234 -0.054824 -0.072590 0.059002 0.246981 0.043632
47 -0.045918 -0.138365 -0.133682 0.031288 -0.049112 0.161437 0.020538 -0.025962 0.038395 -0.160287 -0.153845 0.209432 -0.086150 0.073736 -0.067356 -0.214233 0.088866 0.192786 0.068119 -0.146545 -0.260461 -0.069736 0.030236 -0.152939 0.113489 -0.143874 -0.067888 -0.204007 0.039000 -0.031982 -0.067061 0.100760 -0.197291 0.052540 -0.045489 -0.277847 -0.075368 -0.079144 0.047205 -0.075868 0.036989 -0.183623 -0.072589 -0.017366 -0.022264 -0.231972 0.239349 0.042944 0.066455 -0.043533 0.173429 -0.000983 -0.000441 -0.223188 0.113506 0.032257 0.074212 0.128587 -0.082454 0.107988 0.004298 -0.101353 -0.175326 -0.045282 0.019302 0.166043 -0.001711 0.025529 -0.133722 -0.103293 0.062600 0.112362 0.148216 -0.073005 0.023528 -0.081567 0.063515 0.014414 0.099813 0.060002 0.017225 -0.055014 -0.025187 0.010655 0.026270 -0.002389 0.199876 -0.103234 0.127739 -0.150542 -0.097643 0.068217 -0.087225 0.078087 -0.102869 0.103109 -0.042160 -0.293418 0.057947 0.098996 -0.021875 0.085070 -0.034893 0.124138 -0.181681 0.144590 -0.122674 -0.114068 0.164604 -0.101962 0.100805 -0.118174 0.070431 0.030024 -0.223177 -0.034975 0.068799 0.147772 0.062135 0.105655 0.211515 0.033175 0.017717 -0.074382 -0.067739 -0.112855 -0.164990 -0.041482
675 -0.101010 0.110402 0.029857 0.030950 0.017972 0.186532 -0.005808 0.076613 0.188941 -0.045869 0.030192 0.210128 -0.069896 -0.085729 0.013959 0.061333 -0.088502 0.002430 0.271727 -0.080673 0.002059 0.014906 0.061624 -0.025091 -0.058243 0.065353 -0.008101 -0.137287 0.043874 0.035996 0.114700 0.003545 -0.095564 0.009302 -0.077113 0.110827 0.040746 0.024598 0.051274 0.057302 0.094651 -0.245749 0.067307 0.134478 -0.184858 0.069758 -0.019412 0.085756 -0.015975 0.040818 0.057492 0.066912 -0.130404 0.060735 0.143940 -0.030288 0.109072 0.074022 -0.004187 -0.128441 0.048668 -0.096849 0.005234 0.023341 0.091607 -0.122049 -0.025650 0.229544 -0.061599 -0.168541 -0.149054 -0.026109 0.339108 0.104283 0.019512 -0.150800 0.034344 0.106027 -0.041687 0.141359 -0.049527 -0.157572 0.017811 -0.045292 -0.134313 -0.226058 0.297290 0.055289 0.007671 -0.190160 -0.072502 0.007407 0.040582 -0.043414 -0.025402 0.028226 0.070698 -0.045129 0.045272 0.018996 -0.161560 0.150641 -0.094018 0.031464 0.090269 0.251740 0.018157 -0.050314 0.082925 -0.101079 0.032605 -0.171311 0.051961 0.192432 -0.303310 0.063523 0.083315 -0.059439 0.128819 -0.158104 0.080144 -0.043511 -0.054025 -0.114737 0.088880 0.071887 0.091198 -0.108579
250 0.050168 0.044147 -0.384720 0.069054 -0.014238 0.030351 0.115569 -0.080258 0.130902 -0.088061 -0.172133 0.030171 -0.187763 -0.040752 -0.066932 -0.042368 -0.100379 -0.006824 -0.008176 -0.121530 -0.090793 -0.085977 -0.062341 -0.111908 0.008287 -0.114590 -0.022063 0.011112 -0.112974 -0.084016 -0.234931 0.131819 -0.008656 -0.221208 -0.019917 -0.147328 0.116127 0.098180 0.105291 0.085147 0.107924 0.141133 -0.007917 0.015424 -0.168454 -0.199446 0.070281 -0.003636 0.213405 0.015859 -0.070476 0.005413 -0.079879 -0.130828 -0.031240 -0.065734 -0.062997 0.296435 -0.020489 -0.117984 -0.130198 0.242549 -0.127115 -0.021019 0.200691 0.103342 0.070789 0.026197 -0.102665 0.060673 -0.117631 -0.135121 0.260156 0.030396 0.116938 -0.210762 0.053003 0.016891 -0.115120 -0.014710 -0.022188 0.070619 -0.052460 -0.034877 -0.053141 -0.029849 -0.034906 0.076534 -0.063277 0.070648 -0.072137 -0.037600 0.124125 -0.118529 -0.185966 -0.221785 -0.119005 -0.272356 0.029946 0.087379 -0.059690 0.046516 0.062694 -0.052931 -0.027169 0.132037 -0.069357 0.127471 0.058092 0.067155 0.142036 0.052493 0.055385 -0.028740 -0.154846 0.115844 0.086394 -0.148611 -0.032928 0.109825 0.318872 -0.008467 -0.187391 -0.041053 0.104447 0.034862 0.005154 0.021782
44 -0.137090 -0.019853 -0.088268 0.083947 -0.080875 0.108030 -0.014647 -0.061779 0.155007 0.007373 0.034450 0.022659 -0.031526 0.103612 -0.141826 -0.100251 0.081423 0.080577 -0.202537 0.062168 -0.023833 -0.121189 0.094565 -0.215094 -0.052358 -0.054439 -0.168479 -0.058588 0.216297 -0.011008 0.081491 0.091639 -0.010511 -0.074772 -0.162429 -0.029398 0.035028 -0.127958 0.243448 -0.108351 0.105434 -0.082177 0.098696 0.163103 -0.026084 -0.285989 0.244480 0.140144 0.077534 -0.263847 -0.088233 -0.130366 -0.170920 0.063110 0.097690 -0.045378 -0.022177 -0.015583 0.170650 0.098267 0.001238 -0.058073 -0.120688 0.129198 0.107746 -0.093142 0.169254 -0.216912 -0.113779 -0.219787 -0.259195 0.092537 0.062895 -0.113023 -0.045523 -0.109186 -0.089208 -0.008523 0.075341 -0.113261 -0.033083 -0.141090 -0.036152 -0.086509 -0.046225 -0.158089 0.125020 -0.028979 -0.106812 -0.001219 -0.215107 0.041566 -0.010320 0.090435 0.087276 0.185659 -0.124235 -0.344979 0.091733 0.017167 -0.014187 0.072396 0.033804 -0.055388 0.116415 0.129176 -0.107774 -0.206056 0.096094 -0.117365 -0.071364 0.174281 0.044366 0.183058 -0.083241 -0.036254 0.004955 -0.138550 0.042167 -0.067394 0.241947 -0.069728 0.069917 0.051753 0.161894 0.206825 0.098894 0.182415
230 -0.044956 -0.061533 0.037494 -0.053208 0.010349 0.138003 0.096880 -0.078619 0.128686 -0.104663 0.034567 0.098456 0.153363 -0.061155 0.116306 -0.072688 -0.216236 -0.032298 0.070827 0.073175 -0.116655 0.109582 -0.143042 -0.018945 0.072580 0.053180 0.034470 -0.166283 0.026203 -0.094156 -0.182287 -0.006560 -0.190882 -0.109842 -0.184658 0.116669 0.153946 0.040915 -0.022521 -0.006647 0.011831 -0.083850 0.126101 0.068523 -0.328811 -0.007681 -0.098117 0.299607 0.092440 -0.162187 -0.003004 0.144453 -0.034686 -0.220922 -0.092074 -0.006565 -0.192246 -0.030958 -0.058501 0.096949 0.119609 0.184582 -0.228489 -0.003450 0.116240 -0.110455 -0.110815 0.012760 -0.232175 -0.144731 -0.096172 0.093785 -0.082152 0.136005 -0.042171 -0.058216 0.109582 0.087617 0.093263 -0.419274 -0.002748 0.136639 -0.062238 -0.030041 -0.211820 -0.069868 0.115492 -0.061446 0.195387 -0.089310 -0.205921 0.186460 0.053147 0.033280 -0.012186 -0.009405 -0.237276 -0.010845 -0.057310 -0.062897 -0.009933 -0.008252 -0.074618 0.072597 0.021959 0.114262 0.034941 0.149970 0.128648 0.035516 -0.059377 0.304446 -0.088556 0.087131 -0.185253 0.110042 0.108888 0.165636 0.164743 0.178669 0.097242 -0.137804 -0.130148 -0.079876 0.129001 -0.074958 -0.123265 0.010953
59 -0.027622 0.068381 -0.063251 -0.087891 -0.032271 0.042198 0.048723 -0.015141 0.202658 -0.106569 0.054062 0.085275 0.053697 -0.091087 -0.037598 -0.083316 -0.001332 0.024502 -0.080760 0.089290 -0.156376 0.087817 0.134016 -0.209145 0.211917 0.148273 -0.144850 0.119365 0.086876 0.053148 -0.184541 0.008180 0.009242 -0.147948 -0.054197 0.159544 -0.016877 -0.030843 0.189498 -0.073001 -0.020338 0.076659 -0.092753 -0.156265 0.028750 -0.186923 0.057791 0.195558 -0.016074 -0.098607 0.104882 0.101066 0.051676 -0.067274 0.205005 -0.323328 -0.083030 -0.043527 0.045681 -0.064202 0.098555 0.162185 -0.141432 -0.094341 0.018995 -0.068777 -0.002792 -0.067405 -0.215984 -0.088569 0.088786 0.164968 0.187965 -0.184296 -0.051701 -0.102025 -0.016471 0.059145 -0.028697 0.022531 -0.110648 0.107822 -0.022000 -0.006300 -0.045265 -0.080393 0.039683 0.091195 -0.016071 0.142043 -0.131180 -0.070187 0.016138 -0.041219 -0.182220 -0.031804 -0.043179 -0.080500 0.089790 -0.115380 0.103081 0.102257 -0.101755 -0.061007 0.031543 0.334305 -0.120955 0.020185 0.028227 -0.146968 0.035349 0.209789 0.189924 0.090086 -0.049988 0.112076 0.090550 -0.017506 -0.074942 0.077860 -0.028959 -0.100924 0.202055 -0.088550 0.129611 0.028775 0.331042 -0.225725
467 0.323655 0.070014 -0.161152 0.101028 -0.063932 0.095584 -0.066039 -0.059526 0.065672 -0.089778 -0.048605 -0.115196 0.023367 -0.041797 -0.096747 0.160407 0.056158 0.150079 0.153592 0.037162 -0.166591 -0.065401 0.210985 -0.074215 0.081088 0.069238 0.124071 0.087312 0.135107 -0.073846 -0.117644 -0.132556 -0.383107 -0.126365 -0.102270 0.053215 -0.133005 0.095959 0.195758 0.075928 -0.033270 -0.155642 0.031868 -0.053130 0.014253 0.057392 -0.086943 0.142556 -0.072766 -0.187289 -0.042934 -0.168627 -0.131667 -0.156560 -0.424281 -0.005490 0.123798 -0.006010 0.267734 -0.287692 -0.137680 -0.040765 0.123466 0.006220 0.123004 0.003840 0.173405 -0.006242 -0.154546 -0.162888 -0.054369 0.009451 0.033734 -0.199407 0.021316 -0.048062 -0.164651 0.190805 0.055423 0.089759 0.092528 0.052276 -0.115759 -0.061648 -0.049458 0.053333 0.186052 -0.206672 0.021933 -0.048205 -0.112291 -0.079172 0.098645 -0.057147 -0.236136 -0.006461 -0.029575 -0.081794 -0.128321 0.051228 -0.311643 0.023660 -0.006111 0.015093 0.080473 0.074239 -0.216808 -0.143030 0.045867 -0.011065 0.015003 -0.030352 -0.124173 0.073889 -0.120313 -0.104518 -0.024377 -0.084907 0.100165 0.201766 0.312697 -0.015218 0.028367 -0.157538 0.139823 -0.066222 0.079018 0.065304
207 -0.085770 -0.075012 -0.091791 0.017825 0.040781 0.075803 -0.167944 -0.226444 -0.040514 -0.250109 0.010922 0.004386 -0.236021 0.129712 0.059128 -0.036983 0.002397 -0.078566 -0.111275 -0.118191 0.087045 -0.166911 0.183955 0.231049 -0.069909 0.096426 0.088169 0.048071 0.018958 -0.007926 -0.011325 0.261819 -0.231585 -0.096355 -0.238151 -0.008900 -0.023118 0.101367 0.027056 -0.030175 0.148982 -0.096845 0.020957 0.359591 -0.032352 -0.101929 0.194173 0.129646 0.039170 0.071185 0.241284 -0.076393 -0.204033 -0.123197 0.063270 -0.073491 0.122323 0.043983 0.016901 -0.052707 0.146080 0.017840 -0.065855 0.007124 0.354647 0.102179 -0.127344 0.141552 -0.046317 0.042756 -0.228753 0.226386 0.216002 0.016884 0.197937 -0.233329 0.072422 0.069933 0.141387 -0.123983 -0.131613 -0.028926 0.087260 -0.061366 -0.122275 -0.212660 0.113320 -0.032096 -0.100975 -0.112711 0.046859 0.054632 -0.040192 0.041751 -0.074519 -0.053535 -0.052960 -0.119813 -0.008040 0.043127 0.000293 0.073786 -0.002428 -0.000430 -0.043143 0.108765 -0.195842 -0.063501 0.064905 0.122428 0.079978 0.067469 -0.012856 -0.060281 0.102448 0.218091 -0.195423 -0.085716 0.048497 0.041422 0.043426 -0.022135 -0.070419 0.017192 0.076167 -0.232504 0.089281 0.079320
31 -0.211047 -0.150232 -0.152894 -0.117580 -0.149539 -0.021396 0.110653 -0.103409 0.045122 0.025494 0.122496 0.188687 -0.059051 0.007926 -0.081108 -0.273343 -0.319923 -0.012495 0.081115 -0.124314 0.061094 -0.161867 0.057883 -0.044155 0.191249 0.010671 0.057281 -0.057405 0.076874 0.113372 -0.221083 -0.137856 -0.113143 0.008799 -0.123967 -0.278608 -0.098380 -0.008251 -0.011242 0.110469 0.072632 -0.003149 0.111783 0.028130 -0.113926 -0.311674 0.250890 -0.017017 0.019566 -0.101790 0.128000 -0.181229 -0.101044 -0.133157 -0.050933 -0.066421 0.149300 0.205394 0.153314 -0.130502 -0.008017 -0.039007 -0.213959 0.301849 -0.225802 0.091192 0.030224 0.080222 -0.130882 -0.251605 -0.069493 0.011309 0.146829 -0.077255 0.106392 -0.045425 0.132816 0.223890 -0.005441 0.048049 -0.121698 -0.053568 0.236391 -0.246556 -0.140422 -0.077745 0.008364 -0.063505 0.045598 0.156485 0.092591 -0.100198 -0.033963 -0.029774 -0.212346 0.080803 0.054889 -0.112184 -0.056278 0.003616 -0.089541 -0.047129 -0.172320 0.005179 0.095861 0.079179 -0.023786 -0.023555 0.008723 0.168490 -0.165727 -0.072404 0.065949 -0.000100 0.015896 0.106216 -0.069122 -0.045437 -0.007952 0.018252 0.332724 -0.155860 0.133617 0.015937 0.084244 -0.077099 -0.165426 0.110879
447 0.024258 0.011287 -0.100093 0.039519 -0.065450 -0.071821 -0.059404 0.071196 0.002573 -0.138103 -0.041497 0.213503 -0.134705 0.217738 0.158109 -0.129595 0.073835 0.012781 -0.043937 0.017950 -0.118392 0.051473 -0.060373 -0.009514 -0.009667 0.062656 0.203794 0.108883 0.152039 -0.019146 -0.016824 0.034161 -0.114456 -0.113459 -0.273747 0.022815 0.032030 0.038364 0.202304 -0.102931 -0.062558 -0.219042 -0.063195 -0.024057 -0.180999 -0.150278 -0.010870 0.084843 -0.225825 0.089033 -0.122546 0.106600 0.149199 0.066841 -0.125495 -0.021295 -0.022201 0.142001 -0.100040 -0.058557 -0.158935 0.038638 -0.060953 0.005956 0.067972 0.079391 0.083488 0.050428 -0.226855 0.131297 -0.158050 0.181067 0.235046 -0.258236 -0.235661 -0.045392 0.112951 -0.098588 -0.078868 -0.070736 0.150735 0.092636 -0.080614 -0.037535 -0.042309 -0.055835 0.161465 0.144050 -0.061585 -0.108892 -0.260229 0.114226 0.010374 -0.078672 -0.224086 -0.182863 -0.059693 -0.032161 -0.158000 -0.009159 -0.057036 -0.036539 0.003387 -0.241617 0.219946 0.139315 -0.154380 -0.054992 -0.273801 0.118345 -0.066426 0.049170 0.073382 -0.003688 -0.205575 0.178744 -0.087552 -0.073387 0.077006 0.090146 0.165232 -0.227146 0.075869 -0.196382 0.256590 0.032415 0.178463 0.178963
384 -0.142053 0.061381 -0.045601 -0.101316 -0.231363 -0.023932 0.094984 -0.018751 0.048915 0.198664 0.009138 0.125578 -0.155376 -0.006921 0.131991 0.082466 -0.106419 -0.043054 -0.084668 -0.141522 -0.041377 0.028834 0.028264 -0.067831 -0.004771 0.047715 0.158304 -0.131187 0.031761 -0.096260 0.270126 0.302160 -0.102605 -0.169648 -0.191216 -0.025791 0.235022 -0.025158 0.177889 0.161670 0.073342 0.002578 -0.163395 0.198202 -0.112574 0.017206 0.129697 0.004344 -0.082779 0.197055 -0.086607 0.040611 -0.264551 -0.143865 0.023211 -0.383206 -0.121938 0.186169 -0.012776 0.057174 0.050445 -0.000161 0.143965 0.221371 0.058985 -0.064949 0.236222 0.030572 -0.153692 0.052912 -0.173760 -0.033121 0.241373 0.138615 0.012808 -0.240623 0.144617 0.150633 0.187011 -0.125511 -0.047980 -0.030943 0.132007 -0.040787 0.057435 -0.053204 -0.007191 -0.087099 0.266789 -0.164042 -0.282194 -0.063059 -0.086261 0.021290 -0.122813 -0.004234 0.021895 -0.168819 0.003923 -0.021662 -0.006845 -0.045877 0.101891 -0.154223 -0.042438 0.069484 -0.122902 -0.036426 -0.030202 -0.043481 -0.273587 0.141281 0.056404 0.013610 -0.114764 0.252228 0.189450 -0.010322 -0.064680 0.003789 0.111705 -0.048660 -0.154626 0.007508 0.083941 -0.120289 -0.021012 0.167645
412 0.078210 -0.086962 0.045252 -0.067936 -0.174632 0.253955 0.174797 0.025975 0.208722 -0.055073 -0.025192 -0.030785 0.123547 -0.085829 0.032422 -0.218562 -0.150981 -0.073341 0.151888 -0.239223 -0.133001 0.151723 -0.062843 -0.038197 0.039329 -0.109869 -0.041769 -0.062844 -0.086343 -0.259550 -0.131972 -0.056865 -0.265740 -0.028657 -0.124151 -0.028191 -0.011069 -0.097487 0.240849 0.079683 -0.054870 0.022384 -0.071831 0.027324 -0.342666 -0.059603 0.254981 0.104137 0.134479 -0.154104 0.020258 -0.144339 0.083189 -0.097803 0.101903 -0.028991 0.019700 0.178312 0.105258 -0.152662 -0.056002 -0.150459 0.158746 0.066568 0.080253 0.002218 0.117101 0.070263 -0.234247 -0.303203 -0.138264 -0.083188 0.200621 -0.099829 -0.089510 0.107540 0.015187 0.172530 -0.049725 0.014423 -0.070088 0.029699 -0.040764 -0.142984 -0.138665 -0.074781 -0.001656 -0.298220 0.004795 -0.023958 -0.020585 0.030358 -0.136486 -0.046808 -0.136258 0.014035 0.090806 -0.140316 0.095686 -0.078140 0.164285 -0.101567 -0.062069 -0.084241 -0.117668 0.247741 -0.073065 -0.121241 0.170932 0.091982 0.296790 0.009291 -0.067127 -0.134817 -0.093439 0.052183 0.067515 -0.067619 0.046139 0.105581 -0.016332 0.262251 -0.101804 -0.244718 -0.149130 0.024756 -0.078135 -0.014736
118 -0.070425 -0.154924 -0.173455 -0.075807 0.099563 -0.027568 0.012013 -0.100118 -0.088855 -0.009869 0.010324 0.212857 0.027884 -0.170432 -0.115509 -0.279864 -0.067563 -0.126643 -0.067037 -0.247374 -0.063651 0.104601 0.039592 -0.051028 0.048631 0.150648 0.033362 -0.142035 -0.032424 -0.046597 0.039533 -0.015338 -0.077495 0.037929 -0.125483 0.008062 -0.018724 -0.177962 0.008781 -0.242461 0.226705 0.005595 -0.175120 0.157638 -0.121721 -0.021819 0.242384 0.192283 -0.091165 -0.043295 0.165167 0.162063 -0.084438 0.114645 0.061410 -0.086870 -0.006616 0.057269 -0.098169 -0.214881 0.028224 0.044483 0.088270 0.044768 -0.031995 0.097952 -0.066778 0.024295 -0.142505 -0.174124 0.037265 0.112373 0.081933 -0.185474 0.003230 -0.103868 -0.197717 0.200434 0.035488 0.034402 0.002695 -0.021572 -0.009223 -0.258565 -0.152025 0.012487 0.075839 0.037975 0.139260 -0.037520 0.004975 -0.081238 -0.026498 -0.161081 -0.110237 -0.080256 0.054626 0.021678 0.075750 -0.041792 -0.037481 0.015796 -0.185793 -0.002530 0.097350 0.180334 0.045648 -0.233973 -0.019153 0.144444 -0.257581 -0.017079 0.183989 0.044363 -0.222120 0.243462 0.111696 -0.055012 0.106199 -0.113940 -0.007663 0.073525 0.061131 -0.078319 -0.064509 0.029924 0.053341 0.072677
367 -0.284531 0.119169 -0.150284 -0.229704 -0.040377 -0.029425 -0.037259 0.055515 0.147585 -0.073810 0.113311 0.143811 -0.137053 -0.009882 -0.136738 -0.168218 0.018864 0.035361 -0.010409 0.039063 -0.123871 -0.079985 0.122903 -0.009001 0.053932 -0.245029 0.063854 0.096570 -0.077726 -0.088002 -0.053909 0.235625 -0.079053 -0.162782 -0.019556 -0.117424 -0.131490 0.003664 -0.046382 0.029493 0.234919 0.047410 0.036753 0.193891 -0.335549 -0.108129 0.003549 0.192347 0.030710 0.068970 -0.013532 -0.106882 0.177676 0.097269 0.039388 -0.094579 0.017172 0.211609 0.288767 -0.006067 0.211949 0.029337 -0.144611 0.093763 0.230283 0.342154 0.025672 0.178580 -0.026361 -0.238519 0.021537 0.148378 0.081976 0.004162 -0.319687 -0.393137 0.142148 0.122527 -0.056739 0.007624 -0.082106 0.071983 -0.056950 -0.178698 0.227091 -0.056957 0.069585 0.001410 -0.063622 -0.063041 -0.142243 0.061770 0.223606 0.043807 -0.076170 0.134052 -0.053586 -0.163423 -0.005924 -0.020045 0.008822 0.063744 -0.215285 0.032430 0.035220 0.249154 -0.109154 -0.053894 0.069088 0.061536 0.165797 -0.019774 -0.035410 0.127439 -0.070546 0.079437 0.043579 -0.024267 0.085386 -0.001062 -0.048573 -0.277996 -0.132393 -0.203340 0.086109 -0.005732 -0.006546 0.244310
604 -0.150717 0.029408 0.070305 -0.016625 -0.231924 0.108548 0.043523 0.005141 0.168262 0.120199 -0.023481 0.083104 -0.093367 0.186891 -0.063763 -0.024221 -0.032271 -0.143885 -0.010696 -0.149701 -0.142098 0.030695 0.088270 0.033627 0.133835 -0.175178 0.067137 -0.022656 -0.073678 0.124698 -0.166884 0.080956 -0.173420 0.183972 -0.107155 0.039728 -0.125958 0.023211 0.035748 -0.084054 -0.047286 -0.260828 0.109811 -0.075317 0.115861 -0.020183 0.159693 0.000252 0.074510 -0.115926 -0.004273 -0.065657 -0.109570 -0.230726 0.041101 0.026125 0.106578 0.158949 0.074227 -0.021342 0.049161 0.016008 0.047436 0.133587 0.197086 0.108973 0.086979 0.100315 -0.198869 -0.069672 -0.102951 0.120741 -0.038721 -0.092802 0.139733 -0.061386 -0.122450 0.106280 -0.006349 -0.056502 0.026429 0.130890 -0.090408 -0.025077 -0.213564 -0.024735 0.001535 0.049408 -0.099947 0.268767 0.000809 -0.009646 -0.017973 -0.140352 -0.146509 -0.025033 0.007670 -0.248408 0.129563 -0.033723 0.080869 -0.036715 -0.061559 -0.049040 0.075413 0.112874 -0.205885 0.015378 0.142590 -0.057925 -0.074537 0.235431 -0.056522 -0.053387 -0.272512 0.077917 -0.227870 0.156185 0.165873 0.092809 0.078180 -0.037999 -0.022483 0.045775 0.095922 0.016682 0.205576 -0.169994
554 -0.033636 0.059147 -0.107373 -0.077141 0.045088 -0.063801 0.279346 0.184536 0.072576 -0.165755 0.061529 0.060730 -0.117318 -0.044219 0.050700 -0.086183 0.003400 -0.013863 0.050166 -0.190058 -0.246533 -0.008325 0.262297 -0.068726 0.261246 -0.142303 -0.009991 -0.179294 -0.102099 -0.004830 -0.014858 0.144549 -0.325002 0.083710 -0.168634 0.068508 0.078856 -0.069130 0.231606 -0.118911 0.323263 -0.036812 -0.078319 0.175859 -0.107992 0.004293 0.165716 -0.074805 0.132158 -0.079374 0.058861 0.087989 0.037417 -0.012693 -0.153901 0.128066 0.031815 -0.139097 0.219285 -0.048397 -0.123730 -0.038932 -0.067693 -0.026044 0.004934 0.090967 0.034248 0.299222 -0.284140 0.119302 0.009183 0.103743 -0.027430 0.025437 0.040620 -0.223735 0.139064 0.215809 -0.142034 -0.045637 -0.018392 -0.010120 -0.175422 0.019226 -0.050809 -0.025310 0.154564 0.003566 0.093781 -0.020267 0.071110 0.037402 0.051608 0.096530 -0.296424 -0.048452 0.043506 -0.009485 0.212219 -0.096165 0.082621 -0.087672 -0.102655 -0.166713 -0.026665 0.107691 -0.086167 -0.041930 0.045775 0.059020 -0.066308 0.043658 -0.036746 0.092985 -0.212406 0.025110 0.106874 -0.107996 0.074502 0.042909 0.289079 -0.018753 -0.076325 0.124242 -0.171413 -0.121702 0.001597 -0.155241
527 -0.255370 -0.116037 -0.160240 -0.012273 0.008159 -0.119736 -0.076594 0.010487 0.015288 0.075134 0.058248 0.179247 0.053318 0.133049 -0.186248 -0.134507 -0.159742 -0.043586 -0.136751 0.037344 0.034911 0.012063 0.126691 0.143196 0.084920 0.134287 0.050414 0.072024 -0.056104 0.062585 -0.125685 0.123424 -0.080982 -0.085498 -0.282439 -0.063727 0.107862 0.039591 0.196020 -0.041195 0.144130 -0.136969 0.136312 -0.048067 -0.047620 -0.102760 -0.094411 0.052118 0.066157 0.134326 -0.036720 -0.024292 -0.069412 -0.064030 -0.035539 -0.147217 -0.054761 0.024016 -0.300256 -0.104666 0.154920 -0.124542 -0.132401 0.124780 0.114262 0.070498 0.062721 -0.134862 -0.134569 -0.024807 -0.009897 -0.025577 -0.157468 -0.019293 -0.070264 0.057422 -0.033467 -0.014340 0.069371 0.140661 -0.061974 0.228242 -0.034582 -0.224903 0.009202 0.165103 0.083136 -0.057891 0.122251 0.116024 -0.003119 -0.030214 -0.179443 -0.137793 -0.019724 -0.071402 -0.062875 -0.113692 -0.118170 -0.090508 0.120046 0.015172 -0.097844 -0.025402 0.030490 0.247445 -0.170963 -0.000364 0.030015 0.151902 0.053388 -0.012457 0.003494 0.144277 -0.050190 0.056884 -0.134983 0.078727 0.128992 0.100074 -0.063126 0.042141 -0.003173 -0.204946 0.194511 -0.313886 0.270921 -0.051315
312 -0.138120 0.185338 0.012877 0.135311 -0.098641 -0.106028 -0.097798 -0.020462 0.049262 -0.075133 0.038149 0.034053 0.011737 0.094401 -0.092104 -0.281690 -0.034146 0.043242 0.135805 0.307938 -0.233567 -0.040859 0.119648 -0.008835 -0.056549 0.051398 -0.064129 -0.167188 -0.037590 0.239515 0.037510 0.076862 -0.192082 -0.131580 -0.096194 -0.043561 0.049560 -0.079231 -0.115955 0.031677 0.082618 -0.148479 -0.079653 0.207628 -0.138446 0.041266 0.097541 -0.037381 0.013895 -0.090353 -0.010013 0.163004 0.075040 -0.156670 0.041446 -0.115848 0.067237 -0.092856 0.009165 0.063043 0.044992 0.014936 -0.086230 -0.156781 0.111172 -0.049913 0.141028 -0.119168 0.012062 -0.104830 -0.089332 -0.109680 0.095257 -0.223037 -0.108943 -0.040132 0.203024 0.120868 0.264839 0.104472 0.070867 0.013992 -0.187022 -0.059747 -0.172269 -0.054333 0.129297 0.066641 0.096562 -0.138191 -0.055947 0.032404 0.053483 0.028576 0.196118 0.028860 -0.047508 -0.237437 -0.088441 0.101003 0.030268 -0.049541 -0.111084 0.090238 0.032002 0.051455 -0.184790 -0.067284 -0.004385 -0.064832 -0.291717 0.155272 -0.024085 0.151472 -0.195786 -0.098131 -0.080798 -0.221717 0.156216 0.119928 0.093888 -0.106383 -0.049157 -0.104797 -0.019971 -0.089796 0.121939 -0.025903
108 -0.073310 0.109410 -0.194706 0.301754 -0.106083 0.097740 0.012322 0.070495 0.049896 -0.102228 0.106252 0.184426 0.093472 0.016849 0.162618 -0.152400 -0.094277 -0.118014 0.007897 0.108995 -0.188434 0.122024 -0.031403 -0.038804 -0.042351 0.057958 -0.156189 0.086001 0.041967 0.167935 0.032746 0.056630 0.001668 -0.069373 -0.104917 0.005040 -0.080471 0.037877 -0.022311 -0.051498 0.175022 -0.116763 0.000056 0.050855 -0.070449 0.062856 0.044757 -0.092193 0.095078 0.003368 -0.117525 -0.001828 0.057607 0.082383 0.046677 -0.002296 -0.079715 0.109447 -0.008422 -0.283755 -0.036135 0.105304 0.137396 0.189104 -0.020760 -0.123772 0.146996 0.016259 -0.030792 0.132743 -0.107929 -0.047474 0.065941 -0.052536 -0.146936 0.162669 0.003746 0.027960 0.096555 0.013281 -0.033555 -0.026147 -0.104507 -0.217731 -0.056017 0.008927 0.173366 -0.134832 0.034067 -0.005394 0.019242 0.099601 -0.104563 0.088944 -0.058275 -0.180161 -0.067165 0.094558 0.064342 -0.045483 0.073732 0.018894 -0.157610 -0.075937 0.166272 0.194975 -0.128995 -0.166840 0.131229 -0.052253 -0.077744 -0.046361 0.159955 0.276330 -0.370609 0.202089 0.261801 -0.050575 0.095993 0.082680 0.234016 -0.020716 -0.005856 -0.190857 0.097288 -0.124826 0.250591 -0.168117
395 -0.006869 0.061124 -0.059410 -0.010212 -0.117584 0.036932 -0.038180 0.052154 -0.036157 -0.192649 0.056273 0.167725 -0.085787 0.167178 -0.169496 0.003301 0.093586 -0.003347 0.028229 -0.224762 -0.143092 0.182196 0.032032 0.104425 0.135489 0.002053 -0.201870 0.093098 -0.091486 0.043734 -0.015753 0.219348 -0.147378 -0.053394 0.004032 0.029170 0.012575 -0.289264 0.144827 -0.079312 0.119224 -0.171263 0.021073 0.151414 -0.297619 -0.267616 -0.026599 -0.038923 0.014293 -0.210610 0.026825 0.060793 -0.115218 -0.192184 0.078968 -0.106290 0.210395 0.003212 -0.184070 -0.258981 -0.006455 -0.147881 -0.017171 0.063841 0.075904 -0.039231 -0.122428 0.075554 -0.238788 -0.023247 0.030335 -0.093631 0.070776 -0.059440 0.085694 -0.043720 0.198043 -0.069730 0.076965 -0.152471 0.039527 0.071344 0.049331 -0.189134 -0.008029 0.041046 0.121612 -0.069615 0.074533 -0.026185 0.037497 0.036229 -0.059771 -0.121707 0.158375 0.049526 -0.203013 -0.109049 -0.117364 -0.089072 -0.064220 -0.103770 0.067770 -0.016493 0.129666 0.323082 -0.129385 -0.071031 0.115239 0.187805 0.270740 0.112930 0.024628 0.137781 -0.187078 0.036193 -0.037822 -0.072533 0.096632 -0.042587 0.049409 0.119213 0.145589 -0.045716 0.183362 -0.072325 -0.004005 -0.033153
699 0.026220 0.064182 -0.115367 -0.028828 0.005907 0.127106 -0.099875 0.146171 0.064097 0.018251 -0.045718 -0.004633 0.012478 0.105908 -0.024947 -0.081734 -0.041720 -0.149881 0.090055 -0.145602 -0.184694 -0.079499 0.125908 0.025385 0.022375 0.071168 -0.150361 0.139742 -0.299932 -0.226299 0.037357 0.073880 -0.123244 -0.065326 -0.127774 -0.111572 0.143523 0.134813 0.036322 -0.101056 0.008877 -0.018821 0.053657 0.108590 0.073296 -0.051569 0.046334 0.159415 0.098389 -0.012359 -0.018156 0.098754 0.137155 -0.125303 -0.050154 -0.211148 -0.109398 0.025988 0.066510 -0.100744 0.013369 0.076989 0.075100 0.011688 0.039149 -0.154345 0.012256 -0.081532 -0.035998 -0.324076 0.105497 0.130612 0.335458 -0.108661 -0.202538 -0.088879 -0.080374 0.054076 -0.039143 0.042834 -0.230540 -0.083445 0.107427 -0.229732 0.123074 -0.032332 0.174632 -0.103291 0.142269 0.072459 -0.110175 0.015253 -0.034907 0.011399 -0.094960 0.073857 -0.139403 -0.057762 0.053366 -0.007420 0.084280 0.188379 0.005899 0.168983 -0.013203 0.090182 -0.001501 0.083598 0.076416 -0.078987 0.050406 0.039129 0.090909 -0.007869 -0.181867 0.246864 -0.042940 -0.026031 0.061807 0.110902 0.044099 0.137489 -0.113647 0.019311 -0.008537 0.046781 0.004071 0.151826
646 -0.185811 0.048357 -0.060945 0.211423 -0.159633 0.002767 0.253132 -0.109048 0.108247 0.119668 0.026317 0.077097 -0.002781 0.027412 0.063742 0.055951 -0.063672 -0.066629 -0.009608 0.091123 -0.196406 0.097896 -0.062745 0.108375 0.015303 -0.012554 -0.036979 0.354741 -0.096634 -0.098875 -0.140591 -0.088315 -0.156712 0.090502 -0.093605 0.127964 0.010798 0.186977 0.122532 -0.026511 0.146997 -0.183725 -0.013868 -0.019217 0.038504 0.048951 0.207906 -0.019618 0.117592 -0.109639 -0.033297 -0.002924 -0.114307 -0.079812 0.186676 0.053600 0.190033 0.014518 -0.075841 -0.220528 0.081171 -0.158478 -0.122260 0.068887 0.223568 -0.145602 -0.004484 -0.004713 0.027962 -0.052111 -0.062548 0.014859 0.162497 -0.047753 0.045215 -0.039225 -0.190007 0.113621 -0.093200 0.064095 0.032360 0.018416 -0.304895 -0.088378 -0.024883 -0.151138 0.122668 -0.072510 -0.020528 0.064292 -0.134488 0.142338 -0.035053 -0.165088 -0.088339 -0.148027 -0.133084 -0.102592 -0.050449 0.127253 0.159043 0.085452 -0.091806 0.103016 -0.141032 0.114854 -0.012718 -0.118829 -0.096830 -0.054672 -0.097370 0.009820 0.164750 0.182935 -0.195824 0.153430 0.046874 -0.043696 0.119390 -0.123210 0.090849 0.105806 -0.038032 -0.018725 0.082419 -0.043427 0.282359 0.052739
334 -0.076614 -0.204802 -0.265194 0.043307 -0.222567 -0.077399 -0.055263 -0.104871 0.016016 -0.169164 0.105639 0.061885 -0.026104 0.241022 -0.036307 0.027647 -0.318426 -0.025956 0.136538 -0.030312 -0.242788 -0.138372 0.167720 0.096080 0.024484 -0.187562 0.169651 0.023521 -0.063702 -0.275345 -0.200917 0.024619 -0.195297 -0.123695 -0.076693 -0.152683 0.069996 -0.117319 0.211117 -0.021544 0.008889 -0.222845 -0.111296 0.154786 -0.087097 0.023840 0.056500 0.324877 0.122832 -0.020147 0.019561 0.164978 0.012766 0.067785 -0.024155 0.144339 -0.083557 -0.057536 -0.030828 -0.088599 0.017388 0.068296 0.010589 -0.101969 0.034935 0.056890 0.034726 -0.022828 -0.090477 -0.103066 -0.103051 0.155317 0.162541 -0.028799 -0.023958 -0.086293 0.147850 0.122102 0.012402 0.174937 -0.124149 0.101611 -0.082049 -0.085619 -0.059510 0.046892 0.208749 -0.011772 0.080016 0.086279 -0.228994 0.034671 0.077728 -0.047060 0.014193 -0.022064 -0.224944 -0.023802 -0.085324 -0.072781 0.012477 -0.043118 -0.019558 -0.051526 0.018547 0.133410 -0.015079 0.098967 -0.053762 0.090056 -0.027132 0.110623 0.235041 0.024093 -0.116382 -0.033840 0.125838 0.166009 -0.073399 -0.117955 0.068989 -0.197407 0.067692 -0.076357 -0.019750 0.126850 -0.011748 0.040923
546 -0.145518 -0.007692 -0.110319 0.001491 0.078170 0.026048 -0.013539 -0.119396 0.191241 -0.092795 0.216572 0.108539 -0.391724 -0.013137 -0.044996 -0.072240 0.012836 0.070314 -0.054695 -0.084364 -0.088636 -0.157617 0.040202 -0.107330 0.096931 0.193464 0.083553 0.027359 -0.298176 -0.054875 0.098025 0.092512 -0.096826 -0.030855 -0.008949 0.115249 0.032193 -0.126098 0.161286 0.127095 0.127489 -0.176439 -0.021688 -0.150236 -0.109253 -0.220573 0.008782 0.213054 -0.066323 -0.173071 -0.051232 0.129594 0.032942 -0.127246 0.026363 0.051763 -0.034066 0.144899 0.222299 0.004847 0.131545 0.015793 -0.094479 0.124979 -0.001902 0.007291 0.281737 0.053410 -0.195304 -0.006760 0.025838 0.067801 0.116824 -0.126716 0.109142 -0.224513 0.118097 0.167012 -0.131824 -0.112031 -0.100878 -0.167125 0.095303 -0.045976 0.040219 0.033062 0.227843 0.148828 0.161780 0.089004 0.257935 -0.068808 -0.114089 0.008246 -0.290365 -0.030078 -0.171854 -0.191598 0.064613 0.031804 -0.123244 0.077815 0.065997 -0.001676 -0.030227 0.072429 -0.009526 0.054284 -0.000457 -0.261050 0.104538 0.150606 -0.124956 0.046767 -0.118397 -0.170841 0.043465 0.109036 0.072885 0.058191 0.208285 0.039005 0.188509 -0.042305 -0.289945 -0.142537 0.107430 0.204338
544 -0.115978 0.187658 0.006422 -0.160222 -0.078270 -0.133665 -0.029209 -0.129072 -0.007910 -0.044305 -0.134022 0.036408 -0.206488 -0.174362 0.002171 -0.093225 0.054737 0.120751 -0.000772 0.192584 -0.246552 0.008772 0.102137 0.104471 0.242205 0.004667 -0.005214 -0.073855 -0.165655 0.023785 -0.008408 0.123949 -0.166944 0.005114 -0.184511 0.140495 0.087814 0.156911 -0.030590 -0.261524 0.085770 -0.253972 0.082536 0.146363 -0.062501 -0.085194 0.118656 -0.004526 0.055892 0.088985 -0.049495 -0.007981 -0.001889 -0.127754 -0.021832 0.273952 -0.017559 -0.033187 -0.058734 -0.083232 0.260663 -0.092126 -0.136314 0.062582 -0.105948 0.066682 -0.002495 0.143707 -0.055069 -0.081486 -0.151705 -0.111526 0.248823 0.090839 -0.016142 -0.011070 0.028439 0.023486 0.213772 -0.006349 -0.062216 0.155793 0.034471 -0.198116 -0.054350 -0.045813 0.076667 0.098205 -0.041037 0.065554 -0.135507 -0.099689 0.116965 -0.008629 -0.237312 -0.129575 0.055553 -0.030906 0.262898 -0.118360 -0.011224 0.036559 -0.114178 -0.019074 0.108950 0.079919 0.009465 0.017186 0.065897 -0.097709 -0.013878 0.169424 -0.165176 0.085144 -0.169212 0.055105 0.121049 0.168501 -0.066208 -0.085267 0.150021 0.012480 0.059393 0.054206 0.029898 -0.053374 0.134513 0.002962
637 -0.023601 0.152461 -0.031009 0.097877 -0.051098 -0.118736 -0.178825 0.021698 -0.049128 -0.095270 0.232884 0.116023 0.020548 -0.025107 -0.104409 0.015528 -0.323027 -0.294047 0.109560 0.031331 0.047996 -0.007940 -0.147799 -0.018702 0.112642 0.004923 0.056670 -0.143624 -0.034896 0.114510 -0.123122 0.096818 -0.051743 -0.070616 0.018816 0.087407 0.143441 -0.128252 0.200560 -0.073645 0.046985 -0.108482 -0.048919 0.110760 0.041159 -0.132965 0.128264 0.011422 0.113556 -0.058039 -0.135599 0.117705 -0.065656 -0.048624 0.005392 0.042407 0.097434 0.076605 0.145182 -0.065837 0.023576 -0.074408 -0.022853 -0.010013 0.215737 -0.098744 -0.042360 -0.123215 -0.096791 -0.048073 0.140390 -0.108476 0.010101 -0.109307 0.081154 -0.065753 -0.053241 0.204376 -0.007126 -0.124767 0.007915 0.160766 0.024474 -0.072841 -0.051468 -0.022210 0.378512 0.005959 0.082523 0.077600 0.069212 0.148017 0.097407 0.018537 -0.202343 0.037488 -0.256426 -0.035875 0.221091 -0.012428 0.112636 0.199068 0.043156 0.120491 0.086973 0.147466 -0.140457 0.022491 0.042244 0.179017 -0.246469 -0.019418 0.082914 0.126338 -0.197022 -0.063134 -0.101595 -0.106832 0.045286 0.073847 0.286231 -0.034202 -0.086560 -0.099145 -0.186189 -0.168728 -0.091994 0.090666
242 -0.089353 -0.195790 -0.196554 -0.107900 -0.139579 0.025018 0.173980 -0.054145 0.189594 0.042467 0.031829 0.090106 -0.011370 -0.063728 -0.101210 -0.211094 0.032805 0.133080 -0.120446 -0.030826 -0.059545 0.060660 -0.021480 -0.034168 0.080297 0.164896 0.064242 0.110342 0.060623 -0.177018 0.029077 0.140099 0.115397 0.120721 -0.239176 -0.115727 0.077920 -0.049155 0.080873 -0.174813 0.151447 -0.353031 0.072724 0.146098 0.130019 -0.178154 0.255376 -0.004890 0.252246 -0.019901 -0.044815 0.037866 0.062463 -0.158527 -0.020314 0.122607 -0.048953 0.033484 -0.175809 0.071123 0.060849 -0.030852 0.043946 0.043704 0.136961 0.028521 0.033448 0.064940 -0.103990 -0.000818 -0.076214 0.157895 0.029321 0.210570 -0.266528 0.050579 0.097062 0.046216 -0.026765 -0.149324 0.103441 -0.079307 -0.101082 -0.153824 -0.220593 -0.014030 0.078121 -0.056893 -0.100592 -0.179887 -0.091658 -0.010128 0.013928 -0.017123 -0.205082 -0.011399 -0.134428 -0.202498 0.086699 0.002716 -0.031980 0.061123 0.074983 -0.096809 -0.073553 0.148441 0.069140 0.154719 0.096023 -0.016663 -0.164432 0.064042 0.101976 -0.119456 -0.089177 0.105487 0.005946 -0.154677 -0.059877 0.028072 0.218072 -0.079548 0.018296 -0.194462 -0.050492 -0.008326 0.155010 -0.040503
327 -0.069024 -0.192709 0.019167 0.157479 -0.290177 -0.101305 -0.049253 -0.185405 0.010031 0.016460 -0.026030 0.107682 -0.036924 0.132294 -0.054821 0.100473 -0.069889 0.114967 -0.017163 0.023992 -0.083487 -0.013633 0.028611 0.084864 -0.105456 0.024359 0.146350 0.187858 0.149583 0.162312 0.111534 0.052223 -0.023540 -0.160861 -0.037958 0.117188 -0.013088 0.122626 0.018253 -0.197954 -0.089683 -0.084375 -0.133691 -0.020700 -0.161728 0.024769 0.174477 0.069701 0.008992 -0.256006 0.066803 -0.129501 0.111864 0.018029 0.065420 0.065838 0.141457 -0.001062 0.244401 -0.035814 0.065470 -0.088243 -0.008217 -0.163756 0.041868 0.072733 0.120416 0.000007 -0.156380 -0.111561 0.041472 -0.029146 0.279418 -0.047831 0.146819 -0.178722 0.118628 0.228360 -0.175108 0.074572 0.195361 -0.010309 -0.227318 -0.059206 0.119193 0.190609 0.138771 0.063834 -0.176476 -0.120868 -0.158615 -0.114415 0.016648 -0.173579 -0.062760 -0.126294 -0.176770 -0.039482 0.025016 -0.066134 0.122805 0.152681 -0.127158 0.099514 0.297403 0.144618 -0.118440 -0.074686 -0.150608 0.104035 -0.079760 0.163384 0.098289 0.027316 -0.355051 0.125261 -0.128380 -0.093452 0.020606 -0.046852 0.048543 -0.097372 -0.112669 -0.040826 0.150699 -0.017486 0.143844 0.054226
415 0.009980 0.092581 -0.094887 0.078620 -0.244373 -0.159934 -0.032148 0.196117 0.287333 -0.090925 0.123064 0.090703 -0.069731 0.139671 -0.078505 0.057799 0.061700 -0.068072 -0.218462 -0.035818 -0.107259 -0.024341 0.019269 -0.024207 0.208306 0.085437 -0.023794 -0.142627 -0.143461 -0.110043 0.039921 0.024206 -0.123297 -0.111080 0.048260 -0.140608 -0.041170 0.152237 0.049452 -0.197658 0.243241 0.067791 0.065699 0.010555 -0.174372 -0.219644 0.089997 -0.026792 0.093797 -0.065049 0.205379 -0.148556 0.033114 -0.066103 -0.324612 -0.076969 0.146682 0.257625 -0.085891 -0.055936 -0.099317 0.070060 -0.128411 0.125686 0.051482 -0.008013 -0.012242 -0.059294 -0.035810 -0.113963 -0.027641 -0.058924 0.279372 -0.095239 0.092347 -0.162588 -0.005689 0.107862 0.006472 0.174687 -0.038914 0.033547 -0.026893 -0.260402 0.028656 -0.014961 0.102284 -0.100469 -0.144257 0.137729 0.227969 -0.045917 -0.174422 -0.213249 0.027865 0.013699 -0.050665 -0.044422 0.150154 0.104364 -0.053488 0.070178 -0.109493 0.046836 0.081500 0.141513 -0.187711 -0.004341 0.071170 -0.173176 -0.051831 0.044098 0.018394 -0.091948 0.000521 0.037243 0.010503 -0.171213 -0.068447 0.001767 0.256286 -0.059268 -0.042881 -0.048025 -0.042126 0.137939 0.159185 0.020235
25 -0.022435 0.090241 -0.206081 -0.099792 -0.083282 0.209921 0.069437 0.053237 0.059564 0.048926 -0.030802 0.259375 -0.127490 0.211162 -0.152840 0.177367 0.000635 -0.080135 0.041304 -0.032801 -0.112104 0.012005 0.086842 0.113875 0.099224 -0.049051 0.082683 0.038353 -0.070986 0.008454 0.177611 0.033361 -0.155481 -0.110809 -0.230261 0.020098 -0.012566 -0.008010 -0.063358 0.134167 0.171225 0.100613 -0.029417 -0.114276 -0.324159 0.069777 -0.085415 0.111318 0.061304 0.074841 -0.199785 0.185030 0.093034 -0.073601 -0.044039 0.078781 0.119042 0.007417 -0.064480 -0.170094 0.049760 0.001656 0.081488 0.141089 0.064280 -0.117670 -0.092908 -0.100727 -0.037754 -0.184426 0.078959 -0.037997 0.229589 -0.128465 -0.171608 -0.046407 -0.143469 -0.156722 0.175139 -0.096707 0.174131 0.067164 -0.183640 0.092229 -0.041216 -0.036740 0.060139 -0.151742 -0.058478 0.099211 -0.054516 -0.070897 -0.194737 -0.163586 -0.253921 -0.130747 -0.351069 -0.040956 0.096366 0.107409 0.069034 -0.073089 -0.079229 -0.077576 0.250061 0.094998 -0.242415 -0.296424 -0.069723 0.162341 0.022723 -0.014592 -0.031173 0.126591 -0.112311 0.006398 0.066243 0.041544 0.059632 -0.154163 0.257692 -0.031919 0.237562 -0.170288 0.080071 -0.012587 0.030606 0.057044
701 -0.141309 -0.130513 -0.135213 0.037355 -0.363849 -0.111944 -0.173137 -0.131653 0.230349 0.021277 0.201783 -0.004080 0.041111 -0.004416 -0.266902 0.021076 0.089282 0.112771 -0.009016 0.004863 -0.164243 -0.031303 -0.152979 0.031203 0.206063 0.097095 -0.027005 -0.015170 -0.016918 0.014599 0.045670 0.086163 -0.127863 -0.077473 -0.248625 0.124066 0.144464 -0.001790 0.095610 -0.232497 0.000703 -0.167486 -0.112335 -0.228809 0.015949 -0.131512 0.152886 -0.085228 0.019283 0.070829 -0.197738 0.139687 0.015720 -0.077747 0.065026 -0.029739 0.118569 0.076723 0.108696 -0.068471 -0.120060 -0.060486 -0.059068 0.085296 0.358992 0.011480 -0.222714 0.022543 -0.195245 -0.026435 -0.102561 -0.215886 0.143811 -0.225918 -0.013925 -0.136557 0.060329 0.038256 0.140472 0.094008 0.042936 -0.046528 -0.060839 -0.036516 -0.050631 -0.080154 0.061590 -0.054738 -0.059205 0.075521 0.156205 -0.016427 0.244379 -0.096225 -0.277046 -0.130444 -0.009586 -0.129417 0.018927 0.038050 0.024879 0.087511 0.009730 0.120719 0.043176 -0.113328 -0.064342 0.060743 -0.104958 -0.012396 0.099328 0.081582 -0.041998 0.168711 -0.012427 0.111536 -0.132589 -0.140816 0.188264 0.201530 0.079491 -0.146534 0.034267 -0.163042 0.009884 0.078609 -0.114916 0.070037
123 0.043974 0.042485 -0.136494 -0.163836 -0.162098 -0.119863 0.069031 -0.062344 0.041298 -0.096258 0.029337 0.113047 0.110726 0.133858 -0.174625 -0.038305 0.047501 0.174791 -0.025583 -0.021698 -0.174712 -0.065550 -0.001572 0.009995 -0.046860 -0.094730 0.061603 0.014247 0.014156 -0.161469 0.029031 0.202694 -0.307469 -0.242815 -0.290213 -0.083363 -0.020815 0.037617 0.257215 0.079645 0.061364 -0.091362 0.158549 0.116419 -0.008574 -0.060489 0.108664 0.049591 0.129119 -0.106974 0.051371 0.131233 -0.027584 0.022847 -0.084097 0.021872 -0.018641 0.030372 0.235101 -0.049692 0.108490 0.024857 -0.327908 0.011089 0.165067 -0.126499 0.421181 0.142800 -0.073185 -0.052910 0.069003 -0.154965 -0.002240 0.082754 -0.058080 -0.229340 0.040446 0.064451 -0.022602 0.128877 -0.166842 -0.045508 -0.126943 -0.002719 -0.136347 -0.130584 0.168879 0.012351 0.124507 0.030502 -0.016486 -0.084278 0.139483 0.098136 -0.009738 0.016834 -0.091749 -0.163186 0.017468 -0.293277 0.048855 -0.015082 0.039555 -0.046544 0.124217 -0.043421 -0.120673 0.073513 0.063892 0.079242 -0.013367 -0.015245 0.002128 0.040047 -0.116935 0.021048 -0.004867 0.015343 -0.000959 -0.046699 0.096250 -0.074839 -0.095275 0.036087 0.158618 -0.173033 -0.024631 0.138228
662 0.085340 0.128575 -0.224952 0.141011 -0.120736 0.099840 0.080133 -0.089448 0.128258 -0.164245 0.211434 0.050660 -0.043858 -0.041697 -0.006812 0.024668 0.069144 0.055756 0.034419 0.012845 -0.097757 0.137316 -0.057241 -0.073217 -0.113047 0.015552 -0.125370 0.064803 -0.040637 -0.383242 -0.055930 0.131855 -0.072162 0.043520 -0.096987 -0.038761 -0.033442 -0.033876 0.118814 0.128511 0.151736 -0.158712 0.068090 -0.048219 -0.270354 -0.072326 -0.131763 0.069358 0.081125 -0.135974 0.062348 0.036291 -0.180947 -0.263022 0.022782 0.020991 0.015567 -0.080483 0.083579 -0.094239 -0.101513 -0.132394 -0.086420 0.096107 0.109390 0.081722 0.116677 -0.156631 0.052033 0.072522 -0.119132 0.020528 0.164816 -0.132582 0.236141 -0.111294 -0.049891 0.032526 -0.018367 -0.082930 -0.311085 -0.093647 -0.122055 -0.023877 0.036655 0.024503 0.066738 0.080073 0.113199 0.040201 -0.225683 -0.062281 -0.025857 0.023128 -0.103537 -0.020057 -0.088468 -0.126849 0.005548 0.006961 0.046789 0.156749 0.025616 0.030301 0.005376 0.186886 -0.255059 0.014475 -0.035092 0.164669 0.006798 -0.115972 -0.007247 -0.018378 -0.245311 0.217543 0.061983 -0.285593 -0.073173 0.060612 0.066255 -0.080317 -0.131581 -0.168316 0.028736 0.013406 0.046506 -0.088768
338 -0.064995 0.060905 -0.158197 0.259712 -0.097129 -0.148085 -0.052463 0.014056 0.105815 -0.046829 0.091434 0.099966 -0.043170 -0.199866 -0.010135 -0.030542 -0.081651 -0.252057 0.026664 -0.036476 -0.095925 0.234933 0.143940 0.218157 0.047354 -0.120533 0.013095 0.016206 -0.002512 0.077752 -0.077912 0.014477 -0.272156 -0.151832 -0.200914 0.069362 -0.003987 0.091943 -0.056165 -0.033215 0.063945 -0.169329 -0.250172 -0.052689 -0.075269 0.025835 -0.007533 0.168461 0.022713 -0.132698 -0.014543 -0.010439 -0.032037 0.004167 -0.014058 0.119380 0.140877 0.054882 0.148357 0.011765 -0.063564 -0.087419 0.075907 0.033464 -0.024240 0.043854 0.126302 -0.092221 -0.110171 0.077317 -0.195063 0.023473 0.228331 0.052919 -0.195520 -0.011159 -0.028518 0.104497 0.059794 -0.174941 -0.111249 0.088269 -0.003519 -0.091702 -0.142842 -0.155262 0.144780 0.210720 -0.014336 0.094229 0.076962 -0.169214 -0.180445 -0.163890 -0.185462 0.015164 0.153170 0.017944 -0.075434 -0.078189 0.121889 0.033977 0.072855 -0.085400 0.080848 0.423051 -0.032152 -0.178101 0.103021 0.007952 0.044745 -0.003159 -0.053582 0.208490 -0.098402 0.095511 -0.106665 -0.272425 0.058230 -0.073252 0.202601 -0.234791 0.135012 -0.255885 0.047983 -0.022024 0.164940 0.239919
115 -0.383500 -0.202701 -0.026016 0.030762 -0.053073 -0.124818 0.027732 0.027637 -0.041311 0.209504 0.135516 0.112245 0.007422 -0.003063 -0.131816 -0.021512 -0.069169 0.071480 -0.050989 0.020733 -0.253381 0.005510 0.082734 -0.130113 0.098255 0.154270 0.040585 0.184014 -0.049573 -0.057992 -0.053264 0.073525 -0.223450 -0.007560 -0.242547 0.151202 -0.179335 0.054719 0.043189 -0.134143 0.068764 -0.005748 -0.038043 0.004264 -0.069776 -0.009829 0.030687 0.054857 -0.024631 0.031631 0.005994 -0.077767 0.118604 -0.076867 -0.054705 -0.171331 0.071932 -0.067402 -0.179125 -0.051846 -0.034310 0.110352 -0.041349 -0.047137 0.205239 0.147780 -0.008609 -0.214609 -0.122564 -0.064088 -0.053781 -0.083192 0.251264 0.029182 0.061564 0.129174 0.003999 0.200080 0.031000 -0.106280 0.010242 -0.148923 -0.095135 -0.126834 -0.139528 -0.144615 0.313125 -0.064130 0.157476 -0.106052 -0.030167 0.001300 -0.111967 -0.082029 0.112050 0.005141 0.044893 0.037624 0.043506 0.074127 0.060128 -0.187078 -0.006257 0.050778 0.095122 0.006209 -0.088091 -0.057988 -0.138087 0.029538 0.088428 0.009193 0.139807 0.114179 -0.158470 0.098827 -0.001302 0.057774 0.140351 0.039326 0.045089 0.030499 0.073604 -0.265714 -0.032117 -0.119361 0.123090 -0.062356
371 -0.029676 -0.179245 -0.069331 -0.106878 -0.113049 -0.015404 0.075920 -0.144543 0.074330 -0.286767 -0.001374 0.059821 0.056929 0.083758 0.098018 -0.019860 0.067005 -0.043280 0.065463 -0.187914 -0.169831 -0.147321 0.038862 0.105777 -0.042615 0.087866 0.129920 0.024452 -0.094764 -0.177461 -0.068681 0.073470 0.031271 -0.064062 -0.134409 0.038149 0.064009 0.093815 -0.023335 -0.155739 -0.078922 -0.146493 0.069668 -0.128822 -0.015672 0.010020 -0.098208 0.117537 0.421420 -0.127472 0.052093 0.029220 0.087126 -0.068797 0.015905 -0.252386 0.007082 -0.035007 0.251656 0.008887 0.033195 0.197129 -0.123214 0.029626 0.219564 0.010308 0.187670 0.169108 -0.009381 -0.150462 -0.019022 -0.089571 0.144334 -0.013951 0.081669 -0.117120 0.018490 0.037837 0.141042 -0.158916 -0.035466 0.043496 0.064502 -0.170883 -0.117677 -0.174083 0.230499 -0.047087 0.107260 -0.087843 -0.065522 0.068553 0.042525 -0.160682 -0.030609 -0.196748 -0.130966 -0.078504 -0.058970 0.129068 -0.066011 0.096251 0.087384 -0.025425 -0.059658 0.226540 -0.088748 0.078547 0.096072 0.052572 -0.055540 0.027177 0.113367 -0.137188 -0.136538 -0.124842 0.017130 0.032452 -0.033466 0.115531 0.138647 -0.188668 -0.196050 -0.200968 0.018184 -0.138880 -0.028249 0.023082
715 0.151417 -0.018923 -0.072374 -0.113165 -0.160329 -0.015206 0.041950 -0.009482 0.030790 -0.112056 0.086753 0.209173 -0.068385 0.060855 0.073606 -0.200097 -0.049981 -0.156433 -0.086260 -0.152404 -0.276740 -0.128910 0.326574 -0.212350 0.052501 -0.047380 0.017980 0.113285 -0.084717 -0.023123 0.050156 0.067543 -0.126491 -0.020140 -0.123802 0.020689 -0.006643 0.156442 0.210395 0.023209 0.146934 -0.032891 0.011112 -0.071165 -0.188787 -0.153265 0.101158 -0.037115 0.040591 -0.115450 -0.178692 0.020578 -0.098044 0.092613 0.181942 0.033631 -0.071478 0.027941 0.017788 -0.132175 -0.083656 0.089381 -0.139151 -0.026782 0.113490 -0.091470 -0.030211 -0.072386 -0.022836 0.119010 0.061785 0.199376 0.095773 -0.108067 0.015293 -0.113972 -0.048209 -0.020725 0.093126 0.183222 -0.090919 -0.285039 -0.044032 -0.264933 -0.075653 -0.027329 0.161706 -0.126575 0.109478 -0.137895 0.134094 0.091579 -0.098593 -0.096911 -0.086725 0.059788 0.055182 -0.121959 -0.132558 -0.114363 0.073272 0.045899 0.008114 0.113975 -0.151694 0.139510 -0.094283 -0.154205 0.133700 -0.012010 -0.056422 0.095286 -0.098401 -0.141383 -0.003867 0.095471 -0.002762 -0.162892 0.027989 0.044975 0.152035 -0.122795 0.044895 -0.165237 0.041282 0.023550 0.009966 -0.066134
490 -0.027373 0.212518 -0.197138 0.020267 -0.081255 0.189564 -0.008157 -0.016945 0.038047 -0.183097 -0.093492 0.134044 -0.182960 0.000423 -0.233792 0.008512 -0.016353 -0.002475 0.144668 -0.043263 -0.055363 -0.097050 0.069002 -0.037858 0.194965 0.224530 -0.184332 0.064779 -0.034824 -0.112699 -0.069163 0.052945 0.031301 -0.081047 -0.074105 -0.045086 -0.130307 0.061268 -0.105611 -0.060068 0.174490 -0.033116 0.168852 0.063758 -0.203481 -0.071897 0.097693 0.207201 0.251262 -0.237078 0.010743 -0.153018 -0.090284 -0.028857 0.089518 -0.036301 0.152946 0.014429 0.000712 0.040238 -0.003581 0.047019 -0.066506 0.086672 0.034144 -0.089845 0.029741 0.067249 -0.127556 -0.012788 -0.093064 0.014152 0.137777 -0.024878 -0.028855 -0.081493 0.090057 -0.021424 0.031570 -0.101095 0.093747 0.143036 0.126959 0.177897 -0.289189 -0.090499 0.241575 -0.080323 0.054542 -0.094286 -0.085837 -0.138687 0.029577 0.103997 0.012040 0.002485 0.117667 -0.148736 -0.000543 0.042670 0.246363 0.140799 -0.179477 -0.071621 0.088634 0.083987 -0.136040 -0.001624 -0.075106 0.087164 0.102451 -0.050106 0.062568 -0.066616 -0.247815 -0.052289 0.028656 -0.086426 0.192328 0.040443 0.269579 -0.050963 -0.210739 -0.180735 -0.068391 -0.131758 0.269381 -0.045931
588 -0.084212 0.148464 -0.090312 -0.029108 -0.241003 0.146033 0.119829 -0.091552 0.236089 -0.029464 0.109480 0.006959 -0.062411 0.063725 -0.149588 0.041036 0.291729 -0.080646 0.030156 -0.024788 -0.241544 -0.102648 0.317068 0.083761 0.201546 -0.111527 0.053644 -0.116398 0.037602 0.087369 -0.211530 -0.078106 -0.051609 0.051968 -0.134423 0.043838 0.066229 0.188215 0.279069 0.175926 0.046584 -0.035825 0.035106 0.054748 -0.232297 -0.116059 0.035280 0.015204 -0.120561 -0.195273 0.194183 -0.074537 -0.178129 -0.073151 -0.123280 0.078150 0.063644 0.146944 -0.003623 -0.068196 0.029011 0.028158 -0.060984 0.041617 0.136172 -0.120730 0.010874 0.186358 -0.079148 -0.062385 -0.017754 0.063258 0.240121 -0.000768 0.067624 -0.041939 0.147614 0.091380 0.148530 0.173164 -0.013708 -0.036613 -0.050883 -0.216146 -0.024824 -0.312191 0.003211 0.027071 -0.052407 -0.052924 -0.224911 0.058739 -0.047851 0.041719 -0.178398 -0.064981 0.071832 -0.120493 -0.027571 0.113909 0.273266 -0.108260 -0.047097 -0.009887 0.012471 0.129272 -0.163914 -0.221267 0.084975 -0.051424 -0.041171 -0.028624 -0.150539 0.035979 -0.110214 -0.102929 -0.064508 -0.030723 0.067285 -0.017855 -0.081840 -0.174427 0.088652 -0.034537 0.129749 0.009778 0.059873 -0.002629
515 0.028628 0.166831 -0.166197 0.187273 -0.341513 0.189153 -0.239119 0.315803 0.068993 -0.044689 -0.148233 0.274959 -0.007599 0.042592 -0.035506 -0.163956 0.005085 -0.125458 -0.094462 0.035797 -0.040816 0.133036 -0.057491 0.004621 -0.066781 -0.041183 0.178194 -0.020290 0.197715 -0.186485 0.009712 0.057047 -0.148883 -0.080114 -0.339956 0.037548 -0.006075 0.080156 0.113987 0.123013 0.024777 -0.279984 -0.038668 -0.018858 0.094929 -0.185725 -0.119069 -0.008762 0.111330 -0.110231 -0.117109 0.001571 0.014308 -0.038382 -0.246854 0.092825 0.124617 0.134381 0.074990 0.024440 -0.030154 -0.013020 -0.087599 -0.022670 0.003992 0.128414 0.066963 0.061594 -0.017834 0.131303 -0.172860 -0.008804 -0.031802 -0.160580 0.021179 0.026148 -0.116436 0.061530 0.009840 0.157479 -0.009615 -0.003810 -0.113284 -0.117117 -0.083605 -0.013327 0.085102 0.121959 0.110640 -0.001688 -0.262344 -0.168486 0.096024 -0.041678 -0.218853 -0.113958 -0.081841 -0.075028 0.049146 -0.023102 -0.094842 0.006608 -0.051393 -0.064461 -0.111132 0.075537 0.049657 -0.147359 -0.078455 0.221946 -0.160268 0.025732 -0.089878 0.241729 -0.191250 0.127184 0.091794 -0.185322 -0.220837 0.048593 0.148442 0.137271 0.298630 -0.097206 0.085982 0.094769 0.108896 -0.007640
438 -0.023655 -0.022996 -0.317708 0.045270 -0.305675 0.295663 0.131796 -0.164794 0.216952 -0.105984 0.038715 -0.079653 0.144202 -0.154630 0.000039 -0.196397 -0.328860 -0.014910 0.118721 -0.071548 -0.051655 -0.050313 0.034754 0.055439 0.044627 0.054174 -0.190299 -0.271768 -0.020171 0.115395 -0.213174 -0.003919 0.013153 -0.075269 -0.208319 0.279755 0.129686 0.104096 0.063919 0.042117 0.173611 -0.010660 0.080432 -0.113288 -0.244207 -0.024661 0.208149 0.080484 0.123610 -0.006962 -0.050640 0.136278 -0.292759 0.026538 -0.031515 0.174156 0.201322 0.113050 -0.074109 0.122469 0.166521 -0.250020 -0.088910 0.041511 0.059930 0.060283 0.026480 0.102205 -0.020597 -0.009436 -0.001962 0.152748 0.128064 -0.014150 0.008295 -0.294175 0.167305 0.091607 -0.126488 0.042123 0.076077 0.018710 -0.083418 0.031351 0.045224 0.037328 0.210894 0.105702 0.179039 -0.121869 -0.092720 0.019533 -0.090057 0.001865 -0.176911 -0.027872 -0.181739 -0.310922 -0.075702 0.001434 0.005649 0.014273 -0.018925 0.081736 -0.081702 0.315396 -0.110845 0.132635 0.108643 -0.025700 0.044669 0.018734 0.104552 -0.097553 -0.228692 -0.037986 -0.094043 -0.077723 0.188715 0.117190 0.108370 0.207256 -0.130463 -0.066780 0.256250 0.034114 -0.050169 0.097172
402 -0.178695 0.101648 -0.270323 0.145197 0.034064 0.097684 -0.089524 -0.213984 -0.178307 -0.014835 0.185622 0.104967 -0.176974 0.133381 -0.070012 -0.006298 -0.171721 -0.024680 0.104049 -0.004320 -0.159107 0.018073 0.042257 0.030606 0.134314 0.020140 0.069873 0.084918 -0.092815 -0.160240 0.134672 0.054457 -0.167287 0.015095 -0.283115 -0.029688 -0.072716 0.104480 0.084156 -0.051648 0.103096 -0.298069 -0.113109 0.025254 0.004649 0.169211 0.026329 0.184278 0.184098 -0.351290 -0.121124 -0.067099 0.105329 0.099230 0.002315 -0.069724 0.135571 0.119589 -0.053078 -0.027890 -0.114861 -0.214175 0.042656 -0.129610 -0.051256 0.080130 0.039074 0.025658 -0.105029 0.032365 -0.153737 0.135434 0.056268 -0.114242 -0.076994 -0.046909 -0.073411 0.196825 0.030966 -0.175184 -0.006403 0.018693 0.025809 -0.113717 0.023741 -0.044734 0.124455 -0.101827 0.051504 0.089999 -0.040232 0.031449 0.071094 -0.065768 -0.104502 -0.010127 -0.154746 0.177494 -0.097896 0.026214 -0.014063 -0.010417 0.233425 0.073661 0.000500 0.215016 -0.222905 -0.090593 0.174725 0.142977 -0.008733 -0.025052 -0.085219 0.255230 -0.288214 -0.056953 -0.102461 -0.189446 -0.011310 -0.188439 0.170128 -0.143503 0.093877 -0.018355 0.033569 -0.169698 -0.007884 0.002818
463 0.032911 -0.074818 0.061690 -0.071808 0.071438 -0.025787 -0.097089 -0.129908 0.186356 0.037619 -0.105858 0.117263 0.045280 0.060952 0.070292 -0.019703 -0.056276 -0.069862 -0.217419 0.058156 0.028124 0.197342 0.051254 -0.026947 0.162939 0.172087 -0.010406 -0.057163 -0.087841 -0.254529 -0.044351 0.059300 -0.004501 -0.010944 -0.155770 0.149009 -0.007768 -0.230633 0.011970 -0.133701 -0.098776 -0.187168 0.074741 0.122844 0.015051 -0.232624 0.200158 -0.006004 0.054966 -0.154767 0.023186 0.076252 0.032246 -0.066721 -0.013574 0.012563 -0.014137 -0.075067 0.070921 -0.113884 -0.024944 -0.151622 -0.036688 0.166504 0.022286 0.093442 0.116454 -0.032797 -0.203768 -0.026052 0.004429 0.155570 0.260317 -0.082506 0.270658 -0.169509 0.199788 0.304386 -0.164211 0.008659 -0.185362 -0.089317 -0.117817 -0.162894 0.061350 0.008899 0.192046 0.043706 -0.046077 -0.209681 -0.088445 -0.207641 -0.007194 -0.019415 0.001847 -0.012607 -0.143722 -0.228212 -0.022255 0.152671 -0.031431 0.034051 0.060814 -0.084566 0.061924 0.052332 -0.074664 -0.098257 -0.109121 0.088560 -0.133562 -0.133568 0.050212 0.060372 0.025381 0.139008 0.097133 0.057742 0.073038 0.024530 0.049433 -0.174109 -0.050069 -0.237819 0.120763 0.111365 0.124665 0.033323
428 -0.248956 0.122007 -0.124171 -0.072612 -0.193717 -0.108698 -0.131777 -0.065135 -0.049988 0.044887 -0.030920 0.120874 -0.283252 0.091678 -0.071151 -0.076173 -0.128111 -0.000907 0.083413 -0.029789 0.001637 0.004707 0.001121 -0.159163 0.291033 -0.163476 -0.121122 -0.131081 0.028278 -0.096748 -0.080744 -0.067275 -0.059048 0.241373 0.003923 -0.222300 -0.044636 0.035306 0.143372 -0.015415 0.134851 -0.170971 0.119650 -0.059546 -0.039467 -0.168733 0.247339 0.138996 0.296723 -0.139280 0.120088 -0.164042 -0.150672 -0.024448 -0.098013 -0.021548 -0.002265 0.062174 -0.103927 -0.210350 0.180095 -0.036953 -0.024678 -0.017963 0.088807 0.061573 0.073032 0.182635 0.057547 -0.041605 -0.104526 0.272311 0.295266 0.104560 0.113780 -0.117861 0.199174 0.032693 0.052200 0.080482 -0.182415 -0.146289 0.040288 -0.023147 -0.143803 0.096564 0.176691 -0.006658 0.139168 0.000529 -0.073539 -0.051514 0.170075 0.001502 -0.177481 0.049527 -0.159043 -0.123658 0.008797 -0.006976 -0.054383 0.098733 -0.044349 0.233739 0.093401 0.283931 0.032539 0.005039 0.001829 0.050844 -0.139689 0.142105 0.142717 -0.122085 -0.051713 0.171720 0.062957 -0.035939 0.187098 -0.208285 0.190090 0.257931 -0.214458 -0.060254 -0.067152 -0.007502 0.189333 -0.058174
732 0.085414 0.006472 -0.126932 -0.018965 0.038095 0.069366 -0.044443 0.078164 0.083374 -0.021896 -0.107445 0.059955 0.152387 -0.203361 0.120124 -0.201446 -0.069848 0.085586 0.069864 0.018716 -0.271086 0.113371 0.278450 -0.027419 0.077287 -0.084075 -0.029457 0.313858 -0.065055 -0.162398 0.009571 0.096567 -0.266804 -0.163653 -0.212484 -0.138499 -0.007259 0.013607 0.148498 0.212345 -0.037239 -0.088038 -0.172732 0.258787 -0.049359 -0.025434 0.266646 0.040546 -0.022669 -0.241054 -0.100560 0.155979 0.088395 -0.089408 0.053319 0.028896 0.170984 -0.104121 -0.075489 -0.007368 0.103918 -0.013955 -0.045826 0.002229 -0.090703 -0.125575 -0.172674 -0.047802 -0.055542 0.145935 0.025374 -0.053126 -0.019458 -0.124428 0.226635 -0.018123 -0.061313 0.003936 0.143538 0.009098 -0.046626 0.134150 -0.143322 -0.088484 -0.172817 0.024431 0.075081 0.073179 -0.053702 0.050417 0.001639 0.063461 0.082110 -0.218741 -0.369458 0.107925 -0.026845 -0.112080 0.095194 0.100571 -0.181381 -0.045234 0.099107 -0.034336 -0.083672 0.303615 0.128376 -0.048856 -0.078855 0.073279 -0.239234 0.094768 0.168348 -0.041022 -0.184693 0.062121 0.042343 0.026431 -0.102320 0.026182 0.097127 0.037977 -0.095803 -0.251171 -0.144505 -0.127846 0.004346 -0.122513
429 0.076923 0.021318 -0.142564 0.056129 -0.221567 -0.044088 0.169862 -0.100382 -0.070736 -0.112802 0.067949 0.158477 -0.039121 -0.080471 -0.219145 -0.108771 -0.111953 -0.046209 -0.179844 0.091816 -0.184215 0.115750 0.070784 -0.032138 0.053583 0.094177 -0.047192 0.033347 -0.047991 -0.133779 0.121662 0.048016 -0.121429 -0.001555 -0.225920 -0.087924 0.018213 -0.144007 0.078255 0.068413 0.119289 -0.026856 0.181451 0.207900 0.004169 -0.375369 -0.093598 0.013611 0.065278 -0.020862 -0.101095 -0.061623 0.042577 -0.020666 -0.169138 0.165199 -0.026757 -0.133960 -0.113808 -0.004013 -0.121714 0.064046 0.054296 -0.048126 0.160444 0.035543 -0.071098 0.050037 -0.186850 -0.239246 -0.083667 0.074867 0.111536 -0.126905 -0.116391 0.064658 0.067505 0.096457 -0.025073 0.015673 -0.009090 0.106102 -0.173118 -0.080725 -0.231066 -0.073717 0.107195 -0.022352 0.084946 0.021991 -0.040863 -0.004542 -0.121635 -0.059941 -0.082364 0.057883 -0.034966 -0.121648 -0.090308 0.001272 -0.053235 -0.006132 0.001870 0.066044 -0.013307 0.181386 -0.165517 -0.203435 0.166292 0.119199 -0.010387 -0.056917 0.092532 -0.139724 -0.317026 -0.008467 0.083568 0.058483 -0.110162 0.060332 0.096379 -0.016957 -0.076192 -0.223436 -0.041534 0.258326 0.105566 -0.042658
239 -0.059932 0.073030 -0.162868 -0.095840 -0.048815 0.118218 0.066544 -0.051247 -0.053660 0.058621 0.062494 0.025743 -0.068997 -0.138962 -0.412654 -0.155381 -0.084430 -0.164241 0.020909 -0.136445 -0.182224 0.054570 0.020871 -0.053511 -0.048832 0.160520 -0.022591 0.096332 -0.048477 -0.081427 0.058405 0.152037 -0.266074 -0.053915 -0.199349 -0.124889 0.207820 0.159384 0.141046 -0.111444 0.064497 -0.134935 -0.065780 0.160942 -0.191444 -0.033000 -0.013214 0.007997 0.086703 -0.285537 -0.029679 0.088873 -0.041945 -0.051532 -0.223525 -0.038088 0.016964 0.164976 -0.049340 0.093970 0.013567 0.010811 -0.048462 -0.066467 -0.011856 0.158282 -0.011420 -0.023127 -0.016444 -0.108493 0.207366 0.029793 0.172651 -0.021604 0.130498 -0.000836 -0.109308 0.045447 0.091044 0.032667 0.089889 -0.224123 0.045764 -0.175737 -0.029971 0.047345 0.035930 -0.026792 -0.003861 0.014860 -0.059388 -0.014138 -0.143585 -0.010925 0.131076 -0.087688 0.250177 -0.193184 -0.040150 0.067615 0.041568 0.100850 -0.251584 0.007173 0.142336 0.030467 -0.153570 -0.011855 -0.221564 0.079999 0.019689 -0.001090 -0.117042 -0.040145 -0.107035 -0.040321 0.113389 -0.074514 0.110051 0.036802 0.313122 -0.076647 -0.055066 -0.054803 -0.124332 0.047916 0.073152 0.047465
413 0.171080 -0.008498 -0.192354 -0.114849 -0.089887 -0.002476 0.022421 -0.206389 0.099126 -0.137589 0.080428 0.174696 0.047359 -0.128527 -0.123086 0.065719 0.023819 -0.096054 0.169402 -0.284383 -0.258052 0.064674 0.188289 0.087493 0.088649 -0.029845 0.072291 0.066131 -0.156246 -0.099811 0.063146 -0.001888 0.108932 -0.244742 -0.131653 0.072029 0.027953 0.033619 -0.012493 0.109259 0.180584 -0.129194 0.052929 0.096572 0.073517 -0.153270 -0.093282 0.058072 -0.189865 0.034479 -0.030600 -0.107542 0.004808 -0.020798 -0.049913 -0.000466 0.015325 0.118768 -0.026537 -0.188123 0.051637 -0.006522 -0.140312 0.174950 0.303306 0.039699 0.232614 0.013332 0.058517 -0.051632 0.110172 -0.035574 0.138704 -0.257942 -0.203808 -0.027171 0.016734 0.058127 0.082332 -0.096632 -0.039444 0.133857 -0.131837 -0.076540 -0.259634 0.148514 0.214426 0.132773 0.187756 0.324624 -0.115178 -0.090038 -0.161321 -0.104725 -0.219445 0.062313 -0.011601 -0.194979 0.027435 -0.111623 -0.111443 0.089957 -0.066982 0.096091 -0.034141 0.050781 0.005521 -0.096183 -0.115714 -0.074660 -0.079310 -0.054552 -0.124110 0.265500 0.006648 0.086732 0.053528 -0.114281 0.041923 0.036616 -0.031084 -0.000868 0.024732 -0.101509 -0.107100 -0.006847 -0.027371 -0.019563
645 -0.139631 -0.024135 -0.158433 -0.143320 -0.081918 -0.048670 -0.102943 0.072943 0.080754 -0.160113 0.102544 0.211710 0.047964 -0.072453 -0.040539 -0.017315 0.046633 0.000896 -0.108654 0.042747 -0.051049 -0.008914 0.160294 0.004122 0.110518 0.003621 0.041203 0.037314 -0.206047 0.103236 -0.123296 0.065540 -0.092356 0.173021 -0.168510 0.120594 0.025737 -0.008673 0.092581 0.074012 -0.115740 -0.126641 0.017153 0.204113 -0.045675 -0.210211 0.084242 -0.169735 0.255451 -0.193823 0.054717 0.102663 -0.267148 0.120382 0.063244 -0.025835 -0.011191 0.026187 -0.116387 0.085287 0.022711 0.004785 -0.069561 0.004680 0.186938 0.113233 -0.005421 0.073785 -0.186358 -0.002734 -0.045510 0.064684 -0.135595 -0.117831 0.152961 0.101553 -0.137801 0.044107 -0.017817 -0.027125 -0.071348 -0.107394 0.080561 -0.227388 0.104284 0.136784 0.289584 0.020445 -0.014574 -0.168371 -0.095138 0.034615 0.159987 -0.065799 -0.224276 0.019233 -0.214667 -0.191404 0.005114 0.121471 0.110460 -0.090651 0.094010 -0.019043 0.016457 0.160394 -0.146765 0.040053 0.031164 -0.008298 -0.123313 -0.057002 -0.039292 -0.059816 -0.164583 0.107667 0.084953 0.022069 0.091634 -0.111951 0.149045 0.098197 0.004283 -0.130674 0.113884 -0.033320 0.047019 0.116092
672 -0.031889 0.040628 -0.327998 -0.012173 0.020124 0.210250 -0.246042 0.008850 0.057852 -0.034453 -0.058993 -0.082215 -0.285449 0.093043 0.113466 -0.125203 -0.172222 0.045949 0.150844 -0.081897 -0.016329 -0.112923 0.066187 -0.039182 0.117434 0.031535 0.195441 -0.163496 -0.023016 -0.266475 -0.009842 0.013543 -0.158381 0.131905 -0.030098 -0.162908 -0.110891 -0.021537 0.099958 0.026408 0.075495 0.203376 -0.029074 -0.076631 -0.153503 -0.155723 0.063381 -0.042760 0.025472 0.103336 0.233205 0.196375 -0.161910 -0.183352 -0.008982 0.185234 0.085742 0.076812 0.018223 -0.259903 0.385329 -0.069280 -0.176090 -0.019056 0.074141 -0.065352 0.065232 0.045819 -0.151863 0.148720 -0.073461 -0.009149 0.255416 0.090694 -0.144277 -0.136327 0.152529 0.042829 0.107289 0.018759 -0.051647 -0.065015 -0.087429 -0.214605 -0.017286 -0.215209 0.244114 -0.068127 -0.054615 -0.007856 -0.074031 -0.013418 -0.250685 -0.003916 -0.117832 0.038629 -0.162604 -0.079803 -0.047228 0.029469 -0.101936 0.270816 -0.243135 0.147149 -0.102870 0.201386 -0.038706 0.025545 0.098354 0.152730 0.027063 -0.134384 0.069925 0.004718 -0.181494 0.003988 0.086555 0.034302 0.059225 0.147947 0.075079 -0.045529 -0.121279 -0.152882 -0.077106 -0.190209 0.092674 -0.062344
61 -0.120322 0.043854 -0.140133 0.201690 -0.015218 0.109663 0.046296 0.057253 0.211686 0.213170 0.130656 0.206803 0.178481 -0.215927 -0.073475 -0.114264 0.072695 0.220542 0.008263 -0.070553 -0.072170 -0.079147 0.229474 -0.128406 -0.042650 -0.359038 0.038062 -0.034335 0.031636 -0.205928 -0.138751 -0.094837 -0.005247 0.102171 -0.004902 -0.054271 -0.006729 -0.010487 0.070467 -0.177801 0.073798 0.002186 0.123638 0.180739 -0.192045 0.013000 0.040234 0.100103 0.206754 -0.160641 -0.057364 0.223234 -0.070369 -0.021375 0.023644 -0.219365 0.089425 -0.043054 0.251988 0.002519 0.019343 0.100467 0.195741 -0.083602 0.203297 -0.181711 0.112854 0.074479 -0.077689 -0.260405 0.133084 -0.096224 0.209239 -0.310883 0.056008 -0.033420 0.090010 0.097415 0.148357 0.128402 -0.103885 -0.013127 -0.095246 0.006221 -0.069369 -0.031527 0.209603 -0.078513 -0.007792 0.149844 -0.205395 0.111681 -0.107133 -0.069538 -0.097703 -0.005901 -0.044022 -0.175211 -0.135792 0.095303 0.025008 0.025012 -0.000995 0.108554 -0.123658 0.031979 -0.111519 -0.049664 -0.123927 0.081425 0.004430 -0.002485 -0.125317 0.129791 -0.043673 0.120806 -0.086318 0.014231 -0.012775 0.021456 0.056260 -0.045049 -0.037158 -0.168074 -0.038537 0.029382 0.083688 0.163691
484 -0.112811 -0.064284 -0.082326 0.050802 -0.042661 0.163704 -0.004249 0.182447 -0.082620 0.233483 0.151709 0.026678 -0.125134 0.155031 -0.070392 -0.026094 0.003465 0.027657 -0.133454 -0.079678 -0.179267 -0.012711 0.053655 0.080929 0.021574 0.007443 0.108230 0.258486 -0.113960 -0.075038 0.025586 -0.168822 -0.070829 -0.082930 -0.275629 -0.041536 0.127793 0.029527 -0.015691 0.026394 0.152993 -0.209598 -0.040397 0.094482 -0.096274 0.047214 0.088421 -0.068928 0.056004 -0.122236 -0.111564 0.035737 0.119222 -0.019052 0.044407 0.083249 -0.108635 0.065465 0.035351 0.002693 -0.168100 0.162836 -0.116398 -0.001982 0.102181 -0.086063 -0.018874 -0.207282 -0.257484 -0.128324 -0.131568 0.035036 0.069618 -0.016452 0.134302 0.205731 -0.053766 0.074881 -0.000640 -0.198770 -0.018077 -0.082421 -0.122901 -0.036874 -0.107718 0.209618 -0.032181 -0.024009 -0.009652 -0.012581 -0.193405 -0.077069 -0.026261 -0.067486 -0.262124 -0.047124 -0.154815 -0.034677 -0.058715 0.068393 0.096953 0.040421 0.014584 0.064987 -0.094537 0.156145 -0.199783 -0.130438 -0.006205 0.001040 -0.112404 0.272917 0.231797 0.176854 -0.293161 0.057685 0.096285 -0.058245 0.241542 0.063389 0.155377 0.128980 0.132136 -0.182925 0.030235 0.010649 0.149295 0.016056
480 -0.132870 -0.066108 -0.163009 -0.059778 -0.051500 0.095572 0.033435 -0.041183 -0.031573 -0.255656 -0.030270 0.128323 -0.130437 0.121899 -0.080953 0.095942 -0.221816 -0.135400 0.117453 -0.006399 -0.040761 0.001961 0.160227 -0.142704 0.149901 0.125183 -0.020822 0.023750 -0.094554 -0.160492 0.084786 0.205862 0.077814 -0.193538 -0.088066 -0.106212 -0.027876 0.030626 0.115144 -0.253382 0.039196 -0.299566 0.028578 0.107586 -0.083175 -0.012189 0.107506 0.096883 0.120330 -0.151396 0.087752 -0.058162 -0.019613 -0.136868 -0.024074 -0.114415 0.060433 -0.147119 -0.018745 0.019145 0.271959 -0.104165 -0.073105 0.130529 -0.103680 0.086901 -0.071618 0.105382 -0.048146 -0.073372 0.068876 0.054384 0.230359 -0.131745 0.161810 -0.008637 -0.006751 0.099931 0.008769 0.133897 -0.003564 0.078041 0.127811 0.168553 -0.079272 0.067008 0.020336 -0.176583 0.223553 -0.017786 -0.203051 -0.072681 0.024032 0.013026 -0.163077 0.159678 -0.192417 -0.006886 0.055114 -0.147232 -0.004373 0.140525 0.040908 -0.197798 0.114346 0.206940 -0.038369 -0.097659 -0.053186 -0.024950 0.133885 -0.126685 -0.118209 0.086127 -0.060445 0.180625 0.057740 -0.089788 0.038239 0.142581 0.067012 0.126679 -0.131025 -0.143495 0.157694 0.092907 0.032670 -0.012537
585 0.034467 -0.008714 -0.023013 -0.127388 -0.127932 0.055300 -0.012347 -0.167316 0.156656 -0.116632 0.036250 0.007186 0.058668 -0.016369 -0.111917 -0.190476 -0.101420 -0.081677 0.045436 0.084809 -0.139565 -0.041224 0.097560 -0.201332 0.209936 -0.036316 -0.106228 0.003743 -0.082338 -0.191487 0.029069 0.177408 0.053207 -0.020002 0.066536 -0.065735 -0.130964 0.098181 -0.033210 -0.034738 0.168074 -0.023638 0.121127 0.071455 -0.337715 -0.074288 0.221107 -0.018361 0.101531 0.028155 -0.030150 0.003522 -0.165965 -0.051302 -0.049320 -0.223924 0.257840 0.109871 -0.013324 0.100057 0.115963 0.030071 -0.122566 -0.012904 0.087819 -0.108654 0.102511 0.111717 -0.014822 -0.175448 0.035088 0.336641 -0.006443 -0.069150 -0.010972 -0.336268 0.114927 0.193633 -0.006251 -0.135315 0.086872 -0.036941 -0.048053 0.078522 -0.041688 -0.021315 -0.068780 0.154732 0.149858 0.080911 -0.052009 -0.098068 -0.069060 -0.184696 0.102704 0.106846 -0.111507 -0.168459 -0.034581 -0.189794 -0.215892 -0.110323 -0.015613 0.009464 0.029005 0.177223 -0.189466 -0.158912 0.161385 -0.053144 0.055412 -0.039744 -0.159610 0.103604 -0.176869 -0.035786 0.299278 -0.053695 0.167196 0.006548 0.251139 0.072226 -0.027165 -0.089372 0.156484 0.037447 0.130788 -0.140455
642 -0.090312 0.037719 -0.060448 -0.051029 -0.145793 -0.145923 0.069822 -0.308141 0.001276 -0.117623 0.003848 0.085092 0.062917 -0.107316 -0.072787 -0.034920 0.157826 -0.153319 0.304242 0.102589 -0.236456 0.063385 0.083601 -0.108524 0.197691 -0.081049 0.133215 0.058167 0.061065 -0.210557 0.030730 0.077796 -0.303923 -0.011525 -0.134425 -0.081188 -0.132476 0.059129 0.000998 -0.008776 -0.099018 -0.152409 -0.048120 0.014296 -0.085903 -0.085174 0.051858 -0.013355 0.025722 0.082381 -0.134988 -0.006484 -0.036103 -0.042380 -0.023018 -0.111152 0.070011 0.027800 0.051884 0.130306 -0.147862 -0.029945 -0.034230 0.041703 -0.044757 -0.366648 -0.032628 -0.037728 -0.209989 -0.024111 0.078170 0.010583 0.061707 -0.156697 -0.065153 -0.308454 0.160594 0.100609 -0.129908 0.049705 0.034730 0.119490 -0.023721 -0.211964 -0.141449 0.013404 0.044903 0.196088 0.043854 -0.163479 0.067346 -0.018572 0.211980 -0.063585 -0.060354 -0.133977 -0.068863 0.038368 -0.047723 -0.120190 0.007484 0.098820 -0.080509 0.076948 -0.051210 0.139942 -0.071276 -0.084514 0.089404 -0.132592 -0.030917 -0.017419 -0.008718 0.057344 -0.382803 -0.075599 0.027540 0.025139 0.033110 0.047321 0.075723 -0.052937 -0.096810 -0.158194 0.170539 -0.063844 0.167452 0.049962
41 -0.107078 0.145921 -0.176035 -0.237987 -0.056077 -0.184824 -0.033871 -0.062342 0.087083 0.033348 -0.247156 0.191171 -0.211183 -0.214452 -0.060980 -0.115137 0.041533 0.213500 0.037461 -0.351397 -0.113432 0.000552 -0.089769 -0.151190 0.099126 0.120803 0.128632 -0.002136 -0.154521 0.039740 -0.196335 0.105247 -0.045974 -0.114448 -0.343589 -0.009544 0.032086 -0.064367 0.081986 0.092807 0.065405 0.024467 0.035257 -0.079808 -0.177787 -0.221466 0.011966 0.239713 -0.019967 0.136512 0.037726 0.052035 -0.071945 0.072578 0.096128 0.017741 0.019631 -0.060081 -0.169575 0.042516 -0.021093 0.011153 -0.064733 0.077985 -0.060809 -0.023502 0.092913 0.117354 -0.155017 -0.092298 -0.147622 0.058673 0.021058 0.199097 0.218905 -0.030821 0.044959 0.181488 0.001722 0.151037 -0.175805 0.125837 -0.218333 -0.223209 0.028497 -0.220645 0.230566 0.048771 -0.050381 0.107477 0.040067 -0.000722 0.155708 -0.175165 -0.048295 0.174332 0.000250 -0.019296 -0.047885 0.150381 0.233330 -0.040929 0.000253 -0.108969 0.052178 0.258611 -0.144148 -0.000230 0.045656 0.000078 0.053323 0.214195 0.043091 0.030960 -0.357135 0.071936 0.049612 -0.126967 0.051270 -0.031898 0.052165 -0.033119 -0.118403 0.073598 0.077382 -0.033776 0.255637 -0.108039
474 0.077431 -0.189950 -0.182246 0.099641 0.070729 -0.089548 -0.057436 0.065250 0.067788 -0.089018 -0.010888 0.269610 0.110971 -0.173267 0.090174 -0.068690 -0.009219 -0.048144 -0.001770 0.053610 0.060954 0.154419 0.069685 0.013579 0.087684 0.110211 -0.059893 0.145677 -0.011656 0.008667 0.046277 -0.097408 -0.276817 0.027234 -0.038460 -0.028422 -0.183069 0.116471 0.039093 -0.092598 -0.000117 -0.078136 -0.055978 -0.134171 -0.164325 -0.082438 0.041022 -0.062731 -0.012630 0.018809 -0.078699 0.125133 0.127370 -0.169984 -0.017001 0.202410 0.064260 0.136903 -0.091020 -0.219315 -0.088022 0.011625 0.217431 0.152173 -0.085299 0.051905 0.100122 0.080241 0.037111 -0.145145 -0.109432 0.483452 0.073182 -0.109485 0.188959 0.076222 0.043519 -0.041467 -0.027594 0.248290 0.003230 0.002575 -0.144614 -0.154380 -0.001203 0.092206 0.005146 -0.074233 -0.038160 0.112324 -0.150703 0.177332 -0.089086 0.009474 -0.133050 0.108692 -0.217500 -0.045670 -0.232784 -0.045784 -0.051893 0.148917 0.008583 0.027883 0.106523 0.028386 -0.147279 -0.132646 -0.159676 0.060525 0.177599 0.092831 -0.107812 0.202925 -0.337137 0.097831 0.088703 -0.017522 -0.097368 -0.041398 0.009607 0.000332 0.117473 -0.271584 0.309318 -0.142691 0.105797 0.146021
182 0.010381 -0.094629 -0.159029 -0.014217 -0.033958 0.120522 0.074982 0.033381 0.019227 -0.089011 0.056072 0.091264 0.302645 0.073697 -0.008624 -0.021919 0.050848 -0.285075 0.007190 0.047680 -0.031238 -0.050317 0.097365 -0.087994 0.009198 0.123276 0.071703 -0.071544 -0.024857 -0.077843 -0.067859 -0.164386 0.021178 -0.231523 -0.159849 0.057543 0.078985 0.003857 0.005995 -0.040801 0.087353 -0.179879 0.046248 -0.132410 0.012524 -0.049414 0.013589 0.141330 -0.021223 -0.028069 -0.183446 0.239865 -0.161095 0.012466 0.048135 -0.008760 0.193586 0.111546 -0.038603 -0.136159 0.027272 -0.154837 -0.076557 -0.057324 0.032360 -0.108073 0.258422 0.119140 -0.193962 -0.095862 -0.160896 -0.076135 -0.039164 -0.259580 -0.100899 0.006982 -0.034487 0.079693 0.074489 0.192606 0.076114 -0.058413 -0.040574 -0.319079 -0.271668 0.022166 0.106699 0.089477 -0.062127 0.085812 -0.057478 0.115301 0.007309 -0.160905 0.012716 -0.048112 -0.307968 -0.073904 0.083116 0.020216 0.128511 -0.041562 0.077416 0.027306 -0.013357 0.070710 0.016911 -0.105388 -0.141998 -0.045915 0.033803 -0.017348 -0.180025 0.107680 -0.104629 0.051803 0.237596 0.091294 0.025640 0.020797 -0.020915 -0.102630 -0.085137 -0.112871 0.071988 0.069343 0.168252 -0.109648
643 0.021941 0.119747 -0.041968 -0.002340 -0.090341 0.002650 -0.001128 -0.075322 0.065709 -0.072150 0.044142 0.110423 0.054474 0.072124 -0.079272 -0.015608 -0.121830 -0.145341 -0.148566 -0.020969 -0.171264 0.080398 0.185936 -0.175121 -0.080547 0.031187 0.035376 -0.022911 -0.150606 0.202149 -0.118640 0.107754 -0.180942 0.116147 -0.005961 0.164065 0.146025 -0.082049 0.124414 -0.274680 0.140401 -0.147379 -0.049161 -0.080947 0.060429 0.076060 0.143982 -0.129153 0.159194 -0.143209 0.022980 0.025499 -0.106299 0.009198 -0.055623 -0.101593 -0.012642 -0.072243 0.054385 -0.086267 0.174524 -0.093227 -0.377934 0.156296 0.157817 -0.032388 0.270075 0.092096 -0.099399 -0.002724 -0.058932 0.038479 0.164886 0.114816 0.056943 -0.072919 0.021200 0.139819 0.151242 -0.199159 -0.160606 -0.013779 0.055287 -0.060970 -0.119962 0.019930 -0.015856 0.129888 -0.011307 -0.240738 -0.096819 -0.144109 -0.028461 -0.129202 -0.128792 0.134770 -0.074372 0.134458 0.003988 -0.205979 0.034122 -0.215143 -0.041232 0.069479 -0.053484 0.060557 -0.215489 -0.157833 -0.043649 0.141888 -0.058988 0.050916 0.039031 0.136182 -0.093865 -0.024577 0.329061 -0.001287 0.077856 -0.057296 0.214734 -0.010723 -0.004456 -0.048451 0.044545 -0.036123 0.028331 0.080071
436 -0.096127 -0.067030 -0.003768 -0.018776 -0.089604 -0.032122 0.101005 0.165789 0.087712 0.168897 -0.057542 0.249584 -0.060624 -0.052615 0.054719 0.012057 -0.093295 -0.059641 -0.095129 0.011721 0.049479 0.154353 0.173463 0.028572 0.013987 0.054022 0.098304 -0.160791 -0.085405 0.049615 -0.069890 -0.024424 -0.053604 -0.196072 0.090166 -0.052951 -0.059807 0.022209 0.166135 0.273149 0.011552 -0.245809 0.015134 -0.121747 -0.114350 -0.007703 0.145257 -0.020162 0.042730 -0.114355 -0.037609 -0.051186 -0.017309 -0.302014 0.142919 -0.149847 -0.035920 0.096747 0.114773 -0.309530 -0.102742 0.025258 0.026240 0.226585 0.130531 0.094688 0.147810 -0.095117 0.095059 -0.076569 -0.072966 0.069689 0.205351 -0.109245 0.134165 -0.279212 -0.059656 -0.154974 -0.134748 0.109655 -0.269905 0.098567 -0.036234 -0.151307 -0.285867 -0.139235 0.094600 -0.102402 0.196551 -0.048400 -0.136800 -0.104647 0.045898 -0.088574 -0.105466 0.034854 -0.032754 -0.154912 0.065188 -0.018409 -0.054349 -0.095992 -0.155650 -0.060376 -0.051766 0.123957 0.014628 -0.007018 0.143362 0.169853 0.097126 -0.221113 0.033481 0.087295 -0.101227 0.214115 -0.050510 -0.119545 -0.040327 -0.037631 0.159065 0.014716 -0.049512 -0.316460 -0.018240 0.066107 -0.085090 -0.099368
120 0.034873 0.079274 -0.120389 -0.066893 -0.144565 0.224254 0.014060 0.029537 0.255351 -0.050564 -0.161203 -0.013419 -0.075742 0.099446 -0.131428 -0.127976 -0.027761 -0.175430 0.064347 0.109970 -0.232630 0.001480 -0.067792 0.145222 0.188941 0.008361 0.158420 0.022960 -0.014579 0.129702 -0.059809 0.008411 -0.225168 -0.156691 -0.237893 -0.025215 0.002581 -0.043372 0.131491 -0.070731 -0.087423 0.025834 0.038174 -0.025162 0.051049 0.132617 -0.016550 0.000068 0.067566 -0.098077 -0.170699 0.062129 -0.240413 -0.019559 0.009153 0.031251 0.028773 -0.048431 0.021320 -0.170947 -0.143798 -0.110210 0.096810 0.098033 -0.056665 -0.066178 0.132190 -0.114668 -0.044640 -0.050263 -0.100873 0.203802 0.030794 -0.174025 -0.003749 0.012937 0.231407 0.124324 0.044658 -0.015792 0.096272 0.020924 0.036911 -0.183544 -0.159942 -0.101467 0.182501 -0.053587 0.194493 0.124585 -0.097594 -0.022730 0.007537 -0.039511 -0.009032 -0.036937 -0.117036 -0.092474 0.012576 -0.107278 0.061443 0.070960 -0.102195 -0.222628 0.159885 0.121363 -0.167230 0.007759 -0.043756 0.095176 0.041524 0.177127 -0.032560 0.228213 -0.079732 0.065149 -0.068045 -0.038786 0.147932 0.075256 0.106105 -0.027153 -0.039890 0.094139 -0.026995 0.021095 0.221798 -0.162986
644 -0.129259 0.036299 0.151211 0.084954 -0.204241 -0.017525 -0.107728 -0.126769 0.019435 -0.047730 -0.067870 0.191846 0.068897 -0.152878 -0.245714 0.095837 -0.117155 -0.110349 0.139933 0.044962 -0.026973 -0.221375 -0.061168 0.227292 0.044561 0.059473 -0.071359 -0.047759 -0.065684 0.011979 0.023415 0.058800 -0.045826 0.010952 -0.040233 0.110555 0.203158 -0.021583 0.054344 -0.129013 0.112278 -0.059730 0.137701 0.124893 -0.103112 -0.244958 -0.025894 0.047456 -0.029403 -0.046671 -0.089580 0.200129 -0.072355 -0.210752 -0.109219 -0.010644 0.103338 0.065644 -0.033580 0.017007 0.026189 -0.027845 0.060667 0.200386 -0.074202 0.235021 0.072779 0.002645 -0.046909 -0.182587 -0.052029 0.082084 0.103556 -0.163862 0.077631 -0.250609 0.043436 0.147790 -0.060623 -0.160214 -0.013579 0.150158 -0.052995 0.087146 -0.244293 0.070582 0.250178 -0.008621 0.178807 -0.061664 0.024948 0.038885 -0.063920 0.019777 -0.092273 -0.173683 -0.140932 0.087416 -0.079786 -0.098267 0.029105 -0.007858 -0.125202 -0.204889 0.142580 -0.011817 -0.040434 -0.202744 -0.043788 0.007630 0.079270 -0.022109 0.016486 -0.043649 -0.302830 0.031553 0.009394 -0.140444 -0.126664 -0.030301 0.036094 -0.136567 -0.027421 -0.202515 0.085930 0.150128 0.007763 -0.065192
418 -0.131890 0.038692 0.062995 0.062812 -0.053252 0.057551 0.053076 0.103629 0.026487 0.035629 0.029759 0.372443 -0.088327 -0.148944 -0.062008 -0.083841 0.050900 -0.098097 0.090795 -0.106681 -0.078384 0.034472 0.163868 -0.355617 0.244817 0.011123 -0.025692 0.195732 -0.060585 -0.147992 0.079200 0.023573 -0.144715 0.034961 0.040132 -0.121910 0.017764 0.021218 0.137479 -0.181664 -0.033461 0.084354 0.091091 -0.019515 -0.128138 -0.245487 -0.116358 0.028315 0.035250 -0.109054 -0.059994 -0.060826 -0.051885 0.153021 -0.028805 0.130497 0.029511 0.124748 0.058974 0.020537 0.296211 0.119383 -0.047679 0.130247 0.270543 -0.130743 0.208570 -0.003353 0.096986 0.004172 -0.033904 0.082429 0.116918 -0.005071 -0.217852 -0.020983 -0.026914 0.069541 0.145655 0.062435 -0.126603 -0.027706 -0.109885 -0.275095 -0.190983 -0.030544 0.154204 -0.072854 -0.174994 0.129024 0.065881 -0.053855 -0.050060 -0.192359 0.111451 0.104614 -0.144071 -0.158732 -0.011464 0.038733 0.031673 0.099904 -0.043242 0.013060 0.120032 0.102488 -0.193029 0.035552 0.012531 0.158288 0.045166 0.180618 0.004926 0.195617 -0.069989 0.067823 0.096353 0.043862 -0.006985 -0.065997 -0.100780 -0.146239 0.105744 -0.123572 0.191046 -0.067038 0.182160 0.152519
98 0.104903 0.036687 -0.028054 0.038776 -0.203912 -0.020705 -0.104211 -0.094505 0.103003 -0.020082 -0.047941 0.043636 -0.204805 -0.059068 -0.106456 0.075642 0.057009 0.152136 0.058147 0.135068 -0.205293 -0.302116 0.004000 0.252325 0.036344 0.237859 0.129940 -0.146761 0.084530 0.006382 0.081213 -0.041939 0.056021 0.085522 -0.085225 -0.082019 0.169657 -0.031417 0.168104 0.163681 0.079489 -0.059948 0.149981 0.225389 0.016073 -0.119183 0.121684 0.000131 0.100658 -0.168900 0.124033 0.171234 0.103783 0.076026 -0.091256 -0.093689 -0.013211 0.122945 -0.020900 0.089415 -0.019822 -0.038266 0.191443 0.175843 0.199288 0.028605 -0.022404 0.001918 -0.090086 -0.075680 -0.190296 -0.236066 0.148332 -0.077447 -0.043928 -0.197295 0.152543 -0.032565 0.082781 0.170145 -0.121875 -0.059543 -0.006058 -0.250662 -0.266858 -0.125546 -0.055887 -0.127548 0.056080 0.114113 0.016491 0.058979 -0.110893 -0.099147 0.044392 0.009083 0.098372 -0.213877 0.248769 0.014721 -0.283249 0.216795 -0.151235 -0.048884 -0.031322 0.019831 -0.143432 0.071587 -0.033103 -0.093474 -0.079894 0.056143 -0.130825 -0.149758 -0.173308 0.346856 0.249007 0.146116 0.127657 -0.008695 0.204888 -0.150969 -0.091187 -0.299474 -0.189213 -0.006420 0.023963 -0.078574
376 0.132939 -0.053585 -0.208193 -0.173668 -0.107203 -0.026644 -0.068875 0.099779 -0.000116 -0.051032 -0.065017 0.238001 -0.033885 0.105169 0.015094 -0.184386 -0.282920 0.035691 -0.252955 -0.090399 -0.095862 -0.046570 0.179597 0.100212 0.229719 0.178231 -0.101940 -0.106564 0.029036 -0.087352 0.170142 0.000449 -0.058939 -0.025783 -0.089989 -0.005460 0.168183 0.049721 0.118373 0.029398 0.000680 0.027672 -0.190909 -0.024816 -0.101391 -0.082413 0.072284 0.037463 0.033124 -0.127768 -0.120238 -0.119183 0.041999 -0.050594 0.158365 -0.045238 -0.029336 -0.038858 0.186316 -0.063885 -0.047476 0.112961 -0.039682 0.127114 -0.086308 0.105954 0.115773 -0.012285 -0.002745 0.028499 -0.037044 0.015679 0.181045 -0.084563 0.001653 -0.186196 0.195684 0.081395 -0.054789 0.053511 -0.178774 0.060342 0.014853 0.022974 0.009468 -0.058120 0.068571 -0.138187 0.205275 0.053554 -0.378920 -0.050056 0.087757 -0.078389 -0.110576 -0.016726 -0.179347 0.065268 0.134441 -0.070529 0.017189 0.140899 -0.147985 0.029114 0.220668 0.337210 0.056943 -0.020963 -0.096799 0.093318 -0.067434 0.144815 -0.049755 0.218583 -0.035321 0.108277 -0.117772 -0.046531 -0.127438 -0.026701 0.161385 0.083099 0.177782 -0.059750 0.002555 -0.104134 -0.052381 0.146086
516 -0.103788 -0.224992 -0.027440 0.192075 -0.071308 0.010226 -0.057821 -0.007925 0.315977 0.059832 0.054792 -0.004548 -0.021231 -0.060622 -0.198695 -0.204229 -0.121145 -0.167048 0.076395 -0.059644 -0.124209 0.074150 0.024722 0.148752 0.022044 0.055145 0.141681 0.264429 -0.046846 0.024778 -0.137219 0.088211 -0.026096 -0.040471 -0.125847 0.204575 0.202571 -0.028694 0.197553 -0.119637 -0.007404 -0.076446 -0.055393 -0.035176 -0.210636 0.039958 0.175239 0.202185 0.085350 -0.119715 -0.106212 0.058583 -0.044882 -0.068891 0.096010 -0.078910 -0.097245 0.035949 0.037974 0.054272 -0.023439 -0.008756 -0.046891 0.034317 0.089574 -0.037286 0.132856 -0.145731 -0.059943 -0.055935 -0.070884 0.162419 0.140956 -0.040421 -0.003225 -0.217731 0.089497 -0.020069 0.197374 -0.167664 0.271330 -0.075577 0.111716 -0.126628 -0.083254 0.062564 0.127118 -0.011682 -0.153260 -0.107665 -0.049168 -0.137018 0.002864 -0.099367 -0.341182 0.115577 -0.049352 -0.067187 0.150239 0.010385 -0.012980 -0.027268 -0.035972 0.016409 0.195290 0.221250 -0.036988 -0.161824 0.110805 -0.010200 0.131238 -0.137973 -0.004359 -0.009560 -0.109400 -0.125681 -0.041861 -0.179518 -0.018890 0.063025 -0.027902 0.057342 0.015728 -0.031167 -0.078565 0.031057 0.069762 0.270460
127 -0.109216 0.128932 -0.120579 0.176678 -0.175704 -0.029873 -0.179909 -0.062806 -0.038199 -0.201396 0.142668 -0.010835 -0.047861 -0.044247 -0.182771 -0.253480 -0.189436 -0.179968 0.034950 -0.131432 -0.177547 0.206581 0.063053 -0.007933 0.152606 -0.018002 -0.038843 0.038905 0.174439 -0.063682 0.048977 -0.058422 -0.190244 -0.190473 -0.254243 0.028936 -0.029132 -0.039004 -0.019186 -0.007014 -0.005332 -0.228595 -0.030055 0.212117 -0.065047 -0.142793 0.001115 -0.150460 0.070993 -0.069808 -0.091622 0.049765 -0.088001 0.190182 0.125093 0.026826 -0.170519 -0.069462 -0.009014 -0.161302 -0.171485 -0.085888 0.046073 0.010490 0.069522 0.046039 0.231515 -0.038010 -0.277018 0.074242 -0.243450 -0.002488 0.257500 -0.283919 0.113031 0.225373 -0.218997 0.053691 0.211317 -0.059787 0.176094 0.059949 -0.196776 -0.158922 -0.075094 -0.089924 -0.019197 -0.036050 -0.036459 0.054353 -0.017645 -0.001409 -0.123215 0.000788 -0.133935 -0.204356 -0.253424 0.127098 -0.040470 0.102524 -0.061111 0.136757 0.015575 0.025569 -0.088424 0.040742 -0.068863 0.239779 -0.013168 0.142747 -0.101685 -0.101180 0.137032 0.228055 -0.209935 0.066244 0.108436 -0.202521 -0.224088 0.064742 0.117152 0.009724 -0.027137 -0.283262 0.008272 0.072915 -0.000584 -0.231825
343 0.033094 0.061581 -0.268895 -0.021829 -0.126615 0.049554 -0.050717 0.072089 -0.046111 -0.131359 0.077616 0.194611 -0.075810 0.206434 -0.044525 0.055569 -0.030717 -0.173407 0.032530 0.185496 -0.018706 0.361112 -0.074952 -0.015159 0.096795 -0.030236 -0.019268 0.250997 0.052985 -0.154766 0.113066 0.123286 -0.185623 0.142458 -0.138693 0.083474 0.109975 -0.133024 -0.135906 -0.035598 0.113060 -0.273439 0.012370 0.016337 -0.051670 -0.091457 -0.043893 -0.145293 0.219917 -0.052552 -0.066491 -0.077917 0.010690 -0.044135 -0.046031 0.010131 0.141961 0.068846 0.125455 -0.058309 0.165388 -0.072845 -0.075751 0.120645 0.036229 0.048560 0.103881 0.056372 -0.042327 -0.040137 -0.183146 -0.073079 0.076925 -0.100108 0.101239 -0.031847 -0.098898 0.368900 -0.020478 0.063116 -0.179971 -0.106653 -0.058187 -0.102858 -0.019632 -0.123639 -0.022308 -0.112167 -0.015284 0.102940 -0.081309 0.009362 -0.160558 -0.091460 -0.042545 0.096854 0.137168 -0.083531 -0.108612 -0.045126 -0.061777 0.020850 -0.289289 -0.001967 0.181381 0.362447 0.000229 -0.050729 -0.122128 -0.068555 0.033286 0.061394 -0.121315 0.015968 -0.181120 0.112366 0.116930 0.040951 0.196738 0.113328 0.057699 -0.153577 0.280686 -0.115817 0.005108 0.001166 0.026757 -0.100160
105 0.000115 -0.110927 -0.040493 -0.044669 0.055190 -0.132314 -0.121103 -0.172021 -0.135307 -0.157805 0.089538 0.276999 -0.035911 -0.034052 -0.069247 -0.030994 -0.046860 -0.154057 -0.132532 0.039895 -0.251890 0.144696 -0.046305 0.211746 -0.051326 0.147661 -0.092554 -0.072577 -0.194652 0.077179 -0.023230 0.106436 -0.124724 -0.134782 -0.104811 -0.000874 0.130948 0.142902 -0.014209 -0.086397 0.259664 0.289122 -0.128189 -0.165577 -0.188432 -0.164491 0.009394 0.027311 0.045472 -0.030189 -0.055398 0.130640 0.016401 -0.057923 0.000948 -0.009963 0.042432 -0.033555 -0.211009 -0.042687 0.033328 0.089777 0.011623 0.077889 -0.071874 0.012326 0.019178 0.081774 -0.088538 -0.253031 0.063794 0.098598 0.010361 -0.005954 0.139333 -0.081648 -0.017334 0.178433 -0.029330 0.062350 0.071289 0.111696 0.183547 -0.065077 -0.143300 -0.043167 0.002004 0.073540 0.035726 0.010020 -0.043748 0.054003 -0.058957 -0.112386 -0.273388 -0.100414 -0.256665 -0.267771 0.202447 -0.143232 -0.005403 0.192621 0.110207 -0.017205 0.277621 0.014927 -0.151669 0.104010 0.162656 0.052392 0.072185 0.194511 0.088035 -0.040190 -0.163147 -0.004070 -0.142996 -0.067158 0.110322 0.105575 0.393159 -0.159418 0.114992 -0.121989 -0.081793 -0.190318 0.207905 0.048682
131 0.013138 0.043042 -0.077965 -0.109100 -0.035177 0.025681 -0.043498 -0.093038 -0.003292 -0.002305 -0.054718 0.204225 -0.050545 -0.041136 -0.154358 0.040952 -0.123222 -0.020203 -0.014063 -0.000122 -0.333374 0.043367 0.027606 0.031244 -0.061682 0.126425 0.186789 0.247780 -0.093112 0.017956 0.047831 0.225337 -0.281802 -0.034760 -0.047018 0.170246 0.018261 0.031198 0.131222 -0.190415 0.210474 -0.176037 -0.152588 0.053569 -0.166718 0.110179 0.155986 -0.044514 0.146772 -0.117521 -0.133171 -0.024718 0.070494 0.123538 -0.076615 0.058787 0.140328 -0.130629 0.152036 -0.009413 -0.239790 -0.025116 -0.060803 -0.175930 0.285789 -0.020701 0.132033 0.048735 -0.156659 0.016558 -0.122752 0.061950 0.192637 -0.060075 -0.037473 0.074474 0.010773 0.122164 0.069235 -0.058709 0.024019 -0.018594 0.013672 0.115908 -0.152974 -0.038196 0.090054 -0.335233 -0.036298 -0.313286 -0.169860 -0.161482 0.065499 -0.040561 -0.058417 -0.139769 -0.113808 -0.080809 -0.105981 0.094953 0.238339 -0.026918 0.051297 0.063211 0.052971 0.008661 -0.031885 -0.003874 -0.043584 0.011559 -0.073207 0.139162 0.099569 0.027715 -0.277855 0.198078 -0.175314 -0.320136 -0.064859 -0.050663 0.134845 0.020957 0.172315 -0.116263 0.001474 0.107151 0.076050 -0.208175
62 -0.067048 -0.032824 -0.148580 0.163212 0.110349 0.039503 0.133557 -0.091690 -0.018979 -0.037896 -0.021669 0.114231 0.006369 -0.040856 -0.084857 -0.028212 0.059237 0.052648 0.000231 0.065766 -0.106933 -0.115091 0.035011 -0.082013 0.209319 -0.028897 0.073702 -0.258816 -0.039649 0.081886 -0.022732 0.052614 -0.255388 0.076461 -0.130381 -0.023209 0.186261 -0.084674 -0.086772 -0.138072 0.079962 0.028522 -0.083748 -0.001969 0.011023 0.090823 -0.049630 0.205992 0.097248 0.006458 -0.244866 0.151910 -0.123557 -0.159400 -0.184603 -0.163742 0.285314 0.184969 0.124350 -0.144787 0.095717 -0.067305 0.004227 0.185713 -0.048161 0.227115 0.233507 0.145915 -0.029276 -0.180428 -0.050446 0.223554 0.189532 0.014820 -0.239568 -0.209990 0.106236 -0.009129 -0.018236 0.216624 -0.037182 -0.063453 -0.166030 -0.209185 -0.163428 -0.246382 0.118488 0.066833 -0.084074 -0.012979 0.145103 -0.159084 0.212518 -0.169694 0.176559 0.058113 -0.075180 -0.266576 -0.009668 0.037864 0.003937 -0.159392 -0.094945 0.139622 0.066015 0.260603 -0.334937 -0.040649 -0.037603 0.045867 -0.127029 -0.161289 0.054397 0.025561 -0.166574 0.109979 -0.195211 0.008659 0.122492 0.017318 0.146821 -0.092959 0.098810 -0.082710 0.136562 0.146515 -0.028474 0.036172
613 -0.089874 0.072078 -0.294950 -0.148974 0.071666 -0.007798 -0.005550 -0.165399 0.027629 -0.201828 -0.027958 0.306184 0.018960 0.114821 0.007059 0.058519 -0.031080 -0.072199 -0.118224 -0.005023 -0.339121 0.075742 0.034132 0.141588 0.258430 0.151395 0.182253 -0.078440 -0.047987 -0.037854 0.058716 -0.090050 -0.099786 -0.054620 -0.075402 0.041735 0.247508 -0.020889 0.086615 -0.041678 0.027087 -0.023593 -0.061790 -0.082618 -0.103261 -0.234086 -0.063044 -0.237162 -0.001692 -0.042681 -0.020500 0.066842 -0.148259 0.219005 0.035529 -0.067043 0.148812 -0.139586 -0.087879 -0.096214 0.184991 -0.010151 0.022075 0.018443 0.181416 -0.245298 0.055225 0.024969 -0.161797 0.067579 0.042344 0.074162 0.198347 0.050958 -0.009630 -0.102945 0.167784 0.448635 -0.040700 0.098010 0.042288 0.193180 0.027760 -0.023830 -0.147885 0.106036 0.116837 0.157992 0.037925 0.127365 -0.153859 0.023795 0.155199 0.114440 -0.092684 -0.016606 0.179050 -0.099317 -0.067012 0.062195 -0.170667 -0.038865 -0.275834 0.007120 -0.102188 -0.011443 -0.163295 -0.049651 -0.075067 -0.006636 0.023516 0.092292 0.274857 0.046427 -0.054788 0.170541 -0.240162 0.034506 -0.103118 0.125163 0.235367 -0.222427 0.023141 -0.042055 -0.035183 -0.022193 -0.170568 -0.147303
512 0.002591 -0.039870 -0.125077 0.097860 -0.011580 0.009992 -0.095711 -0.081900 0.000921 -0.146156 0.260287 -0.008475 0.077176 0.098432 -0.108828 -0.077445 -0.073036 -0.041043 -0.013024 -0.048125 -0.093896 0.088085 0.014187 -0.142645 0.250688 -0.215730 -0.130453 -0.076745 0.038465 -0.219421 0.047223 -0.013993 -0.245652 0.119405 -0.083368 -0.044048 -0.225228 0.055145 0.169184 0.083093 0.144262 -0.064674 0.198300 0.147014 -0.020963 -0.190460 0.136127 -0.006598 0.080248 -0.011211 -0.035283 -0.128364 -0.040335 0.096825 0.074650 -0.005875 -0.029031 -0.112302 -0.050664 -0.000618 0.207359 0.103722 -0.114490 0.014063 0.205390 -0.000402 -0.035535 -0.004512 0.087089 -0.306034 0.141762 0.076452 0.115393 -0.028605 -0.095369 -0.148109 -0.047671 -0.060324 0.085522 -0.161146 -0.033742 0.089410 0.002140 -0.047625 -0.090034 0.145237 0.019863 -0.084243 0.083724 -0.022982 -0.004330 0.017109 0.023337 0.015637 -0.251620 -0.099248 -0.157363 -0.114146 0.107001 -0.028719 0.012861 0.021327 -0.031342 -0.090333 0.005053 -0.007886 -0.021251 -0.218716 0.063156 -0.112874 -0.024615 -0.076663 0.072423 0.165403 -0.325390 0.122303 0.061559 -0.036345 0.119121 -0.069379 0.023086 -0.175224 0.054775 -0.006756 -0.003510 0.051781 0.152063 0.157174
