732 128
636 0.186883 -0.132380 0.054714 0.092241 -0.043103 -0.116500 -0.331181 -0.188137 0.078488 0.300566 0.063273 -0.001690 0.338219 -0.086806 0.125077 -0.354684 -0.400353 0.641357 -0.206384 0.331728 0.080793 -0.031713 0.236088 -0.149520 0.139621 -0.032084 0.398027 0.295568 -0.308684 -0.140858 -0.446307 -0.347473 -0.110440 0.092101 0.072215 0.046738 0.358599 -0.355526 -0.378075 -0.171371 0.210072 -0.413368 0.025973 0.123079 -0.050903 0.164298 -0.011530 0.181167 -0.233477 -0.185768 -0.013344 0.265805 0.090840 0.238947 0.073412 -0.040033 0.053607 -0.008693 -0.036327 -0.117514 -0.109565 0.333404 -0.161745 0.299973 0.050868 -0.074823 0.223167 -0.421472 0.219400 -0.170118 0.421857 0.227739 -0.008970 0.184164 0.146911 0.214558 0.253743 -0.097927 -0.313296 -0.118608 0.130584 0.157280 0.193599 -0.026412 0.164430 -0.103308 0.391249 -0.037632 -0.192684 0.092150 -0.480537 -0.304614 -0.092112 0.162694 -0.195909 -0.153861 -0.310011 0.234108 -0.213746 -0.050376 0.009114 0.381968 0.219509 0.335131 0.159399 -0.043117 0.275209 0.251077 -0.272441 0.180147 0.006358 -0.016492 -0.084329 0.313790 0.060088 -0.083179 -0.112769 -0.137348 0.085883 -0.207276 0.282240 0.007093 -0.062474 -0.020731 -0.145050 -0.142576 -0.119188 0.091226
369 0.234011 0.017408 0.053677 0.280802 -0.036173 -0.062666 -0.422423 -0.014493 0.127535 0.101346 0.029429 -0.030223 0.398490 -0.100237 -0.041723 -0.234237 -0.358997 0.460333 -0.178169 0.225487 0.237738 -0.052772 0.356818 -0.157648 0.110518 0.093729 0.454336 0.309632 -0.241935 -0.242716 -0.376787 -0.369801 -0.116024 0.233203 0.009368 -0.078857 0.277810 -0.518252 -0.271647 -0.044869 0.128101 -0.243388 -0.029352 0.256655 -0.057509 0.033974 -0.018628 0.145925 -0.161200 -0.177170 0.008877 0.180605 -0.040077 0.044554 0.187712 0.086388 -0.100927 0.208285 -0.098341 -0.128157 -0.128407 0.397423 -0.069140 0.280216 0.139145 0.013122 0.274349 -0.307650 0.224935 -0.161279 0.381785 0.250615 0.190277 0.134270 0.160073 0.033587 0.360380 -0.179326 -0.091706 -0.219140 0.128988 0.025946 0.159788 -0.209011 0.303795 0.124718 0.302229 0.097228 -0.328926 0.105095 -0.440224 -0.292412 -0.146617 0.088885 -0.179501 -0.195704 -0.246759 0.291434 -0.245890 0.067290 0.018463 0.294016 0.315480 0.277293 0.250569 0.014836 0.298135 0.426921 -0.056422 0.076173 -0.067648 -0.247258 0.046794 0.557725 0.142354 0.021232 -0.054519 -0.053002 -0.001453 -0.295480 0.437901 0.018337 -0.160069 0.038903 -0.196239 0.134366 -0.138086 -0.190883
232 0.236291 -0.059844 0.155736 0.229501 -0.233101 -0.124324 -0.333811 -0.074975 0.153548 0.064070 -0.065944 -0.186014 0.493856 -0.203430 0.199551 -0.341458 -0.411918 0.439474 -0.264702 0.169673 0.172568 -0.105905 0.194041 -0.276148 0.224601 0.210298 0.354411 0.364563 -0.215991 -0.193721 -0.358286 -0.273007 -0.119689 0.208745 0.048963 -0.140485 0.245379 -0.388775 -0.302036 -0.145074 0.181611 -0.324946 0.090991 0.130302 -0.125046 0.072310 0.113429 0.250681 -0.170257 -0.242645 0.082287 0.271432 -0.010993 0.199927 0.112270 -0.049459 0.023725 0.124541 0.065951 -0.200457 -0.107364 0.258356 -0.241736 0.218271 -0.001468 -0.191537 0.227845 -0.270580 0.224455 -0.204868 0.396266 0.127002 0.048774 0.054207 0.311269 -0.038990 0.442619 -0.250650 -0.136794 -0.170172 0.188585 0.246139 0.203189 -0.090550 0.231849 -0.018671 0.430064 -0.000798 -0.450509 0.062024 -0.334124 -0.332903 -0.153949 0.276879 -0.252052 -0.162184 -0.348766 0.166917 -0.077935 0.004190 0.040560 0.364627 0.046469 0.232380 0.275914 0.019413 0.235322 0.392716 0.083740 0.155784 -0.163186 -0.002157 -0.306034 0.588829 0.205336 -0.025492 -0.006982 -0.234630 -0.076826 -0.296392 0.373738 -0.014310 -0.114025 -0.086764 -0.273592 0.020134 -0.027622 -0.040391
315 0.153181 -0.096922 -0.007008 0.231786 -0.265072 -0.192005 -0.303996 -0.106217 0.198515 0.048022 -0.094126 -0.026422 0.421914 -0.155373 -0.089055 -0.342946 -0.512029 0.493391 -0.208737 0.264374 0.149953 0.058751 0.262562 -0.230425 0.293937 0.153208 0.386004 0.269175 -0.199598 -0.293382 -0.199001 -0.217726 -0.105728 0.197928 0.148953 0.003231 0.129474 -0.357608 -0.227971 0.055460 0.139177 -0.298708 -0.135340 0.087169 0.099202 0.296800 -0.165952 0.107002 -0.203034 -0.348863 0.058722 0.331496 -0.008175 0.132479 0.228993 -0.001925 -0.041685 0.211847 0.039686 -0.020728 -0.127433 0.306120 -0.092913 0.203154 0.058887 -0.102393 0.338195 -0.344746 0.252909 -0.130545 0.319791 0.210495 0.080397 0.157168 0.259668 0.042809 0.591178 -0.104581 0.045242 -0.142311 0.080392 0.245066 0.233931 0.046236 0.286636 -0.103601 0.405061 0.132099 -0.302144 0.117566 -0.322906 -0.266588 -0.128651 0.062547 -0.185286 -0.124915 -0.341350 0.084801 -0.094861 -0.111791 0.081617 0.223774 0.379136 0.179125 0.089757 -0.146757 0.427577 0.375140 0.123655 0.152152 -0.043786 -0.096451 -0.275524 0.449426 0.208497 -0.037904 -0.111006 -0.359146 -0.071478 -0.284672 0.242519 0.070309 -0.138578 -0.150819 -0.091121 -0.023614 0.033278 -0.175273
441 0.062553 -0.106742 -0.061158 0.062058 -0.235351 -0.088936 -0.332673 -0.115780 0.103729 0.185295 0.097761 0.118256 0.485806 -0.165201 0.165326 -0.204577 -0.312692 0.500268 -0.197459 0.126624 -0.099409 -0.071214 0.288710 -0.078643 0.241719 0.010586 0.402108 0.311013 -0.238303 -0.262151 -0.332701 -0.169983 -0.134012 0.191316 0.228549 -0.108255 0.254723 -0.129741 -0.459903 -0.111425 0.047141 -0.389618 0.060278 0.066444 0.005885 0.239837 -0.026854 0.125470 -0.017866 -0.267791 0.180246 0.164425 -0.005646 0.115608 0.200099 0.049106 -0.125698 0.288164 0.048368 -0.107851 -0.081315 0.324758 -0.056354 0.274447 0.152424 -0.081441 0.233702 -0.478892 0.239942 -0.087101 0.158626 0.183955 0.016206 0.048240 0.133688 0.173920 0.290449 -0.101887 -0.153949 -0.124527 0.019718 0.266600 0.389589 -0.072404 0.208684 0.001448 0.240105 0.015947 -0.330986 0.249821 -0.334385 -0.216728 0.009753 0.000790 -0.210701 -0.254663 -0.283575 0.154108 -0.136249 0.098973 -0.076248 0.188944 0.257759 0.375840 0.040978 -0.076058 0.184035 0.264551 -0.094697 0.118353 -0.084077 -0.057606 -0.280392 0.487610 0.097536 -0.034585 0.021222 -0.195126 -0.086251 -0.262295 0.385864 0.107248 -0.059770 -0.076319 -0.198368 -0.072114 -0.044396 -0.344171
508 -0.405649 -0.080583 0.144479 0.108787 -0.271682 0.151067 -0.170982 -0.291269 0.208553 -0.270973 0.133012 -0.149558 0.045751 0.081913 -0.118379 0.317210 -0.154499 -0.314076 0.151760 0.162047 0.537483 -0.002045 0.259188 -0.167715 0.088587 0.112226 0.217772 0.117937 0.393478 0.008449 -0.059607 0.002613 -0.293787 0.187191 -0.002422 0.070153 0.052478 -0.046866 -0.110405 -0.007231 -0.049701 -0.110564 -0.199064 -0.381454 0.191755 0.205079 -0.400230 0.311489 -0.253768 -0.110411 -0.214583 -0.141797 0.095165 0.158489 -0.209460 -0.034710 0.252300 -0.029255 0.316671 -0.021345 -0.566307 -0.017419 0.054140 0.228027 0.398607 -0.080333 0.170277 -0.016119 0.029012 -0.206406 0.308079 0.148257 -0.008571 -0.268165 0.024872 0.266308 0.205292 0.451396 0.197634 -0.092764 0.358619 0.075589 -0.000421 0.298122 -0.037283 -0.089667 0.147509 -0.200893 -0.253013 -0.041897 0.085429 -0.172270 0.010725 -0.262760 0.012330 0.083026 -0.235685 -0.019416 0.150600 -0.039153 -0.125878 0.204840 0.156813 0.221236 0.034257 -0.192984 -0.062039 0.102584 0.045481 -0.186235 -0.098173 -0.116014 0.161075 -0.385394 -0.052738 -0.083748 0.222556 0.112660 0.139303 0.162066 -0.057204 -0.215285 0.436932 -0.141268 -0.448205 -0.003331 -0.257196 -0.278411
169 -0.189655 -0.017526 0.111777 0.157680 -0.052929 0.085192 -0.179184 -0.156608 0.214602 -0.041910 0.121262 -0.146808 0.002625 0.107629 -0.127442 0.481553 -0.160232 -0.109330 -0.159890 -0.028873 0.301283 -0.220740 0.075642 -0.199532 0.162147 0.055214 0.128986 0.127854 0.489629 0.108176 0.022540 0.133265 -0.214111 0.175378 -0.197926 -0.115128 -0.101013 -0.071932 -0.142367 -0.125394 0.174068 -0.121072 -0.096635 -0.460617 0.176363 0.283947 -0.303517 0.291324 -0.077801 0.027168 -0.062405 -0.199063 0.179184 0.268410 -0.035490 0.100768 0.394676 0.188191 0.329907 0.031503 -0.334593 -0.127312 -0.005275 0.327180 0.428716 -0.062958 0.124562 -0.001628 0.071284 -0.184272 0.324830 0.139196 -0.085343 -0.354944 -0.267729 0.298878 0.145920 0.229135 0.093016 -0.087460 0.182255 0.047980 0.035600 0.612523 -0.033848 -0.021399 0.408886 -0.070916 -0.322400 0.117073 0.109958 -0.066785 0.065153 -0.277241 -0.082879 -0.042569 -0.155716 0.226360 0.006537 0.222307 -0.217551 0.260144 -0.055914 0.569754 0.132050 -0.152308 -0.118698 0.307596 -0.121407 -0.076522 -0.085194 0.109108 0.313434 -0.310989 0.037430 -0.221870 -0.021068 0.109583 0.361898 0.074121 -0.172159 -0.243445 0.230512 -0.192493 -0.440534 -0.007250 -0.025064 -0.419153
254 -0.239193 0.028041 0.129612 0.248388 -0.209877 0.186419 -0.270820 -0.305447 0.325177 -0.225963 -0.075383 -0.034473 -0.122061 0.173243 0.016596 0.363458 -0.137450 -0.150829 0.084306 0.194697 0.470379 -0.068862 0.015082 -0.085411 0.083009 0.043042 0.217728 0.072521 0.499220 0.104631 0.041993 0.075410 -0.241165 0.260969 0.149801 0.003235 -0.129722 0.093147 -0.199996 -0.045776 0.138235 -0.242537 -0.221925 -0.269529 0.012476 0.263364 -0.338490 0.227429 -0.148105 -0.140103 -0.171280 -0.135317 0.091742 0.050284 -0.186934 0.092362 0.389539 0.077568 0.386820 0.037909 -0.563169 -0.149613 0.061614 0.269952 0.337468 -0.084540 0.163080 -0.023940 -0.000675 -0.235297 0.282061 0.119385 -0.201276 -0.372184 -0.077262 0.412822 0.149789 0.518937 -0.009641 0.037075 0.355842 0.092847 0.115489 0.390977 0.003955 -0.126072 0.250576 0.015115 -0.167598 -0.003705 0.062696 -0.203283 -0.105030 -0.279481 0.031965 -0.067571 -0.197068 0.164011 0.208696 0.168093 -0.219069 0.283977 0.263083 0.536082 0.151647 -0.241492 0.019062 0.203707 -0.043657 -0.073717 -0.006675 0.061100 0.304836 -0.369970 -0.038493 -0.292029 0.059294 0.130665 0.314123 0.058514 -0.100211 -0.198866 0.336340 -0.140918 -0.525242 0.039250 -0.071837 -0.301183
209 -0.281329 -0.018024 0.103261 0.190606 -0.229930 0.243353 -0.186770 -0.236519 0.184082 -0.135396 -0.099068 0.001765 -0.086596 0.188457 -0.005387 0.306727 0.032237 -0.309005 -0.042262 -0.006806 0.523470 0.027409 0.061047 -0.203877 -0.003816 0.282895 0.119925 0.087589 0.366604 0.018161 -0.044035 -0.063287 -0.149932 0.238022 0.157829 -0.204256 -0.108834 0.111798 -0.134334 0.133217 0.192315 -0.148980 -0.076282 -0.239413 0.170292 0.136024 -0.340534 0.375524 -0.226218 0.121704 -0.032596 -0.231216 0.070996 0.168308 -0.146249 0.035965 0.274983 0.005664 0.392494 -0.086911 -0.442997 -0.100456 0.090864 0.347906 0.224935 -0.074193 0.195257 0.108861 0.052819 -0.083213 0.298356 0.045971 0.025571 -0.290014 -0.055460 0.350883 0.075473 0.421813 0.141942 -0.061235 0.153157 0.051681 0.026394 0.323506 0.019897 0.088209 0.299967 0.081588 -0.218742 -0.000400 0.043704 -0.214909 -0.037250 -0.350059 -0.059064 -0.166482 -0.131403 0.073198 0.140857 0.259777 -0.163884 0.312488 0.228961 0.385423 0.026362 -0.217044 -0.148948 0.279140 0.018635 -0.090379 -0.212389 -0.009075 0.286660 -0.233177 -0.014565 0.045675 0.116327 0.123253 0.321243 0.211603 0.032371 -0.262452 0.420820 -0.235616 -0.415555 0.082787 -0.134227 -0.365270
242 -0.092196 0.008675 0.145371 0.234067 -0.148850 0.150917 -0.292190 -0.160847 0.143414 -0.255950 0.127708 -0.071532 0.003216 0.062156 0.049194 0.440394 -0.057685 -0.150419 0.138340 0.088843 0.415823 -0.110175 0.267473 -0.302425 -0.051303 0.215525 0.182254 0.004772 0.631296 0.102849 -0.025701 0.302888 -0.180251 0.130848 -0.038807 -0.033323 -0.070369 0.029459 -0.149253 -0.011832 0.110216 0.005569 -0.038545 -0.237752 0.009635 0.217740 -0.362958 0.191455 -0.063510 -0.052392 -0.169436 -0.046681 0.076073 0.217147 0.066370 0.161034 0.319339 -0.013438 0.347312 -0.055859 -0.447007 0.031146 -0.018614 0.219200 0.275425 -0.018859 0.067326 -0.034467 0.010442 -0.274179 0.528941 0.049106 0.096236 -0.231648 -0.060617 0.459538 0.360411 0.399926 0.090945 0.057099 0.353655 0.120119 -0.015364 0.467720 -0.012492 -0.102903 0.238948 -0.182748 -0.232919 -0.096364 0.102111 -0.139110 -0.031217 -0.230022 0.029725 -0.001891 -0.346765 0.329698 -0.013939 -0.045807 -0.183501 0.142898 0.074974 0.324914 0.056757 -0.104529 0.064074 0.098562 -0.002423 -0.053343 -0.037586 0.209335 0.428297 -0.332505 -0.085311 -0.177676 0.070449 0.083681 0.304679 0.119769 -0.039727 -0.270354 0.100570 -0.189857 -0.523234 0.075590 -0.037163 -0.299715
406 0.066221 -0.081524 -0.092438 0.194893 -0.216744 -0.007455 -0.369253 -0.158057 0.028494 0.049074 0.132691 -0.049600 0.445391 -0.247437 0.164506 -0.157633 -0.310824 0.469465 -0.113621 0.095872 0.058283 -0.020025 0.327723 -0.148940 0.271044 0.073077 0.419359 0.244115 -0.081931 -0.204973 -0.332105 -0.228470 -0.105785 0.170814 0.359137 -0.098908 0.241078 -0.345906 -0.239765 -0.236209 0.197623 -0.296792 0.071774 0.191039 -0.117814 0.164062 0.016778 0.012348 -0.144457 -0.344344 -0.079103 0.178802 0.108348 0.083728 0.108034 0.055218 0.002298 0.167460 0.107196 -0.090619 -0.111294 0.326844 -0.086627 0.263790 0.079097 -0.121364 0.268287 -0.401849 0.344336 -0.124787 0.247712 0.219010 0.043051 0.174518 0.286045 0.192121 0.357492 -0.259274 -0.216587 -0.141161 0.293024 0.232714 0.410647 -0.046311 0.238091 0.063006 0.426234 0.043716 -0.093734 0.085337 -0.409816 -0.228998 -0.103683 0.049279 -0.135738 -0.197402 -0.288999 0.390979 0.017614 -0.022164 -0.134783 0.322882 0.083390 0.391228 0.241846 -0.098407 0.376319 0.215595 -0.019340 0.159269 -0.224945 -0.012497 -0.144080 0.457774 0.172554 -0.104100 -0.120420 -0.205561 0.015772 -0.164492 0.281210 0.022830 -0.045964 -0.134096 -0.159303 0.029412 0.020721 -0.122412
288 -0.054592 0.070375 0.072868 0.332015 -0.083334 0.136237 -0.153555 -0.267675 0.039610 -0.094958 0.013458 -0.001435 0.026738 -0.066174 -0.205694 0.546382 -0.277183 -0.213886 -0.074065 0.046175 0.374445 -0.099604 0.209207 -0.224142 -0.111415 0.101989 0.108131 0.140709 0.595857 -0.094049 0.065725 0.175679 -0.209286 0.048755 0.121402 0.201876 -0.296251 0.151325 -0.171807 0.075721 0.162255 -0.259659 0.014730 -0.369807 0.093913 0.131633 -0.266677 0.238104 -0.156301 0.039671 -0.094871 0.029779 0.094092 0.049780 0.075169 -0.067948 0.324726 0.093804 0.407743 -0.067975 -0.474793 0.055714 -0.226554 0.195026 0.149632 -0.191250 0.340030 -0.088413 -0.082107 -0.080927 0.434072 0.091982 -0.406943 -0.253386 -0.203394 0.378253 0.067193 0.363735 0.190274 -0.025430 0.165915 0.179612 -0.025523 0.292190 -0.119007 0.035431 0.364950 -0.010315 -0.152163 -0.099045 0.063033 -0.204836 -0.106387 -0.214756 0.046011 -0.113214 -0.306593 0.101618 0.113480 0.032782 -0.278047 0.220549 0.308566 0.342199 -0.042472 -0.141386 -0.121058 0.224587 -0.026026 -0.031945 0.008013 0.077592 0.145910 -0.352692 -0.242172 -0.106477 -0.033144 0.289690 0.291953 0.008934 -0.142185 -0.289988 0.341590 -0.239282 -0.583952 0.188997 -0.112030 -0.367823
450 -0.251749 -0.276300 0.093950 0.153867 -0.140888 0.314637 -0.066793 -0.239684 0.218227 -0.288011 0.059693 -0.018455 -0.074842 0.192477 -0.121642 0.314582 -0.169199 -0.212890 -0.020321 -0.016491 0.617894 -0.087230 0.097355 -0.136411 0.105784 0.100779 0.256381 0.078400 0.476584 0.123842 -0.040186 0.107550 -0.220289 0.178499 0.097687 -0.060213 -0.118592 0.110550 -0.122362 -0.109648 0.172113 -0.108004 -0.055733 -0.292913 -0.008300 0.193218 -0.381455 0.269735 -0.135068 0.035374 -0.128690 -0.222106 0.140504 0.149487 -0.132585 0.118894 0.286467 0.033595 0.413128 -0.058291 -0.433000 -0.036841 0.068715 0.412202 0.218428 -0.144899 0.193431 -0.224802 0.148600 -0.136675 0.315874 -0.028749 -0.098358 -0.279861 -0.191954 0.272458 0.076373 0.354816 0.200174 -0.322768 0.121423 0.052585 -0.000439 0.493269 -0.012397 0.003080 0.326388 0.019123 -0.075195 0.033044 0.144788 -0.187261 -0.045223 -0.250812 -0.116122 -0.010185 -0.182409 0.149427 0.125704 0.216431 -0.207997 0.095829 -0.005052 0.332159 0.094287 -0.200214 -0.152469 0.206735 -0.081989 -0.014152 -0.080284 0.118018 0.444645 -0.239963 -0.127071 -0.180535 0.044558 0.170330 0.287715 0.180245 0.024433 -0.154647 0.183425 -0.056035 -0.416180 0.029580 -0.084106 -0.368672
143 -0.256571 -0.174909 0.109853 0.134727 -0.018755 0.073814 -0.168998 -0.141048 0.142154 -0.001797 -0.000896 -0.131356 -0.052810 0.170091 -0.036809 0.357660 -0.164673 -0.322530 0.040006 0.103514 0.444645 -0.234626 -0.004894 -0.144201 -0.125002 0.232221 0.144468 0.160328 0.485045 -0.115999 -0.003223 0.126488 -0.173392 0.043620 -0.018123 -0.104780 -0.161071 -0.158674 -0.115007 -0.136501 0.087116 -0.128342 -0.022735 -0.271474 0.168585 0.113072 -0.333489 0.231497 -0.158539 0.003475 -0.212659 -0.158006 0.040970 0.265427 -0.092630 0.016580 0.254176 0.097780 0.296857 0.141487 -0.339614 0.043922 -0.019164 0.340029 0.214658 -0.102474 0.176491 -0.080202 -0.016060 -0.077137 0.284028 0.116958 -0.134624 -0.224756 -0.089333 0.404880 0.094044 0.113560 0.139004 0.286087 0.260007 0.084052 -0.053291 0.445791 -0.129138 0.089950 0.365980 -0.067307 -0.315108 0.074666 0.028135 -0.014961 -0.192982 -0.212506 -0.000365 0.027963 -0.333208 0.210938 0.074896 0.048769 -0.184258 0.253339 0.086574 0.390515 0.131200 -0.094235 -0.174745 0.255665 0.022221 -0.144084 0.089920 -0.004347 0.269217 -0.313865 -0.085533 -0.095277 0.076011 0.261206 0.345377 0.132295 -0.145184 -0.326847 0.328888 -0.181668 -0.471752 0.016782 0.035857 -0.291398
583 -0.052005 -0.113116 0.150647 0.031626 -0.237105 0.175852 -0.261586 -0.230741 0.245245 0.020740 0.233518 -0.053869 0.004696 0.135655 -0.100104 0.401890 -0.143773 -0.294828 0.117552 0.054530 0.503211 -0.127744 0.116787 -0.270532 0.057231 0.131520 0.059980 -0.000128 0.548591 0.164328 -0.141396 0.143046 -0.164460 0.220009 -0.104058 -0.044436 -0.084796 -0.034844 -0.028106 0.060397 0.159307 -0.332585 -0.143420 -0.353070 0.105292 0.167786 -0.335229 0.356123 -0.027146 -0.039308 -0.079738 -0.141360 0.144087 0.095123 -0.023746 0.041274 0.245320 -0.166973 0.324638 0.007479 -0.434456 -0.117581 -0.082642 0.370463 0.288352 0.034667 0.243613 -0.148954 0.077505 -0.236776 0.270650 0.234961 -0.004944 -0.256720 -0.150525 0.340082 0.141667 0.260845 0.201991 0.042805 0.260045 0.040470 -0.107121 0.468008 -0.062500 -0.044776 0.285953 -0.104742 -0.167773 -0.031771 0.119528 -0.131550 -0.141466 -0.247135 -0.060268 -0.095013 -0.235662 0.064446 0.101628 0.126453 -0.165139 0.259666 0.265939 0.484325 0.029347 -0.207532 -0.170043 0.134541 -0.138302 -0.246927 -0.127908 -0.044744 0.293238 -0.411227 0.073409 -0.074952 0.174393 -0.037409 0.167032 0.183029 -0.141760 -0.302721 0.441899 -0.094024 -0.433097 0.065887 -0.064823 -0.266360
464 -0.030954 -0.023924 0.052826 0.345416 -0.321893 -0.100029 -0.367332 -0.351705 0.013941 0.161949 0.119148 -0.143444 0.460064 -0.046201 -0.045706 -0.392044 -0.219675 0.353663 -0.334962 0.127199 0.102667 0.103706 0.268216 -0.108164 0.406776 0.287040 0.586944 0.363527 -0.277314 -0.137261 -0.275174 -0.300762 -0.150813 0.260040 0.131898 -0.134320 0.265238 -0.266741 -0.266820 -0.014691 0.171477 -0.352842 0.047737 0.158429 -0.004180 0.243723 -0.000257 0.194462 -0.047493 -0.203875 0.117594 0.116939 -0.033266 0.069499 0.084527 -0.005800 0.020582 0.013108 -0.160604 -0.220654 -0.123413 0.291443 -0.153146 0.126635 0.051139 -0.157286 0.243035 -0.349941 0.340197 -0.195815 0.298295 0.245166 0.094958 0.081209 0.282387 0.042892 0.468887 -0.161891 -0.161389 -0.031011 0.097513 0.134053 0.282286 0.001042 0.268198 -0.069380 0.284836 0.099487 -0.270315 0.036977 -0.309041 -0.204321 -0.110404 0.034288 -0.100269 -0.297751 -0.241563 0.160042 -0.026858 0.058126 -0.057098 0.484330 0.165462 0.146508 0.181052 -0.145295 0.207573 0.304258 -0.010137 0.081964 -0.179348 0.004218 -0.239476 0.291808 0.228639 0.040898 -0.064633 -0.076241 0.063206 -0.221889 0.278265 0.097144 -0.209709 -0.070772 0.034200 0.058791 0.078978 -0.137923
161 -0.034172 -0.045002 0.083904 0.295020 -0.183639 0.315369 -0.101917 -0.287901 0.184563 -0.174949 0.066726 0.029763 -0.145743 0.074861 0.017358 0.329194 0.043853 -0.270084 -0.008036 0.156165 0.483160 -0.173174 0.251239 -0.162941 -0.004613 0.136900 0.254671 -0.004824 0.378215 -0.016848 -0.067660 -0.098229 -0.277153 0.279132 0.142363 0.038435 -0.181192 0.031818 -0.089439 -0.076811 0.058249 -0.230557 -0.049246 -0.333456 0.142865 0.130465 -0.393450 0.261135 -0.077746 0.083206 -0.089579 -0.156204 0.145354 0.178360 -0.042353 0.102206 0.359055 -0.031172 0.419348 -0.012372 -0.494803 -0.170516 0.147417 0.420659 0.241341 -0.037858 0.164105 -0.017978 -0.014127 -0.117468 0.279120 0.078695 -0.150823 -0.263164 -0.092019 0.445048 0.297444 0.416590 0.083073 0.095406 0.156915 0.069735 0.031174 0.365892 0.088190 0.037005 0.315449 0.067071 -0.264091 0.013190 0.125366 -0.135590 -0.085967 -0.325128 -0.114741 -0.081891 -0.202147 0.140479 0.099200 0.127858 -0.135068 0.220207 0.152775 0.362504 -0.035383 -0.210547 -0.224283 0.283826 -0.176788 -0.030209 -0.101171 0.036526 0.181720 -0.240285 -0.138066 -0.159722 0.255723 0.110153 0.178144 0.232808 -0.128348 -0.251194 0.395434 -0.079277 -0.482579 0.049364 -0.167316 -0.424846
662 -0.138592 -0.117090 -0.041537 0.216190 0.024458 0.245694 -0.240106 -0.401837 0.129001 -0.111226 -0.060766 0.049041 0.113898 0.054866 -0.017012 0.261744 -0.292827 -0.362804 0.206684 0.058631 0.366260 0.021738 0.212614 -0.230491 0.047549 0.106526 0.043897 0.008461 0.396811 0.133206 -0.220969 0.143136 -0.309479 0.171475 0.072090 -0.040929 -0.157471 0.112001 0.047246 0.089513 0.058201 -0.377865 -0.163201 -0.210724 0.081503 -0.019638 -0.413992 0.175967 -0.072066 0.110580 -0.196088 0.064701 0.040194 0.128570 -0.028318 -0.035418 0.343454 0.066054 0.292111 0.031614 -0.518880 -0.098017 -0.059498 0.348606 0.197771 -0.171879 0.252480 0.032568 0.148973 -0.196556 0.256201 0.120692 -0.053627 -0.268650 0.024552 0.480488 0.164449 0.326965 0.143292 -0.044049 0.268306 0.253341 -0.101563 0.333473 0.052810 -0.023394 0.226499 0.044561 -0.176888 0.141392 0.034932 0.055413 -0.128760 -0.346235 0.077055 0.023444 -0.264126 0.043284 0.075609 0.124949 -0.093254 0.220788 0.111022 0.381623 0.009044 -0.200991 -0.129023 0.229859 0.060354 -0.073576 0.011990 -0.026660 0.382392 -0.497416 -0.266225 -0.117080 -0.017377 0.124411 0.282481 0.067629 0.034055 -0.077913 0.309902 -0.042716 -0.489923 0.077934 0.027149 -0.305333
71 -0.260531 -0.049509 0.083210 0.090609 -0.133842 0.078637 -0.099415 -0.147502 0.260305 -0.153526 0.079836 0.003228 -0.067575 0.005905 -0.064577 0.369762 -0.155283 -0.221168 -0.051589 0.095014 0.509074 -0.127916 0.222455 -0.134418 0.057177 0.064855 0.225585 0.105612 0.444118 0.007498 -0.037945 0.132402 -0.383628 0.108590 0.122953 -0.055235 -0.208874 0.086806 -0.120891 -0.124349 0.080428 -0.011994 -0.075274 -0.329044 0.111269 0.195711 -0.328501 0.191886 -0.211448 -0.101284 -0.160380 -0.130115 -0.041176 0.108452 -0.103437 -0.044567 0.324984 0.070179 0.367425 0.049508 -0.446100 -0.058335 -0.026612 0.270528 0.331012 -0.188453 0.199211 0.079486 0.042309 -0.163212 0.327797 0.071690 -0.126152 -0.156997 -0.071557 0.391141 0.188415 0.405454 0.235147 0.016736 0.239242 0.079856 -0.002627 0.503487 0.059954 -0.006751 0.194988 -0.072295 -0.181296 0.000175 0.117243 -0.152139 -0.166783 -0.355151 0.049887 -0.057421 -0.139884 0.165654 0.233943 0.226348 -0.144499 0.213318 0.038778 0.346264 0.102895 -0.141968 -0.146468 0.247641 -0.005740 -0.111154 -0.183086 -0.015626 0.124264 -0.351647 -0.180063 -0.132121 0.095169 0.117830 0.107073 0.227309 -0.020717 -0.279599 0.266073 -0.086094 -0.442050 0.101228 -0.142981 -0.432587
627 -0.270661 -0.048026 0.120518 0.104185 -0.179814 0.261102 -0.183657 -0.300738 0.093009 -0.206772 0.060806 0.048271 0.014221 0.069981 -0.021689 0.401245 -0.163440 -0.220745 -0.121601 0.105294 0.374328 -0.036862 0.319253 -0.195759 0.163292 -0.013948 0.309158 0.062743 0.464834 0.069259 0.106766 -0.042558 -0.268277 -0.008094 0.094077 -0.069328 -0.108819 0.045935 0.017146 0.060803 0.133698 -0.102472 -0.063449 -0.342682 0.107675 0.229007 -0.370587 -0.011399 -0.155612 0.022907 -0.101824 -0.067364 0.054296 0.234582 0.094787 0.054219 0.340173 -0.037535 0.237611 -0.065943 -0.609197 -0.045875 0.022618 0.401952 0.369078 -0.133458 0.113721 0.024775 0.164792 -0.154762 0.278730 0.244393 -0.153860 -0.365010 -0.295567 0.291948 0.244554 0.330041 0.191073 -0.036548 0.238891 0.147068 0.178567 0.435356 0.036460 -0.002412 0.335972 -0.052686 -0.192146 -0.075066 0.083751 -0.246839 -0.018601 -0.255449 0.030350 -0.105321 -0.217608 -0.037486 0.148231 -0.101461 -0.116516 0.277840 0.191505 0.470218 0.105950 -0.216718 -0.037340 0.107163 -0.308517 -0.042880 -0.153080 -0.079063 0.339650 -0.272917 -0.053773 -0.047774 0.278917 0.114302 0.376336 0.034926 -0.077917 -0.294256 0.390079 -0.078977 -0.390067 0.120706 -0.180510 -0.261279
250 -0.216732 -0.181764 0.057913 0.058797 -0.229382 0.217100 -0.140214 -0.178950 0.172034 -0.192865 0.030977 -0.035370 0.106027 0.163820 -0.251582 0.413718 -0.268118 -0.139319 -0.066692 -0.109050 0.540145 -0.269970 0.191977 -0.169589 -0.018152 0.202205 0.024130 0.143951 0.544741 0.016648 -0.053333 -0.034912 -0.196485 0.094153 0.006271 -0.174809 -0.138384 0.099400 -0.014948 -0.033743 0.004325 -0.261925 0.006565 -0.407149 0.176820 0.300619 -0.362671 0.299219 -0.161840 0.040882 -0.000435 -0.104967 0.059201 0.252574 0.035124 -0.043445 0.228028 0.009014 0.317481 0.000942 -0.492286 -0.009726 0.189705 0.116087 0.319962 -0.194568 0.442462 -0.000941 0.155299 -0.075649 0.387985 0.135122 -0.261304 -0.234135 -0.195992 0.394230 0.136026 0.297236 0.160514 0.076633 0.294853 0.110957 0.046498 0.463767 -0.054856 0.031688 0.229574 0.024808 -0.142879 0.076772 -0.006937 0.041640 -0.142894 -0.196066 -0.151415 0.094145 -0.228297 0.229077 0.040948 0.178764 -0.248526 0.106183 -0.004710 0.409106 0.173761 -0.297511 -0.110955 0.239053 -0.101806 -0.256444 -0.047465 0.070378 0.167949 -0.334502 -0.204563 0.017144 0.051949 -0.149792 0.250197 0.082728 -0.133998 0.026773 0.359626 -0.197888 -0.360143 0.065623 -0.084673 -0.481746
647 -0.239145 -0.055163 0.061604 0.119739 -0.294061 0.100467 0.029944 -0.282074 0.118846 -0.050329 0.027892 -0.005251 0.034507 0.115057 -0.036522 0.274646 -0.198849 -0.319156 -0.030457 0.048581 0.432834 -0.127836 0.172457 -0.265431 -0.025605 0.219915 0.035332 0.074593 0.441190 -0.041487 0.014837 0.014968 -0.173528 0.075109 0.092273 -0.082671 -0.208001 0.160567 -0.004759 0.016009 0.208934 -0.214994 -0.133674 -0.279608 0.079121 0.340022 -0.445450 0.171823 -0.167149 0.174658 -0.044166 -0.080107 0.079842 0.204834 -0.049107 0.105709 0.361851 0.215680 0.450511 0.029923 -0.401630 -0.162009 -0.058942 0.309342 0.370736 -0.152431 0.235997 -0.096925 -0.007477 -0.165504 0.303739 -0.032262 -0.164766 -0.339337 -0.179852 0.520543 0.175804 0.282196 0.177922 -0.037167 0.200942 0.131347 -0.034961 0.297320 -0.087592 -0.148583 0.267930 -0.090678 -0.197250 0.058692 0.098503 -0.227253 -0.219291 -0.369122 -0.014963 -0.107344 -0.270444 0.226996 0.076228 0.118278 -0.079228 0.168463 0.240960 0.431220 -0.013450 -0.219161 -0.300060 0.138210 -0.102575 -0.219737 -0.049260 -0.172298 0.368030 -0.241946 -0.238602 -0.119048 -0.055683 0.118318 0.293233 0.348233 -0.179646 -0.163936 0.261466 -0.005191 -0.649174 0.234684 -0.087339 -0.251636
347 0.163438 0.111103 -0.134310 0.205953 -0.143996 -0.071638 -0.320302 -0.294555 -0.115208 0.211796 -0.087914 -0.048628 0.485447 -0.008867 0.138872 -0.435669 -0.346645 0.350380 -0.146218 0.318355 0.257044 0.092601 0.323049 -0.404802 0.096720 0.044231 0.610440 0.222580 -0.248981 -0.149886 -0.320181 -0.390434 -0.166845 0.192600 0.214784 0.068505 -0.027361 -0.385400 -0.224936 -0.189694 0.342043 -0.521845 -0.216500 0.186324 0.056051 0.024516 0.087982 0.401351 -0.192068 -0.255648 0.140487 0.458391 0.203521 -0.036347 0.078797 0.018294 0.064202 0.207622 -0.075000 0.079086 -0.027207 0.290248 -0.240530 0.201234 0.163853 0.071199 0.280938 -0.341484 0.388283 -0.232930 0.461988 0.441609 -0.110304 0.175295 0.219275 0.134022 0.361106 -0.221474 -0.304183 -0.119363 0.321812 0.430674 0.239784 -0.052094 0.060958 0.145301 0.537239 0.001284 -0.204756 0.278068 -0.292258 -0.130673 0.024398 0.297602 -0.020119 -0.122837 0.078098 0.297824 -0.228034 -0.104105 -0.212999 0.397948 0.215459 0.275715 0.218461 0.022079 0.034938 0.255112 -0.172629 0.243794 -0.188814 -0.085308 -0.369428 0.539258 0.312264 -0.056703 0.025488 -0.374516 -0.116528 -0.029140 0.406541 -0.075760 -0.143383 -0.163079 -0.260788 -0.037750 -0.048508 -0.048260
415 -0.111539 0.039552 0.122960 0.088099 -0.197038 0.022813 -0.143104 -0.287967 0.137809 -0.028118 0.194713 0.084815 -0.018192 0.246888 -0.019984 0.488307 -0.131900 -0.318495 0.000035 0.150287 0.288161 -0.084316 0.130147 -0.173116 -0.058400 0.131086 0.209324 0.168407 0.354928 0.018797 -0.090798 0.024637 -0.009265 0.234732 -0.076538 -0.003112 -0.121249 0.024832 -0.198116 -0.091750 0.248414 -0.189975 -0.035574 -0.327656 0.173553 0.174498 -0.383758 0.338822 -0.130164 0.069430 -0.189212 -0.241332 0.220862 0.020452 0.028993 0.077681 0.240767 0.084967 0.306317 0.031147 -0.260490 0.026486 -0.002346 0.297093 0.341113 -0.103075 0.096667 0.018410 0.082553 -0.155706 0.271578 0.166159 -0.057042 -0.320128 -0.103871 0.267327 0.180648 0.421436 0.085042 0.004061 0.366464 -0.021940 0.015610 0.374748 -0.127009 0.015799 0.252477 0.018942 -0.231487 0.101286 0.122491 -0.228050 -0.127114 -0.191250 -0.109186 -0.095452 -0.105832 0.117583 -0.039682 0.063449 -0.090758 0.360672 0.053146 0.477897 0.211040 -0.155388 -0.114752 0.186395 -0.069314 -0.124838 -0.082792 0.052578 0.183605 -0.308450 -0.245084 -0.092098 0.093844 -0.009946 0.228309 0.071369 -0.173267 -0.139131 0.331064 -0.103473 -0.505892 -0.008389 0.075316 -0.446236
611 0.275632 -0.076893 -0.148437 0.097528 -0.017416 0.147905 -0.223403 -0.220222 0.087843 0.253561 -0.136954 0.048467 0.656959 0.057539 0.098579 -0.412444 -0.469579 0.304976 -0.079684 0.120917 0.164293 0.136642 0.317989 -0.331905 0.183968 0.000111 0.637961 0.214881 -0.436096 -0.100081 -0.240147 -0.332393 -0.159524 0.300396 0.228815 -0.113214 -0.086427 -0.356716 -0.214893 -0.050666 0.049321 -0.554430 -0.164520 0.174402 -0.072196 0.006544 -0.136264 0.058086 -0.089980 -0.103207 0.154698 0.422333 0.144813 -0.227630 0.048282 0.125953 0.010403 0.323673 -0.051038 -0.005207 -0.113865 0.114517 -0.071216 0.227544 0.044278 0.119174 0.262976 -0.432634 0.382684 -0.229332 0.243244 0.428551 -0.078251 0.024673 0.305378 0.323077 0.425820 -0.106847 -0.215677 -0.102544 0.168497 0.396020 0.298560 -0.080657 0.206634 0.008375 0.466494 0.089409 -0.214836 0.138236 -0.275426 -0.305774 0.157606 0.244748 -0.036313 -0.130782 -0.008827 0.218523 -0.285809 -0.156885 -0.141868 0.181204 0.140217 0.364653 0.281794 0.068558 0.146803 0.434035 0.027981 0.217683 -0.046615 -0.133861 -0.250844 0.376101 0.048423 -0.159512 0.188202 -0.287882 -0.209336 -0.067414 0.218585 0.025860 -0.168462 0.035780 -0.074826 -0.160964 -0.113650 -0.077165
448 -0.182717 -0.089316 0.104633 0.254543 -0.043797 0.149632 -0.215038 -0.157551 0.159563 -0.142024 0.126968 0.127398 0.117894 0.182997 0.002323 0.419208 -0.059456 -0.151584 0.024235 0.007813 0.421449 -0.058492 -0.024648 -0.128866 0.008478 0.086873 0.120343 0.033906 0.570266 -0.080030 -0.121297 0.129031 -0.282807 0.299558 -0.049745 -0.123760 -0.155382 0.001716 -0.089797 -0.106229 0.043767 -0.112002 -0.029266 -0.253676 0.092673 0.210368 -0.402556 0.172938 -0.164972 0.232293 -0.214120 -0.102439 0.154787 0.107692 0.050386 0.079377 0.325139 0.173924 0.391805 0.047827 -0.439290 -0.109127 -0.065851 0.280851 0.306603 -0.081180 0.283740 0.080336 -0.027795 -0.165292 0.267898 0.126916 -0.153036 -0.422788 -0.219331 0.404210 0.242405 0.370696 0.158313 -0.046759 0.199872 0.157185 0.053372 0.526645 0.059464 -0.179139 0.354902 -0.141014 -0.108964 0.101811 0.141581 -0.044930 -0.245413 -0.231414 -0.165042 -0.120128 -0.104967 -0.065531 0.092889 0.086293 -0.223221 0.205246 0.069913 0.384067 0.132723 -0.190445 0.054430 0.252416 -0.070977 0.018746 -0.005192 -0.026007 0.382141 -0.285609 -0.277479 -0.191427 0.087118 0.127653 0.309814 -0.044422 -0.155721 -0.159730 0.387203 -0.099479 -0.454873 0.031110 -0.078767 -0.333747
604 -0.154754 0.017852 0.163334 0.120103 -0.090133 0.137355 -0.284239 -0.179201 0.166418 -0.111520 -0.067795 -0.084057 0.096172 0.058883 -0.178258 0.382356 -0.167401 -0.276872 0.057314 0.049096 0.451617 -0.232553 0.256277 -0.208605 0.071193 0.114970 0.177437 0.029993 0.484340 0.133367 -0.024677 -0.074757 -0.133092 0.251701 0.017064 0.058165 -0.137874 0.048585 -0.147323 0.023956 0.072540 -0.215072 -0.140374 -0.229850 0.134216 0.171641 -0.451029 0.238765 -0.071229 -0.028883 -0.122811 -0.136665 -0.006448 0.082293 -0.101087 0.036039 0.183775 0.084260 0.208133 -0.066191 -0.537044 -0.082640 -0.031482 0.283330 0.350871 0.017311 0.191460 -0.079807 0.088209 -0.042735 0.262551 0.089939 -0.209787 -0.245518 -0.098113 0.293141 0.109520 0.320360 0.140505 0.093380 0.116237 0.129812 -0.042032 0.441556 -0.051116 0.062124 0.185156 -0.139406 -0.178710 0.015695 0.017278 -0.014722 -0.177566 -0.206065 -0.004399 -0.130755 -0.292785 0.209746 0.156101 0.125082 -0.151348 0.396487 0.147363 0.556937 0.009452 -0.116836 -0.015702 0.397614 -0.046231 -0.098570 0.024966 0.130288 0.287252 -0.362047 -0.175035 -0.193282 -0.007343 0.124345 0.274957 0.162664 -0.027861 -0.234859 0.387839 0.009502 -0.509697 0.047113 -0.076739 -0.332332
172 0.238823 -0.087834 -0.082543 0.238410 -0.179001 0.089215 -0.265638 -0.196049 0.064580 0.211616 -0.132721 0.168448 0.607343 -0.008440 0.159889 -0.443025 -0.384633 0.303350 -0.112001 0.218124 0.242998 0.084784 0.188872 -0.346502 0.059276 0.079541 0.626795 0.271742 -0.193900 -0.264447 -0.135993 -0.180304 -0.178648 0.246606 0.261635 -0.023689 -0.032506 -0.255289 -0.150276 -0.085756 0.256731 -0.551928 -0.174205 0.303780 0.162175 0.131849 -0.050905 0.248155 -0.052778 -0.257611 -0.066095 0.501990 0.105443 0.004965 -0.056043 -0.015693 -0.229062 0.344776 -0.269118 -0.018071 -0.014327 0.182543 -0.152692 0.016250 -0.019227 0.148409 0.083546 -0.332552 0.327575 -0.182775 0.522455 0.427048 0.068871 0.069555 0.183559 0.109808 0.554499 -0.248878 -0.376509 -0.425643 0.202658 0.351017 0.399163 0.000123 -0.028898 -0.061198 0.607614 -0.032570 -0.237464 0.062209 -0.274291 -0.197005 0.016632 0.076585 0.040856 -0.159659 -0.002064 0.189071 -0.276979 -0.042251 -0.122368 0.196768 0.316050 0.188941 0.330124 -0.109264 0.112891 0.333205 -0.093028 0.262017 -0.057044 -0.013395 -0.309149 0.426868 0.141870 0.025693 0.087886 -0.274227 -0.145282 -0.160218 0.243387 0.049116 -0.059992 -0.295478 -0.203799 -0.105656 -0.145119 -0.031077
300 0.244155 0.047239 -0.057730 0.139366 -0.014046 0.130462 -0.313713 -0.278394 0.025543 0.134546 -0.283369 -0.083915 0.489363 -0.077807 0.185885 -0.277599 -0.410022 0.501062 -0.076440 0.276773 0.280301 0.262064 0.178033 -0.383695 0.228334 -0.088142 0.504931 0.139621 -0.140957 -0.191341 -0.155668 -0.444970 -0.185528 0.338306 0.146749 -0.068491 -0.001895 -0.393207 -0.326344 -0.121271 0.064049 -0.524198 -0.119279 0.186409 0.105362 0.169266 -0.020455 0.305001 -0.095145 -0.190366 0.197251 0.311354 -0.090414 0.126450 -0.079436 0.051214 -0.007046 0.262693 -0.229304 -0.133937 -0.110326 0.184958 -0.120617 0.229248 0.043955 0.080980 0.312633 -0.471504 0.454009 -0.238584 0.346193 0.403301 0.010180 -0.049036 0.162116 0.189471 0.392320 -0.328340 -0.371534 -0.157564 0.183829 0.524617 0.295262 -0.075343 0.120339 0.108044 0.498708 -0.045259 -0.259309 0.178022 -0.311381 -0.077488 0.021155 0.157743 0.062442 -0.165879 0.062510 0.278989 -0.263934 -0.111191 -0.068483 0.302087 0.146164 0.099635 0.270148 -0.001742 0.364076 0.367196 0.015000 0.248642 -0.107624 -0.150269 -0.286820 0.518704 0.403894 -0.065047 -0.052894 -0.291253 0.012151 -0.062666 0.294037 -0.058106 -0.022508 0.045400 -0.208634 -0.026196 -0.107934 0.055206
432 0.259241 -0.037693 0.025877 0.108146 -0.167461 -0.039306 -0.277245 -0.217682 0.049299 0.025503 -0.115655 0.133854 0.611828 -0.030725 0.173039 -0.358343 -0.236758 0.369948 -0.075840 0.181828 0.142174 0.121708 0.143462 -0.470149 0.044678 0.155421 0.579157 0.108439 -0.212176 -0.138987 -0.298613 -0.264662 -0.187905 0.297375 0.175133 -0.024344 0.128927 -0.352825 -0.317273 -0.162275 0.143895 -0.512219 -0.128439 0.272101 0.087470 0.187082 -0.165210 0.092819 -0.087706 -0.225704 -0.023661 0.372919 0.193409 -0.002846 0.026460 -0.011148 -0.001231 0.326059 -0.227122 0.008993 -0.169380 0.220946 -0.255966 0.201091 -0.006659 0.044977 0.259666 -0.351572 0.392685 -0.192873 0.438407 0.330593 -0.127911 0.107716 0.107047 0.205213 0.461263 -0.197678 -0.268479 -0.073238 0.161378 0.352531 0.376352 -0.039000 0.268260 -0.047041 0.440050 0.042930 -0.305341 0.125511 -0.238973 -0.220255 -0.001342 0.306615 -0.257509 -0.084168 0.012708 0.335066 -0.153296 -0.138570 0.082011 0.093065 0.298835 0.295410 0.159483 0.115509 0.324495 0.227357 0.052376 0.286749 -0.096381 0.020344 -0.224109 0.573759 0.189213 0.027554 -0.097434 -0.289789 0.078143 -0.118052 0.330413 0.098795 -0.212883 -0.133303 -0.183100 -0.261118 -0.000304 -0.038228
597 -0.165707 -0.080992 0.083457 0.285722 -0.244481 0.265033 -0.134082 -0.291374 0.175420 -0.168035 -0.045728 0.002272 -0.059284 0.227011 0.017100 0.384223 -0.128852 -0.255661 -0.012618 0.028856 0.314006 -0.086257 0.313227 -0.114174 0.017154 0.241110 0.179470 0.085020 0.469298 -0.006158 -0.031071 0.009389 -0.200193 0.207269 0.144965 -0.182090 -0.147726 0.038220 -0.098001 -0.050966 -0.039413 -0.277455 0.026135 -0.304226 0.010840 0.212340 -0.339068 0.035061 -0.172039 0.053191 -0.120526 -0.034809 0.247603 0.237035 0.001876 0.099943 0.464914 0.089937 0.219983 0.020135 -0.446885 0.053109 0.113628 0.441676 0.292411 0.104275 0.202184 -0.011720 0.207702 -0.047715 0.160697 0.145180 -0.039586 -0.359272 0.011506 0.421752 0.078711 0.203695 0.130914 -0.137227 0.346974 0.088096 0.126288 0.314310 -0.015454 0.028852 0.186087 -0.062185 -0.289551 0.059168 0.116470 -0.186939 -0.128919 -0.301171 -0.173056 -0.064603 -0.212156 0.067733 0.145555 0.243912 -0.156777 0.206366 0.055636 0.328735 0.134011 -0.171176 -0.068000 0.059621 -0.020521 0.099996 0.076079 0.101622 0.331618 -0.368055 -0.141409 -0.204060 0.095677 0.187041 0.273685 0.129136 -0.022202 -0.315257 0.299054 -0.046928 -0.553007 0.021483 -0.105588 -0.253992
223 0.110406 -0.157907 -0.103550 0.299513 0.026723 -0.127815 -0.199869 -0.320725 0.152547 0.203879 -0.133645 -0.060242 0.449446 -0.154676 0.278471 -0.269764 -0.326901 0.257751 -0.197902 0.308225 0.258134 0.104195 0.199502 -0.366898 0.168019 0.132456 0.479645 0.357666 -0.244325 -0.150488 -0.240444 -0.325111 -0.098141 0.294370 0.226480 -0.112317 0.194692 -0.417379 -0.200845 -0.123197 0.203014 -0.623580 -0.063768 0.246576 0.136333 0.084193 -0.053199 0.203065 -0.121583 -0.214815 0.092677 0.293178 0.167403 -0.007701 -0.019213 -0.012910 -0.217134 0.168040 -0.443117 0.010756 0.065214 -0.020485 -0.112292 0.238706 0.078572 0.122558 0.259508 -0.303557 0.280759 -0.159436 0.601352 0.276885 -0.057113 -0.034148 0.139015 0.262058 0.472520 -0.264411 -0.179204 -0.279052 0.153789 0.461565 0.310127 -0.064827 0.182932 0.018524 0.431170 0.136220 -0.362743 0.203074 -0.377091 -0.156226 0.062734 0.282747 -0.227740 0.000106 -0.140599 0.026305 -0.214541 -0.030211 0.018497 0.384724 0.396330 0.181730 0.297028 0.027353 0.154259 0.275243 -0.099347 0.189504 -0.340814 -0.123172 -0.284946 0.359335 0.367151 -0.100153 -0.045350 -0.285919 -0.161965 -0.140996 0.324256 0.065500 -0.183494 -0.303488 -0.067598 -0.093291 -0.167615 0.044863
30 0.135100 -0.267698 -0.042549 0.287690 -0.247644 -0.192232 -0.287901 -0.126665 0.023962 0.250236 -0.192202 0.033119 0.366843 -0.093483 -0.021624 -0.231530 -0.252281 0.316908 -0.020569 0.185753 -0.017498 0.138058 0.347093 -0.184951 0.272264 0.180032 0.233476 0.310248 -0.173328 -0.374326 -0.310585 -0.261555 -0.045770 0.218766 0.083641 -0.298362 0.422744 -0.571338 -0.369181 -0.057141 0.294940 -0.324307 0.001599 0.310586 -0.137136 0.241101 -0.068978 0.024320 -0.295034 -0.270148 -0.069687 0.128756 -0.047364 0.208169 0.185167 -0.096315 0.035957 -0.058625 0.263169 0.036354 0.010154 0.442414 0.033574 0.419103 -0.010592 -0.355028 0.272194 -0.336033 -0.016799 -0.368967 0.337729 0.137799 0.133613 0.128034 0.154651 -0.069681 0.257306 -0.177611 0.054035 -0.333300 0.232989 0.224487 0.213243 -0.015342 0.169056 -0.086366 0.331736 0.086448 -0.388917 -0.172020 -0.351417 -0.232332 -0.295838 -0.033387 -0.308947 -0.290572 -0.261439 0.137836 -0.168560 0.124279 -0.005350 0.474632 0.154676 0.326355 0.250660 -0.079816 0.328033 0.229512 -0.127998 0.021946 0.052199 -0.024542 -0.204898 0.509949 -0.015926 -0.066303 -0.165241 -0.154281 0.075989 -0.273180 0.407571 -0.121620 -0.259859 0.018953 0.040216 -0.006561 -0.073343 -0.157734
200 0.131341 -0.156554 -0.100293 0.165938 -0.178459 -0.009482 -0.274331 -0.223793 -0.001305 0.131542 -0.162346 -0.191824 0.572352 -0.088921 0.153625 -0.264877 -0.319826 0.463818 -0.178865 0.123488 0.147648 0.173616 0.010450 -0.382584 0.077356 0.062085 0.678180 0.213494 -0.135485 -0.174843 -0.084150 -0.511643 -0.169250 0.238891 0.356330 -0.110338 -0.109954 -0.500057 -0.219445 -0.158528 0.189644 -0.531561 -0.103908 0.277316 0.194375 0.086247 -0.136189 0.372436 -0.066639 -0.167258 0.103889 0.237825 0.032164 -0.057033 -0.037004 -0.071417 -0.051476 0.394164 -0.242237 -0.032447 -0.051356 0.169406 -0.275086 0.319242 0.107025 -0.004082 0.278178 -0.395275 0.402076 -0.181379 0.429779 0.510437 -0.037607 -0.065827 0.049589 0.189024 0.391290 -0.267546 -0.240401 -0.380354 0.311015 0.434445 0.197840 -0.134486 -0.005801 0.072238 0.540773 0.037603 -0.126026 0.203958 -0.151760 -0.234129 -0.142908 0.213914 -0.011002 -0.316930 -0.041278 0.104012 -0.150636 -0.048650 0.015003 0.417762 0.061886 0.221916 0.241882 -0.050549 0.276099 0.308800 -0.088440 0.296945 -0.183261 -0.080975 -0.295602 0.464357 0.121062 -0.094893 -0.014493 -0.267774 0.082991 0.084138 0.171761 -0.063113 -0.101485 0.010893 -0.117085 0.009784 0.144028 0.179000
409 0.006785 -0.390841 0.247669 0.251975 -0.653084 0.166689 -0.315043 -0.145993 -0.216737 0.266564 0.042779 0.093402 0.136246 -0.115405 0.111335 -0.117007 -0.208306 0.324927 -0.203906 0.020931 -0.045095 0.179933 0.153959 0.168424 0.383725 0.078983 0.126986 0.148783 -0.294032 -0.151813 -0.393294 -0.053486 -0.339806 0.300644 0.231850 -0.212494 0.206273 -0.223575 -0.350400 -0.072125 -0.047623 -0.031722 0.137154 0.064100 -0.048585 0.082321 0.098936 0.334816 0.218400 -0.050700 -0.164476 0.297638 -0.013534 0.304928 -0.088527 -0.248884 0.073544 0.028546 0.376215 -0.080336 0.089410 0.468732 -0.107589 0.062101 0.104129 -0.082110 0.333328 -0.419258 -0.075526 0.014243 0.333426 -0.080838 0.043111 -0.059308 0.166246 -0.000222 0.220516 0.107552 -0.358838 -0.222498 -0.014016 0.370467 0.321784 0.072177 0.366006 -0.104719 0.118139 0.061052 -0.408375 0.062869 -0.232633 -0.235735 -0.069840 -0.016498 -0.193461 -0.136214 -0.302107 -0.005194 -0.176460 -0.258667 0.024811 -0.006921 0.225766 0.175755 0.100514 -0.019289 0.218601 0.170849 0.329097 0.038798 -0.205620 0.137090 -0.210912 0.470220 -0.107316 -0.151826 -0.170436 -0.315932 -0.030323 0.200710 0.255979 0.106617 0.396689 -0.147371 0.095065 -0.167099 0.120130 -0.243702
683 0.098535 0.149046 0.081641 0.304170 -0.192837 -0.002973 -0.362380 -0.021015 0.022771 0.063952 -0.175996 -0.059445 0.258972 -0.091703 0.060020 -0.291944 -0.335340 0.643236 0.039686 0.250505 -0.191720 0.076448 0.414244 -0.128843 0.232237 0.263853 0.126628 0.308796 -0.016100 -0.275968 -0.350585 -0.279575 0.320901 0.012386 -0.164504 -0.207918 0.460295 -0.415941 -0.323154 0.174519 0.243755 -0.096951 0.207914 0.225726 -0.021781 0.020751 0.012048 -0.079574 -0.368566 -0.397035 -0.087214 0.478435 -0.208408 0.541962 0.164440 0.122651 0.142195 -0.129814 0.214827 -0.126027 -0.292215 0.500283 -0.077245 0.414809 -0.067156 -0.397201 0.112234 -0.039415 0.071998 -0.195845 0.441215 -0.146765 -0.117323 0.129026 0.263582 0.130241 0.088943 0.111052 0.078331 -0.323157 0.101109 -0.019870 0.183462 -0.038766 0.186365 -0.067728 0.106361 0.099947 -0.115501 -0.069243 -0.222633 -0.399727 -0.409475 -0.137159 -0.289699 0.018896 -0.440398 0.477241 0.066511 0.222221 0.098266 0.392161 0.646195 0.170045 0.117422 -0.112590 0.591596 0.321050 -0.132577 -0.115869 0.291067 0.237854 -0.081938 0.579180 -0.128257 -0.101704 -0.447816 -0.151356 0.116486 -0.367161 0.494564 0.020667 -0.049439 -0.094748 0.018211 -0.039350 -0.108346 -0.186473
603 -0.009201 -0.159615 0.053368 0.210700 -0.306018 -0.245401 -0.329631 -0.211086 0.057883 0.243900 0.024575 -0.054981 0.454102 -0.043130 0.088896 -0.312088 -0.538416 0.608103 -0.031546 0.081786 0.049938 0.161612 0.402155 -0.231425 0.365948 0.219643 0.298671 0.371881 -0.177819 -0.000056 -0.174748 -0.218789 -0.109848 0.096941 0.338290 -0.007724 0.247545 -0.181971 -0.310583 -0.143202 0.018646 -0.359261 0.169159 0.300380 -0.091344 0.187614 0.045041 0.024245 0.000892 -0.383256 0.075825 0.074493 -0.087413 0.020809 -0.084200 0.101229 0.096965 -0.080736 0.053772 -0.078663 -0.068569 0.331187 -0.216878 0.025786 0.133861 -0.296395 0.295609 -0.462730 0.155048 0.088089 0.039769 0.352138 0.018478 -0.005068 0.084029 0.062269 0.499945 -0.124317 0.056294 -0.249883 0.272757 0.076559 0.292305 0.032547 0.139523 -0.288926 0.598154 0.026133 -0.199660 -0.001002 -0.429269 -0.307556 -0.113463 -0.016525 -0.274239 -0.055663 -0.084796 -0.187035 -0.381096 -0.084893 0.126866 0.452635 0.185080 0.172675 0.120243 -0.241281 0.303160 0.052313 0.111529 0.291762 -0.056594 0.137317 -0.289028 0.541732 -0.027675 0.048372 -0.039291 0.023084 -0.030927 -0.313114 0.348480 -0.075930 -0.034651 0.008870 -0.239449 0.226997 -0.112735 -0.098761
685 0.475895 -0.113722 0.269785 0.739580 -0.685852 0.476931 -0.360166 -0.491030 0.655151 0.434826 0.043024 0.302188 -0.133725 0.086531 0.005238 0.016596 0.049711 0.278162 -0.296845 0.171154 -0.072395 -0.143670 0.148233 -0.245266 -0.236736 0.032036 0.211016 0.205107 0.554342 -0.275524 -0.184635 0.236563 -0.116780 -0.149680 0.142498 0.094405 0.093075 0.052452 0.112842 0.534594 0.130777 -0.249680 0.178030 -0.235440 0.103379 0.202362 -0.191900 -0.159583 -0.266014 -0.285853 0.187186 -0.216130 -0.002580 0.255438 -0.133260 0.116091 0.257318 -0.255671 0.392150 0.023076 -0.233479 0.179511 -0.461626 0.147211 0.214471 -0.305109 -0.250310 0.103026 0.043141 0.109231 -0.511526 0.187304 -0.165256 -0.219005 -0.312598 -0.229122 0.284086 0.031135 0.373678 0.285638 -0.075018 0.224275 -0.330485 0.002431 -0.066721 -0.052666 0.021232 -0.010565 -0.055112 0.092877 -0.018703 0.562994 -0.107029 0.221704 -0.031395 0.302136 0.113736 -0.091940 -0.175674 0.103232 -0.771118 0.266449 0.458550 0.151331 0.001877 -0.516598 0.336561 0.404952 -0.132716 0.190381 0.014226 -0.183302 -0.396317 0.126899 -0.131608 0.246693 -0.362636 0.276527 -0.501358 0.283680 0.090336 0.363100 0.172059 0.391954 -0.250606 0.338796 -0.488801 0.210154
379 -0.236383 0.042028 0.017949 0.020768 -0.095855 0.189364 -0.144086 -0.136739 0.181344 -0.208797 0.001233 0.079330 -0.017041 0.141412 -0.151324 0.398693 -0.105728 -0.222644 0.014556 0.065567 0.598310 -0.080546 0.228114 -0.202026 0.138476 -0.000084 0.278587 0.222207 0.503231 0.049180 0.019670 0.070808 -0.152680 0.380897 0.180639 -0.086948 -0.018444 -0.054839 -0.119471 0.170090 0.075117 -0.052525 -0.046817 -0.294901 0.056188 0.379936 -0.458148 0.226737 -0.163451 0.059139 0.111729 -0.133312 0.050014 0.182904 -0.088246 -0.089713 0.243902 0.065935 0.522222 0.187199 -0.470726 -0.239256 0.148205 0.257415 0.513469 -0.148220 0.066894 0.014013 0.254893 -0.139061 0.284280 -0.046606 0.002477 -0.089345 0.068074 0.199882 0.083566 0.308998 0.035169 0.178480 0.188468 0.182945 -0.077839 0.484556 0.236808 0.088243 0.096268 -0.159774 -0.160324 -0.108280 -0.031350 -0.047458 -0.045260 -0.195546 -0.029836 -0.136250 -0.109583 0.077891 0.216436 0.181165 0.056672 -0.013174 0.081959 0.465870 0.168912 0.090294 -0.176045 0.141826 -0.142105 -0.074256 -0.076999 0.048843 0.383139 -0.273971 -0.028802 -0.068021 -0.038895 0.033405 0.090129 0.280040 -0.158693 -0.265478 0.364750 -0.217141 -0.322416 0.286570 -0.173626 -0.360920
659 0.463382 -0.123019 0.423448 0.838937 -0.552831 0.440790 -0.214062 -0.409743 0.602706 0.439623 0.051919 0.339241 -0.183768 -0.029702 0.187948 -0.096978 -0.064744 0.224822 -0.161944 0.088126 -0.081768 -0.077685 0.198461 -0.276920 -0.315018 0.078787 0.312347 0.242357 0.564910 -0.042759 -0.029526 0.308950 -0.163230 -0.028649 -0.008755 -0.093872 0.477217 0.030793 0.094166 0.568136 -0.075384 -0.207180 0.045838 -0.112908 0.233559 0.174829 -0.252012 -0.125868 -0.255734 -0.341385 0.194137 -0.262120 -0.027365 0.306612 -0.157105 0.112243 0.487461 -0.362209 0.292921 0.145230 -0.150959 0.236511 -0.458870 0.139009 0.208904 -0.008989 -0.245516 0.072901 0.139305 0.202220 -0.603363 0.102963 -0.090670 -0.320567 -0.203878 -0.139057 0.396472 0.047244 0.337956 0.247656 -0.206548 0.069089 -0.426169 0.075988 -0.091130 -0.002782 -0.182597 -0.224835 -0.343983 0.260250 0.227203 0.547887 -0.145355 0.401484 -0.168894 0.278651 0.133756 0.025658 -0.061069 0.220033 -0.596325 0.217237 0.530495 0.084877 0.044795 -0.494157 0.174433 0.413749 -0.223530 0.240854 -0.187431 -0.241939 -0.547646 0.185698 0.014852 0.171841 -0.271853 0.314675 -0.578941 0.419085 0.092314 0.344543 0.320569 0.476517 -0.217982 0.324131 -0.230263 0.339726
132 -0.211902 0.210184 0.081386 0.060186 -0.306550 0.174282 -0.309957 -0.232329 0.153910 -0.204991 0.047598 0.046355 -0.059701 0.164861 -0.103562 0.464712 0.048129 -0.186181 -0.079573 0.091935 0.354392 -0.034590 0.158653 -0.126025 0.213906 -0.141160 0.244815 0.206818 0.409638 0.057691 0.019420 0.145198 -0.129384 0.355247 0.214984 -0.030223 -0.172443 0.039115 0.045040 0.169828 0.159206 -0.173803 0.097895 -0.379365 0.169088 0.285262 -0.441476 0.045995 -0.258926 -0.032160 0.088607 -0.134516 0.030776 0.184634 -0.127236 -0.006822 0.241857 0.222533 0.490350 0.037121 -0.570674 -0.277250 0.115994 0.241690 0.312877 -0.096998 0.101213 -0.039606 0.109130 -0.105884 0.244149 -0.103950 -0.106626 -0.106842 -0.007383 0.421903 0.144461 0.265318 0.055637 -0.188072 0.326695 0.134890 0.130876 0.579572 0.231537 -0.062429 0.155905 -0.277683 -0.168608 -0.069838 0.090743 -0.108325 -0.060442 -0.296925 -0.041740 -0.083000 -0.153875 0.193050 0.181372 0.241682 -0.126145 0.084875 0.125542 0.478999 0.127062 0.114573 -0.147849 0.137950 -0.087693 -0.003349 -0.039700 -0.071440 0.551469 -0.212819 -0.100018 -0.162895 -0.154770 0.206928 0.224071 -0.011698 -0.104025 -0.255132 0.300859 -0.127158 -0.205005 0.260448 -0.313407 -0.455421
291 -0.219397 0.078518 0.036440 0.120502 -0.110659 0.196846 -0.236153 -0.184184 0.066972 -0.201918 -0.098621 0.032326 -0.087164 0.155148 0.004956 0.503081 -0.017616 -0.260257 -0.008184 0.081868 0.372028 -0.037211 0.179379 -0.243467 0.171917 0.078754 0.335036 0.112586 0.557017 -0.029778 0.008889 -0.067727 -0.373157 0.257812 0.061682 -0.172234 0.008171 -0.097970 -0.153226 0.289853 0.072360 -0.380188 0.212236 -0.453545 0.253825 0.187171 -0.444892 0.123486 -0.171837 0.006568 0.120432 -0.121963 0.232053 0.159331 -0.182429 -0.123027 0.359844 0.164013 0.394527 0.100894 -0.490766 -0.264508 0.148355 0.250190 0.533368 0.088333 0.197435 -0.034118 0.206763 -0.148553 0.200205 0.148593 -0.145755 -0.188640 0.078065 0.386858 -0.056283 0.208629 0.055487 -0.077865 0.135534 0.076782 0.177367 0.541426 0.241781 0.033298 0.365651 -0.109990 -0.231755 -0.186168 0.001228 0.030669 0.026516 -0.200266 0.017044 -0.112203 -0.224568 0.003973 0.224727 0.348760 -0.019660 -0.061214 0.094350 0.490522 0.065290 0.033710 0.032658 0.041243 -0.056790 -0.002407 0.044390 0.039525 0.309613 -0.339341 -0.117617 -0.053245 -0.169655 0.048760 0.142538 0.032168 -0.190170 -0.218044 0.333523 -0.239180 -0.345833 0.068537 -0.104046 -0.521505
718 0.437092 -0.076529 0.414108 0.657763 -0.714870 0.524863 -0.233610 -0.433825 0.598853 0.472985 0.005563 0.343657 -0.010402 -0.079853 -0.070911 -0.040256 0.002094 0.213161 -0.033299 0.132371 -0.143050 -0.037975 0.271556 -0.403798 -0.247998 0.007137 0.363528 0.238006 0.505152 -0.301743 -0.065522 0.230582 -0.144125 -0.266238 -0.002331 0.053620 0.428013 0.076494 0.124948 0.434442 0.170705 -0.167514 0.001741 -0.086475 0.170526 -0.029154 -0.109623 -0.174916 -0.440769 -0.414353 0.164583 -0.438895 -0.072150 0.216522 -0.326862 0.092838 0.459578 -0.290035 0.085671 0.134477 -0.136559 0.100604 -0.634633 0.091968 0.060145 -0.364305 -0.209748 0.118927 -0.017351 0.073642 -0.475153 0.279459 -0.141930 -0.335882 -0.215568 -0.151105 0.153735 -0.108772 0.329706 0.282476 -0.076810 0.134861 -0.300882 0.009083 -0.028650 -0.087193 0.054345 -0.160292 -0.291580 0.197141 -0.139465 0.554372 0.110264 0.147365 -0.028819 0.409144 0.204979 0.120866 -0.032931 0.103396 -0.411258 0.061906 0.451765 0.328550 0.032286 -0.445119 0.236060 0.303423 -0.122804 0.205655 -0.038053 -0.234179 -0.368176 0.414346 0.030360 0.227716 -0.165199 0.309469 -0.421591 0.399677 -0.005545 0.216004 0.319953 0.098688 -0.097087 0.318909 -0.393012 0.329522
241 -0.009903 0.083274 0.066786 0.132254 -0.253009 0.310447 -0.299807 -0.084644 0.109692 -0.245920 -0.156282 0.063385 -0.023295 0.098892 -0.057853 0.525806 -0.182576 -0.329475 -0.073105 0.161040 0.466117 -0.154856 0.247315 -0.172559 0.100481 -0.041523 0.227542 0.106030 0.490946 0.057389 -0.067655 -0.050084 -0.166278 0.265681 0.130384 -0.003206 -0.214405 -0.075057 -0.200975 0.119058 0.169543 -0.231540 0.072682 -0.452231 0.038675 0.065381 -0.508768 0.186810 -0.198141 0.069037 0.146770 -0.090472 -0.051954 0.178874 0.019289 -0.242139 0.215973 -0.091684 0.526610 0.022600 -0.580539 -0.267536 0.175285 0.220661 0.434787 -0.093211 0.062202 -0.014030 0.123977 -0.116205 0.211841 0.084111 -0.194771 -0.235530 -0.028892 0.338276 0.246104 0.240204 -0.048640 0.003985 0.349487 0.104170 0.072955 0.551099 0.179182 0.011280 0.293833 -0.204724 -0.285463 -0.070931 0.048137 -0.220826 -0.016632 -0.026293 0.056383 0.031226 -0.182104 0.254419 0.225316 0.197267 -0.097321 0.142684 0.208164 0.530995 0.116212 -0.100930 -0.125158 0.236498 -0.147518 -0.039337 -0.052286 -0.028129 0.450832 -0.380102 -0.073857 -0.212096 -0.109430 0.085239 0.129214 -0.026701 -0.100629 -0.259235 0.263083 -0.137967 -0.391394 0.106376 -0.277475 -0.388063
417 0.086882 0.073416 -0.085712 0.300930 -0.263709 -0.288834 -0.377669 -0.070320 0.096554 0.265047 -0.028760 -0.079774 0.179298 0.047316 0.248863 -0.307926 -0.260261 0.404860 0.057001 0.284371 -0.322992 -0.011401 0.356688 -0.239220 0.311462 0.071288 0.124123 0.528924 -0.307719 -0.313827 -0.357862 -0.047877 -0.004529 0.036044 -0.064301 -0.269808 0.340040 -0.547054 -0.323143 0.083694 0.287790 -0.027814 0.347650 -0.009090 0.103733 -0.058788 -0.035759 -0.213160 -0.274839 -0.232193 0.189146 0.343973 -0.054190 0.582650 0.401701 0.210717 0.056630 -0.052285 0.476357 -0.109881 -0.136300 0.464484 0.071867 0.414233 -0.132223 -0.372796 0.276562 -0.172018 -0.013369 -0.302411 0.259135 -0.210771 -0.014741 -0.020571 0.168330 0.071707 0.168572 -0.006609 0.040573 -0.207255 0.018242 -0.025891 0.043761 -0.178967 0.065588 -0.131076 0.376052 0.112977 -0.139565 -0.147014 -0.284087 -0.260976 -0.192816 -0.106681 -0.332631 0.032633 -0.437655 0.435367 0.078765 0.275425 0.228650 0.384843 0.514075 0.299344 0.117867 -0.160917 0.379500 0.255604 -0.099639 -0.095908 0.185791 0.022929 -0.075120 0.364269 -0.114108 0.047342 -0.284652 -0.162832 -0.009862 -0.166681 0.324112 -0.013198 -0.115046 -0.018609 0.045306 -0.043502 -0.023121 -0.212465
644 0.407154 -0.011580 0.272581 0.685122 -0.499223 0.636167 -0.172614 -0.559549 0.577130 0.470737 -0.035083 0.169392 0.117048 0.067467 0.122644 -0.206600 0.051844 0.231819 -0.120192 0.043076 -0.115732 -0.007663 0.350424 -0.208971 -0.329622 -0.061245 0.096691 0.111390 0.400656 -0.194776 -0.206508 0.205281 -0.214896 -0.142845 0.092298 -0.070828 0.303232 0.101589 0.067365 0.219019 0.101394 -0.207494 0.036803 -0.200440 0.051407 0.074338 -0.307953 -0.200337 -0.545777 -0.364586 0.171732 -0.363474 -0.032243 0.085170 -0.229979 0.140770 0.354462 -0.261223 0.414141 0.073987 -0.199022 0.270442 -0.386946 0.220639 0.317771 -0.501102 -0.293332 0.131453 -0.056167 0.097098 -0.518134 0.192600 -0.123460 -0.151063 -0.160576 -0.025212 0.119211 -0.077992 0.529571 0.431987 -0.021644 0.180233 -0.280260 0.039454 0.124037 -0.008093 -0.071452 -0.088434 -0.234032 0.102005 -0.003710 0.672703 -0.068514 0.324215 -0.123469 0.129669 0.276657 0.065716 -0.143906 -0.073128 -0.337097 0.169451 0.453895 0.134026 0.113249 -0.481308 0.308991 0.326227 -0.200705 0.219280 -0.065533 -0.006904 -0.370786 0.235035 -0.277724 0.124789 -0.275877 0.264320 -0.432852 0.298569 0.180324 0.155788 0.374527 0.398885 -0.140217 0.149229 -0.465690 0.374576
404 -0.214448 -0.632161 0.240131 0.313118 -0.064803 -0.116549 -0.015310 -0.074099 0.109515 0.082770 0.009370 -0.304501 0.334991 -0.115229 0.116151 0.077903 -0.394245 0.214464 -0.210562 0.059710 0.027183 0.159370 0.100338 0.294274 0.211035 0.100741 0.057012 0.248527 -0.069150 -0.196078 -0.630189 -0.112827 -0.588129 -0.033746 0.239088 -0.442366 0.386592 -0.208910 -0.136906 -0.201447 0.057685 -0.277710 0.081551 0.039573 -0.285413 0.120881 0.188243 0.541326 -0.092606 -0.193340 -0.145306 0.458269 -0.018751 0.229451 -0.135805 -0.171250 0.069027 -0.045011 0.424086 -0.122952 0.092399 0.446711 -0.137784 -0.017797 0.002489 -0.165288 0.308342 -0.354519 -0.248285 -0.032290 0.075867 -0.024432 -0.013114 -0.121216 0.414446 0.207919 0.056400 -0.231414 -0.649798 -0.165860 -0.220181 0.497263 0.140248 -0.023684 0.585259 -0.168188 0.328006 -0.228956 -0.165942 0.021396 -0.405854 -0.232011 -0.147976 0.042756 -0.005794 -0.186677 -0.229044 0.011568 0.061914 -0.133542 -0.134976 -0.166201 0.219883 0.026831 0.248805 -0.033016 0.239720 0.212665 0.121636 0.230611 -0.275385 0.128843 -0.126939 0.158520 0.314784 -0.217708 0.092493 -0.057879 0.289484 0.269417 0.083151 0.215934 0.554142 -0.163363 0.092711 0.207662 0.199102 -0.073255
640 0.571407 -0.141782 0.352687 0.901788 -0.614846 0.444414 -0.189587 -0.466607 0.578493 0.418174 -0.049315 0.282079 0.094485 -0.055438 0.156342 -0.165121 -0.071370 0.026838 -0.188092 -0.157379 -0.078222 0.198608 0.168958 -0.434085 -0.170247 0.134497 0.418377 0.059842 0.422071 -0.319165 -0.224148 0.393479 -0.176347 -0.092953 0.003278 -0.072414 0.342439 -0.046257 0.136431 0.455082 0.025996 -0.233450 0.120212 -0.048621 0.151810 0.038124 -0.462403 -0.248152 -0.331162 -0.134518 0.186736 -0.231599 0.000262 0.277907 -0.091864 0.045839 0.377135 -0.199361 0.079182 0.081619 -0.196766 0.131127 -0.431167 0.093218 0.275578 -0.231003 -0.279180 -0.065655 0.096982 -0.075213 -0.661437 0.057192 -0.144537 -0.263096 -0.303178 -0.197931 0.297953 -0.090546 0.494707 0.164083 -0.107707 0.139850 -0.307593 0.106929 0.024951 -0.206857 -0.145098 -0.263119 -0.087171 0.229682 0.078418 0.729708 -0.055058 0.279838 -0.048005 0.220122 0.304559 -0.208971 -0.016958 0.041616 -0.393458 0.307005 0.352922 0.089664 -0.055457 -0.604448 0.242227 0.256646 -0.197035 0.180788 0.009662 -0.040608 -0.201966 0.151026 -0.342769 0.205227 -0.262697 0.189732 -0.329689 0.194822 0.213024 0.339272 0.432378 0.258506 -0.130742 0.068582 -0.474601 0.206248
341 -0.179050 0.010888 -0.022509 0.106232 -0.239610 0.237837 -0.088628 -0.013761 0.214583 -0.383900 0.016264 0.043743 -0.148489 0.106869 -0.207823 0.497925 -0.085405 -0.294559 0.093989 0.010036 0.382861 -0.151315 0.205255 -0.009704 0.191764 -0.037667 0.244873 0.167475 0.573204 0.034132 0.064943 -0.020011 -0.189720 0.360507 0.177889 0.050285 -0.037521 0.094959 -0.026155 0.166444 0.125861 -0.125922 0.111314 -0.322877 0.149566 0.238810 -0.387785 0.157973 -0.126212 0.146194 -0.030495 -0.203378 0.050071 0.267891 -0.184555 -0.072813 0.329779 0.192792 0.438585 -0.033618 -0.354229 -0.201428 0.101714 0.158461 0.364032 0.036372 0.079343 0.003309 0.276564 -0.062149 0.298790 -0.132407 -0.094546 -0.293098 0.045800 0.323301 0.244772 0.462072 -0.057350 0.032354 0.241786 0.183667 -0.221501 0.640055 0.126615 -0.067484 0.249723 -0.264538 -0.146474 -0.084615 -0.039936 -0.083546 -0.086526 -0.260868 -0.138968 0.066465 -0.110767 0.076127 0.153358 0.363997 -0.166509 0.031229 -0.014912 0.421564 0.198698 0.140644 -0.180098 0.211126 -0.028294 0.104687 0.075706 0.081843 0.328442 -0.169994 -0.089720 -0.173989 -0.142077 0.311255 0.075508 0.104921 0.124769 -0.207487 0.264500 -0.227387 -0.375322 0.238801 -0.262308 -0.443794
267 -0.005613 -0.092609 0.110228 0.414409 -0.172035 -0.194841 -0.450958 0.110130 0.029925 0.221677 -0.135306 -0.035533 0.325409 0.020912 0.215721 -0.293065 -0.184779 0.514744 -0.133968 0.274553 -0.108675 0.152500 0.328063 -0.079757 0.314107 0.072698 0.042173 0.305135 -0.127890 -0.332399 -0.363902 -0.003670 0.081497 0.011251 0.016467 -0.385432 0.396796 -0.392191 -0.389456 0.066096 0.227176 -0.262741 0.146002 0.052351 0.123168 0.247731 0.085501 0.081529 -0.234589 -0.468990 -0.120762 0.519496 -0.076734 0.472122 0.375718 0.084471 0.090192 -0.145758 0.504090 -0.069379 -0.153041 0.395871 0.038802 0.294092 0.081025 -0.284270 0.216623 -0.061516 -0.017900 -0.175509 0.488190 -0.173712 0.066636 0.014534 0.386212 0.256014 0.263629 -0.101601 0.076354 -0.364932 0.088081 -0.015593 0.113689 -0.217797 0.316776 -0.137830 0.245337 0.156528 -0.198716 0.043046 -0.287064 -0.322518 -0.143342 -0.074625 -0.345389 -0.143674 -0.581090 0.465467 0.077755 0.333187 0.076763 0.385374 0.457139 0.346429 0.436103 -0.233294 0.511516 0.321792 0.009168 -0.290225 0.174892 0.128785 -0.139895 0.347134 0.074331 -0.255604 -0.172304 -0.154039 -0.061643 -0.196534 0.183226 0.082136 0.001939 0.198462 -0.045339 -0.125275 -0.084469 -0.150847
678 0.383452 0.005953 0.300749 0.829891 -0.483869 0.445563 -0.239047 -0.434723 0.646439 0.419208 -0.147287 0.275504 0.063608 -0.011535 0.117895 -0.108808 -0.025694 0.261208 -0.180781 0.080652 -0.174754 -0.074239 0.227514 -0.270681 -0.247482 -0.039378 0.299027 0.193137 0.438845 -0.452621 -0.132215 0.176651 -0.313976 0.140267 0.063531 -0.078781 0.438180 0.078089 0.169978 0.242170 -0.081250 -0.235763 0.150140 -0.148033 0.010985 0.071042 -0.292054 -0.100556 -0.467673 -0.294953 0.258470 -0.363558 -0.045298 0.107090 -0.162993 0.213716 0.239254 -0.386399 0.152116 0.212357 -0.056966 0.209115 -0.306085 0.240467 0.055260 -0.196080 -0.317290 0.019510 0.154137 0.159808 -0.575745 0.117241 -0.084603 -0.069353 -0.302774 -0.166326 0.274987 0.074773 0.460427 0.288489 0.073398 0.006351 -0.295167 0.027330 -0.075146 -0.099479 -0.038019 -0.306965 -0.184855 0.295013 0.173953 0.545250 -0.024013 0.255771 -0.043310 0.295401 0.144655 -0.073616 0.123654 0.171504 -0.308341 0.064819 0.558066 0.189349 0.020952 -0.489343 0.347029 0.129188 -0.167910 0.156104 -0.057695 -0.119816 -0.341440 0.171481 -0.294440 0.281703 -0.223493 0.299257 -0.548534 0.249412 0.098303 0.193477 0.254275 0.287670 -0.103853 0.200258 -0.461632 0.421638
668 0.501385 -0.337965 0.508502 0.697272 -0.449920 0.434181 -0.216684 -0.445834 0.518854 0.356669 -0.016704 0.288234 -0.081399 0.083283 0.234443 -0.002558 -0.019699 0.297759 0.024034 0.040878 0.028564 -0.092595 0.276294 -0.467162 -0.265388 0.006604 0.380706 0.163969 0.445567 -0.288775 -0.096948 0.224958 -0.518899 0.114908 -0.151124 -0.165988 0.461536 0.038670 0.109705 0.541430 0.080758 -0.087173 -0.023377 0.040777 0.229201 -0.045719 -0.120851 -0.115129 -0.280872 -0.186992 0.337923 -0.279375 -0.175195 0.175485 -0.129605 0.239546 0.101212 -0.467031 0.292202 -0.032230 -0.132348 0.081981 -0.404943 0.108953 0.070636 -0.196530 -0.483440 -0.005659 -0.115541 0.026490 -0.379547 0.125491 -0.149395 -0.178873 -0.245574 -0.140555 0.299089 -0.063525 0.352601 0.350166 -0.007380 0.156911 -0.270717 -0.129398 0.177793 0.051036 -0.036429 -0.133192 -0.214292 0.208732 0.077670 0.624950 -0.056111 0.140714 -0.084074 0.454473 0.211843 -0.114818 -0.043606 0.052851 -0.589364 0.104819 0.372638 0.289286 0.181725 -0.603971 0.294528 0.290759 -0.347892 0.354149 -0.164277 -0.254918 -0.114301 0.146610 0.013746 0.067909 -0.198228 0.310471 -0.556134 0.403739 0.049158 0.383047 0.217165 0.378320 -0.259381 0.351645 -0.375823 0.383152
105 0.520895 -0.181116 0.608188 0.358894 -0.614694 -0.084851 -0.070947 -0.220411 0.465723 0.067227 0.075560 0.711145 0.150669 -0.085074 0.058099 -0.092639 -0.161111 0.277974 -0.104076 0.026486 -0.094443 0.023425 0.252301 -0.206948 -0.309201 0.016392 0.485127 0.155719 0.042429 0.009502 0.405402 -0.057151 -0.123458 -0.099627 0.101538 -0.170969 0.497657 0.500694 0.169049 0.297631 0.139505 -0.124567 0.226761 -0.478206 0.187653 -0.184053 -0.272907 -0.224668 -0.153919 -0.127425 0.067744 -0.052041 -0.060207 0.395371 -0.217391 0.423734 0.362575 -0.275275 0.166438 0.008387 -0.190958 -0.095515 -0.580276 -0.100691 0.032814 -0.480617 -0.603081 -0.000899 -0.141428 -0.215887 -0.169049 0.317967 -0.234241 -0.142242 -0.332896 -0.158459 -0.028469 0.202788 0.042087 0.393340 0.157204 0.159940 -0.694135 0.028803 0.288399 0.081900 -0.161924 0.140826 0.034946 0.039074 -0.298987 0.338977 -0.027344 0.120843 0.309090 0.225779 -0.066839 0.369691 0.087693 0.242030 -0.623504 0.307610 0.032647 0.227268 0.066330 -0.513397 0.127538 -0.034103 -0.359394 0.276613 -0.063591 -0.677826 -0.017689 0.461442 -0.503097 -0.053797 -0.230075 0.114941 -0.593317 0.211626 -0.166207 0.330519 0.272060 0.139781 -0.290028 0.187713 -0.401152 0.256887
568 0.551496 -0.127160 0.546460 0.806212 -0.555978 0.399521 -0.278927 -0.434819 0.566144 0.505209 -0.007245 0.103427 0.066060 -0.096494 0.146849 0.029153 0.002153 0.136448 -0.281545 -0.050840 -0.255379 0.060369 0.295088 -0.309309 -0.274984 0.184206 0.393300 0.377881 0.473801 -0.190437 -0.059057 0.304808 -0.161145 -0.013381 -0.197868 -0.062128 0.387509 0.045671 0.131187 0.629585 0.020961 -0.217090 0.257486 0.029939 0.005468 0.134802 -0.339736 -0.161378 -0.437057 -0.168213 0.271645 -0.365843 -0.136335 0.313829 -0.015867 -0.086310 0.232631 -0.132319 0.174453 0.070426 -0.156114 0.114497 -0.440078 0.056674 0.231912 -0.131808 -0.337772 0.024250 -0.101427 0.115001 -0.505256 0.132968 -0.051070 -0.148924 -0.219064 -0.065914 0.227332 -0.057714 0.303439 0.101122 -0.391726 0.157213 -0.289470 0.068504 0.069617 0.121676 -0.179223 -0.295989 -0.164527 0.118453 -0.016000 0.599223 -0.098240 0.384298 -0.223493 0.356146 0.230485 0.024873 -0.089228 0.293080 -0.329263 0.235609 0.532568 0.098920 0.023148 -0.583824 0.259881 0.207525 -0.246157 0.309137 -0.150857 -0.381263 -0.121198 0.233756 -0.170456 0.227280 -0.351937 0.343283 -0.295104 0.146602 -0.095216 0.406102 0.457871 0.268433 -0.108633 0.360622 -0.469119 0.285181
401 0.411780 -0.298004 0.487967 0.792069 -0.509342 0.575748 -0.267387 -0.536578 0.507518 0.487201 0.124207 0.363226 -0.070521 0.167235 0.148357 -0.222062 0.056723 0.180152 -0.290129 0.091851 -0.006946 0.011803 0.219342 -0.305270 -0.351240 0.068163 0.235919 0.029724 0.431827 -0.279468 -0.146286 0.249307 -0.260263 -0.079148 -0.097902 0.134663 0.370427 0.131700 0.132259 0.306813 0.064774 -0.252118 0.177965 -0.241561 0.159292 0.230566 -0.319209 -0.215522 -0.145299 -0.425275 0.173400 -0.141063 0.105891 0.240158 -0.247020 -0.075131 0.336653 -0.355912 0.230367 0.195010 -0.018407 -0.007651 -0.432629 0.058429 0.074302 -0.281916 -0.384550 0.103804 0.013499 0.047483 -0.389271 0.060009 0.035190 -0.262616 -0.143556 -0.167005 0.205280 -0.041425 0.472835 0.308784 0.075482 0.229977 -0.111964 -0.147305 0.122556 -0.148414 0.120261 -0.207355 -0.183926 0.363398 0.151195 0.446355 0.075230 0.325427 0.027301 0.359240 0.094382 -0.169547 -0.078963 0.130145 -0.432166 0.187934 0.361100 0.213693 -0.042265 -0.498283 0.260690 0.084647 -0.145420 0.239901 -0.220672 -0.040141 -0.328092 0.173736 -0.205997 0.352271 -0.278961 0.102180 -0.524164 0.437252 0.031333 0.363843 0.494781 0.416620 -0.097075 0.280142 -0.445082 0.339724
52 -0.130738 0.364492 0.108866 0.015851 -0.274768 0.164565 -0.295531 -0.132429 0.039168 -0.269804 -0.006558 -0.041762 -0.063941 -0.034418 0.006128 0.440064 -0.001425 -0.224697 0.137390 0.179874 0.338839 -0.051447 -0.010493 -0.157024 0.068296 -0.062751 0.222884 -0.010269 0.301676 -0.196144 0.167271 0.083587 -0.362357 0.299331 0.172246 -0.078645 -0.085695 0.028568 -0.103930 0.163631 0.061991 -0.150751 0.021295 -0.353284 0.242580 0.531512 -0.299514 0.338392 -0.329439 -0.094162 0.062141 -0.083067 -0.028845 0.116054 -0.130380 -0.143018 0.285755 0.275882 0.674206 0.134665 -0.506389 -0.195167 0.074871 0.233733 0.594442 -0.218466 0.057157 0.055019 0.036296 -0.112567 0.182718 -0.156320 -0.241645 -0.152352 -0.081547 0.333072 0.383367 0.112311 0.086467 -0.037493 0.197877 0.091360 0.033201 0.470630 0.236540 -0.162482 0.090882 -0.038313 -0.065589 -0.045966 -0.002181 -0.125918 -0.124010 -0.190566 0.142664 -0.041566 -0.025591 -0.081608 0.349149 0.260385 -0.007323 0.039969 0.155993 0.571169 0.137384 0.143597 -0.105467 0.087953 -0.094392 -0.078939 -0.230488 0.065986 0.438962 -0.137954 -0.125372 -0.241226 -0.015085 0.168681 0.085115 0.253998 0.014643 -0.422650 0.498455 -0.189442 -0.315890 0.163997 -0.111842 -0.270712
159 0.656831 -0.110181 0.346962 0.769133 -0.443345 0.415466 -0.231493 -0.458805 0.482793 0.615279 0.250120 0.292119 -0.045809 0.056445 -0.062402 -0.215367 0.124710 0.103749 -0.266785 0.005575 -0.155588 -0.150000 0.255057 -0.364493 -0.328425 0.195884 0.244513 0.221587 0.623419 -0.348789 -0.075700 0.353666 -0.336152 -0.013141 0.011541 -0.133654 0.241349 0.092934 0.068323 0.519837 0.184629 -0.297401 0.086967 0.069147 0.307069 0.094545 -0.122055 -0.177108 -0.420390 -0.504802 0.219272 -0.243818 -0.001601 0.096805 -0.232274 -0.112656 0.238423 -0.386850 0.117084 0.127823 -0.151330 0.089071 -0.433787 0.045234 0.050936 -0.321694 -0.363457 0.121583 -0.002055 0.177914 -0.236579 0.311741 -0.240947 -0.265979 -0.251485 -0.146998 0.290083 -0.129675 0.459444 0.400646 -0.196834 -0.041079 -0.266927 -0.052647 0.005044 0.207212 -0.135256 -0.130285 -0.138120 0.196490 0.014896 0.788821 0.024851 0.387277 -0.056033 0.334800 0.084394 0.066872 -0.000556 0.114154 -0.387564 0.163880 0.365037 0.256500 -0.125919 -0.469265 0.139040 0.264856 -0.187616 0.244791 -0.188422 -0.153289 -0.205364 0.221911 -0.161075 0.368676 -0.232925 0.314812 -0.506853 0.211840 -0.011122 0.323116 0.350228 0.387050 -0.038288 0.193668 -0.448298 0.149779
325 -0.196004 0.223609 0.052670 0.074711 -0.189463 0.281611 -0.283425 -0.160008 0.141391 -0.233550 0.030029 -0.050453 -0.107817 0.123134 -0.220802 0.396796 -0.000567 -0.230644 -0.069479 -0.009138 0.392135 -0.098167 0.298740 -0.200095 0.117241 -0.031271 0.352285 0.005301 0.366475 0.029602 -0.069998 0.101236 -0.262710 0.214843 0.140229 0.162945 -0.204679 -0.152927 -0.072794 0.232866 0.038008 -0.351786 0.118353 -0.386640 0.222262 0.329178 -0.410500 0.238616 -0.095120 0.069690 0.061505 -0.027331 -0.021775 0.193935 0.007965 -0.253211 0.187092 -0.067971 0.457073 -0.079933 -0.468917 -0.123482 0.044562 0.230865 0.553817 -0.029720 0.027175 0.033227 0.189866 -0.100519 0.208078 0.046672 -0.163511 -0.095898 0.016325 0.205586 0.321687 0.055523 0.065980 -0.206743 0.114263 0.112067 0.020947 0.524457 0.214424 0.054248 0.171853 -0.051355 -0.152256 -0.067573 0.067858 -0.298271 -0.289337 -0.204605 -0.002032 -0.064089 -0.266352 0.108796 0.155819 0.353804 -0.153113 0.111749 0.242226 0.260619 0.028276 -0.043913 -0.264643 0.198603 -0.076852 0.035192 -0.024227 0.018309 0.344914 -0.303675 0.035322 -0.035546 -0.037820 0.086247 0.186895 0.119808 -0.182119 -0.177430 0.338052 -0.158745 -0.396199 0.254386 -0.309806 -0.332419
365 0.520097 -0.211297 0.449188 0.758464 -0.516771 0.424234 -0.193081 -0.530261 0.678037 0.440076 0.041281 0.267535 -0.187178 -0.057641 0.183964 -0.192415 -0.096217 0.241733 -0.126063 0.047678 -0.106786 -0.103269 0.385667 -0.382751 -0.277784 0.084281 0.482694 0.351056 0.522256 -0.179645 -0.007823 0.414641 -0.129349 0.000786 0.000457 0.021105 0.386677 0.057594 0.107512 0.328983 0.047493 -0.227126 -0.019122 -0.203093 0.134938 0.129474 -0.036436 -0.092365 -0.223725 -0.266062 0.240271 -0.228435 -0.073557 0.376088 -0.136154 0.123300 0.348443 -0.440975 0.394967 0.194122 -0.134438 0.107423 -0.494692 0.034115 0.291622 -0.176158 -0.364625 0.081826 0.079761 -0.028229 -0.554593 -0.013898 -0.181719 -0.257137 -0.215388 -0.111625 0.282195 -0.148278 0.505577 0.298955 -0.051782 0.160424 -0.294293 -0.022104 -0.032395 -0.102851 0.008436 -0.181277 -0.226815 0.419678 0.158780 0.538707 -0.074840 0.326302 -0.025894 0.258698 0.198400 0.047750 -0.116052 0.181666 -0.549940 0.199598 0.432162 0.139722 0.193516 -0.548356 0.328039 0.325053 -0.167651 0.271797 -0.072243 -0.271112 -0.459415 0.115340 -0.100913 0.209928 -0.308213 0.280190 -0.709280 0.403502 0.088817 0.244281 0.411942 0.315423 -0.214129 0.307955 -0.412007 0.442018
642 0.605551 -0.054058 0.369240 0.567339 -0.448163 0.346115 -0.285575 -0.444833 0.570376 0.423040 -0.014303 0.171792 0.068079 0.102084 0.058361 -0.073578 0.020953 0.433131 -0.062941 -0.014099 -0.200318 -0.058377 0.050933 -0.374630 -0.261785 0.032542 0.284614 0.217402 0.521567 -0.279036 -0.019059 0.308688 -0.196421 -0.040687 0.079150 -0.134292 0.356211 0.125170 0.343837 0.530569 -0.078494 -0.330782 0.028233 -0.105738 0.076682 -0.115871 -0.226693 -0.100278 -0.265927 -0.163811 0.416505 -0.359288 -0.206786 0.274041 -0.106353 0.227622 0.166522 -0.177814 0.141804 -0.080812 -0.210509 0.079545 -0.514346 0.025641 0.069926 -0.398761 -0.336899 -0.160067 -0.285059 -0.006032 -0.561824 0.287627 -0.242255 -0.128530 -0.136312 -0.131104 0.238531 -0.093321 0.386763 0.279159 -0.092297 0.054639 -0.275319 0.336461 -0.097018 0.076050 0.091265 -0.225685 -0.211564 0.203908 0.067475 0.652458 -0.020684 0.401156 -0.074601 0.161096 0.187885 0.006495 -0.107004 0.090176 -0.539769 0.208715 0.390690 0.284700 0.031220 -0.441691 0.324661 0.321842 -0.278251 0.148214 0.041108 -0.307885 -0.325250 0.059967 -0.274573 0.139768 -0.418720 0.241792 -0.517162 0.349979 -0.045424 0.323833 0.362314 0.150143 -0.096159 0.052854 -0.367895 0.388166
531 0.161307 0.058372 0.060132 0.580397 -0.192862 -0.105597 -0.462410 0.041270 -0.034288 0.050348 0.075533 -0.065572 0.188465 -0.105358 -0.058093 -0.093980 -0.272493 0.660668 0.105039 0.142135 -0.089885 0.079133 0.471534 -0.133453 0.425031 0.242725 0.193243 0.208372 -0.254927 -0.336964 -0.155016 -0.067266 0.021354 0.209196 -0.120796 -0.176920 0.405649 -0.597272 -0.439373 0.057591 0.313869 -0.071012 0.179929 0.263878 0.235767 0.049982 -0.072703 -0.040823 -0.115354 -0.395659 0.003642 0.292591 -0.129879 0.550856 0.438463 0.268947 -0.099698 0.005937 0.385355 -0.070629 -0.136496 0.553969 0.044046 0.183304 0.147614 -0.282402 0.114798 -0.089461 -0.072543 -0.131068 0.336291 -0.276430 0.138537 0.000998 0.123631 0.224038 0.231555 -0.012470 0.231872 -0.296463 0.177768 0.017825 0.138070 -0.117750 0.322470 -0.007916 0.246681 0.192137 -0.160565 -0.062737 -0.345844 -0.326165 -0.304944 -0.241337 -0.217097 -0.206406 -0.544507 0.117048 -0.009051 0.098935 0.093330 0.268455 0.464762 0.378649 0.174683 -0.163138 0.648215 0.441475 -0.077408 -0.213758 0.157131 0.058331 -0.109822 0.251985 -0.007583 -0.095644 -0.390241 -0.214230 -0.121144 -0.222090 0.249430 0.197800 -0.159832 0.048788 -0.034130 -0.059132 0.080492 -0.138516
376 0.489431 -0.227351 0.281517 0.715057 -0.398988 0.305722 -0.215540 -0.488201 0.559259 0.363438 0.032378 0.260471 -0.110289 0.098207 0.028519 -0.235012 -0.013628 0.251375 -0.047482 -0.004312 -0.217015 0.059614 0.370230 -0.104978 -0.245122 -0.004834 0.297442 0.200003 0.276929 -0.285910 -0.235304 0.340317 -0.094591 -0.042916 -0.027855 0.030527 0.332572 0.076361 -0.076133 0.255143 0.134759 -0.174430 0.133155 -0.176338 0.102239 0.174393 -0.199368 -0.095083 -0.307140 -0.180263 0.229301 -0.317224 -0.114883 0.421726 -0.177682 0.083914 0.242746 -0.330867 0.384097 0.007419 -0.089038 0.169598 -0.465581 0.093878 0.178714 -0.222591 -0.283770 0.082836 0.005529 -0.122357 -0.553577 0.086025 -0.150457 -0.296950 -0.403345 -0.129644 0.280664 0.059524 0.321129 0.251442 -0.074071 0.220579 -0.286153 0.167420 0.007212 -0.098973 -0.034832 -0.116085 -0.233966 0.068958 0.018943 0.568975 0.129729 0.211874 -0.142077 0.200685 0.121440 -0.060848 -0.137543 0.121054 -0.407845 0.219848 0.319561 0.071445 -0.087735 -0.677733 0.274572 0.320319 -0.238936 0.228236 0.035027 -0.036987 -0.385814 -0.019540 -0.140868 0.071613 -0.303940 0.255760 -0.468198 0.373618 0.138894 0.350192 0.213448 0.318189 -0.086813 0.266524 -0.597439 0.180123
705 0.237007 0.003540 -0.081867 0.366148 -0.088764 -0.430363 -0.397061 -0.018168 0.068951 0.395822 -0.158782 -0.156498 0.262529 -0.047381 0.017473 -0.219609 -0.308186 0.472122 -0.164788 0.016937 -0.290341 0.057608 0.455317 -0.188715 0.297892 0.068960 0.166109 0.286477 -0.252960 -0.312893 -0.234687 -0.179980 0.175445 -0.044913 -0.056829 -0.171621 0.615542 -0.634045 -0.338421 -0.009477 0.045734 -0.182746 0.093622 0.082748 0.011527 -0.005678 -0.216733 -0.245240 -0.426454 -0.388442 -0.058210 0.495427 -0.101242 0.521767 0.324474 0.036658 0.232919 -0.162819 0.392652 -0.266978 -0.051652 0.493195 -0.033495 0.261254 -0.083691 -0.099098 0.264527 -0.412438 0.193815 -0.223285 0.362321 -0.011847 0.082104 0.035204 0.173891 0.366256 0.021719 -0.073119 0.263649 -0.277534 0.200415 -0.022522 0.222710 -0.081931 0.307498 -0.229142 0.237904 0.118143 -0.078312 0.012402 -0.172734 -0.389680 -0.432466 -0.169427 -0.280347 0.054266 -0.401077 0.308668 0.064106 0.236394 0.111262 0.482816 0.430733 0.282588 0.346598 -0.209236 0.585140 0.102687 -0.076385 -0.074449 0.245461 -0.000722 -0.081779 0.347865 0.037468 0.001612 -0.302806 0.019824 -0.146312 -0.268573 0.241818 0.220974 0.106188 0.202691 0.037460 -0.166999 -0.024757 -0.008062
437 -0.193325 0.138127 -0.001257 0.094063 -0.355567 0.027351 -0.341206 -0.185423 0.166825 -0.297594 0.080966 -0.041916 -0.096685 0.144461 -0.123502 0.317294 -0.036714 -0.276436 0.125343 0.199238 0.372452 -0.162568 0.188540 -0.030444 0.176036 -0.171022 0.182175 0.158539 0.529016 -0.105351 0.049359 -0.028772 -0.224096 0.295319 0.173234 -0.018615 -0.106603 -0.133414 -0.076954 0.281654 0.108388 -0.216501 -0.018892 -0.454980 0.227527 0.339133 -0.266240 0.163317 -0.312942 0.008041 0.130773 -0.102870 -0.027741 0.252877 -0.044345 -0.061900 0.402114 0.108186 0.534805 -0.032382 -0.501013 -0.322852 0.090482 0.252820 0.497486 0.024544 0.124035 -0.033382 0.327872 -0.182391 0.222336 0.054352 -0.152738 -0.123537 0.167400 0.336220 0.275990 0.110341 -0.103976 0.101635 0.108441 0.017126 0.076280 0.310544 0.313153 0.124818 0.133313 -0.176848 -0.155292 0.111092 -0.003102 -0.078540 -0.042119 -0.194137 0.038407 -0.155476 -0.176482 0.102904 0.259308 0.270034 -0.230206 0.045636 0.166693 0.391718 0.060280 -0.207536 -0.179936 0.134247 -0.173141 0.073834 -0.068634 -0.024213 0.419430 -0.176880 0.045043 -0.120898 -0.015481 0.049988 0.382038 0.083322 -0.078231 -0.200493 0.463708 -0.022148 -0.252099 0.189488 -0.147287 -0.362769
354 0.562489 -0.125977 0.468942 0.624144 -0.468637 0.532963 -0.195817 -0.445316 0.628192 0.421534 0.045196 0.111856 -0.060259 0.288948 0.062967 -0.139880 -0.089608 0.279794 -0.078749 0.021808 -0.208045 -0.174450 0.269332 -0.336982 -0.100810 -0.042702 0.212950 0.239476 0.490847 -0.262066 -0.033126 0.361146 -0.211894 0.013513 -0.059154 0.057656 0.458024 0.200292 0.053625 0.414185 0.023703 -0.130538 -0.007982 0.025969 -0.085171 0.065773 -0.194205 -0.167263 -0.464564 -0.442150 0.348498 -0.348658 -0.054952 0.075383 -0.044666 0.206089 0.202811 -0.277217 0.294553 -0.017033 -0.111423 0.041612 -0.337228 0.000111 0.146148 -0.231791 -0.430279 0.210218 0.031014 -0.012515 -0.475522 -0.034139 -0.134143 -0.202729 0.076936 -0.111631 0.278372 -0.077330 0.518336 0.332300 -0.069792 -0.003732 -0.234899 0.038058 -0.029359 0.207316 -0.125483 -0.155148 -0.424363 0.231352 0.211542 0.550726 -0.080706 0.375065 -0.129857 0.160126 0.186890 -0.219751 -0.111180 0.021370 -0.521722 0.235790 0.402121 0.187426 0.104676 -0.484995 0.330523 0.281710 -0.196467 0.250381 -0.153979 -0.242965 -0.282469 0.070661 -0.164871 0.102999 -0.133490 0.196380 -0.575049 0.453976 0.057485 0.304214 0.185263 0.408126 -0.246295 0.140065 -0.343127 0.306916
346 0.063063 0.076353 0.062268 0.466723 -0.199497 -0.133569 -0.315196 0.049486 -0.021486 0.051654 0.130291 -0.111023 0.204969 -0.033667 0.146311 -0.205195 -0.261172 0.453459 0.145187 0.337260 -0.091432 -0.049427 0.396924 -0.146595 0.412140 0.289459 0.033770 0.246070 -0.380531 -0.526795 -0.338171 0.054891 -0.056282 -0.024359 0.018382 -0.276262 0.471199 -0.601078 -0.388846 0.048987 0.237593 -0.036698 0.254989 0.098722 0.073270 0.140602 -0.125911 -0.403063 -0.456196 -0.387985 0.083904 0.173865 0.072695 0.559250 0.307931 0.169764 -0.080823 -0.192127 0.448701 -0.123836 -0.051299 0.548927 -0.051571 0.263436 -0.067547 -0.177517 0.085123 -0.096980 -0.080860 -0.262682 0.304721 -0.151082 0.079229 0.073141 0.306501 -0.018076 0.225300 -0.069069 0.293596 -0.231461 0.118262 0.073996 0.002471 -0.184025 0.182347 -0.117944 0.424495 0.199704 -0.231541 -0.020894 -0.461369 -0.182393 -0.437012 0.019131 -0.238381 -0.125301 -0.409589 0.224777 0.261845 0.361756 0.098669 0.430653 0.231149 0.342858 0.145346 -0.183998 0.502872 0.283667 -0.109120 -0.168375 0.223498 -0.013664 -0.043349 0.407911 -0.070426 0.049400 -0.253736 -0.131474 0.040951 -0.200062 0.180988 -0.031500 -0.209913 -0.048776 -0.103647 -0.067967 -0.052891 -0.059138
125 -0.200467 0.342300 -0.124062 0.035545 -0.310153 -0.080388 -0.170308 -0.106578 0.148869 0.069290 0.205520 -0.163583 -0.251684 0.083436 -0.095321 0.334121 0.024631 -0.233675 -0.444950 -0.192685 0.498145 -0.203923 0.240478 -0.383580 0.039236 0.664018 0.098086 -0.063407 0.148908 0.107701 -0.059617 -0.047219 -0.443190 -0.107181 -0.080407 -0.158830 -0.038825 -0.065657 0.047552 -0.018189 0.094220 -0.026016 0.257540 0.070650 0.000806 0.409271 -0.683888 0.072586 -0.037153 0.043903 0.076510 0.027068 0.310737 0.021236 -0.093233 0.006362 0.264362 0.174769 -0.023341 0.081967 -0.072904 -0.274243 0.158630 0.095062 0.397613 -0.032597 0.023524 -0.044480 0.142208 -0.207971 0.360977 0.182873 -0.337290 0.057359 -0.089192 0.502641 0.128903 0.304842 -0.129448 0.071919 -0.100127 0.528184 0.073774 0.293842 0.212069 0.110216 0.117744 -0.237510 -0.202096 -0.419769 0.198779 0.060339 0.019990 -0.269155 -0.041940 -0.279917 -0.433664 -0.040974 0.064841 -0.166365 -0.111924 0.089265 0.217041 0.259660 0.007937 0.087467 0.106313 0.192773 -0.454989 -0.284493 -0.229814 0.087742 0.078390 -0.405372 -0.225691 -0.282086 0.195631 0.138315 0.083402 0.268678 -0.182664 -0.158385 0.101098 -0.283150 -0.512924 0.266393 -0.221061 -0.070863
496 -0.165462 -0.309528 0.274061 0.503810 -0.100201 0.427742 -0.156129 0.224599 0.073948 0.107270 0.043053 0.133412 0.192054 0.033714 -0.146593 0.006444 -0.096618 0.409332 -0.244388 0.263747 0.173489 0.437975 0.209100 -0.055129 0.328992 0.666385 -0.089295 0.093243 -0.171865 0.114127 -0.210519 -0.209785 -0.264140 -0.117555 0.087500 0.010621 -0.006105 -0.026437 -0.171700 -0.118935 -0.017851 -0.028529 0.587245 0.069146 0.057154 0.298818 0.260410 -0.082510 -0.080558 -0.423276 0.238192 -0.156177 -0.029167 -0.262662 -0.424194 -0.018056 -0.128687 -0.232972 0.309158 -0.437906 -0.051000 0.195726 0.030272 0.216365 0.222460 0.066238 -0.196942 -0.188735 0.316884 -0.279972 -0.010618 -0.119728 -0.006752 0.112546 -0.010730 0.271394 -0.101739 0.087063 -0.097718 -0.010053 0.355781 0.403102 -0.451703 0.170148 -0.122154 0.083361 -0.044241 -0.283954 0.103166 -0.160732 0.016430 0.025304 0.192144 0.021277 -0.490599 -0.002998 0.009336 0.004861 0.138870 -0.097326 -0.033427 -0.183754 0.682598 0.167193 0.336071 0.102582 0.192920 0.169165 0.483656 -0.415592 -0.327280 -0.465861 0.021192 0.382673 -0.222104 0.115116 0.058027 0.022470 0.164877 0.105049 -0.109689 0.044050 0.078985 0.123487 0.358802 -0.085125 -0.213245 -0.046023
550 0.266507 -0.093906 0.214745 0.453711 -0.105733 -0.197173 -0.394030 -0.111468 0.014257 0.163769 -0.103703 -0.073029 0.194416 -0.132791 -0.042181 -0.241803 -0.491134 0.468932 -0.019720 0.142982 -0.077340 -0.079961 0.592367 -0.195220 0.187335 0.175570 0.121420 0.178230 -0.147182 -0.243101 -0.358662 -0.127247 0.028777 0.108662 -0.095731 -0.371766 0.574272 -0.531701 -0.599224 -0.002704 0.175345 -0.112360 0.111409 0.045282 -0.057895 0.124690 -0.306551 -0.261321 -0.228133 -0.348571 0.021945 0.323499 -0.186216 0.502485 0.281084 0.164772 -0.022522 -0.094157 0.257917 -0.248758 -0.135375 0.586896 -0.054790 0.339301 0.051575 -0.362717 0.234819 -0.180060 -0.046007 -0.343005 0.442322 -0.228838 -0.073526 -0.037633 0.314036 0.031505 0.236729 0.045230 0.135662 -0.051113 -0.019893 -0.019861 0.123631 -0.121625 0.440652 -0.067228 0.258986 0.174661 -0.013338 -0.138278 -0.331568 -0.303711 -0.347193 -0.113182 -0.141134 0.024590 -0.451286 0.173475 -0.071933 0.206696 0.197798 0.624188 0.302978 0.233435 0.171442 -0.302530 0.586780 0.281575 -0.070905 -0.241685 0.169702 -0.089212 -0.167766 0.323198 0.076168 0.010824 -0.359567 -0.325665 -0.062334 -0.138796 0.262359 0.112043 -0.081726 0.169454 -0.009489 -0.111959 0.089163 -0.223057
240 -0.109861 -0.232127 0.032080 0.092484 -0.261394 0.247809 0.087430 -0.153615 0.070830 -0.423914 -0.017709 -0.035381 -0.012443 0.296772 -0.294195 0.279744 -0.029734 -0.135527 0.109818 -0.026005 0.386846 -0.104042 0.288280 -0.288685 0.111231 0.331956 -0.024504 0.330193 0.326047 -0.100427 -0.542546 0.012616 -0.338546 0.079928 -0.183119 0.136540 -0.325565 0.482643 -0.126439 0.092367 0.287740 -0.133260 -0.134552 -0.671864 0.272076 0.373392 -0.384525 0.160357 -0.232194 -0.106288 0.021926 -0.220938 0.005447 0.303774 -0.005753 0.152086 0.249014 -0.011694 0.098702 0.145173 -0.380219 -0.177652 -0.095646 -0.135566 0.452093 -0.379852 0.274998 -0.202759 0.427350 -0.120328 0.357401 0.119902 -0.153946 -0.091804 -0.454699 0.572663 -0.030064 0.506904 0.120388 -0.185561 0.205735 0.111916 -0.286210 0.496834 0.243862 -0.122405 0.393096 0.071754 -0.350343 0.061510 -0.060362 0.016867 -0.079171 -0.169935 -0.070276 0.056699 -0.021303 0.234998 -0.050875 -0.097564 -0.305024 0.065429 0.217702 0.536884 0.021194 -0.179643 0.055204 0.290742 0.054629 -0.491435 0.122883 0.140886 0.276185 -0.094224 -0.130164 -0.015979 0.176853 -0.067443 0.252759 0.013526 -0.069306 -0.054077 0.162748 0.162153 -0.246950 0.282147 -0.022008 -0.382158
237 -0.041075 -0.039384 0.270950 0.378913 0.043574 -0.226374 -0.670255 0.003349 0.213025 0.140898 0.040147 -0.048146 0.341546 -0.069392 0.102969 -0.173772 -0.584652 0.544052 -0.323756 0.189054 -0.035703 0.029631 0.521181 -0.252630 0.226010 -0.091635 0.380426 0.128091 -0.117398 -0.052086 -0.563988 -0.224067 -0.336295 0.144578 0.367669 -0.333989 0.359058 -0.265910 -0.089134 0.043601 0.327079 -0.138162 0.060317 -0.005295 -0.433354 0.070354 0.207516 0.079368 0.044867 -0.202592 0.018018 0.240413 -0.090007 0.047338 0.070869 -0.127265 -0.168626 0.343045 -0.092330 -0.158740 -0.589484 0.394851 0.227338 0.194741 0.062203 0.115476 0.295218 -0.669108 0.309712 -0.271142 0.137073 0.235152 0.052350 -0.246427 0.187718 0.343183 0.456058 -0.405123 -0.070835 -0.491076 0.135559 0.225792 0.240922 -0.077134 0.334285 0.110268 0.019405 -0.101957 0.024824 0.338222 -0.399086 -0.088434 -0.005317 -0.179260 -0.029263 -0.271630 -0.171766 0.327187 -0.303694 -0.166401 -0.290859 0.074833 0.214569 0.310364 0.110113 -0.081757 0.457495 0.369237 -0.054054 0.111993 0.239543 -0.108400 0.246719 0.317438 0.310052 -0.019564 -0.071725 -0.209110 -0.260530 -0.295073 0.263477 -0.184341 -0.005148 -0.133701 0.026358 0.093887 -0.085855 0.001275
207 -0.310486 0.265609 -0.207759 0.174640 -0.421474 -0.159341 0.015489 -0.231037 0.088901 0.134138 0.352920 -0.101342 -0.078820 0.225566 0.031995 0.266188 -0.126606 -0.329809 -0.325180 -0.118274 0.549778 -0.045045 0.233263 -0.272491 -0.067604 0.630455 0.189621 0.146081 0.230825 -0.006972 -0.294734 0.024615 -0.146001 0.168012 -0.044839 -0.323594 -0.063110 -0.135966 0.106224 -0.117936 0.235147 -0.123659 0.151332 -0.287210 -0.120850 0.367670 -0.341888 0.016830 0.103041 0.192063 0.053044 0.101740 0.195379 0.143690 0.003692 -0.086102 0.335445 0.276281 0.059907 0.132589 -0.297938 -0.177969 0.073957 0.174826 0.378432 0.023394 -0.003649 -0.188113 0.204728 -0.223603 0.184392 0.141076 -0.210116 -0.044982 -0.097200 0.364706 -0.058023 0.203901 -0.007336 0.014548 -0.093780 0.362954 0.072597 0.255434 0.232407 0.150054 0.092099 -0.141015 -0.338339 -0.375966 0.291571 0.100550 -0.009161 -0.269476 -0.078740 -0.270365 -0.421066 -0.045192 0.046972 -0.218961 0.165706 0.037334 0.345014 0.248237 -0.065940 -0.234828 0.089427 0.158210 -0.538594 -0.231090 -0.076847 -0.031256 0.157389 -0.440349 -0.201450 -0.254041 0.259155 -0.015332 -0.059561 0.047031 -0.443682 -0.351457 0.234385 -0.250984 -0.158612 0.186107 -0.198108 -0.217690
135 0.495857 -0.071165 0.292109 0.855968 -0.492362 0.355059 -0.205733 -0.445648 0.643327 0.379643 -0.062844 0.252187 0.149068 0.049335 0.025479 -0.182786 -0.124005 0.215191 -0.028304 0.020855 -0.137897 0.045829 0.203453 -0.237649 -0.254902 0.087234 0.220838 0.158001 0.430218 -0.237789 -0.171130 0.342774 -0.202462 0.083524 0.083527 -0.132167 0.376258 0.034545 0.220117 0.400050 -0.104323 -0.309529 0.142624 -0.108369 0.047185 0.158856 -0.156404 -0.008821 -0.357650 -0.197815 0.375797 -0.295728 -0.073994 0.214121 -0.138226 0.107349 0.303166 -0.228937 0.465820 0.082917 -0.002899 0.172741 -0.418180 -0.067470 0.040192 -0.363724 -0.283118 -0.073598 -0.036721 -0.151367 -0.573008 0.226386 -0.176011 -0.170756 -0.158603 -0.150456 0.290930 0.061721 0.430238 0.349964 -0.210791 0.160855 -0.257743 0.193417 0.107176 0.096299 -0.074630 -0.222910 -0.181821 0.213772 0.055174 0.665878 0.087299 0.338445 -0.097841 0.228206 0.109364 0.022084 -0.122802 0.055247 -0.503142 0.106905 0.428949 0.063925 -0.092089 -0.619440 0.310751 0.211935 -0.174266 0.244720 -0.098493 -0.410537 -0.358329 0.128933 -0.249036 0.153506 -0.227657 0.351657 -0.550849 0.313313 0.092645 0.263638 0.393932 0.334802 -0.038056 0.269482 -0.431513 0.425764
120 -0.008851 -0.249621 0.452313 0.418637 -0.163497 0.129335 -0.221042 0.324787 0.007980 0.158131 -0.097319 -0.010482 0.324493 0.016177 -0.344981 0.081732 -0.251764 0.278860 -0.395993 0.148395 0.017771 0.295755 0.124593 -0.302354 0.498072 0.443011 -0.164483 0.032747 0.010772 0.138859 -0.095537 0.062241 -0.250276 0.000485 0.353093 -0.167785 0.115417 0.184832 -0.232408 0.053036 0.048508 0.001395 0.645236 0.058414 0.075885 0.106873 0.147726 -0.015955 0.015844 -0.356684 0.113113 0.069846 -0.023299 -0.386704 -0.319688 -0.117481 -0.073678 -0.211483 0.198451 -0.505010 -0.226997 0.359783 0.107500 -0.009910 0.208826 0.111883 -0.317087 -0.253383 0.093504 -0.221320 0.220862 -0.040702 -0.090289 0.093002 0.084214 0.306611 0.075423 -0.164233 -0.228348 0.049108 0.416497 0.503340 -0.375664 0.162560 -0.137940 0.105853 -0.085195 -0.360374 0.173529 -0.208292 -0.047053 0.159196 0.167790 -0.205603 -0.600040 -0.240800 -0.228860 0.038238 0.113110 -0.033297 -0.088604 0.028887 0.398977 -0.044598 0.475151 -0.173331 0.005281 0.120466 0.493653 -0.338633 -0.087155 -0.313779 -0.025007 0.328473 -0.292959 0.302907 -0.156654 -0.117240 0.154209 -0.045520 0.200431 0.046286 0.022036 0.233779 0.280507 -0.234309 0.087285 -0.037335
31 -0.246118 0.288133 -0.225482 0.137054 -0.661402 -0.155689 -0.017140 -0.262440 0.286104 0.075106 0.126201 0.233061 -0.237157 0.292266 0.278203 0.205196 -0.055062 -0.233710 -0.357228 -0.251000 0.407399 -0.069961 0.130299 -0.405215 0.290810 0.567659 0.150101 0.006130 0.199315 0.081271 -0.121185 -0.070005 -0.328289 0.138020 -0.247955 -0.142597 -0.029436 -0.178858 0.178301 -0.073587 0.124750 -0.170063 0.222294 -0.034911 0.038751 0.371909 -0.657025 0.018529 -0.050045 0.152184 0.056482 0.095756 0.319858 0.004521 -0.153752 0.208523 0.293722 0.238527 0.051250 0.150749 -0.118459 -0.135085 0.017287 0.150159 0.291419 0.135024 -0.025949 -0.085548 0.153642 -0.028840 0.265110 0.162573 -0.162327 -0.192486 -0.034897 0.584040 -0.011809 0.437488 -0.030302 0.046894 -0.051867 0.262317 0.089953 0.436879 0.115117 -0.096051 0.144443 -0.173757 -0.333594 -0.495074 0.255285 0.082237 0.081621 -0.321026 -0.121255 -0.237413 -0.095777 0.050997 0.345503 0.016698 0.064711 0.107203 0.397285 0.241794 0.073322 -0.136132 0.180284 0.166417 -0.516728 -0.146928 0.035007 0.211507 -0.072461 -0.379512 -0.405303 -0.230697 0.220892 0.136607 0.188630 0.100224 -0.274148 -0.274469 0.169069 -0.280635 -0.286393 0.081815 -0.189863 0.045304
697 -0.102516 -0.557788 0.139416 0.395144 -0.211178 0.179802 -0.334325 0.015213 0.037050 0.271657 -0.154486 0.171706 0.082353 -0.114323 -0.256266 -0.019031 -0.273745 0.394568 -0.232242 0.285835 0.015250 0.221476 0.117930 -0.129289 0.494038 0.442374 0.186979 0.527626 -0.072454 -0.022187 -0.143789 -0.063584 -0.392198 0.148545 0.234796 -0.158398 0.051247 0.068655 -0.265755 0.028065 0.374082 0.134403 0.471600 0.241830 0.066967 0.151600 0.414494 0.104393 -0.038085 -0.322132 0.167321 0.034217 -0.138509 -0.440261 -0.314271 -0.024586 -0.204993 -0.086318 0.324600 -0.333491 -0.047761 0.082187 0.204882 0.083352 0.055129 0.088409 -0.170682 -0.259761 0.236339 -0.074099 -0.010344 -0.025138 -0.073732 0.086379 -0.086387 0.415668 0.000327 0.028322 -0.047297 -0.038391 0.379156 0.445168 -0.077310 0.199490 0.026186 0.078631 0.032181 -0.267753 0.260008 -0.155291 0.036667 -0.176413 0.418254 -0.246365 -0.351691 0.038440 -0.055148 -0.172273 0.060889 -0.108470 -0.249095 -0.055006 0.607140 -0.005513 0.337670 -0.060927 0.291821 0.165402 0.397482 -0.340139 -0.460191 -0.342887 0.095219 0.357598 -0.211894 -0.022213 -0.294702 -0.097250 0.375704 0.214175 0.074554 0.460686 -0.197003 0.167182 0.368358 0.096024 -0.172126 0.026253
60 0.524223 -0.304152 0.309596 0.857600 -0.487001 0.672317 -0.077252 -0.472212 0.615039 0.307403 0.003683 0.208502 -0.115319 0.094252 0.307883 -0.185751 -0.310363 0.311775 -0.061599 -0.108279 -0.105456 0.038575 0.312244 -0.394986 -0.393364 0.141408 0.331789 0.249512 0.532402 -0.202034 0.025383 0.241967 -0.060726 0.048178 -0.125277 -0.058180 0.471533 0.142980 0.112538 0.520260 0.101361 -0.314286 0.169439 -0.167563 0.163832 0.262300 -0.212243 -0.186276 -0.167501 -0.178550 0.458051 -0.152848 0.069574 0.309142 0.026859 0.285329 0.199876 -0.246136 0.214130 0.245530 -0.077942 0.138869 -0.469271 0.072863 0.181916 0.020535 -0.343372 0.106543 0.050838 0.162642 -0.607362 0.043425 -0.143120 -0.180999 -0.001694 -0.061753 0.207188 -0.173837 0.376488 0.309116 -0.102169 -0.015255 -0.061398 0.136519 0.077088 -0.032884 -0.010715 -0.187709 -0.137873 0.347726 0.221719 0.570294 0.023207 0.321229 -0.103409 0.161971 0.125759 -0.174460 0.109169 0.085061 -0.409629 0.106446 0.524340 0.126173 -0.010552 -0.515351 0.283678 0.096196 -0.323861 0.257333 0.021312 -0.168930 -0.103073 0.217167 -0.103325 -0.011003 -0.313666 0.036369 -0.331017 0.506701 -0.025351 0.291023 0.600475 0.188019 -0.417834 0.313300 -0.459814 0.302775
187 -0.036806 -0.026638 -0.122059 0.185270 -0.037331 0.036629 -0.195809 -0.224183 0.169416 0.375208 -0.253727 0.164806 0.515872 -0.161105 0.194016 -0.224583 -0.294606 0.362917 -0.153304 0.183119 0.063762 0.340292 0.247982 -0.219013 0.247495 0.061914 0.660783 0.431096 -0.227734 -0.063056 -0.401275 -0.287556 -0.174379 0.216798 0.282737 -0.122671 -0.011759 -0.189847 -0.208700 -0.290382 0.079017 -0.405656 0.127375 0.148164 0.069534 0.262536 -0.193259 0.135665 0.002726 -0.273943 0.039724 0.544181 0.126266 0.080315 -0.179573 0.004828 -0.073371 0.193392 -0.231035 -0.214567 -0.127954 0.100781 -0.114335 0.192310 0.024301 0.001306 0.326258 -0.525146 0.350242 -0.078754 0.377350 0.414190 -0.034862 -0.118035 0.206270 0.479919 0.300060 -0.412105 -0.193681 -0.256266 0.220346 0.337969 0.390206 0.022264 0.129022 -0.012772 0.294011 0.078334 -0.032929 0.149728 -0.261908 -0.186076 0.215236 0.107290 0.019970 -0.003653 0.017340 0.009571 -0.311955 -0.010531 -0.282247 0.230059 0.155587 0.458564 0.133039 -0.108310 0.377451 0.114747 0.104407 0.338514 0.057719 -0.034839 -0.139216 0.476726 0.387508 -0.069845 -0.148859 -0.430282 -0.183110 -0.138887 0.307031 -0.102334 -0.006709 -0.133329 -0.028106 -0.153505 -0.133168 0.041866
331 -0.189383 -0.207723 0.039356 0.216097 -0.307836 -0.123127 -0.215019 -0.220992 0.081786 0.196689 0.063045 -0.044225 0.565619 -0.221671 0.241812 -0.433469 -0.214075 -0.006494 -0.078001 0.165591 -0.037425 0.221447 0.265333 0.225725 0.473029 0.051396 0.378141 0.350047 -0.202088 -0.164249 -0.479603 0.049265 -0.124817 0.155314 0.100278 -0.363824 0.133510 -0.117533 -0.206551 -0.113925 0.283784 -0.416486 0.237810 -0.153840 -0.048778 -0.038683 -0.057972 -0.196044 0.170027 -0.166720 -0.243120 0.327497 0.255009 0.303404 0.056554 -0.207144 -0.187174 0.311948 0.045296 -0.087271 -0.065330 0.325946 -0.155240 0.338558 -0.119649 -0.113431 0.030203 -0.434897 0.188685 -0.177954 0.263480 0.067519 -0.112130 -0.235816 0.240185 0.253516 0.216771 -0.335916 -0.259555 -0.138123 -0.148952 0.320118 0.049341 0.066602 0.364919 -0.103463 0.239578 0.073563 -0.344339 0.092011 -0.344165 -0.150232 0.080917 0.115218 -0.120673 0.100090 -0.454626 -0.097501 -0.147966 -0.046002 -0.017789 0.302110 0.073601 0.436346 0.356715 -0.251841 0.219320 -0.109692 0.054374 0.110755 -0.083807 0.078286 -0.027031 0.241951 0.265309 -0.147178 -0.014468 -0.391919 0.016632 -0.032342 0.201977 0.190456 0.049009 -0.263235 -0.003285 -0.042796 0.171955 -0.116237
140 0.124339 -0.290370 0.405796 0.321626 -0.396684 -0.146947 -0.121162 0.121566 0.154249 -0.015825 0.220164 -0.057133 0.279887 -0.008472 -0.064012 0.150622 -0.006985 0.441451 -0.238677 0.297713 0.027920 0.297470 0.256897 0.138013 0.161593 0.752869 -0.126146 0.275968 -0.271534 0.154259 -0.267751 -0.120613 -0.149939 -0.166653 0.353333 -0.213606 -0.114097 -0.331317 -0.211393 0.020390 0.262593 -0.050810 0.862465 0.219691 0.365689 0.082345 0.214249 0.338165 -0.166190 -0.052857 0.200247 -0.060382 -0.093862 -0.447991 -0.159316 -0.094300 0.131360 -0.319094 0.426026 -0.506054 0.071775 0.271620 0.040496 0.087410 0.251841 -0.011434 -0.113008 -0.399043 0.129556 -0.400495 0.086816 -0.302652 -0.148659 0.000560 0.083559 0.236435 -0.208586 -0.113739 0.092689 -0.123836 0.160729 0.182921 -0.467635 0.198833 -0.096897 0.053054 -0.219547 -0.320097 0.163046 -0.159623 -0.157661 0.066564 -0.136799 -0.034659 -0.384001 -0.133615 -0.248001 -0.146075 0.054034 -0.111833 -0.001716 -0.107040 0.234207 -0.002198 0.503599 -0.033396 0.209904 0.508057 0.255381 -0.208653 -0.370064 -0.145876 0.129551 0.514692 -0.376588 -0.022392 -0.152156 -0.203416 0.179121 -0.239942 0.144413 0.281380 0.043380 0.203832 0.127224 -0.142581 -0.261591 0.080295
134 -0.053445 -0.262100 0.458005 0.391847 -0.083759 0.191856 -0.165641 0.041504 0.146571 -0.010945 0.302224 0.072139 0.231222 -0.008256 -0.074213 0.074133 -0.019423 0.494714 0.032701 0.183174 0.042973 0.386453 0.288071 -0.001768 0.347486 0.500382 -0.111889 0.011029 -0.085303 -0.057873 -0.253400 -0.134480 -0.334031 -0.091003 0.299084 -0.334638 0.117076 -0.321907 -0.386702 -0.008222 0.056050 -0.224442 0.728347 0.296141 0.371335 0.052443 0.136526 0.203953 -0.017245 -0.157233 0.243582 -0.082150 -0.252917 -0.338818 -0.277768 -0.121696 0.188391 -0.385137 0.407710 -0.463024 -0.193202 0.278419 0.020779 0.082114 0.071841 0.107330 -0.034739 -0.495716 0.210467 -0.280621 -0.057419 -0.180019 -0.197541 0.133324 -0.042535 0.352175 -0.121702 -0.268043 0.113524 -0.220729 -0.034927 0.266658 -0.281928 0.248618 0.121635 -0.116652 -0.097729 -0.172656 0.197813 -0.103005 -0.195881 -0.057092 -0.040288 -0.068816 -0.605662 -0.175873 0.058593 -0.280387 0.077377 -0.026329 0.039187 0.126871 0.221075 -0.199671 0.550749 -0.242592 0.265574 0.446570 0.175214 0.043812 -0.251627 -0.245434 0.040490 0.385402 -0.183053 0.209723 0.045189 -0.155624 0.188778 -0.024501 0.013206 0.398143 0.148425 0.136264 0.308015 -0.110839 -0.159268 -0.113315
521 -0.160325 -0.163810 0.059294 0.125823 -0.357166 0.152998 0.053066 -0.147183 0.112423 -0.373006 -0.095275 -0.005678 0.132323 0.335076 -0.214009 -0.044910 0.221259 -0.105805 0.289608 -0.037028 0.327234 -0.253398 0.209208 -0.199294 0.092815 0.351404 0.107105 0.101204 0.373155 -0.134724 -0.457909 -0.030497 -0.199344 0.125002 0.048897 0.077620 -0.394448 0.343987 -0.156796 0.023061 0.240478 -0.222427 -0.196463 -0.551578 0.218700 0.248468 -0.375426 0.261199 -0.068709 0.109742 0.002775 -0.295864 -0.089709 0.282667 -0.106147 0.073578 0.327761 -0.022853 0.113662 0.123256 -0.365759 -0.118620 -0.099076 -0.011317 0.476338 -0.188219 0.265679 0.077608 0.494652 0.010228 0.355575 0.079110 0.181477 -0.234870 -0.400574 0.631672 -0.080596 0.555319 0.226474 -0.102302 0.083240 0.094102 -0.077778 0.692834 0.430020 -0.028166 0.276672 0.118535 -0.190349 -0.016971 -0.227302 0.014140 0.034335 -0.212833 -0.036697 0.149033 0.055921 0.493373 0.010924 -0.177599 -0.193430 0.010792 0.231389 0.406660 0.095270 -0.244315 -0.018260 0.089597 0.194528 -0.335920 0.181191 0.017845 0.444485 -0.246471 -0.342131 -0.040345 0.137410 0.070395 0.553382 0.282112 0.258663 -0.041672 0.193879 0.045538 -0.215139 0.186631 0.000920 -0.261359
