732 128
434 -0.113981 0.101154 0.117748 0.077755 0.082700 0.109118 0.116761 0.016151 -0.295720 -0.075065 -0.042880 0.100918 -0.038405 0.024180 -0.073433 -0.073948 -0.021168 0.187388 0.124917 0.191196 -0.100619 -0.111156 -0.116019 0.135348 -0.022797 -0.181226 -0.004889 -0.085454 0.063770 0.140687 -0.025277 0.053972 -0.162348 0.145969 -0.067254 -0.018227 -0.155003 0.018395 -0.034817 -0.156475 -0.091714 -0.086908 -0.007529 -0.036301 -0.109496 0.096761 -0.164426 0.122270 0.010693 0.083224 -0.146966 0.105383 -0.100560 -0.038488 0.022205 0.005367 0.174627 -0.001256 -0.026532 0.078618 -0.069193 -0.022104 -0.049974 -0.338797 0.149036 0.021834 0.058507 0.033759 -0.068414 -0.027014 -0.005690 0.006463 0.255330 0.164672 0.073903 0.014398 0.079255 0.048229 0.020854 0.254903 -0.006782 -0.034635 0.092757 -0.020218 0.191926 -0.127530 -0.050581 -0.116535 -0.045430 -0.132374 -0.247651 0.038334 -0.088801 -0.181309 0.063227 -0.155036 -0.006730 0.038120 -0.099867 -0.054167 -0.044270 0.004466 0.215521 -0.101148 0.030263 0.110850 -0.209540 -0.186210 0.078041 0.175245 0.085549 -0.008470 0.296511 0.185980 0.143107 0.145954 -0.064237 -0.057328 0.036925 0.064030 0.044639 -0.058479 0.154042 0.073448 0.117080 -0.031504 0.193542 -0.271224
432 -0.165836 0.026491 -0.043000 -0.005838 0.218199 0.051942 0.270744 0.007671 0.017587 -0.128981 -0.128652 0.046354 0.043381 0.203087 -0.015138 -0.164210 -0.003077 -0.091371 0.146581 0.072627 0.118763 -0.143419 -0.228523 0.141330 -0.109005 0.101429 -0.000733 -0.045809 0.044238 0.268440 0.007352 0.148219 0.062647 0.144632 -0.074782 0.082266 -0.159805 0.154147 0.035778 -0.053837 -0.109798 -0.176161 0.192651 0.025594 -0.030455 0.018394 0.117546 0.228353 0.069640 0.109194 -0.121835 0.069194 -0.100246 0.079745 0.111265 0.037537 -0.033946 -0.065170 0.004051 -0.079784 0.025962 -0.036559 -0.134100 0.089462 0.152805 0.128124 0.012558 0.033497 -0.121469 0.004829 -0.138040 -0.156277 -0.258414 0.079097 0.025445 0.176099 0.133775 0.255077 0.082699 0.217500 0.145481 0.248302 -0.039965 -0.128581 0.029043 -0.062086 -0.037769 -0.196698 0.002713 -0.033548 -0.182639 0.189110 -0.117392 -0.174392 -0.145745 -0.051304 0.082630 -0.124986 -0.225894 -0.137068 -0.032140 0.034105 -0.037899 -0.064417 0.077852 -0.096163 0.185037 -0.127858 -0.014780 0.014226 -0.164503 0.047175 0.182923 0.211309 0.121127 0.036439 0.099184 -0.034108 -0.046120 0.129806 -0.023444 -0.105655 0.058683 -0.199785 0.040996 0.160309 0.060290 0.192715
101 -0.169025 0.083089 0.148415 0.301701 -0.000038 -0.024171 0.258445 0.303249 -0.208678 -0.126437 0.072876 -0.069114 -0.103559 -0.095731 0.057708 -0.073504 -0.013846 -0.082166 -0.027473 0.257435 0.183918 -0.225336 -0.180627 0.035870 -0.227057 -0.081431 0.022328 0.306084 0.077764 0.000166 -0.133712 0.046403 -0.016873 0.100705 0.114219 0.002573 0.126973 0.224801 -0.002519 -0.166842 -0.180268 0.007542 -0.059194 0.002256 0.032915 -0.050161 -0.041787 -0.019695 0.133600 0.178082 -0.121064 0.039078 0.037103 0.030548 0.141361 -0.180286 0.097312 0.139640 0.036439 0.028363 -0.083155 0.195002 0.078690 0.016665 0.157562 0.069132 0.009949 0.050717 -0.250563 -0.013407 -0.137578 0.024658 0.248953 -0.006391 0.030532 0.051890 0.132490 0.101954 0.097638 0.007820 0.135304 0.105344 0.033056 -0.076695 0.243592 0.017722 -0.100178 -0.193767 0.079374 -0.132744 -0.130346 -0.014250 0.058999 -0.095789 -0.018291 -0.231707 0.070196 -0.028403 0.052955 -0.197607 -0.091091 -0.065309 -0.096157 0.006030 0.170898 0.151291 0.026449 -0.093461 -0.014882 0.075644 0.090523 -0.007846 0.060802 -0.112897 0.245514 0.250936 -0.102533 -0.009664 -0.041674 -0.080821 -0.039548 -0.156495 0.085930 0.027723 -0.031944 0.113971 0.010745 -0.186897
464 -0.125538 0.086716 0.136419 0.052645 0.128013 -0.063235 0.203054 0.003634 -0.039654 -0.151604 -0.052329 0.154344 -0.022141 -0.067322 -0.227137 -0.054250 0.041644 -0.037165 0.068358 0.026164 0.125936 0.051533 -0.274739 0.223307 -0.111317 0.080946 -0.055198 0.127047 0.225472 0.045029 0.024518 -0.071062 -0.094823 0.017150 -0.019249 -0.094906 0.034993 0.135890 -0.001824 -0.215313 -0.306330 -0.116033 0.039515 0.081034 -0.013516 -0.047014 -0.058828 0.029632 0.130233 0.233362 0.073822 0.205948 -0.061548 -0.124294 0.014971 -0.028822 0.277144 0.018973 0.113551 0.339447 0.010877 0.147988 0.010941 -0.191297 0.123759 -0.036048 0.084316 0.128407 -0.184037 -0.108463 -0.092732 0.061503 -0.104011 0.021096 0.047972 0.025179 -0.023059 0.137134 0.105763 0.261525 -0.217684 0.244626 0.159374 -0.064434 0.042819 0.074400 0.121285 -0.060875 -0.032668 0.066520 -0.058591 -0.059685 -0.015627 -0.127802 -0.066140 -0.109406 -0.026102 -0.116557 -0.015280 -0.116054 -0.032190 0.190243 0.199855 -0.032328 0.014311 -0.084631 0.057325 -0.302469 -0.008139 0.121471 0.082759 -0.009103 0.089636 -0.084071 0.061891 0.175816 -0.013482 0.012414 -0.000463 -0.213901 0.027743 -0.114151 0.227269 -0.044562 0.202906 -0.041263 0.037935 -0.262724
522 -0.043058 0.167612 0.108122 0.092464 -0.094026 0.149833 0.150014 0.077857 -0.053971 -0.102100 0.068075 -0.070232 -0.048166 -0.124283 0.015443 -0.075668 0.039477 -0.059278 -0.035005 0.077058 0.010643 -0.213385 -0.171815 0.099768 -0.141494 0.102017 0.098155 0.089039 0.185780 -0.088709 0.080016 0.136982 0.067571 -0.066879 -0.073156 -0.007211 0.083066 0.073999 -0.154133 -0.079272 -0.099435 0.027521 0.134765 -0.090520 -0.015616 -0.048586 -0.136929 0.025940 0.184137 0.047933 0.106424 0.104208 0.059994 0.099403 0.079576 -0.091233 0.203375 0.051845 0.102806 -0.023182 0.104796 0.022403 0.007235 -0.345086 0.110098 0.146515 0.126891 -0.216579 -0.111887 -0.050044 -0.173002 -0.099120 0.036100 0.284100 -0.051956 0.259591 0.267478 0.194518 0.071812 0.181756 0.028092 -0.000642 0.013065 -0.066013 -0.168514 0.059147 0.110401 -0.281690 -0.035940 0.081610 -0.095752 0.155679 0.215803 -0.225236 -0.211088 -0.053749 0.021838 -0.124227 -0.058567 -0.055138 0.050931 0.121657 0.142204 0.040567 0.196659 0.069663 -0.085336 -0.212509 -0.161345 -0.020729 -0.070947 0.052003 0.211417 -0.010816 0.002959 0.238780 -0.053516 0.192109 0.071471 0.112985 -0.039629 0.001619 -0.228528 -0.167001 0.022949 0.284693 -0.100137 0.005934
109 -0.021655 0.051861 -0.011930 -0.096000 -0.036901 0.136167 0.137028 0.055897 -0.087420 -0.015361 0.079754 0.248686 -0.127570 0.088449 -0.120393 -0.017423 0.041366 -0.059063 -0.009567 0.323202 -0.152782 -0.144362 -0.041189 0.401046 -0.001049 -0.082011 -0.050502 0.028017 0.100123 -0.082536 -0.094970 -0.069096 0.035559 0.011423 0.001958 -0.038666 0.139727 0.074805 0.045366 -0.044442 -0.065323 -0.077636 0.219334 -0.170912 -0.206853 -0.085212 -0.085479 -0.098334 0.108903 0.137130 -0.032524 0.097084 0.000642 0.094179 -0.149303 0.226554 0.007392 0.051259 0.093289 -0.017077 -0.064918 0.033769 0.135736 -0.047732 0.187448 0.188651 0.018466 -0.051188 -0.113720 0.088950 0.030351 -0.240519 -0.150752 0.042351 -0.081332 -0.085728 -0.004762 0.068427 0.202246 0.057580 -0.050026 0.347146 0.081363 0.000076 0.062932 -0.025546 -0.091826 -0.344317 0.013091 -0.110792 -0.058274 0.265507 -0.136208 -0.000858 -0.236914 0.164931 0.023533 -0.041992 -0.077421 -0.050715 0.076051 -0.082307 0.039680 -0.084437 -0.092617 0.030070 0.133240 -0.189053 0.161447 0.370515 -0.004501 0.185396 0.039061 0.030266 0.190945 0.178640 -0.034504 0.037384 0.104692 0.036506 0.076211 0.220813 0.085541 -0.070501 -0.007104 0.159828 0.146656 0.076513
437 -0.115018 0.011789 -0.096942 0.000008 -0.113372 0.079843 0.181881 0.000809 -0.057009 -0.162634 -0.067448 -0.068765 0.030994 -0.136311 -0.047939 0.001699 -0.038138 -0.124809 0.216450 0.108072 0.214873 -0.044304 -0.215447 0.312620 0.219623 -0.116267 -0.050704 -0.065797 -0.093988 0.048986 -0.066719 0.056586 0.002184 0.031939 0.045614 -0.062585 0.003325 0.196055 -0.041610 -0.326669 -0.146770 0.013264 -0.072423 0.006357 -0.066217 0.113785 -0.070036 0.092313 0.192884 0.065818 -0.032765 0.239316 -0.000025 0.077579 0.019481 0.052241 0.130839 0.046540 0.219606 0.313790 -0.187677 -0.042454 0.195483 -0.141344 -0.048700 0.007706 0.168637 -0.118972 -0.136679 -0.120131 -0.036418 0.033161 0.027909 0.143110 0.018689 0.163708 0.029644 0.039325 0.127719 0.115148 0.124405 -0.008568 0.061442 -0.157062 -0.046525 -0.031325 -0.003301 -0.205318 0.137776 0.117585 -0.211614 0.050950 0.046169 -0.156294 -0.022291 -0.297541 -0.122647 -0.170409 -0.148895 -0.189534 0.011560 0.166576 0.175257 -0.042059 0.123819 -0.089976 0.204885 -0.056661 -0.042420 -0.047365 0.127963 0.209596 0.190318 0.176696 0.070727 0.155990 -0.002662 -0.059458 -0.026534 -0.135418 -0.054216 -0.035601 0.069223 -0.015566 0.252713 0.021832 -0.039518 -0.036239
484 0.016322 0.151325 0.053722 0.074740 -0.106528 0.038760 0.095601 0.074124 -0.111302 0.077200 -0.135260 0.109500 0.107930 -0.063089 -0.119194 -0.040399 0.154398 -0.196153 0.106866 0.232699 0.109168 -0.151930 -0.126922 0.117651 0.148958 -0.007817 0.041853 -0.189912 0.122454 -0.151501 0.180011 0.189436 0.209396 -0.066826 0.205317 0.073185 -0.169858 0.090911 0.145435 -0.096979 -0.090447 0.065880 -0.180360 -0.028433 0.026412 -0.079250 -0.028605 -0.026029 0.185348 0.105770 -0.098197 0.207340 0.009346 0.090206 0.070781 -0.124861 0.144171 0.159655 -0.013628 0.113512 -0.101454 -0.030022 -0.234904 -0.039677 0.113009 -0.003917 -0.012989 -0.201615 -0.157722 -0.082272 -0.120354 0.117334 0.033948 0.151389 0.030918 0.146125 0.144852 -0.050916 -0.006305 0.179187 0.019732 0.120284 -0.029135 0.080339 0.044219 0.058316 -0.028211 -0.079115 0.096636 -0.124532 -0.030451 0.071140 -0.174710 -0.212047 -0.210648 0.071579 0.049691 -0.080616 0.162609 -0.071508 -0.024123 0.082486 0.185606 -0.056396 -0.056611 0.196862 -0.031715 -0.147381 -0.071360 0.122717 -0.081902 0.052651 0.291971 -0.050332 0.164889 0.270201 0.083941 0.131674 -0.015373 -0.012936 0.004054 -0.155637 -0.105032 -0.045256 0.112787 0.090919 0.023710 0.012138
46 -0.077665 0.105285 -0.014901 -0.031818 0.041146 0.024944 0.192618 0.041584 -0.034078 -0.016409 -0.034661 -0.033939 -0.166008 0.027532 -0.119632 -0.125170 0.012127 -0.031970 0.013132 0.128785 -0.032851 0.040352 -0.278140 0.032386 -0.039650 0.141195 0.083700 0.064611 0.034873 -0.077337 -0.003652 0.219890 0.126669 0.173462 -0.025086 0.103538 0.061524 0.206820 -0.099861 -0.181996 0.001839 0.045053 0.111242 0.027927 -0.023812 -0.149696 -0.127247 0.041032 -0.118580 0.007578 -0.000734 0.140265 -0.145058 0.086450 -0.067944 0.069146 0.043349 0.011823 0.154386 -0.044429 -0.105249 0.051517 0.158693 -0.044965 0.219541 0.200771 0.064886 -0.087982 -0.247515 -0.057862 -0.086399 -0.062879 -0.010488 -0.008131 0.008532 -0.030352 0.130844 0.273721 0.224096 0.207507 0.036082 0.073981 0.033630 0.129092 -0.076292 0.239043 -0.076831 -0.102270 0.079456 -0.032238 -0.051258 0.000801 -0.092493 -0.029655 0.046688 -0.037544 -0.008210 -0.253718 0.176130 -0.141718 0.142878 -0.131516 0.192173 -0.033099 0.025817 0.018329 0.102823 -0.109966 0.008882 -0.157840 -0.045786 -0.058050 0.380266 0.146431 0.053985 0.105880 -0.276075 0.080570 0.169301 -0.047961 -0.011489 -0.281711 -0.113204 -0.168951 0.145768 -0.097295 -0.079315 -0.077251
508 0.024681 -0.013905 -0.096800 0.085186 0.020516 0.053763 0.119366 0.323521 -0.021846 0.043343 -0.003009 0.021051 -0.007964 0.057692 -0.116445 -0.035557 -0.005756 -0.014998 0.156879 0.123062 -0.055823 -0.189911 -0.071531 0.170339 -0.008539 -0.007568 -0.222126 -0.095144 0.103285 -0.045039 0.016787 0.248671 0.019124 0.175150 -0.235122 0.106011 -0.081620 -0.079930 -0.152730 0.057772 0.032424 -0.070575 0.043257 -0.018811 -0.034562 -0.003186 0.057903 0.050814 -0.001062 0.058651 -0.018436 0.101749 -0.151067 0.011187 0.076707 -0.005104 0.080248 0.022584 0.068316 0.246534 0.092578 -0.095251 0.050517 -0.073370 0.031191 -0.011406 -0.074949 0.024716 -0.081810 0.062944 0.067929 0.065083 -0.016028 0.034956 -0.038458 0.108417 0.125085 0.161933 0.177322 0.078012 -0.013176 -0.124315 -0.028827 -0.069623 0.163624 0.089621 -0.061668 0.015539 0.003318 -0.100371 0.025694 0.015472 0.020278 -0.014355 -0.142744 0.072366 -0.074456 -0.215018 0.109158 -0.111345 0.210536 -0.235381 0.212232 0.076362 -0.025069 0.062824 0.173219 -0.117533 0.191159 0.216924 -0.098092 -0.012691 0.210192 -0.024899 0.045124 0.359799 -0.223336 -0.188593 0.251550 0.130259 -0.109331 -0.127491 0.112531 0.022863 -0.042905 -0.092474 -0.024984 0.023902
346 -0.100806 0.095195 -0.053055 0.101774 0.115682 -0.211188 0.247174 0.121181 -0.329507 -0.074113 0.087921 0.180058 -0.254203 0.135450 -0.084691 -0.138686 -0.065494 -0.094646 0.160611 0.228971 0.035055 -0.055807 -0.066583 -0.023016 0.104526 0.181612 0.008105 -0.093307 0.186327 -0.130517 -0.014734 0.196541 -0.192805 0.019555 0.150351 -0.005623 -0.041152 0.097452 0.011300 0.093771 0.008559 -0.141796 0.174150 0.007453 -0.065530 -0.035312 0.056297 0.061735 -0.074462 0.121156 0.147907 -0.120508 -0.159555 0.114280 -0.113066 -0.110169 0.144869 0.020619 0.038353 0.022089 -0.043726 -0.055572 -0.036724 0.014804 0.120802 -0.118832 0.150562 0.047794 -0.220134 -0.032597 -0.142074 0.110173 -0.095989 -0.035127 0.102954 -0.059147 0.017841 0.150881 -0.157504 0.135895 -0.030078 0.237482 -0.243916 -0.020208 -0.028936 0.063492 -0.068953 -0.095298 0.045967 -0.157628 -0.334817 0.059829 0.018873 0.094967 -0.069623 -0.067946 0.141119 -0.303959 0.019306 0.023573 -0.099062 0.099902 0.005599 -0.038050 -0.061567 0.144065 0.129525 -0.179793 -0.120326 0.046493 0.067432 -0.095026 0.246810 0.119291 0.125482 0.171296 0.106910 -0.022917 -0.026419 -0.226226 -0.006092 -0.127098 -0.113511 0.127005 0.013032 0.253112 0.163122 0.112182
42 -0.109223 0.136733 0.179038 -0.001589 -0.019049 -0.095235 0.065621 0.077766 -0.129593 0.036521 -0.025286 -0.033063 -0.198091 0.069994 0.037945 0.132014 0.058962 0.054285 -0.162778 0.318916 0.050980 -0.126485 -0.391743 0.248740 0.107673 0.062419 -0.140223 0.076916 0.094551 0.019878 0.068523 0.295247 -0.015115 0.020201 0.063677 0.020076 0.017186 0.082196 0.019517 -0.162627 -0.037914 -0.162825 0.028700 -0.047698 0.101328 -0.173670 -0.003227 0.014255 0.162815 0.117553 -0.170882 0.200115 -0.049827 0.248780 -0.154757 -0.116409 0.018242 0.104029 0.112680 -0.090429 0.168518 0.002957 0.031941 -0.260745 0.161439 -0.028004 0.126087 0.041733 -0.148730 -0.270536 0.060799 0.059172 0.033841 0.223728 0.128844 0.039730 0.107722 0.111128 -0.001078 0.118782 0.205028 0.054144 0.017484 0.162018 0.030053 -0.002912 0.060260 -0.140129 0.002894 -0.101084 -0.085274 0.089651 -0.190570 -0.139976 -0.106615 0.042111 0.123640 -0.072416 -0.033180 0.041556 0.007233 0.036506 0.151414 0.082492 0.020585 -0.035417 0.093011 -0.189242 -0.029416 0.054368 -0.034836 0.012954 0.005116 0.136920 -0.023297 0.294021 0.029069 0.062326 0.014275 0.157870 -0.105144 -0.095901 -0.108496 -0.157415 -0.051836 -0.040200 -0.000884 0.020295
30 -0.289909 0.106812 0.003555 -0.056456 0.084713 0.114601 -0.043559 0.071425 0.039255 0.135696 -0.003605 0.133642 0.073420 0.203977 -0.110236 0.087673 -0.124545 -0.060066 0.117773 0.043931 -0.032963 -0.211399 -0.112336 0.157770 -0.075780 0.213268 -0.058024 -0.057593 0.194534 -0.096220 0.081901 0.223014 -0.057990 0.080147 0.006799 -0.087749 0.165929 0.209235 0.112436 -0.016779 -0.085544 -0.025071 0.031659 -0.014809 0.197348 -0.054436 0.157559 0.151660 0.041098 0.106105 -0.016300 -0.018818 -0.058230 0.200293 0.108725 -0.110009 0.239514 0.127456 0.050834 0.072262 -0.003875 -0.057563 -0.110896 -0.150246 0.265817 0.092352 0.017592 -0.028489 -0.095968 0.030751 -0.203902 0.031598 -0.041949 0.227863 0.158527 0.209135 0.031935 -0.147159 0.159693 0.078293 0.205749 0.017522 -0.006197 -0.092543 -0.026998 0.040602 -0.037999 0.073148 -0.071326 0.023445 -0.106558 -0.016344 0.065539 0.012011 0.066808 0.050942 0.006321 -0.090886 0.039299 -0.210638 0.044022 -0.215742 0.203505 0.142965 -0.230778 0.161718 -0.125761 -0.119888 0.061449 -0.028525 -0.058135 -0.081175 0.202562 0.099156 0.146262 0.127044 -0.130417 0.024937 -0.150530 0.049304 -0.031280 -0.098220 0.144927 0.026625 -0.034202 0.107628 0.155083 0.004404
26 -0.072341 0.152601 0.242980 0.053887 0.129287 -0.186660 0.195985 -0.015007 -0.045560 0.089544 0.178631 -0.060682 -0.347060 0.015924 0.011305 -0.090787 0.087332 -0.122798 0.161866 0.329874 -0.160842 -0.104465 -0.071152 -0.016090 -0.099383 0.007224 -0.014881 -0.021396 0.131828 0.033902 0.119637 0.137842 0.049792 0.028823 0.093135 0.055892 -0.098393 -0.054615 -0.073049 -0.095829 -0.283992 0.075817 0.028694 0.191817 -0.011254 0.070051 -0.022976 -0.130259 0.190649 -0.096231 0.111992 -0.014424 0.030308 -0.140141 0.113118 0.032932 0.080169 0.063503 0.043699 -0.062143 -0.166592 0.059711 0.005996 -0.223001 -0.021400 -0.244509 0.038092 -0.064687 -0.236552 -0.045843 0.046257 -0.116012 0.019665 0.083649 -0.082739 -0.064665 -0.044945 0.081848 0.270416 0.162391 0.108838 0.086972 -0.033464 0.039818 -0.062186 -0.116729 -0.066967 -0.152564 -0.035546 -0.067074 -0.017222 0.178848 0.155624 -0.162448 0.007690 -0.041998 0.027993 -0.106025 -0.059412 -0.293792 0.241511 -0.167101 0.149707 0.155383 -0.008853 -0.021170 0.055077 -0.232471 0.023875 0.136892 -0.156042 0.184872 0.183993 0.080676 0.238927 0.144000 -0.186217 -0.225775 0.101558 -0.111289 -0.083392 -0.038047 -0.146197 -0.213573 0.087853 -0.035693 0.099614 0.083601
267 -0.134852 -0.054340 0.244135 0.183404 -0.075577 0.097946 0.178153 0.088274 -0.107931 0.006675 -0.132180 0.019573 -0.314341 0.160784 -0.194210 -0.061165 0.025880 0.106825 0.262883 -0.026255 -0.031645 -0.038779 -0.215570 0.235781 -0.038810 -0.048052 0.062348 -0.195046 0.222317 0.155718 -0.161165 0.069253 0.133627 -0.002859 -0.115859 -0.098651 -0.067422 0.032211 0.025357 -0.067283 -0.191347 -0.159840 0.086874 0.048607 -0.145852 0.069284 0.007474 -0.085574 0.007783 0.158700 0.053540 -0.070919 -0.122527 0.129229 -0.089579 0.088802 -0.120707 0.120564 0.118386 0.098057 -0.127176 -0.125732 -0.076766 0.060412 0.215992 0.022982 0.058582 -0.006726 -0.171732 -0.073489 -0.078328 -0.087302 0.065811 0.140476 -0.057456 0.073869 0.034992 0.029477 0.025487 0.181099 -0.157126 0.205160 -0.015909 -0.147960 -0.019087 -0.104162 0.001007 -0.171809 0.049166 0.029114 -0.153451 0.055808 0.020189 -0.120234 -0.059732 0.023336 0.084441 -0.155285 -0.046947 -0.122332 0.096450 0.157388 0.008534 -0.082904 0.200340 -0.166937 0.266963 -0.044232 -0.011973 0.193971 -0.091831 0.012127 0.135557 0.194944 -0.080628 0.264196 0.077199 0.097936 -0.018815 -0.037763 -0.107893 -0.118326 -0.090905 -0.135243 0.067274 0.042714 -0.069132 -0.230391
272 -0.065239 0.033872 0.219904 -0.025383 -0.074578 -0.015374 0.234610 -0.078415 -0.293624 0.031779 -0.061454 -0.144144 -0.064410 0.048386 -0.106476 -0.102504 0.031029 0.099922 0.028295 0.200635 -0.046750 -0.130106 -0.278160 0.225378 -0.105649 -0.095789 -0.004402 -0.120145 0.234031 -0.013401 0.031755 -0.068938 0.083344 0.060527 0.013218 -0.001258 -0.088828 0.237466 0.046557 0.023938 -0.173634 0.044004 -0.064386 -0.058899 0.006563 -0.104577 -0.189399 0.005747 0.050144 -0.013361 -0.070695 0.051178 0.066728 0.147999 0.112893 0.112385 0.321918 -0.016699 0.132153 0.056961 -0.077534 -0.093655 -0.013928 -0.134981 0.040806 -0.060615 -0.192853 0.185070 0.146678 -0.119644 -0.118067 -0.155490 0.237955 0.145274 0.094823 -0.023899 0.036343 0.025139 0.215024 0.281447 0.136225 0.077155 0.197911 -0.068080 0.118245 0.098859 0.136070 -0.024350 -0.051639 0.057075 -0.266520 0.086977 -0.192682 0.055851 -0.126633 -0.060967 -0.075978 -0.017160 -0.040281 -0.230023 0.075690 -0.035066 0.239152 -0.019425 -0.056772 0.036348 -0.089396 -0.118517 0.059473 -0.080149 0.192223 0.056036 0.166425 0.019475 -0.100563 0.132321 -0.004638 0.036775 -0.007735 -0.055874 -0.097348 -0.065487 0.026272 -0.070440 -0.127396 0.100782 0.022042 -0.058965
353 -0.143826 0.169485 0.064941 -0.125012 0.056086 0.021077 0.088889 -0.207583 -0.345599 -0.186030 -0.040983 0.067682 -0.008556 0.136715 -0.271682 0.055666 0.042475 -0.092351 0.183339 0.179848 -0.011208 -0.101753 -0.171947 0.163929 -0.107689 -0.002855 0.105146 0.152246 0.088361 0.093507 -0.094681 0.106148 0.018167 0.014450 0.025516 -0.007904 -0.003745 0.294807 -0.038878 -0.074027 0.050465 -0.089301 0.164911 0.063841 -0.045798 0.099699 -0.097316 0.235864 -0.033912 -0.064299 0.003935 0.124776 0.058166 0.097622 0.110411 0.134879 -0.074690 -0.231869 0.016928 -0.020162 -0.111104 0.155861 -0.004219 -0.088573 0.072828 -0.017207 0.128624 -0.002402 -0.159666 -0.170364 0.063870 -0.206173 -0.002008 0.107448 -0.098903 0.102959 -0.110020 0.211238 0.155701 0.139988 0.141710 0.102722 0.125459 -0.077541 -0.035210 0.001055 -0.091378 0.130888 -0.049122 -0.103893 -0.107485 0.149040 0.064406 -0.310043 -0.309121 0.092613 0.008092 -0.155101 0.157925 -0.159667 0.167054 -0.041797 0.336020 0.258679 0.023650 0.138159 0.010298 -0.074680 0.068724 0.030512 -0.033317 -0.008660 0.076684 0.052154 -0.021136 0.307785 -0.025187 -0.013243 -0.069931 0.042301 0.130734 0.145436 -0.083091 -0.179703 0.085477 0.002231 0.021723 -0.002590
293 -0.226271 -0.023587 -0.096652 -0.087297 0.148060 0.233344 0.274690 -0.034970 -0.280057 -0.150096 0.051699 -0.007948 -0.048264 0.074364 0.046940 0.063363 0.007032 -0.131622 0.041910 -0.071291 0.159585 -0.205137 0.100171 0.132962 -0.140052 -0.107933 -0.039654 0.297637 0.070710 0.207771 -0.112496 0.185635 -0.081524 0.168495 0.076566 -0.033409 -0.031761 -0.000812 -0.055234 -0.199708 -0.005158 -0.160772 0.064634 0.010188 -0.159675 0.040355 0.056367 0.225427 0.131755 0.316776 -0.293971 0.068531 -0.031745 0.062231 -0.030851 0.096421 0.050076 0.125114 -0.013836 0.025767 0.012439 0.128600 -0.093359 -0.037279 0.060041 0.148954 0.017046 -0.182974 -0.188520 -0.035971 0.021747 0.071807 -0.150456 0.151435 -0.090855 -0.005926 0.283572 0.105735 0.191567 0.011800 0.160968 -0.085222 0.016139 -0.048946 -0.137396 -0.075602 0.115290 -0.303884 -0.064719 0.107929 -0.158502 0.119694 -0.194259 0.015765 0.084273 -0.205438 -0.072653 -0.080496 0.045315 -0.082041 -0.111197 -0.184064 0.213084 0.042506 0.020270 0.141949 0.277901 -0.142870 -0.214580 0.105219 -0.017755 0.205412 0.124216 0.129628 0.210552 0.146374 0.097772 0.072205 -0.092563 -0.039727 0.123159 0.042558 -0.052302 0.086465 0.103556 0.188621 0.227281 -0.006886
68 -0.071843 0.088337 0.208196 0.008206 -0.036807 -0.142040 0.162452 -0.165702 -0.181627 -0.247948 0.015539 0.159642 -0.398580 -0.107789 -0.100029 -0.125788 0.129368 -0.005584 0.212150 0.282588 0.181600 -0.106187 -0.281313 0.041210 0.097042 0.144147 -0.065186 -0.061821 0.214642 0.091480 -0.051987 0.136703 0.126194 0.043330 -0.168008 -0.141228 0.139887 0.108913 -0.061348 -0.153114 -0.170854 -0.018290 0.062469 0.088432 0.049059 0.060530 0.110007 0.057401 0.116307 -0.098615 -0.023304 0.101905 -0.090525 -0.043275 -0.009999 -0.106516 0.036163 0.162390 0.003263 -0.006516 -0.036384 0.067178 0.042775 0.013436 0.157207 -0.177461 0.029820 -0.068584 -0.043548 0.013901 -0.007657 -0.089538 0.115883 -0.088987 0.048536 0.050780 -0.061226 0.068493 0.109840 0.056904 0.173037 -0.029046 0.112139 0.100725 0.124384 0.120698 0.022255 -0.123476 0.251176 -0.066525 -0.066024 0.337777 -0.094093 -0.040996 -0.061094 -0.057885 -0.049698 -0.205825 0.004163 -0.179090 -0.022673 -0.089734 0.059797 0.002864 0.150457 0.025128 0.047054 0.169154 -0.047560 -0.000559 0.193300 0.073164 -0.124123 -0.032063 0.239716 0.180105 -0.022132 -0.040964 0.000267 -0.015537 -0.068930 -0.072067 0.089656 0.006240 0.249577 0.049227 0.040472 -0.184473
181 -0.094469 0.025639 0.078136 0.079624 0.094523 0.089872 0.099614 -0.022907 0.008854 -0.254554 -0.189024 0.049987 -0.117263 0.121014 0.015023 -0.015977 0.107359 -0.123249 0.256779 0.073328 -0.056409 -0.093542 -0.357685 0.139541 -0.102559 -0.011801 0.012050 -0.012624 0.146666 0.109840 -0.026326 0.089092 -0.021565 0.199555 0.104164 -0.122657 0.054793 0.054246 0.086737 -0.079683 -0.213127 -0.158915 -0.062126 0.069018 0.068783 0.050380 -0.115446 -0.020295 0.009509 0.235584 -0.163921 -0.108368 -0.144424 0.112318 -0.137836 -0.150375 0.220680 0.060826 -0.114839 0.065803 0.020371 0.060056 -0.043731 -0.164037 0.166910 0.151087 -0.171090 0.051074 -0.147002 0.075498 -0.126932 0.239076 -0.078228 0.100721 0.057337 0.093246 0.009284 0.001050 0.224050 0.117065 -0.091768 0.196490 0.093179 -0.031135 0.082157 0.062135 0.141403 0.122117 -0.101973 -0.036467 -0.189735 -0.114167 -0.016808 -0.156190 -0.070975 -0.182314 -0.136965 -0.064855 0.092513 -0.288032 -0.028368 -0.037930 0.160443 0.004983 0.044155 -0.052567 0.100563 -0.179280 0.085526 0.031499 0.124834 -0.196996 0.125249 0.135330 0.193939 0.232234 -0.030912 -0.040410 -0.001353 -0.004805 0.190848 -0.007356 -0.005499 -0.193113 0.084499 0.058105 0.009207 -0.028123
43 -0.240694 0.036993 0.238631 0.104288 0.158710 -0.029584 0.000229 0.043084 -0.206238 -0.121202 -0.003593 -0.140965 -0.020471 0.159684 -0.135422 0.018237 -0.103979 -0.129994 0.046545 0.124278 0.146901 0.002757 -0.213744 0.064132 0.074793 0.182846 -0.058284 -0.017312 0.037263 0.008799 0.045493 0.168802 -0.007884 0.243299 -0.088341 -0.074381 -0.200420 0.058574 -0.066783 -0.161407 0.083845 0.011611 0.109494 -0.039313 0.050150 -0.029897 -0.192869 -0.133057 -0.016065 0.111262 -0.101045 0.044108 -0.108420 0.116990 0.178925 0.047536 0.176130 -0.023727 -0.043772 0.008653 -0.142498 -0.039327 0.002980 0.056908 -0.023594 0.192305 -0.252972 -0.043599 -0.288152 0.069668 -0.068445 -0.076353 -0.053260 0.159150 0.040336 0.082304 0.043535 0.086712 0.092524 0.001733 0.131096 0.119038 -0.165739 0.008212 -0.013295 -0.032292 0.041524 -0.151901 0.019200 -0.137208 0.061182 0.127976 -0.222135 0.037161 -0.032293 -0.026473 -0.144379 0.003726 -0.036483 -0.224307 -0.181776 -0.028407 0.275825 0.220816 -0.168744 -0.198459 0.137845 0.061008 -0.006476 0.211449 -0.107553 0.024445 0.433110 0.089928 0.026057 0.103607 -0.122104 -0.000943 0.068929 -0.054855 0.139912 -0.003194 -0.005175 -0.043341 0.214648 0.110787 0.002967 -0.015515
198 -0.180149 0.019954 -0.015877 0.101103 0.006311 0.112678 0.085298 -0.168581 -0.190240 -0.010471 0.152533 0.130032 -0.151504 0.231938 -0.092185 -0.016620 0.169387 -0.143581 0.113281 0.134873 0.054643 -0.138391 -0.206919 0.041954 -0.144931 -0.111927 0.121132 -0.166196 -0.006042 -0.013952 0.107471 0.095229 -0.006286 0.181314 0.003264 -0.105318 0.159082 0.131982 0.003789 -0.242624 0.020554 0.035785 0.161428 0.037503 -0.004405 -0.002110 -0.132638 0.085585 0.047193 -0.009382 0.148206 0.050557 -0.218191 0.042026 0.010583 -0.178179 0.331795 0.010820 0.143375 0.174052 -0.000359 0.062903 -0.000248 0.118199 -0.012443 0.153064 -0.084857 0.169106 -0.234730 -0.123299 -0.112123 0.133334 0.028465 0.182085 -0.028633 0.124124 0.255705 0.110789 0.120019 0.165277 0.092457 0.002843 -0.124302 0.011288 0.094931 -0.112771 0.039165 -0.218473 0.024012 -0.031473 -0.013998 0.205737 0.044477 -0.142971 -0.225503 -0.195674 -0.049440 -0.103469 -0.000293 -0.202730 -0.020127 0.040386 0.096987 0.133733 0.009519 0.022466 -0.007656 0.075585 0.034857 0.168676 0.196515 -0.170838 0.225897 0.248195 0.022586 0.065659 -0.096846 0.135079 -0.019468 0.177553 -0.060279 -0.083331 0.020066 0.090900 0.281306 0.191810 -0.101737 -0.090035
157 -0.014778 0.280854 -0.099414 -0.016008 0.019753 0.098013 -0.055788 0.094100 -0.271802 -0.200144 0.023176 -0.009349 0.046366 0.078569 -0.130722 -0.095705 0.088166 -0.004474 0.149015 0.119540 -0.120650 -0.341107 -0.076948 0.133788 -0.135296 0.137912 -0.049131 0.234798 0.054787 0.117153 0.010299 0.066621 0.022350 0.142382 0.069475 -0.045159 0.000142 0.009605 -0.067030 0.013301 -0.041944 -0.048269 -0.001504 -0.045682 -0.071744 0.036230 -0.039774 -0.033595 0.007938 -0.150080 -0.165013 0.130564 -0.329259 0.088940 -0.053021 -0.067259 0.093851 0.194020 0.001953 0.112505 -0.095050 0.126560 -0.029643 -0.149734 -0.151940 -0.007795 0.072166 0.098419 -0.079074 0.050559 -0.063832 0.096282 -0.108990 0.161351 -0.144677 0.185355 0.058880 0.070950 0.142155 0.053871 -0.042012 0.150193 0.127718 0.183091 -0.025358 -0.022105 0.090835 -0.192644 -0.022831 -0.107985 -0.070594 0.273243 -0.121346 -0.157561 -0.078683 -0.185738 0.219616 -0.151989 0.052914 -0.162624 -0.038268 0.029063 0.239105 -0.150285 -0.139963 -0.013977 0.031447 -0.058280 -0.163489 0.271081 0.139252 -0.061867 0.152301 -0.024434 0.089689 0.099190 -0.036626 -0.146487 -0.149559 0.088193 0.044425 -0.138498 0.071922 -0.008526 0.006711 0.015347 0.079104 -0.021106
174 0.102369 0.102499 -0.014396 0.023696 0.098887 -0.115699 0.105271 -0.147382 -0.214744 -0.002201 0.003361 0.140305 -0.078181 -0.045708 -0.125549 -0.219446 -0.097362 -0.002008 0.143224 -0.051260 -0.054906 -0.191400 -0.121204 0.306530 -0.009176 -0.208437 -0.073365 0.003558 0.048617 0.108467 -0.091693 0.097400 0.087380 0.138315 -0.141624 -0.089133 0.087223 0.035488 0.017784 -0.002730 -0.171025 -0.014176 -0.146916 0.110481 -0.039268 -0.028376 0.078377 0.145948 0.016092 0.160967 -0.063240 -0.021144 0.011457 0.110270 0.050044 -0.128812 0.240345 0.079256 -0.044665 0.229923 0.083445 -0.036887 0.140477 -0.180700 0.104309 0.071709 0.036022 -0.053108 -0.320030 -0.193116 0.045875 0.015874 -0.166441 0.014694 -0.100894 0.116385 -0.045473 0.273947 0.166516 0.202132 -0.067706 0.225446 0.066975 0.129278 -0.039676 0.082333 -0.109285 0.154747 0.005813 -0.117258 0.015794 0.235699 0.083985 -0.180233 0.143917 -0.071623 -0.176846 -0.043006 -0.110040 -0.062654 0.023958 0.116966 0.186202 0.257085 0.078966 0.039183 0.075375 -0.151125 -0.103865 0.077452 -0.121768 -0.025359 0.191675 -0.195938 0.007688 0.282207 0.036979 -0.181034 0.047289 0.006478 0.086341 -0.057870 -0.028567 -0.175647 -0.025747 -0.051607 0.102579 -0.080124
72 -0.029792 0.216688 0.003081 -0.057850 0.167637 0.032534 0.017512 -0.051064 -0.136917 0.041658 -0.023296 0.155376 -0.107415 -0.065129 0.036556 -0.077740 -0.083629 -0.221959 0.145235 0.138453 -0.153668 -0.139493 0.007305 0.173988 -0.040203 -0.051162 -0.105937 0.160296 -0.116267 0.016294 0.026497 0.075346 0.125780 -0.048035 -0.021877 -0.064057 -0.109197 0.057416 -0.026420 -0.225715 -0.030358 -0.014159 0.007714 0.089849 -0.220460 0.062099 0.023713 0.131201 0.071246 0.014002 0.093616 0.085632 -0.093167 0.087526 -0.110952 0.093165 -0.038376 0.083755 0.107224 0.108621 0.120597 -0.164252 0.040773 -0.123295 0.342293 -0.034416 -0.334483 -0.013936 -0.160694 -0.116609 -0.044878 -0.324831 -0.079631 0.043331 -0.018668 -0.209200 0.151248 0.011662 0.152968 0.268370 0.177111 -0.034774 0.112641 -0.136644 -0.103215 -0.121583 -0.083718 -0.195126 -0.028487 -0.076522 -0.214364 0.195782 0.003450 -0.178652 0.076243 0.106770 0.213639 -0.264580 0.070527 -0.085985 -0.126105 0.046916 0.012111 0.032639 -0.084633 -0.059532 0.266589 0.032334 -0.069099 0.191457 0.073835 0.182948 0.169462 0.083114 0.192462 0.146365 -0.081115 -0.180562 0.115215 -0.145466 -0.066152 -0.138669 -0.049846 0.078653 0.151756 0.147010 0.145357 -0.227592
438 0.038528 -0.018666 0.191698 -0.118791 0.036257 0.036110 0.056959 0.073391 -0.166765 0.042656 0.044091 -0.098895 -0.137675 0.157445 -0.012286 0.008480 -0.081190 0.041921 -0.029285 0.128890 0.018707 -0.168578 -0.266527 -0.096928 -0.239242 0.033052 -0.196758 0.091823 0.042790 0.094523 0.039542 0.063141 0.218607 0.259695 0.069326 -0.018042 -0.005805 -0.031945 0.110123 -0.308307 -0.133015 -0.002770 -0.002282 -0.217358 0.187454 0.087138 0.045649 0.303623 0.036854 0.065584 -0.120626 0.189161 -0.041239 0.114312 0.073731 -0.074977 0.083054 0.211357 -0.041485 -0.033325 -0.049024 0.051084 0.072769 -0.211325 -0.011568 0.107094 -0.031630 0.002740 -0.052108 0.093431 0.086048 -0.003646 0.076797 -0.048815 -0.168237 0.002105 0.004527 0.047579 0.200339 0.150009 0.116639 0.129678 0.023250 0.020312 0.079540 -0.109337 0.077979 -0.194477 -0.100740 0.105288 -0.090347 0.226478 0.107389 -0.052501 -0.011853 -0.329950 0.063874 0.035589 0.104292 -0.102605 -0.033242 -0.025093 0.160975 -0.024438 -0.056105 0.190193 -0.137823 -0.193937 -0.086350 0.111127 -0.197395 0.032068 0.064821 -0.169423 -0.259006 0.165337 -0.117660 -0.024415 -0.031876 0.002542 -0.041379 0.077069 0.095981 -0.015881 0.231890 -0.052687 -0.015963 -0.161648
209 0.106675 0.221114 -0.160861 0.048970 -0.185365 0.112761 0.114925 -0.127271 -0.292984 -0.138640 0.105104 0.038117 -0.049133 0.097147 -0.193513 -0.024904 0.155647 -0.089493 0.084584 0.064202 0.021512 -0.029217 -0.105812 -0.057040 -0.031085 -0.143497 -0.180050 -0.067915 0.192062 -0.059249 -0.009196 0.351314 0.146596 -0.167680 0.190069 0.104199 0.021189 0.202838 0.038304 -0.132672 -0.140781 -0.068633 -0.005632 0.153174 0.034738 -0.040345 -0.078219 0.054289 0.144941 -0.018829 -0.077044 -0.111556 0.039344 0.003271 0.056626 -0.004127 0.191426 -0.012228 0.139846 0.166439 -0.038480 0.004913 -0.081821 -0.107586 0.115062 0.003262 -0.022353 -0.069017 -0.196254 -0.001457 0.079290 -0.110240 0.059892 0.128745 -0.113143 0.249525 -0.004872 -0.011112 0.125943 0.338038 0.142546 0.009223 -0.125772 -0.109966 0.045952 -0.023368 0.066839 -0.263561 0.029970 -0.176241 -0.138833 0.107061 0.024980 -0.091985 0.048401 -0.088379 0.042595 -0.074950 -0.097437 -0.004220 -0.139459 -0.160905 0.252647 -0.186101 -0.153150 -0.101483 -0.018902 -0.018627 0.128889 0.312836 -0.063014 0.167510 0.133934 -0.112788 0.098549 0.148036 -0.067233 0.012250 0.089922 -0.002459 -0.044340 -0.090325 0.130786 -0.189738 0.080829 0.198326 0.119549 -0.232900
123 -0.045723 -0.039588 -0.048520 0.087371 -0.096770 -0.032513 0.127783 0.153113 -0.202948 -0.085219 -0.056031 0.094556 -0.040092 0.034448 -0.131781 -0.022891 0.255592 -0.036936 0.142808 -0.116428 0.042280 -0.102040 -0.053904 0.093103 -0.078638 -0.022740 -0.014156 0.021634 -0.088188 -0.030714 -0.080760 -0.000007 0.051734 0.216557 0.106426 -0.157403 0.149949 0.158095 0.067546 -0.057052 0.079358 -0.028966 -0.017660 -0.039274 -0.070366 0.045342 -0.004525 -0.095140 0.038688 0.354065 0.069689 0.288812 -0.036640 0.183659 -0.015960 0.055025 0.273786 0.075664 0.061685 0.285532 -0.017696 0.017407 0.159952 -0.150117 0.133841 0.081495 -0.113460 0.084537 -0.249291 -0.121147 -0.201994 -0.024521 -0.192541 0.147550 -0.046899 -0.000499 0.069831 0.048501 -0.032786 0.064756 0.090965 0.078926 0.092773 -0.153823 -0.071312 0.012734 0.130943 -0.049985 0.101635 -0.177294 -0.071791 0.080129 -0.023665 -0.255324 0.118439 -0.203697 -0.134651 0.080694 -0.215733 -0.152157 -0.107722 -0.057439 0.200183 0.037543 -0.132549 0.037363 0.175621 -0.025989 -0.111991 0.192310 -0.059809 -0.177841 0.291837 0.021323 0.098469 0.227477 -0.030702 -0.092406 -0.061765 -0.064917 -0.092074 0.114563 -0.015711 -0.087514 -0.091697 0.125956 0.068395 -0.064676
516 -0.149414 0.079782 0.022851 0.001806 -0.168725 -0.129025 0.180476 0.122015 -0.053372 0.114254 -0.050221 0.120024 -0.216253 0.055526 0.124707 0.041280 -0.111049 -0.116307 0.009794 0.094489 0.124598 -0.255015 -0.059199 0.140045 0.011968 -0.133075 0.018598 0.039163 0.209832 0.058394 0.058937 0.184670 -0.065347 0.055229 -0.070598 -0.156408 0.205647 0.125420 0.081586 -0.089539 -0.172957 -0.037512 0.140646 0.026677 0.106171 0.050152 -0.186455 0.043903 -0.043784 0.114545 0.080049 0.102309 -0.043418 0.074461 -0.054035 0.070943 0.107946 0.022769 -0.027239 0.080114 -0.008768 0.018858 -0.050747 -0.226342 0.178956 -0.047201 0.026570 -0.018811 -0.345365 0.018840 0.143805 -0.188252 0.072197 0.017302 -0.109403 0.084826 0.153242 0.183629 -0.113641 0.274688 0.053670 0.006816 -0.126100 0.007714 0.238331 -0.013862 -0.008177 -0.165491 0.077932 0.148708 -0.220799 -0.128642 -0.257197 -0.289839 0.116416 -0.060674 0.098519 -0.113905 0.112211 -0.180516 0.201360 -0.055273 0.252328 0.010511 0.035782 -0.041961 0.205881 0.025817 -0.065792 0.099852 -0.115486 0.016644 0.099444 -0.084492 0.116079 0.173709 0.078949 0.050836 -0.055943 0.097325 0.259493 -0.068616 -0.151756 -0.013990 0.112026 0.078777 -0.007015 -0.017532
20 -0.051562 -0.119674 0.064549 -0.155430 0.089099 0.062627 0.078345 0.289696 0.097023 -0.027487 0.000396 0.159259 -0.224768 -0.036784 -0.048967 0.136371 0.003011 -0.038771 0.031675 0.229532 -0.020693 -0.170587 -0.148591 0.110821 -0.072132 -0.018185 0.058228 0.012638 0.200021 -0.025793 -0.100724 0.042146 -0.156062 0.171325 0.039319 -0.103304 0.127030 0.030116 0.062524 0.021424 0.229227 -0.002152 -0.113974 -0.052571 -0.249865 0.042720 -0.056057 -0.024448 -0.032140 0.181986 0.066019 0.045565 -0.028649 0.085052 -0.076535 -0.103771 -0.042790 0.028557 -0.151676 -0.089288 0.053866 -0.095556 -0.135902 -0.140651 0.228416 0.106662 -0.125115 -0.071132 -0.240557 0.094433 -0.236072 -0.013401 -0.017408 0.243225 0.055299 -0.168278 -0.004786 0.109268 0.198356 0.096908 0.045680 0.072642 0.040509 0.118453 0.011172 0.021506 0.112101 0.044335 -0.021677 -0.075655 -0.071957 0.155089 0.107774 -0.000428 0.034635 -0.210260 0.003767 0.107545 0.043078 -0.125323 -0.055047 -0.120734 0.225124 0.040330 0.145228 0.025615 0.124988 0.108846 0.122589 0.089771 0.101730 0.185034 0.230645 -0.067022 -0.011638 0.285480 -0.042380 0.036934 -0.081708 0.021438 0.019325 -0.130126 -0.010508 0.034163 0.118382 -0.062147 0.020040 -0.153233
130 -0.089939 -0.052502 0.154754 0.102003 0.084579 -0.028063 0.069667 -0.050711 -0.187403 0.057381 0.034575 0.332089 -0.130768 0.263967 -0.065244 -0.112883 -0.112789 -0.241228 0.066985 -0.027438 0.056622 -0.270291 -0.125295 -0.002037 -0.024703 0.034635 -0.014716 -0.042463 0.210934 0.068625 0.001105 0.095913 -0.245286 0.354005 0.112415 -0.047300 0.156684 0.174676 0.103625 0.005855 -0.017196 0.054780 0.134924 -0.015283 0.126798 0.016724 0.007001 0.098412 -0.038264 0.036997 0.040430 0.171431 -0.123582 -0.027852 0.023544 -0.010964 0.097510 0.125185 0.101943 -0.018703 0.026584 -0.233412 -0.010911 -0.028189 0.142018 0.146591 0.128975 -0.100335 -0.186540 -0.039919 -0.009934 -0.158359 -0.110202 0.069846 -0.104882 0.034383 0.149675 -0.004568 -0.009403 0.076953 -0.041454 -0.032268 0.047156 -0.059561 0.047737 0.072651 -0.119488 -0.114758 0.250016 -0.054701 0.068259 -0.039655 0.042290 0.027054 -0.224296 -0.085535 0.018001 -0.117547 0.059917 -0.357017 0.107497 -0.297733 0.087016 0.026352 -0.040141 0.019843 0.136778 -0.210943 0.041687 0.032820 0.070164 0.106350 0.150628 0.004092 0.311675 0.267297 -0.131549 -0.173593 -0.092887 0.197690 -0.013399 -0.095374 0.060522 -0.145487 -0.049210 0.194537 0.079560 0.137870
416 -0.143222 0.092311 0.092440 0.347665 -0.015915 0.112644 0.233397 0.052731 -0.186890 0.033341 -0.205629 0.118750 -0.155107 -0.255688 -0.066930 0.046189 0.075248 -0.107650 0.067956 0.153228 -0.152824 -0.170993 -0.124354 0.055833 -0.214698 0.111289 0.032402 0.041554 0.037532 -0.046410 -0.160051 0.204185 -0.026018 0.032941 0.046293 -0.080280 -0.027952 0.033001 -0.008696 0.070053 -0.109290 -0.016432 -0.089522 0.070686 -0.060857 0.019545 -0.085863 0.052760 -0.173540 0.035740 -0.018201 0.014132 -0.109033 0.203532 0.108344 -0.073291 0.103654 -0.184117 -0.164607 0.167246 -0.046988 -0.121123 -0.048684 -0.094779 0.134801 0.033712 -0.101939 -0.042399 -0.308785 -0.056623 0.032655 -0.055985 0.008492 0.258393 0.160016 -0.109376 0.005118 0.154124 0.191976 -0.014876 -0.074348 0.097488 0.212631 0.043358 -0.007962 0.110312 -0.023734 -0.192198 0.051298 -0.065595 -0.259545 -0.049787 -0.042333 -0.095867 0.065121 -0.155849 -0.039837 -0.096659 0.052254 -0.231681 0.115259 -0.181779 0.199748 0.030906 -0.146584 0.083521 -0.075730 -0.042601 0.109228 0.111887 -0.216084 -0.013549 0.010554 0.170069 -0.110813 0.217120 -0.073345 -0.125280 0.196234 0.026123 -0.027009 -0.013036 0.049166 0.109739 0.147786 0.056926 -0.024409 -0.008151
231 0.053535 -0.176927 0.118698 -0.155942 0.003184 0.191760 0.166058 0.058192 -0.127688 -0.086136 0.004137 -0.191299 -0.230136 0.217110 0.117463 -0.038987 0.096906 0.052754 -0.032371 0.097594 0.160380 -0.175202 -0.136234 0.111543 0.082362 -0.007430 -0.024207 0.078255 0.209408 0.070846 0.068855 0.011913 0.055216 0.097891 0.154351 -0.037536 -0.012493 0.122354 -0.003402 -0.226315 0.083648 0.026772 0.038209 -0.019150 -0.064596 0.132417 -0.081146 0.056923 -0.010342 -0.101829 0.107570 -0.073962 -0.122273 0.081558 -0.117036 -0.305660 0.075851 0.048600 -0.041789 0.128716 0.016422 -0.067635 -0.033780 -0.247972 0.292723 0.169634 0.059791 0.135877 -0.272527 -0.001441 0.009527 0.038529 -0.048512 0.215476 0.104551 -0.022606 -0.003739 0.063461 0.049166 0.169398 0.160002 0.118339 0.162057 0.136706 0.053061 -0.100639 0.065754 -0.231343 0.077341 0.022273 0.009924 0.089056 -0.077266 -0.259214 -0.118608 0.001191 -0.048535 -0.186086 -0.132689 -0.095543 -0.066365 -0.062464 0.093737 0.091916 0.053378 -0.009095 -0.001210 -0.005618 0.096145 0.101838 -0.014743 0.181351 0.172933 -0.007099 -0.184853 0.150419 0.077220 -0.004334 0.032123 0.110873 -0.029526 0.012803 -0.113062 -0.176752 0.118417 0.097715 0.055445 0.029795
583 0.047499 -0.161442 0.014860 -0.041449 0.125626 0.015140 0.169500 0.079850 -0.154353 -0.228170 -0.136017 0.042075 -0.157905 0.230206 -0.234510 -0.098833 0.091703 0.099419 0.074495 -0.064402 0.023906 -0.005975 -0.255835 0.051880 0.073184 -0.139650 0.043188 0.037377 0.094710 0.000762 0.022342 0.237625 -0.117786 -0.057824 -0.025954 0.016908 -0.143745 0.043195 -0.011104 0.085011 -0.159620 -0.006697 -0.067277 0.032249 -0.134183 -0.024987 -0.147541 0.136406 0.082005 -0.014911 -0.044899 -0.059645 -0.192189 0.178317 0.130091 -0.110756 0.320367 0.169871 -0.110506 0.220292 -0.192746 0.061662 0.059602 -0.101818 0.070516 0.180097 -0.020071 -0.076007 -0.199683 -0.013411 -0.170031 0.023940 -0.057600 -0.101938 0.023549 -0.030296 0.112239 0.028836 0.227508 0.249008 0.036913 0.160373 -0.011406 -0.135627 -0.000419 -0.109996 -0.197536 0.116721 -0.054328 0.174027 -0.082723 0.087984 0.024530 -0.117609 -0.025114 -0.078736 -0.005375 -0.196638 -0.046750 -0.227658 0.103487 0.073456 0.081955 0.166428 0.146378 0.208395 0.095491 -0.075340 -0.000728 0.038273 -0.054076 0.146369 0.236486 0.054671 0.107142 0.068563 0.065294 0.010475 0.173343 0.029212 0.052239 0.008645 -0.131247 -0.069209 0.057530 0.133249 -0.007119 0.124875
240 -0.245521 0.103232 0.008147 0.070913 0.176354 0.181219 -0.081638 0.089469 -0.213118 0.122360 0.046086 -0.011897 -0.165582 0.003489 -0.119324 0.073162 0.253415 0.046943 0.023048 0.121867 -0.049989 -0.290626 -0.321656 0.109768 -0.156678 0.072465 -0.022511 -0.044641 0.189394 -0.052267 0.073085 0.187345 0.189143 0.149771 -0.032222 0.058874 -0.200175 -0.001309 -0.138784 0.059713 0.023271 -0.233485 -0.034059 -0.054869 0.145897 -0.006159 0.000436 0.031445 0.025423 0.217189 -0.230835 0.025537 -0.053524 0.052245 0.019249 -0.312300 0.164966 0.065384 0.053272 0.011681 0.038167 -0.169701 -0.097456 -0.041864 0.104684 -0.236872 0.096853 -0.032394 -0.017514 -0.018723 -0.064565 0.143698 -0.010081 0.128797 -0.010927 0.121265 0.175634 -0.036284 0.064337 0.140064 0.033070 -0.122505 -0.018757 -0.014942 0.115515 0.024210 0.121255 -0.085543 -0.038930 0.037618 -0.097792 0.179798 -0.177392 -0.155943 -0.027692 -0.164747 -0.173131 -0.111129 0.062289 -0.091351 -0.096347 0.038210 0.086334 0.185778 -0.011914 0.115971 0.178619 -0.057684 0.125149 0.055312 0.072131 0.081394 0.220681 0.066904 0.117250 0.187763 -0.035506 0.024916 0.141590 -0.166529 -0.129466 -0.189609 0.077686 -0.110447 0.181615 0.075446 -0.082508 -0.011997
286 -0.147199 0.027626 -0.069412 0.002354 -0.045570 -0.088623 0.124580 0.033595 -0.237525 -0.036921 -0.077411 -0.019959 -0.161198 0.161008 -0.154081 0.070294 0.013461 -0.093053 0.099961 0.065229 -0.078520 -0.139620 -0.075681 -0.067222 0.071843 -0.036475 -0.064956 -0.011027 -0.067535 -0.010462 -0.058670 0.246500 0.132196 0.101156 0.014655 0.050649 0.041673 0.159448 -0.085859 0.035969 -0.080882 -0.140680 -0.176061 0.176190 -0.136460 -0.003441 -0.180081 0.169187 -0.051092 0.013540 0.056872 -0.049866 0.107044 0.228900 -0.074786 0.051346 -0.115165 -0.010176 0.183392 -0.040712 -0.089294 -0.012375 0.141586 -0.195347 -0.057597 0.247527 0.028525 0.024774 -0.185212 -0.014562 -0.040968 -0.021874 -0.101666 0.031405 0.025035 0.161129 -0.073677 0.193270 0.132564 0.200180 -0.020184 0.266158 0.328832 0.033375 -0.012605 0.009287 -0.038753 0.040611 -0.136405 -0.058107 0.022433 0.364901 0.195547 -0.124824 0.167965 -0.036609 0.064270 -0.162651 0.011168 -0.275027 -0.043855 -0.113951 0.155562 0.156729 0.008115 -0.142161 0.139178 -0.132519 0.001041 -0.061272 -0.044947 0.200481 0.411690 -0.160464 0.258890 0.166625 -0.028543 -0.178203 0.128565 0.065450 -0.005695 -0.026356 -0.023004 -0.057515 0.037282 0.074052 -0.045652 0.033350
389 -0.184997 -0.005718 -0.112459 -0.013622 -0.065364 0.001117 0.146635 -0.347372 -0.148688 -0.028719 0.144538 0.024386 -0.196059 0.275520 -0.054258 -0.140927 -0.001079 -0.147935 0.026747 0.212831 -0.114997 -0.338061 0.119724 0.155628 0.060830 -0.320319 -0.003652 -0.023376 0.167645 -0.073782 0.059180 0.078899 0.067809 0.277448 0.100427 -0.009009 -0.016374 0.214986 0.060751 0.030361 -0.042250 -0.035747 0.020376 0.102143 -0.010955 -0.023737 -0.078574 -0.027771 0.018654 0.044065 0.300934 0.060249 -0.076423 -0.118716 0.114355 0.229441 0.072242 0.024265 0.156935 -0.002387 0.023447 -0.087958 0.171927 -0.011942 0.108746 -0.060540 -0.133500 -0.119624 -0.118665 -0.171586 -0.029507 -0.131622 -0.091736 -0.107592 -0.068489 -0.008862 0.030980 0.111954 0.183804 0.101494 0.178487 0.120761 -0.009330 0.188406 -0.023539 -0.067770 -0.028786 -0.006018 0.037333 0.089233 -0.046672 -0.004329 0.057635 -0.035293 0.051720 -0.171544 0.208761 -0.115174 0.129154 -0.152747 0.027137 -0.224065 0.266971 0.104441 -0.015523 0.181675 0.168500 -0.060950 0.088138 0.176052 -0.048818 0.081094 0.229095 0.016002 0.028622 0.322303 0.130405 -0.104755 0.031811 -0.115268 -0.162240 -0.191583 -0.072069 -0.096717 0.052808 -0.073920 0.105531 -0.058464
105 -0.118031 -0.159471 0.135478 -0.118125 0.070066 0.133288 0.126640 -0.003300 -0.123687 -0.007990 -0.121189 0.058878 -0.125941 -0.057213 -0.066437 0.129318 -0.050061 -0.017128 0.169814 -0.025746 0.076643 -0.257112 -0.044462 0.021117 -0.041830 0.032451 -0.048047 0.134983 0.089248 0.038303 0.049398 -0.028891 -0.191562 0.184051 0.091643 -0.020191 -0.136381 -0.008953 -0.060508 -0.129726 0.007325 -0.063853 0.038460 -0.001882 0.080090 -0.019309 -0.104166 -0.028278 -0.133328 0.187333 -0.032719 0.033618 -0.154349 0.098733 0.078595 -0.059124 0.037284 0.227253 0.024232 0.151046 0.069561 -0.078904 0.109368 -0.087006 0.154358 -0.022592 0.129717 -0.118368 -0.284984 0.062955 -0.106421 0.004993 -0.136455 0.263379 0.041637 0.202537 0.003624 0.258673 0.189906 0.189441 0.181702 0.164772 0.191667 0.015159 -0.070344 -0.062772 -0.100899 -0.281158 -0.054165 -0.037381 -0.189519 -0.013457 -0.146761 -0.092870 -0.135632 -0.012633 -0.090225 -0.076006 -0.058484 -0.278385 0.090582 -0.114892 0.113816 -0.119934 -0.210290 0.119325 -0.025256 -0.091274 0.023281 0.062286 -0.032978 0.026596 -0.051169 0.170423 -0.089503 0.348606 -0.146437 0.201886 0.108573 -0.184017 0.088181 -0.069530 0.124090 0.172264 -0.079672 0.104513 0.014689 -0.046002
213 -0.231213 0.124818 -0.086326 0.098796 0.048332 0.042807 0.176752 -0.015017 0.032151 -0.030904 0.070842 -0.049866 0.001801 -0.003030 -0.017368 -0.025395 0.205957 -0.413145 0.044584 -0.032175 0.177252 -0.067344 -0.021892 0.145424 -0.063885 -0.178686 -0.320803 -0.021906 0.043632 0.004366 -0.171815 -0.128415 0.018981 0.148111 -0.082320 0.067092 0.069115 0.120874 0.008761 -0.084354 -0.122318 0.023259 0.204783 -0.026216 -0.048229 -0.099448 -0.096936 -0.023171 -0.097906 0.166310 -0.131502 0.030052 0.191049 0.140327 -0.016543 -0.147346 0.010126 0.160319 0.010517 0.093310 0.307999 0.037720 0.119294 -0.047883 0.132016 0.082275 -0.190536 -0.057877 -0.247187 -0.033691 -0.036696 -0.025744 -0.118412 0.109533 0.054473 0.091236 0.024005 0.103184 -0.052466 -0.042832 0.002197 0.055130 -0.094603 -0.046645 -0.024571 0.018837 -0.069475 -0.228193 -0.019463 -0.008101 -0.266582 0.059565 0.135786 -0.156083 -0.149370 -0.003884 0.002370 0.036794 -0.001783 -0.353719 0.121023 -0.015059 0.306970 0.137798 0.078461 0.078862 -0.030566 -0.222078 -0.177250 0.182297 -0.140011 -0.024165 0.167445 0.242997 0.353135 0.155594 0.033710 -0.102003 -0.099510 -0.083816 -0.019674 0.077502 -0.053343 -0.040409 -0.066756 -0.022430 0.198163 -0.172450
155 -0.051850 0.030895 -0.060454 -0.005805 -0.027571 0.077684 0.293287 -0.143513 -0.134853 0.051125 -0.045999 0.047441 -0.065114 0.008687 -0.067297 0.112426 0.082142 -0.013356 0.113076 0.340540 0.083896 -0.214213 -0.167270 0.193377 -0.199587 -0.051153 0.066761 0.013269 -0.027583 0.125663 -0.194195 0.198233 0.155976 0.132534 -0.002700 -0.001320 0.171465 0.191318 0.197682 -0.084957 0.118686 0.102736 -0.082346 0.001505 -0.085621 0.059058 -0.144439 0.139227 -0.098961 0.167748 -0.023784 0.226185 -0.076895 0.069939 0.075983 -0.032228 0.070831 -0.015183 0.016050 0.006475 -0.060298 -0.150853 0.021182 -0.079504 0.191101 0.144247 -0.002768 -0.123230 -0.344291 0.043962 0.019076 -0.021684 -0.027039 0.073431 -0.016980 0.012928 0.049673 -0.062389 0.184864 -0.000155 0.255426 -0.010816 0.074338 -0.036169 0.003281 -0.215024 -0.060680 -0.078482 0.277175 -0.179114 -0.151743 0.102476 0.026071 -0.188567 0.057668 -0.248581 -0.040670 -0.117915 0.011874 -0.056707 -0.086992 0.162609 0.043546 -0.082390 0.038976 0.070246 0.337130 -0.336695 0.017181 -0.030306 0.036603 -0.011593 0.158904 0.053451 0.173969 0.316433 -0.112902 0.084877 0.110545 -0.030252 -0.148195 -0.142971 0.187067 0.060580 0.024689 0.046075 0.093385 -0.079734
233 -0.133901 0.054853 -0.067363 -0.134600 -0.000140 0.030143 -0.034672 -0.077240 -0.178040 0.011894 -0.129943 -0.021962 -0.099867 -0.081317 -0.214082 0.081127 -0.026013 -0.144237 0.099257 0.237815 -0.064885 -0.074640 -0.245313 0.173130 -0.130723 -0.040086 -0.174527 -0.100297 0.075505 0.026063 -0.029261 0.000209 -0.043070 -0.123186 -0.172847 0.004682 -0.089171 0.196157 0.047774 -0.277963 -0.047062 -0.026907 0.093589 0.099576 -0.026276 -0.000282 -0.061075 -0.076474 0.086988 0.203109 -0.073669 0.013795 0.045645 0.268109 -0.008554 -0.065682 0.192161 -0.011644 0.244138 0.125791 0.024334 0.006488 0.042460 -0.157567 0.278300 -0.018124 0.069576 -0.079181 -0.137756 0.019552 0.044780 0.008536 0.086032 0.066347 -0.060028 -0.203741 0.018631 0.054307 0.032499 0.083585 0.240240 0.082999 0.130277 -0.077734 -0.038510 0.126916 0.011795 -0.080165 0.197515 -0.064014 0.113974 0.030180 -0.081192 0.002349 -0.184069 -0.102313 0.120572 -0.174585 -0.159451 -0.208831 -0.009993 -0.138896 0.007674 0.009704 -0.069012 -0.094140 -0.024205 -0.088333 0.062395 0.132797 0.148427 -0.072478 0.355282 -0.185878 -0.036454 0.227190 -0.081630 0.119983 0.096192 -0.070424 -0.172429 -0.103661 -0.169415 -0.064075 -0.032592 -0.031260 0.023614 -0.028979
41 -0.068211 0.033318 0.256376 -0.096185 0.076568 0.041271 0.018214 0.111446 -0.117338 -0.038345 0.060631 0.184479 0.105369 0.136126 -0.044677 -0.098833 -0.025427 0.043015 -0.095093 0.132646 0.003468 -0.001138 -0.074247 -0.021304 -0.180677 0.005199 -0.030952 -0.056143 0.057795 0.066401 0.012315 0.152915 0.006903 -0.011736 0.042884 -0.092400 0.247390 0.190357 -0.107068 -0.240467 -0.076198 -0.045894 -0.011084 0.070985 0.055459 -0.197786 -0.111707 -0.064547 0.182439 -0.001476 0.063681 -0.009536 -0.016308 0.121824 -0.042139 0.003440 0.133669 -0.047743 0.082829 0.010064 -0.085723 0.026385 -0.017754 -0.005228 0.030596 0.234763 -0.011160 0.099146 -0.185452 -0.016900 -0.195257 -0.074320 -0.094860 -0.033586 -0.089476 -0.098333 -0.032342 0.079855 0.306667 -0.067181 0.051300 0.024819 -0.241688 0.124780 -0.051924 -0.008885 0.028998 -0.008601 0.125510 -0.197032 0.051295 0.052721 0.059057 0.000523 -0.075583 -0.310810 -0.049371 -0.126985 -0.046365 -0.277192 0.038991 -0.066343 0.024228 -0.017609 -0.257997 0.081639 0.112265 0.049642 0.002182 0.020497 -0.073971 -0.045108 0.122313 0.156044 0.059459 0.275834 -0.037636 -0.257646 0.021363 -0.202852 0.137056 0.114992 0.032578 0.022686 -0.009459 -0.053451 -0.056390 0.065822
287 0.008534 0.011911 -0.201825 0.006115 -0.022524 0.026699 0.263084 0.000949 -0.106921 0.105833 0.035115 0.122664 -0.191390 -0.052994 0.004803 -0.019334 0.034922 0.088404 0.305428 0.120527 0.204218 -0.246795 -0.107701 0.165561 -0.177082 0.040121 0.005380 0.035724 -0.062066 0.133480 -0.029125 0.124278 -0.019330 0.134239 -0.040951 0.001504 -0.154780 -0.143015 -0.005190 -0.014386 -0.297810 -0.030285 0.057147 0.414338 -0.027852 0.052589 -0.205280 0.163628 -0.113878 0.097748 0.012214 0.051284 0.039150 0.051185 0.160027 -0.088843 -0.000734 -0.026898 0.036937 -0.156588 -0.026709 0.070168 -0.013341 -0.056584 0.038708 -0.044934 -0.123708 0.157654 -0.094276 -0.150772 0.011683 -0.132038 0.155144 -0.087448 -0.147734 0.299316 0.014537 -0.028746 -0.033266 0.238849 0.037370 0.052886 0.167095 0.009718 0.063830 -0.085991 -0.033817 -0.157373 -0.164243 0.202203 -0.277764 0.091845 0.009893 0.006263 -0.156314 -0.113186 0.048884 0.078098 -0.042050 -0.318890 0.043121 -0.098495 0.151226 -0.091639 -0.074782 0.173025 -0.166090 -0.015442 -0.052870 0.165262 -0.131333 -0.157854 0.166340 0.005135 0.182733 0.136049 -0.190543 0.016636 0.071737 0.049312 -0.019771 0.053306 0.049744 0.027713 -0.066853 -0.006135 0.104106 -0.048185
86 0.049193 -0.093152 0.098488 0.009853 -0.103412 -0.001613 0.127459 0.145622 -0.038735 0.037388 -0.217105 0.073159 -0.141205 0.065736 -0.157199 0.092126 -0.022516 -0.112679 0.015482 -0.022505 0.056066 0.045452 -0.178638 0.197007 -0.066138 -0.045733 0.113741 -0.095740 0.186300 -0.086015 -0.054503 0.104857 -0.065541 0.062386 -0.126052 -0.130889 0.134587 0.213433 0.174460 -0.216284 -0.147332 -0.156882 -0.108047 0.087337 0.092157 0.110129 -0.060199 0.140550 -0.034216 0.015743 0.085589 0.030023 -0.080960 0.137299 0.069798 -0.025414 -0.018412 0.215930 0.023547 0.113078 -0.133212 0.105594 0.014247 -0.172165 0.042414 0.107043 0.035834 0.020737 -0.028070 -0.000818 -0.116428 -0.065619 0.044554 0.297681 0.085057 0.103046 0.137397 0.095070 0.124851 0.006429 -0.181634 0.046973 -0.266377 0.064689 0.093749 0.032771 0.070190 -0.280111 0.006026 0.009856 -0.066064 0.213793 0.130160 -0.005365 -0.068755 -0.305431 0.034224 -0.181779 -0.033158 -0.107775 0.080027 -0.013882 0.072002 0.121490 0.003913 -0.049661 0.059299 -0.083370 0.063640 0.181875 0.196923 -0.041727 0.100709 -0.108092 0.053610 0.334877 -0.119865 0.002097 -0.106383 0.020403 -0.170269 -0.071203 -0.069789 0.034676 0.123960 0.040486 0.212377 -0.216245
100 -0.163428 0.101786 0.040817 -0.055869 -0.043556 0.200208 0.221663 0.092318 -0.378953 -0.101602 -0.020160 -0.233274 0.055652 0.140145 -0.193381 0.062970 -0.048425 -0.013152 0.013162 0.080269 -0.012185 -0.142531 -0.027314 0.121590 -0.298420 0.056214 0.021685 0.096563 0.038702 0.112695 0.026112 0.033063 -0.209091 0.208720 0.142435 -0.104309 -0.226589 -0.214028 0.042216 -0.118006 -0.192132 -0.140856 -0.197604 -0.064339 -0.022036 0.102428 -0.164216 0.052643 -0.096606 0.010817 -0.022021 0.145261 -0.277787 -0.042107 -0.058171 -0.016866 -0.054482 0.023725 -0.006922 0.083498 -0.211254 0.045989 -0.354178 -0.042379 0.157390 -0.014746 0.002611 -0.307745 0.024024 0.086574 -0.087454 0.051615 -0.056747 -0.074715 -0.057352 0.166919 0.126395 0.302124 0.088128 -0.182279 0.238618 0.178011 0.095753 0.017605 -0.071455 -0.032128 0.072525 -0.289229 0.054711 -0.023145 0.046152 0.019679 -0.055700 -0.246375 0.187973 0.063869 0.164861 -0.220212 0.093960 -0.071150 -0.060222 0.076057 0.207358 0.257189 -0.103061 0.185641 0.121178 0.012965 -0.028725 0.152896 -0.016355 0.101587 -0.069538 -0.141780 0.023648 0.358289 0.071498 -0.025350 0.140178 0.167992 0.004662 0.162218 -0.115279 0.079367 -0.030549 0.167355 -0.053706 0.007511
497 -0.072941 -0.100654 0.113721 -0.096934 0.137678 0.141931 0.231965 -0.139518 -0.103726 -0.160485 0.060002 0.045835 -0.098620 0.163000 0.027756 -0.158910 0.139421 -0.105581 0.180492 0.021679 -0.140067 -0.087932 -0.086015 0.089721 0.073413 -0.014465 -0.196794 0.137637 -0.146200 0.014754 -0.123966 -0.049760 0.027993 0.015371 0.078785 -0.048459 0.103241 0.218270 0.011850 -0.113362 -0.204850 -0.074232 -0.054774 -0.083981 0.145130 -0.243241 0.263628 0.112445 -0.115721 0.212397 -0.049643 -0.151049 -0.088571 0.134427 -0.156511 -0.013013 0.074133 0.245788 -0.178604 -0.062731 0.019177 -0.160752 -0.000901 0.295899 -0.050312 0.027309 0.002854 -0.141109 -0.318018 0.096790 -0.067822 -0.224383 -0.070143 -0.034359 -0.076605 0.151453 0.137816 0.101111 0.322103 0.171709 0.088538 0.101894 -0.038534 0.364992 0.110852 0.046560 0.059426 -0.092508 0.042598 0.064880 -0.109418 0.088955 -0.046904 -0.064517 -0.134128 0.004579 -0.086716 -0.175530 -0.072066 -0.181128 0.076517 -0.106576 0.132061 -0.089054 -0.124321 -0.130727 0.231271 -0.109022 0.022875 0.129540 -0.172698 -0.029335 0.098485 -0.017044 0.197241 0.370017 0.004956 -0.070605 0.058796 -0.051060 0.173539 -0.051022 -0.104734 0.152041 0.112586 -0.203598 -0.079437 -0.098278
180 -0.091834 0.078398 0.142413 0.016119 0.022735 0.189544 0.087238 0.108152 -0.210808 -0.191236 0.137714 0.008402 -0.095548 0.045574 -0.102344 0.085181 -0.113895 -0.139986 -0.164466 0.253673 0.103275 0.005893 -0.193537 0.021647 0.032375 -0.074431 -0.085536 0.090091 0.009754 -0.064304 0.057168 0.105703 -0.075105 0.216267 -0.095979 0.048229 -0.115680 -0.012209 0.036342 0.175001 -0.213589 -0.023077 -0.020918 -0.040330 -0.007268 0.129547 -0.124018 0.235779 0.064365 0.090066 -0.001474 0.083186 0.102360 0.030446 0.211971 -0.188020 0.127024 0.112741 -0.010450 0.132972 -0.052721 0.077677 0.024287 -0.085268 0.058144 0.070849 0.076462 -0.016845 -0.069371 0.057824 0.096445 -0.103493 0.053329 0.085272 0.096668 0.038825 0.036148 0.158191 0.049381 0.107980 0.207981 0.063564 0.105362 0.079831 -0.013802 -0.144282 -0.145080 -0.050602 0.067594 -0.092609 -0.132266 0.071110 0.069075 -0.126447 0.014910 0.044535 0.027349 0.068670 -0.154895 -0.222171 -0.087184 -0.010883 0.333472 0.237443 -0.043517 0.129758 0.190249 -0.145202 -0.008521 0.031398 -0.030998 0.048373 0.137144 0.063230 0.132100 0.252807 -0.035753 0.073733 -0.056487 -0.200747 0.011880 0.090637 0.046714 0.008051 0.342908 0.093387 0.072514 -0.012022
79 -0.065333 -0.056075 0.164498 0.183706 -0.125635 -0.036763 0.118779 0.141505 0.062753 -0.141953 0.029407 -0.015034 -0.044566 0.104432 -0.247145 -0.119176 0.022823 -0.260840 0.020196 0.113022 -0.058275 -0.189908 -0.272315 0.264947 -0.088891 0.049223 -0.104462 0.047691 0.346952 0.253292 0.087582 -0.098901 -0.065085 0.145373 0.250340 -0.041669 -0.156712 0.013024 0.117993 -0.050366 -0.078416 -0.006896 0.066150 -0.018994 -0.003180 0.083873 -0.067921 0.134683 0.208370 0.069038 -0.176231 0.020576 -0.064740 0.095290 0.181072 0.047716 0.008979 0.034163 0.103439 -0.081214 -0.026379 0.194984 0.059434 -0.129593 0.138325 -0.012684 -0.175529 -0.082825 -0.062403 0.083094 0.096067 -0.011009 0.201553 0.243421 0.091781 0.217345 0.048205 -0.034169 0.139939 -0.084643 0.133231 0.113474 0.173135 -0.087498 0.058764 0.103191 -0.015413 -0.064807 0.124329 -0.158901 -0.033067 0.056731 -0.032588 -0.204601 0.018524 -0.102382 0.016220 -0.119935 -0.021515 -0.193620 0.232744 -0.088513 0.277129 0.138388 -0.034519 0.014984 0.126430 0.042918 -0.142865 -0.039189 0.179068 0.066261 0.080887 -0.154681 0.048077 0.191935 -0.161894 -0.043045 0.056351 -0.081388 -0.075661 -0.163885 0.069105 0.130158 0.006724 0.040493 0.045334 -0.089072
237 -0.005791 0.254818 0.135966 0.127555 -0.053159 -0.183671 0.233467 0.029743 -0.229771 -0.032410 0.030951 0.050498 0.117411 0.067426 0.034375 0.017253 -0.050283 0.019070 -0.084397 0.082644 -0.091055 -0.274679 -0.093197 0.092918 -0.074229 0.071552 -0.191713 0.118791 0.181968 0.038017 -0.189205 0.165472 0.080113 0.164138 0.027188 -0.269842 -0.143445 0.006057 -0.067764 -0.058729 0.001378 0.031584 -0.009692 0.018427 0.045730 -0.165049 -0.207762 0.181826 0.022086 -0.030185 -0.080450 0.146354 -0.227741 -0.041990 -0.109386 0.002799 0.142497 0.104474 0.233453 0.077389 0.167786 0.057513 0.040890 0.057716 0.057433 -0.158183 -0.059679 -0.132637 -0.161313 0.033794 -0.099720 0.122705 0.013969 0.238665 0.017042 -0.016794 0.120855 0.098907 0.221655 0.285901 0.268811 0.137999 0.101006 0.009207 0.039952 0.032847 -0.234159 -0.019170 -0.150810 0.011289 -0.100912 -0.035432 -0.173382 -0.113421 -0.111298 -0.036355 -0.102774 -0.249797 0.000046 -0.032077 -0.180632 -0.211012 0.169254 -0.069716 0.329528 0.184502 0.202713 -0.167661 0.167528 0.217542 0.044692 -0.034251 0.125784 0.076708 0.066202 0.157099 -0.111017 0.030823 -0.218489 -0.056310 0.005788 0.040274 0.003815 -0.156168 0.086597 0.037838 0.017899 0.064121
172 -0.058757 0.126439 0.217680 0.141091 0.089411 0.175478 0.139344 0.048163 -0.122691 -0.065361 0.085780 -0.074999 -0.236648 0.055852 0.004598 -0.080126 0.078598 -0.092055 0.171517 -0.083985 0.052917 -0.176743 -0.057875 0.187053 -0.048955 -0.170419 0.008221 -0.007600 0.058665 0.276793 0.116957 0.200828 0.046840 0.065554 -0.142414 -0.047047 0.068891 0.163006 -0.123726 -0.081611 -0.016697 -0.045017 -0.102120 -0.021565 -0.026797 -0.107405 -0.039439 0.000077 -0.003455 0.187901 -0.041091 -0.102890 0.025596 0.038369 0.000579 -0.030237 0.037547 0.080064 0.145232 0.184126 -0.153978 -0.020818 -0.014026 -0.112858 0.041147 -0.018944 -0.182506 -0.105561 -0.104932 -0.282707 -0.079432 -0.062427 0.033059 0.090020 -0.019918 0.257566 0.132232 -0.063445 0.074260 0.093980 0.224258 0.081699 0.023477 0.008461 -0.023300 -0.090480 -0.037234 -0.047413 0.036565 0.170388 -0.028998 0.038024 0.037513 -0.244928 -0.120857 -0.086009 0.040165 -0.103928 0.018130 -0.280889 0.155025 -0.038199 0.257034 0.169847 0.089700 -0.099200 0.067075 -0.290673 -0.038420 0.002634 -0.072884 0.158001 0.102235 -0.011054 0.094308 0.237040 -0.230243 -0.054724 0.069595 0.039351 0.213702 -0.187605 0.052415 -0.079666 0.018676 0.110421 0.150499 -0.060757
530 -0.021709 0.039062 0.080952 0.151856 0.077790 0.014861 0.014135 0.124307 -0.005552 -0.151375 0.121999 0.128655 -0.006222 -0.064703 0.073593 0.095994 0.041512 -0.178999 0.025336 0.138009 0.298576 -0.202590 -0.089791 0.089741 -0.110669 0.022185 -0.117547 0.015075 -0.011297 0.018352 -0.011566 -0.067009 -0.037428 -0.182458 -0.036711 0.094407 -0.084503 0.177861 -0.010730 -0.018424 -0.007426 0.026477 0.053006 0.076600 -0.020442 0.125442 0.087194 0.021981 0.221085 0.003525 -0.027522 0.169504 -0.031098 0.071009 -0.290462 0.040160 0.041277 -0.051025 -0.089069 0.209749 0.031062 0.040387 0.093905 -0.110457 0.110043 0.060086 0.092646 -0.158737 -0.203884 -0.104241 0.028738 -0.019592 -0.104048 0.063283 0.048274 -0.132458 0.141807 -0.068307 0.003851 0.294501 0.067420 0.034390 -0.069090 0.211015 0.151124 0.006977 0.032877 -0.253345 -0.018456 -0.067916 -0.098287 0.045812 -0.091356 -0.156689 -0.094045 -0.119761 -0.094665 -0.182701 -0.049890 -0.405154 0.003568 -0.243243 0.224646 0.020561 0.185683 0.033930 0.072302 -0.017572 0.011646 0.218359 0.092319 -0.069480 0.257873 -0.020354 0.240826 0.393019 -0.175431 0.142016 -0.082464 0.103225 -0.006685 -0.085707 -0.026820 0.002249 0.109066 0.167865 -0.084465 0.034858
291 -0.085016 0.131838 -0.050783 0.250624 0.065171 -0.115621 0.125737 -0.006422 0.118515 -0.209317 -0.057668 -0.112727 -0.204822 0.056189 0.021205 -0.079624 0.045834 -0.057227 0.173806 -0.051167 0.196366 -0.015773 -0.018797 0.221778 0.187367 0.017223 -0.329050 -0.111729 0.100808 -0.153423 0.104123 0.070302 -0.081861 0.152651 -0.224407 -0.229694 -0.084794 0.218527 0.063004 -0.135747 -0.415756 -0.148189 -0.005038 0.081437 -0.038492 0.047298 -0.067001 0.005332 -0.109216 0.081144 -0.070565 0.097928 0.061889 0.132201 -0.051008 0.041490 -0.200969 0.143254 0.031081 0.193693 -0.281265 0.068486 -0.094089 -0.220182 0.313166 -0.009909 0.013758 -0.146380 0.012247 -0.123310 0.078683 0.044987 0.063600 0.027397 0.006969 0.115961 -0.039120 0.051735 0.001334 0.163859 -0.041669 0.049799 0.167365 -0.067896 0.092441 -0.128633 -0.070723 -0.074907 0.200470 0.155850 -0.040708 0.089918 -0.113040 -0.120692 -0.071105 -0.193767 -0.075426 -0.106033 0.073034 -0.200855 0.014566 -0.063026 0.274781 0.029207 -0.209984 -0.078389 0.100203 -0.025742 -0.152982 0.343295 -0.042114 0.111593 0.316346 -0.131900 0.123013 0.213475 -0.025412 -0.021561 -0.085129 0.105099 -0.110219 -0.015914 -0.041086 -0.081595 0.072265 0.157855 -0.001620 0.121708
106 -0.062602 0.011078 0.065926 -0.070150 0.119948 0.177088 -0.021784 -0.096757 -0.223657 -0.010515 0.209301 -0.179892 -0.097348 -0.002140 -0.111798 0.032959 -0.121969 0.029147 0.008638 0.005929 0.025041 -0.045997 -0.154619 0.114660 0.256365 -0.180374 -0.014583 0.089527 0.233168 0.140613 -0.096460 0.073757 0.180007 0.149613 0.033838 -0.109976 -0.065286 0.118105 0.069684 -0.029366 -0.132650 -0.196954 0.071197 -0.129941 0.034341 0.034319 0.017548 -0.108660 0.053519 0.124180 0.026297 0.165824 -0.133643 0.079916 -0.037193 -0.002998 -0.059151 0.205364 0.111507 0.021837 -0.111719 -0.041618 -0.108237 -0.080023 -0.041673 0.205204 -0.026383 0.011053 -0.124464 0.092579 -0.064084 0.021415 -0.103201 0.046198 -0.074911 -0.050723 0.063556 0.007307 0.164198 0.228290 0.005337 0.063225 0.016609 -0.128603 0.012457 0.104100 0.028018 -0.254443 0.154267 -0.251137 -0.225911 0.079305 -0.058508 -0.176958 -0.238593 0.022114 0.056758 -0.043378 -0.148811 -0.195597 0.034903 0.172656 0.110557 0.170169 0.059491 -0.048263 0.023382 -0.114606 0.050088 0.006373 -0.131214 0.297673 0.210603 0.132609 0.154931 0.215752 -0.101417 0.053544 0.129598 0.181372 -0.081126 0.014597 -0.064398 -0.175840 0.008888 0.107786 -0.224990 -0.151293
511 -0.185288 -0.016737 0.019693 0.083873 -0.009842 -0.048231 0.196919 0.147859 -0.154024 0.036011 0.141961 -0.036628 -0.028664 -0.157107 -0.012917 -0.011516 0.076885 0.029731 0.133255 0.142839 0.037846 0.088648 0.067711 0.301608 0.118327 -0.070932 0.013411 0.037092 -0.053519 0.002189 0.040254 0.298406 0.018015 -0.000911 0.044278 0.171352 0.013881 0.108895 -0.017858 -0.067392 -0.156897 0.067457 -0.169409 -0.106701 0.007897 -0.308201 -0.146510 0.075130 0.045276 0.114057 -0.137925 0.093840 -0.143266 0.131257 -0.102653 0.051622 -0.035734 0.090656 0.262441 0.105455 -0.129126 0.124882 0.125651 -0.106279 0.305861 0.079420 -0.117571 0.014581 -0.166397 -0.172856 0.072158 0.000619 -0.083841 0.002074 -0.101679 -0.034899 -0.093701 0.370836 0.395419 0.071776 0.133516 0.202821 0.051092 -0.033240 -0.131468 0.063059 0.009143 0.060022 0.025846 0.168400 0.069082 0.028114 -0.034327 -0.042906 0.010431 -0.070454 0.016335 -0.081049 -0.119144 -0.209763 -0.084270 -0.044223 0.267132 -0.071844 0.026657 0.140806 0.057992 -0.108720 0.053789 -0.032646 0.104949 0.025366 0.055236 0.034974 0.152942 0.207504 -0.085961 -0.022034 0.121057 0.094402 -0.138070 -0.001628 0.118837 0.008383 0.095187 -0.036800 -0.022688 0.117260
331 -0.071092 0.094274 0.234607 -0.018064 0.150635 -0.053866 -0.002044 0.006990 0.093650 -0.072828 -0.189490 -0.008280 -0.180552 -0.064353 -0.004069 -0.016007 0.012842 -0.202402 -0.098278 0.055205 -0.107149 -0.109410 -0.291733 0.243935 0.008265 0.140796 -0.001857 -0.168378 0.233818 -0.020696 -0.084135 0.078221 0.092473 0.195878 0.106644 -0.081868 -0.011190 0.095476 -0.057433 0.092214 -0.185184 -0.052499 -0.137650 0.282492 0.132984 0.123976 -0.087442 -0.010910 0.003515 0.060899 0.019156 0.158708 -0.005441 0.330365 0.146966 0.154545 -0.079108 0.014777 0.076139 0.097076 -0.005200 -0.138872 0.001435 -0.012068 0.095784 0.053517 -0.040334 0.129582 -0.123329 -0.018294 -0.145992 -0.052278 0.041545 0.094428 0.031808 0.058843 0.084544 0.239102 -0.045449 0.173120 0.004755 -0.125686 0.154005 -0.050686 -0.115747 0.026943 -0.072455 -0.256508 0.011221 -0.176610 -0.218647 0.057239 -0.064734 -0.096531 -0.231655 -0.065095 -0.031585 -0.071717 -0.100060 -0.131467 -0.183847 -0.057494 0.137883 -0.033279 -0.039644 0.017985 -0.089721 -0.172797 0.096964 0.147909 -0.115636 0.034001 0.247816 0.043258 0.235374 0.271475 -0.051693 0.058235 -0.095274 -0.164334 0.153482 0.059833 -0.012496 0.033124 0.017278 0.093405 0.168065 -0.147657
104 -0.140764 0.042968 -0.010267 -0.132042 -0.113194 0.045086 0.213374 0.040307 -0.384476 0.148835 -0.043368 0.084088 -0.088165 -0.074696 -0.312040 -0.060666 -0.068722 -0.153698 0.053315 0.135641 0.116302 -0.204790 -0.055875 -0.071326 0.051369 0.205947 -0.057934 -0.049587 0.136914 0.011938 0.012497 0.194022 -0.118669 -0.004264 -0.083698 -0.083622 -0.097584 0.130832 0.187186 -0.002406 -0.078535 0.034384 0.022944 0.094780 -0.181426 0.009781 -0.042756 -0.010388 -0.022470 0.250771 -0.140811 0.136448 -0.022077 -0.043406 -0.042241 -0.117770 0.006521 0.044261 0.084594 0.196160 -0.118451 -0.036095 0.113746 -0.132027 0.137370 -0.180402 -0.150234 -0.267282 -0.052700 0.013792 -0.113430 -0.001997 -0.174233 0.026650 -0.079550 0.122452 0.076647 0.157070 0.101630 -0.000239 0.108373 -0.020037 0.030000 -0.112992 -0.021813 -0.070047 0.152755 -0.185215 0.127171 -0.030869 -0.063912 0.113778 0.122215 -0.294235 -0.255976 -0.143404 -0.045861 0.023277 0.088736 -0.432624 0.012432 -0.052799 0.166370 0.045516 0.022542 -0.023228 0.031127 0.079762 0.097800 -0.087409 -0.111995 0.028286 0.399447 -0.010692 0.063790 0.016392 0.014762 -0.028167 0.104161 -0.053724 -0.033777 -0.136720 0.067963 -0.211117 -0.001388 -0.041514 0.143716 -0.039089
534 -0.141912 -0.136199 -0.069418 0.007492 0.099291 0.204271 -0.082803 -0.054757 -0.102381 -0.052218 0.003521 0.015987 -0.090956 0.166476 -0.041794 0.068786 -0.130617 -0.090332 0.128595 0.177725 0.093541 -0.150115 -0.146066 0.277711 -0.209565 0.066495 -0.149962 -0.061812 0.178666 0.031510 0.116051 0.082244 -0.002536 -0.017189 0.044093 0.014290 0.111988 0.245684 0.014659 -0.124593 -0.266300 0.058717 0.070823 0.066570 0.124682 0.066120 0.147316 -0.118084 0.111435 0.116746 0.069546 -0.013749 -0.037454 0.104778 -0.031553 0.079631 0.211316 0.084742 -0.076051 0.138656 -0.210664 0.029656 -0.178834 0.099235 0.185878 0.204841 -0.031187 0.027726 -0.158288 -0.025991 -0.199507 0.044892 -0.059065 0.181487 0.080392 0.052161 0.196238 0.065256 0.137753 0.022038 0.136403 0.267517 -0.094940 -0.020549 0.213300 0.067178 -0.005889 -0.144902 -0.010875 0.066929 -0.332535 0.051758 -0.092936 -0.144608 -0.017626 0.127245 0.029846 -0.112005 -0.133598 -0.045465 0.148706 0.172220 0.271393 0.086048 -0.138013 0.028430 0.192446 0.269233 0.172474 0.066787 0.213740 0.111380 0.071915 0.082654 0.177703 0.172113 0.119601 0.060087 0.136907 0.150553 0.077765 0.034797 0.113540 0.032183 0.140484 0.221697 0.008897 0.000343
60 -0.017923 -0.059445 0.056701 0.098062 -0.026145 0.022799 -0.030474 0.071375 -0.021440 -0.031306 0.190956 0.015736 -0.086680 -0.034260 0.076421 0.109944 -0.029979 0.006414 -0.008281 0.024481 -0.059544 -0.247608 -0.041804 0.264826 0.012450 0.087417 -0.062997 -0.114067 0.241227 -0.049171 -0.160644 0.182790 0.139501 0.210533 0.081111 -0.108892 -0.236414 0.146531 -0.180969 -0.055340 -0.004445 -0.055728 0.004390 0.183301 0.112239 0.141508 -0.116843 0.194707 -0.138260 0.043286 -0.146023 -0.000118 0.061545 -0.059521 0.240151 0.085681 0.117644 -0.002862 0.086322 0.140307 -0.178540 0.001185 0.036562 -0.042121 0.105070 -0.032132 0.065769 0.066976 -0.009211 0.015404 -0.065121 0.021116 0.079815 0.090233 0.168979 0.219056 0.389776 0.073491 0.204264 0.136130 0.087496 -0.037772 0.157338 0.268543 0.043163 -0.214161 0.074723 -0.026274 0.129970 0.032945 -0.112100 0.054942 -0.061302 -0.196349 -0.115472 -0.093154 -0.219852 -0.252320 -0.132591 -0.135243 0.037357 -0.003343 -0.026136 0.110374 -0.032298 -0.001996 0.027503 -0.223321 -0.013765 0.198159 -0.075176 0.120993 0.230288 0.049455 0.017437 0.097727 0.055895 -0.013659 0.030886 0.138257 -0.080147 0.022083 0.049813 0.070750 0.100498 0.114244 0.004827 0.030957
51 -0.190702 0.129362 0.014795 0.009077 0.289277 -0.031754 0.064211 0.165775 0.009070 0.029497 0.017584 -0.034202 -0.089877 0.249842 -0.017430 0.105298 -0.020376 0.054583 0.229232 0.043761 0.022804 -0.170031 -0.201261 0.162609 -0.256543 0.030481 -0.161948 -0.007951 0.033754 0.052308 -0.129259 0.004295 -0.039541 -0.004004 -0.044667 -0.015661 -0.110824 0.199828 -0.033408 -0.203959 -0.177843 -0.107047 -0.096298 0.138185 0.050467 0.233385 -0.054258 -0.028096 0.244066 -0.004205 -0.060533 -0.058631 -0.142262 -0.112884 0.033173 0.177404 0.057420 0.012386 0.177186 0.162918 -0.015271 0.110852 -0.106372 -0.157208 0.077260 0.318357 -0.090398 0.050671 0.060297 -0.238642 -0.042187 0.046606 -0.053049 -0.062328 -0.165441 0.100901 -0.091686 0.198076 0.103447 0.140915 0.111317 -0.071834 0.050157 0.094954 0.009051 -0.012713 -0.046631 -0.182228 0.161383 -0.053552 0.004025 0.269558 -0.057778 -0.156595 -0.034652 -0.218949 0.143913 -0.081469 0.059164 -0.096831 0.025274 -0.123900 0.200400 0.045508 -0.039200 0.009023 0.201869 -0.063845 -0.005903 0.088080 -0.154616 -0.015108 0.298188 -0.157376 -0.175472 0.221827 -0.023248 -0.004284 0.141086 0.194339 0.065136 -0.221028 -0.138663 -0.105100 0.064596 0.050417 0.034087 -0.236744
143 0.154200 -0.013351 -0.040019 0.020418 0.061653 0.016889 -0.009770 -0.103855 -0.271956 0.136110 0.082228 0.204325 -0.057117 0.187191 -0.029345 0.085399 -0.032870 -0.116407 -0.028428 0.219431 -0.099245 -0.141001 0.019019 0.260531 -0.148263 0.008605 -0.101965 0.009718 0.056192 0.161924 0.083498 0.095461 0.266523 0.269725 -0.053357 0.059001 -0.081302 -0.112998 -0.008912 0.029586 -0.276007 -0.229089 -0.140928 0.019820 0.139617 -0.102101 0.001038 0.028117 -0.086301 0.086494 -0.128385 -0.001763 -0.239774 -0.083508 0.092160 0.029639 0.095629 0.368559 -0.004455 0.068315 -0.152024 -0.001469 0.062114 -0.217283 0.142718 -0.026950 0.077870 -0.004369 -0.199299 -0.044696 -0.064319 -0.034464 0.072357 0.047843 -0.046210 0.027985 0.316745 0.120721 0.228346 0.055932 0.250169 0.157120 0.040266 0.115580 -0.033679 0.018548 -0.069285 0.110972 0.035927 -0.041571 0.053742 0.229539 0.069254 -0.204218 0.082406 0.037947 -0.039981 0.120670 0.092592 -0.084693 0.095208 -0.060615 0.004121 -0.061330 0.009659 0.001019 0.235824 -0.226427 -0.138699 0.025543 -0.075771 0.059188 0.198218 -0.020770 -0.058492 0.133001 -0.131976 0.004001 -0.080990 -0.095737 0.139919 -0.118722 -0.030752 -0.217693 0.023630 0.120599 0.061924 -0.029829
187 -0.215292 0.108340 0.133998 0.014606 0.096226 0.136092 0.191495 -0.320239 -0.053471 -0.040787 -0.180469 0.178285 -0.188990 0.089843 -0.203519 -0.036852 0.092109 -0.139084 0.026316 0.064237 -0.158718 -0.276741 -0.059385 0.156569 -0.135425 -0.037125 -0.148823 -0.082256 -0.095321 -0.087767 0.117797 0.006156 0.092369 -0.067805 0.084240 -0.003857 0.059418 0.248997 0.005240 -0.170388 -0.275497 -0.080049 -0.113828 -0.009643 0.002756 0.041367 0.008474 0.176786 0.044649 0.092767 0.139431 0.122760 -0.009373 0.276162 0.140724 0.107950 -0.060063 0.222003 -0.064289 -0.020906 -0.042289 0.079035 0.155116 -0.311118 0.123157 0.248427 -0.049680 0.000584 -0.416626 -0.007909 -0.150887 -0.158835 -0.035888 0.271118 0.108082 0.272612 0.213904 0.025492 0.103641 0.186375 -0.008327 0.301418 -0.028058 -0.065013 0.024305 0.031033 0.149183 0.159010 0.022702 0.169453 -0.035407 0.145619 0.017591 -0.148650 -0.036448 0.047578 0.061423 -0.073491 0.145642 -0.046709 -0.072735 0.086528 0.010667 -0.058316 0.050970 -0.159984 0.204814 -0.198575 -0.100669 0.243670 0.132365 0.034361 0.078321 0.108261 0.307298 0.134979 -0.103872 0.172801 -0.088092 0.040489 -0.052396 -0.189327 -0.001960 0.155080 -0.170671 -0.046942 0.219628 -0.024089
478 -0.083457 0.150038 0.194375 0.049695 -0.145046 -0.032354 0.045670 0.078896 0.024655 0.042486 -0.155019 0.143070 -0.360985 0.039075 -0.138266 -0.020534 0.102613 -0.077413 0.106763 0.043972 -0.003800 -0.168615 -0.003223 0.330625 0.048306 0.046575 -0.221519 -0.066103 0.194695 -0.034457 0.085183 0.146653 0.074315 0.244502 -0.124373 0.148668 -0.065989 -0.153290 -0.011945 -0.232142 0.015704 0.028101 0.013161 -0.129073 0.027199 -0.067659 -0.252594 -0.008922 0.056936 0.264914 -0.002381 0.041610 -0.002203 0.201103 0.003413 0.115094 0.021155 0.034564 0.126924 -0.031168 0.008837 -0.258628 -0.023682 -0.184066 0.115605 -0.061874 -0.057282 -0.127939 -0.148530 -0.053855 -0.059736 0.088494 -0.118252 0.118998 -0.135261 -0.005535 0.220055 0.197489 0.076621 0.139395 -0.201984 -0.030103 -0.002908 0.020802 0.043328 -0.085746 -0.001882 -0.057524 -0.075193 -0.087930 0.017713 -0.013920 -0.249597 -0.000833 0.039476 0.007666 0.100243 -0.137185 -0.195562 -0.103551 -0.147942 -0.058702 0.167626 0.069230 -0.069544 -0.167047 0.308702 -0.158541 -0.137722 -0.084630 0.003581 0.100541 0.124200 0.122072 0.131259 0.343532 0.102644 -0.161723 0.131026 -0.003757 0.142657 0.047339 -0.025783 -0.018798 0.062369 0.010713 0.134670 -0.051031
145 -0.064754 -0.023429 0.157633 0.035908 -0.090370 0.243096 0.125014 0.003046 -0.342955 -0.184455 0.168335 -0.026421 0.010743 0.127697 0.018345 0.108099 0.029553 -0.006671 0.054335 0.155285 0.077342 -0.103454 0.057217 0.215090 -0.041353 0.148928 -0.188640 0.009555 -0.049337 0.043534 0.267183 0.180057 -0.012449 0.111276 0.065189 -0.073272 0.020762 0.036105 0.060058 -0.076624 0.019872 -0.032200 0.141608 -0.028325 -0.046274 -0.099507 -0.108353 0.044733 0.048917 -0.165059 -0.101963 0.098191 0.093182 0.029323 0.012866 -0.115516 0.114940 0.107445 -0.149781 0.032920 -0.131463 -0.000843 0.137643 -0.237553 0.346887 0.026699 -0.015486 -0.075898 -0.111911 0.026330 -0.023593 0.203527 -0.059592 0.093979 0.033773 0.168699 0.114121 0.164392 0.238675 0.014620 0.117807 0.071953 0.130500 -0.059027 -0.037051 -0.136526 0.073640 -0.269365 -0.099449 -0.111523 -0.145618 0.031198 -0.220727 -0.120188 0.011942 -0.259295 0.120580 -0.043641 -0.098220 -0.218124 0.080479 -0.081502 -0.147932 0.177633 -0.001978 -0.029142 -0.033428 -0.047170 -0.067672 0.008322 0.011365 0.195611 0.103442 0.029563 -0.026124 0.136729 -0.234359 0.070049 0.095458 -0.076110 -0.085485 0.122225 0.266455 -0.003690 0.145179 -0.018573 0.205045 -0.136953
96 -0.014780 0.098634 0.108961 0.071318 -0.146419 0.164292 0.222750 -0.002893 -0.176728 -0.134992 -0.072091 -0.017688 -0.092526 -0.003504 -0.187996 -0.190951 -0.154047 -0.156222 -0.094608 0.056640 -0.096860 -0.002310 -0.100945 0.064579 0.005919 0.096245 -0.159580 0.007267 0.037834 0.169913 0.088619 0.145325 0.011840 0.068241 0.091282 0.259831 0.032207 0.349188 0.082677 -0.012905 0.062465 -0.263872 0.037881 0.102280 0.096310 0.058759 -0.016443 0.027301 -0.100866 0.074079 -0.101915 -0.053990 0.180355 0.093887 -0.081325 -0.112850 -0.020347 0.121116 -0.025455 0.140273 -0.266868 -0.048228 -0.021007 -0.170387 0.201071 0.032364 0.071076 0.014681 -0.012064 -0.021902 -0.139750 -0.010627 -0.077180 -0.039902 -0.266263 0.077952 0.099667 -0.056604 0.285011 0.083361 0.036493 0.294742 -0.157544 0.135489 0.038363 -0.032863 -0.002953 -0.004263 0.168035 0.043587 -0.168620 0.060246 0.037279 -0.164837 -0.161285 -0.053824 -0.005754 -0.158900 -0.014446 -0.197557 0.036239 -0.290998 0.138904 -0.202743 0.015985 0.083414 0.152936 -0.180556 -0.015607 -0.170102 -0.029908 -0.091023 0.234407 0.096885 0.043710 0.134407 -0.131333 -0.065421 -0.187543 -0.022166 -0.014296 -0.051338 -0.050508 0.107497 0.201873 0.093805 0.112509 -0.012015
166 -0.150438 0.000463 0.134234 0.113031 -0.131746 0.018564 0.063714 -0.191312 -0.174466 -0.350635 -0.027982 -0.164934 -0.146273 0.250813 -0.308376 -0.116839 0.108516 0.076152 -0.016817 0.056581 -0.045360 -0.138502 0.112149 0.078503 -0.020332 -0.035827 -0.145494 0.016122 0.029491 -0.182715 -0.048834 0.080778 0.245121 -0.023510 0.173534 -0.224959 -0.117298 0.427102 -0.020435 0.019651 -0.173446 -0.063573 0.029562 0.207128 0.240638 0.136930 -0.081612 0.051441 0.218209 0.179360 -0.117387 0.084571 -0.126138 0.014242 0.071974 0.146896 0.177622 0.198282 -0.013267 0.115871 -0.188306 0.319137 0.041615 -0.380200 0.113572 0.098427 0.013032 0.000186 -0.094055 -0.349381 0.149359 -0.105851 -0.032966 -0.053434 0.013632 0.308742 0.103237 0.190850 0.135337 0.162336 -0.139175 0.044582 -0.042530 -0.039342 0.310914 0.096811 -0.010875 -0.182390 0.024397 0.165079 -0.158181 0.219021 0.002363 -0.150459 0.090651 0.048943 -0.007826 -0.061100 0.049264 0.125314 0.066604 -0.024807 0.247104 0.151928 -0.028910 0.064148 0.138922 -0.213948 0.136541 -0.042990 0.022633 -0.017758 0.231278 0.254540 0.062769 0.151849 0.082596 0.028563 0.068966 -0.078697 -0.106312 0.064184 0.048936 -0.220060 0.015073 -0.009093 0.050076 0.031956
341 -0.208015 0.052466 0.127565 0.071553 -0.044454 0.053361 0.049414 0.002263 -0.173797 0.163447 -0.057040 -0.012686 -0.014401 0.224071 -0.021909 0.094158 0.033850 0.189981 0.165075 0.188751 -0.015685 -0.111049 -0.363100 0.312502 -0.049593 0.126357 -0.147106 -0.092119 0.124859 -0.132774 0.046383 0.034622 -0.050264 0.141165 0.064045 -0.057594 0.074430 -0.025820 0.065239 -0.060083 0.011031 -0.064007 0.051804 0.019899 0.195570 0.128883 -0.130775 -0.073006 0.094016 0.148545 0.036904 -0.048390 -0.163972 0.023057 0.217807 0.158706 0.183421 -0.082825 0.228294 -0.020152 -0.127860 0.078672 0.095995 -0.089456 0.090245 0.033954 0.181093 0.024242 -0.022635 0.007020 0.030956 -0.004327 -0.148039 0.110256 -0.019380 0.188547 0.200022 -0.193063 -0.118126 0.181484 0.067538 -0.133863 0.131792 0.058884 0.106003 0.006093 -0.032710 -0.027073 -0.152657 0.077577 -0.122087 0.179016 -0.068844 -0.073912 -0.107006 -0.059444 0.071273 -0.048700 -0.028870 -0.062599 -0.060621 -0.109412 0.353020 -0.074098 -0.004778 -0.058933 -0.159186 0.121071 0.000355 0.077811 0.175589 0.164305 0.208027 0.257697 0.024659 0.232684 0.163858 -0.052516 -0.123057 0.190635 -0.007936 -0.010913 0.030221 -0.080697 0.242844 -0.029447 0.036901 -0.199233
31 -0.135584 -0.194243 -0.107312 -0.016965 -0.116942 -0.036449 0.072152 0.072299 -0.277319 -0.023922 -0.157770 0.074076 0.024111 -0.140981 0.070777 0.089226 -0.016609 0.093860 0.025722 0.189581 -0.284087 -0.256074 -0.099385 0.134984 0.058596 -0.018632 0.041382 -0.146768 -0.170444 -0.025456 -0.252486 0.022925 0.181185 -0.012687 0.101356 -0.065849 -0.023560 0.058786 0.038011 -0.158703 -0.203916 0.055219 0.079564 0.190571 0.108979 -0.168510 0.096843 0.060605 0.203351 0.049871 0.023486 -0.058145 0.011460 0.033350 -0.029051 -0.031591 0.077483 0.067384 -0.014280 -0.016591 -0.243295 0.025194 0.009457 -0.156965 0.280178 -0.057067 0.098662 0.014378 -0.052977 0.060824 0.042895 -0.028664 0.000059 0.167669 -0.059537 0.163023 0.052843 0.150465 0.175813 0.249918 -0.012616 -0.063636 0.008120 0.217701 0.004568 0.132611 0.152526 -0.074099 0.159815 -0.051666 -0.139156 0.043679 -0.151599 -0.093098 0.002382 -0.290118 -0.091374 -0.095390 0.140846 -0.250696 0.012431 0.336890 0.201002 0.109979 -0.055958 0.086226 0.105786 -0.001030 -0.035061 0.034808 0.042382 0.081889 0.155069 0.088966 0.290741 0.250055 -0.231575 -0.132940 0.020970 0.074799 0.112317 0.074012 -0.155281 -0.201268 0.159016 0.226678 0.019989 0.015335
521 -0.215688 0.091040 0.110716 0.097909 0.041475 0.100977 -0.012951 0.037654 -0.170137 0.029334 -0.038357 0.103716 0.115391 0.042935 -0.151060 -0.040038 -0.029148 -0.179529 0.034382 -0.012105 0.117693 -0.034873 -0.070890 0.269213 0.022528 -0.044342 0.058970 -0.162001 0.220990 0.024547 -0.082453 0.109837 -0.001837 -0.067030 0.039806 0.075215 -0.003073 -0.001571 0.089479 -0.302382 0.068262 -0.268848 0.178495 0.005618 -0.091217 0.105584 0.093710 -0.122398 -0.025126 0.036885 -0.004289 -0.055510 0.019129 -0.049727 -0.047581 0.077882 0.096825 0.164154 0.208676 -0.048675 0.012306 0.003524 0.058057 -0.104568 -0.031462 -0.144382 -0.059004 0.195474 -0.046332 -0.006246 0.024498 -0.120252 0.165082 -0.011403 0.009431 0.259112 -0.023587 0.270664 0.177009 0.119351 0.141527 0.174130 0.100224 0.055718 0.070333 0.025744 -0.042399 -0.123455 0.088582 -0.129047 -0.152846 0.110602 -0.082505 -0.175696 -0.171837 -0.054538 0.016155 -0.110337 0.095045 -0.110911 0.133825 -0.137495 0.026147 0.082047 0.171615 0.111366 0.062056 -0.247917 -0.124770 0.141257 -0.070380 0.239819 0.301488 0.104032 0.175042 0.091251 -0.104662 -0.285134 0.056705 -0.060336 0.030288 -0.111780 0.133052 0.070782 0.115054 0.068887 -0.041692 -0.210588
361 -0.057733 0.108094 -0.046508 0.110337 0.021109 0.003501 0.139793 0.166092 -0.007327 -0.223421 0.160027 -0.068345 -0.054220 0.083501 -0.135438 -0.082186 0.087214 -0.128819 0.051351 0.160629 -0.166966 -0.104825 -0.108362 0.146349 -0.070883 -0.069191 0.107165 -0.033318 0.021616 -0.073728 -0.115189 -0.171523 0.164746 0.109340 -0.153684 -0.127697 0.051017 0.027069 0.215588 -0.287630 0.020268 0.071854 -0.202446 0.003912 -0.002297 -0.074680 0.025478 0.033628 -0.151065 0.043753 0.092876 -0.002273 -0.048846 -0.093830 -0.021658 -0.130659 0.204960 0.205561 0.124882 0.160511 -0.197258 -0.205892 0.092199 -0.104446 0.060303 0.159907 0.051608 -0.189606 0.110379 -0.071162 -0.025705 -0.226102 0.109287 0.160728 -0.053274 -0.054792 0.143312 -0.051589 0.100512 0.268960 0.104350 0.106922 0.229020 0.139044 0.012668 0.245034 0.068627 -0.099203 -0.112381 0.152149 0.012794 0.055741 0.045262 -0.172682 0.031353 -0.233278 0.097808 -0.127095 0.108689 -0.015307 0.161299 0.017849 0.160977 0.095150 0.135039 -0.094893 0.100412 -0.113515 -0.059081 0.165905 -0.002659 -0.165895 0.343268 -0.011100 0.043675 0.191201 -0.208770 -0.014162 -0.192772 0.059392 -0.079664 -0.160579 -0.009558 0.006154 -0.022071 -0.070399 0.046850 -0.043848
302 -0.227741 0.094572 0.159186 -0.026954 0.003186 0.030745 0.062970 0.006957 0.067983 -0.059814 -0.023042 0.154343 -0.096216 0.124086 -0.214698 -0.019887 0.113889 0.014267 0.160374 0.056200 0.084230 -0.165241 -0.241945 -0.021835 0.057923 0.061547 -0.096493 0.282878 -0.006031 0.090721 0.042226 0.102329 -0.091304 -0.024466 0.019056 -0.074240 -0.041959 0.169502 -0.212152 -0.026205 -0.092743 -0.122328 0.060712 0.110647 -0.258365 0.075730 0.066356 0.129587 0.171003 0.118943 0.032163 -0.071365 -0.108617 0.291996 0.165439 0.036117 0.256284 0.028973 0.029218 -0.116611 -0.043531 0.164091 -0.051557 -0.221811 0.217117 0.072129 0.122263 0.032823 -0.373021 0.147221 0.087036 -0.021698 0.209972 0.069719 0.047192 0.065716 -0.008113 0.196691 0.154177 0.052313 -0.039882 -0.018107 0.002941 -0.044096 0.061467 -0.086401 0.021375 -0.069367 -0.038166 0.020920 -0.042864 0.173086 -0.176535 -0.073718 0.104348 0.002079 -0.238742 0.108884 0.038334 -0.119740 -0.064505 -0.267696 0.016644 0.194739 0.000306 -0.223833 0.077635 -0.198283 -0.072605 0.136599 -0.101920 -0.024075 0.196530 0.145603 -0.045095 0.413227 -0.075379 -0.035583 -0.113147 -0.077607 -0.056558 -0.008120 -0.091794 -0.081412 0.132161 -0.022507 -0.048360 -0.158817
605 -0.178926 0.122319 0.020303 -0.015349 -0.096852 -0.080538 0.138676 0.003999 -0.208505 -0.105159 -0.045737 -0.065199 0.060216 0.198309 -0.000830 0.144406 -0.005336 -0.186439 0.284672 0.128736 0.035188 -0.077475 0.049116 0.329496 -0.122475 0.283453 0.058376 -0.034800 0.064051 0.043408 0.065718 -0.013175 0.221213 0.054351 0.111029 -0.101549 0.057646 0.234822 0.061185 -0.141584 -0.265783 0.107189 0.232363 0.361537 -0.015692 0.080329 -0.098373 -0.079367 0.110601 0.130202 -0.070213 0.135441 0.047172 0.243412 -0.149196 -0.072213 0.199170 -0.122432 0.112749 0.063350 -0.047568 0.123699 0.039606 -0.182718 0.204505 -0.100368 -0.021052 0.248765 -0.089337 -0.091586 0.077506 0.075270 -0.021979 -0.005754 0.051996 -0.015113 0.080544 0.122276 0.112200 -0.085311 -0.087229 0.168526 0.340174 0.007182 0.034925 -0.041388 0.018916 -0.057455 -0.194125 -0.019845 -0.214814 -0.028185 -0.067294 -0.070937 -0.067546 0.032234 0.094762 0.059648 0.071066 0.008739 -0.020177 0.002400 0.083274 0.176702 -0.046044 -0.006586 0.047200 -0.088737 0.081236 -0.014711 -0.103412 0.033259 0.273719 0.032062 0.121124 0.213284 0.069973 -0.033191 0.194857 0.033061 0.111063 -0.115014 0.212120 0.014975 -0.003049 0.050064 0.080637 -0.047577
531 0.076871 0.010878 0.051812 -0.140887 -0.113491 0.033252 0.199932 -0.101002 -0.072038 -0.247364 0.115963 -0.020684 0.072942 0.035310 -0.201377 -0.258417 0.042191 -0.192490 0.032038 0.083709 -0.062210 0.084632 -0.164658 0.016959 -0.080553 -0.040555 -0.190006 -0.050317 0.041845 -0.152295 -0.004183 0.161766 -0.063068 0.048165 0.003490 0.162155 -0.068441 0.101020 0.067965 0.067701 -0.113528 -0.075630 -0.073057 -0.090316 0.145444 -0.026315 -0.098214 0.065520 -0.081089 0.154215 -0.057813 0.016152 0.171803 0.193210 0.030221 0.098632 0.092160 0.146095 0.116796 -0.006662 -0.128447 0.018880 0.250750 -0.293889 0.104046 -0.004786 -0.008532 -0.116978 -0.023389 0.136321 -0.020700 -0.123790 -0.034227 -0.140920 0.001790 0.151642 0.025540 0.072562 0.044398 0.105626 0.075399 0.203622 0.172050 0.002058 -0.024381 0.112044 -0.016168 0.025616 0.030237 -0.113106 -0.177774 0.129391 0.006536 -0.139607 -0.041427 -0.020923 -0.038636 -0.055964 -0.054017 -0.380935 0.098038 -0.206128 0.019613 -0.045944 -0.006824 -0.011704 0.194634 -0.174300 0.063957 -0.048306 0.005993 0.017696 0.305573 -0.087892 0.121759 0.193139 -0.123190 0.002131 0.119120 0.019502 0.062822 0.030420 -0.266753 -0.001218 0.214485 0.018959 0.067596 -0.063157
459 0.058221 0.248700 0.158295 -0.070347 0.241932 0.113227 0.128184 0.136262 -0.034722 -0.034157 -0.131905 0.005315 -0.213648 -0.042374 -0.268819 -0.042549 0.152491 -0.082057 0.125479 0.059875 -0.055643 -0.199028 0.020899 0.062636 -0.155621 0.039093 -0.031914 -0.078557 0.023474 0.016652 -0.166406 0.025985 0.082617 0.154129 -0.092143 -0.151715 -0.205490 0.082445 0.109677 0.079863 -0.175213 -0.050511 0.162067 0.015302 0.081239 -0.052332 -0.084885 0.082094 -0.051470 0.109976 0.083793 0.033984 0.080828 0.028847 0.046846 -0.180626 0.277397 -0.035943 0.052758 0.164969 0.196377 -0.091120 -0.007048 -0.148287 0.066387 -0.006253 -0.076843 0.010272 -0.170974 0.035094 0.072703 -0.187734 0.026175 0.183247 0.078803 0.088714 -0.015039 0.117666 0.422549 0.169418 0.096072 0.108342 0.022812 0.153850 -0.065560 -0.010326 0.092991 -0.044537 -0.127695 -0.047187 -0.112513 0.209426 0.196473 -0.030304 -0.235948 -0.212123 0.055899 -0.160830 -0.021211 -0.111661 0.000566 -0.103922 0.109228 0.084889 0.346667 -0.167416 0.076141 -0.018621 0.117390 0.049447 -0.028892 -0.050682 0.119996 0.117276 -0.078617 0.160152 -0.180671 -0.167009 0.038526 0.058462 -0.253697 0.073999 -0.103143 -0.156231 0.139782 -0.007728 -0.172405 -0.050362
250 0.225206 -0.002149 0.067371 0.010742 0.256997 -0.163033 0.314000 -0.009342 -0.213974 -0.002545 0.042133 0.029146 -0.116090 -0.087769 -0.095337 0.040048 0.035829 -0.030904 0.319001 -0.005574 -0.043106 -0.244627 -0.095792 0.119835 0.216193 -0.075684 -0.017752 0.075496 0.042938 -0.092867 -0.225283 0.268803 0.013548 0.043309 -0.017351 -0.034165 0.089774 0.015838 -0.004125 -0.254591 -0.016933 0.163507 -0.016730 -0.205592 -0.048199 -0.007853 0.227065 -0.026214 -0.131378 -0.056287 -0.202244 0.055651 0.051901 0.142987 -0.054624 -0.137221 0.249663 0.002532 -0.009466 0.093029 -0.080894 -0.095249 0.000783 -0.202251 0.279858 -0.071668 0.180081 -0.097661 -0.188277 -0.021875 0.194456 0.064680 -0.169108 -0.084908 0.063352 -0.216234 0.075392 0.135052 0.090870 0.002762 -0.069592 0.199588 0.002583 -0.091980 -0.040219 -0.021952 0.067715 -0.266598 0.115149 -0.171164 -0.031989 0.338641 -0.130371 0.170169 -0.142110 -0.011349 0.093934 -0.165103 0.034466 -0.142244 0.097719 -0.150908 0.002833 0.022876 0.037179 0.015065 -0.063013 -0.141538 -0.131110 -0.017788 -0.031251 -0.078327 0.356789 0.156485 0.012520 0.207503 -0.118948 0.082457 0.239546 0.089973 -0.039460 0.000420 -0.118776 0.010825 0.198923 -0.194167 -0.165005 -0.024777
347 -0.122259 -0.065039 -0.133837 0.165670 0.109492 -0.090327 0.183341 -0.093301 -0.111610 -0.184032 -0.015506 0.043442 -0.261246 0.118112 0.090420 -0.122142 0.032940 -0.221095 0.101325 0.073829 -0.024651 -0.151749 -0.225363 0.159043 -0.038465 -0.063052 -0.200755 -0.128505 0.121261 0.081805 0.183209 0.011138 -0.059653 0.334250 0.027528 -0.045874 0.084799 0.134253 0.119110 -0.154509 -0.176008 -0.151188 0.099210 0.126529 -0.035026 -0.009152 -0.155387 0.018411 -0.036513 0.206048 0.042268 0.078237 -0.105110 0.071403 0.088682 -0.033150 -0.172013 0.040659 0.039015 -0.175239 0.058874 0.047917 -0.029455 -0.134529 0.095012 -0.078646 -0.067731 -0.032832 -0.146350 0.109000 -0.073620 -0.140708 -0.047646 -0.201011 -0.182226 0.169370 -0.028366 0.165985 0.033670 0.216335 -0.083359 0.090376 0.023795 0.213092 0.058507 0.016111 -0.041409 -0.014972 0.201530 0.248715 -0.196533 0.075136 0.105476 0.003877 -0.059252 -0.049391 -0.181220 -0.046381 0.063478 -0.176413 0.015583 0.052891 0.148186 0.129043 0.049700 0.008833 0.231962 -0.159325 -0.033961 0.302090 -0.123462 0.078828 0.197404 0.137628 0.177872 0.179154 0.023210 0.216048 0.005971 -0.108050 -0.156056 -0.108667 0.034658 -0.015873 -0.144071 0.185421 -0.136213 -0.100859
223 -0.092819 0.160962 -0.000510 -0.038864 -0.126242 0.040207 0.236573 0.082806 -0.231796 0.036107 0.008921 -0.166295 0.030990 0.109217 -0.208239 0.122454 0.190114 0.014275 0.093874 0.118720 -0.063275 0.046953 0.051817 -0.017694 -0.139263 0.076015 -0.068334 0.120100 0.059068 0.071540 -0.011724 0.068660 -0.160167 0.126916 -0.029670 -0.109403 0.089933 0.107108 0.020652 -0.111218 -0.135997 -0.128007 0.126041 0.096407 0.060200 0.046531 0.106447 -0.032453 -0.016952 0.044956 0.132737 -0.078766 -0.130184 0.187610 -0.027304 -0.065732 -0.024360 -0.014434 0.103567 0.142307 -0.085487 0.112824 -0.008205 -0.000983 0.054309 -0.188151 -0.190971 0.118935 -0.155727 -0.159304 0.132318 -0.182854 0.175144 0.071109 -0.091731 0.292368 -0.160173 0.108893 0.177586 -0.018093 0.177473 -0.056192 0.044070 -0.020178 -0.039165 0.049071 0.064380 0.217813 0.057927 0.229267 0.007697 0.161080 -0.124144 -0.219128 -0.084250 -0.302721 -0.099661 -0.253774 -0.114315 -0.342843 0.184885 0.118062 0.219285 0.065788 0.126749 0.037105 -0.062663 -0.127490 0.217312 0.074617 0.020986 0.126751 0.247170 0.028827 0.110309 0.232044 -0.104404 -0.012645 0.093113 -0.277921 -0.100245 -0.068319 0.309576 -0.123280 -0.157835 -0.211980 -0.033042 -0.224343
559 -0.226070 -0.125319 -0.099426 -0.081862 0.191890 0.182351 0.033851 -0.011789 -0.006617 0.135310 0.124944 0.260718 -0.227781 -0.091460 -0.046706 0.193470 0.028319 -0.099900 -0.002013 0.306880 -0.208120 -0.139324 -0.168550 0.323587 -0.167414 -0.166041 -0.058257 -0.033993 0.227452 0.039230 -0.089630 0.194727 -0.025736 0.255855 -0.003445 -0.132951 -0.075394 0.181455 0.056879 -0.001583 0.121298 -0.058646 -0.075975 0.076316 0.115535 -0.222155 -0.079183 0.143496 0.129193 0.043632 0.052825 0.217414 -0.103893 0.014391 0.022041 0.075846 0.352062 -0.004235 0.064448 -0.097446 0.166178 0.104468 -0.101716 -0.082101 0.094859 -0.005172 -0.052678 -0.059960 -0.065404 0.124236 -0.046434 0.095808 -0.064785 0.083501 0.061918 0.128333 0.279439 0.000081 0.127118 0.013437 -0.023264 0.137041 0.082051 -0.013286 0.109236 0.034664 -0.018193 -0.088475 -0.027367 0.247995 -0.386788 0.128826 0.037424 -0.119280 -0.144119 0.023509 0.013998 -0.138459 0.001115 0.049523 0.029515 -0.081161 0.271455 0.038511 0.080909 -0.128155 0.050010 -0.127360 -0.011350 0.022715 0.046719 0.026011 0.338694 0.090990 0.048691 0.218970 -0.055683 0.220243 -0.167301 -0.010190 -0.008335 0.092269 -0.178994 0.094118 0.167451 -0.015173 -0.037887 -0.089578
274 -0.215088 0.155812 -0.148266 0.094352 0.049604 -0.130123 0.007419 0.187584 0.005590 -0.237459 0.201356 0.190979 -0.175651 -0.043940 -0.072887 0.052360 0.100687 -0.201799 0.165127 -0.029554 0.177435 -0.054996 -0.298304 0.274611 -0.198477 -0.032497 -0.053914 -0.001820 0.238814 -0.007036 -0.080806 -0.066230 0.050510 -0.053556 -0.051819 0.017385 -0.077079 0.058527 0.040206 -0.081641 -0.095698 -0.181468 0.099117 0.092413 -0.033639 -0.122026 -0.205591 -0.149719 -0.065851 -0.031331 0.104868 -0.042776 -0.060647 -0.075706 -0.091143 0.036060 0.098366 -0.062365 -0.083872 0.192118 -0.022936 0.069159 0.072295 -0.171090 0.101463 0.047301 0.155725 -0.048902 0.051015 0.025333 0.009592 0.098551 0.117174 0.135369 -0.044940 -0.138817 0.045350 0.050720 0.138076 0.224201 0.088491 -0.002731 0.228789 0.071463 -0.074042 0.133485 0.169510 -0.288954 -0.002465 -0.054496 -0.064932 0.033527 0.232103 -0.096202 -0.133340 -0.285689 -0.113005 -0.108408 -0.165964 -0.150414 0.143097 -0.285145 0.055330 0.197042 0.029758 -0.009915 -0.041827 -0.178820 -0.133964 0.269694 0.089226 0.027911 0.135862 0.020492 0.355129 0.340362 0.039544 0.004892 0.012162 0.026644 -0.011631 -0.045664 0.176614 0.129107 -0.024900 0.058938 -0.022152 -0.042739
429 0.005039 -0.099085 -0.010662 -0.132847 -0.180882 0.060006 0.218817 -0.079056 -0.197650 -0.018970 -0.132901 0.039345 -0.011561 0.185765 -0.338172 0.206053 0.004000 -0.019168 0.119832 0.253260 -0.217657 -0.099277 -0.122881 -0.095233 -0.228152 -0.103778 -0.162226 0.045053 0.173326 -0.014950 -0.078384 -0.100782 -0.040439 -0.032050 0.065808 -0.014450 -0.019382 0.343834 -0.149186 -0.181374 -0.187993 -0.056276 0.121301 0.206656 0.209584 -0.145839 -0.136751 0.071448 -0.066083 0.186126 0.151781 0.142457 -0.252356 -0.003403 0.028779 0.121491 0.039808 0.062906 0.083005 -0.021650 -0.041096 0.276855 -0.062736 -0.179025 0.293242 -0.242945 -0.126174 -0.059550 -0.347771 0.128849 -0.088268 -0.015776 0.218143 0.005106 -0.106144 0.262675 0.285998 0.278068 -0.044593 0.006779 0.040421 0.087838 0.016418 0.043199 0.167295 -0.203725 -0.078737 0.041993 -0.005618 0.106265 -0.049728 0.179090 -0.011589 0.128809 -0.195836 -0.172117 0.007121 -0.101553 0.037699 -0.293425 0.187716 -0.061668 0.150899 -0.001053 0.102859 0.126133 -0.069229 0.038651 0.101246 0.059220 -0.062953 0.128024 0.047346 -0.051594 0.192098 0.172624 0.068091 -0.066466 -0.127567 0.046114 -0.167672 0.004352 0.067693 -0.102204 0.011852 -0.133537 -0.116635 -0.012757
242 -0.210513 0.063178 -0.027909 -0.107561 0.028156 0.077802 0.257703 0.147915 -0.102461 -0.036509 0.095548 0.070167 -0.125763 -0.109942 -0.014327 -0.142657 -0.044878 -0.069440 -0.047504 0.148122 -0.101382 -0.177521 -0.163422 0.334801 -0.020213 0.026290 -0.026011 -0.029799 0.032297 0.007860 -0.172784 0.150291 0.008388 -0.132981 -0.011654 -0.155424 0.111086 0.233838 0.021143 -0.001748 -0.231195 -0.073201 -0.007443 -0.155956 0.024799 -0.136728 -0.032059 0.044170 0.033511 0.063150 -0.078843 -0.015041 -0.289640 0.221930 0.026237 -0.112171 0.055393 -0.004096 0.082372 0.023978 -0.098749 -0.267988 -0.035302 -0.042679 0.297040 -0.060820 0.023003 -0.184195 -0.053261 -0.041597 -0.138518 -0.103834 -0.074550 -0.031212 0.041681 0.061619 0.042652 0.052537 0.042722 0.132241 0.107154 0.180508 0.038083 -0.073529 0.212398 -0.014286 0.034568 0.052294 0.053185 0.045745 -0.227136 -0.090048 -0.110215 0.060880 0.012614 -0.031660 0.151604 -0.155784 -0.011743 -0.210131 0.023611 -0.129850 0.110828 0.296411 0.001695 -0.066004 -0.013576 -0.126939 -0.188107 -0.127995 0.011874 0.012110 0.177832 -0.062395 0.000908 0.124050 -0.078872 0.117285 -0.008538 0.171923 -0.065397 -0.153170 0.105924 -0.143887 0.114331 0.140082 0.024047 -0.285401
182 -0.287102 -0.129138 0.375949 -0.069551 0.094293 0.128675 -0.028214 -0.106321 -0.240251 -0.076668 -0.121835 0.085348 -0.081036 -0.010026 -0.040665 -0.185033 0.061107 0.072029 0.091595 0.140106 -0.144066 -0.251755 -0.115205 0.064487 -0.082805 0.206748 0.069763 0.022123 0.214409 -0.135992 -0.095478 0.175862 -0.131122 0.219820 0.044923 -0.264510 -0.029543 0.068909 -0.038551 -0.071350 0.055160 -0.239110 -0.207743 0.066795 0.215259 -0.158599 -0.047787 -0.119209 0.066446 0.166963 0.036828 -0.071276 -0.138395 0.063345 -0.051164 0.066464 0.094260 0.026431 0.129741 0.060346 0.055240 0.020803 0.188530 0.074149 -0.051064 -0.203992 0.042694 0.019819 -0.225798 0.042977 0.238106 0.024117 -0.093887 0.043064 -0.096533 0.049175 -0.126646 0.018890 0.139616 0.085606 0.170482 0.190480 -0.128569 -0.080685 0.207498 -0.043050 0.057038 -0.164977 0.084619 0.077703 -0.040665 0.137846 0.014176 -0.052989 -0.043067 -0.250525 0.049365 -0.230560 -0.188771 -0.148356 0.192540 0.042308 0.116750 0.079575 -0.004185 -0.120629 0.000623 -0.091772 0.072854 0.189524 0.060040 -0.111870 0.230775 0.013770 -0.011952 0.219312 -0.158871 -0.004106 0.148597 -0.064931 -0.060366 -0.157882 -0.123271 0.102165 0.099075 -0.049640 0.043747 -0.297923
19 -0.076076 -0.081063 0.118352 -0.059887 -0.042527 0.119342 0.039322 -0.222415 -0.039712 0.146757 -0.137441 0.021339 -0.076411 -0.036376 -0.074296 0.082611 0.003275 -0.042692 0.062009 0.078483 0.134379 -0.142141 -0.062865 0.298505 -0.086042 -0.084243 -0.130315 -0.043503 0.187220 0.059136 -0.123902 0.367007 -0.072872 0.098125 0.070564 0.114602 -0.083091 0.110205 -0.033221 -0.297206 -0.122091 0.021775 0.027009 0.152315 0.013831 -0.116633 0.007748 -0.071460 -0.215367 0.178822 0.132709 0.054434 -0.020431 0.127257 -0.044066 0.094331 0.155202 -0.042801 0.153488 0.151638 -0.074085 -0.048360 -0.100453 0.058628 0.070545 0.083226 0.060812 -0.084265 -0.006185 -0.002936 -0.028528 -0.270620 -0.091465 0.052774 -0.091314 0.145435 -0.034866 0.019776 0.126156 0.271070 -0.007822 0.048724 -0.159681 -0.141448 -0.044439 0.116669 0.230552 -0.201769 0.076562 -0.128408 0.070019 0.021481 -0.138258 -0.262117 -0.016638 -0.087375 -0.014116 -0.016507 0.122979 -0.159108 -0.131164 0.000090 0.067875 0.098525 -0.129369 0.028385 0.016049 -0.245359 -0.092559 0.094305 -0.066981 -0.003761 0.068711 -0.080388 0.104592 0.244891 -0.288317 0.040237 -0.062001 0.102513 -0.034401 -0.124762 0.093367 -0.011000 0.209729 0.024980 0.033228 -0.065434
