732 128
348 -0.137291 0.049480 -0.158049 0.135792 -0.244806 0.230699 -0.249503 0.052215 0.027031 -0.116690 -0.018370 0.175310 0.059113 -0.002692 -0.060318 0.084458 -0.204860 -0.129522 -0.140092 0.032303 0.293484 -0.043208 -0.048730 -0.201397 0.027340 -0.077587 -0.020159 -0.000157 -0.062381 -0.166013 0.062760 0.007911 0.031748 -0.081629 -0.012240 0.176952 0.061084 0.243050 -0.031349 0.188652 -0.175979 0.127805 -0.172473 0.107638 0.143599 0.002789 -0.011119 -0.203493 -0.134627 -0.105896 -0.115527 -0.143853 0.003049 -0.072630 -0.094916 0.184492 0.052902 0.045289 0.010374 -0.007764 0.089223 -0.068523 -0.035675 -0.001375 0.138063 0.016737 -0.027378 -0.177715 0.033788 -0.014643 -0.051326 0.036937 -0.010053 -0.207677 -0.076919 0.020861 0.106075 0.192279 0.022783 0.073295 -0.091593 -0.239930 -0.028346 0.054313 0.053374 0.173776 -0.158493 -0.183743 -0.092690 -0.042509 0.191378 -0.154516 -0.189961 0.002162 -0.069702 -0.058286 -0.042214 0.313204 0.146658 0.005564 0.067002 -0.212484 -0.168731 0.128894 0.055910 0.158366 -0.096250 -0.183870 0.047908 -0.068994 -0.076586 0.260859 -0.091781 0.062032 0.122513 0.033283 0.165989 0.068622 0.002275 0.162317 -0.090200 0.071014 -0.014744 -0.034135 0.107672 -0.071417 0.157434 -0.008223
298 -0.187984 0.064779 -0.260920 0.136358 -0.028948 0.021337 -0.234409 -0.112028 -0.102762 -0.026326 -0.064610 0.046701 0.087594 0.205192 -0.009443 -0.117984 0.109627 -0.068324 -0.109728 -0.275222 0.026894 -0.115932 0.080909 -0.183914 -0.016024 0.102662 -0.192679 -0.019029 0.116253 -0.135465 0.017954 -0.020248 -0.162104 0.134786 -0.060402 0.143518 -0.214904 0.235825 0.100429 0.014697 -0.128739 0.123684 -0.095236 0.060842 0.096409 0.102423 0.078726 0.205471 -0.050449 0.089722 -0.126520 0.083471 -0.003708 0.000512 0.194485 -0.122117 -0.127591 0.031975 -0.059975 -0.054040 -0.007233 -0.077387 -0.111721 0.100636 -0.095790 -0.159882 -0.018132 0.006025 -0.005648 -0.033261 0.199675 0.061452 -0.095014 -0.195452 -0.074456 -0.103852 0.137768 -0.064660 0.049999 0.238298 -0.029904 0.051444 -0.079372 0.096197 -0.004572 0.256408 -0.163468 -0.222411 -0.089325 0.031129 -0.043703 -0.210044 -0.134036 -0.002427 0.102070 0.133831 0.217806 0.009611 -0.022952 0.150906 -0.188677 -0.141261 -0.238542 0.007830 -0.079429 0.370134 -0.129776 -0.138164 -0.011460 -0.086899 0.112420 0.195283 0.136600 0.158982 -0.041036 0.159970 -0.116465 0.036662 -0.024230 0.119950 0.024830 0.036070 -0.108987 -0.041747 0.067359 -0.110104 0.167024 -0.009327
318 -0.109536 0.019311 -0.057413 0.066668 -0.035059 0.114054 -0.058660 0.054312 -0.027747 -0.074271 -0.061001 0.097687 0.097883 0.134035 0.045701 -0.072608 -0.061017 -0.088231 -0.111063 -0.068379 -0.026179 0.056817 0.127372 0.010241 -0.160608 -0.000533 -0.135165 0.105315 0.024750 -0.168727 -0.000433 0.113061 -0.183208 0.128372 0.133625 0.154975 0.057480 0.158921 -0.033403 0.133975 -0.101982 0.100986 -0.148181 0.064545 0.150232 0.086037 0.022360 -0.137607 0.014607 0.257189 0.097486 -0.200284 0.038188 0.047235 0.209386 -0.168852 0.053886 -0.032429 0.147087 0.206181 -0.085908 -0.109045 0.023903 -0.141024 0.053008 0.022849 -0.073216 -0.158496 0.075293 0.029716 0.097540 -0.119370 -0.275585 -0.223792 -0.045738 0.073258 -0.044484 -0.211152 -0.052849 -0.023219 -0.060509 0.034132 0.140624 0.045514 0.016530 0.106982 -0.044626 0.044626 -0.047776 0.141853 0.095718 -0.241262 -0.046515 -0.203824 -0.159815 0.024672 -0.010149 0.120980 -0.003523 0.060344 0.007473 -0.038499 -0.269887 0.179624 0.036584 -0.110118 0.025912 -0.231027 0.125449 -0.087590 -0.047419 0.335985 -0.012098 -0.150483 0.121283 0.198806 0.015970 -0.030217 0.081989 0.075463 0.007986 -0.035953 0.092886 -0.154230 -0.015537 -0.064288 0.134948 -0.108306
384 -0.150684 0.068577 -0.131619 0.218719 -0.192001 0.136417 -0.084582 -0.074526 0.202482 -0.027881 -0.048465 0.054139 0.072459 0.046385 -0.017509 -0.066110 0.041906 -0.052507 0.077534 -0.173450 0.063718 0.116587 0.039993 -0.092022 -0.138927 0.011307 0.159807 0.035412 0.035678 -0.071106 -0.004036 0.029942 -0.242281 0.069924 0.051641 0.045312 -0.039122 0.122918 -0.150437 0.183581 -0.062406 0.199347 0.033989 0.043651 -0.079142 -0.030993 0.217849 -0.091621 0.048576 0.119783 -0.049512 -0.112993 -0.037613 -0.120112 -0.027473 -0.190846 -0.122613 -0.127595 0.041345 -0.056710 -0.141785 0.000679 -0.082099 -0.104332 -0.154730 -0.126819 0.076478 -0.073083 0.241835 -0.138866 -0.064558 0.003420 -0.188720 -0.167864 -0.227071 0.057674 0.083330 -0.070831 -0.061068 0.091577 -0.076154 0.132837 -0.018877 0.113036 -0.023576 0.205703 -0.062356 -0.213662 -0.063813 0.253929 -0.085813 -0.104027 -0.075778 0.033963 -0.109839 -0.047705 -0.029208 0.329408 0.081386 0.005771 0.061439 -0.159550 -0.290806 -0.041074 -0.111122 -0.058177 0.107399 -0.217545 -0.148218 0.003444 0.026887 0.248572 0.151785 0.060788 0.054707 0.169926 -0.122405 0.006658 -0.043920 0.099384 -0.051457 0.090243 -0.073139 0.071533 0.024951 -0.233467 -0.017889 -0.121515
557 -0.270259 0.005630 -0.144169 0.051152 -0.128111 0.081508 -0.163014 -0.019451 -0.052305 -0.127402 -0.113445 0.139735 0.108200 0.118828 0.066969 0.025513 -0.035015 -0.003649 0.037502 -0.019212 0.012158 -0.027431 0.013723 -0.093757 -0.060262 -0.158519 -0.076315 0.018749 0.053761 -0.067885 0.072740 0.084818 -0.026481 0.119068 0.037933 0.055175 0.022238 0.182495 -0.073826 0.062465 -0.151601 0.103868 0.103172 0.038459 -0.154214 -0.043817 0.098478 0.050601 -0.114093 0.222732 0.096241 -0.113698 0.065185 -0.045809 -0.002657 -0.146374 0.092491 -0.251643 -0.048360 -0.045412 0.007086 -0.014754 0.048582 0.086704 -0.064685 -0.066219 0.022477 -0.195055 0.032506 -0.020056 -0.088255 0.151491 -0.169411 -0.176925 -0.206314 -0.115535 0.178572 0.014321 -0.099023 0.090100 -0.099286 0.142168 -0.034107 0.176702 -0.016113 -0.009049 -0.121583 -0.168017 -0.058340 0.143999 0.090649 -0.205070 -0.120338 0.035355 -0.073539 0.099771 -0.076697 0.110915 0.125957 -0.022057 0.055446 -0.090127 -0.073867 0.027636 -0.109445 0.023111 -0.099994 -0.145321 0.108224 -0.140370 0.161155 0.283616 -0.051992 -0.155497 -0.054974 0.131235 0.101943 0.138726 -0.083599 0.113589 -0.167199 0.085241 0.065932 -0.039396 0.053577 -0.196523 0.112853 0.197654
83 -0.268487 -0.093182 0.048482 0.213936 -0.070172 0.126220 -0.247096 0.074624 0.126619 0.003066 -0.016545 0.187622 0.150975 0.077836 0.012699 0.044435 -0.085249 0.108349 -0.051511 -0.037407 0.276244 0.005143 0.002361 -0.108326 0.047296 -0.003327 -0.043556 0.128039 0.130144 -0.123499 0.062834 -0.077465 -0.099641 -0.081172 0.155529 -0.017070 0.012229 0.071639 -0.105889 0.009265 -0.026778 0.180347 -0.074128 0.155310 -0.130141 -0.032103 0.012500 0.041474 0.043785 0.074121 -0.107578 -0.274152 0.081441 -0.044787 -0.100574 -0.080763 -0.082697 -0.011165 -0.098377 0.151830 0.021696 -0.064439 -0.149408 0.011732 -0.024404 -0.040039 0.083903 -0.109483 -0.070993 -0.109453 0.076753 -0.089287 -0.081199 -0.106328 -0.126323 0.078245 0.144201 -0.192010 0.068424 0.061628 0.207885 0.034593 -0.057913 -0.075631 -0.018537 0.150747 -0.073102 -0.342536 0.000725 -0.087775 0.076523 -0.047215 -0.037597 -0.007436 0.088019 -0.040108 -0.000600 0.083715 0.182669 0.263418 -0.042315 -0.137125 -0.227877 0.079832 -0.004462 0.031193 0.035314 -0.338156 0.142060 -0.007100 0.048783 0.189540 0.086964 -0.069683 -0.130777 -0.067372 -0.033715 -0.015496 0.060397 -0.055303 -0.203014 0.096458 0.180892 -0.063776 0.177453 -0.093805 0.100242 -0.048630
519 -0.199727 0.010734 -0.021444 0.011124 -0.140127 0.096320 -0.092188 -0.077554 0.057048 -0.070397 0.281144 0.108789 -0.021848 -0.029038 0.071795 0.019689 -0.041197 -0.074339 -0.027822 -0.068739 0.049159 -0.160847 -0.018417 -0.085708 -0.122042 0.006619 -0.022032 0.067267 0.101382 -0.081325 0.297462 0.038697 -0.167242 0.150707 0.093181 0.191404 0.016327 0.159426 -0.085919 -0.105213 -0.159723 0.174359 -0.056952 -0.068309 0.136283 -0.079702 0.080883 -0.041125 -0.091080 0.110108 0.165302 -0.056707 0.008100 0.031465 -0.024666 0.069086 0.094047 -0.240802 0.094380 -0.062812 0.059414 -0.009673 -0.002640 -0.081570 0.068727 -0.035239 0.117626 -0.062670 -0.001619 -0.139597 0.002808 0.062769 -0.165347 -0.059121 0.000372 0.219484 -0.030952 -0.071745 -0.282974 0.140112 -0.138338 0.070525 0.206455 -0.040211 0.034872 0.157889 -0.150028 -0.057995 0.105129 0.108585 0.112738 -0.154488 -0.152044 -0.154212 -0.072245 -0.150040 0.080102 0.104399 0.137016 0.081609 0.090488 -0.346763 -0.029144 0.198279 0.056024 0.000578 -0.119230 -0.223868 0.108626 0.131589 -0.041547 0.154529 0.043465 -0.104392 -0.035499 0.028710 -0.011503 -0.015785 -0.019328 -0.079081 -0.212298 0.175757 0.002878 -0.023723 -0.015260 -0.199495 0.076480 0.080699
566 -0.256295 0.006160 -0.029743 0.071437 -0.136592 0.099754 -0.166049 0.065287 0.000190 -0.244512 0.093784 0.220229 -0.001411 0.033251 0.054298 0.028547 -0.043213 -0.147329 -0.096429 0.028836 0.054469 0.034900 -0.065436 -0.051922 0.016817 -0.038357 -0.134471 -0.015937 0.149455 -0.195745 0.128057 -0.038432 -0.251184 0.132852 -0.062004 0.060246 -0.158013 0.209461 0.113656 0.116760 -0.103185 -0.004596 -0.212531 0.126394 0.255436 0.131360 0.215930 -0.104142 0.007897 -0.004621 -0.114096 0.034493 0.067867 -0.045713 0.094001 -0.031632 0.017879 0.084095 0.114200 0.002621 -0.054561 -0.037751 0.040684 0.128899 0.056075 0.037056 0.011993 -0.107574 0.125097 -0.025189 0.151859 0.027935 -0.197450 -0.172066 -0.182936 0.174028 -0.017230 -0.048125 0.020447 0.089979 0.025502 0.072860 0.158194 -0.225166 0.011641 0.120389 0.050003 -0.094872 0.015412 0.043106 0.202606 -0.151369 -0.108329 -0.010557 -0.084741 -0.032519 0.058130 0.056089 0.004989 -0.008956 -0.107745 -0.124659 -0.124400 0.265798 -0.097245 0.163158 -0.112611 -0.083995 0.090149 -0.035936 -0.007303 0.131251 0.145700 0.038028 0.049995 0.076055 0.017457 -0.126751 0.128733 0.001636 0.018743 0.221502 -0.001700 -0.072895 0.199907 0.077240 0.002264 -0.060432
535 -0.075723 0.103581 -0.055870 0.062924 -0.211558 0.061609 -0.264561 0.099539 0.184002 -0.235342 0.032885 0.218525 0.146982 -0.131722 0.002142 0.119286 0.057727 -0.253721 -0.135474 -0.181306 0.208808 -0.075801 0.092552 0.050279 -0.058366 0.070789 -0.202306 -0.052050 0.027214 -0.086823 0.157285 0.098837 -0.055839 0.041755 -0.073973 0.138157 0.109040 0.124627 -0.044905 -0.110969 -0.026113 0.247928 0.030702 -0.002900 -0.043374 -0.008694 0.074647 -0.084633 -0.052376 0.115837 -0.158956 -0.262339 0.002521 0.049444 -0.132087 -0.094146 0.078379 -0.071634 0.078817 0.045903 0.159264 -0.161735 0.010174 -0.068382 0.152133 0.029519 -0.088776 0.009660 0.027732 -0.070196 0.114323 0.118275 -0.141544 -0.034384 -0.375212 0.186432 0.116350 -0.054082 0.048337 0.100610 -0.009088 -0.058625 -0.073804 0.006650 -0.076538 0.102763 -0.045910 -0.131351 0.026470 0.029717 0.096374 -0.177049 0.083671 0.023287 -0.170532 -0.014723 0.071622 0.320712 0.280897 -0.013192 0.080901 -0.106168 -0.110341 0.004166 0.031973 0.180922 0.048838 -0.217295 0.026554 -0.127691 -0.012377 0.238337 0.156250 0.023236 0.170253 0.183791 -0.082509 0.072730 -0.028585 0.139431 -0.082730 -0.064373 0.082697 0.111601 0.008430 0.086205 0.040775 -0.016893
50 -0.099389 0.287734 -0.155495 -0.058540 -0.151991 0.065804 -0.198307 0.033666 0.078356 -0.053002 -0.050372 0.180585 0.179412 -0.067772 -0.007767 0.126072 -0.039876 -0.048756 0.023328 -0.052916 0.072498 0.092202 -0.046430 -0.186704 -0.107781 -0.066366 -0.198311 -0.088834 -0.054090 0.018474 0.118795 -0.031043 -0.190263 -0.048423 0.006632 0.112595 -0.061884 -0.019700 0.012028 0.225466 -0.184725 -0.016959 -0.087166 0.171991 0.077306 0.026628 0.103436 0.102504 -0.097344 -0.076175 -0.030219 -0.175281 0.024644 0.103710 0.074473 -0.045964 -0.108888 0.047695 0.081554 0.317442 0.151584 0.164211 0.065714 0.007767 -0.032223 0.019752 -0.004352 0.139540 0.203405 0.020305 0.125825 -0.229228 -0.104569 -0.228548 -0.180449 0.087912 0.003020 -0.265914 0.000776 0.149055 -0.106991 0.069018 -0.159564 0.036464 0.013125 0.111712 -0.038952 -0.095044 -0.092089 -0.016270 -0.102029 -0.039973 -0.154826 -0.160049 0.025351 0.080480 0.156405 -0.067109 0.010865 0.188860 0.092612 0.002298 -0.263835 -0.046533 -0.246517 -0.022362 0.149973 -0.139724 -0.039169 0.045717 0.105076 0.272163 -0.019575 0.012382 -0.100898 0.351607 0.088276 0.034043 -0.075544 0.035522 -0.021348 0.026560 -0.110273 -0.013172 -0.056421 -0.272327 0.050716 0.092726
545 0.038664 0.064257 -0.108791 0.300719 -0.173547 0.029580 0.170685 -0.181461 0.069159 -0.138573 0.104483 0.068570 0.203869 0.135457 -0.033213 -0.098768 -0.111133 -0.040781 0.096650 0.164062 -0.108237 -0.069938 0.058423 0.113511 0.055628 -0.058566 -0.060432 0.068878 0.037571 -0.058156 0.096016 0.119498 -0.059644 -0.218475 -0.068176 -0.021900 -0.158872 -0.056742 0.070865 0.281509 0.008167 0.176004 -0.047280 0.273645 -0.037393 -0.041323 0.108083 0.124498 0.151479 -0.152404 0.016712 0.049779 -0.105420 0.071606 0.265436 -0.013379 0.046034 -0.066798 0.022397 0.054115 0.102965 0.048356 -0.008509 0.229425 -0.168247 0.083700 0.032411 -0.165831 -0.187130 0.103254 -0.227604 -0.083976 -0.193182 -0.232983 -0.292311 0.081333 0.014605 -0.066720 -0.031282 0.000267 0.045457 0.084681 0.276876 0.069819 0.096333 0.242107 -0.083598 0.063294 -0.104104 0.301601 0.212144 -0.232387 0.054888 0.074798 -0.013167 -0.106293 -0.061960 0.106800 -0.313611 0.145040 -0.059660 -0.177126 -0.044718 -0.055754 -0.154921 -0.212824 -0.085889 -0.099460 -0.007665 -0.042651 0.182624 0.181624 0.024836 0.165569 -0.052646 0.175505 0.022563 0.080233 -0.151313 0.162702 -0.193019 0.411255 -0.110881 -0.035535 0.115261 -0.217010 0.136841 0.024811
659 -0.038903 0.100209 -0.268325 0.238871 -0.035832 -0.118867 -0.103386 0.057382 0.095522 -0.222455 -0.192169 -0.063035 0.086530 -0.049000 0.093798 -0.279520 0.010030 0.033348 0.040154 0.023926 -0.138169 -0.041057 0.008541 0.123295 0.061105 -0.208390 0.084018 0.088676 0.108914 -0.022463 0.191899 -0.174478 -0.109874 -0.066996 0.093879 0.042236 -0.049258 -0.161729 0.046174 0.024490 -0.336528 -0.022418 -0.076614 0.073416 -0.069346 0.101983 0.005999 0.399382 0.101593 -0.052244 0.127047 -0.005988 -0.139185 -0.063516 0.130062 0.012791 -0.015541 -0.211563 -0.080045 0.061165 0.034155 0.040472 -0.001519 0.096993 -0.021477 -0.198664 -0.051709 -0.328061 -0.023402 0.147281 -0.101067 -0.049402 -0.125324 -0.207214 -0.124978 0.282384 -0.019563 -0.273131 -0.224315 0.192734 0.175374 0.044363 -0.022524 0.181958 0.132143 -0.012261 0.070870 0.081795 0.136705 -0.009208 0.058030 -0.269272 -0.042677 0.124676 -0.064654 -0.063864 0.120342 0.221796 -0.166012 0.292814 0.138785 -0.380613 -0.149716 -0.086437 -0.118669 0.018421 -0.029419 -0.016984 -0.167724 -0.031979 0.056940 0.271567 -0.117451 -0.135273 -0.019582 0.229411 -0.165607 0.132342 -0.018052 0.240841 -0.027594 0.240301 -0.034929 0.190897 -0.101728 -0.189749 0.027407 -0.113050
358 0.074250 0.012911 0.017822 0.175814 -0.199495 0.225945 0.019815 -0.072208 0.076322 -0.084766 0.068768 0.087266 0.302899 -0.006811 -0.026299 -0.136133 0.087370 -0.119471 0.142861 0.072201 -0.060644 0.003138 -0.052998 -0.109246 -0.076806 0.002212 -0.098703 0.030710 0.410061 -0.049700 -0.100845 0.111739 0.028367 -0.236455 0.085930 -0.022900 -0.223362 -0.051089 -0.066666 0.184871 -0.133742 -0.077376 -0.110984 0.305331 -0.144909 -0.157050 0.028971 -0.101457 0.169151 -0.012742 0.073460 -0.181114 -0.121747 0.129721 -0.034981 -0.076938 0.054517 -0.109962 0.098016 0.025162 0.111603 0.240270 0.227904 -0.027587 -0.030814 -0.103615 -0.086148 -0.263764 0.075194 0.033733 -0.136565 -0.150595 -0.137007 -0.174481 -0.109368 0.238809 -0.205235 -0.196697 -0.203537 0.122576 0.206594 0.037183 0.113997 -0.075366 -0.013130 0.233848 -0.017369 0.078862 0.007200 0.053516 0.180490 -0.101257 -0.033874 0.110415 0.017898 0.137401 0.138022 0.073276 -0.118013 -0.101071 0.012773 -0.317511 0.002081 -0.060392 0.043565 0.037498 -0.076461 -0.124462 0.144508 -0.083715 0.093756 0.114954 0.071520 -0.204612 0.025779 0.017803 0.003513 -0.013698 -0.001893 0.134139 0.002458 0.166847 -0.071802 -0.001903 0.027078 -0.156103 0.098270 -0.114054
568 -0.102556 0.133805 -0.105901 0.207139 -0.021252 -0.166522 -0.122831 -0.027331 0.034590 -0.225681 0.085753 0.306180 0.055228 0.113453 0.135677 -0.073200 -0.077116 -0.059332 0.103532 -0.007396 0.013151 -0.212875 0.102645 -0.053487 -0.004196 -0.032339 0.050735 0.005866 -0.123916 -0.107391 0.204640 0.055619 -0.056445 0.076495 0.029629 -0.057148 0.064801 0.029830 -0.004962 0.077018 -0.034392 0.010624 0.180273 0.343762 -0.183476 -0.046086 0.140628 0.008546 0.095309 -0.108163 0.014818 -0.056083 0.204368 -0.007920 -0.000506 0.042832 0.043409 -0.145103 -0.035298 0.063347 0.125961 -0.098040 0.059959 0.185387 -0.162704 -0.046213 -0.059835 -0.200919 0.029257 -0.053214 0.086100 0.018471 -0.191046 -0.138504 -0.270791 -0.027600 -0.103753 -0.218255 -0.154015 0.162708 0.281674 0.208221 -0.037931 0.109244 -0.047694 -0.079813 -0.036520 0.070418 -0.033831 0.085469 0.307447 -0.240395 -0.149432 0.102880 -0.087245 -0.077026 0.029457 -0.000796 -0.018548 0.199962 0.000224 -0.194156 -0.087639 -0.050003 -0.181188 0.028666 0.021629 -0.100597 0.027670 0.047246 0.009880 0.059354 0.033558 0.029817 0.101675 0.142669 -0.109402 -0.015689 0.065877 0.384838 -0.198097 -0.083770 -0.206172 0.018573 0.001552 0.052128 0.046436 -0.072171
183 -0.017380 0.141765 -0.195742 0.138602 -0.234931 0.089885 -0.052109 -0.008416 -0.038188 -0.098141 0.116668 0.072945 0.116123 -0.003555 -0.091892 -0.094738 0.075512 -0.049399 0.181372 0.247957 -0.026141 -0.067258 0.222765 0.140094 -0.105691 -0.142109 0.161725 0.281396 -0.090288 0.077097 0.087201 0.182356 0.061875 0.124058 0.040350 -0.043699 0.004945 0.292106 -0.059488 0.204635 -0.048107 0.172997 -0.031671 0.190535 -0.147156 -0.033880 0.071110 0.125325 0.067418 -0.079642 0.193016 -0.158263 -0.058584 0.027430 0.034671 0.061460 -0.007314 0.057932 0.028436 -0.057854 0.191607 0.081381 0.050474 0.175982 -0.105785 -0.041979 -0.019997 -0.099703 -0.050859 -0.028976 0.095349 -0.154312 -0.042557 -0.094157 -0.255749 -0.030509 -0.132008 -0.110515 -0.081480 0.153951 0.002100 0.016596 -0.036487 0.250428 0.134457 -0.049364 -0.176400 -0.066806 0.177821 0.183203 0.221847 -0.166261 -0.017765 -0.027409 -0.095195 -0.037392 0.040236 0.183539 -0.276215 0.304570 -0.103059 -0.355614 -0.301596 0.078875 -0.149351 -0.029856 -0.035819 -0.165329 0.016037 -0.065472 -0.065330 0.254631 0.218199 0.019801 0.142240 0.253492 -0.098072 0.143378 0.015558 0.249942 0.065876 -0.018125 -0.031096 -0.075092 0.110633 -0.161725 0.056276 -0.026485
346 -0.101388 0.000375 -0.029007 -0.017684 -0.153766 0.137328 -0.155722 0.069646 -0.053296 -0.238135 0.087463 0.135971 0.316461 0.104505 -0.295299 0.111416 -0.032022 -0.146352 0.047972 0.028429 0.030952 0.068881 0.155043 0.054172 0.160233 -0.142075 0.125753 -0.003441 -0.105530 -0.141911 0.100619 0.010047 -0.001548 0.054009 0.060726 0.268658 -0.004077 0.114132 0.066236 0.028169 -0.289955 0.198277 -0.236277 0.160611 0.262643 0.122972 0.138523 -0.165250 -0.002981 0.179822 0.011250 0.109679 0.034185 -0.046878 -0.053445 -0.101926 0.122617 0.009022 -0.092256 -0.074352 0.115510 -0.097292 -0.150321 -0.007224 -0.024334 -0.154383 -0.050408 0.017218 0.171688 0.012793 0.084633 -0.204288 -0.165508 -0.149651 -0.289912 -0.058573 0.060714 -0.188197 -0.118194 -0.015775 -0.020932 0.105852 0.069933 0.003173 -0.029123 0.135496 -0.073428 -0.121461 -0.155358 0.206788 0.102428 -0.074808 -0.291330 -0.010607 -0.058191 0.019248 -0.144859 0.018936 0.177992 0.094051 0.058419 -0.172423 0.028090 0.025431 -0.074172 -0.022615 -0.172164 -0.127305 0.090064 0.037558 -0.095384 0.139161 0.077830 -0.031934 -0.079114 0.133972 0.073955 0.085544 0.141436 0.079865 -0.049430 0.047679 0.015936 0.132280 -0.059071 0.042393 0.155472 0.098051
468 -0.218062 -0.059043 0.004519 0.137906 -0.126751 0.000893 -0.047836 0.117693 -0.034435 -0.080400 0.031693 0.154437 0.120006 0.119730 -0.050325 -0.123786 -0.176887 0.012025 0.075692 0.085002 -0.113578 -0.205038 -0.001214 0.060854 -0.149719 -0.163037 0.016129 -0.109089 0.189786 -0.083169 0.208113 -0.019213 0.042336 0.101066 0.092591 0.041785 0.077825 -0.127828 0.238386 -0.010949 -0.072852 -0.005624 0.103926 0.131117 -0.065503 -0.120018 0.204825 -0.088517 0.038975 -0.192060 0.164244 0.134325 0.121944 0.031093 -0.031040 0.133393 0.106122 -0.037569 -0.031647 -0.141035 0.072572 -0.007146 0.154326 0.046603 -0.061997 0.003681 -0.146467 -0.247766 0.059617 -0.012830 0.004988 -0.110812 -0.200697 -0.096529 -0.312686 0.262947 -0.074040 -0.140129 -0.077732 0.217670 0.040013 -0.019737 -0.003737 0.203392 -0.084542 -0.003251 -0.154796 -0.142225 -0.053840 0.037112 0.298021 -0.300883 -0.131004 0.132442 0.104773 0.307173 -0.064502 0.062184 -0.152974 0.260937 -0.163027 -0.211764 -0.182481 -0.079425 -0.190784 0.128383 -0.064804 -0.031262 0.085995 -0.032340 -0.032605 0.165020 0.050016 0.067236 0.076095 0.223437 0.053223 0.127526 0.236030 0.250832 -0.096470 0.135268 -0.027157 -0.030700 0.210919 -0.097882 -0.020560 -0.097229
94 -0.034526 0.161712 -0.072321 0.183348 -0.087176 0.094696 -0.123167 0.010337 0.126185 0.087742 -0.051818 0.208975 0.161697 0.124085 0.033601 -0.170069 -0.139128 0.028409 0.041383 -0.142141 -0.112896 -0.149163 -0.025910 -0.015210 0.017567 -0.042886 0.094031 -0.062820 0.038109 -0.083251 -0.049328 0.034663 -0.262515 -0.075581 0.075528 -0.215812 -0.070515 0.068939 0.216799 0.016494 -0.082697 -0.022208 -0.067828 0.249290 0.104533 0.005923 -0.000793 -0.049400 0.060454 -0.027329 0.025199 0.072201 -0.075248 0.026688 0.170783 -0.036855 -0.034734 -0.046303 -0.103995 -0.017879 0.030883 0.040863 0.136302 0.240019 -0.157579 -0.179694 -0.061760 0.000718 -0.129613 0.008323 -0.187585 -0.052611 -0.232164 -0.154058 -0.279588 0.177575 -0.133932 -0.120167 -0.176673 -0.130500 0.157163 0.086571 -0.114067 0.011866 -0.027384 -0.141732 0.174257 -0.123211 0.069242 -0.005598 0.134638 -0.139955 -0.002611 -0.019039 -0.041680 -0.260398 0.014631 0.092873 -0.265719 0.314496 -0.026070 -0.230913 -0.118761 -0.037219 -0.181284 0.040183 -0.146048 0.141718 0.071248 -0.151848 0.260724 0.293918 -0.035114 -0.057847 0.227827 0.179130 0.075029 0.005311 0.045774 -0.009158 -0.076203 0.243683 -0.022977 -0.032139 0.027100 -0.161521 0.101286 -0.093872
165 -0.087440 0.142030 -0.129242 0.205028 0.074299 -0.027864 -0.021226 0.126775 0.166893 -0.076668 0.130128 0.151165 0.027629 -0.063442 0.043044 -0.135761 0.063491 0.038936 0.196830 0.151306 0.070450 -0.004032 0.088948 -0.019220 0.054595 0.067804 0.023977 0.015989 0.107225 0.039027 0.005872 -0.278607 -0.129706 0.052624 0.059161 0.048714 0.103055 0.024279 0.005878 0.085593 -0.083879 0.118299 0.019982 0.141076 -0.053259 -0.006877 0.047196 0.087708 0.155056 0.026844 0.009567 -0.247462 0.167563 0.034437 0.167003 0.016505 0.138982 0.086269 0.091410 -0.000759 0.108672 0.048138 0.063575 0.037828 -0.058050 0.060736 -0.008399 -0.162843 0.045664 0.061174 -0.000532 0.135795 -0.175065 -0.178713 -0.273903 0.178321 0.085935 -0.134042 -0.186558 0.133471 0.128758 -0.025715 0.113986 0.212707 -0.002146 0.085408 -0.014847 0.076361 0.044723 0.142200 0.177633 -0.313673 -0.095371 0.097338 -0.080275 0.029135 0.197542 0.150033 -0.248790 0.005698 0.003302 -0.242023 -0.136271 -0.212431 -0.025018 -0.086763 -0.129360 0.004043 0.053023 -0.091902 -0.006799 0.238746 0.103107 -0.148566 0.088890 0.292921 0.019696 0.139323 0.110410 0.307782 0.086206 0.067946 -0.295481 0.057583 0.142943 -0.143567 0.147123 0.086515
282 -0.184082 0.074695 -0.115314 0.095784 -0.105982 -0.000650 0.109102 0.224441 0.108784 0.002929 0.048231 0.208078 0.193338 0.019942 0.032681 -0.099681 0.083072 0.151493 0.061024 0.061464 -0.211570 -0.021198 0.169602 -0.094467 0.058972 -0.127234 -0.018894 0.037327 -0.014789 -0.025127 0.216717 -0.037258 -0.123504 0.064264 -0.138765 0.021848 0.101689 -0.065431 -0.139583 0.190566 -0.067809 -0.045309 0.062409 0.258894 0.006579 -0.016932 0.093089 0.067012 0.170234 -0.048978 0.098599 0.006071 0.044555 -0.041259 -0.143219 0.049559 0.129876 0.091984 0.137445 -0.103333 0.117951 0.000627 0.090351 0.112981 -0.185975 -0.141213 -0.183831 -0.267111 0.043754 -0.097809 -0.135026 -0.164255 -0.171502 -0.081679 -0.093778 0.079800 0.119034 -0.176737 -0.064667 0.323484 -0.072033 0.150651 0.170399 -0.050264 0.096636 0.156077 -0.055058 -0.193666 0.050501 -0.104530 0.129043 -0.122711 -0.060292 0.011392 0.015200 -0.122344 -0.052660 -0.072340 -0.136889 0.408320 -0.049381 -0.357416 -0.041427 0.006124 -0.240161 -0.049893 0.050413 -0.259126 0.114806 0.076754 0.109491 0.297523 -0.240379 -0.173307 0.219254 0.228280 -0.106571 0.146552 -0.121258 0.252222 0.011904 -0.071865 -0.179921 0.123386 -0.118614 -0.196897 0.090528 -0.176986
642 -0.123483 0.145195 -0.138061 -0.011520 -0.124072 0.004648 -0.111810 -0.175811 -0.137605 -0.058466 0.160108 -0.171431 0.248298 -0.137291 0.057989 -0.169802 0.012858 -0.030970 0.050528 0.137938 0.158492 -0.156688 0.057206 0.056350 -0.159898 -0.097804 0.033100 -0.080662 -0.103887 -0.128711 0.219512 0.065350 0.088146 0.032544 -0.003193 -0.113333 -0.082243 0.093422 0.149036 -0.055632 -0.064987 0.070232 0.037392 0.182668 0.012940 -0.129595 0.221641 -0.023609 -0.086141 -0.286385 0.067602 -0.104979 -0.019892 0.023843 -0.013371 -0.018342 0.112226 -0.093699 0.093169 -0.070653 0.143476 -0.066302 -0.066144 0.061322 0.111405 0.064650 0.086073 -0.296387 -0.016492 -0.085998 -0.027671 0.105732 -0.278170 -0.197519 -0.319036 0.188786 -0.083849 -0.114010 -0.026333 0.180555 -0.010937 -0.078271 0.152785 0.147125 0.069037 -0.015836 -0.339452 -0.005528 -0.016244 -0.020213 0.062331 -0.072819 0.029575 -0.105678 -0.063138 -0.133758 0.048671 -0.043765 -0.161604 -0.000950 -0.125203 -0.148115 -0.133492 -0.040367 -0.177262 -0.131136 -0.072715 -0.187627 -0.042366 -0.035561 -0.031299 0.395870 0.030485 -0.074808 0.256133 0.039284 0.206936 -0.096648 -0.011697 0.377078 -0.042141 0.027363 -0.076156 -0.139749 -0.153953 -0.024256 0.201245 0.072904
365 -0.209724 0.058440 -0.157562 0.233424 -0.059518 -0.031422 -0.162156 0.066431 -0.027658 -0.149217 0.033421 -0.010590 0.223986 0.104977 0.120381 -0.238330 -0.074684 0.122923 0.113794 0.110343 -0.054351 -0.200044 0.314682 -0.002355 -0.120395 0.001178 0.054986 -0.129315 0.085917 -0.105674 0.181110 0.014623 -0.052789 -0.061931 -0.060461 -0.054144 0.102632 -0.038301 -0.017463 0.136966 -0.114216 -0.101160 0.041378 0.203977 0.030005 0.090718 0.037349 0.226029 0.073079 -0.095952 0.135528 -0.009693 0.075530 0.122021 0.005937 -0.085701 0.017260 0.024351 0.158966 -0.092886 0.099083 -0.170644 0.020524 0.055654 -0.041461 -0.054353 0.025893 -0.245339 0.088674 -0.096238 -0.067042 -0.042630 -0.107339 -0.133350 -0.220370 0.154655 0.068122 -0.118293 -0.199887 0.103392 0.161850 0.092886 -0.000301 0.054651 0.010643 0.218546 -0.092634 0.114825 0.062935 0.023718 0.192543 -0.197971 -0.016533 -0.030043 0.008056 0.074394 -0.218591 -0.130597 -0.014914 0.116578 0.073684 -0.119755 -0.168563 -0.090161 -0.093373 -0.082537 -0.103396 0.060085 0.171876 -0.099783 0.083450 0.283508 0.108699 -0.138177 0.091010 0.397186 -0.051816 0.029673 0.072582 0.426329 0.031407 0.155124 -0.304358 0.130545 0.121745 -0.191077 0.112366 0.098991
670 0.009809 0.010078 0.049310 0.266816 -0.079855 0.098651 0.032017 -0.112931 -0.003811 -0.273827 0.032656 0.124131 0.195593 -0.070519 0.161260 -0.143970 0.052374 0.062214 0.089018 0.024080 -0.196792 0.034746 0.122563 -0.094499 0.021953 -0.015686 -0.016806 0.093622 0.180649 0.074577 -0.121175 0.114874 -0.237127 -0.164550 -0.072194 -0.241129 -0.184329 -0.055416 0.150363 0.226195 -0.169999 -0.220276 -0.016832 0.362851 -0.041356 -0.049192 0.134032 -0.006644 0.036918 0.007742 -0.049427 -0.057510 -0.179339 -0.027572 0.068769 0.080833 -0.102190 -0.164652 0.128995 0.074780 0.078657 0.118802 0.121021 0.208133 -0.219087 -0.035088 0.081539 -0.085665 0.081979 0.036483 -0.087753 -0.143038 -0.075443 -0.457441 -0.109414 0.041720 -0.014377 -0.045176 -0.237959 -0.120210 -0.098633 0.063364 -0.051137 0.130946 0.069631 0.041765 -0.051976 -0.056620 -0.076734 -0.094170 0.072945 -0.314866 0.059334 0.114538 0.032500 -0.062297 0.180541 0.126663 0.062231 0.094823 0.040311 -0.376897 0.047117 -0.099822 -0.032286 0.007981 -0.074800 0.103792 -0.023594 -0.121742 0.070726 0.118705 -0.038376 -0.038805 0.126949 0.110502 -0.029197 0.102392 -0.101819 0.088291 -0.088553 0.152557 -0.099093 -0.074186 0.324184 -0.267698 0.046618 -0.182832
201 -0.152495 -0.167986 -0.017138 0.108684 -0.040405 -0.027753 -0.012457 0.088126 0.181967 -0.270721 -0.037055 0.051123 0.283018 0.042064 0.087653 -0.081486 -0.162973 0.008810 0.019823 0.146936 0.014315 0.099473 0.141154 0.026174 0.035340 -0.113915 -0.045296 0.033475 -0.016611 0.170197 0.266058 -0.054781 0.025224 0.023709 0.067516 -0.026837 0.127385 -0.013492 -0.101808 -0.062381 0.019334 0.112237 0.011735 0.244364 0.017004 -0.089299 0.140954 -0.067790 -0.039597 -0.129583 0.057206 -0.040351 0.212519 -0.034512 0.326217 0.010337 0.072915 -0.288045 0.057438 -0.101766 0.307520 -0.016879 0.113139 -0.005360 -0.173005 0.012350 -0.245721 -0.040307 0.023441 -0.081183 -0.083494 -0.041731 -0.297364 -0.239625 -0.106731 0.058432 -0.087889 -0.141441 -0.140815 0.199774 -0.010293 0.059646 -0.121155 0.075014 -0.045019 -0.199092 -0.035606 0.063790 -0.000172 -0.065906 0.125253 -0.222892 -0.041488 0.043684 -0.202735 0.041033 -0.020533 -0.030491 0.070320 0.167446 -0.042214 -0.208100 -0.102026 -0.184905 0.197947 0.257931 -0.008267 -0.154612 -0.052435 -0.120866 -0.038813 0.194700 0.128917 0.057937 -0.070101 0.242949 -0.320146 0.140107 0.192057 0.290749 -0.038583 0.038596 -0.011592 -0.051287 0.075065 -0.038460 0.159222 -0.086645
153 -0.204753 0.053904 -0.135426 0.211125 -0.170839 -0.026393 0.176806 -0.101617 0.047923 0.031571 0.197647 -0.165994 0.018084 0.213115 -0.016561 -0.209044 0.018994 0.106285 -0.109366 -0.065455 -0.036760 -0.018259 -0.028469 -0.128233 0.039950 -0.002178 0.116452 0.009222 0.048346 -0.227210 0.353911 -0.118482 -0.163719 0.073204 -0.165584 0.001928 0.007984 0.085828 0.013512 0.184704 -0.133264 -0.124937 -0.163698 0.068992 0.064759 -0.051519 0.126929 0.085413 0.149366 -0.128883 0.111258 -0.136592 0.183240 -0.102426 0.112045 0.019568 0.027660 0.044376 0.265556 -0.091697 0.044284 -0.133829 0.031826 -0.131340 -0.141474 -0.083580 -0.022901 -0.199971 -0.048831 -0.065353 -0.168333 0.104346 0.029813 -0.231486 -0.067125 0.181770 -0.002075 -0.159592 -0.093875 0.164434 0.126735 0.008000 -0.202338 0.065330 -0.155774 0.235058 -0.002216 0.032342 0.270096 0.166512 0.206166 -0.222047 -0.203612 -0.106977 -0.059184 -0.081394 -0.190510 0.186297 -0.002646 0.167671 -0.025181 -0.332034 -0.203733 0.020209 -0.067083 0.000748 0.166491 -0.121780 0.114550 -0.230321 0.004301 0.109608 0.015219 -0.171156 0.178372 0.179099 0.078424 -0.069301 0.223000 0.187866 -0.120090 -0.060336 -0.119669 -0.171259 0.003521 -0.022041 0.071311 0.138538
645 -0.064146 0.152656 -0.134445 0.169033 0.012696 0.010825 0.156578 0.092092 -0.164845 -0.240774 0.114323 0.114796 0.027666 -0.158271 -0.020952 -0.250101 -0.085814 -0.034971 0.120221 0.057783 -0.091887 0.061371 0.155075 -0.022988 -0.067066 -0.106991 0.027848 0.205739 0.057397 -0.031932 0.086824 0.001858 -0.096085 0.111792 -0.001503 -0.078530 -0.045643 0.034034 0.062880 0.033088 -0.120062 0.044644 -0.049713 0.209480 -0.043697 0.017070 0.106234 0.057380 -0.029346 -0.153860 -0.011620 -0.117526 0.143673 0.058474 0.059883 -0.001924 0.043668 -0.018719 0.108854 -0.071130 0.104402 -0.193157 0.035557 -0.022339 -0.166777 0.035472 -0.125962 0.000764 -0.185192 -0.022530 -0.166654 0.037043 -0.111307 -0.197315 -0.359964 -0.011786 -0.058660 0.037529 -0.085145 0.111125 -0.012982 0.014834 0.068107 0.099267 -0.247022 0.091752 0.037346 -0.175045 0.079689 0.186699 0.026812 -0.205109 -0.231577 0.014431 0.014472 -0.069640 -0.101006 0.146968 -0.120936 0.034538 -0.114152 -0.212711 -0.305636 0.079038 -0.248827 0.044856 0.083894 -0.051930 -0.045334 0.131301 0.021709 0.257397 0.023341 -0.090646 0.057975 0.064522 -0.002968 0.076222 0.074117 0.257118 0.096396 0.089395 -0.214688 -0.010294 -0.194078 0.003195 0.250434 -0.083920
678 -0.189416 -0.176020 -0.011978 0.257807 -0.011501 -0.049877 0.214782 0.159707 0.123716 -0.185903 0.112979 0.069755 0.034803 0.097231 -0.140265 -0.160796 -0.157076 0.263706 0.100486 0.153471 0.020708 0.009211 0.279635 -0.088454 0.095896 -0.168813 0.135526 0.035108 0.190301 0.004797 -0.012504 -0.127182 -0.189544 0.073574 -0.004578 0.100462 0.130637 0.086121 0.071752 0.072954 -0.171117 0.085026 -0.046993 0.237504 0.007701 0.068859 0.067942 -0.134293 0.141884 -0.241049 0.003539 -0.135728 0.115940 -0.023788 0.297263 0.146331 0.007390 -0.265862 0.071022 -0.351487 0.064819 -0.078722 -0.042749 0.105716 -0.107687 -0.098431 -0.153011 -0.501606 0.048788 0.006450 -0.016688 -0.162970 -0.212911 -0.264650 -0.193236 0.081943 0.050461 -0.080232 -0.107604 0.210263 0.077650 -0.185502 -0.015788 0.143258 -0.256348 -0.062452 0.073182 -0.072067 0.124506 0.039295 0.089701 -0.077305 -0.072598 -0.159027 -0.126055 0.077988 -0.090155 0.233354 -0.056424 0.186153 -0.058313 -0.093063 -0.054541 -0.100642 -0.121847 -0.061313 0.108440 -0.022242 0.018883 0.003057 0.149365 0.187749 0.253491 -0.060486 0.288423 0.175445 0.036356 0.002200 -0.052783 0.112134 0.088976 0.180446 -0.236845 -0.058024 0.016993 -0.169264 0.034830 0.061354
434 -0.066545 0.039990 0.028652 0.090732 -0.134194 0.148089 0.133391 -0.063543 0.124025 -0.231470 -0.032036 0.426338 -0.120669 0.127414 0.130623 -0.099334 0.139845 0.057845 -0.009195 0.087232 0.017254 0.014135 0.070778 0.119635 -0.200282 0.044364 0.030060 0.119620 0.022488 -0.092385 -0.020816 0.203497 0.094671 -0.280718 0.106794 -0.033197 -0.049070 -0.055853 0.062557 0.136892 -0.032832 -0.073273 -0.152960 0.104401 -0.034475 0.008952 0.000561 0.049726 -0.058359 -0.015944 0.132829 -0.102847 0.038488 0.118896 0.107388 0.083205 0.040404 -0.273205 0.203927 0.133830 0.253014 -0.097526 0.115076 0.362797 0.008139 -0.105630 -0.050585 -0.163147 0.005077 0.151015 -0.090303 0.014789 -0.071858 -0.279440 -0.362297 0.025918 -0.081020 -0.066539 -0.158328 -0.119266 0.114849 0.098826 -0.111296 -0.066675 -0.099534 0.104244 -0.065195 -0.130227 0.110319 0.068234 0.141465 -0.048531 0.024426 0.059453 -0.107167 -0.034575 0.104516 0.017441 -0.204942 0.104212 0.082534 -0.227209 -0.201943 0.095627 -0.029941 0.038488 -0.138251 -0.017638 -0.198188 0.197008 0.080579 0.180166 -0.013839 -0.055276 0.267429 0.055027 -0.026961 -0.019926 -0.140734 -0.024768 0.096015 0.101982 -0.034078 -0.034730 0.061306 -0.157994 -0.092012 -0.169880
147 -0.209602 0.087140 -0.105902 0.112221 -0.218278 -0.022285 0.068040 0.070411 -0.010763 -0.033151 0.157318 -0.014505 -0.056338 0.121021 0.033544 -0.003350 -0.020366 -0.079760 0.114463 0.156947 -0.100718 0.003105 0.141272 -0.047410 -0.007637 -0.189287 -0.150592 0.053115 -0.028193 0.005710 -0.014277 -0.070184 0.047954 0.061315 -0.010044 0.088050 -0.201087 -0.120186 0.062577 0.299387 -0.013807 -0.031199 0.019342 0.128785 -0.150578 -0.059635 0.285534 0.080759 0.149366 -0.021107 0.116692 -0.045850 0.050804 0.055166 0.124921 0.068978 -0.060766 -0.046268 0.264416 -0.020647 0.064085 -0.138945 -0.006240 0.133769 -0.144745 0.051333 -0.238191 -0.219584 0.020301 -0.006547 -0.067890 -0.120888 -0.153640 -0.241701 -0.304130 -0.066904 -0.039228 -0.086346 -0.130412 0.274655 -0.019991 0.078878 0.101741 0.144429 -0.106607 0.087952 0.010270 -0.021498 0.238314 0.018842 0.218273 -0.204369 -0.077211 0.003713 -0.083544 0.156034 -0.080904 0.109350 -0.164880 0.178757 -0.137255 -0.260572 -0.119815 -0.090721 -0.223798 -0.012472 0.014238 -0.172676 -0.040667 -0.053638 0.043200 0.325511 0.060806 0.087910 0.148529 0.118414 -0.036990 -0.031330 0.002311 -0.016294 -0.121974 0.080719 -0.129258 -0.079649 -0.044588 -0.099741 0.137938 -0.038200
640 -0.173917 -0.120528 -0.143489 0.287761 -0.046749 0.062075 0.032793 -0.019301 -0.126150 -0.191595 0.091003 -0.059414 0.141413 0.114935 0.088257 -0.233903 -0.033575 0.153859 0.170482 0.184671 -0.005100 -0.018181 0.159563 0.069633 0.127610 -0.085938 -0.039958 0.230391 -0.081285 0.056312 0.164976 -0.105087 -0.004068 0.061571 0.038822 -0.151471 0.055137 0.115393 0.184196 0.227883 -0.206333 0.043467 -0.076300 0.151908 -0.188196 -0.065782 0.120799 0.064793 -0.013433 -0.081380 0.188747 0.069123 0.183908 -0.025592 0.192617 0.238946 0.093502 -0.075152 0.051247 -0.187688 0.056461 -0.081774 0.158481 0.217054 -0.150234 0.007161 -0.145205 -0.273518 0.078933 0.135118 -0.006959 0.028940 -0.129526 -0.143145 -0.346394 0.091694 -0.021281 -0.036191 -0.025266 0.003419 0.181943 0.007724 -0.046471 0.131162 -0.100997 0.030193 0.001071 -0.058593 0.026193 0.105539 0.107778 -0.197216 -0.087317 0.058223 -0.180850 0.054840 -0.092842 0.089814 -0.079292 0.099372 0.048636 -0.210955 -0.295864 -0.029175 0.064635 0.199927 0.023518 -0.200401 -0.013787 -0.111505 -0.031908 0.190617 -0.053303 -0.049727 0.174384 0.020494 -0.055857 0.187926 0.017659 0.296784 0.084816 0.096882 -0.072174 -0.064636 -0.138138 -0.058974 0.133365 -0.119658
72 0.137973 -0.161270 -0.019577 0.106813 -0.003808 0.062791 -0.113015 -0.116104 0.204898 -0.180843 0.174368 0.101230 -0.082064 0.026504 0.143470 0.081334 0.091279 0.105970 -0.032232 0.242914 -0.065187 -0.053137 0.085034 -0.175873 -0.090014 -0.222442 -0.029974 -0.104624 0.189177 -0.153026 0.194764 0.193919 0.041659 -0.183577 -0.087527 -0.034696 -0.218197 -0.070153 -0.030673 0.094393 -0.095362 0.085065 -0.316207 0.344761 -0.088558 -0.248193 0.101215 -0.008716 0.003282 -0.088161 0.008210 0.057963 -0.184398 0.052630 0.070761 0.088857 0.046435 -0.088101 -0.048045 0.143245 -0.008433 0.022915 -0.173960 0.249967 -0.079196 -0.114869 -0.133594 0.042417 -0.029896 0.073709 -0.019366 0.003689 -0.100742 -0.188882 -0.191315 -0.024802 -0.001846 0.021000 -0.067808 -0.115688 0.023366 0.047921 0.062500 0.204148 0.064436 0.015400 0.108992 -0.043932 0.160119 -0.082613 0.106952 -0.321779 -0.011881 0.065618 0.051530 -0.007155 0.052876 0.098518 -0.078331 0.117993 0.068184 -0.165731 0.007321 -0.203496 0.017108 0.066468 0.002489 -0.276403 0.141412 -0.222718 0.113074 0.096681 -0.015664 0.016699 0.151412 0.212056 -0.229595 -0.077931 -0.031134 0.009552 -0.115774 0.153226 0.010435 -0.022770 -0.071641 -0.324081 -0.001101 -0.022217
481 -0.056837 0.053678 -0.030464 0.138177 -0.168513 0.213610 -0.119165 0.028967 0.075371 -0.151708 0.091441 0.147335 -0.030822 0.022501 0.351406 -0.062951 -0.229524 0.096419 0.082400 0.043489 0.003383 -0.013440 -0.011713 -0.224741 0.038032 -0.119838 -0.048802 0.153580 0.344239 -0.082716 0.161135 0.156534 0.059842 -0.116133 -0.028512 -0.027845 0.002950 -0.025442 0.060300 0.089804 -0.051465 -0.145207 -0.015497 0.194011 -0.134119 0.012405 0.129157 -0.065532 0.100533 0.077267 0.182983 -0.028305 -0.127011 0.069882 0.116397 -0.018359 -0.178240 -0.074780 0.107822 0.038888 0.134958 -0.084333 0.176653 0.185092 -0.198714 -0.219283 0.023138 -0.182783 -0.063722 0.002959 -0.235696 -0.154270 -0.205259 -0.181871 -0.360725 0.023195 -0.152897 -0.094570 -0.090111 -0.001670 -0.060250 0.148860 -0.005020 0.063419 0.104683 0.165724 0.028929 0.030901 0.018202 -0.092216 0.055821 -0.128647 -0.097823 -0.130056 0.149947 -0.038167 0.018630 0.300401 -0.089416 -0.071506 -0.048623 -0.267944 -0.044817 0.009647 -0.089779 0.154419 0.004458 -0.010829 0.058551 -0.109923 0.148477 0.069019 -0.008963 -0.102398 0.159602 0.120858 -0.290495 0.052305 -0.079480 0.112183 -0.122813 0.164804 -0.278060 -0.017389 0.108423 -0.230682 0.068100 0.085823
135 -0.128703 0.158802 0.018774 0.163059 -0.103823 -0.124147 0.013990 0.064267 0.080089 -0.264196 0.046043 -0.061382 0.132407 -0.003898 0.135021 -0.213942 -0.019095 -0.052477 0.095109 -0.043404 0.036568 -0.112675 0.075814 -0.139976 -0.042665 -0.146307 -0.132171 0.089544 0.119654 -0.081291 0.097290 -0.033935 0.000492 0.091908 -0.086825 0.048708 0.098299 -0.153508 -0.131018 0.099590 -0.101969 0.210393 0.075653 0.113148 -0.125355 0.013662 0.114913 -0.007181 0.060272 -0.077141 0.118433 -0.090168 0.120478 -0.006699 0.094162 -0.132965 0.054001 -0.112539 -0.017462 -0.000804 0.144930 0.136647 0.091667 0.083066 -0.077775 0.096991 -0.005537 -0.083617 -0.162456 0.202120 -0.106813 0.070041 -0.276149 -0.151966 -0.158176 0.143637 0.000419 -0.073573 -0.089104 0.171462 0.260616 -0.055793 -0.070759 0.029010 0.023371 0.192107 0.077045 -0.095908 0.055060 0.025367 0.256218 -0.018671 0.003658 0.160708 0.011190 0.025170 -0.126740 0.261451 -0.002095 0.138329 -0.213411 -0.114721 -0.242188 -0.194685 -0.121182 0.023440 -0.009036 -0.073678 -0.111687 0.118123 -0.136566 0.241133 -0.048791 -0.028944 0.282162 0.181657 -0.121621 -0.096986 0.033097 0.308927 -0.060842 0.074710 -0.354304 -0.045100 -0.031522 -0.048989 0.099301 -0.066389
159 -0.048962 0.012933 0.019044 -0.064530 -0.209604 -0.028517 0.000410 0.058510 0.182646 -0.124382 0.301858 0.187315 0.047404 0.020726 0.055628 -0.172789 0.116107 0.239030 0.123694 -0.075935 -0.077695 -0.052031 0.013714 -0.073694 0.058671 -0.095226 -0.124362 0.117130 0.147934 -0.275431 -0.000631 -0.059405 -0.048464 -0.035763 -0.130774 0.078693 -0.139234 -0.005092 0.150408 0.074223 -0.025557 0.126444 0.136193 0.289190 -0.080739 -0.018503 0.146443 0.123807 -0.107592 -0.121189 0.105180 0.072858 0.182409 0.032451 -0.083684 0.219190 0.036768 -0.072372 -0.022170 -0.276929 0.040019 -0.149274 0.238315 -0.003951 -0.177907 -0.162320 -0.040414 -0.295800 -0.001227 0.030173 -0.145889 -0.018260 0.048957 -0.054326 -0.307387 0.000014 0.144888 -0.197538 -0.193246 0.338665 0.083024 0.002459 0.016006 0.145478 0.135269 -0.014458 -0.179761 0.004249 0.103544 -0.025861 0.017352 -0.119710 -0.096585 -0.122031 -0.020996 -0.065951 -0.145773 0.158994 -0.124136 0.300791 0.011223 -0.152435 -0.171219 -0.134849 -0.098309 -0.037222 0.138284 -0.160613 0.077279 -0.074530 0.055474 0.195625 0.146736 0.001732 0.126289 0.166336 0.086352 0.130242 0.004379 0.177946 -0.090212 0.144674 -0.214341 0.018043 0.110386 0.071243 0.142322 -0.024627
718 0.047460 0.183210 -0.051154 0.035156 -0.032372 -0.113646 -0.112061 -0.065966 0.018297 -0.091729 0.019584 0.040577 0.075263 -0.145237 0.115973 -0.207085 0.054362 0.105150 0.188329 0.099912 0.024531 -0.144419 0.195429 -0.030228 0.080570 0.099415 0.117709 0.243000 -0.029078 -0.105743 0.137178 -0.070258 -0.099893 0.086903 0.003219 -0.067693 -0.015143 -0.102737 0.158069 0.057962 -0.155052 -0.021616 0.223133 0.288634 -0.100758 -0.149753 0.246221 0.019141 -0.123547 -0.026666 -0.033100 -0.039842 0.008236 0.009961 0.131833 -0.023410 -0.087158 -0.247657 -0.007546 -0.011118 0.182965 -0.173158 -0.017296 0.139149 -0.110656 -0.315142 -0.163583 -0.207246 0.058257 0.164514 -0.102025 -0.114173 -0.324818 -0.069233 -0.152300 -0.032924 -0.012423 -0.087998 -0.092303 0.127498 0.203389 -0.005710 -0.012783 -0.040860 -0.053372 -0.166884 0.018652 0.117777 0.124403 0.040044 0.051979 -0.285558 -0.111365 0.144504 -0.286806 -0.041674 -0.306087 0.063987 -0.226425 0.206769 -0.142111 -0.261860 -0.189356 -0.018166 -0.223961 0.112384 -0.100548 -0.012897 0.045525 -0.010601 0.155459 0.116062 -0.057753 -0.042138 0.134301 0.179549 0.066108 0.097507 0.030653 0.348724 0.050222 0.141665 -0.079866 -0.057588 0.082294 -0.051629 0.142503 0.094710
364 0.056245 0.013725 -0.035188 0.102787 -0.225895 -0.089630 0.011918 0.080650 0.131411 0.041669 -0.017825 0.062529 0.155475 -0.029152 0.013991 -0.281099 0.067321 0.125714 -0.113232 0.168359 0.163448 0.070406 0.103873 -0.055639 -0.148930 -0.110907 0.028959 0.183032 0.145945 0.049033 0.148422 0.220164 -0.109132 -0.153847 0.071278 -0.172838 0.035962 0.069547 0.057072 0.143124 -0.076456 0.035878 -0.052052 0.301961 -0.095418 -0.039805 0.080514 0.086042 0.075731 -0.060537 0.069118 0.032984 -0.066870 0.111992 0.164113 0.067701 0.009660 0.045654 0.147556 -0.103945 -0.112597 -0.050120 0.020957 0.251504 -0.197668 -0.032830 -0.081304 -0.024275 -0.043665 0.121543 -0.111431 -0.078744 -0.228432 -0.199461 -0.105957 0.074336 0.022861 0.029368 0.015566 -0.054718 0.045237 0.076856 0.184140 0.147402 0.052068 0.086936 -0.003387 -0.225768 0.042946 -0.010945 0.069713 -0.304073 -0.096005 -0.040945 -0.110450 -0.150034 0.019388 0.051087 -0.103509 -0.032281 0.092333 -0.325728 0.011313 -0.046915 -0.067536 0.099743 0.124063 0.306424 0.092153 -0.223346 0.147687 0.178871 0.071743 -0.094572 0.276187 0.171317 -0.195107 -0.160194 0.036211 0.044403 -0.175614 0.139681 -0.189127 -0.084062 0.152954 -0.163415 0.102557 0.110983
644 -0.174011 0.159191 -0.402090 0.260423 -0.165375 -0.159537 0.129601 0.109624 0.148739 0.045314 0.123196 0.077669 -0.134402 0.048786 -0.024712 -0.335792 -0.188159 -0.003029 0.001958 0.100495 0.080541 -0.031514 -0.013431 0.140461 0.002573 -0.123004 0.016071 0.114263 0.256107 -0.100594 0.035874 -0.136825 0.001384 0.073419 0.071734 -0.037865 0.131602 0.032923 0.008372 0.112904 -0.047587 0.019667 -0.079121 0.179778 -0.247079 0.015288 0.044999 0.034575 0.018374 -0.232260 0.011700 -0.109062 -0.033820 -0.029019 0.158698 0.214270 -0.113659 -0.083319 -0.069357 -0.065341 -0.028276 -0.116536 -0.095482 -0.040181 -0.305252 -0.018454 0.012582 -0.128126 -0.062598 -0.055033 -0.012216 -0.111651 -0.160795 -0.176449 -0.289421 0.020249 0.018621 -0.091989 -0.182337 0.073407 0.212447 0.042328 0.047711 -0.058281 -0.072794 -0.026973 -0.053537 0.017164 0.132506 0.226010 0.044800 -0.076104 -0.104799 0.016119 -0.206173 -0.030119 -0.010869 -0.013456 0.074274 0.250491 -0.102648 -0.074924 -0.180843 -0.147767 -0.021480 0.003857 0.030419 -0.055543 -0.019813 -0.038263 -0.081072 0.270572 0.089543 0.053635 0.071875 0.310107 -0.054773 0.106589 -0.047888 0.413586 0.119683 0.112239 -0.212385 -0.186560 0.046219 -0.103381 -0.092961 -0.047732
255 -0.075997 -0.039764 -0.064677 0.394310 -0.150157 0.043998 0.064454 0.085599 0.143752 -0.180025 0.169726 -0.068776 0.194127 -0.102120 0.150350 -0.132296 -0.140911 0.160974 -0.011399 0.228168 0.101649 -0.086632 -0.047385 -0.090398 0.037359 -0.065942 0.111899 0.068094 0.003706 -0.095260 -0.005092 0.043083 -0.034294 0.058203 -0.199751 -0.039226 0.014259 -0.027817 0.132742 0.005490 -0.095779 0.131323 0.051038 0.174822 -0.111157 -0.169866 0.304648 0.146513 0.067323 -0.056307 0.091461 -0.170112 0.103726 -0.052682 0.023920 0.078334 0.144915 0.092764 0.202767 -0.219585 0.101631 0.043920 0.076723 0.170341 -0.008661 0.004377 -0.236688 -0.387174 -0.009277 -0.005314 -0.102408 -0.028303 -0.186424 -0.250749 -0.450414 0.169848 0.048191 -0.227075 -0.049950 -0.005791 0.109418 -0.082093 0.105626 0.098371 0.131521 -0.055406 -0.206014 -0.092804 0.068857 0.121562 0.077937 -0.197971 0.020740 0.105755 -0.073567 -0.091755 0.068037 0.047945 0.002959 0.037956 0.040421 -0.204884 -0.206804 -0.153268 -0.044909 -0.084042 0.070578 -0.110684 -0.077318 -0.048455 -0.054987 0.165514 0.021998 -0.145518 0.110784 0.122662 0.034602 -0.117634 -0.067245 0.221119 0.011156 -0.045756 -0.116273 -0.163251 -0.045802 -0.123923 0.027654 -0.079087
489 -0.035375 0.101768 -0.034343 -0.045439 0.025851 -0.112368 0.076435 -0.118043 0.103556 -0.278038 -0.029810 0.064324 0.079405 0.119317 -0.029568 -0.224650 -0.004167 -0.001282 0.152588 0.002130 0.035338 0.029227 0.122793 0.035319 -0.094560 -0.154823 -0.004731 0.097285 0.139642 0.009767 0.212248 -0.179183 0.211738 0.049425 -0.085051 -0.060240 -0.065077 0.064660 0.051315 0.106637 -0.027278 0.022221 -0.086578 0.051157 -0.165298 -0.053049 0.159921 0.009987 0.076736 0.000953 0.081088 -0.085438 0.109844 0.087809 0.127745 0.130628 -0.000038 0.042218 -0.101298 -0.127498 0.017094 -0.016391 -0.033519 0.175247 -0.119338 -0.100748 -0.170098 -0.290012 0.032446 0.154153 -0.252321 0.054917 -0.246548 -0.039713 -0.162951 -0.147553 0.065123 -0.185176 -0.083163 0.047377 0.014532 0.178948 -0.121317 0.086310 0.024475 -0.051572 -0.012000 -0.111504 0.071785 0.232312 0.224344 -0.226449 -0.021050 -0.165008 0.041579 -0.152626 -0.134432 0.127395 -0.108686 0.250056 -0.001594 -0.053889 -0.299120 -0.122988 -0.062589 0.036491 -0.071333 -0.225810 -0.041860 -0.036078 0.095166 0.213557 0.172063 0.056700 0.236182 0.211180 0.118530 0.197551 0.165839 0.392343 0.101010 -0.030205 -0.297294 0.095198 -0.048316 -0.107952 0.180832 -0.069611
732 -0.075344 0.095450 -0.003467 0.061350 -0.165654 0.003552 -0.138438 0.009822 -0.071374 -0.053890 0.049808 0.023277 -0.093097 -0.010673 0.049230 -0.074262 -0.061258 0.137003 0.009234 -0.006913 0.089415 0.090842 0.015209 -0.125689 0.219458 -0.232559 -0.016998 0.063164 -0.047249 0.050801 0.072897 -0.057170 0.026127 0.068400 -0.114848 0.128282 -0.053517 0.010179 0.074831 0.012303 -0.185261 -0.087932 -0.114448 0.103783 -0.046339 -0.020216 0.070582 0.087904 -0.061145 -0.007851 0.200747 -0.050020 0.186732 0.161686 0.122393 0.045262 0.112640 -0.234070 0.176345 -0.083268 0.172443 0.087433 0.156553 0.100353 -0.051259 -0.065111 -0.155232 -0.278445 -0.038041 -0.049914 -0.011939 -0.040065 -0.130579 -0.181070 -0.108617 0.082007 0.071847 -0.119119 -0.049027 0.310161 0.061373 0.144613 0.023227 -0.137041 0.175903 0.068559 -0.216140 -0.071481 0.214347 0.054179 0.209514 -0.269078 -0.105710 0.198025 -0.129516 -0.194732 0.062204 0.147585 -0.185807 0.184219 -0.022048 -0.294305 -0.287416 -0.076503 -0.072048 0.037210 0.005574 -0.076030 0.047286 -0.049223 -0.029894 0.111876 0.240432 -0.143422 0.170820 0.372471 -0.121043 0.105510 0.123383 0.218649 0.124572 -0.000244 -0.192701 0.003301 0.118503 0.007800 0.148815 -0.016642
354 -0.069729 0.043452 -0.127664 0.210263 -0.171994 0.099936 0.019217 -0.063901 -0.071047 -0.317987 0.219885 0.049422 0.021544 0.001332 0.057298 -0.054614 -0.088267 -0.091517 0.227602 0.138574 -0.145701 -0.170044 0.326324 -0.019899 -0.065443 -0.142884 0.098255 0.006083 -0.117720 -0.079464 0.085907 -0.045393 -0.058494 -0.139281 0.068457 0.148991 -0.120474 -0.041214 0.005306 0.163315 -0.187123 -0.060082 -0.059676 0.334072 0.013139 -0.211207 0.210074 0.201119 0.139620 -0.053724 0.053907 -0.090369 -0.173851 0.047298 0.070613 0.032091 0.222584 -0.144016 -0.057600 -0.191926 0.058264 0.059503 -0.180272 0.093467 -0.100209 0.029312 -0.179594 -0.392645 0.043366 -0.007262 0.004621 -0.006695 -0.035738 -0.138308 -0.068552 0.181910 0.107067 -0.195187 0.013049 0.032602 0.235765 0.037598 0.063622 -0.056744 -0.129095 -0.023157 -0.100701 0.036363 0.341117 0.107196 0.044200 -0.276489 -0.153872 -0.040919 -0.085464 -0.054663 0.010938 0.056058 0.126367 0.158051 -0.087717 -0.177062 -0.194150 -0.304105 -0.125043 0.180295 -0.122619 -0.213721 -0.097168 -0.072706 -0.041420 0.098304 -0.184220 -0.012618 0.048043 0.111611 0.107355 0.043946 -0.093649 0.288448 -0.269438 0.071586 -0.182658 0.204121 0.114351 -0.154475 0.166146 0.022438
105 -0.132447 0.110907 -0.217622 0.085342 0.025033 0.005948 0.002937 0.101953 -0.112370 -0.212968 -0.071392 0.134033 0.011205 0.111041 0.025171 -0.082827 -0.140844 0.243852 0.050801 0.015847 0.121797 0.013864 0.278745 -0.067376 -0.058665 -0.309685 0.048189 -0.035928 0.130432 -0.029717 0.103152 -0.178499 0.064717 0.067633 -0.046868 -0.203771 -0.002426 0.132574 -0.139131 0.100051 -0.071833 -0.026124 0.196529 0.159390 -0.095607 -0.167926 0.184893 -0.020314 0.133742 -0.228461 0.074280 -0.042476 0.095730 -0.002290 0.116924 0.071666 0.063458 -0.075709 0.085035 -0.055842 0.164804 0.011165 0.012975 -0.024174 -0.024485 0.045711 -0.040996 -0.099670 -0.084142 -0.057503 -0.027097 0.031951 -0.240945 -0.195143 -0.218398 -0.082297 -0.017454 -0.088932 -0.038861 0.159896 0.063737 -0.046714 -0.088929 0.131957 -0.056611 0.027695 -0.071873 -0.142184 0.077767 -0.010720 0.325479 -0.172525 0.114222 0.043249 -0.070504 -0.053796 0.006637 -0.080949 -0.123614 0.316451 -0.096159 -0.158568 -0.171743 -0.175584 -0.178072 0.275832 -0.031556 -0.041490 0.060542 -0.081946 -0.027087 0.285461 -0.183335 -0.150053 0.112208 0.129058 -0.081457 -0.003980 0.131011 0.213892 -0.009296 0.106065 -0.051030 -0.069031 0.296502 -0.140557 0.162892 0.137983
63 -0.069283 0.247576 -0.063696 0.126944 0.042513 0.074733 0.021229 -0.022419 0.072980 -0.014319 0.085960 0.134995 0.169372 -0.024118 0.251624 -0.224844 -0.085727 0.018748 -0.116201 0.187174 0.025460 -0.034644 -0.020302 -0.100691 -0.006387 -0.003921 0.012919 0.278628 -0.031904 -0.140900 0.031616 0.021139 -0.246036 -0.099861 -0.095899 -0.129129 -0.101096 -0.101089 0.060519 0.270222 -0.256142 -0.041602 0.010543 0.097243 -0.077502 -0.090192 0.118163 0.154203 -0.071201 0.036706 -0.060732 0.180898 -0.078268 -0.031126 0.155139 0.112405 0.006836 -0.148104 -0.072668 0.039971 0.005167 -0.012772 0.283713 0.158582 -0.146619 -0.075566 -0.116176 0.100444 0.076814 0.008741 -0.221443 -0.000829 -0.119187 -0.198719 -0.266136 -0.015344 -0.052137 0.012173 -0.136332 0.001711 0.011277 0.029066 0.064499 -0.030816 -0.060797 0.059726 -0.101503 -0.026551 0.125086 0.006876 0.173312 -0.109104 -0.003166 -0.143511 -0.039287 0.014591 0.059110 0.032580 -0.150476 0.255563 0.175049 -0.294393 0.046846 -0.150024 -0.108139 0.051484 -0.052702 -0.101900 0.079578 -0.161868 0.081711 0.329898 -0.049840 -0.088809 0.231899 0.022251 -0.055255 -0.158933 -0.020388 0.056641 0.078254 0.286650 -0.043815 0.016653 0.088868 -0.091835 0.118480 -0.007351
472 0.001024 -0.126192 -0.062221 0.258288 -0.074338 0.207819 -0.131555 0.216051 -0.066756 0.096894 0.048649 0.036468 -0.018428 -0.087983 0.181528 0.003294 -0.204263 -0.100958 -0.040896 0.051833 0.042322 0.042407 0.174420 0.131360 -0.123403 -0.063039 0.024353 0.110011 0.219305 0.093037 -0.108479 0.096404 -0.049237 -0.097807 0.098107 -0.021883 -0.063193 -0.162334 0.090827 0.197067 -0.364470 0.177028 -0.114154 0.200100 -0.022726 -0.132408 0.038737 -0.087178 -0.048908 -0.209846 0.098663 -0.014391 0.092674 -0.042801 0.321569 0.066254 0.067936 -0.047294 0.122254 0.092407 0.069834 -0.201201 0.112698 0.118765 -0.180063 -0.092380 0.024750 -0.193186 -0.058283 0.048643 -0.059880 -0.128421 -0.136720 -0.118165 -0.168508 -0.037475 -0.188362 -0.139364 -0.057818 0.000794 0.175230 0.147889 0.200735 -0.099764 -0.170738 0.111961 0.054783 -0.028384 0.173438 0.173811 0.057948 -0.317179 -0.058825 -0.100135 -0.013633 -0.010309 -0.036566 -0.125901 -0.006572 0.216070 -0.203305 -0.181411 -0.001026 -0.064866 0.045847 -0.017463 -0.037968 0.060157 -0.076510 -0.243068 -0.009528 0.053974 -0.026581 -0.010277 0.244202 0.034750 -0.169336 -0.160876 -0.087412 0.020569 -0.281417 0.298304 -0.177628 0.025793 -0.047538 -0.199006 0.041584 -0.120894
639 -0.078269 0.107705 -0.018290 0.076844 -0.169925 -0.039631 -0.089974 0.042348 -0.173064 -0.062087 0.272444 0.218972 -0.024199 0.035560 -0.069040 -0.243326 -0.074291 0.252182 0.025295 -0.051739 -0.174196 -0.101585 0.178287 -0.010426 0.015477 -0.081621 0.095130 0.226321 0.067817 0.106512 0.044844 -0.016406 -0.039396 0.042527 -0.213744 0.139200 0.111149 0.037324 0.174393 0.056715 -0.049559 0.248082 0.115655 0.174459 0.079758 -0.071524 -0.060307 -0.087284 0.005519 -0.057997 -0.046704 0.001395 0.141505 -0.184305 0.091308 -0.051553 0.070083 0.251195 0.045586 -0.113392 0.189512 -0.058333 0.096265 0.111354 -0.070214 0.003987 -0.071031 -0.200453 -0.037846 -0.079658 -0.017279 0.033390 -0.265433 -0.321332 -0.214376 0.032305 -0.095410 -0.149133 -0.062161 0.192621 0.034631 0.164858 0.012167 0.179164 -0.010277 0.067684 0.079823 -0.118108 0.109311 -0.022917 -0.000440 -0.390649 -0.074212 -0.029053 -0.056200 -0.090472 -0.171176 0.072857 -0.192444 0.143926 -0.155449 -0.339030 -0.307429 -0.020872 -0.114919 -0.084311 0.035537 -0.061820 -0.155791 0.028198 0.077496 0.151838 0.031507 -0.075375 0.122748 0.083259 0.013762 -0.070860 -0.131200 0.304593 -0.103769 -0.032642 -0.123346 -0.112905 -0.001582 -0.065073 0.007722 -0.087963
402 -0.116277 -0.153634 -0.035034 0.038042 -0.145067 -0.113913 -0.170683 0.053805 0.166850 -0.220459 0.131577 0.101633 0.051741 0.005105 0.050479 0.020135 -0.037791 0.129850 0.044194 -0.090287 0.069745 0.231914 -0.081319 -0.022096 0.171532 -0.054156 0.114434 -0.018829 0.104678 -0.077700 0.077813 0.033906 0.109761 0.071055 0.076606 0.118266 0.119721 0.182839 -0.043380 0.153254 -0.079427 0.180071 -0.014684 0.414517 0.108577 0.002095 -0.043946 -0.025152 0.146610 -0.163391 0.037757 -0.170734 0.181737 0.094921 0.133867 0.101309 0.164526 -0.062244 -0.013803 0.149378 0.150899 -0.114512 -0.004179 0.177494 -0.212361 -0.225445 -0.013480 -0.191152 0.023112 -0.246962 -0.020015 -0.010530 -0.113627 -0.205585 -0.090399 0.024495 0.013945 -0.266349 -0.018265 0.121535 -0.076153 -0.082639 0.162550 0.245978 -0.168413 -0.107295 -0.002217 0.060006 0.183838 0.234494 0.228430 -0.355886 -0.098939 0.018954 0.030038 0.094895 -0.071154 0.080035 -0.341404 0.019781 0.096065 -0.129207 -0.104696 0.013448 -0.043430 0.085489 0.146363 0.002970 0.076750 -0.012068 -0.246418 0.179241 -0.007060 -0.268958 0.095572 0.110207 -0.068379 -0.052331 -0.130926 0.049572 0.012266 0.094627 0.002069 0.054758 0.098712 -0.368907 0.077094 0.027630
517 -0.019117 0.022598 -0.101591 0.124928 0.058808 -0.156146 0.028708 -0.036519 0.180254 -0.181659 0.195941 0.245418 -0.056422 0.050963 0.041426 -0.081789 0.004544 -0.121865 0.084773 -0.062554 0.167635 0.145806 0.062075 -0.064782 -0.059101 0.042991 0.033344 -0.063439 0.084269 -0.105083 0.020866 0.180379 0.138452 -0.036523 0.100523 -0.082156 0.028510 -0.007834 -0.273401 0.305045 -0.109902 -0.030963 0.108578 0.353533 -0.042952 -0.104913 0.274267 -0.040524 0.065644 -0.110993 0.056099 -0.119752 0.087594 0.124218 0.169571 0.180719 0.148871 -0.052495 0.092591 0.132703 -0.024832 -0.100388 0.132732 -0.015158 -0.092410 -0.149787 -0.085092 0.111242 -0.129686 -0.123819 -0.072404 0.025045 -0.165610 -0.105906 -0.156581 0.030111 -0.069976 -0.116718 0.117437 0.227270 -0.056468 -0.171260 -0.035341 0.231740 -0.056331 -0.160535 -0.196826 -0.003274 0.191735 0.245923 0.240030 -0.232047 -0.156905 -0.121043 0.006070 0.184343 0.003273 0.044121 -0.217812 0.245457 0.056994 -0.214465 -0.051726 -0.057308 -0.202145 -0.192270 -0.062078 -0.064166 -0.023653 -0.034609 0.080527 0.116380 0.137762 -0.060760 0.162515 0.148162 -0.153709 0.004329 -0.129405 0.229759 -0.081092 0.228884 0.100971 -0.040900 -0.011256 -0.215507 0.123013 -0.023298
686 -0.037023 0.037836 -0.038405 0.206056 -0.006287 0.105236 -0.047589 -0.044680 0.136864 -0.159880 -0.045143 0.068106 0.011350 -0.003835 0.094516 -0.170332 0.112778 -0.154875 -0.077129 0.150512 -0.151353 -0.174159 0.105678 0.071513 -0.047961 -0.030846 -0.012309 -0.093866 0.093492 0.171285 0.071749 0.118470 -0.074285 -0.036377 -0.155859 -0.229387 -0.015448 0.045753 0.254224 -0.103001 0.170996 0.042045 -0.153187 0.183315 -0.060766 0.035721 0.028976 0.059739 0.200045 -0.054244 0.156506 -0.037653 0.100113 -0.078688 -0.002789 0.143254 -0.015566 -0.055526 0.177947 0.184473 0.264941 0.041944 -0.075992 0.096973 -0.185802 -0.208375 0.015414 -0.084817 -0.015990 0.011798 -0.153500 0.066531 0.058736 -0.199572 -0.381230 0.011455 -0.075715 0.091245 -0.161117 -0.093466 0.205029 0.050317 0.049014 -0.053137 -0.088759 0.282799 -0.092677 -0.020342 0.024230 0.047119 0.149731 -0.131119 -0.010534 0.116801 0.066184 -0.038155 0.307234 -0.008881 -0.090746 0.028102 -0.152112 -0.355467 -0.087521 -0.016822 -0.023008 -0.086272 -0.069228 0.004407 0.158938 -0.091874 -0.048742 0.185394 0.257947 0.097118 0.248458 0.212877 0.052038 -0.098403 0.006306 -0.137487 -0.185238 0.319300 -0.007328 -0.057328 -0.092550 -0.274137 0.187337 -0.144150
689 -0.116916 -0.004235 0.104447 0.106041 -0.019223 -0.214571 -0.032605 -0.143407 0.012219 -0.345482 0.024801 0.213802 -0.082840 0.080450 0.087104 -0.065156 -0.137145 -0.024553 0.040948 0.227734 0.102157 -0.020826 0.160575 -0.217076 0.021586 -0.343669 0.197197 0.049090 -0.139715 0.002515 0.079924 -0.020021 0.011835 0.015592 -0.000572 -0.120875 -0.050973 0.000572 0.194490 -0.077281 -0.078551 0.193759 -0.033269 0.231848 0.086163 -0.059932 0.131099 0.168903 -0.032120 -0.105874 0.113325 -0.055271 0.007538 -0.177890 0.035540 0.187751 -0.077059 -0.020165 -0.109998 -0.182405 0.224176 -0.064300 0.051996 0.121311 0.014840 -0.182086 -0.018649 -0.151046 -0.057502 -0.118689 0.041214 0.098993 -0.204967 -0.197577 -0.205267 -0.040440 0.065894 -0.196600 -0.030748 0.095266 0.119065 -0.038773 0.041533 0.238101 0.131332 -0.081634 -0.037427 -0.039033 0.103575 0.037209 -0.024504 -0.345340 0.064571 -0.005802 0.048424 -0.101568 -0.056792 0.194176 0.083996 0.245838 -0.009444 -0.159075 -0.127668 0.110462 -0.286569 0.032787 0.012130 -0.049042 0.056701 -0.109987 -0.104935 0.241294 -0.097155 -0.019251 0.134146 0.152123 -0.069482 0.032153 -0.030156 0.220211 -0.137643 0.201098 -0.068545 0.011995 -0.009849 -0.060034 0.045391 -0.271687
559 0.105250 0.063182 -0.206101 -0.013275 -0.033325 -0.032552 -0.063280 0.058878 0.035584 -0.154313 0.315830 -0.085895 -0.035137 0.107500 -0.015228 -0.128161 -0.002513 -0.078393 -0.058994 -0.035233 0.145108 0.037814 0.157961 0.133517 -0.032580 -0.097270 -0.034729 0.050993 0.090332 -0.140590 0.212788 -0.000743 -0.219317 0.093920 -0.222513 -0.042010 0.005022 -0.046058 0.175975 0.043072 -0.074852 0.254218 0.033914 0.141487 0.057902 0.038492 0.091571 0.237375 0.163873 -0.182219 0.141276 -0.078339 0.022191 0.110539 0.094504 -0.020688 0.060352 -0.112783 0.075850 -0.149985 0.129644 -0.247044 0.013342 0.092852 -0.159844 0.067415 -0.177731 -0.132854 -0.105350 -0.029798 0.128418 0.087404 -0.162876 -0.165448 -0.146709 0.152761 0.046028 -0.266357 -0.018484 0.307660 0.156574 0.071079 -0.000289 0.049709 -0.177259 0.176794 -0.114699 -0.036663 0.111060 -0.008341 0.266677 -0.320540 -0.259017 0.176964 -0.143809 -0.050202 -0.303734 -0.103524 -0.161382 0.155565 -0.183241 -0.116736 -0.332067 0.004465 0.119278 0.185612 0.075811 0.047234 -0.007320 -0.016143 0.038356 0.283016 0.127967 -0.163757 0.116650 0.128468 -0.015299 0.100032 0.052853 0.370480 -0.076418 -0.201121 -0.133829 -0.050920 0.045666 -0.262994 0.086084 0.001845
685 -0.104278 0.018153 -0.124684 0.236632 -0.301291 0.054697 0.060074 0.159421 0.221914 -0.122782 0.283554 -0.043819 0.030521 -0.017195 0.113426 -0.118382 0.080626 -0.050167 0.134906 0.167188 -0.070524 -0.061330 0.008121 0.047201 -0.034094 -0.219225 0.003259 0.054532 0.143905 -0.210500 0.160404 0.004231 -0.102569 0.239319 -0.034034 -0.179275 -0.033248 -0.009688 0.078130 0.140414 -0.057270 0.080179 -0.046820 0.207217 -0.078774 -0.253317 0.143216 -0.036914 0.313856 -0.032598 -0.071208 -0.229612 0.125137 0.016648 0.125421 0.067947 0.101383 0.135895 0.065319 -0.040874 0.080662 0.019540 0.000908 0.089044 -0.119560 -0.064990 -0.141191 -0.158717 -0.042825 -0.020475 0.000706 -0.106695 -0.239869 0.064077 -0.300388 0.072968 -0.063223 -0.300784 -0.020502 0.181780 0.206398 -0.065342 -0.006991 -0.053577 -0.060580 -0.057918 0.001006 0.206972 0.145772 0.212872 0.207237 -0.104091 0.042208 0.101868 -0.017905 -0.112783 0.077396 0.092319 -0.145347 0.296026 0.007003 -0.254842 -0.273650 -0.150064 -0.118995 0.083340 -0.021560 0.148024 0.104872 -0.070507 -0.058878 0.321698 -0.079908 -0.187946 0.311826 0.165529 -0.014031 -0.003260 0.180627 0.176400 0.010374 -0.049476 -0.105654 -0.003427 -0.055562 -0.027933 0.017936 -0.082343
376 -0.179771 0.187362 0.021031 0.017806 -0.027990 0.056816 -0.066041 0.138750 -0.016032 -0.232863 0.029493 -0.028232 0.229975 0.075930 0.024880 -0.207525 -0.232431 0.053775 -0.053503 -0.062637 -0.132221 0.142366 0.149097 -0.077256 0.212007 -0.151522 -0.155918 0.266687 0.051252 0.026898 0.016302 -0.092176 0.130233 -0.053448 0.089461 0.001803 0.001175 0.097463 0.069051 0.179718 0.023367 0.061935 0.056640 0.148400 0.095791 0.038738 0.047557 0.050134 0.143593 -0.002719 0.143388 -0.174321 -0.157254 -0.179058 -0.010926 0.008404 0.037828 -0.125473 0.071126 -0.219655 -0.006494 -0.122136 0.110238 0.166958 -0.064722 -0.257059 -0.069439 -0.225192 0.134719 0.173721 0.030264 0.013573 -0.199808 -0.190486 -0.089397 0.226960 -0.092875 -0.061442 -0.136258 -0.051363 -0.134808 -0.113952 -0.020372 0.217129 0.042731 -0.078841 -0.041170 0.007689 -0.068687 0.059747 -0.002063 -0.298024 -0.132895 0.072045 0.129814 -0.052116 0.077369 0.018101 -0.085967 0.278603 0.018691 -0.054171 -0.217204 -0.060330 -0.027183 0.002863 0.020708 -0.242443 0.217758 -0.022677 -0.080060 0.169232 -0.007354 -0.195578 0.260559 0.281676 -0.137036 0.156142 -0.021545 0.086953 -0.043399 -0.016381 -0.192457 -0.006849 -0.017873 -0.218911 0.161935 0.052956
603 -0.199268 0.205281 -0.005705 0.001623 -0.179071 -0.072940 0.058976 -0.165595 0.062443 -0.025272 -0.061795 0.056532 -0.043942 -0.120390 0.069225 0.125541 -0.082299 0.036379 0.194441 0.049167 0.117502 0.091737 0.192136 -0.200242 -0.142984 0.007804 0.069416 0.189755 0.053001 -0.049689 0.112908 -0.077993 -0.221390 -0.045068 -0.292785 0.024673 -0.010573 -0.068720 0.008663 0.068659 -0.246033 -0.066044 0.059299 0.279258 -0.081502 -0.007956 0.147945 -0.000610 0.167104 -0.043391 0.136492 -0.124911 0.199031 0.165603 0.031372 0.129555 0.003786 -0.019560 0.186266 0.064197 -0.083746 0.048043 0.004909 0.048630 0.043164 -0.062218 -0.219269 -0.242008 -0.059757 -0.074255 0.066067 -0.026416 -0.024107 -0.117557 -0.247628 0.158768 -0.075699 -0.139819 -0.046535 -0.077992 0.119417 0.061818 0.056674 0.123847 -0.063366 -0.049424 0.048719 -0.011032 0.069171 0.229998 0.107510 -0.330447 -0.150571 0.041474 0.058037 0.063199 -0.102941 -0.096981 -0.035516 0.102901 0.145344 -0.298223 -0.205652 -0.111086 -0.185663 0.054176 0.079363 -0.178333 -0.015100 -0.082084 -0.191913 0.291794 0.058192 0.004208 0.312268 -0.215880 -0.092553 0.161246 0.042954 0.428920 -0.088496 0.016634 -0.137490 -0.180691 0.099486 -0.187049 0.170465 -0.138965
60 -0.181645 0.121947 -0.115713 0.112880 -0.039637 -0.124751 -0.088498 0.179999 -0.010887 -0.025466 0.100548 0.032520 0.193640 0.147576 0.084445 -0.059683 0.012038 0.046412 0.203807 0.014477 0.012907 0.084469 0.304608 0.040977 0.085600 -0.148058 0.045535 0.145256 0.071073 -0.042054 0.109778 -0.147069 -0.006384 0.107216 -0.067247 0.132814 -0.139484 0.050579 0.014503 0.019448 -0.138990 0.097604 0.027464 0.063534 -0.003300 -0.061154 0.048878 0.077490 0.113130 -0.003403 -0.017441 -0.086391 0.008531 0.040675 0.026225 0.084109 -0.036675 0.016843 0.099504 -0.144507 0.099588 0.214115 -0.006353 -0.030326 0.062777 0.007233 -0.205544 -0.031430 0.125373 0.011563 -0.039527 -0.041156 -0.126874 -0.327566 -0.075935 0.101945 0.171678 0.031023 -0.043778 0.261162 0.077914 0.055904 0.060799 0.074750 0.120767 0.108883 -0.186308 -0.195939 0.263166 0.094373 -0.004560 -0.281927 -0.103181 -0.016914 0.073857 0.002944 -0.076805 0.060833 -0.128349 0.182087 -0.234645 -0.077206 -0.182881 -0.062463 -0.071057 0.188005 -0.065818 -0.146694 0.098788 -0.298963 -0.114668 0.306766 0.134772 -0.001791 0.110959 0.131936 -0.017733 0.130003 0.081095 0.508219 0.014123 0.107569 -0.086831 -0.140152 0.032457 -0.303632 0.172028 -0.099700
312 -0.139197 0.089009 -0.221517 -0.115114 -0.033484 0.005557 0.072567 -0.213788 0.040545 -0.197178 -0.005482 -0.012995 0.224438 -0.122938 0.007048 0.052718 -0.075680 0.096635 0.106353 0.087636 0.025784 -0.035993 0.112598 -0.004979 -0.089219 -0.134766 -0.045193 0.105012 -0.034130 0.084016 0.168371 -0.153869 -0.097183 0.038092 -0.187558 -0.156072 -0.007653 0.121772 0.088030 0.082879 -0.059017 0.083161 0.034972 0.185289 -0.027683 -0.093951 0.226717 0.160783 0.069454 -0.171041 0.145062 -0.111528 0.140714 0.182658 0.024293 0.068519 -0.133016 -0.056996 0.130517 -0.386096 -0.122622 -0.005013 -0.073349 0.181833 -0.285830 -0.034882 -0.110773 -0.336222 -0.028339 -0.061786 -0.076136 -0.022322 -0.120460 -0.352309 -0.128993 0.108873 0.047084 -0.214751 0.043583 0.370549 0.080385 -0.040828 0.094509 0.103022 -0.074865 0.156051 -0.176373 -0.066731 0.099008 0.186100 0.224770 -0.184619 -0.007499 -0.148633 -0.117443 0.053816 -0.059585 -0.056044 -0.039573 0.167518 0.083877 -0.281513 -0.265894 -0.277208 -0.131926 -0.028645 0.158658 -0.164546 -0.092430 0.111941 0.063520 0.271904 0.151501 -0.153286 0.147329 0.145591 -0.111315 0.085262 0.076438 0.191175 -0.177844 0.089817 -0.180648 0.081193 -0.053380 -0.000442 -0.028152 -0.110843
410 0.184697 0.040334 0.059987 0.299987 -0.109739 0.018908 -0.063915 0.003605 0.116799 -0.063257 0.202048 -0.084194 0.085711 -0.056168 0.213431 -0.309259 -0.089630 -0.061473 0.228707 -0.072690 0.161056 -0.234876 0.147521 -0.056399 -0.147600 -0.159674 0.104169 -0.067011 0.283362 0.031618 -0.050567 0.087264 -0.099097 -0.092224 -0.077434 -0.193847 -0.171022 0.118479 0.117916 0.080973 -0.168841 -0.133402 -0.110568 0.260134 0.233269 0.052459 0.165043 0.139897 0.328148 -0.061767 0.057177 0.025159 -0.069574 0.094814 -0.001433 0.064485 0.007074 -0.178462 0.126092 0.173280 0.160324 -0.049176 -0.049840 0.270927 -0.328063 -0.181300 -0.094586 -0.078458 -0.123586 0.120151 -0.155886 -0.285282 -0.205453 -0.153607 -0.121332 -0.041119 -0.065062 0.021222 -0.201423 0.013634 0.119338 -0.168426 -0.060469 0.065109 0.315755 -0.001822 0.204614 0.007856 -0.080538 0.007481 -0.052943 -0.185037 -0.158522 -0.070936 -0.125025 0.056432 0.108302 -0.028693 -0.139687 0.079372 0.077887 -0.239683 -0.073567 0.046830 -0.078878 0.013622 -0.241039 -0.256652 0.103000 -0.044163 0.002707 -0.080224 -0.052047 -0.133415 0.260704 0.262992 -0.091854 0.071425 0.021164 0.119445 -0.126064 0.188769 0.037873 0.068352 0.105623 -0.323705 0.032380 0.074200
118 0.062421 0.066709 -0.177869 0.208947 -0.094452 0.073697 0.141074 0.069958 -0.078803 -0.197106 0.000999 0.053795 -0.155791 0.161055 0.026144 -0.093800 0.113806 0.064926 0.025274 0.089625 0.108986 -0.037660 0.235983 0.028096 -0.052366 -0.075420 0.159760 -0.041511 -0.028431 0.060248 0.131704 0.141601 -0.168742 -0.118016 0.032799 -0.044568 -0.155774 -0.060259 0.008873 0.063625 -0.016679 0.130286 0.004143 0.177199 -0.049345 -0.053145 0.076694 -0.071553 -0.014607 -0.117888 -0.007457 -0.072652 0.137875 -0.003994 0.143488 0.137645 0.014040 0.046810 0.077291 -0.078466 0.075705 -0.171032 -0.198776 0.092491 -0.003634 0.034710 -0.095817 -0.291623 0.264604 0.063773 0.128605 -0.068367 -0.322427 -0.172377 -0.118495 0.130014 -0.048466 -0.032872 -0.109733 0.104714 -0.066388 0.104122 -0.065983 -0.075134 -0.105970 0.036486 -0.112625 0.115621 -0.011999 0.132364 0.065192 -0.387156 -0.265336 -0.021825 -0.037376 0.034485 -0.031275 0.386090 -0.087517 0.270680 -0.126163 -0.174453 -0.133388 -0.142435 0.020416 0.140329 0.076748 -0.010113 -0.088421 0.134341 -0.021372 0.290411 0.006801 -0.077848 -0.041768 0.070754 -0.012013 0.123979 -0.102847 0.330334 0.206998 0.067859 -0.208089 -0.115978 -0.050742 -0.063714 0.092500 -0.008653
668 -0.135614 0.153081 -0.116741 -0.009532 -0.173708 0.029437 0.001455 0.159305 0.091076 -0.340371 0.195509 -0.057334 0.211415 -0.014446 -0.056334 -0.212900 -0.038181 -0.023389 0.026079 0.205004 0.026176 -0.003645 0.042913 -0.111372 0.082536 -0.148007 0.071164 0.245982 0.029063 -0.063657 -0.001830 -0.013254 -0.203608 -0.068918 0.035378 -0.135760 0.050593 0.107868 0.154045 0.184716 -0.029903 -0.025879 -0.019890 0.141511 -0.256309 -0.083536 0.221547 0.166902 0.154526 -0.079820 -0.058490 -0.170402 -0.051459 -0.089445 0.047574 0.146632 0.059705 0.223368 0.132932 -0.169370 0.150744 0.028432 -0.184039 0.023274 0.079301 -0.136294 -0.097811 -0.244392 0.140701 0.029542 -0.090776 0.012720 -0.180622 -0.167872 -0.097486 0.196392 0.014817 -0.268964 -0.094797 0.038252 -0.046119 0.003046 0.075051 0.107540 -0.082122 0.055008 -0.156826 0.070761 0.241858 -0.020100 0.058170 -0.244256 -0.037842 0.355048 -0.113070 -0.028499 -0.144706 0.234200 -0.177037 0.192622 -0.102856 -0.008947 -0.434646 -0.091702 -0.060471 -0.037850 0.122909 -0.078246 -0.009075 -0.158815 -0.038866 0.234359 0.006792 -0.197645 0.149956 0.113221 -0.002388 0.002409 -0.040061 0.265082 -0.071457 0.140994 -0.226444 0.028232 -0.086808 -0.320367 0.177112 0.103570
362 0.238313 0.123947 -0.012901 -0.068890 0.009735 -0.089781 -0.045949 0.099665 -0.063192 -0.098623 0.049494 0.072122 0.013951 0.054996 -0.050881 -0.039179 0.381722 0.101856 -0.012222 0.128696 -0.021057 0.003755 -0.148893 -0.092920 -0.131140 0.096478 0.010747 -0.024377 0.147170 -0.103965 0.200346 -0.005301 0.171507 0.124008 0.005330 0.086703 0.041521 0.118516 0.362943 0.052236 -0.189852 0.142781 -0.002218 0.439676 0.183684 -0.207751 0.082208 0.212802 -0.026722 0.094137 0.012905 -0.108763 -0.188010 0.093770 0.219112 -0.031304 0.040501 -0.050763 0.111052 0.181441 0.038039 0.128096 0.073093 -0.061114 -0.140533 -0.164213 -0.127878 -0.277090 -0.017634 -0.067459 -0.108925 -0.232923 -0.255951 -0.162165 -0.139612 0.077832 -0.074631 -0.146739 0.073947 -0.002883 0.238512 0.031087 -0.029581 0.171881 0.113788 0.032226 0.012108 -0.094402 -0.109596 0.194566 0.274413 -0.045828 -0.076403 0.084702 -0.091116 0.200097 -0.093565 0.230340 -0.169069 0.167721 0.032483 -0.239702 -0.050703 0.008874 -0.191681 0.253485 0.001047 -0.124622 -0.001143 -0.299164 -0.027280 0.226869 0.111635 -0.087869 0.254930 0.156797 -0.033997 -0.019022 0.105492 0.206591 0.065726 0.118331 -0.187149 0.097477 -0.079041 -0.169214 -0.035144 0.003435
526 0.159665 0.026798 0.039965 0.195453 -0.169192 0.222638 -0.092040 -0.105067 0.038399 -0.070489 0.030494 0.091847 0.084283 0.040870 -0.048655 -0.048926 -0.028065 0.064700 0.083671 0.149990 0.141198 -0.068979 0.274747 -0.018127 -0.077547 0.018596 0.045107 0.137515 0.206006 -0.233329 0.080961 0.149613 0.115073 -0.151495 0.008372 -0.120566 0.154605 -0.055860 -0.067012 0.248046 -0.117091 0.128067 -0.123921 0.025610 0.032991 -0.209540 0.000366 -0.065077 -0.065068 -0.063136 -0.038939 -0.113661 -0.165609 0.065478 0.114845 0.118424 -0.042436 -0.132320 -0.079727 0.028563 0.110730 0.029925 0.141876 0.268861 -0.203282 -0.026679 0.041231 -0.214912 -0.085087 0.072322 -0.030268 -0.116407 -0.165515 -0.053269 -0.118425 0.051252 -0.024258 -0.106342 0.053233 -0.131364 0.108612 -0.085871 0.160091 0.205235 -0.010023 0.117790 0.065179 0.019549 -0.160508 0.148576 0.130050 -0.177204 0.015651 0.085889 0.026893 -0.034129 0.155516 0.185725 0.045330 0.068868 0.002811 -0.191643 0.102686 -0.139751 -0.081774 0.290236 -0.095220 0.045733 -0.042039 -0.068341 -0.009971 0.259786 0.036820 -0.287690 0.163533 0.079074 -0.035091 0.031711 -0.043982 0.166094 -0.177237 0.254978 -0.082828 0.031676 0.033322 -0.239956 0.013814 0.043667
79 -0.131140 0.008084 -0.123064 0.055530 -0.182061 0.030517 0.032433 -0.183789 0.038267 -0.225729 0.041762 0.429372 0.125609 0.111832 0.025008 -0.141722 0.135840 0.085108 -0.045116 -0.235961 -0.010002 -0.061610 -0.097250 -0.064640 -0.178048 -0.105144 0.046430 -0.141779 0.046927 0.198461 0.070829 0.036556 -0.134944 -0.133603 0.111154 0.000892 -0.037577 0.076680 0.074932 0.101499 0.004228 0.013552 0.058615 0.288822 -0.080357 -0.036142 0.081152 0.087769 0.022170 0.042313 -0.026551 -0.061570 -0.015453 0.080192 0.050966 0.310407 0.168289 -0.011735 0.122334 -0.176109 0.040392 -0.109819 0.049815 0.144641 -0.071400 -0.284379 -0.150575 -0.148569 -0.128112 -0.125239 -0.122822 -0.281645 0.017778 -0.293514 -0.186441 0.127711 0.007794 -0.164366 -0.016296 0.038538 0.019367 -0.192763 -0.009649 0.019938 -0.086280 0.086382 -0.050303 -0.156564 0.203067 0.281348 0.210092 -0.060271 -0.072823 -0.099188 -0.189782 0.184024 0.112747 0.204521 -0.033953 0.065724 -0.026763 -0.083940 -0.064546 -0.000452 -0.185441 -0.039133 0.121295 -0.094465 -0.150170 0.133717 -0.036097 0.093814 0.023585 -0.181411 -0.024364 0.090852 -0.040973 -0.125723 0.108187 0.150846 0.040612 0.150014 -0.045081 -0.032712 0.073893 -0.249248 -0.091607 0.058859
198 0.004038 0.067030 0.196450 0.042802 -0.151058 0.076313 0.047948 0.178980 -0.088757 -0.114337 0.188428 0.246796 0.232610 0.007772 0.022614 0.010575 0.022942 0.072800 0.061937 -0.025183 0.121214 0.246627 -0.016088 0.016204 0.077663 -0.166462 -0.077450 0.170632 0.166664 -0.111096 0.284775 -0.146293 -0.184954 0.095379 0.098019 0.074287 -0.061707 -0.087909 0.191092 -0.130045 -0.009403 0.219258 -0.167081 0.108240 0.097923 -0.079298 0.178823 0.275869 0.010723 0.080439 -0.109970 -0.102292 0.038039 -0.221135 0.069082 0.181991 -0.036228 -0.026097 -0.102226 -0.016228 -0.075380 0.090156 0.114795 0.052431 -0.075347 -0.131857 -0.195055 -0.203525 0.128809 0.171701 -0.077179 -0.234052 -0.091961 -0.250701 -0.026257 -0.042331 -0.122706 -0.048932 -0.044721 0.068992 0.096516 0.112694 0.156449 0.314305 0.158902 0.004032 -0.156192 0.027291 0.047584 0.224830 0.449441 0.034676 -0.175113 -0.038565 0.048317 -0.104247 -0.015389 -0.080630 -0.088950 0.252056 -0.195528 -0.261985 -0.086428 -0.202674 -0.146288 0.068564 -0.028172 0.016596 0.184609 -0.090223 -0.011882 0.223841 0.060328 -0.097476 0.138712 -0.002703 -0.050083 -0.079908 -0.006218 0.060782 -0.184229 0.278684 0.023109 0.043439 -0.158601 -0.086628 0.220238 0.065995
580 -0.161744 0.097627 -0.195798 -0.095775 -0.232981 -0.030477 0.004013 0.116466 0.009505 -0.019992 0.184921 0.018346 0.154959 0.039831 0.055601 -0.058257 -0.055189 0.012865 0.139674 0.097403 0.026167 -0.051734 0.111306 -0.101021 0.055010 0.076186 0.011063 0.033220 0.116806 0.072741 0.150687 -0.016477 -0.123273 0.061429 -0.140211 0.018260 -0.107451 -0.062669 0.306949 0.049939 -0.040474 -0.051331 -0.138855 0.271799 -0.011751 -0.009137 0.099567 0.015349 0.187620 -0.062509 0.149059 -0.084649 0.066728 0.059368 0.117617 0.179914 0.097412 -0.223712 0.167282 -0.263225 0.142767 -0.016352 -0.058229 -0.013237 -0.088242 -0.044989 -0.084185 -0.244914 0.037200 0.199970 0.005635 -0.220325 -0.143548 -0.378961 -0.042943 0.110132 -0.047117 -0.160492 -0.119048 0.155770 -0.128862 0.106439 0.004603 0.171648 0.069901 0.167368 -0.095523 -0.023643 0.153510 -0.040859 0.091354 -0.319540 -0.119254 0.068969 0.197348 0.073889 -0.094245 0.074046 -0.006962 0.193831 -0.051386 -0.256215 -0.246685 -0.246775 -0.092789 -0.019587 -0.011776 -0.261736 -0.020545 -0.024689 0.077453 0.094809 -0.124009 0.137450 0.170728 0.158499 -0.158503 0.063052 0.098683 0.300648 0.017503 0.080789 -0.112539 -0.103402 -0.035669 -0.103526 0.029786 0.086461
332 -0.040473 0.169876 -0.060729 0.338505 -0.074230 0.050244 -0.066034 -0.072079 0.075647 -0.099655 0.094173 0.160932 0.100931 0.067312 0.090268 -0.140744 -0.196452 -0.070790 0.338199 0.041139 -0.039710 -0.087865 0.207883 0.001942 -0.144295 -0.106165 -0.025428 0.119800 0.126132 0.062392 -0.083539 0.126844 -0.081463 -0.175221 -0.018600 -0.109125 -0.005124 -0.047529 -0.008599 0.216317 -0.108384 0.121325 -0.245038 0.120000 -0.092396 -0.017251 -0.003297 0.026583 0.108370 -0.180996 0.075964 0.064896 -0.209721 -0.016589 0.125428 0.237658 0.002409 0.012563 -0.154689 0.013151 -0.075043 0.056377 -0.113304 0.374798 -0.094602 -0.077707 -0.028039 -0.058949 -0.139320 -0.059615 -0.363637 0.043476 -0.197320 -0.179389 -0.313030 0.145279 -0.047554 -0.045042 -0.166785 -0.116023 0.019952 0.156018 0.021449 0.051222 0.031609 0.124448 0.085675 -0.046762 0.076715 0.241350 0.212993 -0.378250 -0.136789 -0.017755 0.022110 0.170597 -0.055568 0.006292 -0.160161 0.036361 -0.023664 -0.302674 0.054006 -0.236244 -0.077559 0.010143 -0.108736 -0.001577 -0.014401 -0.162088 0.152775 0.052847 0.055527 0.024812 0.180526 0.152919 0.013917 0.010238 0.008267 0.029996 -0.177606 0.206534 -0.180415 -0.007698 0.020095 -0.180823 -0.012898 0.035180
30 -0.060686 0.063808 0.172682 -0.081045 -0.091248 -0.078991 0.000687 0.037913 0.182578 -0.249320 0.195013 0.052569 0.135750 -0.024267 -0.023760 0.064739 -0.016233 0.128434 -0.117586 0.001450 0.042635 0.093183 0.189218 -0.063510 0.009400 -0.094923 0.095468 0.023252 0.198669 0.039642 0.314279 0.127903 0.076223 -0.091224 -0.025218 -0.041043 0.184369 -0.092600 0.259297 0.017786 -0.199200 0.275427 -0.058158 0.132666 0.032276 -0.072368 0.008768 0.124990 -0.084277 -0.123158 -0.098951 -0.006830 -0.131794 0.194942 -0.005264 0.194825 -0.109236 -0.033068 -0.092148 0.008659 0.016758 0.115851 -0.001067 0.066538 -0.134652 -0.155369 -0.113746 -0.282162 0.022231 0.136798 0.124292 -0.083089 -0.025961 -0.256866 -0.092442 0.065408 -0.186735 0.088479 -0.110440 0.244649 -0.050365 0.045199 -0.021946 0.127607 -0.038386 0.077451 -0.138763 -0.137057 0.008388 0.192205 0.153015 -0.182561 -0.160324 -0.103685 -0.015035 -0.026106 -0.222396 0.291355 -0.241987 0.138124 0.033201 -0.215450 0.000188 -0.155566 -0.036183 0.120538 0.079253 -0.042284 0.163774 -0.162849 -0.003463 0.381048 0.065944 -0.053990 0.167964 0.096519 0.003201 -0.126641 0.118203 0.325362 -0.024177 0.046968 -0.039602 0.203543 -0.013557 -0.126844 0.051077 0.066892
512 0.028143 0.116450 -0.035961 -0.000499 -0.217780 -0.021152 -0.022844 -0.000717 0.119120 -0.124672 0.080032 0.140862 -0.057150 0.113693 0.211963 0.056752 -0.024099 0.056195 -0.027569 -0.134973 -0.038909 -0.014992 -0.083466 -0.026963 0.083763 -0.098753 0.215267 0.140242 0.152392 -0.095962 0.106031 -0.075321 -0.032723 -0.111942 -0.039122 0.073483 -0.108961 -0.094431 0.035406 0.134690 -0.077547 0.045551 0.084619 0.469262 -0.067703 -0.103074 0.141575 0.081054 0.174420 -0.087708 0.052971 -0.190750 -0.039294 -0.061443 0.237659 -0.001194 0.046884 -0.184510 0.151830 0.088575 0.015884 -0.128285 0.016221 0.015583 -0.200115 -0.018403 -0.144301 -0.133174 -0.068324 0.289583 0.051665 -0.091909 -0.266991 -0.048730 -0.141699 0.122358 0.156717 -0.195845 0.066217 0.101504 0.027826 -0.148258 -0.070994 0.204393 -0.209250 0.255623 -0.063133 -0.026499 0.228525 0.181518 0.092482 -0.178911 -0.329282 -0.149181 -0.123476 -0.078017 -0.105451 0.123983 -0.287279 0.080005 0.017738 -0.304465 -0.275017 -0.119260 -0.005957 0.220294 0.001537 -0.137976 0.000375 0.045221 -0.059504 0.188398 0.090976 -0.323704 -0.054738 0.194522 -0.079636 -0.095524 0.019166 -0.030010 -0.012646 0.110142 -0.206640 0.059457 0.102530 -0.225302 0.072939 0.056049
390 0.094988 0.150747 0.069976 -0.016155 -0.019352 0.010131 -0.144006 0.045746 0.350689 -0.264397 -0.072727 -0.105049 -0.074199 -0.002810 0.084742 -0.172722 0.137270 -0.194373 0.109647 -0.060497 0.137007 -0.017898 -0.126669 0.032578 0.009094 -0.032405 0.101700 0.003908 0.322481 -0.150318 0.036370 0.091479 -0.024795 -0.000373 0.161977 -0.134205 0.090328 -0.019289 0.047751 -0.106239 -0.193607 0.007448 -0.177497 0.236978 -0.236560 -0.063250 -0.004537 0.051227 0.225335 -0.116597 0.119976 -0.063189 -0.105303 0.126048 0.052280 0.215309 -0.052483 -0.102738 0.106915 -0.001558 0.014334 -0.061979 0.013408 0.260025 -0.175022 -0.082415 -0.071549 -0.098652 0.024374 -0.066503 -0.078599 -0.226191 -0.171652 -0.120394 -0.066776 -0.065061 -0.089170 -0.223566 -0.198414 0.011606 0.180390 0.090625 -0.119716 -0.002132 0.114968 0.200813 -0.022360 0.084573 -0.167177 0.081779 0.231579 -0.075073 0.052491 0.128975 0.014376 -0.033582 -0.054657 0.197617 -0.013395 0.201150 -0.041563 -0.257750 0.038696 -0.058343 -0.160661 0.057782 -0.074207 0.039269 0.168824 -0.042863 0.163601 0.194124 -0.149291 -0.122228 0.088748 0.129369 -0.207355 0.018603 -0.077362 0.082369 -0.208667 0.194137 -0.011502 0.000495 0.126966 -0.224020 -0.099749 -0.092944
180 -0.135129 -0.090008 -0.195917 -0.109713 0.045641 0.094723 -0.111707 0.175248 0.098688 -0.101787 0.111529 0.124238 0.000037 0.015194 -0.076474 -0.191731 -0.024447 -0.085195 0.129695 0.013975 -0.043121 0.102313 -0.220046 -0.105098 -0.014498 -0.159155 0.032930 0.090754 0.082682 -0.043670 0.181418 -0.013208 -0.193826 -0.050064 0.104605 -0.070862 -0.169784 -0.048992 0.146359 0.035831 0.044834 0.095250 0.057916 0.359060 0.052727 -0.176037 0.222704 0.145360 0.000428 -0.091264 0.115674 -0.165158 -0.104584 0.075275 -0.007697 0.163497 -0.015778 -0.188297 0.139187 -0.090629 -0.112054 -0.081554 0.001865 0.011605 -0.113504 -0.140475 0.071052 -0.236193 -0.079769 -0.078566 -0.063844 0.012029 -0.336454 -0.094754 -0.154394 -0.112733 -0.007586 -0.086097 -0.183814 0.183852 0.077864 0.024789 -0.045207 -0.093146 -0.028335 0.015027 -0.158923 -0.122674 -0.037410 0.091073 0.204603 -0.113966 -0.055805 0.083134 -0.099910 0.152087 0.069117 -0.116956 -0.013386 0.131284 -0.047409 -0.067307 -0.330253 -0.053454 -0.206277 0.003314 -0.137160 -0.053589 0.095021 -0.005121 -0.141271 0.173076 -0.009207 -0.242995 0.240316 0.066777 -0.072111 -0.134292 -0.014864 0.185667 -0.061719 0.329675 -0.266936 -0.063079 0.008766 -0.273411 0.270280 -0.250963
146 -0.132797 0.182583 -0.031423 0.043614 -0.099652 -0.085070 0.002974 0.023380 0.057945 -0.271116 0.064740 0.116535 0.081504 -0.090775 0.064109 -0.180287 -0.111390 0.053701 0.183790 0.062308 0.004608 -0.116529 0.021761 0.009143 0.084530 -0.002278 0.035457 0.140577 0.041620 -0.027724 -0.079611 -0.071830 -0.077734 0.022030 -0.136350 -0.106693 -0.069523 0.220628 0.194036 0.056629 0.014951 -0.049570 -0.011787 0.061764 -0.061367 0.004233 0.171947 0.080711 0.230160 -0.118657 0.123383 -0.190417 0.077871 0.011765 0.112533 -0.009187 -0.009085 -0.154313 -0.047636 -0.126190 0.015614 -0.057518 0.053452 0.143464 -0.178318 -0.038763 -0.109983 -0.138156 -0.203674 0.173200 -0.049591 -0.164607 -0.214939 -0.159378 -0.387189 0.226680 -0.173348 -0.178164 0.013105 0.238578 0.132773 -0.034960 0.060824 -0.045401 -0.083728 0.000107 -0.037108 -0.314236 0.138424 0.104761 0.176105 -0.206092 -0.061881 -0.046903 0.137175 -0.140832 0.073643 0.086372 -0.042295 0.148244 -0.121177 -0.192893 -0.277135 -0.197723 0.000715 0.051549 0.210513 -0.022576 -0.224812 0.071309 0.245427 0.238530 -0.060952 -0.061042 0.148786 0.161589 -0.034042 -0.023866 -0.068147 0.133696 0.009412 0.070051 -0.364865 -0.045061 0.009183 -0.111326 0.233851 -0.098658
613 -0.134314 0.091735 -0.026785 0.167286 -0.252811 -0.020681 -0.197189 -0.009081 0.038554 -0.189586 0.086912 0.048923 0.151892 -0.113333 0.024126 -0.380295 -0.080416 -0.044063 0.144172 -0.007486 -0.073295 -0.112071 0.013933 0.076205 -0.026945 -0.239333 -0.162753 0.090768 0.315169 -0.159271 0.241781 -0.031383 -0.012731 -0.211372 -0.056724 -0.143012 0.049020 0.003208 0.174108 0.020201 0.009788 -0.119113 0.067893 0.069938 -0.043559 -0.012816 0.001285 -0.052972 0.051670 0.002595 0.205988 0.048565 -0.003881 0.157996 0.236067 0.110649 0.168209 -0.208686 0.011315 -0.164642 0.256046 0.038155 0.122820 0.028684 -0.168661 -0.090871 -0.093636 -0.139438 -0.054375 -0.054431 0.011601 -0.076056 -0.084624 -0.142914 -0.133292 0.207335 0.195186 -0.155041 0.013305 0.145843 0.027349 -0.002590 -0.063135 0.177244 -0.175510 0.095692 -0.017649 -0.156990 0.083564 0.161643 0.153003 -0.223243 0.054524 -0.052480 -0.085253 -0.141808 -0.025754 0.267837 -0.150105 0.260706 0.022828 -0.159343 -0.280818 -0.082579 0.088114 0.138565 0.135612 -0.113080 0.083943 0.041856 0.131933 0.177903 0.085661 -0.003508 0.130662 0.119484 0.016476 0.011141 0.089487 0.278379 -0.016731 -0.035638 -0.113738 0.005724 -0.147140 -0.173852 0.118303 -0.210165
527 -0.204843 -0.053415 0.029121 0.009365 -0.159036 -0.095607 -0.250360 0.016973 0.054138 -0.139517 0.133225 0.220593 0.215204 0.172315 0.045504 -0.146840 -0.011186 0.082322 0.075073 -0.038104 -0.190711 -0.084602 -0.008592 -0.042408 0.121500 -0.102640 0.096732 0.162041 0.097151 -0.105021 0.135096 0.105146 -0.088837 0.104867 0.025033 0.110750 -0.086258 0.049156 -0.001577 0.116547 -0.057637 0.036903 -0.053664 0.290241 0.145819 0.036316 0.115305 0.028215 0.065148 -0.050682 -0.020810 -0.095188 0.171827 0.145630 -0.012592 0.104553 0.058486 -0.091684 0.126433 0.064402 -0.002712 -0.043852 0.150707 0.039969 -0.150083 -0.122161 -0.033440 -0.297019 0.007489 -0.072252 -0.163072 -0.202023 -0.191934 -0.126844 -0.181896 -0.071909 -0.008371 -0.078660 -0.125254 0.170674 -0.001247 -0.163166 -0.042025 -0.072069 -0.043136 -0.042377 -0.138333 0.016772 0.226502 0.164217 0.335675 -0.087462 -0.138788 -0.038840 -0.012835 -0.038331 -0.024519 -0.018003 -0.195991 0.032235 0.046658 -0.120557 -0.109446 -0.134166 -0.307488 0.205634 -0.042062 -0.197602 0.038456 0.114308 -0.184998 0.148527 0.220590 -0.150997 0.118615 0.060878 -0.220714 -0.006390 -0.122684 -0.005045 -0.113300 0.383169 -0.154162 0.082634 0.246482 -0.272288 0.024685 -0.170369
683 -0.037586 0.316316 0.037515 0.070739 -0.087546 -0.060494 0.017052 0.112458 -0.002387 -0.186705 0.269687 0.114079 -0.002271 0.140318 0.038961 0.038013 0.010098 -0.027235 0.083727 -0.028045 -0.107553 0.133526 0.089466 -0.032424 0.089469 -0.094683 0.074619 -0.011312 0.124958 0.085909 0.024256 0.100856 0.001584 0.276100 0.260787 -0.096137 0.107016 0.040811 0.300397 0.015115 -0.284411 0.197945 -0.103899 0.301170 -0.023955 -0.050098 0.163560 0.176736 -0.110478 0.150072 0.031064 -0.099470 -0.022333 0.070805 0.134295 0.073030 0.083410 -0.081336 -0.068613 -0.035395 -0.045775 -0.270397 -0.022814 0.079666 -0.146650 -0.003044 0.190240 -0.173177 -0.107781 -0.118836 -0.040015 -0.368069 0.004521 -0.257955 -0.232265 0.058738 -0.347124 0.167744 -0.051418 0.223526 0.178186 0.012128 0.054610 0.091269 -0.021914 -0.006400 -0.075102 -0.197568 -0.064879 0.087267 0.177188 -0.233799 -0.111798 -0.163490 -0.016300 -0.137574 0.133043 0.186221 -0.096099 -0.000563 -0.069260 -0.164199 -0.080626 -0.020064 -0.235792 -0.107104 0.152034 0.054888 0.047303 -0.164173 0.121828 0.270614 0.012363 -0.219482 0.284584 0.031244 0.028511 0.005679 0.191421 0.393918 -0.184753 0.247439 -0.082466 0.014343 -0.126539 -0.195512 0.075930 -0.050124
269 -0.154346 0.014194 -0.068732 0.041639 -0.141127 -0.045745 -0.106669 0.034955 -0.010028 -0.095352 0.292524 0.237498 0.269431 -0.150389 -0.006863 -0.086300 0.135312 0.016083 0.060590 0.078273 0.060613 0.070184 -0.039814 0.080944 0.135749 -0.178238 -0.216391 0.177052 0.167833 -0.108918 0.167315 -0.127212 0.096833 -0.102058 0.104831 -0.052666 -0.173683 0.086853 0.381631 0.094314 -0.304113 0.140952 0.090864 0.243777 0.128800 -0.113340 0.028990 0.279147 -0.040143 0.141618 -0.108388 0.154204 0.046817 -0.114081 0.302553 0.194674 -0.105962 -0.083418 -0.071063 0.189715 0.137329 0.157521 -0.004781 0.012535 0.059934 0.045004 0.166672 -0.143177 0.035798 0.074491 0.067776 -0.120589 -0.266968 -0.153989 -0.178607 0.070779 -0.071182 -0.077793 -0.073016 -0.016778 -0.030677 0.106812 0.073546 -0.005780 0.089888 -0.050735 -0.118473 -0.033407 0.104409 0.178991 0.168485 -0.072421 -0.245834 -0.002255 0.225154 -0.157491 0.064050 0.090336 -0.176101 0.157731 -0.100321 -0.147209 0.159399 -0.142056 -0.202192 -0.053497 0.021642 -0.201982 0.116932 -0.037271 -0.105211 0.137831 -0.051682 -0.065677 0.360097 0.169182 0.056738 -0.121905 -0.024257 -0.040345 0.054942 0.094240 -0.044568 -0.022188 -0.047204 -0.000844 0.145478 0.053301
202 -0.096843 -0.103864 -0.015990 0.150793 -0.016688 -0.052831 -0.043864 0.130126 0.090330 -0.033659 0.003359 0.135450 0.013436 0.091268 -0.039577 -0.022660 0.001881 -0.024509 0.111366 0.100403 0.030863 0.049670 0.155687 0.008375 -0.071089 -0.223593 0.016206 0.003286 0.067678 -0.117068 0.063123 -0.054625 -0.118637 -0.099716 0.104545 -0.072646 0.128267 -0.058373 0.080274 0.132874 0.010086 0.081553 0.225203 0.153962 -0.231208 -0.148428 0.286169 0.126967 0.245429 0.077539 -0.065023 -0.088396 -0.015207 -0.027638 -0.005846 0.040806 0.056390 -0.202038 0.192641 -0.083208 -0.079553 -0.115911 0.276572 0.086613 -0.083275 0.219418 0.006571 -0.147076 -0.111245 0.124948 0.034012 -0.005666 -0.094133 -0.298181 -0.077793 0.148768 0.060672 -0.066965 -0.046626 0.025795 0.271188 0.022072 0.020710 -0.032119 -0.147355 -0.007070 0.009299 -0.131446 0.079556 0.093510 0.185337 -0.257549 -0.067936 0.069836 -0.226627 -0.096514 -0.061625 0.101948 -0.045007 0.017266 -0.064437 -0.157636 -0.191625 -0.121829 -0.059745 0.087497 -0.097484 -0.154595 0.048996 -0.088167 -0.084843 0.366677 0.233312 -0.098636 0.235204 0.255076 0.046163 0.154873 0.150324 0.334222 0.040859 0.051544 -0.248489 -0.023347 -0.200053 -0.048300 -0.001616 -0.115931
401 0.006144 0.035554 -0.235928 0.081227 -0.062116 -0.021463 -0.312607 0.107010 0.002319 0.017399 0.124308 -0.118867 0.092806 0.006193 0.143841 -0.275818 0.052508 -0.165386 0.148220 0.020997 -0.282039 -0.133569 0.157707 0.132430 -0.175130 -0.102166 0.071827 -0.017449 0.006474 -0.141877 -0.078495 -0.120302 -0.068964 -0.017202 -0.209331 0.165747 0.061849 -0.065180 0.031231 0.129051 0.018170 0.034473 0.034251 0.102860 -0.043528 0.009682 0.076928 -0.000410 0.146264 -0.050694 0.117123 -0.076034 -0.033928 0.136759 0.182365 0.249813 0.159820 -0.041175 0.020585 0.021747 0.062325 0.057814 -0.057720 0.055728 -0.016833 0.028550 -0.090634 -0.160971 0.030987 -0.030359 0.106682 -0.158769 -0.120986 -0.204667 -0.350401 0.149353 -0.009527 -0.267557 0.022217 0.187116 0.032533 -0.109411 0.067133 0.130749 -0.137729 -0.024165 -0.113737 0.057577 -0.076917 0.005937 0.101661 -0.105140 -0.072148 0.033903 -0.130177 -0.035541 -0.114073 0.073878 -0.223619 0.248553 -0.076962 -0.108327 -0.187592 -0.081432 -0.171232 0.190325 -0.069795 -0.168182 -0.154387 -0.206596 0.107238 0.276887 0.049111 -0.065610 0.465556 0.085944 0.060535 0.100067 0.003088 0.276068 0.000988 0.002829 -0.166548 0.079542 0.066667 -0.174604 0.102738 -0.004214
571 -0.130800 0.012352 -0.248317 -0.028384 -0.046437 0.003489 -0.083324 0.203572 0.062235 0.047887 0.009787 0.138928 -0.071010 0.114505 -0.001043 -0.120846 0.066711 0.153164 -0.046925 -0.098421 -0.101539 -0.133936 -0.063977 0.149127 -0.058984 0.002503 0.047927 0.067531 0.276279 -0.118194 0.252608 -0.245800 0.068992 -0.136887 0.193386 -0.062744 0.010239 0.001031 0.005980 0.302136 0.017779 0.138891 0.050984 0.337893 0.062125 -0.118269 0.101424 0.037090 -0.115379 0.076967 0.242478 -0.230137 0.200716 0.053574 0.132279 -0.007781 0.216590 -0.149911 0.154326 0.015928 -0.146819 -0.056345 0.046931 0.007630 -0.184604 -0.163297 -0.127412 -0.171203 -0.036429 0.026890 -0.117676 -0.230395 -0.264325 -0.285896 -0.189771 -0.007742 0.085124 -0.152847 -0.110479 0.163414 0.008022 -0.005199 0.021279 0.154631 0.033640 0.168718 -0.222896 -0.093521 0.122424 0.088901 0.169512 -0.061105 -0.041183 -0.007481 0.088518 -0.014457 -0.133043 0.184261 -0.165248 0.143284 0.029231 -0.142204 -0.006284 -0.102345 -0.156706 0.040733 0.055402 0.064647 -0.038257 0.141409 0.010557 0.155736 -0.149307 -0.099992 -0.040270 -0.005446 -0.000149 -0.097319 0.032927 0.033536 0.004396 0.217893 -0.201858 -0.085075 -0.179621 -0.239512 0.100168 -0.045021
643 -0.101810 0.007876 -0.181222 0.126573 -0.103747 0.008715 -0.016364 0.008219 0.074534 0.035891 0.109162 0.025596 0.095477 -0.103725 -0.027612 -0.127838 -0.052301 0.101726 -0.077943 0.127569 -0.016184 -0.111845 0.140784 0.058867 0.015092 -0.031619 -0.239493 -0.044560 0.171575 0.013947 0.092998 -0.117854 -0.118613 0.160556 0.070196 -0.015137 -0.025918 -0.068544 0.078029 0.156045 -0.174164 0.111743 -0.097605 0.332338 -0.057295 0.106158 0.261184 -0.031768 0.110620 0.003443 0.114022 -0.132031 0.143232 0.060146 -0.108635 -0.059579 0.196422 -0.086415 -0.020745 -0.118624 -0.059096 -0.003893 -0.074490 0.184483 -0.016110 -0.161136 -0.236397 -0.394687 0.013701 0.113164 -0.169932 -0.094241 -0.136255 -0.293195 -0.137770 0.085599 0.019283 -0.241503 -0.108060 0.182816 0.171970 -0.112808 0.046126 0.198205 -0.034706 -0.012803 -0.144541 -0.018181 0.139513 0.033251 -0.003897 -0.136816 -0.079167 0.019012 0.026264 0.128133 -0.004140 0.100318 -0.092537 0.067503 0.086537 -0.095600 -0.268462 -0.131774 -0.033792 -0.007644 -0.021434 -0.070805 -0.065373 -0.021060 -0.079653 0.090252 -0.128326 -0.106366 0.217204 0.313588 0.002098 0.037310 0.037075 0.370368 0.100178 0.045533 -0.312839 0.105999 0.045625 -0.180511 0.102279 -0.044605
100 -0.008908 -0.062559 -0.003615 0.046046 -0.123012 -0.031191 0.029091 0.112825 0.148530 0.061888 0.119609 0.202725 -0.073184 0.241751 -0.067441 -0.046063 0.110103 -0.128646 -0.075383 -0.068809 0.129627 0.094489 -0.186572 -0.109110 -0.167284 -0.222410 0.095393 -0.079301 0.165671 -0.315131 0.110878 0.071154 0.158778 0.070482 0.120379 0.035179 0.069127 -0.014238 -0.013706 0.005248 -0.095776 -0.094981 0.042715 0.333169 -0.085557 -0.104646 0.047246 -0.070522 0.190348 -0.000857 0.184621 -0.121890 0.068079 0.139414 0.023835 0.208193 0.091825 -0.043535 0.123587 -0.103967 0.138407 0.135185 0.019854 0.124535 -0.097192 -0.012689 0.033176 -0.045776 -0.020226 0.009258 -0.273111 -0.209957 -0.038475 -0.257112 -0.135701 -0.015034 -0.015680 0.027711 -0.041192 0.130610 -0.148351 0.093044 0.053390 0.165314 -0.025586 -0.174017 -0.048661 0.067911 0.232709 0.027751 0.133321 -0.347981 -0.085481 -0.122474 -0.175100 0.068206 -0.046718 0.138957 -0.219996 0.204932 -0.043780 -0.209908 -0.202785 -0.049541 -0.228037 0.155958 0.027352 -0.011795 0.131753 0.064274 -0.060381 0.232790 0.100082 -0.160197 0.044724 -0.066506 -0.008372 -0.096258 0.052602 0.249338 -0.028168 -0.023786 0.011727 0.034777 0.097106 -0.149304 0.127990 0.012877
182 -0.075937 -0.071643 -0.109505 0.050665 -0.037520 -0.076872 -0.006124 -0.022375 0.113258 -0.135028 0.079470 0.162547 -0.033231 0.098162 -0.060534 0.000197 0.182573 -0.040883 0.023436 0.030095 -0.006555 -0.043737 -0.028190 -0.168413 -0.096855 -0.174374 0.027968 -0.001383 0.231685 -0.122937 0.289059 0.031940 0.007709 -0.003625 -0.034194 -0.059086 -0.007463 -0.066618 -0.044912 0.198898 -0.050152 0.115417 -0.142175 0.276414 0.089813 0.054016 0.056817 0.015060 -0.001315 0.133365 -0.000521 -0.162608 0.067262 0.113842 0.121446 -0.033357 0.167883 -0.197023 -0.068719 -0.059848 -0.001103 -0.066829 0.059241 0.268891 0.153378 0.089075 -0.002331 -0.031082 -0.144086 -0.128761 -0.233539 -0.141500 -0.253049 -0.246343 -0.143933 0.007436 0.087724 0.007776 -0.130865 0.060491 -0.093910 -0.022611 0.020642 0.069409 0.092260 0.000880 -0.159945 -0.234945 0.209649 0.164945 0.037799 -0.207598 -0.330779 0.029965 -0.161384 0.101018 -0.035428 0.066741 -0.157995 0.175493 0.107142 -0.038042 -0.277104 0.105838 -0.024975 0.102307 0.037261 -0.102090 0.172327 -0.019036 -0.162137 0.290279 0.015748 -0.226387 0.085925 0.132681 -0.155388 0.022296 -0.009177 0.087948 -0.076616 0.021809 -0.139313 0.148089 -0.109446 -0.130407 -0.107007 -0.042919
86 -0.058356 -0.001332 0.173751 -0.023237 -0.152048 0.103062 -0.095512 0.046856 -0.060510 -0.069869 0.131952 0.206765 -0.001764 0.011666 -0.063728 -0.196831 0.005248 -0.111136 -0.017455 0.241271 -0.091552 0.166444 -0.000375 -0.134119 -0.048067 -0.123718 0.148689 0.063023 0.314328 -0.004495 0.104746 -0.131145 -0.000124 0.080040 0.117489 0.042024 -0.031945 0.096752 0.058847 -0.029214 -0.209062 0.160512 0.247725 0.300242 0.128918 0.104250 0.209035 -0.112416 0.191020 0.027924 0.195600 0.049313 0.063139 -0.071407 0.083679 -0.032841 -0.008257 -0.064887 0.025772 -0.121323 -0.055487 -0.008724 0.192439 0.099756 -0.010319 -0.031665 0.057823 -0.038778 -0.053014 0.129604 -0.179084 -0.128656 -0.076988 -0.192607 -0.113620 -0.034511 0.126674 0.054665 0.197946 0.102904 0.128413 -0.195410 0.156887 0.131357 0.117765 0.050481 0.006871 -0.061193 0.150724 0.221257 0.162616 -0.285787 -0.176109 -0.116676 -0.201808 -0.099858 0.048809 0.148955 -0.137669 0.183391 -0.048984 -0.094655 -0.015566 -0.156883 -0.061532 0.018255 0.015712 -0.156842 -0.090694 -0.168057 -0.118460 0.049627 0.034139 -0.272070 0.272178 0.010029 -0.007651 0.103608 0.095232 0.189400 0.010881 0.227714 -0.023234 -0.037362 -0.026440 0.019823 -0.092881 0.051475
317 -0.139561 0.143648 -0.137045 -0.023192 -0.067280 -0.055347 -0.167213 0.038340 0.029194 -0.119957 0.195459 0.415955 0.074394 0.188381 -0.015808 -0.111964 0.151323 -0.041098 -0.038787 -0.022919 -0.032351 0.080950 0.048355 -0.042569 -0.047222 -0.109941 0.219393 0.050718 0.344575 -0.152575 0.217603 0.017865 0.134102 -0.057699 0.162225 0.025582 0.079588 -0.128423 0.137175 0.028359 -0.106422 0.041663 -0.013760 0.110954 -0.132867 -0.072936 0.194993 -0.046374 0.115469 -0.128604 0.002871 -0.037410 0.095125 0.096375 0.085646 0.044171 0.144193 -0.017154 0.149763 -0.047802 -0.037239 -0.060139 -0.150085 0.031012 -0.103319 -0.095573 0.026921 -0.064207 0.046002 0.061997 -0.027050 -0.116631 -0.148992 -0.183150 -0.310201 0.150659 0.034448 -0.115692 0.041057 0.178500 -0.019288 -0.072655 -0.024275 -0.007683 -0.212436 0.109516 0.026289 -0.077231 0.100405 0.090122 0.264540 -0.276118 -0.012211 -0.046885 0.093522 -0.085146 0.253588 0.237905 -0.122309 0.102429 -0.061628 -0.140971 -0.049331 -0.098120 -0.165745 0.018844 -0.013789 -0.074446 0.018897 0.023383 -0.173311 0.289300 0.103746 -0.248566 0.178357 0.153862 -0.019841 -0.140664 0.035726 0.371428 -0.077268 0.217448 -0.080428 0.199064 -0.103061 -0.203965 0.251635 -0.063989
