732 128
526 0.046454 0.185160 0.054835 -0.011555 0.005123 0.249552 0.023804 0.026194 0.042966 -0.083273 0.001222 -0.005638 -0.063515 0.064599 0.132310 -0.050537 -0.160374 -0.034490 0.030385 0.135041 0.101222 -0.001543 -0.119362 0.061968 0.062149 -0.069312 -0.281760 0.135521 0.030865 -0.085926 0.059696 -0.087560 -0.026330 -0.085096 0.066747 0.079339 -0.006488 0.009651 -0.050060 0.057678 -0.015934 -0.353821 -0.019697 0.076518 0.097799 -0.181828 -0.126739 0.105770 0.005936 -0.105909 0.080130 0.047058 -0.159025 0.048167 -0.193179 0.184929 -0.007162 -0.035037 0.002428 -0.129441 0.210399 0.018270 0.056348 -0.006865 0.135817 -0.047450 -0.081320 -0.101828 0.151862 -0.005903 -0.031847 0.067367 0.141659 -0.154684 -0.123478 0.210671 -0.041061 -0.081464 0.076117 -0.006385 0.051674 -0.086054 -0.217070 -0.046538 0.064814 0.070671 -0.139956 -0.169062 -0.017051 0.033708 0.013071 0.129700 -0.107878 0.059989 0.149434 -0.164705 -0.157003 0.030194 0.161016 0.108821 0.053182 0.090282 0.069178 0.049320 0.050548 -0.064999 0.252801 -0.075098 -0.019770 -0.147356 -0.005911 0.056995 -0.012133 0.076723 0.071338 0.077117 0.134209 -0.224126 -0.162057 0.038420 -0.060101 -0.094693 0.250759 0.059282 -0.109208 0.145362 -0.093581 -0.077815
79 0.094147 0.041885 0.081890 -0.095823 0.217656 0.011724 -0.148058 0.277461 0.260900 0.047396 0.062473 -0.017117 -0.013614 0.100419 0.227803 -0.059216 0.022183 0.134903 -0.157582 -0.162811 0.207012 -0.023271 0.027548 0.013299 -0.094216 -0.240026 0.163443 0.061156 0.025212 0.020606 -0.066046 -0.089584 -0.053310 -0.171720 -0.034005 0.090060 0.040722 -0.191558 0.006153 0.141884 -0.039612 -0.146647 -0.148918 0.005095 0.076303 -0.099071 -0.127865 -0.030313 0.115469 0.067412 -0.127907 0.131108 0.032363 0.046917 -0.043181 0.130136 0.148901 0.120955 0.177233 -0.045620 0.095654 -0.011301 0.104307 0.065434 0.143065 0.030533 0.188164 -0.082409 0.246462 0.023092 -0.047922 0.133563 0.034476 0.133858 -0.115432 -0.040752 0.068909 0.016070 -0.101648 -0.032535 -0.068224 -0.090883 -0.046213 -0.093251 -0.149963 -0.011253 -0.159962 -0.129012 -0.049468 -0.109297 -0.021979 0.090747 -0.079939 -0.203160 0.112482 0.024050 -0.154849 0.066065 0.202533 0.160509 0.016770 0.063572 -0.025544 0.039476 0.147534 -0.090720 -0.067299 0.053855 0.176211 -0.125882 0.127622 0.001886 0.150089 0.252115 0.086822 0.196401 -0.101235 0.120093 -0.076450 0.122092 0.244863 0.132362 -0.143628 0.138997 0.060835 0.252777 0.111029 -0.157804
20 0.185950 -0.090290 0.037148 -0.044192 0.017397 0.035894 0.012312 0.178633 0.156218 -0.003235 0.149820 -0.209070 -0.070928 -0.036395 0.134053 -0.014366 -0.041226 -0.006844 0.037777 -0.077547 0.072980 0.040750 0.011283 -0.143600 0.197661 -0.214624 -0.097827 -0.115818 -0.170778 0.056309 0.062437 -0.091370 0.035395 -0.093306 -0.126525 -0.071330 -0.211037 -0.188347 0.052639 0.275373 -0.105605 0.031588 -0.014725 0.005201 0.121568 -0.079909 -0.204583 0.091642 -0.163835 0.037126 -0.220444 0.131468 -0.243700 -0.099299 -0.108900 0.082962 0.151987 0.084996 0.102132 0.043338 0.036513 0.152858 0.233964 0.022693 0.149975 -0.132216 0.117299 -0.048115 0.062126 -0.093840 0.018001 0.075921 0.074890 -0.158235 0.047051 0.009873 -0.201430 -0.041749 0.126347 -0.093601 0.031226 -0.045179 -0.289150 -0.129295 0.257121 0.014949 -0.070400 -0.302863 -0.094773 0.108762 -0.036783 0.171398 0.015611 0.059508 0.127401 -0.026238 -0.126523 -0.082311 0.132797 0.283081 0.087569 0.017647 0.014088 -0.042766 0.173661 -0.131337 0.259067 0.039360 0.051673 0.166034 0.033113 0.034291 -0.006723 0.186339 0.128931 0.020615 0.040479 -0.102169 -0.077916 0.248618 -0.041869 -0.200867 -0.130422 0.207645 0.131757 0.176388 -0.054644 -0.019992
332 0.023988 0.186854 0.085879 -0.008215 -0.066884 0.080329 -0.194652 0.135895 0.100451 0.070400 -0.114478 0.029783 -0.188701 -0.019463 0.106608 0.144391 -0.063751 0.081119 0.009799 -0.057066 0.048952 -0.080320 0.087827 0.065685 0.240995 -0.093961 -0.228799 0.001063 -0.262987 -0.055058 0.127201 -0.280676 0.105958 -0.083947 0.146500 0.033138 -0.036359 -0.048492 -0.088153 0.101450 0.012102 -0.198562 0.288993 0.147761 0.015991 0.119460 -0.024899 0.073553 -0.024514 0.074236 -0.088033 -0.140425 -0.170480 0.077910 0.099000 0.084291 0.226638 0.203078 0.006871 -0.087090 0.115447 -0.118606 0.090177 -0.014090 0.109581 0.065775 0.082481 -0.084108 0.171608 0.110234 0.040811 -0.090876 0.136437 -0.071840 -0.045405 0.151097 -0.126208 -0.214490 0.105353 -0.112994 -0.102051 -0.005580 -0.082662 -0.094139 0.100607 0.109074 -0.245267 -0.157023 -0.020954 0.049717 0.024715 0.129980 -0.269123 -0.073262 0.108518 -0.029414 -0.158377 0.023300 0.079248 0.200415 0.182136 -0.034343 0.134810 0.013905 0.029599 -0.119486 0.011092 -0.045164 0.048080 0.071508 -0.185415 -0.078503 -0.090546 0.079226 -0.009704 0.070804 0.087113 0.006426 -0.263791 0.176245 -0.094937 -0.032212 0.127876 0.163516 0.140142 0.272648 -0.065605 -0.046963
201 0.018853 0.033206 0.159529 0.017448 0.006054 0.073151 0.121774 0.282560 0.104848 0.072649 0.140487 0.156625 -0.130458 -0.242912 0.046080 -0.013236 -0.160346 0.137158 0.093357 0.097305 -0.042064 0.056276 0.001916 0.137695 0.148421 -0.032988 -0.208651 0.068903 0.103782 -0.110647 0.238132 -0.124220 -0.055634 -0.226580 -0.040566 -0.024558 -0.186836 0.144848 -0.074181 0.176931 -0.121655 -0.067101 -0.070913 -0.092396 0.109702 -0.086232 -0.054526 0.079599 -0.010075 0.133315 0.049129 0.182534 0.073087 0.135398 0.053223 0.251415 -0.055994 -0.045879 -0.096572 0.062974 0.098002 0.047998 0.049544 -0.020217 0.081539 0.077506 -0.019655 -0.194992 0.182831 0.104999 -0.211845 0.065243 -0.036415 -0.126724 0.021926 -0.197117 -0.203696 0.113715 -0.164704 -0.090323 0.130766 -0.202269 0.046603 -0.180099 0.140817 -0.072209 -0.261485 -0.024851 0.237300 0.128533 -0.071667 0.375512 -0.079850 0.162954 -0.010212 0.068455 -0.210344 -0.062982 0.172298 -0.059084 -0.343322 0.181662 0.020250 -0.112229 0.139470 0.008002 -0.005791 0.034766 -0.094842 0.100911 0.064292 -0.133605 0.189085 0.010346 0.132778 0.025964 -0.000795 -0.230771 -0.005533 -0.006306 0.155169 0.133293 -0.179113 0.046044 -0.038823 0.126503 0.098419 -0.100673
118 0.030609 -0.104824 -0.045631 0.066632 -0.037075 -0.083625 0.177414 0.151618 0.141136 -0.087876 -0.169796 0.122314 0.112275 0.120171 -0.082724 0.020304 -0.016922 -0.087709 0.016723 0.032474 0.042943 -0.006067 -0.069375 0.163952 0.153916 -0.113157 -0.023487 0.220345 -0.034918 0.006998 0.138232 -0.024911 -0.237237 -0.078286 -0.067946 0.182099 -0.239766 0.220043 0.371150 0.043162 -0.087172 -0.071560 0.087606 -0.014526 -0.047601 -0.161091 -0.033367 0.164118 0.015171 0.034209 0.038612 0.011544 -0.090707 -0.037698 0.054944 0.055137 -0.156197 0.012227 -0.106819 -0.056975 0.137091 0.028135 0.045836 0.015271 -0.023593 0.113575 0.081915 -0.356409 0.064785 0.005665 0.021297 -0.044102 0.116000 -0.333081 -0.084522 0.047740 0.124372 -0.085510 -0.326262 -0.033085 -0.082439 0.005792 0.033259 0.067988 0.011167 0.195663 -0.231298 -0.073979 0.175706 0.123600 -0.013199 0.199532 0.053287 0.030673 -0.058325 -0.197249 -0.177733 -0.156366 0.169065 0.052560 -0.062686 0.250629 -0.007659 -0.042973 0.053518 0.036498 -0.133468 0.247131 0.033602 -0.284578 -0.054602 -0.030905 0.075958 0.090260 -0.110406 -0.036827 0.109296 -0.193158 -0.189663 -0.010212 0.021976 -0.043420 -0.075763 0.069780 0.030765 0.055823 -0.202225 -0.065526
170 0.069294 -0.078051 -0.190161 -0.065721 0.271391 0.043933 0.131737 0.339324 0.139837 0.033824 0.025809 -0.226812 -0.040200 0.174629 0.046121 0.100916 -0.188478 0.095791 -0.065682 0.147648 0.010010 -0.107142 -0.065293 0.167659 0.023427 0.072038 0.153948 0.186275 0.132083 -0.122958 0.156513 -0.309936 -0.018095 -0.179099 0.014891 0.050446 -0.175252 0.007324 0.133778 0.063616 -0.232748 0.067428 0.040935 0.178853 -0.142772 -0.222082 -0.227217 0.032690 -0.237048 0.202612 -0.070215 -0.085266 -0.014950 0.032268 -0.231203 0.008005 0.047781 0.028043 0.120683 0.081695 -0.090695 0.165918 0.009725 0.006591 -0.137021 -0.081036 0.116632 -0.029008 0.027756 0.105509 -0.161674 0.096020 0.152264 -0.064924 -0.008491 -0.039031 0.112569 0.089146 -0.198684 -0.068343 0.206810 -0.063460 -0.060581 -0.059176 -0.088646 -0.169807 -0.183810 -0.052984 0.040530 0.247482 0.005307 0.029416 -0.140036 0.049626 0.141538 -0.004627 -0.076283 0.007193 0.247181 0.047727 0.039708 0.239304 0.091155 0.040544 -0.009086 -0.110037 0.000401 -0.009679 0.120903 0.016744 0.016237 -0.124773 -0.018648 0.220037 -0.021364 0.023206 0.075175 -0.227079 -0.107035 0.128590 0.153471 -0.017492 -0.128063 -0.043790 -0.104912 0.006245 0.045941 0.027473
63 -0.030763 0.206439 0.036021 0.107453 0.002926 0.224593 -0.049953 0.048177 -0.036916 -0.064933 -0.192210 -0.016429 -0.021979 -0.068865 -0.033824 0.039195 0.107651 -0.046810 0.195314 -0.067506 0.018586 0.135372 0.110726 0.031664 0.310114 -0.109913 -0.009282 0.129648 0.069797 -0.061929 0.156746 -0.451468 -0.221948 -0.053596 0.152796 0.030590 -0.116052 -0.196986 0.081684 -0.019546 -0.131080 -0.089241 -0.008751 -0.036164 -0.078972 -0.088088 -0.115431 0.240676 0.009854 -0.074036 -0.150297 -0.011068 -0.101463 0.049579 -0.222595 0.255198 0.053864 0.093725 0.018212 -0.107661 0.149379 -0.095432 0.213322 -0.048226 -0.029490 0.001134 0.167277 -0.136495 0.018399 0.034031 0.039324 0.061324 0.233739 -0.019180 0.034053 0.133997 -0.124545 -0.004719 0.031990 -0.055011 -0.253680 -0.057070 -0.195003 0.067911 0.142456 0.040421 -0.097723 -0.173644 0.079344 0.170857 -0.017932 0.248928 -0.047318 0.108356 0.042973 0.008733 0.200428 -0.020480 0.124070 0.219426 0.191850 0.052289 -0.012807 -0.016075 0.149342 -0.034501 -0.164731 0.115869 0.164786 -0.119018 0.004196 -0.001948 -0.201847 0.255152 0.142044 0.029865 0.118848 -0.037313 -0.154114 0.054875 0.168967 0.133347 0.087048 -0.063877 0.144672 0.131899 -0.107492 0.134487
498 0.146160 0.036656 0.055953 0.088679 -0.116249 -0.193834 -0.043309 -0.125043 0.071281 0.085116 0.149554 0.186108 -0.085880 0.005629 0.068607 -0.068586 -0.086606 0.007609 0.046094 -0.053511 0.005305 -0.021954 0.026886 0.280739 0.156933 -0.171023 -0.118047 0.026034 0.052216 0.211975 0.133328 -0.111465 -0.005868 -0.185911 0.100950 -0.080882 -0.063418 0.006061 0.081109 -0.102252 0.048123 -0.059887 0.100523 0.107518 0.078107 -0.099003 -0.141584 0.049626 0.067184 -0.010003 -0.058252 0.251726 -0.147872 -0.004591 0.197457 0.032393 -0.019917 0.037486 -0.033865 -0.204383 -0.047791 0.081653 0.042581 -0.198371 0.074244 0.162126 0.054521 0.003125 0.082627 0.130649 0.071495 -0.077768 0.070552 -0.204507 -0.219822 0.066644 -0.110401 0.045156 -0.039870 -0.057569 0.008063 -0.143751 -0.139674 -0.064526 0.063902 0.007967 -0.070091 -0.030463 0.098530 0.298818 0.026202 -0.015966 0.003100 -0.035865 0.164023 -0.081701 -0.105430 0.076604 0.014120 0.200011 0.138452 0.120920 -0.172255 0.005278 0.215022 0.028700 -0.137650 0.090477 0.180611 -0.039537 0.048647 -0.129305 -0.193106 0.225387 0.085786 0.152192 -0.036139 -0.065737 -0.242656 0.303389 -0.049991 0.197798 0.003930 0.042021 -0.153328 0.222271 -0.061409 -0.011208
68 0.283597 -0.071105 0.170127 0.102344 0.208633 -0.103580 0.012311 0.247804 0.189303 0.130658 0.095304 0.054484 -0.138737 0.009425 -0.023184 0.025974 -0.053423 0.050595 -0.098429 0.172081 -0.175202 0.041534 0.049533 0.311404 0.097940 -0.026734 -0.032403 -0.016656 -0.005450 0.023375 0.079361 -0.004388 -0.312701 -0.061299 0.112528 -0.156435 0.221401 0.003022 0.082994 0.087007 -0.155133 0.018060 -0.070693 0.204676 0.149408 0.021233 0.111711 -0.088405 0.034698 -0.180284 0.202002 0.057453 -0.211849 -0.071868 -0.200814 0.092928 -0.084168 -0.073286 0.146176 -0.020552 -0.151428 0.191183 -0.093185 0.110350 -0.081762 -0.242357 0.130387 -0.001010 0.031595 0.055256 -0.031062 0.167166 0.086765 -0.066704 -0.124387 -0.098790 -0.117847 0.040731 0.237211 0.033648 0.232239 0.021456 -0.195671 -0.092266 0.025365 0.079928 -0.061402 0.199344 0.159769 0.051422 0.309288 0.183955 0.135203 0.342338 0.193755 0.085555 -0.082016 -0.077882 0.051008 0.240480 0.001877 -0.058077 0.097086 0.136136 0.050231 0.206377 -0.092013 0.076118 -0.160529 -0.243522 -0.017874 -0.132113 0.012849 0.141037 0.059978 0.146530 -0.057143 0.141276 -0.096222 0.161039 -0.001664 0.041902 0.249038 -0.242996 -0.204642 0.369916 -0.082496 0.161238
109 -0.023608 0.149810 0.202514 0.142291 0.054019 0.089224 -0.027543 0.109015 -0.059034 -0.130415 0.254352 -0.053741 -0.015074 0.109240 0.181233 0.119386 0.001297 0.019880 -0.070509 0.065531 0.165691 0.042911 -0.002382 -0.082763 -0.022181 0.076929 -0.051639 0.108614 -0.219718 0.135581 0.095163 0.032212 0.016390 -0.164030 -0.026790 -0.054115 -0.024504 0.150197 0.147426 0.014290 -0.105163 -0.198016 0.156820 0.045185 0.183367 -0.241733 0.190599 -0.127955 -0.066436 -0.031681 -0.144622 0.123742 -0.311846 0.250032 -0.017311 0.114762 0.333312 0.153318 -0.051969 -0.112336 0.020687 0.088599 0.080980 -0.013398 0.054810 -0.208684 0.069584 -0.043147 0.040227 0.044033 -0.031924 0.050751 0.210361 -0.168190 -0.187752 0.132118 0.190888 -0.189465 -0.032373 -0.060099 -0.126538 -0.060101 0.041020 0.081518 -0.055903 -0.073073 -0.042204 0.078315 -0.004077 0.206888 -0.079344 0.131677 0.050231 -0.021584 0.231083 -0.071037 -0.007995 0.151759 0.099046 0.224965 0.397148 0.052383 0.132312 0.016370 0.059231 0.110887 -0.127508 0.184838 0.019222 -0.249685 0.128007 0.011130 0.038580 0.120241 -0.122248 0.137428 0.113678 0.004738 -0.115669 0.169590 -0.046606 0.255630 -0.127127 0.199210 -0.100121 0.122726 0.057284 0.003091
43 0.036015 -0.070280 0.015799 -0.108674 -0.039963 -0.014330 0.202840 0.113240 0.212413 0.083963 0.139352 -0.121716 0.039995 -0.030628 0.095953 0.088553 -0.132182 0.257972 -0.025759 -0.063016 0.169743 -0.014311 0.103960 0.080653 -0.003676 -0.132136 -0.025859 0.015574 -0.031726 -0.134552 0.131556 0.002632 0.203689 -0.000936 -0.072500 0.198142 -0.171872 -0.284864 0.175607 0.335549 -0.203273 -0.112374 0.043686 -0.200945 0.069696 -0.117623 -0.164172 -0.071248 -0.119210 0.011420 -0.146711 -0.073732 -0.189811 0.016870 0.113002 0.068349 0.093617 0.032853 0.122253 -0.043317 -0.097736 0.153402 0.045767 -0.062718 0.071356 -0.004029 0.195029 -0.082513 0.159407 -0.058486 -0.073372 0.104033 0.084043 -0.084798 0.084690 0.144408 -0.016616 0.143645 0.013265 -0.123233 -0.017098 -0.192472 -0.226925 -0.113837 0.193368 -0.012765 0.040093 -0.130722 0.183048 -0.072383 -0.142501 0.085393 -0.100175 0.053922 -0.044206 -0.133535 -0.025822 -0.036608 0.133072 0.044920 -0.011725 0.131843 -0.045834 0.039947 0.134974 -0.180206 -0.031016 0.087170 0.072283 0.043817 0.162659 0.391653 0.182868 0.030206 0.167652 0.065985 -0.012490 -0.285937 -0.118314 0.117650 0.122926 0.042374 -0.290604 0.177926 0.066242 0.063932 0.150742 -0.196290
571 0.128111 -0.093099 0.015548 -0.147139 0.068164 0.044043 -0.128137 0.328082 0.055556 -0.065851 -0.000233 -0.064082 0.067733 0.195897 -0.069820 0.172711 -0.132037 0.092196 0.039345 0.081105 -0.012611 -0.148728 -0.031761 0.227917 0.147665 -0.124140 0.097773 -0.052452 -0.019140 0.141599 -0.001503 -0.098592 -0.054912 -0.261243 0.045052 0.165589 -0.075559 -0.094821 0.205511 0.242526 -0.180007 0.089341 0.242973 -0.052220 -0.008188 -0.138776 -0.189976 0.022113 -0.120778 0.107313 -0.132755 -0.083967 0.039743 0.054761 -0.146507 0.004143 -0.025875 -0.119963 0.212200 0.098016 0.045713 0.051313 -0.014204 0.106868 0.208080 -0.058034 0.173871 -0.284983 0.185864 0.053278 -0.042158 0.241509 0.015180 0.009962 -0.115931 -0.212516 0.242417 0.094349 -0.060762 -0.039908 -0.101022 -0.215294 -0.202065 -0.159957 -0.138098 -0.122330 -0.052630 -0.137701 0.119014 0.137442 0.023345 0.058192 -0.071947 0.071654 0.099504 0.222609 -0.087531 0.041850 0.221551 0.112427 -0.085146 0.042618 -0.033201 -0.013412 -0.009358 -0.205657 -0.027826 -0.169849 0.065777 -0.024990 -0.087331 -0.168296 -0.076635 0.158543 0.167370 0.210670 0.133296 -0.011280 -0.135225 0.037569 0.089306 0.039899 -0.012458 0.036582 -0.094071 0.209261 -0.151116 0.107547
104 0.114302 -0.347233 0.197125 -0.041008 0.026917 -0.004448 0.147259 0.096572 0.346322 0.086627 0.015256 -0.121613 -0.157830 0.107896 0.215361 -0.039471 -0.083860 0.081674 -0.012247 0.167088 0.099588 -0.005262 0.131974 -0.012683 -0.263255 -0.028314 -0.124824 0.032675 0.023749 -0.140114 0.050674 -0.004035 -0.067299 -0.058646 0.035143 0.120565 -0.197578 -0.021170 -0.118172 0.103561 -0.292076 -0.071042 0.163045 -0.034833 0.157757 -0.032898 0.047336 -0.058864 -0.025534 0.068038 -0.043125 -0.081368 -0.169851 -0.021239 -0.095925 0.032706 0.059965 -0.169001 0.111393 0.103923 0.123834 0.027749 -0.048072 -0.060064 -0.053900 0.101256 0.134999 -0.070795 0.392012 0.087078 -0.155704 0.006613 0.086554 -0.202651 -0.239015 -0.209963 -0.135293 0.036153 -0.040615 0.003960 0.109754 -0.043740 0.044880 0.025143 -0.023331 0.080545 -0.220517 -0.056745 0.198768 -0.043023 0.169555 0.194022 -0.178665 0.015759 0.043244 -0.007447 0.003863 0.209298 0.227234 -0.152902 -0.097946 0.098003 0.109830 0.246847 0.130516 -0.306598 -0.051065 0.031779 -0.001122 0.172691 0.218695 0.030952 0.004944 0.161351 0.095307 0.048007 0.089967 -0.333918 -0.047887 0.032639 -0.165017 0.052952 -0.157115 0.072973 0.065302 -0.092414 -0.194770 -0.053334
516 0.034271 0.213920 -0.033912 -0.140613 0.115363 -0.024469 -0.278574 0.125737 0.010250 0.078220 -0.044155 -0.088908 -0.080020 -0.036004 0.120629 -0.029844 0.023666 0.154308 0.136079 -0.140505 0.086988 -0.084910 -0.035558 -0.029454 -0.189297 -0.149987 0.263668 -0.042462 -0.124080 -0.026222 0.222973 -0.136588 0.152971 -0.093168 -0.207275 0.002437 -0.161240 -0.189868 0.007600 0.284766 -0.330318 -0.212917 0.078804 -0.024281 -0.090274 -0.088861 -0.108150 0.063511 0.027711 0.001766 -0.194059 0.107863 -0.066986 0.177350 -0.196489 0.173420 0.309627 -0.016413 -0.020419 -0.140085 0.150431 0.103332 0.163966 -0.014316 0.269509 -0.038427 0.144524 -0.117219 0.175003 0.063531 0.026369 0.031360 0.129900 -0.264935 0.104771 0.127361 -0.074492 -0.055740 -0.066940 -0.028862 -0.061683 0.013719 -0.068029 -0.069016 0.047325 -0.055626 -0.061372 0.037500 0.051882 0.092419 -0.082044 -0.133101 0.090085 -0.004804 0.041694 -0.122837 -0.121479 -0.021115 0.162117 0.184792 0.177449 0.045641 -0.047340 -0.130382 0.075084 -0.123003 -0.080958 0.200632 0.110520 -0.114792 0.004738 0.200501 -0.152406 0.274179 0.110263 0.061909 0.021661 -0.247209 0.100331 0.122455 -0.124170 -0.007065 -0.201081 0.271873 0.015556 0.258598 0.037699 -0.094712
180 0.186074 -0.099868 -0.009802 -0.061360 -0.138719 -0.029542 -0.077225 0.085026 0.107476 0.079520 0.099493 -0.079144 0.162821 -0.021536 0.068853 0.099553 -0.055162 0.053531 0.050730 -0.113576 0.120092 -0.062796 -0.018683 0.041050 0.005400 -0.163214 -0.068629 -0.020473 0.059623 0.026088 -0.013723 -0.034931 0.333327 -0.045380 0.149551 0.169352 -0.147149 -0.203047 0.101160 0.163494 0.038741 -0.096820 0.121655 -0.184015 0.214001 -0.168641 0.028910 0.014364 -0.223234 0.078074 -0.111970 -0.031487 -0.041285 0.128682 0.108073 -0.033505 -0.031612 0.095192 0.241978 0.102760 0.138298 0.074409 0.047489 0.150675 0.238525 0.125255 -0.106372 -0.195737 0.268547 -0.008219 -0.104058 0.016173 0.033092 -0.067737 -0.038132 -0.156036 -0.093943 0.007437 0.059477 0.139772 0.025367 -0.219088 -0.095571 0.056973 -0.052509 0.147378 -0.287861 -0.117020 -0.081852 -0.089185 -0.049299 0.116938 0.026549 -0.061818 0.100523 -0.131729 -0.014536 0.094567 0.198401 -0.018174 0.071179 0.242892 0.003350 0.104121 0.221093 -0.141171 -0.016127 0.032332 0.057617 -0.212726 0.120214 0.004601 0.073698 0.073135 -0.016773 0.116563 -0.021957 -0.299068 0.054899 0.068887 0.046971 0.024897 -0.295372 0.157789 -0.009962 0.063964 0.024255 -0.085434
93 -0.137837 0.070077 0.014862 0.062237 0.148877 -0.006545 -0.169542 0.177099 0.032895 0.101339 -0.018246 -0.142625 0.003322 -0.054496 0.101928 0.225653 0.184585 -0.306120 -0.072276 -0.027326 -0.030132 -0.061342 0.004838 -0.031357 -0.006923 -0.059675 -0.170441 0.101511 -0.180148 -0.122118 0.042117 -0.272062 -0.000558 -0.260389 0.088005 0.082827 -0.011125 -0.049982 0.075961 0.155179 0.008485 -0.335635 0.035636 0.137463 -0.170554 0.099908 -0.091207 0.057266 -0.038082 0.174539 -0.002503 -0.035947 -0.141928 0.068085 -0.139036 0.063568 0.033391 0.278179 -0.107254 0.036575 0.074345 -0.028053 0.051898 -0.004743 0.113481 0.040017 0.138021 -0.247588 0.014726 0.000748 -0.153840 0.078695 0.339313 -0.031982 -0.012372 -0.074079 0.111617 -0.168212 -0.124320 -0.148347 -0.071152 -0.087259 -0.061848 -0.032122 0.052346 0.163050 -0.302921 -0.078625 0.035614 0.189296 0.005123 0.144997 0.027615 -0.112565 -0.023080 -0.017667 -0.032627 0.045569 0.155178 0.233236 0.234259 0.043699 0.060202 -0.069011 -0.052161 -0.298022 0.043004 -0.030507 0.194608 -0.155606 -0.052108 -0.025334 -0.083481 0.094747 -0.132353 0.076446 -0.002892 -0.052190 -0.217471 0.372588 -0.091547 -0.135429 0.034445 0.023075 -0.007560 0.055945 -0.097448 -0.007412
183 0.117972 0.002845 0.033283 -0.026230 0.115317 -0.042246 0.172260 0.145527 0.186460 -0.183085 -0.065650 -0.055935 0.010074 0.134638 -0.066885 0.071675 -0.105573 -0.010248 0.009804 0.138517 0.006842 -0.024849 -0.008353 0.357089 0.030559 -0.074625 -0.088716 0.014423 0.023238 -0.138818 0.076308 -0.045397 -0.012299 -0.220998 -0.084889 0.130514 -0.201659 0.098531 -0.027696 0.099158 -0.012699 -0.009006 0.100631 0.081521 -0.071301 -0.124293 0.061539 0.071638 -0.029019 0.055710 -0.034521 -0.125255 -0.044930 0.062707 0.023571 0.082152 -0.081804 0.179175 0.058823 -0.046505 0.048011 -0.037132 0.004637 -0.000384 0.033986 -0.053935 0.033715 -0.102121 0.213379 0.206056 -0.096917 0.088327 0.075543 -0.173023 -0.056012 -0.065622 0.046168 0.124203 -0.241240 -0.075239 0.024098 -0.243447 0.000959 0.066332 0.012234 0.119389 -0.156270 0.036193 0.195102 0.098046 -0.138088 0.219791 0.081710 -0.225558 0.099968 0.040691 -0.015803 -0.021825 0.304136 -0.049828 0.029970 0.375621 0.007947 -0.035554 0.136941 -0.016537 0.048735 0.112079 0.028611 -0.225975 -0.002031 -0.115996 0.051954 0.252425 -0.044150 0.055034 0.032472 -0.272061 0.034541 0.190144 -0.064062 0.117938 -0.136405 -0.022189 -0.084517 0.043404 0.005748 -0.021511
60 0.223887 0.185170 -0.150677 -0.063272 -0.097281 0.128717 0.096521 0.353446 -0.096603 0.032787 0.093477 0.043735 0.042480 -0.182637 0.211287 0.274912 -0.087053 0.065787 0.332243 -0.191599 0.141805 -0.107717 -0.126634 0.160388 -0.004711 -0.122053 -0.041434 0.105562 -0.147936 0.160037 0.007245 -0.143212 -0.131806 -0.176749 -0.064383 -0.160108 -0.121593 -0.258883 0.194178 0.430128 -0.068668 -0.315945 -0.191490 0.126424 -0.254713 -0.032254 -0.107215 0.106732 0.213849 0.156832 0.093517 0.077106 -0.204961 0.291939 0.178686 0.005088 0.198852 -0.093573 -0.028979 -0.059118 0.154677 -0.093161 0.051116 0.121876 0.109891 0.127952 0.043631 -0.220255 0.081690 -0.088054 -0.094057 0.124168 0.113406 0.025826 0.141505 0.080733 0.103936 -0.077214 -0.111766 -0.127870 -0.175814 0.098774 -0.004380 -0.134598 0.210618 0.048144 -0.206736 -0.065954 0.051395 0.119018 -0.110233 0.151474 -0.022181 -0.030003 -0.120614 0.013584 0.099363 0.057522 0.116042 -0.013209 -0.062371 0.067410 0.024563 0.287830 0.037212 -0.056671 0.138554 0.027364 0.146087 -0.083569 -0.054122 0.141021 0.043143 0.009027 0.101934 0.084329 0.283476 -0.267015 -0.165815 0.229163 0.110113 -0.001515 -0.232810 0.060854 0.054337 0.010850 -0.172027 -0.137058
176 0.027386 -0.174657 0.285327 0.119660 -0.252259 -0.120913 0.144458 0.161493 0.087547 0.144425 0.148458 0.030658 -0.064899 -0.005770 -0.071632 0.030576 0.014184 0.125258 -0.009475 -0.046426 0.034607 -0.086775 -0.105754 -0.001203 0.020760 -0.112448 0.226500 -0.072291 -0.061384 -0.072294 0.186810 0.048325 -0.087543 -0.101237 -0.031514 -0.200993 -0.009277 -0.024564 0.293628 0.230133 -0.316036 -0.164821 -0.214324 -0.000254 0.162047 -0.216381 0.022722 -0.054501 -0.069520 -0.223683 0.049345 0.124078 -0.344897 -0.062538 -0.188446 -0.049898 -0.181950 0.051084 0.190773 0.133364 -0.270389 0.166584 0.264235 0.063876 -0.017565 0.030921 -0.106782 -0.014874 -0.032675 0.154732 -0.071895 0.184630 -0.001016 -0.082812 -0.190077 0.053905 -0.286491 -0.053584 -0.155384 -0.260412 -0.066167 -0.072084 -0.169403 -0.069138 0.114318 0.004468 -0.103889 0.053581 0.120609 0.004116 -0.170128 0.269241 -0.204968 -0.093504 -0.048005 0.161415 0.060907 0.268752 0.203629 0.182427 0.005749 0.192216 0.010508 0.052187 0.033571 0.053124 -0.013121 0.044067 -0.097110 0.083733 -0.041043 0.023647 0.284870 0.158275 0.141496 0.041609 -0.066314 0.079714 -0.003985 0.270849 -0.203876 0.069364 -0.167819 -0.056907 -0.119329 0.053174 0.058039 -0.062446
86 -0.081596 -0.038964 -0.244906 -0.033322 0.180369 -0.007896 0.147501 -0.035721 -0.227342 0.222461 0.067963 -0.188019 -0.034538 0.059588 -0.136636 -0.086228 -0.033292 0.041398 -0.047187 0.192657 0.019033 -0.151939 -0.073340 0.125273 0.203045 0.046107 -0.229416 0.098654 0.144966 -0.238414 -0.043661 -0.271349 -0.068959 0.039335 -0.129723 0.157475 -0.088303 0.110820 0.302950 0.037266 0.074601 -0.096194 -0.045499 0.245297 0.109397 -0.214493 0.171472 -0.013920 -0.012978 -0.060056 -0.101810 0.125924 -0.076058 0.073752 -0.100195 0.349062 0.047920 -0.112008 -0.087308 0.019815 -0.020126 -0.116101 -0.080728 -0.133007 0.187914 -0.054533 -0.048202 -0.125675 0.093774 -0.075430 -0.119626 -0.008796 0.178500 -0.158779 -0.040287 -0.100630 -0.198861 0.088137 -0.338805 -0.255676 -0.138638 -0.306055 0.001968 0.064291 -0.149834 0.031287 -0.195108 0.048896 -0.182808 0.070847 -0.092178 0.127062 -0.105638 0.301992 0.225905 -0.198506 0.017638 0.047738 0.063607 0.154740 0.235237 0.156925 -0.065306 -0.099719 -0.003785 -0.070143 0.026700 -0.033668 -0.116905 0.019854 0.249563 -0.189537 0.003299 0.233971 0.004979 -0.083108 -0.036432 -0.355404 0.007470 -0.166200 -0.090114 -0.004818 -0.089699 0.029487 0.087935 0.032799 -0.061721 0.039824
254 -0.159670 0.002635 0.263249 0.214939 -0.029529 -0.003184 0.147025 0.084940 0.139552 0.109261 0.017041 -0.062823 -0.093295 -0.017096 0.125179 -0.183342 0.286833 0.064114 -0.250472 0.024901 0.200902 0.063076 -0.145691 0.139627 0.076235 -0.085950 0.065330 -0.021829 0.042360 0.133825 0.202176 -0.076816 -0.147842 -0.105638 0.034217 0.003787 0.049790 -0.001609 0.192281 0.068734 -0.056265 -0.023165 0.180954 0.195643 -0.021390 -0.048097 0.073985 -0.065064 -0.031970 -0.067557 -0.044361 -0.117186 -0.325148 -0.220620 -0.025542 0.084140 0.002163 0.196933 0.217443 0.148215 0.006316 0.467788 -0.111196 -0.092260 0.048919 0.073960 0.057986 -0.092278 0.135653 -0.017557 0.205702 -0.043568 -0.007540 -0.195936 -0.230484 0.063333 -0.025759 -0.052834 -0.125172 -0.081294 0.004994 -0.119979 -0.153912 -0.192282 0.230702 -0.059966 -0.269261 -0.122979 0.133110 0.227071 -0.001019 0.114185 0.218014 0.030116 0.180670 0.011728 -0.206292 0.029306 0.098966 0.326282 -0.043602 0.170780 0.056342 0.009222 -0.036401 0.134175 -0.360600 -0.089905 -0.083731 -0.070359 0.285300 -0.024002 0.106478 0.158200 0.125704 -0.125797 -0.132694 0.159940 0.028080 0.268582 0.023962 -0.088124 -0.095132 0.025395 -0.129816 0.235653 -0.013174 -0.095532
230 0.142442 -0.129178 0.075523 0.109370 0.120862 0.091159 -0.121674 0.264618 0.267221 0.034448 0.124244 -0.126078 0.006043 0.161648 0.062240 -0.142690 0.007222 -0.011815 -0.114002 0.031394 -0.002424 -0.065197 -0.039912 0.183776 0.253552 0.079931 -0.125723 -0.086121 0.139681 0.065596 0.120095 0.029865 -0.150906 0.076666 0.152675 -0.069549 0.020519 -0.070160 -0.361777 0.012310 -0.085646 -0.002133 0.052771 0.139763 0.087865 -0.017715 0.094962 0.048260 0.057684 -0.223816 0.184279 -0.155644 -0.138728 0.255233 -0.203751 0.144032 -0.207722 0.082421 -0.298154 0.056039 -0.119458 0.038254 0.264295 -0.110892 -0.034292 -0.235807 0.090576 -0.139552 0.175686 -0.101248 -0.060319 0.028765 -0.012957 -0.024283 -0.170023 -0.218795 -0.076048 -0.009070 0.030620 0.010873 0.186767 -0.043270 0.037598 -0.165346 0.088721 -0.044111 -0.306644 0.176692 0.196992 0.042337 0.176771 0.176247 0.256459 0.156043 0.229151 0.123075 -0.017144 -0.003988 0.162794 0.081245 0.080198 0.007175 -0.001797 0.155286 0.114271 0.073402 -0.111885 -0.040762 -0.046839 -0.254686 0.082101 0.032884 0.031773 0.114272 -0.046707 -0.001625 -0.098115 0.248425 0.059825 0.193107 0.200273 -0.097289 0.011754 -0.243355 -0.112099 0.235209 0.001891 -0.022419
4 -0.010814 0.008885 0.109382 -0.204742 0.018069 -0.105038 -0.067008 0.164649 -0.016631 -0.024531 0.050473 0.036734 -0.435931 -0.174381 0.108440 -0.014995 0.051480 0.004177 0.077395 -0.026221 0.076875 0.188719 -0.059637 0.030556 0.383309 -0.114135 -0.138009 -0.051972 0.012245 0.094297 0.101197 -0.014222 -0.037912 0.111584 0.006976 0.101501 -0.032306 0.074812 0.101452 -0.167874 -0.051582 -0.200941 -0.116679 0.075743 0.154019 0.037883 -0.176862 -0.097674 -0.138647 -0.043945 -0.238489 0.207638 -0.334944 0.423419 -0.030268 0.244026 0.034344 -0.192210 -0.199038 0.087355 0.052453 0.060322 0.173725 -0.059052 -0.080831 0.185119 0.016198 0.056499 0.013421 0.084118 0.140088 0.042132 0.248203 -0.099110 -0.073412 0.059199 -0.033226 -0.054163 -0.080377 0.032741 0.057769 -0.009593 0.029188 0.013775 0.358784 -0.115688 -0.123840 0.078580 -0.123153 0.188461 -0.008962 0.400315 -0.011100 0.122885 -0.202763 -0.251302 0.110063 0.114381 0.103404 -0.001779 0.066222 0.083320 0.130587 -0.133368 0.123030 0.023347 -0.267210 0.079329 -0.049674 -0.064697 0.032563 0.140141 -0.138044 0.025111 0.048371 0.153776 0.069130 -0.082245 -0.001617 0.282004 -0.077807 0.040229 0.295615 0.161448 0.052062 0.097869 0.062820 -0.024124
100 -0.033734 -0.066033 -0.006825 -0.156082 0.122000 0.004933 -0.174218 0.040976 0.012978 -0.076390 0.094522 -0.335986 0.232018 0.031962 0.067827 0.020787 0.078518 0.106680 0.056018 0.145613 -0.045583 -0.119634 -0.254112 0.387040 0.116472 -0.196350 0.176151 -0.010048 -0.033739 -0.018506 0.040869 -0.177569 -0.162195 -0.138233 0.015899 0.143909 -0.255336 -0.323341 -0.122046 0.116454 -0.248442 -0.129079 -0.001771 -0.110226 0.044215 -0.175228 -0.146860 0.065907 -0.096453 0.122523 0.027520 -0.069411 -0.014468 0.064690 -0.049496 0.394080 0.118553 -0.129682 0.270162 -0.043633 0.081726 0.025531 0.183974 0.091362 -0.096281 0.045910 -0.022186 0.136844 0.097883 0.006672 0.146956 0.172120 -0.160455 -0.039059 0.214664 0.083294 -0.011773 0.037614 -0.360306 -0.242765 -0.033795 -0.235637 -0.033628 -0.034573 -0.054877 -0.047296 -0.226262 0.090701 0.070638 0.186955 0.128199 0.176165 -0.101091 0.263262 -0.108795 0.068022 0.066727 0.049141 0.096356 0.009401 -0.087990 0.298117 0.177124 0.035677 0.014512 -0.093178 0.216742 -0.098517 -0.167786 -0.064613 0.215964 0.083881 -0.052223 0.089444 0.235967 0.128211 0.198870 -0.138797 -0.162488 -0.157227 0.126101 0.143015 -0.350765 -0.032009 0.036571 0.064340 0.047539 -0.052592
421 -0.233988 0.148866 -0.140574 -0.196984 -0.271187 0.021961 0.027252 0.031125 -0.028994 -0.113284 0.130553 -0.023289 -0.039074 -0.212201 -0.101079 0.236936 0.038861 0.024889 -0.064369 -0.050090 -0.064935 0.192212 -0.168610 -0.108584 0.023545 0.103060 -0.272797 -0.112647 -0.217615 -0.031505 -0.167567 -0.250907 -0.099219 0.131538 -0.125147 0.063942 -0.058324 -0.071250 -0.146904 0.125435 -0.013462 -0.313082 0.067866 0.052573 0.355111 0.102238 0.016331 -0.049481 -0.056117 -0.085360 -0.049100 0.059135 0.039145 -0.105012 0.190975 0.360483 0.087179 -0.059915 -0.129303 0.056621 -0.035999 -0.106689 -0.352606 0.051267 0.199298 -0.090918 -0.246974 -0.230692 0.054460 0.038478 -0.062585 0.264367 0.130379 -0.382989 0.010043 -0.135153 -0.178952 -0.052573 0.236485 -0.006238 0.179973 -0.199349 0.069077 -0.091240 0.004443 0.005188 0.070242 -0.175375 -0.015152 0.033182 0.014338 0.299096 -0.036136 0.210960 -0.005427 -0.160448 0.100018 0.083137 0.341125 -0.011026 -0.091040 0.146839 0.201566 -0.074358 0.344184 -0.109776 0.012235 -0.149236 0.019846 -0.007960 0.104432 -0.168651 -0.027100 0.035884 0.132700 -0.171778 -0.305759 0.005443 0.078058 0.154618 0.009404 -0.029714 0.142977 0.027211 -0.019193 0.088914 0.171029 -0.033635
27 0.019344 0.009319 0.002123 -0.156247 -0.031624 -0.078339 -0.029853 -0.079077 0.204685 0.111173 0.167931 -0.103970 -0.375792 -0.027850 0.116309 -0.138791 0.073180 -0.179745 -0.069074 -0.224401 0.071871 -0.140524 0.100855 0.233878 0.010588 -0.070575 -0.254668 0.119517 -0.063993 0.263565 0.114775 0.069279 -0.096536 -0.287766 0.056539 -0.104470 -0.066660 0.156851 -0.051078 0.212570 0.168808 -0.240510 0.241999 0.181441 -0.100351 -0.076411 0.081883 -0.007838 0.005818 -0.175369 -0.141535 0.241368 -0.136876 0.186292 -0.084799 -0.073048 0.231107 0.194956 0.115026 -0.114109 -0.145543 0.151122 -0.009539 0.157641 -0.051924 0.286286 -0.030864 -0.257094 0.166288 0.118158 0.044861 -0.032739 0.398352 -0.122533 -0.196326 0.191923 -0.016780 -0.145006 -0.123284 -0.045780 0.124980 0.001899 -0.030122 -0.067990 -0.033535 0.106700 -0.027448 -0.129294 0.180208 0.020518 0.002028 -0.040645 -0.230985 0.016783 0.162249 0.046316 0.035268 0.043598 0.057522 0.029863 -0.027291 -0.105573 -0.161490 0.021746 0.043958 0.082612 0.087653 0.146137 0.082168 -0.130556 0.110213 0.003036 -0.130817 0.194292 -0.084493 0.040699 0.298562 -0.044749 -0.365777 0.266837 -0.099754 0.003518 -0.029526 -0.101940 -0.195086 0.100664 -0.144838 0.138616
282 0.138333 0.106553 0.022805 0.030989 0.185750 0.219201 0.236588 0.170814 0.097429 -0.081349 0.074227 -0.019315 0.056811 -0.020059 -0.037816 0.193736 -0.119130 0.056288 0.014758 0.019746 -0.127446 0.150383 -0.023265 0.282644 0.014153 -0.056855 -0.046673 -0.097061 -0.084084 -0.031516 -0.025527 0.018915 -0.201720 -0.278181 0.010551 0.143357 -0.077443 0.067993 0.192373 0.070216 -0.199226 -0.032666 0.051667 0.068246 0.063958 -0.007748 -0.041926 -0.029539 -0.220097 0.015467 0.241055 -0.065403 0.075139 0.052527 0.163106 -0.096270 -0.139614 0.138034 -0.026125 0.061377 0.055897 0.209167 -0.140242 0.022679 -0.076606 -0.065747 -0.062946 -0.406502 0.125488 0.240079 -0.010370 -0.050940 0.187692 -0.002972 0.113024 -0.049654 0.001976 0.113958 -0.017418 -0.168647 0.007666 0.023010 -0.229965 0.062424 0.049085 0.244659 -0.301045 -0.042282 0.040068 0.008625 0.092657 0.060162 -0.016478 -0.195901 0.074517 0.068256 0.007491 -0.055683 0.039926 0.025018 0.092401 0.355287 0.110246 -0.094358 -0.108721 0.047413 -0.224166 0.081562 0.094559 -0.254658 -0.096426 -0.411917 -0.054300 0.224128 -0.054121 0.149618 0.320194 -0.078919 -0.096453 0.140637 -0.106654 0.023315 -0.057818 0.095627 -0.071090 0.109860 -0.145606 0.274181
274 -0.117244 0.138429 -0.125175 -0.024447 0.150446 -0.227000 -0.029615 0.060728 -0.036220 -0.169996 0.013518 0.217402 -0.206572 -0.005095 0.145548 0.073027 -0.051063 -0.039167 0.045268 0.085984 0.095702 -0.039920 -0.077604 -0.072245 0.002770 -0.057995 -0.157927 0.067875 -0.035048 0.122101 0.123965 -0.087526 0.035184 -0.157299 0.066700 -0.042902 0.077664 0.098184 0.042359 -0.098527 -0.123405 -0.120667 0.221823 -0.050031 0.114258 -0.102885 0.056755 -0.161653 0.047302 0.103369 0.002488 0.253711 -0.128004 0.193055 -0.086567 0.184872 0.358500 0.128691 -0.083426 -0.161736 -0.041286 0.128200 0.263061 0.005887 0.146835 -0.045185 0.122421 -0.044154 0.195920 -0.088144 0.084493 0.198842 0.164810 -0.089282 -0.135869 0.118550 0.198615 -0.121536 -0.144142 -0.189260 0.086002 -0.148676 0.207644 0.064839 -0.164802 0.138764 -0.178451 -0.078587 -0.025253 0.313584 -0.201311 0.051791 -0.105386 0.013520 0.176807 -0.237619 -0.159080 0.047659 0.239430 -0.002102 0.143604 0.004990 0.009088 -0.137356 0.081640 0.072890 -0.180114 0.120660 0.127671 -0.032416 -0.026009 -0.324141 -0.133998 0.235677 -0.199890 0.034819 -0.036420 0.026717 -0.146325 0.087094 0.007600 0.108550 0.106781 0.068019 -0.131117 0.140706 -0.015772 -0.071161
559 -0.003587 0.023535 -0.041326 0.105083 0.036996 -0.036398 0.331096 0.304332 0.071727 -0.028028 0.121711 -0.062907 0.302679 0.109028 -0.032961 0.083364 0.026514 -0.118324 -0.006580 -0.020750 -0.118264 -0.103774 0.012195 0.195327 0.112371 0.032527 0.087615 0.142855 -0.078030 -0.030386 -0.052680 -0.083938 -0.253270 -0.383180 0.192549 0.018523 -0.233946 -0.136701 0.124329 0.185935 -0.146519 -0.120172 0.016080 -0.130619 -0.082088 -0.180762 0.075877 0.325749 -0.107172 0.134933 0.082603 -0.068484 -0.075604 0.086941 0.015061 0.138052 -0.114195 0.121525 -0.066799 -0.058768 -0.003479 0.066581 -0.018766 0.015572 -0.039160 0.055565 0.110009 -0.370570 0.050482 -0.121381 0.048961 -0.042431 -0.004468 -0.054995 0.123505 -0.001896 -0.073426 0.017957 -0.236404 0.003002 0.141691 -0.051846 -0.106002 0.047863 0.042087 0.091127 -0.011758 -0.164819 0.160887 -0.017065 0.011017 0.094421 -0.065859 0.001518 -0.063969 -0.166927 -0.148603 0.031161 0.299318 -0.108916 -0.032374 0.083052 -0.013092 -0.002913 -0.124580 -0.098195 0.112172 0.326715 -0.043100 -0.088012 0.085989 -0.084591 0.111694 0.110598 0.096641 -0.044044 0.016296 -0.314111 -0.235803 -0.152256 0.081630 -0.089711 -0.013981 0.083264 0.022336 0.059739 -0.022935 -0.161628
77 0.147026 -0.032612 -0.056495 0.029085 0.075088 0.026668 -0.200276 0.114417 0.272170 -0.044938 0.207277 0.064566 -0.059986 -0.196043 0.158986 0.147139 -0.049729 -0.177552 0.171740 -0.147082 -0.052313 0.050408 -0.162829 0.174084 0.042783 -0.114509 -0.110609 0.022741 -0.191816 0.162250 0.040820 -0.204942 0.001715 -0.024914 -0.058679 0.142176 -0.105150 -0.083568 -0.029589 0.336361 -0.011134 -0.058921 -0.082637 0.266510 -0.055403 -0.101892 0.120263 0.120510 0.194857 0.001654 -0.153241 0.090507 -0.164713 -0.023187 -0.151278 -0.332828 0.231231 0.098733 -0.196313 -0.099228 0.322579 0.161573 0.317984 -0.000734 -0.009369 0.016522 0.061640 -0.219458 -0.043069 0.172827 -0.143470 0.168572 0.099863 -0.056280 0.085836 0.021902 -0.138451 -0.284644 -0.146641 -0.157057 -0.151641 -0.011153 -0.204344 -0.070375 0.246667 -0.004375 -0.080873 -0.047020 0.034607 0.223328 -0.024119 0.042103 -0.048973 0.168108 0.108981 0.220333 0.021508 0.040830 0.136198 -0.049743 0.136766 0.144673 0.041518 0.061921 0.108810 0.008514 0.044470 0.012665 0.239975 -0.027119 0.003279 0.103369 -0.153590 0.221551 -0.071652 0.129481 0.006931 0.021723 -0.130397 0.249617 0.153285 -0.093383 -0.111604 0.117865 0.077336 0.065721 -0.052838 -0.132433
317 -0.051593 -0.011269 -0.258267 -0.084300 0.151192 0.004433 0.055987 0.105125 0.104360 0.128373 0.116087 -0.136320 -0.045698 0.171221 -0.026723 0.314174 -0.157979 0.178078 0.040297 -0.129551 0.259008 -0.111933 -0.052499 0.176744 0.153970 0.017265 -0.015685 -0.030854 -0.149973 0.046377 0.150719 0.007179 -0.216463 -0.099664 0.010968 0.245623 -0.190768 -0.163976 0.213493 -0.007966 -0.216735 -0.148305 -0.078830 0.166417 0.096931 -0.147012 -0.082432 0.006603 0.002828 0.023630 0.063376 -0.203005 -0.003607 0.052119 -0.108930 0.155357 0.197223 0.060087 0.244448 -0.001203 0.146704 0.237891 -0.112667 0.254311 0.159912 -0.121965 0.068563 -0.521644 0.082001 0.040317 -0.002210 -0.211083 0.246738 0.035625 0.085030 0.029964 -0.003675 -0.055664 -0.151705 0.127992 -0.024379 0.312458 -0.220200 0.074612 0.083676 0.259650 -0.299063 -0.285258 0.180180 0.211855 0.193168 -0.058827 0.201221 0.100709 0.183633 0.218967 0.157980 -0.074543 0.199639 0.242933 0.012453 0.198949 -0.012205 -0.103188 -0.236608 0.006613 0.052012 -0.113496 0.006609 -0.094985 0.187916 0.042430 0.175791 -0.026780 0.108117 0.102835 -0.052757 0.102694 -0.007826 -0.015821 0.164493 0.027618 0.034882 -0.030424 0.096588 0.159895 0.024824 0.021806
182 0.140510 0.005618 0.025533 -0.162440 0.277337 0.181375 0.079155 0.199264 0.204061 0.067312 -0.088834 -0.067595 -0.093132 0.106541 0.026868 0.405202 -0.040197 0.091445 0.049246 -0.106553 0.087849 -0.116820 -0.060220 0.157131 0.024918 -0.115844 -0.146656 0.085736 -0.173938 0.158505 0.017015 -0.033866 -0.094901 0.078498 0.117270 0.405475 -0.087786 -0.139670 0.100482 -0.020065 -0.167332 -0.174951 0.194866 0.090912 0.225711 -0.220032 -0.030013 -0.046045 -0.269788 -0.077938 0.220687 -0.227283 0.091856 -0.043775 -0.142200 0.121140 0.045328 0.077896 -0.003254 0.204444 -0.049917 0.077098 0.122556 0.137608 0.075339 -0.022095 0.063142 -0.266537 0.190452 0.085738 -0.101315 -0.283126 0.256746 -0.010913 0.161010 -0.026085 0.212926 -0.038200 0.014891 -0.041783 0.092292 0.166030 -0.247059 -0.000233 -0.118692 0.158329 -0.299808 -0.233410 0.142039 -0.002977 0.071219 -0.014141 0.186384 -0.123071 0.150567 -0.037053 0.082731 0.045509 -0.028491 -0.004526 -0.027735 0.255058 -0.237221 -0.316730 -0.205644 -0.001758 -0.063747 -0.174880 -0.072625 -0.134660 0.005520 -0.132939 0.009036 0.195956 0.094107 0.233059 0.004657 0.046060 -0.086305 0.033405 0.159756 -0.108696 0.089813 -0.139577 -0.037461 0.182676 0.003388 0.094060
517 0.129370 -0.159973 0.112108 -0.121525 0.125388 -0.009902 -0.048136 0.135492 0.187822 -0.040869 0.100567 -0.204282 0.100115 0.369282 0.135949 0.269100 -0.028328 0.138368 0.194083 0.119236 0.323102 0.034771 -0.095667 0.188319 -0.084911 -0.050314 0.233642 0.006164 0.091889 0.173767 0.017363 -0.143230 0.124545 -0.233566 -0.043089 0.188637 -0.208983 -0.023245 -0.071476 0.044535 -0.236647 -0.079278 0.265917 0.100740 0.045696 0.004359 -0.190060 0.093415 -0.173623 0.321839 -0.016421 0.114175 -0.052573 0.179941 -0.168628 0.176711 -0.027095 -0.332951 0.181234 0.068836 -0.044079 0.173004 -0.062150 0.049109 0.132593 -0.008638 0.233692 -0.334905 0.212036 0.016241 0.019341 0.098911 0.172643 0.024798 0.207558 -0.027585 0.194815 0.015864 -0.265111 -0.030048 -0.109634 -0.187444 -0.202040 -0.110246 -0.012904 -0.107943 -0.108459 -0.192239 0.050353 0.109552 0.017439 0.064988 0.031142 0.195233 -0.026512 0.142828 -0.021408 0.050177 0.003670 -0.139253 -0.152401 0.183827 -0.129118 0.200481 -0.017932 -0.160622 0.197122 0.088663 0.269052 -0.148448 0.071834 0.157098 0.170720 0.126092 0.061311 0.152063 -0.018931 -0.041327 -0.051305 -0.027835 0.122513 0.132046 -0.212811 -0.004230 -0.190688 -0.018408 0.092041 -0.051932
312 0.076278 0.193608 -0.221104 0.147801 0.051553 -0.043629 0.086498 0.179030 -0.073877 0.007897 0.056296 -0.078630 0.176647 0.098037 0.111049 0.093857 0.046828 -0.086885 0.062892 0.079414 0.009244 -0.095940 0.025293 0.116719 -0.007001 -0.071516 0.022288 0.287959 -0.071803 -0.123384 0.025740 -0.233135 -0.217643 -0.244125 0.129826 0.068844 -0.163843 0.022124 0.082355 0.189934 0.057022 0.047136 0.011993 -0.134031 -0.226295 -0.001929 0.085886 0.155285 -0.038914 0.004555 -0.039803 0.092122 0.046759 0.047122 -0.054220 0.283184 -0.138180 0.088635 0.095381 0.011124 -0.242566 -0.136242 -0.043208 0.009524 0.027428 0.028626 -0.008903 -0.237587 0.216139 0.084727 -0.177849 -0.273573 -0.034100 -0.081846 0.007104 -0.011865 -0.008069 -0.022936 -0.209204 -0.017395 -0.114731 0.018805 -0.127523 -0.041424 -0.006633 -0.036880 0.065150 -0.310488 0.267320 -0.033977 -0.098737 -0.030369 0.165545 -0.042758 -0.007080 -0.023633 -0.218735 0.247725 0.149576 -0.139056 0.036252 0.371507 -0.058316 0.111666 -0.144336 -0.026528 -0.029075 -0.081499 -0.106812 -0.207152 0.008658 -0.215132 -0.053028 0.180340 -0.056328 -0.092487 0.095439 -0.130799 -0.266467 0.076880 0.085289 0.063752 -0.044065 0.065409 -0.046572 0.181285 -0.045534 -0.103845
233 0.024939 0.186627 -0.223427 0.007651 0.122933 0.126577 0.036434 0.232070 -0.010982 0.028237 0.087626 -0.126691 0.218135 -0.010868 -0.181092 -0.044467 0.063502 0.046210 0.028798 -0.049812 -0.138649 0.030112 -0.002125 0.046262 0.110346 0.118912 -0.106605 0.023946 -0.216825 -0.003347 0.159076 -0.273146 -0.019383 -0.009077 -0.169746 0.120271 0.070292 -0.064306 0.256584 0.171288 -0.074832 -0.056001 0.233691 0.022526 0.030410 -0.169208 0.225708 -0.057010 -0.191751 -0.109800 0.075730 0.045764 -0.127403 0.110058 -0.032025 0.192552 0.107478 0.230940 0.076825 -0.054781 0.184993 -0.012972 0.275418 -0.040254 -0.026117 -0.097677 -0.051263 -0.184593 -0.026856 0.078529 -0.239865 0.100417 0.044832 -0.093446 -0.062872 0.002711 0.008550 -0.005101 -0.168438 0.019736 -0.139247 -0.180072 -0.095193 0.016239 -0.026300 0.136221 -0.329485 -0.095141 0.116653 0.108901 -0.038407 0.034827 0.041569 0.072417 0.096289 0.168241 -0.086348 0.052605 0.131116 -0.069532 0.249025 0.316695 0.033171 -0.083844 0.051138 0.167129 0.008147 0.028999 -0.179758 -0.164172 0.252958 -0.137511 0.143730 0.265702 0.047082 -0.032358 0.068623 -0.255726 -0.021692 -0.020577 -0.000990 -0.053970 -0.081065 0.135084 0.015761 -0.108395 -0.191521 0.109468
564 -0.000131 0.157395 0.081837 -0.042605 -0.030769 -0.206102 -0.063420 0.046421 0.025274 0.076712 0.243485 -0.045358 -0.500817 0.044128 0.224879 0.126719 -0.121938 -0.131227 -0.045444 -0.163938 0.074674 0.110589 0.054259 -0.145630 0.197704 0.175385 0.066497 0.325932 0.150437 0.034424 0.057201 -0.164771 -0.161945 0.004740 0.137570 -0.031214 -0.019926 0.055863 0.094715 0.116999 0.103465 -0.271323 -0.030579 0.059104 0.361226 -0.003716 0.063801 -0.005739 0.201187 -0.109743 -0.143635 0.070655 -0.252082 0.244166 -0.106271 -0.065926 0.016324 0.004500 -0.221076 -0.104724 -0.189002 0.177754 0.198052 -0.126655 0.039844 -0.084009 0.219741 -0.120806 0.147569 -0.143461 0.190296 0.135030 0.397258 0.016909 -0.188878 -0.014274 -0.056874 -0.053334 -0.149686 -0.253009 0.116285 -0.294650 0.153350 -0.157987 0.306507 0.078204 0.003728 0.042597 0.072515 0.081616 -0.028264 0.255909 -0.139187 -0.074885 -0.054575 -0.233424 -0.150579 -0.064742 0.126821 -0.333184 0.063963 -0.029526 0.026239 -0.147330 0.179896 0.102706 -0.127898 0.082854 -0.125577 -0.110238 0.017725 -0.028138 0.026495 -0.056119 -0.021807 0.263468 0.093627 -0.029138 -0.084039 0.109311 -0.088514 0.117583 0.049478 0.179546 0.043598 0.120704 0.160079 -0.038836
663 0.015348 0.002218 0.025296 -0.085440 -0.205746 -0.234565 0.159006 -0.052903 0.036855 -0.093877 0.094012 0.157228 -0.157840 -0.057008 0.098174 0.096516 -0.044273 -0.157019 -0.009221 -0.106668 -0.029804 -0.061947 -0.040270 0.025984 0.129295 -0.160901 -0.033482 0.090970 0.149190 0.071542 -0.009216 -0.052628 -0.034467 -0.234564 -0.197782 -0.057412 -0.133881 -0.056664 0.317100 0.179415 -0.068311 -0.017884 -0.083413 -0.022902 -0.060485 -0.208196 -0.043909 0.166914 0.045738 -0.050780 -0.120899 0.140158 -0.381631 0.239429 0.073642 0.155216 0.181089 -0.050274 -0.009828 0.056568 -0.010127 0.210702 0.221637 -0.042391 -0.187247 0.067105 0.273962 0.178372 0.244492 0.050302 0.030291 -0.089691 0.087589 -0.088150 -0.087227 0.075071 0.084115 -0.123082 -0.106824 -0.121935 -0.011246 -0.168724 -0.225884 -0.003038 0.179128 0.062760 -0.127515 0.154390 0.283676 0.051134 -0.161499 0.261370 -0.293439 -0.267682 0.042800 -0.195968 0.155534 0.099186 0.283371 -0.008234 0.082964 0.093173 -0.170594 0.061130 0.146104 0.041535 0.091744 0.085086 -0.006832 0.013437 0.080797 0.195562 0.059854 0.226997 -0.010661 0.093413 0.047499 -0.048568 -0.094113 0.000544 0.060085 0.070118 0.058276 0.149872 0.036570 0.048532 -0.034531 -0.101010
355 0.059884 -0.106727 0.110132 -0.048868 0.001459 -0.299958 0.029559 -0.139117 -0.104341 -0.055376 -0.018501 0.162061 -0.182483 -0.209317 0.122538 -0.064100 0.052286 -0.059223 -0.022791 -0.041690 0.266778 -0.009779 -0.101540 0.136267 0.226024 0.069901 0.193956 -0.171406 0.126048 -0.028286 0.018637 -0.106510 -0.048915 -0.176271 0.090608 -0.191991 -0.152430 0.025514 0.326416 0.088357 -0.087594 -0.256316 -0.131741 -0.025791 0.071962 -0.039504 -0.188129 0.085034 0.179552 -0.022734 -0.197529 0.249941 -0.323163 0.251329 -0.059489 -0.012939 0.154344 -0.123916 0.135255 0.014525 -0.307797 -0.115758 0.201117 -0.020108 0.100830 0.054500 0.065558 0.031273 0.081535 0.230358 0.100057 0.179614 0.169983 -0.313897 -0.024776 0.125138 -0.048779 -0.180901 -0.108671 -0.108979 -0.091474 0.000062 0.051872 -0.166818 0.258507 -0.181400 -0.234906 0.034048 0.140853 0.096471 -0.297372 0.058665 -0.379394 0.088437 -0.175299 -0.101232 0.044164 0.088553 0.054460 0.188152 0.020018 0.058318 -0.022220 0.009528 0.047732 0.055279 -0.084488 0.139639 -0.082859 -0.171216 -0.025572 -0.077809 0.171223 0.099631 0.115622 0.283814 0.143593 -0.148519 0.050781 0.132727 -0.140416 0.139670 -0.206848 0.097213 -0.081504 -0.001893 0.152055 -0.225773
302 -0.005477 -0.036226 0.164720 0.052683 -0.120977 0.044637 0.159704 0.278210 0.082369 0.087723 0.118827 -0.020959 0.005835 0.105927 0.005984 0.224065 0.073935 0.147845 0.267717 -0.058507 0.138994 -0.209301 0.035901 0.013178 -0.067239 -0.041186 -0.073343 0.204075 -0.078239 -0.046383 0.052106 0.014605 0.113686 -0.029830 0.012329 0.182120 -0.152820 -0.046719 0.141330 0.180761 -0.180851 -0.210775 0.076438 -0.134627 0.115617 -0.117147 -0.179966 0.017036 -0.178778 0.173966 -0.225274 0.005393 0.060169 0.134421 0.062588 0.024634 0.162903 -0.052806 0.098944 -0.009136 -0.019183 0.217620 -0.051726 0.124441 0.211773 -0.075917 0.111035 -0.141958 0.283578 0.020774 -0.208587 0.063711 0.068596 -0.027096 -0.122725 0.066006 -0.051127 0.094044 -0.199681 0.172986 0.139468 -0.009161 -0.274937 -0.011104 0.031315 0.034105 -0.006714 -0.067443 0.153658 -0.052419 -0.142800 0.023667 0.078387 -0.049302 -0.001110 0.120592 0.020025 -0.096657 0.176109 -0.111999 -0.129979 0.226467 -0.301772 0.066925 0.167791 -0.077254 -0.072279 0.052619 0.160122 -0.022221 0.115318 0.101952 0.172323 0.201159 0.116496 0.291897 -0.125615 -0.042102 -0.153719 0.250311 -0.080649 0.001822 -0.221636 0.171464 -0.041705 0.067164 0.003131 -0.169494
720 -0.003975 0.210442 0.215753 -0.141545 0.194308 -0.379874 0.102759 0.032037 -0.051747 -0.088475 0.070609 0.074343 0.051110 -0.034490 -0.118340 0.086146 -0.059973 0.046838 -0.200170 -0.098300 0.009301 -0.038846 0.075887 -0.053627 0.169318 -0.096264 0.142313 0.059868 0.060541 0.104790 -0.026600 -0.164059 -0.008459 -0.262997 -0.085941 0.037749 -0.108743 -0.024455 -0.043317 0.009044 0.009828 -0.224637 -0.118713 -0.019077 0.031727 -0.118022 -0.059453 -0.135240 0.001408 0.122910 -0.163675 0.302828 -0.368212 0.016920 -0.061728 -0.048728 0.140701 -0.016521 -0.067019 -0.054842 0.044344 0.247836 0.115244 -0.040810 0.104083 -0.010233 0.111998 -0.065856 0.152694 -0.209932 0.183207 0.196774 0.141559 -0.031726 0.012683 0.141081 0.224947 0.164841 -0.285233 -0.072491 -0.157183 -0.213937 -0.179107 0.100979 0.237793 -0.016858 -0.216293 0.283818 0.152103 0.112987 -0.112017 0.044816 -0.215870 0.047479 -0.079903 -0.063337 0.136976 0.089539 0.133487 -0.097349 0.141043 0.127356 -0.241687 0.205244 0.287367 0.034461 -0.270227 0.116862 -0.035030 -0.168145 -0.068148 0.021570 0.090322 0.014740 -0.084210 0.139409 0.114275 -0.256487 -0.070790 0.214777 0.114469 0.071371 -0.039004 -0.054011 -0.093454 0.142599 0.174952 -0.007753
39 0.230104 -0.030890 0.148753 -0.049125 0.013178 0.036607 -0.104751 0.231577 0.089847 -0.080573 0.029257 0.155889 -0.088371 -0.100188 0.016429 0.122249 0.004278 -0.134308 0.011365 -0.133314 -0.150554 0.104262 -0.089108 0.194973 0.309409 0.078127 -0.008703 -0.025689 0.071900 0.101839 0.242721 0.095652 -0.051958 -0.124820 0.171297 0.040986 -0.307157 0.002614 -0.106262 0.384758 0.039004 0.043465 0.084372 0.062634 0.079226 0.084976 -0.201366 0.252737 0.012380 -0.039987 -0.238676 0.045593 -0.077641 -0.013425 0.063755 -0.101071 0.410996 -0.206465 -0.085280 -0.079516 0.074578 0.275333 0.074161 0.093701 0.020839 0.022128 -0.035868 0.085739 0.074795 0.142522 0.081876 0.138758 0.189369 -0.265277 0.075623 0.382161 -0.142142 -0.365011 0.001977 -0.389452 0.082516 0.071774 -0.345064 -0.156309 0.211023 0.016379 0.011631 -0.125971 0.006360 0.143897 0.179038 0.257046 -0.218980 0.000596 0.071196 -0.058134 0.045850 -0.066297 0.112422 0.033077 0.235855 -0.026325 0.199954 -0.037504 -0.079031 -0.117330 -0.166459 0.047132 -0.032946 0.125181 0.016393 0.150435 -0.020988 0.327876 0.109424 0.124316 0.287234 0.047640 -0.068153 0.429749 -0.030029 0.145848 -0.009065 -0.020348 0.016613 -0.212864 0.137472 0.004035
65 0.083335 -0.083165 0.290432 -0.086840 -0.162101 -0.068087 -0.105475 0.179478 0.083493 0.061554 0.074058 0.111284 -0.354604 -0.335695 -0.004091 -0.009089 0.045187 -0.110079 -0.052687 0.084037 -0.117877 0.025850 -0.136909 0.058310 0.167441 -0.091046 0.116040 0.082303 0.022378 0.003445 0.306081 -0.110728 0.192471 -0.039863 -0.025160 0.008006 -0.405376 -0.172968 0.184285 0.376501 0.062737 -0.031187 0.042566 -0.006580 0.100893 -0.157718 -0.161857 0.274634 -0.008837 0.003208 -0.151824 0.140546 -0.133784 -0.120389 -0.063291 -0.052107 0.353587 0.003472 -0.174669 -0.099698 0.091058 0.244552 0.046498 -0.061653 -0.078663 0.112356 0.109793 -0.146851 0.229680 0.169149 0.003245 0.256940 0.141557 -0.181673 -0.046220 0.085294 -0.136376 -0.019565 -0.092859 -0.221282 -0.015744 -0.046196 -0.370104 -0.231649 -0.029455 0.045814 -0.020926 -0.151357 0.203385 -0.067658 -0.001142 0.322327 -0.084648 -0.042994 -0.105052 -0.008396 0.098834 -0.010817 0.127276 -0.009322 -0.055496 -0.008735 -0.091788 -0.041999 0.069799 -0.006780 0.270775 0.218142 0.090990 -0.005965 -0.036170 0.077848 0.063776 0.198672 0.134616 0.223407 -0.089323 -0.091955 0.038549 0.194112 0.198463 -0.101122 -0.082272 0.312775 -0.044157 0.059576 -0.016054 -0.097679
70 0.146053 0.170369 -0.017631 -0.137107 0.009157 0.038908 0.216786 0.244353 0.191409 -0.078280 0.032293 -0.153893 -0.052272 0.068391 0.027645 0.162994 0.103696 0.055658 0.172750 -0.224381 0.031945 -0.096325 -0.098656 -0.006756 -0.105165 0.029369 -0.293372 0.035851 -0.182352 -0.071160 0.100626 -0.109182 0.120543 0.065234 0.139161 0.398752 -0.096099 0.074889 -0.066800 0.199163 -0.135856 -0.110484 0.181488 -0.042893 -0.027461 0.298425 -0.014225 -0.149738 -0.136051 -0.121949 -0.101706 -0.210429 0.033329 -0.076805 -0.116744 0.098680 -0.020611 0.180960 0.305039 0.127695 -0.142405 0.096200 -0.263344 0.234440 0.033312 0.085143 -0.074143 -0.227659 0.043959 -0.065036 -0.454830 0.061907 -0.082469 -0.111627 -0.049893 -0.166477 0.087907 -0.160594 -0.042034 -0.103262 0.119577 0.012825 -0.207654 -0.015556 -0.055544 0.240542 -0.171430 -0.255394 0.247840 0.143276 -0.017501 0.294967 -0.122785 -0.038526 0.057749 0.090347 0.099544 0.004293 0.182963 -0.023454 0.058220 0.074994 -0.349666 0.121528 0.004547 -0.109862 -0.145033 0.124947 -0.081644 -0.303241 -0.153805 -0.074179 -0.070602 0.215928 0.180667 0.074526 0.155240 -0.034024 -0.145552 0.035886 -0.039604 -0.159324 0.075743 0.021658 -0.030993 -0.095063 -0.003949 0.001622
661 0.242310 0.128927 0.277136 -0.007411 -0.010546 -0.282994 -0.044279 0.008422 0.072296 -0.318487 -0.057873 0.103295 -0.061282 -0.024147 -0.053343 -0.050359 -0.130429 -0.080571 -0.203220 -0.172098 -0.050827 -0.044710 0.057270 0.064969 0.095741 -0.086461 0.112631 -0.114076 0.256822 0.095970 0.104202 -0.178505 0.012608 -0.382947 0.085374 -0.056811 -0.048805 -0.058101 -0.000320 0.166097 -0.012561 -0.004313 0.029447 0.062382 0.105765 -0.147084 -0.180117 -0.012983 0.164271 0.049270 -0.137200 0.287974 -0.326974 0.156804 0.209003 -0.126906 0.135632 0.278609 0.014433 0.088797 0.067601 0.191611 0.177933 0.176521 0.095208 0.271339 0.042402 -0.263876 0.324520 0.055160 0.197105 0.006535 0.040825 -0.186873 -0.090241 0.187866 0.115278 0.025526 0.071292 -0.058779 0.024907 -0.212713 -0.449922 -0.094622 0.060615 -0.087635 -0.176469 -0.046588 -0.036762 0.284306 -0.227681 0.348617 -0.237405 -0.161104 0.135541 -0.066961 0.036566 -0.022030 0.220206 -0.204510 0.082518 0.079598 -0.274025 0.260057 0.358647 0.059075 -0.044313 0.282446 0.086370 -0.048854 -0.003531 -0.041898 0.015444 0.194067 0.023283 -0.082931 -0.031709 -0.079780 -0.085649 -0.001375 0.018420 0.206386 -0.075755 -0.187033 -0.089801 -0.115888 0.142334 -0.218279
627 0.069060 0.148585 -0.144814 -0.030317 0.247415 0.264283 -0.087778 0.236379 0.085359 0.096072 -0.009056 0.144534 0.161228 -0.204615 -0.140115 0.389327 0.129584 -0.043374 0.011073 -0.190256 -0.117225 -0.134180 0.150899 -0.036276 0.354145 -0.091184 0.037656 -0.032825 0.173231 -0.269390 -0.150034 0.042875 -0.076328 -0.022963 0.110890 0.192966 0.033204 -0.065790 -0.221156 -0.124616 -0.208560 -0.151550 -0.114719 0.025233 0.083657 -0.022919 0.122379 0.059523 -0.094039 -0.020997 0.021030 -0.168798 -0.304740 -0.004022 -0.103154 0.220322 0.103466 -0.016030 0.156231 -0.197685 -0.084429 0.124345 0.043394 0.052734 -0.081928 -0.100947 0.198410 -0.311782 0.099187 0.106103 -0.243604 0.147922 -0.033888 0.172717 -0.063974 -0.174335 -0.091673 -0.004994 -0.208638 -0.102134 0.048143 0.233453 -0.056318 -0.165359 -0.212053 0.150069 -0.128642 -0.205362 0.068869 0.061040 0.063703 0.123311 0.122822 0.018367 0.175868 0.061880 0.008941 -0.073592 -0.014790 0.060608 0.107195 0.217567 0.165620 -0.090779 -0.051316 0.193256 -0.185689 0.210695 -0.359743 -0.129197 -0.056655 -0.005562 -0.140451 -0.152986 0.189500 -0.049827 -0.257578 0.003849 0.105599 -0.114269 0.045493 -0.103625 0.256632 0.000809 -0.084313 0.151831 0.047831 0.118579
71 0.055479 0.055977 -0.202169 0.017669 0.105330 -0.248744 -0.022861 -0.096864 -0.029804 -0.070735 0.241683 0.027816 -0.021177 -0.110298 0.370218 -0.178948 -0.002329 -0.085288 -0.043896 -0.099831 -0.085684 0.212109 -0.158611 0.174842 0.083836 0.133147 -0.011308 0.146502 -0.306553 0.233328 -0.004210 -0.277779 -0.123586 -0.229987 0.045110 0.074695 0.070129 0.033873 0.153559 0.064217 -0.016693 -0.029162 0.211027 0.030646 -0.180876 0.032893 0.012138 -0.050156 0.042500 -0.096975 -0.111781 0.008129 -0.161580 0.043955 -0.056590 0.015715 0.092289 0.339883 -0.146200 -0.055521 -0.082831 0.301156 0.072951 -0.001377 0.251495 -0.044378 -0.013308 -0.231829 -0.013525 -0.011684 0.138548 0.096425 0.231964 -0.148963 -0.057894 -0.022191 0.163490 -0.077150 -0.033458 -0.202439 0.066748 0.049836 0.112068 -0.093666 0.118866 0.082011 -0.277673 -0.072604 0.056225 0.245430 0.177562 -0.054462 0.012096 0.225104 -0.005195 0.145866 -0.043216 0.155634 0.102497 0.045476 0.340662 -0.074873 -0.092302 0.043224 -0.166814 0.225271 -0.234311 0.140842 0.191481 -0.224889 -0.041883 0.026303 -0.068953 0.129491 -0.086965 0.174093 0.078198 -0.343834 -0.248733 0.086016 -0.091314 0.031581 -0.102903 0.067735 -0.287947 0.086165 0.052261 0.132211
389 -0.160333 -0.188114 0.116076 0.007441 -0.136089 -0.132918 0.277820 0.116492 0.198595 -0.030365 0.151180 -0.018125 -0.054400 0.045103 0.050032 0.088732 -0.004266 -0.050868 -0.047130 0.151942 0.008729 -0.027076 0.092444 0.012829 0.105210 0.064989 0.035510 -0.016525 0.030237 -0.011566 0.197463 0.090726 0.205495 -0.319042 -0.177388 -0.291066 -0.077323 -0.096666 0.215644 0.005730 0.050530 -0.090042 0.076728 0.102826 -0.093759 -0.033160 -0.012317 0.051633 0.060980 -0.043588 0.008650 -0.021016 -0.016794 -0.192683 -0.370950 -0.082453 0.056904 -0.108116 -0.230495 0.196493 -0.203311 0.166647 0.029258 0.122630 -0.105044 0.112330 0.080209 0.067134 0.199614 0.189516 0.087392 0.138797 0.097608 -0.015971 -0.210296 0.013949 -0.071816 0.157302 -0.286150 -0.220699 0.030285 -0.210095 -0.331628 -0.065935 -0.015057 -0.033896 -0.184368 0.053964 0.076133 0.146624 -0.002581 0.367634 -0.259274 0.133923 0.098302 -0.132935 0.115377 0.117477 0.224267 -0.210159 0.109970 0.310378 -0.001079 0.156112 -0.103125 -0.114178 -0.083626 0.101484 0.094290 0.088557 0.201677 0.102017 0.065203 0.270102 0.059955 0.017420 0.050647 -0.336718 -0.091714 -0.050192 -0.087079 0.196479 -0.256346 -0.058185 0.021294 -0.001758 -0.054741 -0.052027
248 -0.134569 -0.044678 0.109860 0.092401 -0.020865 -0.108228 0.052897 0.238577 0.072750 -0.112009 -0.000170 0.237640 0.076410 -0.087305 -0.080209 -0.059302 -0.028256 0.113919 -0.028917 -0.008466 0.016030 0.109637 0.053048 0.176747 0.048361 0.263451 -0.222880 -0.029522 -0.128709 -0.163103 0.026894 -0.176549 -0.112542 -0.158360 0.084106 -0.128053 0.125659 -0.021795 0.043011 0.219021 0.009909 -0.259196 0.066997 -0.234514 0.147694 0.071864 -0.068317 -0.075474 0.163222 -0.074421 0.127741 -0.015236 -0.044360 0.169143 0.235011 -0.055006 -0.021586 0.037940 0.040016 0.308115 -0.113946 -0.044729 -0.158261 -0.069590 0.110961 0.118163 0.023052 -0.078213 0.111112 0.151869 0.124498 0.090259 0.016853 -0.321798 0.104476 -0.041643 -0.022045 0.128418 0.206540 -0.092673 0.240329 -0.112216 -0.317895 -0.067000 -0.006408 -0.053180 -0.191296 -0.024999 0.130105 0.034729 0.023018 0.426840 -0.154591 -0.022572 0.270277 -0.146894 0.077963 -0.084807 0.177618 -0.106311 -0.023763 0.261944 0.197393 -0.077988 0.161621 -0.049184 -0.099899 -0.040674 0.072292 0.065332 -0.065665 -0.069422 -0.122585 0.130529 0.010104 -0.084846 -0.252177 0.006135 -0.156721 0.069146 -0.191173 0.194051 -0.233994 -0.021257 -0.223958 0.142232 0.262324 0.250842
99 0.321739 0.073773 0.118758 -0.175626 0.070642 -0.164630 -0.260843 0.153775 0.073326 -0.234834 0.182962 0.083871 -0.109935 0.318883 0.009953 -0.041242 -0.071627 -0.069432 -0.085065 -0.047568 0.259008 -0.271482 0.117590 0.130384 -0.185550 -0.099756 0.283142 0.185943 -0.357350 0.142427 0.078655 -0.306256 -0.049328 -0.166705 -0.150729 0.084104 0.136298 -0.040068 0.009783 0.016551 -0.188335 -0.338942 -0.182333 0.176037 0.041111 -0.100608 -0.180232 0.120823 -0.020391 0.172120 -0.015324 0.140821 -0.109593 0.113665 0.013840 0.331998 0.254735 -0.016120 -0.121503 -0.075611 0.020983 0.087379 0.274536 0.195496 0.123233 0.007800 0.214411 -0.043945 0.368517 -0.112479 0.138758 -0.025404 0.130965 0.150559 -0.080070 0.013533 0.152283 -0.182080 -0.113689 -0.100783 -0.149694 0.059650 -0.093435 -0.217251 0.157410 0.011558 0.030150 0.060566 -0.085697 0.075307 -0.175644 0.086040 -0.061371 -0.039462 0.058954 0.078780 0.009293 0.153765 -0.062703 -0.158534 0.174672 -0.031478 -0.007004 -0.025340 0.253254 -0.011636 -0.068283 0.069213 0.041615 0.035725 0.113043 0.184186 -0.115380 0.099456 -0.005551 0.198828 0.002989 -0.139631 -0.178291 0.282727 0.151260 0.143626 -0.178956 -0.240300 -0.274701 0.108071 0.251120 0.069670
512 0.181832 -0.278845 0.003801 -0.255833 0.014318 0.118671 -0.054130 0.195743 0.130979 0.029147 0.234377 -0.169116 0.180493 0.122930 -0.025370 0.142881 0.111520 0.233596 0.001658 -0.109762 -0.038844 0.071508 -0.285291 0.198642 -0.052421 -0.021488 0.243350 -0.236673 -0.069879 0.067993 -0.203722 -0.239716 -0.041203 -0.115746 0.109415 0.033762 -0.021236 -0.391720 -0.230699 -0.053480 -0.160299 -0.101881 0.029255 -0.110012 0.127890 -0.232118 -0.245785 0.089821 0.053456 -0.006589 -0.042834 -0.029760 -0.027560 0.118829 0.198517 0.256299 0.053397 -0.096464 0.214903 -0.001396 0.086831 0.002276 0.037954 -0.019423 -0.007381 -0.052031 0.082110 -0.267781 0.205219 -0.087508 -0.140585 0.203242 0.036392 -0.092810 0.102764 0.045771 -0.177591 0.126064 -0.250163 -0.124801 -0.293938 -0.068116 -0.134898 -0.208636 -0.191186 -0.075862 -0.227824 -0.034361 -0.073064 0.095591 0.008394 0.013368 -0.041883 0.097554 -0.105858 0.127570 -0.002834 0.125672 0.075297 0.106223 -0.122206 0.018287 0.148987 0.222519 0.081763 -0.196908 0.076095 -0.038566 0.101639 -0.125138 0.012002 -0.026352 -0.204536 -0.147579 0.363665 0.158097 0.388323 -0.047497 -0.238035 0.065884 0.047025 0.012538 -0.089065 -0.022554 -0.052706 -0.140064 0.026765 0.015986
309 0.067016 -0.227402 0.047123 -0.202566 0.002818 0.105397 0.035223 0.268875 0.097817 0.168296 0.008214 -0.201227 0.189907 0.142910 -0.110296 0.435964 0.012492 0.128340 -0.063765 -0.050192 0.193767 -0.228980 -0.249729 0.102802 -0.006704 -0.029291 0.275406 -0.221863 -0.234745 0.105124 -0.048912 -0.133973 0.037793 -0.074712 0.007689 0.100512 -0.219440 -0.243372 -0.109745 0.040231 -0.160761 -0.239078 -0.128020 -0.213348 -0.002980 -0.241074 -0.080196 0.033298 -0.142297 0.167261 0.025549 0.026881 -0.097511 -0.021724 0.000430 0.278121 0.126548 -0.253215 0.049931 0.014611 0.058871 0.056215 -0.010396 0.035535 -0.049548 -0.069719 0.027548 -0.073865 0.199977 -0.183377 -0.100614 0.187235 -0.101998 0.048041 0.103099 -0.069548 -0.001562 0.013204 -0.396717 0.035996 -0.073410 -0.170584 0.008908 -0.073733 -0.163208 -0.174011 -0.131647 -0.068880 -0.082987 0.142390 -0.110003 -0.003517 0.056560 0.238760 -0.076089 0.055325 0.049838 0.147114 0.247658 0.212800 -0.234988 0.002016 0.087399 0.199369 0.173081 -0.167630 0.068972 -0.012803 0.082335 -0.086756 0.099970 -0.024381 -0.004937 0.050765 0.249993 0.087910 0.296825 -0.041624 -0.216519 0.041122 -0.026576 0.091628 -0.002122 0.008816 -0.177570 -0.055333 -0.151268 -0.110170
567 0.002135 0.108789 -0.217477 0.227554 -0.257825 0.048048 0.103192 0.003602 0.055325 0.218734 0.023556 0.072605 0.201307 -0.045094 0.039452 0.261503 0.019750 -0.054119 0.027299 -0.167791 0.040448 -0.155385 0.074768 0.237763 -0.047666 -0.324286 0.059818 -0.033902 -0.034691 0.131945 -0.089989 -0.317646 -0.131893 -0.078528 0.125600 0.039304 -0.274583 -0.214967 0.170600 0.048294 -0.007494 -0.019361 0.019723 -0.228196 -0.082243 -0.061069 0.135289 0.189357 -0.088922 0.141704 0.002282 -0.092563 0.133353 0.042271 -0.192917 0.176609 -0.104651 0.121811 0.047195 -0.054506 -0.118158 0.176608 0.004248 -0.025757 -0.111705 -0.031792 -0.137668 -0.496104 0.115242 -0.295099 -0.035492 -0.160883 0.034223 -0.110756 0.044534 -0.102973 0.176261 -0.251348 -0.175449 -0.295235 0.097944 0.003391 -0.071491 0.011389 0.175898 0.097479 0.034764 -0.157439 0.215868 -0.145108 -0.047405 -0.044855 0.042284 0.108427 -0.158372 -0.098616 -0.082515 0.125230 0.184686 -0.308078 0.017905 0.277299 0.101713 0.207614 -0.221549 -0.180566 0.054545 0.092818 -0.044229 -0.201663 -0.021029 -0.421509 0.036696 0.179991 0.025581 0.094046 0.081951 -0.033872 -0.154804 -0.133186 0.036328 0.031686 0.126067 0.346018 0.038651 -0.041770 -0.043882 -0.068698
544 0.111332 -0.064299 0.020972 0.126370 0.084560 -0.253668 -0.007389 0.219939 0.015327 0.004544 0.077911 -0.118570 0.057467 0.319980 -0.172569 -0.255187 -0.217960 0.078451 -0.114970 0.171581 -0.089992 -0.340856 -0.095173 0.214857 0.002362 0.145998 -0.016874 0.002270 -0.308152 -0.066413 0.201601 0.106649 -0.156632 -0.067185 -0.069515 0.049734 0.098888 0.098870 0.063861 -0.145707 -0.111781 0.017470 0.110644 -0.104632 0.119123 0.087212 -0.112543 0.013653 -0.001071 0.077287 0.242219 0.073357 -0.071587 0.046789 -0.241196 0.403446 -0.012703 -0.117590 0.009835 0.162586 0.047058 -0.064217 0.155297 0.131667 0.109043 -0.097021 0.163411 0.011894 0.306722 -0.045827 0.011879 0.068438 0.012993 -0.039249 0.028803 0.225813 0.140559 0.060705 -0.182212 -0.224742 0.329251 0.058529 0.112855 -0.144097 -0.059850 -0.022515 -0.136566 -0.229875 0.050328 -0.060933 0.052632 0.041489 0.268654 -0.071174 0.247080 0.155861 -0.127772 -0.148182 0.228933 -0.055636 0.003116 0.205270 -0.099853 0.098227 0.071862 0.053807 0.067925 -0.194373 -0.062650 -0.263337 0.118916 -0.147950 0.059289 0.111261 -0.044826 0.060642 0.167210 -0.121473 -0.143646 0.105672 0.074728 0.177315 -0.053197 -0.063255 -0.109354 0.225145 -0.186057 -0.055937
489 0.127349 -0.163687 -0.016361 -0.076681 0.129407 0.073333 -0.056414 0.131720 0.043876 -0.058167 0.223259 -0.197156 -0.028880 -0.098245 0.017527 0.176119 0.004239 0.028236 0.013117 -0.176207 -0.141076 -0.112587 0.124868 0.138342 0.194119 0.239223 0.042917 0.069955 0.045404 -0.033817 0.007387 -0.045835 -0.146935 -0.193274 0.177686 0.113300 -0.160556 -0.212690 0.159972 -0.109829 -0.135577 -0.122617 0.036987 -0.190016 -0.135055 -0.136971 -0.066301 0.316458 0.055821 0.169616 0.088819 -0.053267 -0.022563 0.100109 0.141826 0.140886 0.007755 -0.043646 0.217269 0.012468 0.215378 0.012177 0.051189 0.103340 -0.135997 0.129611 0.042278 -0.223966 0.358452 0.102612 -0.004485 0.149897 -0.051112 -0.113390 -0.007778 -0.022552 -0.064746 0.056415 -0.404986 -0.082208 0.091864 -0.227445 0.056660 -0.259126 -0.003403 0.007852 -0.132854 -0.168892 -0.051407 0.081834 -0.252904 0.117751 -0.007238 0.065553 -0.391194 -0.007715 0.138096 0.150333 0.144538 -0.211590 -0.143884 0.364180 0.072190 0.015417 0.036779 -0.127876 -0.017744 0.117401 0.135846 -0.248834 0.149585 0.017511 0.077925 -0.094678 0.121136 0.142318 0.110300 0.013619 -0.016234 0.190523 0.199634 0.205915 -0.173395 0.098810 -0.071684 -0.159572 -0.218839 -0.080114
375 -0.104062 0.122790 -0.336881 -0.101964 0.165269 -0.102231 -0.029654 -0.118982 0.059760 -0.040138 0.301947 0.141589 -0.257869 -0.276211 0.139614 0.188819 -0.012523 -0.177042 -0.005695 -0.282706 -0.055602 -0.140747 -0.107463 0.009474 0.058632 0.042966 -0.225735 0.194651 -0.250814 0.081271 -0.058997 -0.237781 0.146817 -0.259090 0.071329 -0.119276 0.201330 0.070815 -0.003365 0.210018 -0.020220 -0.098196 0.161057 0.083083 -0.069667 0.159191 0.200679 -0.000571 -0.028198 0.087205 -0.186681 0.273383 -0.256179 0.260031 -0.008526 -0.091114 0.325923 0.072140 0.104663 -0.145019 0.147566 0.033912 0.241016 0.181265 0.086059 -0.174252 0.000481 -0.049031 0.114873 -0.181447 0.133228 -0.008336 0.247076 -0.190987 -0.088929 0.043285 0.140146 -0.210620 -0.014614 -0.034621 0.124051 -0.080115 0.157310 -0.038928 0.167134 0.127333 -0.126804 -0.219757 -0.137983 0.190054 -0.088897 0.037148 -0.039595 -0.072779 0.214140 0.105703 -0.046517 0.028152 0.094179 0.043198 0.301238 0.015441 -0.030644 -0.121559 -0.204319 -0.077024 -0.056438 -0.033863 0.063200 -0.165178 0.033598 -0.115703 0.014302 0.091331 -0.076730 0.053882 0.181008 -0.213742 -0.398573 0.058640 -0.064038 -0.137534 0.070312 -0.011881 -0.070235 -0.164094 -0.073697 0.163339
151 -0.074184 0.168696 0.037796 0.134112 -0.028077 0.251976 -0.000554 0.049812 0.092516 0.132938 -0.127137 0.270810 -0.095914 -0.118974 -0.046022 0.028826 -0.103202 -0.025558 -0.102732 0.068926 0.222871 -0.356812 0.162909 0.105012 0.125864 -0.101871 -0.135945 -0.006000 0.030775 -0.195762 0.111954 -0.078357 0.049668 -0.146792 0.215712 0.285021 -0.005693 -0.092686 -0.104238 0.123571 -0.108026 -0.199465 -0.003255 -0.190084 0.290805 -0.055539 0.074463 0.016226 -0.169472 0.181479 -0.113487 -0.081324 -0.032763 0.065253 -0.116731 0.069080 0.223752 0.007333 0.323482 -0.074768 0.146063 -0.288788 -0.144183 -0.015592 0.252732 -0.206597 -0.022893 -0.272255 -0.214989 0.096885 0.089487 -0.115490 0.254865 0.087871 0.104215 0.152786 -0.282252 -0.166582 -0.037883 -0.039207 -0.089850 0.046597 -0.013205 0.015095 0.051789 0.229374 -0.077764 -0.282200 -0.065061 0.110481 -0.027934 0.160088 0.014647 0.012945 0.110320 -0.075325 -0.007866 0.118910 0.092732 0.240822 -0.164215 0.454710 -0.066562 -0.048312 0.044582 -0.109488 0.049367 -0.041495 0.100943 0.018156 -0.087445 -0.036809 0.093251 -0.138842 -0.048132 0.109367 -0.051224 -0.141159 -0.076288 0.073756 -0.053431 -0.137168 0.308927 0.114486 0.030156 0.266423 -0.003522 0.013038
106 0.161389 -0.027806 0.133577 0.127872 0.232011 0.057977 -0.049277 0.223353 0.031538 0.009763 0.225353 0.003783 -0.030849 0.197797 -0.000219 0.035414 -0.161441 0.080704 -0.030045 0.041797 -0.094373 -0.185889 0.074328 0.126235 0.283291 0.088152 -0.252910 0.070560 -0.040678 0.011393 0.091886 0.087838 0.042965 -0.061589 -0.148634 0.097553 0.122801 -0.171119 -0.211386 -0.014258 -0.064968 -0.035331 -0.060807 0.306636 0.159190 -0.022847 -0.219686 -0.062117 0.092295 -0.251561 0.225101 -0.077928 -0.284941 0.086677 -0.096012 0.144359 -0.167889 -0.043636 -0.220887 0.086826 -0.164657 0.001571 0.242352 -0.129107 0.049331 -0.147142 0.241511 -0.164766 0.166643 -0.160666 0.060821 0.241782 0.026411 -0.020549 -0.329092 -0.008026 -0.117470 0.215539 0.045801 -0.078653 -0.127565 -0.165782 -0.005813 -0.096473 0.100018 0.206020 -0.202682 0.193743 0.118663 -0.044914 -0.021556 -0.076758 0.301134 0.293275 0.221844 0.089807 -0.150640 0.143800 0.085141 0.024601 -0.052077 -0.047207 0.066807 0.239825 -0.043329 0.075609 -0.243275 -0.050460 -0.034323 -0.275442 0.178836 -0.022171 0.064774 0.179889 -0.116374 -0.131617 -0.475840 0.239052 -0.102964 0.051271 0.231204 -0.216512 0.121997 -0.193456 -0.158149 0.189446 -0.012288 0.020882
153 0.215694 -0.058826 0.126855 -0.040317 -0.116050 -0.013960 0.146827 0.024034 0.095312 -0.092552 0.016465 0.086079 0.019918 0.024419 0.109235 0.334769 -0.080946 -0.099573 0.259733 -0.128263 -0.194198 -0.210323 0.010374 0.101671 0.155081 0.050116 -0.152563 0.066706 0.061132 0.091614 0.016181 0.031125 0.227557 -0.401705 -0.153387 0.082037 0.039162 -0.106883 -0.110237 0.155390 0.119373 -0.158982 -0.178149 -0.095681 -0.030398 0.039993 0.118698 0.184952 0.215492 0.013456 0.009895 -0.019571 -0.013060 0.125648 0.081184 0.135885 0.024933 0.021355 0.120258 0.118652 0.106847 0.168338 0.068002 0.114596 -0.126043 0.086836 -0.036107 -0.331269 0.072351 0.165480 -0.130011 -0.095438 0.121807 0.041774 -0.176466 0.078082 0.159092 0.158696 -0.110668 -0.080449 0.119158 -0.115860 0.107624 0.019996 0.096310 0.267852 -0.564780 -0.076293 0.206974 -0.108539 -0.119743 0.101808 -0.010090 0.037127 -0.113539 0.029703 0.102416 0.095320 0.100759 -0.181051 0.021034 0.246849 0.083778 0.150051 0.115123 -0.086964 -0.126381 -0.028286 -0.087175 -0.145872 0.179099 -0.158585 0.185160 0.070576 0.092294 0.183371 0.080642 0.138616 0.075860 0.184897 0.318973 0.143636 -0.208070 0.199929 -0.128439 -0.080351 0.010585 -0.070617
253 -0.018531 0.036508 0.058956 -0.048257 0.384259 -0.135196 -0.055083 -0.024096 -0.025726 -0.098455 -0.058947 0.113624 -0.125448 -0.166216 0.156668 0.047986 -0.098687 -0.076569 0.040633 0.006217 0.097660 -0.006594 -0.138955 -0.084760 -0.021327 -0.004018 -0.118169 0.200303 0.031510 0.064198 0.182483 0.065278 -0.034850 -0.395116 -0.057590 0.103406 0.087430 0.054600 -0.046446 -0.048165 0.066559 -0.174185 -0.175257 0.021882 -0.034613 -0.096485 -0.173005 0.088063 0.066675 -0.143897 -0.047109 0.267199 -0.261726 0.174106 -0.049179 0.098592 0.223395 0.024539 0.134685 -0.235598 -0.110628 0.133348 0.265615 -0.107086 0.206048 0.152338 0.230304 0.040503 0.204918 0.019621 0.071108 -0.109982 0.349640 -0.141979 -0.137637 0.037097 0.038663 -0.035429 -0.133045 -0.198641 0.016064 -0.256218 0.071039 -0.031054 -0.000448 -0.105148 -0.123264 0.210010 0.068169 0.066221 0.021233 0.278207 -0.041529 0.052016 -0.049864 0.011386 0.147748 0.139854 0.349687 -0.031775 0.281764 -0.093183 -0.099910 -0.014206 0.137525 0.051531 0.194102 0.269745 -0.070334 -0.126877 -0.046335 -0.071446 -0.130202 0.126587 -0.051360 0.223594 0.166768 -0.147638 -0.128858 0.310833 -0.020739 -0.068796 0.046251 -0.080922 -0.069871 0.064683 0.134339 -0.157222
112 -0.126466 -0.054885 0.013292 0.108226 0.052589 0.157609 0.061143 0.178689 -0.109971 -0.245120 -0.052183 0.088284 0.129459 -0.102701 -0.058711 0.106198 0.009289 -0.051862 0.331708 -0.178033 0.195782 -0.047192 -0.179973 0.126160 0.002810 -0.168395 -0.074478 -0.095780 -0.066723 -0.062027 0.133340 -0.256285 0.016595 -0.045326 -0.033365 0.203127 -0.367625 -0.026043 0.209644 0.231025 -0.069505 0.211590 0.026525 0.015392 0.090343 -0.342957 -0.035738 -0.043244 -0.082019 0.036859 -0.095741 0.211209 -0.117007 -0.059386 0.064908 0.181643 0.156892 -0.264222 0.137509 0.175139 0.122976 0.190808 0.044857 0.244453 -0.057602 -0.090084 -0.156752 -0.371273 0.072288 0.012167 0.056761 0.041344 0.260215 -0.107015 0.057530 -0.013509 0.127040 0.149439 -0.328087 -0.234301 -0.164882 -0.048905 -0.286271 0.187628 0.159516 0.305000 -0.061814 0.059371 0.189560 0.024477 0.248268 0.183345 0.049709 -0.060172 -0.088537 0.163105 0.084793 0.057721 0.229129 -0.141160 -0.000618 0.101187 -0.135431 -0.133139 -0.084112 -0.063834 -0.036307 0.073979 0.113377 0.004536 0.157110 -0.131978 -0.096680 0.132587 0.083437 0.138925 0.210804 -0.153023 -0.008255 0.107109 0.233612 -0.058509 -0.118591 -0.028781 0.345186 0.001696 -0.021062 -0.170784
397 -0.024044 -0.282348 -0.193092 -0.083952 0.079905 0.078790 0.088971 0.158388 -0.135013 0.103409 0.053057 -0.104999 0.065686 0.025191 -0.241817 0.123452 0.082310 0.003537 -0.055665 -0.155958 0.334895 -0.251915 0.093288 -0.135281 0.013055 0.190303 -0.027846 0.043646 0.033105 -0.131898 -0.153766 -0.160036 -0.097441 0.068908 0.028368 0.128988 0.071147 -0.117270 -0.079292 0.282506 0.190099 -0.042069 0.198345 0.016871 0.279229 -0.160375 0.091714 -0.059999 0.093293 0.205724 -0.123847 -0.029604 -0.006489 -0.005842 -0.008892 0.295816 0.186533 -0.071978 -0.048747 -0.030271 0.000538 -0.057426 -0.101864 -0.207859 0.047758 0.239563 -0.127636 -0.195788 0.317230 0.191407 -0.045550 0.011536 0.087915 -0.424707 -0.072745 -0.298669 0.008918 0.031928 -0.211293 0.042773 -0.122077 -0.142532 0.110188 0.097485 -0.072637 0.090027 0.051939 0.060011 -0.193909 0.126337 -0.053635 0.194563 -0.151013 0.078102 0.035748 -0.315490 0.155010 0.084314 0.177187 0.118362 -0.202791 -0.029251 -0.010755 0.259715 0.110752 0.006862 0.206507 0.133360 0.020320 0.017509 0.425649 -0.231995 0.012892 0.007054 -0.035486 0.185418 -0.065599 -0.193890 0.048982 0.122129 -0.055641 0.013760 -0.048489 -0.034491 0.245362 -0.032137 -0.100775 -0.044107
36 -0.025956 -0.083857 0.172456 0.065035 0.136096 -0.173021 -0.150449 -0.129651 -0.143466 0.072672 0.131907 0.056246 -0.283366 0.037279 0.208385 -0.082947 0.049456 -0.206392 -0.261717 -0.240837 -0.125956 -0.027108 -0.030293 0.013407 0.043861 -0.130157 0.134218 -0.030490 -0.137940 0.122091 0.081802 -0.148874 -0.009019 -0.101375 0.188258 -0.030272 0.096760 -0.045770 -0.034897 0.138531 -0.209158 -0.269291 0.137735 0.136334 0.053220 0.080186 0.118091 0.232889 -0.037000 -0.131732 -0.287836 0.062682 -0.407647 0.019632 -0.060307 0.014579 0.133565 0.141177 0.123484 -0.162817 -0.088221 0.407608 0.117240 0.062280 0.051536 0.216613 -0.093229 0.122273 -0.126350 -0.080224 0.150972 0.116445 0.419635 -0.120491 -0.107712 -0.021096 -0.111904 -0.139390 0.167128 -0.062890 0.012306 -0.001733 -0.223697 -0.290292 0.031762 0.210357 -0.026086 -0.005939 -0.088653 0.030576 0.015275 0.027173 -0.181084 0.007694 0.014151 0.263495 0.137612 0.096390 0.079576 0.132300 0.201102 0.080404 -0.016275 -0.092617 -0.016264 -0.017653 0.066952 0.165348 0.169416 -0.113681 0.123804 -0.102346 0.020228 0.229045 -0.165012 0.125883 0.177698 -0.270315 -0.147398 0.208227 -0.122858 -0.147935 -0.069736 0.139022 -0.151071 0.096930 -0.081321 0.054034
459 0.132051 -0.319243 0.116049 0.056586 -0.032470 -0.078514 -0.029909 0.074382 0.188339 0.107440 0.187733 -0.213566 0.159546 0.154633 0.011639 -0.020558 0.022299 0.237141 -0.090475 -0.063545 0.091942 -0.163115 0.071936 0.164343 0.120700 -0.240603 0.041904 0.085918 -0.338383 0.144344 0.305033 0.103758 -0.288406 -0.034469 0.025758 0.093345 -0.038597 -0.018321 0.252364 -0.029012 -0.058717 -0.267868 -0.086745 0.232474 0.161203 -0.009964 0.068758 0.084877 -0.066798 -0.095029 0.349074 -0.307028 -0.131164 0.058918 -0.288152 0.277057 0.183699 -0.085113 0.144866 0.165834 0.042137 0.041989 0.201988 -0.076841 -0.118921 -0.117820 -0.071306 -0.032357 0.115150 -0.170580 0.182799 -0.107414 -0.026392 -0.141170 -0.208064 0.050981 -0.101659 -0.015073 0.031238 0.203275 0.052846 0.188086 -0.100786 -0.289659 -0.116698 0.192779 -0.124164 -0.216662 0.100520 -0.022011 0.231788 -0.050612 0.047055 0.116181 0.217169 -0.121607 0.044193 -0.173319 0.107614 0.201251 0.216825 0.079767 0.076998 0.152741 -0.095181 -0.185845 -0.074088 -0.043167 0.178877 -0.284701 -0.117235 -0.077149 0.233493 0.098824 -0.015884 0.281323 0.109884 -0.249865 -0.198510 0.168863 -0.037342 0.063943 0.231283 -0.215390 -0.002011 -0.048590 0.041522 0.039944
508 0.209734 0.017487 -0.066498 0.045324 0.102623 0.067087 0.150896 0.255501 0.183791 0.128062 0.396309 0.132771 0.041620 -0.056444 -0.107067 0.025356 0.178554 0.063243 -0.070160 0.205974 -0.050610 -0.089850 0.198745 0.281326 0.251096 0.113924 -0.205235 0.154345 -0.089590 0.253386 0.072682 0.133654 0.141413 0.069315 0.228148 0.005486 0.133738 -0.317252 -0.303303 -0.044284 -0.125027 0.033363 0.100426 0.318472 -0.036446 -0.153537 -0.009420 -0.038419 0.245800 -0.292685 0.293499 -0.081772 -0.149296 -0.083548 -0.094924 0.398567 -0.067581 -0.100947 -0.150032 -0.029505 -0.063823 0.086627 0.188649 -0.146790 -0.244944 0.088285 0.097473 0.033900 0.038244 0.008583 0.185830 0.111054 0.005786 0.001850 -0.239947 -0.119094 0.018648 0.056071 0.038770 0.141009 0.072959 -0.108066 0.039562 0.034603 -0.102207 0.107463 -0.248646 0.270759 0.041458 0.320939 -0.028266 0.055267 0.321755 0.099611 0.162656 0.029411 -0.137554 -0.153266 0.362204 -0.021975 -0.131971 -0.042868 0.027999 0.228212 0.230043 -0.031067 -0.072425 0.050232 0.059447 -0.082241 -0.022570 -0.105235 -0.049035 0.145935 -0.011067 -0.077034 -0.218389 0.067787 0.025002 -0.018606 -0.095219 0.088653 0.055845 -0.111072 -0.346499 0.323220 0.141030 0.265105
346 0.036636 -0.258250 0.075600 -0.128700 0.162709 0.125683 -0.153361 0.016501 -0.251285 0.058088 0.302832 -0.204587 0.045108 -0.008511 -0.125441 0.223473 0.212488 0.225268 -0.126169 -0.149611 0.014851 -0.076692 0.258247 0.054137 -0.174031 0.158278 -0.033141 -0.111016 -0.237973 -0.101442 -0.072715 -0.067878 -0.167411 0.069990 -0.076393 0.298960 -0.189063 -0.233317 -0.073865 -0.015646 0.077404 -0.227474 0.028798 0.041894 0.103359 0.017361 0.033327 -0.097695 -0.223260 0.160106 0.068674 0.007834 -0.080789 0.105607 -0.079948 0.349163 0.083297 -0.322257 -0.130601 -0.057073 -0.041916 0.177562 -0.151856 -0.210469 0.084587 0.016641 -0.091068 -0.169578 0.432025 0.238089 0.026111 0.000872 0.152670 -0.180603 0.055523 -0.068123 -0.026146 -0.207393 -0.141927 0.105962 0.100934 0.032790 0.209888 0.036713 -0.048421 0.173039 -0.091789 -0.035669 0.066869 0.066694 -0.061971 0.143597 -0.119983 0.253900 0.202305 -0.376390 0.123675 -0.071857 0.077482 0.114085 -0.040064 0.197845 -0.095895 -0.033046 0.041737 0.003544 0.160549 -0.120606 -0.040473 0.094429 0.120387 0.199720 0.028398 0.105684 0.128546 0.063780 -0.161465 -0.407297 0.054032 0.119947 -0.060980 0.092047 0.009583 0.134195 -0.079369 -0.079057 -0.373902 0.021203
57 -0.061129 0.049317 0.153858 0.102069 -0.075763 -0.108291 -0.003972 0.040456 0.093610 -0.085540 0.126571 0.123150 -0.167034 -0.042367 0.152844 0.063862 0.103403 0.158352 -0.143380 0.124753 -0.078863 0.067279 -0.011955 -0.075351 0.138898 0.032015 0.170353 0.190509 -0.061913 0.072563 0.278791 -0.194262 -0.051517 -0.240459 0.039153 0.118520 -0.231783 -0.077795 0.116861 0.383543 0.083108 -0.178505 0.009342 0.280447 0.096380 0.058710 -0.184343 0.044397 0.049287 0.055349 -0.238153 0.072606 -0.216652 0.098474 -0.063507 0.062269 0.166314 0.091108 0.049005 -0.088562 0.057016 0.318682 0.040993 0.147292 -0.047584 -0.004497 0.086965 0.043243 0.311907 0.078432 0.343649 -0.012067 0.296662 -0.001747 -0.072582 -0.103405 0.217916 -0.046776 -0.157071 -0.188201 -0.085935 -0.146830 -0.406723 -0.123294 0.066119 -0.078200 0.006426 0.217394 0.017883 0.052517 0.054904 0.316499 -0.318670 -0.154046 -0.016242 0.135122 0.035484 -0.013705 0.142364 -0.212773 0.322450 0.037115 0.083428 0.119585 0.160274 0.122006 0.077433 0.204515 0.090377 0.020618 -0.142002 0.090054 -0.159639 0.162760 -0.053655 -0.000101 0.118841 -0.138176 -0.005683 0.147051 0.014466 0.219795 0.107958 -0.021175 0.011573 0.114569 0.137992 -0.197292
110 -0.054620 -0.125436 0.135543 -0.177306 -0.006829 0.068797 -0.078633 0.051819 -0.090728 -0.003419 0.277179 -0.174383 0.112350 0.003160 0.082056 0.191675 -0.051856 0.186625 -0.059896 -0.089690 -0.099662 -0.135344 -0.079283 0.104413 -0.091402 0.119272 0.221029 0.020615 -0.155418 0.162322 -0.213392 0.012451 -0.061168 -0.138440 -0.076508 0.210099 -0.261354 -0.216141 0.012026 0.113325 -0.151423 -0.306174 -0.030057 -0.057829 -0.216802 -0.142777 -0.282183 -0.052638 -0.074190 0.259682 -0.049959 -0.092349 -0.071499 0.248312 -0.023023 0.429021 -0.002692 -0.212568 0.092642 0.172151 -0.159602 -0.036009 -0.009393 0.080096 0.051473 0.036600 0.189897 -0.150116 0.206197 0.114710 0.036186 0.069821 -0.077124 -0.117086 0.134859 -0.219319 -0.022039 0.020950 -0.277078 -0.151835 -0.188892 -0.068927 -0.049765 -0.081629 0.091893 -0.170695 -0.087672 0.050618 -0.074907 0.081566 -0.040520 0.105496 0.159183 0.187261 -0.095033 -0.083496 0.059292 -0.163909 0.140627 -0.061630 -0.239850 0.004161 0.102633 0.125932 0.196336 -0.004850 0.070400 0.028870 0.048359 -0.125506 0.063362 0.020433 -0.112759 -0.119673 0.167339 0.266641 0.154070 -0.077281 -0.012047 -0.007688 0.062061 0.029801 -0.000605 0.018834 -0.240651 0.087209 -0.038710 0.039729
76 0.294087 -0.032686 -0.022637 -0.154209 -0.326443 0.016775 -0.022496 0.020018 0.092635 -0.047446 -0.023137 -0.081998 0.299194 -0.297785 -0.024039 0.204258 -0.140505 0.151984 0.207559 -0.171662 -0.085093 -0.179419 -0.129665 0.088549 -0.060340 0.057867 -0.153332 0.105567 -0.062428 0.121548 0.181649 -0.286573 0.251575 -0.042437 0.071147 0.058636 -0.106917 -0.124874 -0.068846 0.138713 0.200242 -0.377658 0.317684 -0.097414 -0.023951 -0.124109 -0.191225 -0.125391 0.034448 0.050267 -0.172582 0.002906 -0.067974 -0.129060 0.206557 0.366825 0.141496 -0.036244 0.016094 0.123390 -0.077470 -0.239556 -0.117113 0.116583 0.068261 0.096381 -0.110549 -0.107699 0.132009 -0.093664 -0.216748 0.180119 -0.073805 -0.328540 0.047595 0.027138 0.021348 0.110313 -0.174840 -0.292825 0.020512 -0.157522 0.030073 0.061021 -0.034334 -0.104046 0.064411 -0.265748 -0.103433 -0.025612 -0.269309 0.084282 -0.094929 0.165228 0.108244 -0.052561 0.112065 -0.083949 0.248995 0.025072 -0.010709 0.169314 0.236017 0.289242 0.132729 -0.249572 0.071484 0.295712 0.021342 -0.152324 0.017035 0.168734 0.105148 0.094303 0.262110 -0.008129 -0.033748 -0.064737 0.025552 0.252360 0.079844 0.078326 0.068921 -0.073569 0.111647 -0.060900 -0.178177 -0.009192
31 0.222425 -0.308529 0.034391 0.023582 0.295022 0.154403 0.182766 0.125423 0.368554 -0.138865 0.038230 -0.005782 -0.151905 -0.067175 0.063933 0.022616 0.353794 0.040842 -0.067968 0.036546 -0.264096 -0.047112 0.169825 0.087719 0.133520 0.208597 -0.015082 0.051340 -0.091399 0.021565 0.147560 0.019278 -0.195887 -0.200007 0.230728 -0.178140 0.161775 -0.025992 0.015717 0.121144 -0.161751 0.031992 0.098588 0.172209 -0.028010 0.013522 0.076249 -0.050643 -0.011775 -0.021907 0.262049 -0.077364 -0.210649 -0.192011 0.065175 0.061191 0.079690 0.044434 0.058296 0.052294 -0.061690 0.278602 0.181316 -0.060649 -0.155409 -0.019688 -0.066887 -0.581626 0.000553 -0.038571 -0.023930 0.020016 0.019026 -0.148983 -0.336342 -0.093288 0.015390 -0.080050 0.197439 -0.051795 0.040077 0.117157 -0.238932 -0.062243 0.046313 0.190098 -0.214052 0.069957 0.086985 -0.146707 0.225861 0.384302 0.062719 0.093008 0.294161 0.011881 0.089388 0.066805 -0.055737 0.064856 -0.241759 0.316125 0.021971 0.078732 -0.164150 0.109965 -0.232445 -0.149189 -0.188714 0.279571 -0.026408 -0.322535 -0.051861 0.024840 0.171972 -0.006582 0.144334 0.230939 -0.009596 0.028259 -0.242940 0.056654 0.085534 0.051493 -0.191777 0.264395 0.144867 0.304780
284 -0.232235 -0.008648 -0.073499 -0.110924 0.232745 0.146532 0.008616 0.087170 -0.033442 -0.052367 -0.229341 -0.219243 0.078680 0.017673 -0.165679 0.085190 -0.079547 -0.072645 0.251222 -0.044452 -0.070630 -0.042809 -0.125008 -0.027951 0.166609 -0.025006 0.168428 -0.037174 -0.156977 -0.370154 0.200380 -0.298976 0.032014 0.022471 -0.099330 0.033272 -0.177042 -0.236928 0.015913 0.076545 0.018198 -0.002758 0.092877 -0.180454 0.080334 -0.010531 -0.035719 0.070924 0.108060 0.062760 -0.134248 0.039178 -0.114153 0.131123 -0.161359 0.398959 0.182274 -0.096328 0.052743 -0.048266 -0.035255 -0.080569 0.195388 -0.013553 -0.001913 0.117947 -0.112124 -0.146873 0.165746 -0.018814 0.019138 -0.154820 0.155882 -0.047766 0.083103 0.081706 -0.121706 -0.045308 -0.364877 -0.141045 -0.124152 -0.205797 -0.038833 0.128576 0.020034 -0.127253 0.009142 0.198645 -0.030945 0.031875 -0.129513 0.046995 -0.007033 0.274996 0.008110 -0.013584 -0.012406 -0.055370 0.259646 0.091950 -0.188106 0.281299 -0.258537 -0.202191 0.300452 -0.116910 0.029604 0.245582 -0.047312 -0.116499 0.089940 0.106782 0.066260 -0.013303 0.148166 0.045841 -0.059687 -0.125978 -0.119570 0.073133 0.116582 0.045780 -0.293717 -0.089823 0.057658 0.048888 -0.190286 -0.063422
578 -0.058524 0.269180 -0.058135 -0.140654 -0.020710 -0.291855 -0.020133 0.062685 0.111838 -0.240625 0.168188 0.024530 -0.243692 -0.093580 0.179538 0.086817 -0.108731 0.111494 -0.276386 -0.090573 -0.207118 -0.071342 -0.052765 -0.163802 0.120003 -0.016591 -0.041897 0.299848 -0.015355 0.197233 0.093040 -0.059337 -0.202212 -0.155859 0.064877 0.062802 -0.110038 -0.091022 0.305027 -0.015020 0.013840 -0.169633 0.044346 0.104313 0.030627 0.132649 -0.258040 -0.154449 0.080515 -0.129435 -0.369936 0.363600 -0.449830 0.185226 -0.050416 0.110833 0.380928 0.228622 -0.012114 0.064857 0.070191 0.236257 0.122757 -0.024827 0.057739 -0.049044 0.060474 -0.078763 -0.012674 0.168128 0.123532 0.037579 0.247214 0.119935 -0.063003 -0.060606 0.097467 -0.009610 -0.123994 -0.138768 -0.045724 -0.082433 0.070237 -0.024044 0.137439 -0.186913 0.077797 0.059932 -0.010638 -0.026260 -0.209549 0.347337 -0.188298 0.143054 -0.032585 -0.096869 -0.001243 0.060556 0.099817 -0.125907 0.283320 -0.116799 -0.022384 0.023532 0.158084 -0.033588 -0.056240 0.149667 0.034326 -0.117328 0.073175 -0.032414 -0.093694 0.203358 0.098986 0.074311 0.282101 0.002721 -0.013418 0.136325 0.197312 0.072240 -0.084407 0.022215 -0.032945 -0.037847 -0.013876 -0.130262
125 0.077408 -0.200439 -0.085457 0.073041 0.121210 -0.067121 -0.125917 0.248650 0.129364 0.207327 -0.004758 0.019298 0.041291 -0.013467 -0.047569 -0.125533 0.113744 -0.082426 -0.133643 -0.249505 0.022895 -0.138565 -0.073183 0.170991 0.157292 -0.097261 -0.120076 -0.075963 -0.074779 0.147343 0.166051 -0.022702 -0.183535 -0.026893 0.009439 -0.122103 0.003679 -0.039913 -0.215368 0.061065 -0.108945 0.015351 -0.182217 0.216327 0.105461 -0.004852 0.019568 -0.026265 0.033232 -0.016513 0.097917 -0.008731 0.000773 -0.033803 0.112078 0.205537 -0.069106 0.036644 -0.117378 0.151444 -0.139511 0.215917 0.266260 -0.134994 0.213688 -0.168105 0.190283 -0.167118 0.072185 0.184604 0.048194 0.036579 -0.106559 0.006422 -0.188966 0.005950 -0.086005 0.099364 0.335786 -0.150081 -0.073042 -0.080294 0.091679 -0.033687 0.076560 0.013248 -0.242984 0.026517 0.007936 0.092574 -0.091178 -0.066660 0.334555 0.114219 0.229638 0.035423 -0.419257 0.065307 0.094486 -0.049198 0.094524 -0.068073 -0.000264 0.010613 0.198356 0.021218 -0.332211 -0.087515 -0.335582 -0.176460 0.167335 -0.169204 0.030994 0.189630 -0.014760 0.064120 -0.015184 0.022249 0.071649 -0.012686 0.172420 -0.315103 0.048447 -0.465367 -0.093025 0.370604 -0.139652 0.175285
348 0.186297 -0.048122 -0.244636 0.147393 0.003150 -0.145788 0.158270 0.134088 0.058535 -0.119971 -0.028097 0.157413 0.012083 0.240454 -0.017759 0.215922 -0.115772 0.172727 -0.010138 -0.099919 0.133757 0.049539 0.190575 0.207947 -0.025597 -0.086415 0.012379 -0.177721 -0.118485 -0.121603 0.077452 -0.089572 0.038667 -0.152315 0.273760 0.270614 -0.041428 -0.260087 -0.092171 0.092916 -0.067437 -0.220116 -0.030460 -0.105629 0.190006 -0.043463 0.069605 0.061663 -0.243890 -0.126669 0.099750 0.077327 0.112061 -0.144049 -0.030090 0.075864 0.151379 0.179053 0.188949 -0.005170 -0.149258 -0.080845 -0.094576 0.026236 0.084608 0.149758 -0.179996 -0.258811 -0.132200 0.147432 -0.103418 0.055561 0.115287 0.088790 -0.094529 -0.033315 0.171934 0.147816 -0.263625 0.079073 -0.119973 -0.113677 0.009212 -0.061290 -0.263423 0.148364 -0.109261 -0.254575 -0.013835 -0.028030 0.182553 -0.105295 0.045355 0.238557 -0.004838 0.140275 -0.194135 -0.015867 0.247780 -0.074634 0.177295 0.125441 0.280243 -0.074479 -0.139796 0.075325 0.036007 0.134996 -0.033755 -0.194349 -0.097128 -0.084917 -0.087078 0.002953 -0.123119 -0.010021 0.151143 -0.008751 -0.140830 0.050737 -0.177987 0.039018 -0.003925 0.153224 -0.111291 0.217298 -0.156128 -0.058105
49 0.059000 0.022926 0.138686 0.047893 -0.103608 -0.221331 -0.269983 0.055380 0.086258 -0.235284 -0.050460 -0.001995 -0.304208 -0.348302 0.103952 -0.008266 -0.037053 -0.206345 -0.272746 0.080973 -0.046146 -0.202161 -0.163437 -0.045721 0.073115 -0.010579 0.033231 0.123394 0.024656 0.216970 -0.091881 -0.287699 -0.083442 -0.102679 0.052279 0.091397 -0.048846 -0.142296 -0.066960 -0.044284 -0.180737 -0.327580 -0.016638 0.042753 -0.004572 -0.077450 -0.156458 0.248225 -0.072566 -0.110052 -0.256495 0.233483 -0.171447 0.377254 -0.043030 0.072977 0.053680 0.026994 0.099074 -0.109585 -0.120199 0.171043 0.173374 -0.121057 -0.103132 -0.095540 0.027724 0.160124 0.074901 0.113270 0.224305 0.046324 0.521203 -0.031992 -0.187987 0.133550 0.066914 0.033097 0.074132 -0.133862 -0.046104 -0.021731 -0.189354 -0.208282 -0.002729 -0.111632 -0.119145 0.137877 0.021395 0.069797 -0.107934 0.030234 -0.197091 -0.029685 0.230840 -0.092415 0.205713 0.040185 0.389233 0.076034 0.044418 -0.054862 -0.117833 -0.051561 0.104826 0.174104 0.051039 0.312812 0.060659 -0.257866 0.031907 0.124846 -0.028682 0.067203 0.093599 0.035797 0.179781 -0.010166 -0.106682 0.387991 -0.225480 -0.111820 -0.084561 0.103465 0.085608 0.130351 0.199031 -0.029665
446 0.050257 0.135600 -0.193903 -0.094283 -0.042630 -0.070862 0.020914 0.034682 0.097208 -0.097189 -0.080517 -0.019482 0.154157 -0.034644 -0.123920 0.234061 0.076777 -0.039696 -0.015765 -0.259017 -0.225208 -0.286049 0.230292 0.101045 0.037687 -0.110527 0.006927 0.163484 -0.157658 0.003022 -0.064827 -0.114374 0.141927 -0.101452 0.073321 0.315840 -0.077059 0.038422 -0.147265 0.051993 -0.012566 -0.041775 0.059242 -0.081228 0.045332 -0.144243 0.368739 -0.014628 -0.189247 0.037302 0.024215 -0.293487 -0.036444 0.009917 0.005220 0.036555 0.148473 -0.071527 0.286759 0.097708 0.099299 0.077359 0.048907 -0.313135 -0.208038 -0.075485 -0.056238 -0.501420 -0.046865 0.107548 -0.154143 0.205142 0.083657 0.158515 -0.165075 -0.085229 -0.059311 -0.078123 -0.231407 -0.056856 -0.036381 -0.000847 -0.087502 0.004739 -0.316362 -0.090503 -0.264244 -0.122380 -0.102449 0.240511 -0.006427 0.138047 0.089312 0.061029 0.135114 0.070963 -0.079598 -0.037666 0.221921 -0.121941 0.301909 0.234784 0.044743 0.168097 -0.169799 0.107072 -0.181695 -0.011578 0.009665 -0.277952 0.033207 -0.071813 0.066240 -0.068333 0.202127 0.280194 0.219749 0.089475 0.176452 0.102778 -0.204446 0.180718 0.115481 0.211885 -0.048450 -0.079594 -0.002888 -0.026354
537 0.168490 -0.176086 -0.085776 -0.161447 0.167365 0.104687 0.124622 0.160409 0.105454 -0.074570 0.079672 0.128461 -0.015750 -0.108659 -0.015663 -0.111665 0.165896 -0.086236 -0.050123 0.042034 -0.064130 -0.089450 0.188495 0.165027 0.198869 0.244813 -0.057943 -0.013031 -0.167879 -0.105884 0.028152 -0.118878 -0.098027 -0.071592 -0.027885 -0.088023 -0.075858 0.010428 -0.221581 -0.037937 -0.286595 0.351221 -0.064602 0.305221 0.143129 0.030529 0.049361 -0.040156 0.288460 -0.082881 0.047800 0.111104 -0.074584 0.000404 0.058996 0.306808 -0.113225 0.085144 -0.181884 -0.067280 -0.264802 0.090458 0.142200 -0.244316 -0.038554 -0.098262 0.072543 0.003810 0.042660 -0.001378 -0.175601 0.092728 -0.120673 -0.014556 -0.259325 -0.158813 -0.073501 -0.010218 0.110959 -0.227133 0.016202 -0.021020 -0.120639 -0.023413 0.066308 0.082940 -0.128670 0.239664 0.070542 0.131123 0.064565 -0.016523 0.251244 0.079907 0.286751 0.213010 -0.198004 0.003986 0.121907 -0.034562 -0.027985 -0.102537 -0.028315 0.057627 0.008839 0.032477 -0.340808 -0.145497 -0.267241 -0.366815 0.117849 -0.149213 0.041760 0.173013 -0.138060 -0.142009 -0.070670 -0.027214 0.181174 0.018286 0.189840 -0.300770 0.032557 -0.210776 -0.055959 0.405120 -0.071120 0.254512
105 0.180979 -0.028598 -0.120150 -0.062834 -0.074297 0.164791 0.142212 0.013607 0.061124 0.118612 0.109739 0.120215 0.271547 0.085329 0.011245 0.018375 0.155937 0.014822 0.259723 -0.161217 -0.059340 0.157405 -0.259237 0.076645 0.015802 -0.115814 0.149669 0.178421 -0.041069 -0.185554 0.132634 -0.333383 -0.112236 -0.013789 -0.073048 0.086309 -0.331519 -0.123258 0.165921 0.308910 -0.203559 -0.017343 0.078098 -0.419589 0.142943 -0.048527 0.048124 0.071258 -0.036341 0.076309 -0.071943 0.141442 -0.063504 0.141364 0.154998 0.296704 0.046829 0.058674 0.004670 0.000215 -0.019575 0.076581 0.182144 0.050949 -0.048213 0.151073 0.105434 -0.294846 0.035041 -0.106795 0.006105 -0.112392 -0.035707 -0.232200 0.085956 -0.194040 0.057253 -0.004309 -0.324163 -0.161455 -0.084459 0.097013 -0.130508 0.115954 0.315023 -0.018596 0.094939 -0.074228 0.277545 0.026094 0.037756 0.013296 -0.147708 0.286708 -0.367095 0.011690 -0.065307 0.026615 0.192726 -0.082413 0.145325 0.070511 0.056886 0.120826 -0.127990 0.031817 0.043642 0.120070 -0.121161 -0.097932 0.325951 0.025877 0.100126 0.165637 0.208917 -0.091837 0.098268 0.025661 -0.201738 -0.151308 -0.022090 0.052501 -0.227718 0.132474 -0.019558 0.077980 -0.076053 -0.413665
323 -0.028670 0.137790 -0.155044 0.070282 -0.171813 0.122593 -0.111763 -0.096171 -0.200950 -0.087716 0.024584 0.041952 0.163093 -0.028040 -0.127178 0.050299 0.120653 -0.130720 -0.064471 -0.253755 -0.183990 0.029132 0.131721 0.117735 -0.056299 0.046021 -0.262339 -0.074549 0.001280 -0.200160 -0.096954 -0.090164 -0.036954 -0.139558 0.018610 0.058260 -0.096196 0.081192 -0.141910 -0.125929 0.001674 -0.334571 -0.095510 -0.108648 0.086920 0.244239 -0.263281 -0.017624 -0.061135 0.073348 0.095240 -0.138913 0.180748 0.117861 0.086529 0.116752 0.186668 -0.293862 0.049083 0.084671 -0.190177 0.055166 -0.136880 0.007218 -0.016344 -0.170246 0.030124 -0.218967 -0.130502 0.210129 -0.095100 0.099926 -0.048877 -0.328111 0.077596 -0.093528 -0.181894 0.038949 -0.002453 -0.093776 0.203842 0.017823 -0.218200 -0.135829 0.116010 -0.069804 0.028004 -0.070944 0.148121 -0.040707 -0.036474 0.362785 -0.086891 0.024642 0.188924 0.007480 -0.189556 0.204112 0.258384 -0.114281 -0.009740 0.276802 -0.050490 -0.201918 0.054259 -0.017883 0.047985 0.014266 0.046184 -0.121276 -0.064120 0.113471 0.292113 -0.065001 0.241097 -0.068229 -0.323540 -0.023670 -0.014349 -0.202938 0.264100 -0.046167 0.261394 0.306637 0.061090 0.331141 0.071081 0.177606
81 0.280482 0.065342 0.067246 -0.090955 0.241714 -0.143744 -0.047521 0.180155 0.280072 -0.192787 0.203882 0.333164 -0.007756 -0.123502 0.304033 0.032848 -0.062569 -0.027408 -0.126737 -0.170221 0.050672 0.211503 -0.111180 0.257073 -0.215850 0.059196 0.202988 -0.074901 -0.108328 0.234790 -0.131786 -0.267415 -0.196815 -0.207920 0.082713 0.159957 -0.034121 -0.214745 -0.098967 0.236826 -0.038152 -0.007741 -0.008923 0.284209 -0.240468 0.026421 -0.021248 0.053677 0.175426 0.057880 -0.137753 0.474516 -0.205628 0.081700 -0.200972 -0.030215 0.261171 0.138827 0.075445 0.090360 0.101915 0.337332 0.092858 0.220411 0.027745 0.096705 0.029470 -0.042334 0.097300 0.072643 0.021039 0.075962 0.167009 0.016905 0.088493 -0.158375 0.162217 -0.027467 -0.294077 -0.114791 -0.123666 -0.017255 -0.328282 -0.146604 -0.083669 -0.242572 -0.271358 0.073014 0.007634 0.234153 -0.135291 0.112885 -0.182645 -0.121937 -0.116017 0.254510 0.016453 0.066425 0.079931 -0.015128 0.291782 0.074244 -0.235313 0.089264 -0.049722 -0.152759 0.140311 0.179949 0.090428 -0.035605 0.156352 -0.025749 -0.217300 0.146274 -0.027701 0.202347 0.144208 -0.068144 -0.003562 0.290689 0.184280 -0.040120 -0.025700 -0.151825 -0.044733 -0.077709 -0.226636 -0.030080
376 0.032821 -0.135239 0.069512 0.088929 0.095592 -0.179511 0.092027 0.320441 0.049786 -0.104141 0.256860 -0.412781 0.241126 -0.108405 -0.077082 0.131632 -0.091326 0.145823 -0.015349 0.128116 -0.053688 -0.092494 0.101380 0.102033 0.026505 0.118484 -0.188763 0.113006 -0.116727 -0.168817 -0.199615 -0.019409 -0.049023 -0.138447 -0.101853 0.025414 -0.124729 -0.176092 0.180211 0.217603 -0.033097 -0.166770 0.147296 -0.236462 0.057646 -0.027875 -0.144206 0.342341 0.003737 0.155738 -0.019948 -0.166118 -0.260864 -0.150621 0.216770 -0.011441 0.071165 -0.229901 0.226360 -0.022842 0.001033 -0.198264 -0.154785 -0.151128 0.132854 0.121395 0.348363 -0.352255 0.324734 0.001520 -0.038227 -0.051625 0.190621 -0.094240 0.137609 0.025458 -0.288190 0.117734 -0.251627 0.052853 -0.050408 -0.100753 0.144356 -0.000313 0.026538 0.090546 -0.249834 -0.020673 -0.079482 0.030259 -0.182382 0.038978 -0.066862 0.075946 -0.291386 -0.080500 0.206431 0.073035 -0.243081 -0.153117 -0.226929 -0.036590 0.057138 0.136280 0.125364 -0.032774 0.262639 -0.000946 0.153095 -0.352816 0.033409 -0.174777 0.037822 0.056604 0.238554 0.156921 0.175757 -0.064452 -0.125881 0.273156 0.004731 0.065148 -0.131491 0.239865 0.005185 0.131964 -0.044523 0.009357
546 0.207059 -0.067040 -0.152712 0.118415 0.156719 0.171125 -0.150228 0.165774 0.266821 -0.079709 0.170648 0.024340 -0.079386 0.078545 -0.076973 -0.200707 -0.006245 0.191590 -0.077403 -0.054108 0.071613 -0.036103 -0.024292 0.284182 0.272559 0.193032 -0.038624 0.171558 -0.167207 0.058974 0.092600 -0.211629 -0.143694 -0.043625 -0.130049 -0.108511 0.038006 -0.072027 -0.141476 0.113063 -0.206253 0.095293 -0.127681 0.155204 0.124780 0.188680 0.156515 -0.011224 -0.073449 0.009083 0.114489 -0.195131 -0.266417 -0.007948 0.154493 -0.028208 -0.184269 0.290279 -0.147424 -0.150729 -0.155188 0.068641 0.235949 -0.101889 0.058101 -0.167000 0.061973 -0.092764 0.049589 0.235370 0.003085 0.083784 -0.177865 0.065463 -0.161933 -0.047928 -0.125647 -0.023014 0.056604 -0.199382 0.054575 -0.027245 -0.033719 -0.288821 0.073719 0.117661 -0.131928 0.085486 0.111153 0.198854 0.085536 -0.019672 0.340442 -0.001423 0.229459 0.091862 -0.251265 0.121127 0.047571 -0.334008 0.141444 -0.125942 -0.074885 0.057892 0.118110 0.048519 -0.501861 -0.131731 -0.163415 -0.201096 0.107837 -0.067110 0.108819 0.231107 -0.287536 -0.010066 -0.117337 -0.007639 0.021059 0.169998 0.247384 -0.415555 0.167405 -0.334868 -0.126235 0.346249 -0.169126 0.127271
