732 128
303 -0.007000 0.015412 0.114873 -0.067879 0.260296 0.025017 -0.200177 0.021455 0.093386 -0.050113 0.077460 -0.008018 -0.119873 -0.004904 -0.213831 0.162461 0.085617 0.197787 -0.141572 -0.110051 0.172400 0.093585 -0.083256 0.075763 0.136822 -0.102922 -0.052743 -0.089545 -0.010593 -0.130136 -0.114741 0.067995 -0.053479 0.217993 0.089470 0.004032 0.002932 0.107700 -0.047564 -0.152269 0.110599 0.037548 0.036686 -0.059197 -0.052927 0.051376 0.146931 -0.208685 0.087572 -0.048131 0.049600 0.176873 0.033636 0.057979 -0.237495 0.048335 0.047237 0.063729 -0.000619 -0.228823 -0.044751 0.157068 -0.031661 -0.059886 -0.005782 -0.142662 -0.068231 -0.000224 0.099696 0.217771 -0.094880 -0.027003 -0.029446 0.165363 0.133454 0.042549 -0.175707 -0.136416 0.054799 0.181933 0.051138 0.097093 -0.011479 -0.255013 0.010020 0.097697 -0.015416 0.126130 -0.115076 -0.073286 0.079747 0.065297 0.104745 -0.213230 -0.063113 -0.017987 0.173110 0.085590 -0.142637 -0.086993 -0.044588 -0.069245 0.351992 0.045747 -0.022491 0.003633 0.000393 0.025718 0.119315 -0.045251 0.144662 -0.062667 0.005660 0.093365 -0.062601 0.193507 -0.149069 -0.105541 -0.188837 0.194419 -0.086471 -0.205442 -0.239740 0.131856 -0.118110 -0.072699 0.011876 -0.013025
103 0.161606 -0.110731 0.069255 0.009259 0.202789 0.023589 0.033561 -0.005201 -0.068592 0.219923 0.034929 0.271411 0.067126 -0.032858 -0.130470 0.157916 0.010034 0.083918 0.077364 0.143566 0.002479 -0.060808 0.057471 0.163294 -0.015864 0.063617 0.117778 -0.008152 0.045220 -0.086568 -0.199681 -0.045989 -0.022814 0.238808 -0.066682 -0.026576 0.019601 0.063333 0.091430 -0.185017 0.323103 -0.096964 0.224421 0.066218 -0.136968 -0.155399 -0.153879 -0.093100 -0.237244 -0.167141 -0.045773 -0.006354 0.037793 0.018642 0.046266 -0.179762 0.040752 -0.068825 0.006132 -0.117077 0.061679 -0.106884 0.029243 0.005438 0.017596 -0.091236 -0.165386 -0.070416 -0.045904 0.019279 -0.045714 -0.055193 -0.033837 -0.016648 0.084758 0.087840 -0.001447 -0.150888 -0.141058 0.025144 0.166972 -0.056888 0.298005 0.013566 0.203511 -0.129690 -0.045096 0.052429 -0.321972 -0.198629 -0.032481 0.218947 0.168760 0.117411 -0.066202 0.068869 0.212910 -0.280872 -0.078991 -0.294042 -0.064759 -0.101625 -0.141366 -0.072899 0.044567 0.106139 0.146618 0.032611 0.092122 -0.052692 0.130167 0.047855 -0.111068 -0.034917 -0.215879 0.043962 -0.043251 -0.123760 -0.019111 0.002462 -0.025387 -0.027551 0.073375 -0.084477 -0.027981 -0.157986 -0.022197 0.200492
484 -0.007080 -0.109481 0.076348 0.007105 0.104093 0.077295 -0.086585 0.094911 -0.159290 -0.048954 0.188996 0.030647 -0.029352 0.048224 -0.183879 0.065206 0.162660 0.052458 0.088955 -0.102019 0.005622 0.007977 -0.282993 0.037993 -0.089996 0.286728 0.222803 -0.238411 0.009158 -0.092888 0.101879 0.075285 0.158457 0.303435 -0.013343 -0.014173 0.108318 -0.109351 -0.230374 -0.276103 0.233519 0.071720 0.030397 -0.132077 0.057982 -0.217399 0.125505 0.202325 -0.156045 -0.095093 -0.219948 0.147243 -0.085857 -0.019282 0.145132 -0.011878 0.022406 0.204572 0.180197 0.025291 -0.208203 -0.082569 0.019107 0.195681 -0.118032 0.064526 -0.005037 0.015909 0.007115 0.039038 0.289979 0.113089 -0.040565 0.247494 0.043876 0.105547 0.108583 0.034467 -0.045583 0.098486 0.016286 -0.143559 -0.088334 -0.227719 -0.050925 0.119685 -0.104040 -0.096643 -0.200345 -0.090084 -0.171825 0.126785 -0.115029 0.064613 -0.096138 -0.090998 0.121297 0.027224 -0.105577 -0.054126 0.077569 -0.125149 -0.114870 -0.126702 -0.116366 -0.058296 -0.210037 -0.043125 -0.166748 0.087712 0.239365 0.004951 -0.059896 -0.103677 0.168616 0.086655 -0.047926 0.178978 -0.031678 0.036858 -0.091136 -0.169427 0.039000 0.009245 -0.094192 -0.033184 0.158812 -0.017319
342 -0.006078 -0.221471 0.066297 -0.030687 0.149648 -0.147334 -0.053083 0.036649 0.033354 -0.017236 -0.065020 0.310108 0.007692 0.068189 0.043933 0.030059 -0.051149 0.182221 -0.025569 -0.102492 0.220493 -0.092079 0.071544 -0.110567 0.027175 0.193149 -0.032912 -0.080540 -0.130121 -0.015177 -0.113040 -0.063944 0.103992 -0.073702 0.045046 0.188804 0.093603 -0.090433 -0.039002 -0.013746 0.148026 -0.015687 0.141186 0.043826 -0.065426 -0.007302 0.048360 -0.031746 -0.049347 -0.005909 -0.070389 0.016716 -0.000468 0.120009 0.161052 0.220617 -0.155222 0.020330 0.011594 -0.016665 -0.138485 -0.137290 0.107220 -0.007865 -0.083669 -0.069539 -0.118566 0.066711 -0.110044 0.034369 0.020875 -0.055595 0.068701 -0.016961 0.093200 -0.117452 0.059462 -0.224741 0.095133 -0.080904 -0.163718 0.002719 0.195016 -0.027901 -0.049274 0.080011 -0.297020 0.088338 -0.090840 -0.064114 -0.018514 0.034641 0.153774 0.007751 -0.092892 0.031501 0.152424 -0.032878 -0.209337 -0.112822 -0.035763 -0.009312 -0.081541 -0.133027 -0.074537 0.021060 -0.300139 -0.112430 0.162762 -0.059883 0.045471 0.007403 0.047034 -0.139119 -0.053732 -0.137414 0.008806 0.121722 -0.013315 -0.165710 -0.190974 -0.069005 -0.117338 -0.082442 0.070852 0.167659 -0.142198 -0.238509
35 0.092905 -0.149865 0.070437 -0.061609 0.029692 -0.000425 0.136077 0.022780 -0.011357 0.025318 -0.013143 -0.076871 0.022929 0.163572 0.004612 -0.075745 -0.011802 0.106304 -0.161538 0.054269 0.102585 -0.080384 -0.185061 0.064668 0.156205 0.013270 -0.072920 0.036118 -0.017421 -0.001066 0.026415 0.087928 -0.121067 0.117736 -0.049601 0.010989 -0.033720 0.022808 -0.219398 -0.315963 -0.016930 -0.168959 0.116761 0.030622 -0.096416 -0.006304 0.050742 0.060539 -0.081432 -0.033066 0.088836 0.191484 -0.013845 0.129178 0.075338 0.056543 0.041760 0.001159 0.083071 0.125926 -0.069857 0.246576 -0.029538 0.027743 -0.050857 -0.185690 -0.097324 -0.042380 0.045736 0.168375 -0.047797 -0.053164 -0.173393 0.177043 0.062839 0.013602 -0.154869 -0.094357 -0.076276 0.109661 0.073015 0.115233 0.129775 0.016328 0.040161 0.098162 0.162323 0.039439 -0.296469 -0.100900 0.218397 -0.034402 0.039530 0.219743 -0.093105 -0.025974 0.149090 -0.007293 -0.165290 -0.009373 -0.019692 -0.026719 -0.076543 0.019490 -0.012822 0.037828 -0.129170 -0.221245 -0.149237 0.348413 0.126933 0.032921 0.103507 -0.017460 -0.127451 -0.047009 0.062469 0.298551 0.094690 -0.239516 -0.226453 -0.120536 -0.041403 0.027839 -0.102713 -0.270061 0.036329 0.025185
595 0.158023 -0.086982 0.162217 -0.064231 -0.329249 0.067380 -0.100397 -0.078790 0.036608 -0.123306 0.177465 -0.059171 -0.029243 0.096257 -0.072276 0.072558 0.093323 -0.150602 0.193209 -0.058408 0.255769 -0.040827 0.084972 0.036902 -0.065561 0.149447 -0.025322 -0.115382 -0.126378 -0.139298 -0.165952 0.020375 0.074792 -0.001074 -0.067732 -0.018330 0.190673 -0.047634 -0.021342 -0.051786 0.114657 -0.211017 -0.019822 0.018419 -0.160008 -0.058374 0.073921 -0.075554 -0.048989 -0.281588 -0.185261 -0.131989 0.192933 -0.092320 0.096244 -0.062385 0.030560 0.220316 -0.113855 0.043974 -0.086557 -0.037049 -0.186977 -0.129684 0.024797 -0.072227 -0.142278 -0.165916 0.175140 0.085309 0.037364 0.006729 -0.042933 0.093041 0.043071 0.016472 -0.024801 0.038075 0.187460 0.019070 0.013327 0.043259 -0.071765 -0.082193 0.060494 -0.079681 -0.015096 -0.124191 -0.041591 -0.177532 -0.072239 0.092501 0.043099 0.015578 -0.148301 0.183405 -0.021610 0.025478 -0.173453 -0.007052 0.126484 -0.164738 0.039117 0.069588 -0.043971 -0.086051 0.018087 -0.227613 -0.098279 -0.074442 0.100180 -0.200267 -0.009143 -0.008843 -0.119790 -0.056611 0.056058 -0.167315 -0.138866 -0.047443 0.013361 -0.261849 0.069891 0.070441 0.158292 0.082252 0.101211 -0.025935
127 0.183729 -0.084584 0.181809 0.136830 0.049063 0.012675 -0.127322 -0.115932 -0.057131 -0.017874 0.021980 -0.123969 -0.100866 -0.030241 -0.070983 0.022379 -0.067610 -0.052304 0.021673 0.037420 0.008954 0.049314 0.035973 -0.080879 0.091399 0.072456 0.022631 -0.069374 -0.232317 -0.002122 0.021752 0.125931 -0.164377 0.267631 -0.163204 -0.040793 0.024309 0.142384 -0.141631 -0.085525 0.177701 -0.232845 0.052793 -0.028203 -0.100742 -0.067983 0.206776 0.095309 -0.103962 -0.003513 -0.069510 0.074377 0.097620 -0.188691 -0.175182 0.168752 -0.127787 0.019592 0.093344 0.096095 -0.035940 -0.266629 -0.105649 -0.034549 -0.182487 -0.212045 -0.020874 -0.028345 -0.335555 0.164768 0.049573 0.040399 0.017179 0.030081 -0.005189 0.171897 0.060859 0.026542 -0.048059 0.022254 0.019844 0.016263 -0.065668 -0.022093 0.241301 -0.111345 -0.078293 0.053554 -0.197454 -0.185631 -0.008419 0.280404 0.096807 -0.118812 0.086562 -0.035538 0.044715 -0.059607 -0.028678 -0.040548 0.240726 -0.089359 -0.003040 -0.239861 -0.048801 0.124564 0.017155 0.129902 0.177151 -0.089449 -0.086916 -0.144182 0.065446 0.107701 -0.177463 -0.043700 -0.012965 -0.063636 -0.027096 0.153499 -0.070935 -0.061912 -0.209224 0.021106 -0.120875 -0.008175 0.058920 -0.056946
526 0.260109 -0.120753 0.010602 0.007234 -0.227607 -0.101758 -0.120294 0.088100 0.059167 0.071922 -0.055643 0.008412 0.091748 -0.082636 -0.010636 -0.039299 -0.005154 -0.014977 0.248968 0.060930 0.230451 0.113407 0.106432 0.091943 -0.007348 0.025997 -0.099800 -0.199431 0.191717 0.144725 -0.060406 0.322022 -0.069619 0.052596 0.047168 0.137987 -0.159923 0.012597 0.009751 -0.038477 0.104372 -0.106505 -0.063099 0.038252 -0.064174 -0.028183 0.050115 -0.010959 0.008170 -0.133900 -0.003153 0.047841 0.180745 0.023165 -0.033574 0.032087 0.043960 0.032975 0.007534 -0.144940 -0.194321 0.006459 -0.107494 0.048256 0.057648 0.019523 -0.078020 -0.111425 0.035100 0.072468 0.159236 -0.165574 -0.044075 0.129710 0.102489 0.074677 0.085187 -0.038702 -0.113590 0.132908 -0.051251 0.214111 0.123038 0.011312 -0.256906 0.036294 0.056840 -0.052144 -0.245513 -0.079157 -0.007504 -0.090696 0.101367 0.042058 -0.035778 0.121936 0.128995 -0.124044 -0.267558 0.057141 0.195397 -0.008958 -0.071590 -0.129511 0.015408 0.033904 0.256893 -0.200801 -0.117598 0.088875 0.104737 -0.139918 0.004104 0.064700 -0.161531 -0.121212 -0.123442 -0.016842 0.243220 0.207970 -0.000939 -0.114816 0.023823 0.332686 0.004515 -0.098767 -0.046137 -0.188060
337 0.143808 -0.084846 -0.048660 0.111001 0.278915 -0.004219 0.014755 0.079502 0.054480 -0.065630 -0.054949 -0.085563 -0.044116 0.042347 -0.110966 0.037625 -0.120709 -0.223443 0.107877 -0.177420 0.114582 0.171636 0.034637 0.106380 -0.141964 -0.225090 0.198025 -0.006883 0.208439 0.076409 0.078884 -0.018628 0.073127 0.190964 0.001169 -0.003326 -0.002749 -0.007238 0.036814 -0.112977 0.228911 -0.102060 -0.094337 0.123639 0.135107 0.088602 -0.269077 0.211830 -0.128006 -0.102840 0.088448 0.213004 0.025371 -0.173809 0.271710 0.132542 -0.027538 -0.341513 0.280151 0.086139 -0.097849 -0.017675 0.058052 -0.080954 -0.004765 0.028217 -0.184274 0.094415 0.056455 0.148929 0.155668 -0.113939 -0.034614 0.079765 0.042207 -0.033805 0.113593 -0.134278 -0.090815 0.074246 -0.145760 0.189657 0.085856 -0.134747 -0.049792 -0.152224 0.022216 -0.124630 -0.065958 -0.197361 -0.026252 -0.292444 -0.014449 0.058322 0.091853 -0.030337 0.085803 0.002743 -0.267076 -0.066954 0.031554 -0.088559 -0.077512 0.004873 -0.120802 -0.175822 0.011798 -0.031954 0.034563 -0.110849 0.114255 -0.007191 0.186352 0.036334 -0.196494 -0.289091 0.099489 -0.053521 -0.086149 -0.086132 -0.109186 -0.140044 0.110433 0.016344 -0.062606 -0.018004 -0.104329 -0.043469
602 -0.118551 -0.153057 0.024116 0.042801 -0.142420 0.145129 -0.066993 -0.033188 0.182502 0.058179 0.178948 0.041482 0.022110 0.060281 -0.004283 0.019306 -0.039641 0.193168 0.052194 0.118131 0.241555 0.006139 0.251275 0.059518 -0.133835 0.085827 0.030731 -0.070412 0.234142 0.090217 0.117097 0.075938 0.131486 0.271340 0.014607 0.167359 0.073151 0.138080 -0.123414 -0.099248 -0.061728 -0.235490 0.096047 0.047416 -0.066354 -0.064091 0.269124 -0.044736 -0.084100 -0.058453 -0.220884 0.082065 0.151648 0.214827 -0.184509 -0.085484 -0.125948 0.014048 -0.018902 0.168412 -0.145376 0.054940 -0.033942 -0.004387 -0.486236 -0.006211 -0.076999 -0.050932 0.031979 -0.048583 0.111162 -0.297175 0.032783 -0.075427 0.028757 -0.051860 -0.161451 0.046291 0.059054 0.025685 -0.352533 0.053777 0.063473 -0.064840 -0.015831 -0.035072 0.076483 -0.033371 -0.094672 -0.108227 -0.000530 -0.015445 -0.038040 0.091933 0.047967 0.046479 -0.010708 -0.138847 -0.342796 -0.200833 -0.166346 -0.080994 0.076246 -0.016881 0.098554 0.028159 0.065338 -0.283360 -0.074174 0.083662 -0.044078 -0.175840 -0.051935 0.142660 0.020175 0.051638 -0.041215 0.100363 -0.018602 0.083934 -0.285639 -0.018884 0.139370 0.067278 -0.128730 -0.074225 0.113892 -0.102808
646 0.131764 0.013498 0.141524 -0.175619 -0.224369 0.084661 -0.228204 0.018807 0.009341 -0.030708 -0.011599 0.046117 -0.003528 -0.035551 -0.012166 0.075102 -0.067492 0.096186 -0.040009 -0.012706 0.038274 0.093013 0.118548 0.057251 0.076891 0.078411 0.154826 0.002669 -0.271063 0.032046 0.083694 -0.112845 0.006670 0.259371 0.032837 0.088753 0.065971 -0.069874 0.204179 -0.114676 -0.090435 0.163347 -0.059732 0.071898 -0.193260 0.071610 0.271167 0.024533 -0.231112 -0.170805 0.115091 0.038288 0.216522 0.207647 -0.152121 0.186959 -0.150851 -0.223032 -0.114572 0.079885 0.034433 -0.039669 -0.026569 0.111111 0.122796 -0.002510 0.113691 -0.235382 -0.165669 0.126886 0.040581 -0.068882 0.135211 -0.011310 -0.050642 -0.046695 0.067035 0.095288 0.075265 0.338075 -0.004094 -0.014273 0.150420 -0.269264 0.111631 0.033180 -0.141642 -0.198973 -0.115279 -0.161028 0.147334 -0.064199 -0.084824 -0.007967 -0.146911 0.207340 -0.142655 -0.058916 -0.188935 0.053113 -0.147564 0.027569 0.199822 0.191729 0.111268 0.056524 -0.036768 -0.264474 -0.005536 -0.135843 0.080015 -0.199680 0.049804 -0.039247 -0.113985 -0.114789 -0.082069 -0.112695 -0.062270 0.020083 -0.080033 0.101697 -0.206368 -0.163095 -0.077147 0.141719 0.009123 -0.069314
279 -0.059942 -0.067369 0.090264 0.036886 0.063386 0.082373 0.100478 -0.073022 0.027445 0.281797 -0.006698 -0.003692 0.070834 0.033937 -0.046045 -0.028521 0.145396 0.141975 -0.124980 -0.363107 0.216209 -0.030630 0.139846 -0.131834 0.019296 0.150448 0.050919 -0.169017 0.095016 0.252711 0.082634 -0.119541 -0.023650 0.191048 0.006663 0.008200 -0.017501 0.100911 -0.017790 0.026364 -0.062155 0.027578 0.025112 -0.108444 -0.111300 0.048693 -0.116452 -0.079364 -0.082571 0.034792 -0.142097 0.079442 -0.060341 -0.019267 0.069654 -0.053841 0.033183 -0.007765 0.179317 0.097665 -0.080721 0.018066 -0.146026 -0.192562 -0.004628 0.007155 -0.307078 -0.122935 0.053317 0.121144 -0.106325 0.068167 -0.039322 0.078605 0.073985 0.173612 0.160598 0.132638 0.052973 -0.190979 0.077781 0.067182 0.340936 -0.073872 0.448586 0.167011 0.209782 0.035820 -0.206009 0.151808 0.066396 0.009182 0.044964 0.096825 0.000510 0.063710 -0.064454 -0.058766 -0.183909 0.093783 0.073882 -0.075264 0.208207 0.148972 -0.101832 -0.002399 0.025714 0.152902 -0.043589 0.021918 -0.057224 -0.074589 -0.072226 -0.073843 -0.225179 -0.034453 -0.131247 0.144937 -0.057198 0.020626 -0.111715 -0.135821 -0.033725 -0.082934 0.006096 0.009088 0.222613 -0.054591
287 -0.117202 -0.237040 0.048202 0.167104 0.027570 0.125493 -0.097042 0.014971 0.070132 0.004338 0.179315 -0.053039 0.017234 0.069198 -0.095466 0.082539 0.005457 0.168950 0.008467 -0.152188 0.060514 0.017955 -0.037306 0.073961 -0.000190 -0.022335 -0.045281 -0.002733 0.015758 0.210406 0.251266 -0.124924 0.097960 0.122185 0.007125 -0.209041 0.057875 -0.094855 0.105552 -0.249269 0.137828 -0.049302 0.054984 -0.037463 0.038232 -0.032176 -0.063449 -0.045411 -0.027314 -0.080349 -0.046397 -0.005037 -0.061001 -0.075534 0.012875 -0.120994 -0.136527 -0.056969 -0.094413 0.093546 -0.097132 -0.005125 0.024206 -0.261720 -0.145855 -0.095499 -0.205237 0.099533 -0.095130 0.128936 0.163928 -0.118656 0.155689 0.027366 0.172352 -0.116858 0.043596 0.031098 0.181099 0.080245 -0.031615 -0.060804 0.030960 0.051820 0.129747 -0.086912 0.044931 -0.087544 -0.075836 0.035859 -0.081453 -0.122355 -0.035071 0.080002 0.024397 -0.106994 -0.082144 -0.137508 -0.158326 -0.105323 -0.102372 -0.392600 0.054621 -0.062197 -0.107946 -0.153620 -0.045024 -0.130341 0.037807 0.100772 -0.103949 0.060931 -0.002820 -0.058080 -0.026481 0.027713 0.175111 -0.118633 0.080929 -0.055957 -0.376707 0.004604 -0.069001 -0.007521 -0.131384 0.213657 0.032767 0.124364
515 0.014648 -0.062256 0.062785 0.053134 0.109368 -0.231430 -0.165661 0.071525 -0.060229 -0.027417 0.181245 -0.022417 0.075283 -0.062071 0.071444 0.042930 0.094665 -0.087019 0.064649 0.075261 0.102265 -0.026488 -0.075940 -0.153724 -0.053495 0.025530 0.032299 -0.040676 0.085927 -0.124059 -0.034791 0.087890 -0.037321 0.138652 0.010127 -0.123614 -0.022067 -0.181995 0.011053 -0.070934 -0.004807 0.094854 -0.103459 -0.030782 -0.131058 0.085016 0.113015 -0.072234 -0.022518 -0.136798 0.093707 0.089586 0.002471 -0.023400 -0.020186 0.124643 0.130064 0.004208 0.020551 0.010824 -0.160898 -0.135316 0.104293 -0.128479 0.058062 0.049708 0.109599 0.103229 -0.084509 0.258649 0.103312 -0.186315 0.006170 0.039749 0.035053 -0.060758 0.152540 0.062384 -0.202999 0.003101 -0.172360 0.133341 -0.201166 -0.113581 0.057678 -0.063403 -0.031940 -0.086408 -0.164380 -0.084796 0.285143 -0.026646 0.113061 0.319798 0.022094 0.084302 0.077482 -0.373065 -0.194284 -0.155705 -0.347736 0.032684 -0.008283 -0.120695 -0.021331 0.144603 0.121943 -0.032510 0.210018 0.041758 -0.045812 -0.141045 0.142751 -0.060907 -0.318058 -0.109689 0.226138 0.052174 -0.052096 -0.052511 -0.168820 -0.057855 0.058214 -0.198253 0.003064 -0.053950 -0.080523 -0.172540
25 -0.056536 0.055048 0.084512 0.076309 -0.309734 0.002371 -0.002362 -0.009821 -0.072875 -0.139974 0.013586 0.067423 -0.003809 0.246622 -0.193762 0.072284 0.249889 0.159628 -0.012626 -0.233066 0.209435 -0.150018 -0.189662 0.277962 -0.015549 0.112914 -0.229102 -0.018589 0.040856 -0.019318 -0.093043 -0.122358 -0.161790 0.008570 -0.120057 0.243543 0.098250 -0.097977 -0.122761 -0.131378 0.204384 -0.043783 0.139588 -0.067618 0.043371 -0.022106 0.057652 -0.016553 -0.262781 0.016145 0.205621 0.053092 0.036955 0.065116 0.051950 0.066398 -0.107127 0.103733 0.104320 -0.251466 -0.016470 0.029780 -0.066786 -0.095595 0.212650 -0.222659 -0.178615 -0.145690 0.151083 0.061659 0.121435 0.012296 0.035094 0.136882 -0.168391 -0.215021 0.106945 -0.070431 0.026317 -0.142993 -0.047993 -0.076320 0.184824 0.017195 0.030845 -0.068506 0.044944 0.010789 -0.227497 0.059580 0.328092 0.177142 0.056904 0.074333 -0.092108 0.026428 0.193085 0.181034 -0.128516 -0.031484 -0.116734 -0.113760 -0.082404 -0.052840 -0.221010 0.025990 0.007023 -0.083011 0.072367 -0.125881 -0.131943 -0.015702 -0.041288 -0.068681 -0.266339 -0.051061 0.007365 -0.082768 -0.061180 -0.021669 -0.135499 0.039574 -0.174192 -0.044954 0.084914 0.051428 -0.001943 -0.108474
131 0.308995 -0.071035 0.170326 -0.094660 0.206526 0.022933 0.036158 0.035860 0.107273 0.061782 -0.172355 -0.063861 -0.048053 -0.097528 -0.098499 0.014764 0.194582 -0.056247 -0.119696 -0.017965 -0.035078 0.032426 -0.002558 0.164410 0.140766 -0.000198 -0.143621 0.028626 0.114520 0.065159 -0.211825 -0.017108 -0.053083 0.322580 -0.284453 0.041815 -0.119503 0.024112 -0.079256 -0.099767 0.008236 -0.183075 -0.092175 -0.166357 0.040121 0.004731 -0.099970 -0.052192 -0.216622 0.031400 0.061965 0.215827 -0.077482 -0.003673 0.130781 0.170280 0.036023 0.031616 -0.005488 0.034572 0.006222 -0.090518 -0.058903 0.050782 -0.159251 -0.051894 -0.036901 -0.189054 0.117722 -0.113950 -0.096472 0.031416 -0.008314 0.205631 -0.001199 -0.191051 -0.059057 0.037679 0.186231 0.004390 -0.088560 -0.178686 0.001498 0.134300 0.270955 -0.055642 -0.201660 -0.098641 -0.193675 -0.143082 -0.006129 0.266620 -0.009510 -0.054518 0.113720 0.073899 0.077584 -0.212542 -0.063651 -0.038899 -0.220748 -0.283929 0.052575 -0.127774 0.098172 0.084453 0.147505 -0.117616 0.109472 -0.158510 -0.078787 -0.073296 0.011628 -0.304054 -0.134930 0.020857 0.001056 0.017637 0.119714 0.027321 0.050863 -0.182721 -0.043895 -0.202352 -0.012526 0.097135 -0.207828 -0.090605
133 0.086344 -0.296741 -0.138405 0.060377 0.114607 -0.156874 -0.058772 0.261557 -0.157287 0.077619 0.198629 0.002146 -0.149513 0.120417 -0.112140 0.091218 0.121604 0.064553 -0.147068 0.088906 0.112495 0.050704 -0.090913 0.110968 0.107855 -0.007280 -0.100441 -0.097404 -0.085869 -0.206817 0.189614 0.035645 -0.278560 0.231715 -0.129458 0.072994 0.039322 0.097557 -0.074379 -0.155586 0.010213 -0.059260 0.087227 0.083469 -0.149049 -0.185773 0.035645 -0.008501 -0.143924 -0.163311 0.062770 0.101929 0.013770 -0.012354 -0.108774 -0.198176 0.148859 -0.064179 0.032263 -0.003812 -0.018493 -0.035145 -0.146373 0.003077 -0.339580 0.049589 -0.212578 0.217231 0.022186 0.141014 -0.018310 -0.193295 0.011953 -0.090366 -0.053686 -0.060384 -0.103168 -0.020890 -0.025337 0.043460 -0.001849 -0.090592 -0.070416 -0.000667 0.046143 0.242172 -0.053037 -0.136509 -0.036152 -0.106243 0.051555 -0.033918 -0.010329 0.070025 0.025840 0.105493 -0.053501 -0.026617 -0.036618 -0.024748 -0.097068 0.040666 0.157954 0.033909 0.076667 -0.221741 -0.154927 -0.232811 -0.060458 -0.123736 0.066931 0.079991 -0.067864 0.051645 -0.313904 0.000164 0.059168 -0.231629 -0.015012 -0.014174 0.081299 -0.029809 0.035343 0.022631 0.108781 -0.108359 0.273883 -0.413824
278 0.242354 0.038310 -0.009666 0.046218 -0.063347 0.041097 0.067793 0.057680 -0.161256 -0.062433 -0.014341 -0.214731 0.011777 -0.126636 -0.102154 0.112794 0.106819 0.124026 -0.121743 0.091322 0.331134 0.149348 0.089608 -0.075041 0.083451 0.019864 -0.036692 0.013734 0.168959 0.133093 -0.173136 0.107756 -0.039447 -0.040256 0.084508 0.228502 -0.116815 0.002986 -0.187223 0.051448 0.056130 0.093861 -0.036523 -0.056577 -0.054576 -0.207124 -0.022095 0.057040 -0.172445 -0.402282 0.137707 -0.061561 -0.033991 0.057720 -0.074564 0.005726 -0.026791 0.036169 0.139435 0.113213 -0.105082 0.019479 -0.169247 -0.012788 -0.028571 -0.016391 -0.181317 -0.161208 -0.137114 0.334985 0.044341 -0.055990 0.118039 0.006037 0.298889 0.035838 -0.292355 -0.075048 0.010043 -0.056155 -0.187781 -0.153309 0.219957 0.023855 -0.000591 -0.027334 0.019498 -0.068076 -0.037050 -0.160695 -0.003055 -0.012631 0.103878 0.126458 0.272758 0.034391 0.165979 -0.133151 -0.169100 0.084176 -0.104079 -0.070184 0.065894 0.154791 -0.102080 -0.204929 0.060022 -0.125268 -0.120238 -0.196357 -0.068609 -0.213519 -0.093959 -0.023745 -0.202517 -0.040351 0.154648 -0.080679 -0.096819 0.177149 0.107520 -0.179768 -0.110720 -0.048523 -0.121721 0.197485 -0.031563 -0.018338
582 -0.060259 -0.319241 -0.011556 -0.111172 0.080406 0.178696 0.054228 0.025061 -0.007931 0.020605 0.069340 0.079752 -0.024545 -0.061795 -0.068384 0.199957 0.046453 -0.015325 0.202297 0.037499 0.039291 -0.035186 0.213136 0.057900 0.073799 0.082487 0.132399 -0.167676 0.095521 0.005851 -0.075945 -0.028620 0.119815 0.256866 -0.003897 -0.206212 -0.129141 0.234751 0.103568 -0.022565 0.045737 0.102598 -0.038326 -0.046307 -0.152285 0.005500 0.003624 0.185789 -0.080657 -0.069365 0.016813 -0.073272 -0.166007 0.087116 -0.120927 0.083030 0.016347 -0.062469 -0.138715 -0.103694 0.008666 -0.152097 0.017721 0.057549 0.088114 0.026510 -0.108413 -0.112301 0.145354 0.057115 -0.016772 -0.064715 -0.023195 0.072825 0.139691 -0.058793 -0.062443 -0.237837 0.010433 -0.245733 -0.224442 0.054927 -0.035421 0.079092 -0.059068 -0.095494 0.075757 -0.171481 -0.132998 0.015143 -0.053816 0.014305 0.070099 0.088129 0.079862 0.089655 0.144246 0.051848 -0.192896 0.063285 0.090652 -0.129889 0.080808 -0.159940 -0.088670 -0.022835 0.011615 -0.136911 -0.055059 0.006860 0.072433 -0.256758 0.045780 -0.039856 0.046080 -0.169734 0.077769 0.143941 -0.159274 -0.062277 -0.187248 0.099980 0.133984 0.102689 -0.044584 -0.049576 -0.209180 0.082241
338 0.231512 -0.209199 0.048781 -0.024859 0.113930 -0.183038 -0.035338 -0.043816 -0.082832 0.061366 0.230450 0.063065 -0.154424 0.168886 -0.108202 -0.050406 0.046680 0.065756 0.453752 -0.083479 -0.007856 -0.152544 0.024383 -0.073428 -0.000028 0.170251 -0.128566 0.117833 0.130700 0.063404 -0.051859 0.045447 -0.084413 0.309734 -0.142578 -0.084718 -0.024231 0.015295 -0.121487 0.021004 -0.052294 -0.088460 0.100909 -0.172653 -0.085163 -0.111930 0.025149 -0.093610 -0.134132 -0.107711 -0.059581 -0.058374 0.106105 0.111977 0.058458 0.217618 0.109575 -0.011313 0.072394 0.012822 0.013524 -0.086263 0.134123 0.048409 -0.263957 -0.253175 -0.152993 -0.060079 0.072107 0.176982 0.108257 0.141210 0.130362 -0.019406 -0.173130 -0.137227 -0.088996 0.010421 0.078535 0.179524 0.162701 0.108961 0.133614 -0.003021 0.098246 0.122564 -0.027149 0.016101 -0.213128 -0.151672 -0.150241 0.002098 0.089863 0.048077 -0.132431 -0.011598 -0.040635 0.202684 -0.057269 -0.033131 -0.097510 0.040898 0.131781 0.041603 0.173989 0.103278 -0.110105 -0.054946 0.072511 -0.100610 0.183085 -0.074380 0.029043 -0.326519 -0.102135 -0.130056 0.063843 0.058230 0.062171 -0.050636 0.012519 -0.033556 -0.074156 -0.086533 -0.140900 -0.017124 -0.173236 -0.083577
28 0.157434 -0.050651 0.186327 0.044615 0.034189 -0.026737 0.028235 -0.259469 -0.049921 0.028576 0.078468 0.089276 -0.036416 0.207700 -0.080779 0.053366 0.173873 -0.063371 0.142504 -0.020652 0.090696 0.113757 -0.034797 0.209229 -0.007971 0.054746 0.096833 -0.219367 -0.296520 0.138745 0.211241 0.129310 0.060253 0.157450 0.128891 -0.116707 -0.121150 0.017307 0.052419 -0.085733 0.065235 0.036471 -0.049492 0.140101 0.058785 -0.230408 0.042849 0.182483 -0.075567 -0.035979 0.227785 0.106584 0.044110 -0.059224 -0.058167 0.199545 -0.078544 0.086950 -0.061618 0.003118 0.182582 -0.015054 -0.092871 -0.094680 -0.110758 -0.127547 -0.228541 -0.250630 -0.024107 -0.021555 -0.392023 -0.041491 -0.060179 0.117502 0.085990 -0.215586 0.212909 0.021389 -0.041772 0.127118 -0.095697 0.017185 0.163730 0.053026 -0.036541 -0.012944 -0.067714 -0.057673 -0.067457 -0.069989 -0.026509 -0.091357 0.018683 0.005500 0.128737 0.191435 0.062564 -0.066129 -0.252206 -0.181064 0.261479 -0.056188 -0.067525 0.016024 0.158182 -0.021629 -0.053366 -0.066295 0.159889 0.003682 0.065621 0.025150 0.286003 0.020348 0.003562 0.072774 0.153319 -0.101177 0.137524 0.041825 -0.146480 -0.047214 0.119526 0.067469 0.185598 0.181440 0.109951 -0.237897
124 0.102589 0.017674 0.193905 -0.081369 -0.071174 0.197684 -0.004263 -0.009952 0.185313 0.068250 -0.247701 0.192958 -0.036713 -0.000188 -0.111675 0.008629 -0.081372 0.088214 -0.149997 -0.211399 0.179515 -0.047812 -0.154553 -0.126340 -0.001041 -0.142644 0.127027 -0.173069 0.232364 -0.041337 0.088892 -0.274575 0.043171 -0.061364 -0.086313 -0.029918 -0.186023 0.070338 -0.169865 -0.063353 -0.032232 0.134158 -0.088465 -0.004410 -0.323511 0.023584 -0.039915 -0.116612 -0.164118 -0.088870 -0.024752 0.145714 -0.133656 0.036426 0.129601 0.193161 -0.149860 -0.187412 -0.179062 0.205474 -0.206346 -0.040365 0.008238 0.111896 0.078081 -0.044472 -0.183988 -0.124747 0.054661 0.244747 0.067655 0.043650 0.244693 0.099436 -0.015984 0.223640 -0.012928 -0.035625 -0.098696 0.212360 -0.185023 -0.001783 -0.170596 -0.172541 -0.024666 -0.071800 -0.022613 -0.129437 0.028574 -0.060569 -0.240854 -0.091080 0.217186 -0.198936 0.197299 0.107361 0.070246 -0.070930 -0.401877 0.039188 0.010923 -0.038042 0.112406 -0.136243 0.094838 -0.142693 0.007757 -0.065933 0.052619 0.144243 0.018926 -0.101415 -0.211307 -0.044567 -0.071676 -0.115647 0.065560 -0.093226 -0.028586 0.200730 -0.041269 -0.235850 0.080140 0.112968 -0.063159 0.133981 -0.092727 -0.113609
353 0.107216 0.106532 -0.045722 0.160032 -0.152088 0.020658 0.024164 -0.182652 0.116218 0.109425 0.184483 0.240461 -0.255061 -0.014770 -0.034027 0.004243 -0.176807 0.249453 0.042619 -0.213930 0.041880 0.203871 0.002578 0.122094 0.082954 -0.095576 -0.030253 -0.154927 -0.027119 0.136201 0.045938 0.210622 -0.055607 0.015902 -0.140574 -0.120885 -0.089989 0.226323 -0.123225 -0.205694 0.117758 -0.181365 -0.159367 0.004554 -0.163564 0.147630 -0.068903 -0.095263 -0.093000 -0.080923 0.200489 0.041742 -0.092266 0.184795 0.134248 0.057297 0.014810 -0.088473 -0.093704 0.007257 -0.127090 -0.227252 0.134914 -0.040318 -0.041809 -0.062433 -0.127176 -0.228417 -0.018208 0.175127 0.203291 -0.076100 0.193984 0.156265 0.059625 0.192027 -0.174452 0.182875 -0.271523 -0.102866 0.113287 0.229329 0.057790 -0.142853 0.223669 0.115040 -0.125729 -0.191989 -0.023621 -0.155292 -0.048401 -0.090736 -0.113522 -0.104641 0.090259 0.057938 -0.255744 0.030710 -0.045839 0.151123 -0.226968 -0.030933 -0.169256 -0.117142 0.052730 0.013440 -0.167681 -0.133561 -0.092183 0.152537 -0.231258 -0.021607 0.183414 -0.021164 -0.144482 0.196638 -0.026936 -0.055465 0.077191 0.153132 0.091856 -0.089800 -0.148790 -0.005129 0.051305 -0.070272 -0.138342 0.143242
41 -0.116524 -0.167333 0.284982 -0.052835 0.014190 -0.084063 -0.310096 -0.123982 0.075322 0.085427 -0.047306 -0.095936 0.126497 -0.089154 -0.116258 -0.032663 0.201590 0.017280 0.033695 -0.044525 0.056925 -0.111544 0.093093 -0.034505 -0.094658 -0.017129 -0.085059 -0.059490 0.025346 -0.041405 0.008727 0.093601 -0.126038 -0.029038 -0.063460 -0.220145 -0.065718 -0.006403 -0.076789 0.071408 0.112550 -0.129123 0.240626 -0.061121 0.102194 0.012749 0.084289 -0.020247 -0.211329 -0.235683 0.047929 -0.002833 0.095131 0.085761 -0.002894 0.155946 -0.141806 0.026034 -0.055702 0.122951 -0.063966 0.002599 0.095848 0.086249 -0.112143 -0.016789 -0.181635 0.069059 0.014087 0.233476 0.122799 -0.064325 0.137363 -0.020231 0.184488 0.052476 0.034857 -0.223072 0.213534 0.166865 -0.011177 -0.003595 0.185246 0.039634 -0.059166 0.029896 -0.021675 -0.029492 -0.142842 0.001309 -0.029729 -0.200171 -0.052196 -0.082314 0.052982 0.164091 0.144241 0.052691 -0.017458 0.030543 -0.080275 -0.247544 -0.000707 -0.087411 0.110243 0.066676 -0.166765 -0.062685 -0.107139 -0.106099 0.015662 0.001981 -0.046311 -0.114874 -0.084563 -0.102108 -0.179113 0.156165 0.004072 0.190178 -0.069621 -0.003609 -0.228385 0.032177 0.098731 0.228041 -0.004482 -0.047855
307 -0.041725 -0.065799 0.224497 -0.010795 0.188031 -0.149459 0.155424 0.076043 0.042649 0.240219 0.371477 -0.150798 0.019068 -0.067408 -0.040137 0.166270 -0.133694 0.170601 0.276721 0.075072 -0.001461 0.005806 -0.229976 -0.159109 0.044233 -0.060146 -0.092623 0.053938 -0.056451 -0.037645 0.028029 -0.065660 -0.098500 0.104510 -0.083747 0.061378 0.149888 -0.037539 -0.019035 -0.106109 0.073522 0.048318 0.123722 -0.029087 -0.210162 -0.003465 0.019156 0.225916 -0.259654 -0.256476 -0.025396 -0.060732 0.048396 0.161790 -0.058293 0.128534 0.113548 -0.148941 0.176981 0.013006 -0.116603 0.065438 -0.042919 0.061858 0.103916 -0.174926 0.070006 -0.022927 -0.093376 0.171915 0.213344 0.045019 -0.119412 0.168999 0.117033 -0.093001 -0.099875 -0.083060 0.012988 0.007846 0.132456 0.190210 0.152364 -0.245570 0.068860 0.047225 -0.061225 -0.136743 0.077614 0.192667 0.054027 0.129168 0.004735 0.066376 -0.073702 0.066248 0.030582 0.074993 -0.109073 0.064814 -0.045953 -0.013554 0.083099 0.089211 0.090891 0.087795 0.085417 0.192667 -0.041429 0.054283 0.098967 -0.116373 0.090633 -0.188792 -0.044047 0.148599 0.210799 0.028228 -0.057090 0.141600 -0.294539 0.126328 -0.253038 0.232426 -0.098463 0.019592 -0.161830 -0.123845
701 0.091685 -0.063382 0.222655 0.123356 0.194864 0.083376 0.043986 0.009208 0.029447 -0.085407 0.025922 -0.103225 -0.024024 0.011529 0.180733 -0.023445 0.015762 0.037178 0.105267 -0.163959 0.060574 -0.232863 -0.022878 -0.117639 -0.012189 0.156562 0.211625 0.114782 -0.065747 -0.110622 -0.139040 0.228689 0.013161 0.144047 -0.105160 -0.064049 0.065424 0.345157 -0.058231 -0.189884 0.122136 -0.004650 0.164743 -0.012097 -0.165404 -0.267345 0.306653 0.035756 -0.140188 0.168876 0.105571 -0.046463 0.215039 -0.121019 0.132396 0.221980 -0.105467 -0.076054 0.010816 0.078562 -0.021253 0.026343 0.088754 0.145326 -0.053863 -0.096969 -0.053518 -0.166854 -0.068862 0.054055 -0.082685 0.147602 0.200706 0.086856 0.182258 -0.082825 0.135510 0.045451 0.009504 0.006880 -0.129318 -0.060497 0.184840 -0.069553 -0.002955 0.024358 0.117288 0.041372 0.181053 -0.249835 0.017355 0.082229 0.053749 0.169891 -0.100092 0.279863 0.172901 -0.131705 -0.042609 0.130079 0.025292 -0.423975 0.012725 0.089380 0.016937 0.162783 -0.181561 -0.148142 0.074569 0.009560 0.011667 -0.121242 0.116420 0.031218 -0.240401 -0.085287 -0.027371 -0.010667 -0.081002 -0.050626 -0.031241 -0.032431 -0.226916 0.072119 0.017676 -0.059609 0.060117 0.263647
360 0.030336 -0.214040 0.039030 -0.139168 0.086375 -0.109500 -0.048073 0.150163 -0.014040 -0.089457 0.016263 0.119161 -0.164259 -0.010949 -0.236892 0.042377 0.128668 0.150751 -0.058688 0.008209 0.086009 -0.118026 -0.062042 0.090012 -0.123283 -0.092970 0.089816 -0.072828 0.019913 0.025786 0.112929 -0.045105 -0.141825 0.046994 0.052375 0.002401 -0.038640 0.066428 0.125806 -0.005791 -0.106479 -0.004665 -0.051589 0.043768 0.009564 -0.104694 0.109297 0.035622 -0.126876 0.072244 0.075285 0.131410 -0.001800 0.117246 0.004205 0.080103 -0.194067 0.009784 0.088820 -0.046873 -0.088956 -0.022899 -0.045183 0.043176 0.197587 0.137300 -0.279283 0.106186 -0.116259 0.144218 0.108612 -0.151006 -0.010009 0.112476 -0.044881 0.116804 0.210465 0.012533 -0.007607 -0.108979 0.023829 0.113300 -0.011264 0.145494 0.034371 -0.052434 0.034645 -0.118010 -0.080614 0.117752 -0.158157 -0.012559 0.126877 0.079753 0.083658 -0.110289 0.023081 -0.098607 -0.317674 0.082872 -0.056401 -0.350503 0.106240 -0.008208 -0.126490 -0.001647 0.081104 0.008750 -0.228075 0.074676 0.195192 -0.046662 -0.021273 -0.066752 -0.103570 -0.052432 -0.086431 -0.034916 -0.049558 0.018787 -0.051567 -0.198099 -0.004958 0.063991 0.019034 -0.183306 0.025057 -0.180083
151 -0.032455 0.113962 -0.052356 -0.100633 0.039813 0.005361 0.236500 -0.121387 -0.094914 0.121828 0.134181 0.022274 -0.046718 -0.029943 -0.017588 0.116676 0.271254 -0.010066 0.033482 0.010499 0.135306 0.143647 0.154080 -0.018032 -0.146807 -0.052687 0.140894 -0.167714 -0.088131 0.022692 0.085874 0.053702 -0.067888 -0.022304 0.016189 -0.042208 -0.137168 0.072138 -0.075934 0.017752 0.051796 0.029347 -0.091781 0.057991 0.047305 0.053544 -0.173423 0.063149 -0.070290 -0.029506 0.027477 0.239939 -0.091933 0.202058 0.097922 -0.167780 0.062160 -0.063519 -0.200606 -0.057657 0.021468 -0.014364 -0.042874 -0.075484 0.094351 -0.369146 0.065252 0.083333 -0.027719 0.082084 0.243756 -0.183240 0.034714 0.250503 0.226706 0.069066 0.106512 -0.279597 0.062564 0.024769 0.052239 0.179134 0.196357 0.043798 0.158728 -0.110904 -0.232813 -0.119894 -0.012334 -0.030834 0.018772 0.062925 -0.102229 0.023929 0.118350 -0.212941 0.142439 -0.137416 -0.004116 -0.115888 -0.035282 -0.153028 0.060111 -0.009683 0.070967 0.062592 0.239175 -0.286314 0.035825 -0.242324 -0.016295 0.002324 0.193835 0.102078 -0.037710 -0.016080 -0.075486 0.185872 0.063603 -0.100137 -0.166058 -0.074354 -0.190654 0.171701 -0.115807 -0.082069 -0.162841 -0.180949
280 -0.144638 -0.092021 0.173186 0.175390 0.054872 -0.093405 0.054713 0.029906 -0.062689 0.224808 0.247204 0.033355 -0.116224 0.217251 0.075478 0.092735 -0.015389 -0.022652 0.121103 0.125013 0.145056 -0.033002 0.059074 0.086433 0.103238 0.189353 0.019280 -0.172185 0.205356 -0.049330 0.171183 0.055607 -0.082775 0.034556 -0.149264 0.024359 -0.074038 0.191388 -0.069203 0.043327 0.149285 0.060616 0.129957 -0.034150 0.060112 -0.052890 0.174224 -0.229651 -0.144126 -0.160060 0.001049 0.255239 -0.012639 -0.111610 -0.034700 0.153495 -0.119105 -0.178928 0.058069 0.039072 -0.181682 -0.325232 -0.117485 -0.075374 -0.027436 -0.107289 -0.057081 -0.119484 0.094043 0.262061 -0.153748 0.131384 0.061968 0.199910 0.082109 0.086887 -0.001631 -0.042212 -0.047511 0.052671 0.086386 0.114943 0.106253 0.106693 -0.118740 -0.062172 -0.222453 -0.087775 -0.205381 -0.137955 0.232082 -0.014286 0.146547 -0.121010 0.017617 0.148103 0.156728 0.078278 -0.049928 0.055546 -0.115862 -0.092264 -0.153138 0.108219 0.018568 0.042087 0.018473 0.153928 0.030592 -0.035012 0.130052 -0.045964 0.023127 -0.006385 0.048773 -0.069399 -0.175902 0.078876 -0.024364 0.026602 -0.156785 -0.045762 0.178083 -0.027972 0.004564 0.001805 -0.012695 0.058388
219 0.119273 -0.004088 0.015471 -0.167972 -0.108014 0.057160 0.119281 0.186526 0.018093 -0.025368 0.033131 0.055925 -0.109906 0.074046 -0.061082 0.072246 0.131192 -0.045518 0.118347 -0.052350 0.092866 0.033331 -0.008290 0.037010 -0.187804 0.020388 0.241758 -0.135890 -0.096241 0.068940 0.203797 -0.075442 -0.168141 0.136133 -0.129915 0.131177 -0.226912 -0.083831 -0.123107 0.132034 0.060670 -0.003469 0.060854 -0.020270 -0.239534 -0.074056 -0.019040 -0.161777 -0.059196 -0.006376 -0.149961 0.059310 -0.011202 0.130885 -0.102252 0.080933 -0.147452 -0.101421 0.025978 -0.136723 0.052906 0.080498 0.005033 -0.021803 0.161197 -0.141004 -0.122193 -0.156893 -0.061939 0.129761 -0.114498 -0.023272 0.164469 0.172447 0.154082 -0.033775 0.294989 0.129900 0.086490 -0.013340 -0.101344 -0.087766 0.101447 -0.119021 0.040346 0.226066 -0.051736 -0.109433 -0.088790 0.039500 -0.161225 -0.059543 0.015336 0.105854 0.109918 -0.178762 -0.231776 -0.012562 -0.342357 0.153830 0.093913 -0.223392 0.133496 0.053804 0.031757 -0.046483 0.195373 0.064963 -0.202596 -0.003022 0.095596 0.169332 0.122770 -0.136519 -0.180643 -0.041294 -0.145113 0.157276 0.019795 -0.263257 -0.221947 -0.104875 -0.014842 0.037192 0.092299 -0.059220 0.213762 -0.175742
148 0.236499 -0.055804 0.131305 -0.095243 -0.032075 -0.013911 0.054054 0.178548 -0.004909 -0.091730 0.079578 0.142536 -0.023451 -0.210413 0.071219 -0.014064 0.219044 -0.055178 0.030406 -0.142365 0.009132 0.160621 0.043821 0.016270 -0.051169 0.071424 0.040708 -0.083441 0.000517 -0.029731 0.143059 0.390139 0.240444 0.232702 -0.031778 0.019716 -0.066521 0.217161 0.184492 -0.006467 0.017825 -0.117752 0.049105 0.151465 -0.100891 -0.005943 -0.078964 0.037927 -0.410248 -0.030070 0.018032 -0.144611 0.075035 0.003302 -0.048676 0.152924 0.024196 0.008890 0.093328 -0.063902 0.091059 -0.037668 0.051224 0.007681 -0.075700 -0.151753 0.000512 0.007461 -0.066819 -0.005248 -0.022845 -0.090507 0.369390 0.213727 -0.005648 0.147202 -0.023253 0.119583 0.029693 0.087780 0.029443 0.172124 0.067281 0.108695 0.044367 0.150712 -0.190311 0.094926 -0.150984 -0.072962 -0.032395 0.009894 0.150977 0.043938 -0.020505 0.017693 0.030147 0.085192 -0.119369 0.042958 -0.108023 0.061373 0.052531 -0.031673 -0.048862 0.000388 0.020817 0.047448 0.132093 -0.122608 0.179143 -0.206863 0.122029 0.033971 -0.103906 -0.201304 -0.060062 0.159517 0.053035 0.027398 -0.051569 -0.133452 -0.150589 0.300798 -0.164115 -0.117583 0.062753 -0.044447
477 -0.042791 -0.271465 0.099709 0.132573 0.002557 -0.099733 -0.090149 -0.120969 0.166180 -0.006725 0.222135 -0.016631 0.051994 0.094938 0.189885 0.194984 0.017369 0.002901 0.028747 -0.058717 0.045555 -0.147471 -0.023163 0.120615 0.227386 0.301568 -0.022288 -0.101056 -0.013773 0.129260 0.190537 0.044150 -0.069435 0.295993 -0.173120 0.013725 -0.067165 0.127958 0.171766 -0.321374 0.230260 0.004804 0.197625 0.016263 -0.032460 -0.024550 0.043805 -0.020223 0.089199 0.051987 0.256724 0.110534 0.065072 0.011719 0.006240 -0.025463 0.069388 0.059323 0.032249 0.073895 -0.069765 -0.176129 -0.078226 0.114741 -0.118828 -0.222661 -0.144354 0.027273 0.093513 0.232158 0.074432 0.235263 -0.050564 -0.082271 -0.135242 -0.094999 -0.065300 -0.111360 0.078876 0.068018 0.029376 0.076100 0.052520 -0.175545 -0.097809 -0.000319 0.070014 -0.216630 0.047704 -0.217523 -0.199087 0.013384 0.090532 0.010478 0.102468 -0.017941 0.065370 -0.038976 -0.086395 -0.112845 0.019327 -0.046549 0.076661 -0.045526 -0.019906 -0.123831 0.028695 -0.177788 -0.101935 0.036282 -0.030967 -0.174879 0.178691 0.025126 0.052999 0.146002 -0.043111 0.056718 -0.032699 0.154635 -0.187549 -0.163622 -0.054930 -0.127318 -0.099223 -0.066101 0.070335 0.056535
507 0.223855 -0.109846 -0.013592 -0.067476 -0.141922 0.127872 -0.125050 -0.193571 -0.046407 0.076300 -0.217161 0.071886 0.042027 -0.047761 -0.022929 0.028516 0.235396 0.219621 0.138911 -0.102802 0.203540 0.071283 0.125893 0.184999 -0.071460 0.010520 0.056535 -0.111694 -0.079218 -0.078433 -0.033367 0.083600 -0.215357 0.110543 -0.011682 -0.075120 -0.066464 0.027226 -0.029558 -0.048340 0.204416 0.022474 -0.107638 0.067827 -0.163416 -0.034360 -0.123501 0.239919 -0.168700 -0.035498 -0.172635 0.181383 -0.154201 0.122435 0.036735 -0.066603 -0.226334 0.156749 0.023205 -0.104372 -0.026285 0.137384 0.084823 0.162333 -0.049392 -0.142229 -0.192148 0.114672 -0.002555 0.199387 0.266259 -0.031333 -0.086772 0.256622 -0.279976 -0.047387 0.061455 -0.001524 -0.052460 -0.079980 0.163374 0.211947 0.056432 0.037317 0.176148 -0.290911 -0.116680 0.125778 0.021369 -0.091042 0.133284 -0.156940 0.069161 0.161495 -0.211238 0.329666 0.126963 -0.083905 -0.107476 -0.035190 0.011400 -0.046232 0.012627 0.067285 0.135090 0.014264 0.003168 -0.020485 -0.087511 -0.132097 0.031254 0.100711 0.173517 -0.114585 0.022499 0.100800 0.097418 -0.197681 -0.045515 0.114843 -0.311827 -0.067489 -0.022120 0.074772 -0.020286 0.129061 0.192873 -0.257617
550 0.015902 0.067474 -0.044277 0.032133 -0.093161 -0.092024 0.001711 0.033842 -0.077306 -0.186277 -0.093362 -0.083576 0.007256 0.062049 -0.121059 -0.016790 0.046811 -0.018472 0.038011 -0.264964 -0.009532 -0.031530 -0.163973 -0.003855 0.089635 0.019775 -0.018231 -0.189915 0.117292 0.052084 -0.069823 0.034450 -0.046408 0.385180 -0.010341 0.070521 0.010863 -0.033839 0.140380 0.030082 -0.004994 -0.046698 -0.056455 0.209303 -0.067657 0.016145 0.162981 0.184890 -0.188103 0.028187 -0.019107 0.064967 -0.058392 0.144312 0.021086 0.198090 -0.019577 0.038567 0.149890 -0.104924 -0.078346 0.008782 0.049106 0.014847 -0.002354 0.093641 -0.047618 0.056390 -0.096070 0.223029 0.116666 -0.224860 -0.159154 0.284768 -0.020533 -0.095443 -0.055113 -0.052169 -0.036706 -0.044965 -0.230753 0.131916 0.140680 -0.138069 0.149695 -0.073891 -0.034064 -0.074871 -0.252276 -0.127963 0.121552 -0.025655 -0.235007 0.087528 0.012520 0.080535 -0.204008 -0.185668 -0.091434 0.023954 -0.040089 -0.127449 0.161642 -0.029632 0.079886 -0.114998 0.080893 0.021027 -0.106413 -0.141264 0.151021 -0.004386 0.033032 0.108440 -0.208145 0.025245 0.067140 0.001051 -0.186220 0.006454 -0.087065 0.081953 -0.126955 -0.001601 -0.087061 -0.102974 0.024684 0.060894
631 0.265383 0.056526 -0.197949 0.002636 -0.093936 -0.166379 -0.121888 0.093005 0.181145 0.046393 0.090174 0.145235 0.046478 0.242151 0.027162 -0.021641 0.134324 0.149186 0.144424 -0.084010 0.171308 0.049143 0.030009 0.062202 -0.232338 -0.231700 -0.011117 -0.026021 0.074388 0.047675 0.193689 0.187244 0.235947 0.108548 -0.097402 -0.166577 -0.087435 0.171848 0.124151 -0.015010 0.089803 -0.146437 -0.030421 0.073966 0.100875 0.042407 -0.053713 0.219388 -0.155795 0.136498 0.172751 0.225115 0.009926 0.177679 -0.001541 -0.037225 -0.024636 0.149307 0.210729 -0.065913 -0.203662 -0.123690 -0.045423 0.118577 -0.144949 -0.094315 -0.013442 -0.096694 -0.074018 0.082411 0.115378 -0.239926 -0.021240 -0.025586 0.049732 -0.105726 0.242906 0.011196 0.049678 0.155493 -0.007183 0.112398 -0.169331 -0.031112 0.061804 0.051166 0.087093 -0.156521 -0.122209 -0.003349 -0.007164 0.013624 0.198600 -0.047936 0.003365 0.087411 0.035483 -0.288677 -0.245356 0.029029 -0.100005 -0.248459 0.124238 -0.022226 0.075628 0.091759 0.060416 0.108106 -0.160930 0.031604 -0.156999 0.021492 0.051464 -0.021798 -0.015957 0.088593 0.280103 0.049605 -0.129496 -0.173645 -0.024348 -0.114210 0.072762 0.142967 0.005145 0.168498 -0.034732 -0.076519
157 0.094384 -0.118455 0.074865 0.009218 -0.258809 0.112256 0.185102 -0.096169 0.008180 -0.001428 0.097289 0.072991 0.017757 0.124972 -0.171992 0.014609 0.002219 0.120267 0.050569 -0.030844 0.239963 0.215889 0.052018 -0.003963 -0.072673 -0.075575 -0.015065 -0.191905 0.167818 0.056794 0.254345 -0.174457 0.195703 0.151469 -0.033193 -0.012858 -0.011027 0.020762 -0.042172 -0.120131 0.201045 0.025720 0.206417 -0.061921 -0.078740 -0.061821 0.056000 0.067372 0.013279 -0.104402 0.170451 0.014159 -0.112937 0.228665 0.074857 0.247140 -0.003334 -0.011539 -0.085681 0.046574 -0.119115 -0.004791 -0.028958 0.110247 -0.116284 -0.055005 -0.169187 0.015967 -0.049772 -0.011213 0.216931 -0.079928 0.015786 0.182257 0.041350 0.104546 -0.062863 -0.189842 0.030432 0.114791 -0.162858 0.092005 -0.032436 0.022032 -0.078568 -0.144007 -0.073873 -0.062159 -0.284265 -0.076961 -0.020072 -0.086911 -0.143403 -0.110993 -0.044164 0.177484 -0.143194 0.012725 0.004008 0.168064 0.169242 -0.237709 0.234087 -0.200159 0.108949 0.012997 0.011807 0.022124 -0.083106 -0.053343 -0.042369 -0.072570 0.058754 0.011041 -0.065507 0.090304 -0.100025 -0.065973 -0.073019 -0.141568 -0.036192 -0.246526 0.081501 0.085117 -0.040935 -0.047056 -0.058675 -0.003513
332 -0.082054 -0.089586 -0.061725 0.109628 0.138172 -0.009175 -0.000604 0.028289 -0.095008 0.242261 0.101610 -0.126937 0.018469 0.197133 -0.169417 -0.028107 0.006761 0.158233 0.182721 -0.048092 0.066103 -0.092129 0.151705 0.050380 0.002760 0.155206 -0.025460 -0.291849 0.063174 0.117976 0.174672 -0.020741 -0.098566 0.175270 0.043121 -0.070394 -0.013007 0.125657 0.060492 -0.180024 -0.018324 -0.091409 -0.198098 0.122111 -0.138063 -0.053361 0.035783 -0.058170 -0.171032 -0.163883 0.055144 0.083065 0.205491 -0.103316 -0.007940 0.042008 0.093737 0.105956 -0.044518 0.105875 0.098703 -0.046528 0.138291 0.189348 -0.361581 0.005594 -0.236386 -0.036397 0.046678 0.115161 0.075248 0.149213 0.095992 0.237684 -0.145824 0.190173 0.024248 0.088175 0.087371 -0.045635 0.006841 0.108302 0.098205 0.100511 0.221521 -0.009298 0.027238 -0.060021 0.006242 -0.203175 0.077245 0.203194 -0.121057 0.126187 -0.099268 -0.271547 0.087545 -0.020424 -0.022047 -0.089884 -0.089451 -0.030067 0.243953 0.168705 0.037075 -0.005283 0.079832 0.077749 0.227563 0.049912 0.103763 0.147705 -0.051883 -0.097181 -0.041423 -0.089379 0.093111 0.101745 0.148440 -0.185377 0.144818 -0.159440 0.233972 0.064756 0.125074 -0.050864 0.000157 -0.349088
90 0.018673 -0.070556 0.110819 -0.091418 0.022003 0.057373 -0.054575 0.016867 0.006309 0.300561 -0.101627 0.118452 0.091900 0.152847 -0.258949 -0.003511 -0.003905 0.111134 0.121354 -0.037266 0.175945 0.181238 -0.047498 0.162487 -0.038924 -0.048344 0.073259 -0.289697 -0.178007 0.004253 0.043671 -0.097563 0.041785 0.098609 0.144675 -0.314673 -0.218191 0.160613 -0.145239 0.053107 0.026514 -0.172109 -0.133752 -0.054699 -0.223857 0.032090 -0.066397 -0.106724 -0.100902 -0.006680 0.057556 -0.079145 0.159427 0.167509 0.021450 -0.093137 0.091210 -0.083652 0.389938 0.152948 0.081809 -0.158765 -0.139699 -0.021800 -0.091025 0.049203 -0.210114 -0.050571 -0.086952 0.132017 -0.003151 -0.138313 -0.059300 0.047852 -0.039264 0.143723 0.008272 -0.040068 -0.001732 -0.196437 -0.182524 0.059942 -0.049667 0.069873 -0.108069 0.150777 0.065502 -0.104022 -0.186529 0.095676 0.171376 0.023553 -0.087040 -0.181537 0.006795 -0.033717 0.044439 -0.016913 -0.191901 -0.349925 0.095704 -0.137063 0.288704 0.033667 -0.062085 0.109091 -0.114469 -0.083096 -0.208766 -0.008698 -0.047850 -0.014048 0.070655 -0.069107 -0.133994 -0.069653 -0.089158 0.032515 0.099132 -0.186023 -0.030152 -0.153384 -0.031308 0.053785 0.032567 0.019801 0.117031 0.183974
24 0.178139 -0.053742 0.202348 -0.158260 -0.113743 -0.052715 -0.183956 -0.021086 0.376198 0.079425 -0.056716 0.295654 0.036600 0.028311 -0.119387 0.255472 -0.154974 0.087638 0.232157 0.160152 0.129568 -0.046173 0.053204 0.095028 0.088940 0.101156 0.231515 -0.118215 0.157923 -0.150907 0.106700 0.272834 0.002880 0.157664 0.087513 -0.158791 0.051125 0.133394 -0.001190 -0.245575 0.248183 0.058132 -0.146093 0.064764 -0.194112 0.015011 0.000502 0.199460 0.149225 -0.060993 0.098467 0.171222 0.146234 -0.091239 0.142872 -0.098334 0.113020 -0.061961 0.073633 -0.118446 -0.222904 0.124583 -0.187694 0.042132 0.011204 -0.295650 -0.062191 -0.007251 -0.110917 0.057145 -0.036419 -0.203463 -0.007398 0.151488 0.029722 0.115871 -0.092335 -0.074094 0.098365 -0.167564 0.020466 0.146392 0.084630 0.033978 0.264631 -0.163298 -0.014343 0.067497 -0.072454 -0.029737 0.041943 -0.083822 -0.032165 0.030920 -0.031429 -0.071220 0.121533 -0.008353 0.017945 -0.022297 -0.144403 -0.172675 0.041854 0.128351 0.106962 0.156444 -0.038940 -0.038950 -0.197640 -0.119126 0.113248 -0.084815 -0.046060 -0.039630 -0.161289 -0.004482 -0.204751 -0.257813 0.057464 -0.007788 -0.176232 -0.052969 0.245382 -0.134856 0.079852 0.028370 0.052245 -0.114502
51 0.073952 -0.175251 -0.208654 0.177179 -0.025480 0.149199 0.043961 0.077285 0.015365 0.071634 0.141502 -0.119129 -0.014022 -0.089089 -0.316074 0.037184 0.099406 -0.201441 0.128784 -0.111152 0.111933 -0.082602 0.283627 0.138185 0.069404 -0.063728 0.149278 0.053866 0.003515 0.223935 -0.014552 0.120671 -0.159382 -0.021457 -0.125476 -0.278965 -0.137349 0.107190 -0.070207 -0.086354 0.072872 0.111051 -0.113173 -0.007938 0.089367 0.075039 -0.007600 -0.312239 -0.022217 0.058863 0.111342 0.085729 0.097015 0.133664 -0.030843 0.145175 -0.072619 -0.169391 0.270327 0.009190 -0.272025 -0.144860 0.157210 0.152907 -0.055352 -0.019863 -0.004004 -0.114782 0.067562 0.031651 0.088627 0.014474 -0.112611 0.224641 -0.073593 -0.110983 0.008209 0.043611 0.037930 0.085454 -0.169107 0.065531 -0.130821 -0.125872 0.053894 -0.120841 -0.101918 -0.192255 -0.396087 0.175152 0.014542 -0.051381 0.125643 0.116028 0.081576 0.302199 0.015217 0.029711 -0.263538 0.102493 -0.049112 -0.110620 0.162190 0.240052 -0.197099 0.026545 0.022114 -0.181898 -0.020342 0.056976 0.123785 0.002501 0.079013 0.210973 0.104489 -0.211705 0.225406 -0.262574 0.019639 0.034347 -0.081790 -0.112544 -0.165464 0.208530 -0.023689 -0.003025 -0.147996 -0.038161
660 -0.036268 -0.075002 0.039676 -0.055695 -0.040177 -0.255986 -0.084110 0.006949 -0.201652 0.023335 0.036439 0.191984 0.076049 0.398511 0.205945 0.088873 0.255847 0.031570 0.130013 0.032431 0.082539 -0.273467 -0.061328 -0.111874 -0.077642 0.038885 0.120613 -0.232587 -0.099237 -0.107151 -0.119762 -0.062252 -0.178102 0.089180 -0.110768 0.012873 -0.036034 -0.040565 -0.011993 -0.125421 0.023053 -0.026778 -0.223918 0.013455 -0.030760 -0.037721 0.161436 -0.103753 -0.159910 -0.011045 -0.135774 0.033556 0.110767 0.180816 0.077601 0.054760 0.232183 0.046192 -0.201908 0.081609 -0.008283 0.216626 0.086819 -0.060058 -0.044558 0.005951 -0.022928 -0.021075 -0.071412 0.139073 0.174613 -0.195116 0.112360 0.066627 -0.052903 -0.144759 0.359667 0.138509 0.123065 -0.006696 -0.065271 0.340351 0.078736 -0.130502 -0.137588 0.112629 -0.045356 -0.045648 -0.205288 -0.112459 0.097538 -0.123022 -0.044455 -0.039658 0.092475 0.028117 0.078948 -0.124688 -0.007344 -0.118292 -0.054662 -0.037095 0.171784 -0.107004 -0.065998 0.179571 0.040570 0.039689 0.166025 0.091534 0.005159 -0.125136 -0.121147 -0.209955 -0.102623 -0.034094 0.117651 -0.000052 0.006175 0.045367 0.018885 -0.106754 -0.077007 0.200413 0.136174 0.172978 -0.075460 -0.066883
594 0.222281 -0.329334 0.119140 0.139418 -0.067278 -0.066114 0.114398 0.165542 0.060887 0.009810 0.001231 -0.079240 -0.208273 -0.048239 -0.044930 -0.089379 -0.103617 0.105008 -0.010701 -0.117713 0.087151 -0.086525 0.324198 0.097317 0.045994 0.004727 0.101329 -0.075036 0.164859 0.062667 0.009657 0.367462 -0.184276 0.106686 -0.221322 0.064553 0.133147 -0.061569 0.037493 -0.042546 -0.051027 -0.047595 -0.234487 0.042826 -0.153684 -0.128248 0.135114 0.090880 0.051124 -0.117162 -0.041021 0.190184 0.083743 0.139975 -0.089119 0.035959 -0.132443 -0.075680 -0.094774 -0.035925 -0.206544 -0.111570 -0.156443 -0.173014 -0.035009 -0.035949 -0.178681 0.037642 -0.037458 0.063861 0.000799 -0.095181 0.055591 0.126726 -0.096439 0.065750 0.126429 -0.143314 -0.111334 0.011715 0.058247 -0.068547 0.116872 -0.069453 -0.073930 -0.053276 0.118883 -0.207478 -0.045063 0.109829 0.001109 -0.213796 -0.000515 0.266123 0.067295 0.047273 0.005450 -0.079696 -0.024079 0.014324 0.164338 -0.291110 0.174247 0.162667 -0.014483 0.082044 -0.209169 -0.080147 0.161605 -0.131892 0.179003 0.139245 0.050050 -0.228525 -0.096150 0.021752 0.044872 0.057665 0.038140 0.141662 -0.161047 -0.076599 -0.194701 0.070017 0.036882 -0.056198 0.024006 0.023436
231 0.062362 -0.155085 0.165323 0.108810 0.102427 -0.127125 -0.049291 -0.093419 -0.154831 0.143946 0.159971 0.090977 0.192815 -0.104951 -0.199678 0.055033 0.007791 -0.021674 0.183357 -0.194386 -0.023846 -0.052288 -0.085674 -0.027071 0.107266 -0.015435 -0.008773 -0.056009 0.136201 -0.210996 0.101382 -0.040318 -0.093117 0.197177 -0.037909 -0.059370 0.059571 0.159517 -0.228686 -0.021543 0.314190 -0.024771 -0.013174 0.050114 0.066440 -0.074438 0.149042 0.022198 -0.062421 -0.080072 0.163671 0.183360 -0.105635 0.265298 0.056387 0.169381 0.086550 -0.028766 0.035215 -0.132860 0.034735 0.240711 0.038986 0.078784 -0.026398 0.132063 -0.170418 -0.112885 -0.167950 0.204417 0.121297 -0.154085 0.154130 0.071516 -0.009991 0.024042 0.206891 0.048347 0.040445 0.268321 -0.067773 0.169031 -0.211477 -0.085372 0.004350 0.033740 -0.066652 0.053716 -0.082068 -0.255138 0.082773 0.050132 0.046486 -0.013850 -0.029526 -0.056554 0.085013 0.055058 -0.129180 0.042245 -0.038560 0.122765 -0.015189 -0.152667 -0.088254 0.081818 -0.240733 -0.138321 -0.246556 -0.220362 0.025174 0.073757 0.084180 0.081977 -0.286783 -0.052460 0.112259 0.035509 -0.010050 0.007330 0.090808 0.000250 -0.004743 -0.137479 -0.003707 0.135709 0.154057 -0.174044
108 -0.054771 -0.185392 0.132001 -0.281272 -0.130678 0.018114 -0.193105 -0.044851 -0.217106 0.124949 0.172715 0.120114 0.176425 0.052114 -0.003183 0.100250 0.087613 0.034385 0.324191 -0.098819 -0.050096 0.079068 0.204114 0.069608 0.056169 -0.070734 0.133252 -0.039928 0.051645 0.069272 0.134527 0.184433 0.102319 0.048211 -0.218540 0.007151 0.138606 -0.143623 0.154176 -0.310546 0.019141 -0.110312 0.056577 0.040550 -0.127050 -0.023505 -0.013824 -0.076876 -0.151002 -0.018366 0.035162 -0.086534 0.270267 -0.256289 -0.058847 0.013926 -0.064406 -0.220595 0.078699 0.184754 -0.012496 -0.008605 0.124879 0.031777 0.014790 0.009674 0.016443 0.002840 -0.033427 0.156240 0.062452 0.027366 0.007773 0.196574 -0.021006 -0.056318 0.138771 -0.166066 0.112940 0.218338 0.068007 0.005041 0.079558 0.076331 0.083857 0.254107 -0.180345 -0.100876 -0.105675 -0.058390 -0.061516 0.051440 -0.109319 0.035678 -0.011967 -0.037144 0.040568 -0.003295 -0.088258 -0.079668 0.003273 -0.088663 0.163024 0.068020 -0.004574 0.140366 -0.083461 -0.323154 -0.073738 -0.112478 0.082575 0.200169 0.074673 0.042808 -0.167426 -0.199577 0.109341 -0.221062 -0.028182 0.047158 -0.191373 -0.196518 -0.157476 0.191424 0.062315 0.015157 0.110881 0.087467
467 0.069209 -0.376692 0.222208 -0.278339 -0.055388 -0.109212 -0.097876 -0.121706 -0.292707 0.237753 0.160004 0.219579 -0.083865 -0.150207 0.006715 -0.070720 -0.012458 0.025707 0.027793 0.070515 0.193527 -0.035344 -0.018668 0.050127 -0.107396 0.038340 0.014012 -0.022578 -0.030917 0.026568 -0.040058 0.183035 0.052858 -0.002248 -0.087277 -0.255791 -0.102626 -0.109484 -0.014296 -0.278869 0.119183 -0.034291 0.138074 0.027983 -0.227656 0.045530 -0.056508 -0.039330 0.078804 -0.234995 0.052597 -0.080376 0.172392 0.003580 0.018827 0.214982 0.199195 0.034221 0.216691 -0.000693 0.011156 0.014677 0.035860 0.182495 0.037348 -0.137116 -0.030275 -0.145853 0.002130 0.107557 0.036922 -0.024054 0.205022 0.097203 0.140923 0.073982 -0.101119 -0.038083 0.209732 -0.008874 -0.203608 -0.030485 -0.277718 0.049874 0.098837 -0.033695 -0.247236 -0.230646 -0.142692 0.019819 0.137910 0.236199 -0.135468 0.162289 0.026200 -0.053881 -0.056163 0.026642 -0.027777 0.144431 0.043081 -0.125560 -0.016718 -0.117504 -0.237207 0.022916 0.066528 -0.236382 0.054018 -0.051742 0.020536 -0.038328 0.024292 -0.025902 -0.036929 -0.108687 -0.142781 0.017646 -0.080776 -0.193105 -0.205722 0.022100 0.011444 0.006902 0.060944 0.098916 -0.057824 0.249166
626 0.039353 -0.280117 0.014792 -0.031803 0.086351 0.046077 -0.074754 -0.018760 0.236043 0.009330 0.246627 -0.108630 -0.181836 0.026732 -0.340195 0.013716 0.172631 0.094045 -0.076485 -0.003938 0.154570 0.137510 0.200656 0.240982 0.023407 -0.078837 0.065025 -0.267202 -0.028177 -0.063807 -0.120689 -0.170818 -0.070491 0.069492 -0.097972 -0.102034 -0.119664 -0.081732 -0.165675 -0.150533 0.069455 -0.134517 -0.026866 -0.004617 0.141677 -0.041891 0.003483 0.197407 -0.277382 -0.063096 -0.010280 0.024499 -0.053361 -0.045821 0.228059 0.181021 -0.165592 -0.142155 0.239031 0.037520 -0.082660 -0.308925 -0.097471 -0.027468 0.030797 -0.039741 -0.142917 0.136109 0.110946 0.151245 0.130639 -0.028459 0.082816 0.008119 -0.080566 -0.193651 0.112596 -0.080460 0.091022 -0.095785 0.000772 0.058156 0.032673 -0.104426 -0.161836 0.089208 -0.167217 0.044451 -0.168022 0.197433 -0.151920 0.030253 -0.035655 0.035680 0.104962 -0.042657 0.027038 0.081951 -0.241785 0.030878 -0.006807 -0.122476 0.208930 -0.070307 0.036039 -0.266601 0.174997 -0.128478 0.056858 0.103351 0.027508 -0.138401 -0.246059 0.115194 0.065749 -0.065848 -0.040803 -0.028514 0.296220 -0.200016 0.028947 0.041137 -0.038071 0.155398 -0.152225 0.033644 -0.019840 -0.119111
634 0.115782 -0.096998 -0.077405 -0.012102 -0.067045 0.092775 -0.052877 -0.069613 -0.072247 0.135288 0.031189 0.005050 0.207458 -0.063093 -0.173806 0.069736 0.067785 0.047901 0.230405 -0.077105 0.014552 0.096235 -0.013036 -0.017137 0.011081 -0.030118 0.128709 -0.229310 -0.116928 0.026998 -0.156579 -0.078864 -0.144476 0.202068 0.104859 0.081559 -0.121144 -0.075275 -0.147970 0.271783 0.116404 0.078308 -0.036495 0.095333 0.131624 -0.032799 -0.007115 -0.117326 -0.069903 -0.102207 0.123308 0.238863 -0.127787 -0.119879 0.000831 -0.036635 -0.035972 -0.120762 -0.248954 -0.046754 0.013707 -0.017009 -0.213587 -0.219521 0.138876 -0.184928 -0.238768 0.020179 -0.144766 0.215643 0.093919 -0.105643 -0.011255 0.184990 -0.061842 -0.158345 -0.010372 0.044606 0.106249 -0.020318 -0.078858 -0.048666 -0.073023 -0.176858 -0.038011 -0.227729 -0.419059 0.004293 0.119829 -0.151878 0.104579 -0.100898 0.068437 -0.067798 0.036162 0.096135 -0.091771 0.118546 -0.146567 -0.203499 0.105385 -0.180720 0.120205 0.182745 -0.119991 -0.010464 0.059289 -0.214725 0.189683 -0.012138 -0.117027 -0.035740 0.030888 -0.089848 -0.265896 -0.167969 -0.000979 -0.121607 0.098783 0.010454 -0.163842 -0.316993 0.018779 -0.172723 -0.289132 0.293461 -0.002582 -0.163100
249 0.020128 -0.172203 -0.005996 -0.070625 0.021854 -0.039499 -0.065597 -0.191610 -0.039277 -0.044068 0.004507 0.104772 0.139615 -0.085364 -0.167896 -0.101655 -0.112333 0.040051 -0.039923 -0.101745 0.309909 -0.343923 -0.035282 -0.160985 0.055856 0.013779 -0.068033 -0.111157 0.036777 0.100062 0.037467 0.096579 0.024816 -0.000136 -0.120526 -0.199146 0.078589 0.140919 -0.083477 -0.168789 0.035278 0.083075 0.078315 0.086084 -0.053957 -0.163089 -0.096768 0.013307 -0.127809 -0.175677 0.135795 0.075742 -0.036786 0.023816 0.032137 0.239666 -0.022849 -0.118076 0.153778 -0.189932 -0.127774 0.057389 -0.094956 -0.031158 -0.037398 0.116358 -0.108850 0.195717 -0.064023 0.264818 0.123295 -0.153451 0.020995 -0.195774 -0.053515 0.069729 0.195941 -0.038978 -0.025208 -0.057612 0.027409 -0.065536 -0.024431 -0.119959 0.264700 0.194101 -0.044224 -0.089843 0.147181 0.014217 0.128096 -0.050284 0.062428 -0.061000 0.119937 0.119674 0.209141 -0.072365 -0.323405 -0.101021 -0.120440 0.149111 0.160047 -0.107478 -0.127459 -0.014207 -0.119140 -0.118865 -0.014487 -0.128931 0.086135 -0.170561 0.165693 0.014909 0.049396 -0.091299 -0.214140 -0.084961 0.031850 -0.152234 -0.120007 -0.184746 -0.059477 -0.127556 -0.068405 -0.082492 -0.004892 -0.081217
429 -0.052930 -0.239158 0.091120 0.079977 0.180940 -0.122069 0.066785 0.056266 0.224170 -0.113694 0.201252 -0.152337 0.006300 0.079905 0.093446 -0.046846 -0.092050 -0.166777 0.031402 -0.196088 0.155766 0.214941 0.087186 0.169622 0.081210 0.156341 0.028491 -0.106306 -0.030865 0.038734 -0.264399 0.128788 -0.071868 0.083047 0.034372 0.113850 -0.007790 0.003328 -0.070708 0.181140 -0.000452 -0.010347 0.122969 0.047666 -0.060114 0.015304 -0.143687 0.145282 -0.158130 -0.195045 0.185327 -0.010492 0.051926 -0.070790 0.054629 -0.091390 -0.052498 0.023620 0.046605 0.103757 -0.096702 -0.035479 -0.032033 -0.015316 0.102495 -0.088514 0.009618 0.028553 -0.004631 0.197792 -0.025447 -0.089744 -0.055625 -0.080746 -0.109634 -0.023842 -0.020134 0.115313 0.322669 0.111807 -0.043338 0.036574 -0.022972 -0.013277 0.034783 0.232343 -0.155740 -0.055279 -0.080532 -0.044745 0.209127 0.138054 -0.148316 -0.118838 -0.142363 -0.004583 0.131390 -0.044631 -0.246841 -0.127954 -0.120137 -0.251957 0.157399 -0.019663 0.089858 -0.002376 -0.145955 -0.110763 -0.032879 -0.044751 0.074919 -0.140064 0.053336 -0.025444 -0.186216 -0.151515 0.188962 0.086516 -0.064923 -0.008801 -0.074418 -0.165349 -0.039913 -0.002334 0.138145 0.090887 0.066763 -0.083805
111 0.209621 -0.058887 0.029951 0.065848 0.122362 -0.076352 0.064719 0.023832 -0.296812 0.001048 0.050697 -0.013557 0.027720 0.039674 -0.144135 -0.032424 -0.155656 -0.038662 0.143206 -0.116159 -0.015258 0.294149 -0.009070 0.094015 0.144046 0.386893 -0.122153 -0.197214 0.056842 -0.004642 -0.150516 -0.109366 0.039430 0.017636 -0.107837 -0.182533 0.013189 0.153285 -0.072275 -0.017659 0.072176 -0.015454 0.023169 0.201617 -0.241200 -0.084697 -0.089712 -0.152495 -0.072328 -0.239923 -0.028752 -0.030338 -0.206878 0.235434 -0.017687 0.137042 0.067792 -0.085474 -0.064519 -0.025673 -0.090934 0.134214 -0.114439 0.012652 0.157945 0.155003 -0.116842 -0.017548 -0.137473 -0.228684 -0.149927 -0.138066 -0.008139 -0.034666 -0.055237 0.081818 -0.101988 -0.017805 0.007247 0.018399 -0.197067 0.134715 0.116269 -0.036582 0.059543 0.088097 -0.278947 -0.044619 -0.155024 -0.258074 -0.158129 -0.043317 0.133155 -0.052491 -0.132067 0.067217 0.336956 -0.023066 -0.121889 -0.107221 -0.127565 -0.149078 -0.154137 -0.167958 -0.128000 -0.092932 0.230709 0.064445 -0.203856 -0.111863 -0.050292 -0.018310 0.277158 -0.172671 -0.025916 -0.185112 0.080533 0.022077 -0.046632 0.174953 -0.187734 0.148795 -0.377388 0.038928 0.123048 -0.148944 -0.188286 -0.027499
632 0.098980 -0.210631 0.116557 -0.139224 0.029780 -0.045840 -0.027017 0.013010 -0.026782 0.177193 0.180613 0.082401 0.004547 -0.018992 -0.001519 0.101881 0.090335 0.171774 0.031286 0.070890 0.067773 0.104239 0.211414 -0.003739 -0.071526 0.045917 -0.022898 0.073408 -0.087777 0.098188 0.097313 0.153054 -0.092117 0.191608 0.052892 -0.005486 -0.162291 0.030624 -0.073786 -0.089582 -0.005671 -0.091371 0.161621 -0.038205 -0.296791 0.092000 0.183175 -0.035845 -0.072816 0.004765 0.131597 -0.022801 0.325966 0.079097 0.111245 -0.063478 0.205374 -0.062494 0.113349 -0.053356 0.118824 0.077427 0.047672 -0.211160 0.032813 0.121968 -0.150612 0.038315 -0.057035 0.077309 0.282003 -0.073467 0.073334 -0.012676 0.054684 -0.032423 0.056367 0.025645 -0.250573 0.038178 -0.120049 -0.001071 0.058855 -0.068603 0.030234 0.103866 -0.061310 -0.057750 -0.122577 -0.111764 0.096429 -0.020119 0.014259 -0.007296 -0.174500 0.184769 -0.186935 0.025307 -0.190946 -0.045974 -0.197682 -0.148320 -0.117575 0.198910 0.013145 0.048824 0.004327 -0.158350 -0.043482 0.072936 0.058989 -0.036239 0.007499 -0.120056 -0.323537 0.187648 -0.011294 -0.012428 -0.096241 0.279025 -0.052417 0.104473 0.102222 0.013220 -0.135189 -0.094931 0.025400 -0.061624
624 -0.109464 -0.175333 0.371186 -0.049506 -0.096941 0.092387 0.171153 0.202133 0.095639 0.086885 0.227148 0.372151 0.017070 -0.109010 0.060117 0.119958 0.250210 -0.072415 0.040550 -0.150772 0.301590 0.143789 0.211166 0.012153 0.250620 -0.081761 0.266796 -0.276662 0.009882 -0.022635 0.265008 0.080177 0.075056 0.097998 -0.017752 -0.151512 -0.032544 0.157206 -0.120980 -0.082862 0.150098 -0.013809 -0.143118 0.096966 -0.108143 0.044605 0.173251 -0.076065 -0.267379 0.064657 -0.116469 -0.102044 -0.188133 0.004589 0.038418 -0.003759 -0.198955 0.018059 0.027741 -0.091675 0.218710 0.047178 -0.181492 0.086711 0.081658 -0.049920 -0.143803 -0.151551 0.024694 -0.002147 0.019133 -0.173868 0.119449 -0.003631 0.033769 -0.008779 0.023296 -0.109551 0.111680 -0.035988 -0.175050 0.016373 -0.181080 -0.007187 -0.032285 0.011633 -0.162346 -0.074870 -0.151866 0.189815 -0.019333 0.099906 -0.042922 0.113786 0.129465 0.031873 0.026544 -0.042324 -0.348767 0.199766 -0.193213 -0.104524 0.004118 -0.097051 0.108912 0.025937 -0.132321 0.232397 0.139502 -0.115498 -0.007545 0.018993 0.139007 -0.076067 0.027362 0.035242 -0.043178 -0.199905 0.169330 -0.200923 0.012191 -0.013129 0.045263 -0.053094 -0.003789 -0.128466 -0.121870 0.028773
197 0.107764 -0.024317 0.088279 -0.002364 -0.035833 -0.061428 0.148025 0.160038 -0.099075 -0.048856 -0.101838 0.218171 -0.027273 0.018267 -0.200241 0.067586 -0.164263 0.045424 -0.031141 -0.101634 0.056475 -0.115996 -0.006683 0.022486 0.064243 0.156859 0.023136 0.070808 -0.037761 -0.040315 0.042557 0.044962 -0.069853 -0.067361 0.049105 0.046381 0.121667 -0.156096 -0.080554 0.008250 0.168935 -0.047124 0.034137 0.155869 -0.164204 0.003549 0.094017 -0.127734 0.010175 -0.167775 0.209971 0.061792 0.069918 0.147637 0.069706 -0.094903 -0.058720 0.192240 -0.186606 -0.006132 -0.223995 -0.064400 -0.043666 0.102823 -0.128045 0.040704 -0.199867 -0.192365 -0.338302 0.087527 0.101544 -0.321215 0.149240 0.043384 -0.011650 -0.022910 -0.138972 0.167683 -0.146420 -0.106111 0.174570 -0.028794 -0.024821 -0.332038 0.131114 0.184068 -0.266563 0.153026 -0.213986 -0.124230 0.084007 0.093094 0.086076 0.018652 -0.032742 0.074217 0.099363 0.000166 -0.066593 -0.071114 0.073984 -0.078283 -0.070984 -0.113420 0.109350 -0.015358 -0.332283 -0.165287 0.139383 -0.299957 0.256673 -0.161139 -0.059435 -0.104877 -0.207768 0.027443 0.013372 -0.097104 -0.088488 0.050551 -0.036637 -0.048160 -0.193046 -0.022759 0.119988 -0.205207 0.026651 -0.055431
156 0.160944 -0.093516 -0.047587 -0.014607 0.097776 0.151355 0.326936 -0.018050 -0.032981 0.044749 0.001636 -0.017574 0.074618 -0.057846 -0.183063 0.004307 -0.125456 0.026822 0.292607 -0.095906 0.162061 -0.027999 -0.076564 -0.011508 -0.019812 0.019355 0.110840 -0.145043 -0.009792 0.081989 -0.022539 0.084231 0.011792 0.071392 -0.133693 0.110454 0.262605 -0.100011 -0.031165 0.055041 0.138367 -0.162671 0.102120 0.173318 -0.274289 0.134415 -0.057697 -0.018255 0.077148 -0.245134 -0.015163 0.058006 -0.170205 0.194139 -0.002767 0.189891 0.045482 0.121953 0.189511 0.153316 0.006805 -0.047206 -0.153220 0.022738 -0.024664 -0.171502 -0.053632 0.060029 -0.140139 0.250222 -0.072565 -0.220176 -0.120952 0.017421 -0.027304 0.014569 -0.095694 -0.099683 -0.094482 0.155448 -0.151098 -0.248439 0.240871 0.077475 0.008574 0.034781 -0.059977 -0.147991 0.043258 -0.003560 -0.125301 0.029335 0.046465 0.154617 -0.138475 -0.119635 0.105330 -0.049480 -0.107970 0.249925 0.015217 0.016012 0.213190 0.065901 -0.049390 -0.036574 0.061216 -0.172575 0.085747 -0.122223 -0.096691 -0.171293 0.076681 0.018079 -0.218633 -0.025610 0.061862 -0.024501 0.143682 -0.205424 -0.139122 -0.099763 -0.035490 -0.018438 0.048434 -0.086527 0.045958 -0.080579
181 0.055419 -0.298996 -0.061954 0.047701 -0.214515 -0.141054 -0.047695 0.017156 -0.022294 0.130894 -0.099230 0.098094 -0.023601 0.056731 -0.172110 -0.037982 0.203404 -0.039723 -0.026300 -0.100119 0.041341 -0.142153 0.163592 -0.040019 0.049700 -0.290021 0.257636 -0.096913 -0.081936 0.013159 0.083367 -0.018918 0.017723 0.131992 0.047925 0.109726 -0.178276 0.305420 -0.085787 -0.129238 0.212008 -0.165782 -0.021458 0.004879 -0.074685 0.171353 0.019630 0.043591 0.119147 0.086809 0.116471 0.084272 0.196653 -0.260625 0.138981 0.141936 -0.021083 0.028369 0.065434 -0.049735 0.040940 -0.064266 -0.170521 0.061301 -0.040415 -0.094743 -0.245202 -0.249236 0.122207 0.264768 0.057364 -0.071299 0.078430 0.181506 -0.176950 -0.012760 0.109974 -0.010689 -0.137196 -0.001873 -0.211333 -0.027003 0.152346 -0.022095 0.046885 -0.070380 -0.083488 0.099999 -0.132417 -0.008932 -0.003404 -0.099162 -0.088402 0.137071 -0.046376 -0.078833 0.053964 0.172425 -0.135176 0.091661 0.051752 -0.155789 -0.006715 0.008204 0.065025 -0.043256 0.165276 -0.026408 -0.070321 0.017406 0.087003 -0.072437 0.146455 -0.333728 0.078596 0.161256 0.121822 0.133383 -0.147587 -0.039436 -0.132677 0.023855 0.009014 -0.044505 -0.032188 -0.036445 -0.009244 0.070663
112 0.037235 -0.162021 0.133934 -0.162855 0.034569 0.237755 -0.000037 -0.136063 0.093287 -0.158891 0.025792 0.191433 0.022941 0.159328 -0.056212 0.160244 0.168580 0.063008 0.083291 -0.068981 0.139760 0.116543 0.050141 -0.028129 0.105485 -0.051498 0.053178 -0.091715 -0.174727 0.182828 0.017996 0.047200 -0.025277 0.027230 -0.081818 -0.097612 0.185292 0.097368 -0.320440 -0.070585 0.281655 0.064211 0.019055 0.232729 -0.082246 0.051332 -0.071727 -0.148179 -0.032426 -0.188123 0.129510 -0.001844 0.079065 0.067081 0.190117 -0.060091 -0.024839 -0.215345 -0.186916 0.000199 0.104274 -0.153066 -0.054323 0.068511 0.047928 -0.153376 -0.082971 -0.201862 -0.080459 0.094450 -0.057158 -0.239071 0.245007 0.139242 0.114059 -0.073205 0.157810 0.017490 0.042648 0.118583 -0.093803 0.239654 0.085259 -0.114839 -0.136949 -0.073981 -0.022792 -0.121929 0.148991 0.211773 -0.142018 -0.129542 -0.035805 0.167879 -0.107487 -0.087785 -0.068297 0.236814 -0.039023 -0.006493 0.185662 -0.172206 0.105607 -0.069288 -0.129455 0.129713 0.015515 0.010436 -0.006706 0.361967 -0.167891 -0.203636 0.224365 -0.199776 -0.129587 0.042350 0.015603 -0.182476 -0.038101 -0.151493 0.010623 -0.220672 -0.098898 -0.043790 -0.010964 -0.072274 -0.020763 -0.141633
356 0.092963 -0.078720 0.190064 -0.085994 -0.136333 -0.093263 0.017784 -0.122068 0.044160 0.090567 0.105063 0.016940 0.009563 0.015824 0.114578 0.056313 0.246390 -0.021221 -0.136519 -0.108352 -0.069443 -0.018965 0.205763 0.012821 0.133043 0.223518 -0.196844 -0.125589 -0.173975 -0.015719 -0.074974 0.049693 -0.149370 0.216555 -0.066180 -0.104344 0.015847 0.100411 0.219092 -0.202403 -0.066676 -0.156180 0.090321 -0.031176 -0.206082 -0.092673 -0.008149 -0.040340 -0.011987 -0.150912 -0.099109 0.022818 0.122613 0.027919 0.148003 0.080333 -0.020596 0.152982 0.112385 0.048770 -0.182786 -0.341550 0.270491 -0.078828 0.087770 0.042976 -0.020671 0.155883 -0.152772 0.267152 0.015585 -0.136926 0.020979 0.077421 -0.039269 0.028715 -0.174629 0.054177 0.069818 -0.236932 0.086793 -0.034770 -0.027390 0.010718 0.011738 -0.059265 -0.153244 -0.107376 -0.196450 -0.049408 0.045824 0.174505 -0.141928 -0.041616 0.090431 0.171010 0.123155 0.075170 -0.157702 0.263326 -0.107424 0.098824 0.075770 0.103716 -0.133978 -0.040151 0.225607 -0.074240 -0.095861 0.109398 0.090190 0.039389 0.008024 0.052573 -0.257596 -0.124998 0.081853 0.086435 0.121951 0.140183 -0.106276 -0.114771 -0.113935 -0.122095 0.003786 -0.003673 -0.246716 -0.019976
291 0.216335 -0.049745 0.173979 0.284912 0.135406 -0.289814 -0.029732 -0.044537 0.008921 -0.101634 0.216228 -0.007373 -0.200596 -0.042828 -0.050145 -0.169539 -0.007593 -0.084492 0.024985 -0.170948 0.170853 -0.031810 0.014479 -0.099452 0.045371 0.098466 0.173639 0.046202 -0.183309 -0.079345 -0.132511 0.103822 0.026617 0.019331 -0.061372 -0.142730 0.071219 0.061933 0.034237 0.045277 0.137404 -0.124587 0.051335 0.092818 -0.069247 0.126024 -0.070377 0.025088 -0.041872 0.180231 0.121679 -0.060892 0.019615 -0.109010 0.075158 0.103273 0.134864 0.133122 -0.140894 0.064887 0.003535 -0.066442 -0.208268 0.033813 0.028283 0.106940 -0.358897 -0.095027 -0.137708 0.118282 -0.022982 0.135821 0.098372 0.211334 0.148490 -0.144682 -0.038050 -0.085454 -0.118120 0.223656 0.072873 0.044863 0.169628 -0.111874 0.285677 0.020340 -0.096875 0.259254 -0.080617 -0.066171 0.193731 0.125397 0.106290 0.247694 -0.001836 -0.135939 0.180207 -0.056990 -0.047191 -0.081455 0.108433 -0.065161 0.060562 0.018018 -0.089834 0.097189 0.104113 0.004164 -0.168766 -0.051303 0.278691 0.161088 0.126200 -0.012583 -0.124500 0.067203 0.058744 0.015515 -0.013054 -0.127031 0.115965 -0.066746 -0.058188 -0.054104 -0.034050 -0.024462 -0.203969 -0.170054
625 0.098695 -0.164262 0.019509 -0.061115 -0.037802 0.030143 0.165524 0.105980 -0.049167 -0.008427 0.078560 -0.137029 -0.132195 0.058253 0.142067 0.088433 0.221365 -0.031641 -0.039763 -0.246774 0.226929 -0.134750 0.018810 0.030455 0.056374 0.176526 0.007748 0.106843 -0.094412 -0.139452 0.089718 -0.232270 0.035473 0.056474 -0.185192 0.079998 -0.254768 0.090022 0.223999 -0.082571 0.167542 -0.013419 -0.067378 0.153312 -0.153070 0.133308 0.035644 0.114225 -0.217014 -0.290102 0.208918 0.000522 -0.009215 0.055840 0.019443 -0.125105 0.092641 -0.231665 -0.007079 0.040629 0.080639 -0.125517 0.076868 -0.081845 -0.195805 -0.221076 -0.011462 -0.029046 -0.099726 0.120766 0.086225 0.124262 0.005496 0.159135 0.114476 0.016637 0.108219 -0.052444 0.175420 0.073277 -0.086207 0.128621 0.118433 0.018384 0.018631 -0.017893 -0.108814 -0.059600 -0.133479 -0.070861 0.076268 0.068373 0.013805 0.025628 -0.000797 -0.060526 -0.103272 -0.015071 -0.188426 0.026702 -0.123300 -0.004036 -0.106990 0.347962 0.020853 0.001386 0.161328 -0.245125 -0.232052 -0.048114 0.208867 -0.173025 0.051919 0.093171 -0.004563 0.085525 0.215844 -0.044590 -0.057354 0.016072 -0.103090 0.030547 0.003414 -0.029556 -0.182360 0.174543 -0.055753 -0.203182
120 0.012482 0.063202 0.121766 0.045493 0.262689 -0.221940 0.124466 -0.105259 -0.094126 -0.000161 0.081620 0.193663 0.122060 -0.149041 -0.008969 0.131702 0.013020 -0.139030 0.050664 0.135203 0.132071 -0.070378 0.145855 0.088288 0.140548 0.089195 0.019519 -0.102912 0.093121 -0.001684 0.019104 0.050437 -0.145912 0.207836 0.070474 -0.056733 -0.133286 -0.003949 -0.036747 -0.044269 -0.022678 -0.010350 -0.005974 -0.060072 -0.170222 -0.076965 -0.039243 0.275441 -0.019586 -0.088554 0.313715 0.085495 -0.157443 0.049516 0.211355 -0.096007 0.125025 -0.116118 -0.074391 0.247895 -0.101883 0.053648 0.173511 -0.154834 0.070456 -0.005427 -0.068904 -0.092311 -0.091403 0.240771 -0.012870 -0.093406 0.203520 0.280808 0.068194 0.112211 0.015200 0.104787 0.183974 0.005585 -0.034405 0.038222 0.235827 0.005319 0.147744 0.063856 -0.015197 -0.003649 -0.138885 -0.135548 -0.180342 0.073586 0.175729 -0.037826 -0.131795 0.099082 0.003576 0.067704 -0.129755 0.158185 -0.024706 -0.036626 0.249955 -0.143119 0.121577 -0.000952 0.030504 0.177498 0.144142 0.191608 -0.058065 0.016444 0.026069 -0.181463 -0.038519 -0.063908 -0.104353 -0.041827 -0.311615 0.072815 -0.137332 -0.207303 -0.184893 0.096435 -0.126824 0.006880 0.201055 -0.164164
599 0.118433 -0.008385 0.181272 0.017137 0.009725 0.028182 0.014120 0.242567 0.116587 0.087760 0.118602 0.101959 -0.186957 0.044582 0.009353 -0.056298 0.111824 0.113857 -0.015814 0.021620 0.275793 -0.082476 0.123059 0.126140 -0.005725 -0.006258 0.103757 -0.250583 -0.122502 -0.062063 0.102353 -0.212840 -0.075087 -0.139784 -0.094480 0.026313 -0.201591 0.014051 -0.054876 -0.098449 -0.206341 -0.006050 0.091492 0.089315 -0.075014 0.120114 -0.118232 -0.116143 -0.158577 -0.040342 -0.000597 0.056863 -0.150935 0.187884 0.247494 -0.078535 -0.056683 0.031992 0.003992 0.073106 -0.002869 0.063084 0.074200 -0.018906 -0.039819 -0.109064 0.021685 -0.091160 -0.091078 0.135820 0.118127 -0.040394 -0.081086 0.302682 -0.119726 -0.020335 0.030419 -0.134071 0.079735 0.050860 -0.002732 0.074729 0.154151 0.013610 -0.103990 0.050503 -0.024281 -0.241993 -0.230121 0.083266 -0.038966 0.044740 0.060978 0.132356 -0.185146 0.009183 0.058256 -0.134569 -0.128730 -0.032667 -0.234029 -0.111154 0.127309 0.161919 -0.097804 -0.140610 0.154057 0.002740 0.017595 0.054791 0.138196 0.062142 0.093866 -0.132330 -0.200900 -0.057555 0.001472 -0.224235 0.072873 -0.001969 0.128103 0.160489 -0.096211 -0.024017 0.105459 -0.137811 0.161790 -0.152142
543 -0.037662 -0.146959 0.097278 -0.002844 -0.010294 0.081439 0.041653 0.144255 0.038625 0.090845 0.027114 0.089794 -0.045846 0.077492 0.016802 -0.267653 -0.030878 0.170068 0.024773 -0.176025 0.237147 0.187521 -0.123333 -0.037872 -0.110961 0.303152 0.016815 -0.120956 -0.085444 -0.210471 -0.069754 0.131029 -0.041681 0.200173 -0.021418 -0.030599 -0.037041 -0.000437 -0.361770 0.179351 0.232366 -0.146515 -0.364642 -0.074364 -0.162246 0.061674 0.024916 0.131026 -0.030618 0.003156 0.225020 -0.135783 0.121144 0.308175 -0.038425 -0.124187 -0.029243 -0.120028 -0.095130 0.062993 -0.081840 -0.008396 -0.122843 0.033459 0.095890 -0.067749 -0.272554 0.039659 -0.027319 0.214373 0.066884 0.090493 -0.170704 0.156653 -0.050524 0.123879 0.133151 0.161432 0.077295 -0.011359 -0.101018 0.112255 0.238527 -0.124390 0.005137 -0.074044 -0.187184 -0.007345 0.047982 -0.039629 0.057583 0.043704 -0.035945 -0.201799 0.066831 0.131824 -0.021201 0.070130 -0.036249 -0.202154 0.056151 -0.017958 -0.034303 0.056153 -0.039039 -0.121408 0.117078 -0.275592 -0.081750 -0.146907 -0.045795 0.106253 0.174573 -0.072217 -0.028421 -0.011034 -0.189758 -0.098303 -0.148975 0.001341 -0.119964 -0.102791 -0.014591 0.114800 -0.198028 -0.036994 -0.156002 0.063464
145 0.000115 -0.097771 -0.090684 -0.000685 0.166458 -0.073378 0.108870 0.054919 0.267969 0.007327 0.162319 0.094245 0.115170 0.084385 -0.104791 0.033929 -0.091719 0.126286 0.318406 -0.104352 0.003467 -0.167275 0.054111 0.109292 0.106167 -0.088776 0.099032 -0.066316 -0.119212 -0.095244 -0.048638 0.013402 0.010251 0.051053 -0.093369 0.092479 -0.084491 0.110458 -0.279845 0.004235 -0.173318 -0.221047 0.210987 -0.149256 -0.353681 0.064837 -0.009852 0.063857 -0.139479 -0.198819 0.109951 -0.008219 -0.157380 -0.072908 0.020391 -0.114402 -0.089822 0.264520 -0.124349 0.160402 -0.188349 -0.013250 -0.013571 0.010111 0.169828 0.102123 0.028356 0.091028 -0.143209 0.147040 0.086932 -0.118811 -0.012316 0.093834 0.045843 -0.030035 0.094106 -0.023637 0.092523 -0.011903 -0.038930 0.112659 0.088321 0.105594 0.150165 -0.039053 -0.072324 -0.093146 -0.040788 -0.353664 -0.207861 0.031308 0.020255 -0.123522 0.104593 0.134721 -0.014811 0.057107 -0.292977 0.313330 0.106758 0.059530 0.012227 -0.079859 0.058572 -0.017674 0.085766 -0.068135 -0.000315 0.037572 0.116427 -0.259743 -0.062544 -0.139262 0.009483 0.053578 -0.033359 -0.262733 0.090040 -0.031927 -0.152199 -0.161358 0.100933 0.091930 -0.038545 -0.038461 -0.071523 -0.168186
462 0.215708 -0.001557 -0.006880 0.089033 -0.152396 -0.067959 0.146658 -0.084162 0.030903 -0.296114 0.065876 0.002955 -0.052679 -0.042303 -0.092090 -0.040721 0.186726 0.100405 -0.044127 -0.148719 0.167137 0.074052 0.205013 0.063459 0.011506 -0.006965 -0.002113 0.082116 -0.135650 0.039843 -0.010181 -0.005029 -0.100467 0.322105 -0.080822 -0.200403 0.006404 0.102371 0.254625 0.026712 -0.060921 0.079200 0.226139 -0.059888 -0.126297 -0.163433 -0.141756 -0.214318 -0.017285 0.053147 -0.034024 0.060138 0.095176 0.099000 -0.037355 0.036432 -0.187473 0.012678 -0.043190 0.113018 0.106798 -0.203260 -0.170251 0.135217 -0.015269 -0.038786 -0.226440 0.006086 0.001073 0.298557 -0.052727 -0.120098 0.117152 0.134742 0.063475 0.042457 -0.039159 0.009735 0.198582 -0.081139 -0.197472 -0.059887 -0.028484 0.014500 -0.175185 0.038581 -0.250656 0.122995 -0.253545 0.027008 0.094464 -0.036832 0.053480 -0.103536 0.064163 0.017385 0.066009 0.062350 -0.043436 -0.120781 -0.015673 -0.312811 0.008890 0.170734 -0.069213 -0.048364 -0.145926 -0.054902 0.227257 -0.042752 -0.146512 -0.063558 -0.030242 -0.136468 -0.163820 -0.090167 0.059255 -0.005181 0.049349 -0.126683 -0.056488 -0.011219 -0.107492 0.099459 0.151540 0.035360 -0.099737 0.047679
561 0.143635 -0.197071 0.056165 -0.096647 -0.003162 0.033152 -0.028672 -0.035262 -0.031303 0.187844 0.035026 0.106309 -0.185986 0.015387 -0.065876 -0.120566 0.214474 -0.011787 0.001514 -0.116231 0.244824 0.091268 -0.045624 -0.117579 0.110455 0.152781 0.079943 -0.188948 0.016286 -0.006924 0.045447 -0.087979 -0.034033 0.077623 0.013037 -0.239242 0.014879 0.103160 0.167245 -0.076256 0.253522 -0.143303 0.046052 0.156839 -0.009531 -0.100989 -0.015684 0.018641 -0.062795 0.149890 0.193810 -0.061505 0.051546 0.139967 0.054687 -0.062549 0.152017 -0.248645 0.036681 -0.042308 -0.120454 -0.065819 -0.133364 0.080405 -0.095483 -0.016488 0.052527 0.087382 0.106069 0.169557 -0.077736 -0.031010 0.106423 0.313143 0.176347 0.144774 0.058520 -0.167471 0.149737 0.108241 -0.213335 0.176824 0.266150 -0.001643 -0.195557 0.034270 -0.100206 0.031199 -0.023096 0.013892 0.063763 -0.028199 -0.079195 0.188135 0.130698 -0.041873 -0.157596 -0.270078 -0.190328 -0.095056 -0.125072 -0.128341 -0.159165 0.074273 -0.090987 -0.017422 -0.164611 -0.107279 0.000890 0.234202 0.070428 -0.159164 0.052922 0.016369 0.101428 -0.035315 -0.007877 -0.008735 -0.075638 0.105360 0.008528 -0.113580 0.156951 0.203411 -0.186408 0.025761 -0.064481 -0.133574
407 0.048052 -0.029429 0.159358 0.115911 -0.159614 0.211117 -0.038645 0.035898 -0.058704 -0.159293 0.002214 0.129239 -0.107930 0.173147 -0.083623 0.048242 0.238725 0.085205 0.049095 -0.046613 0.045906 -0.166649 -0.028248 -0.108924 -0.099880 0.053597 -0.110636 -0.024113 -0.045920 0.119165 -0.083014 0.013938 0.016255 0.220195 -0.174061 0.073188 0.116202 0.104640 -0.083728 -0.109999 0.185727 -0.049642 -0.152335 0.135093 -0.292402 -0.195044 0.029725 -0.056725 -0.121359 -0.293835 0.351104 0.012042 -0.034387 -0.028103 0.027587 -0.002853 0.095159 -0.133280 -0.142753 -0.086336 -0.101860 -0.167842 0.017258 0.071640 -0.166810 -0.117373 -0.178384 0.058875 0.068260 -0.019103 0.109031 -0.226762 -0.047030 0.046416 -0.170941 -0.013971 0.114407 0.008652 -0.006055 -0.196963 0.258219 -0.130120 0.027373 -0.065738 -0.037571 -0.140713 -0.160852 0.068003 -0.086041 -0.069380 -0.095980 0.124551 0.227391 0.228314 -0.068031 0.063570 -0.040145 0.119368 -0.124989 -0.053538 -0.060916 -0.026267 -0.107083 0.082307 0.002809 0.180942 0.113643 -0.091842 -0.003373 0.081376 0.100145 -0.124204 0.083779 -0.061121 -0.186786 -0.156208 0.138809 -0.331268 0.227347 -0.010740 -0.017275 -0.202428 -0.226561 -0.012687 -0.018537 -0.018585 0.138838 0.121252
555 0.152135 -0.287727 0.042398 0.004651 -0.038829 0.019171 -0.058995 -0.017746 -0.049570 0.172027 0.047820 0.076108 -0.192801 0.173153 -0.110208 0.036053 0.098643 0.045890 0.266526 0.173489 0.172642 -0.036425 0.201729 -0.145939 0.008877 -0.056440 0.193389 -0.103928 0.172516 -0.159372 0.156963 -0.181966 -0.214193 0.087444 0.035373 -0.074561 0.049703 0.106109 0.082178 0.279005 -0.214527 0.121505 0.108434 0.031233 -0.214589 -0.126133 -0.138826 -0.027963 -0.039710 0.078887 0.031011 -0.026010 0.010655 -0.083881 0.257020 -0.024078 -0.038600 -0.025349 0.084587 -0.194892 -0.041018 0.037588 -0.191708 -0.014203 -0.112303 -0.021013 -0.206970 -0.071575 0.062905 0.048407 0.120499 -0.111829 0.119917 0.031726 -0.081827 0.013170 0.267019 -0.089651 0.068637 0.043487 -0.128599 0.060768 0.034851 0.050958 -0.075832 0.103813 -0.103091 0.084381 -0.216858 0.143260 -0.012920 0.005798 -0.091933 0.017040 0.056086 0.049682 0.125407 -0.175761 -0.247522 0.205315 -0.055319 -0.164974 -0.002238 0.042119 -0.116477 0.027088 0.107373 0.010909 0.105555 0.040575 0.350006 -0.002773 -0.163970 0.077699 -0.067936 -0.075572 -0.059920 -0.037050 0.170612 0.025725 -0.233465 -0.071612 -0.129895 0.085604 -0.050909 -0.018103 0.068024 0.005521
447 0.105830 -0.340989 0.051966 0.142824 0.025086 -0.099750 0.066518 -0.117086 -0.067039 0.052271 0.070596 0.115406 -0.102457 0.048537 -0.054160 0.090453 0.018289 0.077148 0.041996 -0.099285 0.200066 -0.351213 0.060333 0.088118 -0.068853 0.093399 0.085888 0.097473 0.096478 0.026858 0.023477 0.046587 -0.170950 0.175378 0.111093 0.190385 0.017828 0.208130 -0.088942 -0.031004 -0.064594 0.016688 -0.220162 0.218328 -0.014597 0.004809 0.254303 -0.032813 -0.206507 -0.170157 0.021894 0.058240 0.098245 0.037463 0.170636 0.008240 -0.010456 0.201641 0.092082 0.254489 0.024818 -0.078287 -0.086537 0.069491 0.036737 0.011098 -0.265458 0.060045 -0.039639 0.079363 0.008106 -0.129196 -0.224442 0.002668 0.084013 -0.128884 0.062185 0.056719 0.091253 0.144950 -0.313600 0.083219 0.120210 0.132399 0.162687 0.074216 -0.029243 0.237042 -0.175557 0.064062 0.031796 0.103852 0.009343 -0.005125 0.215097 0.202267 0.264725 0.060575 -0.193441 -0.040854 0.037756 -0.033634 0.018253 -0.257785 -0.070625 0.174285 -0.014436 -0.231603 0.116170 -0.074928 0.207566 0.035912 -0.124167 0.080334 -0.004945 0.041782 0.186248 -0.060199 -0.122698 0.285646 -0.235179 -0.038003 -0.073235 -0.225866 -0.026219 0.059040 0.058187 0.050862
724 0.045934 -0.011294 0.211563 -0.043120 0.050141 -0.113407 0.127424 0.056227 0.183458 -0.151169 -0.052806 0.012302 0.143075 -0.111079 -0.195372 0.209415 0.021887 0.000465 -0.019021 0.069116 0.057079 0.029579 -0.050098 0.023541 0.027143 -0.035296 -0.044161 0.160862 -0.054971 -0.057147 0.052989 -0.027984 0.050071 0.189942 -0.281868 0.264671 0.055888 -0.082245 -0.103762 0.009737 0.057858 -0.150367 0.047108 0.046409 -0.001659 0.236826 0.183027 0.120124 -0.285433 -0.159179 0.085932 0.067011 -0.023474 0.081082 -0.091904 -0.123733 -0.087030 0.135529 0.068240 0.022798 -0.034072 -0.058507 0.032881 -0.018380 0.133007 -0.110149 -0.098733 -0.121286 -0.318776 0.131870 0.080974 -0.261653 0.004606 0.180200 0.016669 -0.096378 0.002209 0.175434 0.049468 -0.311205 -0.003322 0.067349 0.011521 -0.271181 0.056622 0.183166 -0.065501 -0.053876 -0.008160 0.124176 -0.145698 -0.014883 0.043448 -0.018558 0.135101 -0.077374 0.227127 -0.088936 -0.160285 0.111512 -0.149186 -0.273568 -0.010666 0.064448 0.151722 0.078162 0.083113 -0.255769 0.126137 -0.246804 0.136362 -0.050709 -0.090702 -0.072424 -0.145408 -0.065337 -0.000404 0.221364 -0.249954 -0.213996 -0.228794 0.008639 -0.095584 0.048441 -0.145685 0.015756 -0.057925 0.038342
327 0.154982 -0.134452 0.104009 0.245790 -0.091579 0.054716 0.069238 -0.001021 -0.080687 0.087183 0.182410 0.120900 -0.040491 0.013711 -0.077535 -0.088355 0.260058 0.008197 -0.047365 -0.155144 -0.002579 0.062840 0.090023 0.121391 -0.068323 -0.015748 0.277113 -0.047739 -0.190798 0.095966 0.092823 -0.104305 0.097475 0.046267 0.062103 0.174845 0.074330 0.157570 0.019339 0.008606 0.123997 -0.160285 0.032635 -0.061776 -0.090495 0.107715 0.215425 0.103403 -0.359617 -0.151715 -0.098648 -0.166762 0.045294 0.015230 0.137979 0.125457 0.044974 0.015385 -0.181190 0.030192 -0.177487 -0.213033 -0.063219 -0.103755 -0.140816 -0.068991 0.027072 0.073883 0.112095 0.031502 0.215894 -0.167964 0.101192 0.240554 0.062844 0.110593 -0.053201 0.214629 -0.043021 0.054061 -0.098777 0.049824 -0.020593 -0.217510 0.027337 -0.096550 0.007235 -0.035200 -0.107311 -0.262512 0.101881 0.140660 0.084923 -0.085629 0.149936 0.102852 -0.032665 -0.030483 0.064548 0.052862 0.102592 -0.188459 0.049583 0.168831 -0.061268 -0.000771 -0.035658 -0.046843 0.088036 0.128934 0.096932 -0.046914 0.183081 0.140212 -0.039209 -0.156726 0.014120 0.115161 -0.071297 -0.049272 -0.305944 -0.173968 0.042466 0.015678 0.056592 -0.053769 -0.105527 0.073645
88 0.176124 -0.155407 0.079364 -0.108939 0.232973 -0.042649 0.084982 -0.085898 -0.121765 0.099144 0.072376 0.117723 0.052029 0.094376 0.176044 -0.013133 -0.085472 0.033115 0.017267 -0.008687 0.240009 -0.195089 -0.004720 0.123937 -0.107340 0.017612 0.041128 -0.371878 0.030911 0.161868 0.004175 0.312805 0.102347 -0.087641 -0.041306 0.043892 -0.009903 0.095936 -0.056539 -0.079685 0.045170 -0.001665 -0.235322 0.165725 0.089439 -0.112913 0.250556 -0.146235 -0.019491 -0.090452 0.138847 0.162228 0.227053 0.123767 -0.081674 -0.076984 0.200988 -0.002025 -0.120753 0.033100 0.011396 -0.144811 0.032564 0.043594 -0.164263 0.084334 -0.021029 0.099648 0.061522 0.256679 0.034336 0.028638 -0.078219 0.198628 -0.136518 -0.087712 -0.019074 0.010726 0.101062 -0.014167 -0.117291 -0.089391 -0.041811 -0.205497 0.182782 -0.018740 -0.047088 -0.204390 -0.112057 0.011307 -0.141431 0.136541 0.030237 -0.283359 0.072745 0.116161 -0.084156 -0.150636 -0.155100 -0.130010 -0.025836 -0.007723 0.025127 -0.092042 0.050823 -0.134246 -0.117689 -0.039220 -0.225843 -0.110459 0.128846 -0.042656 0.052124 -0.062107 -0.187862 -0.081397 0.042532 0.020784 -0.081371 0.114082 0.128036 -0.081018 -0.025137 0.167399 0.012318 0.124589 -0.132996 -0.016386
158 -0.017924 -0.116768 0.111370 0.109757 -0.016864 -0.012730 -0.033916 0.102610 0.109142 0.080553 0.178660 0.056002 0.108277 0.182455 -0.139280 -0.142624 0.139646 0.056593 -0.068208 -0.023432 0.258501 -0.077028 0.426837 0.153506 0.124285 0.234740 0.028567 -0.134902 -0.213458 -0.025946 0.105170 -0.032027 -0.018312 0.111809 -0.098249 -0.060179 -0.244952 0.012869 -0.107037 -0.035238 -0.038702 -0.146763 0.078096 0.061621 0.102780 0.007633 -0.003506 -0.153405 -0.173469 0.116322 -0.161359 0.118798 -0.171916 0.176591 0.034640 0.018750 -0.224845 -0.029955 -0.070084 -0.055993 0.038169 0.029083 -0.050258 -0.024485 -0.078365 -0.207934 -0.172304 0.004363 -0.255146 0.224255 0.228266 0.020706 0.041117 0.033227 -0.013625 -0.001647 -0.085797 0.040438 0.067504 0.069177 0.058063 0.074670 0.169323 -0.016396 -0.109335 -0.145347 0.028050 -0.045370 -0.034808 0.164721 -0.055863 -0.126389 0.144140 0.171160 -0.055905 0.082481 0.075135 0.042071 -0.141873 -0.135464 -0.285016 -0.082884 0.089596 0.061844 0.038749 0.103808 0.262418 -0.233633 0.083326 -0.044170 0.006256 -0.144900 -0.003968 0.144317 -0.258878 0.106076 0.177445 -0.088608 0.108259 -0.035419 -0.009987 -0.150854 0.008134 -0.029110 0.098250 0.113955 -0.188423 -0.097627
178 0.063074 -0.010295 0.040550 0.015890 0.030439 -0.137206 -0.157042 -0.025378 -0.015678 0.073463 -0.051728 0.205569 0.092097 -0.070120 0.089461 -0.180265 -0.047916 0.125537 0.024837 -0.145343 0.063491 -0.118829 0.181066 -0.125704 0.189017 0.071784 -0.077917 -0.073273 0.074864 -0.005601 0.229131 0.109632 -0.081346 0.075595 0.019304 0.070157 -0.004944 -0.021028 0.010115 -0.050635 -0.024090 -0.068931 -0.193074 -0.071692 -0.094238 0.297115 -0.168773 -0.318579 -0.206464 -0.101110 0.127474 0.073568 0.068708 0.079841 0.045706 0.032425 -0.143200 -0.004695 -0.037019 0.211256 -0.214736 -0.161629 -0.154460 -0.144995 -0.076403 0.224047 0.021755 0.051207 -0.081755 0.172957 -0.056582 -0.100381 0.155733 0.118458 0.035751 -0.005728 0.062379 0.095139 0.219995 0.032640 -0.140671 -0.004593 0.007224 0.050769 0.137640 0.080869 -0.036767 -0.045153 -0.140165 -0.069205 -0.093434 0.095014 0.021483 0.196622 -0.134717 0.015727 0.069455 0.076713 -0.166520 -0.118363 0.060308 -0.146360 -0.081602 -0.003880 -0.009492 0.142553 0.161444 0.070210 0.014176 -0.125649 0.109267 -0.040846 0.192013 -0.206152 -0.340586 0.018016 0.048943 -0.247280 0.080337 -0.021455 0.008159 0.019824 0.094994 -0.060473 -0.245657 -0.106000 -0.041558 0.173599
59 0.058692 -0.123079 0.089685 0.117961 0.049033 -0.180973 -0.093217 0.132527 0.071448 0.123549 0.008749 0.197468 -0.108136 0.134578 0.075176 0.137106 0.077253 0.242611 -0.066786 -0.076450 0.014610 -0.065482 -0.081954 0.194364 0.107315 0.302764 0.221581 0.025695 -0.019243 -0.008312 0.041235 -0.099626 0.044976 -0.167553 -0.113434 -0.079872 -0.043839 0.374895 0.031251 0.073515 0.342464 0.094131 -0.049369 0.074004 -0.172122 -0.039380 0.193029 0.040080 -0.182823 0.067636 0.246714 0.333964 -0.121568 0.125923 -0.009193 -0.054788 0.152599 -0.202539 0.041038 -0.068666 0.069192 0.053338 0.138256 -0.080604 -0.110681 -0.204174 -0.158353 -0.202497 -0.029400 -0.106055 -0.010021 0.011277 -0.290952 0.071271 0.024519 0.041647 0.037738 -0.274605 0.071556 0.016759 -0.122259 -0.176917 -0.001910 -0.352909 0.040649 -0.227462 -0.100982 0.045724 -0.074497 -0.087097 0.186777 0.101539 0.277950 -0.101820 0.023584 0.033993 0.101557 0.080710 0.013727 0.027234 0.040882 0.037730 0.194257 -0.078340 0.088951 -0.086715 0.171004 0.015644 -0.092574 -0.061908 -0.007219 -0.002554 0.294713 -0.080996 -0.249106 0.146630 -0.115524 -0.129910 0.040818 0.012973 -0.022017 0.014400 -0.001564 0.093105 -0.075577 -0.119490 -0.064856 -0.065441
343 0.162271 -0.130615 -0.014955 -0.079667 0.129273 -0.088504 0.253051 0.110966 -0.072289 0.193613 0.038190 0.265080 0.092097 0.110076 0.248930 -0.102923 -0.190186 -0.253555 0.117897 -0.013916 0.166275 -0.140004 0.159245 -0.036379 0.044360 -0.038460 0.184444 0.053641 -0.051003 -0.287266 0.036096 0.119646 0.120422 0.206003 -0.057406 -0.023838 -0.111893 0.128457 -0.077647 0.069731 0.169569 -0.255551 -0.037161 -0.026385 -0.090918 -0.137857 0.080082 0.140193 -0.117534 -0.058850 0.164544 0.013680 0.016939 0.033940 -0.004923 -0.083453 0.044193 -0.023834 0.019138 0.053754 -0.007239 0.060366 -0.017134 0.052889 0.028475 0.029172 -0.057335 -0.011872 -0.172182 0.151772 -0.093365 0.047465 0.018532 0.202615 0.220396 0.083375 0.168741 -0.169979 0.229607 -0.027594 -0.117949 0.010937 0.018659 -0.131111 -0.157329 -0.221790 -0.014541 -0.124213 -0.132344 0.163972 0.057583 0.171143 0.128693 0.105333 -0.078415 -0.044546 0.291949 -0.108417 -0.270949 -0.047582 -0.032141 -0.015431 0.187771 0.097046 -0.188429 -0.122902 -0.073705 -0.223209 0.171543 0.065075 0.047684 0.146842 0.115503 0.226747 -0.092958 -0.136232 0.289880 0.020913 -0.191904 -0.214460 -0.012708 -0.093889 -0.182004 0.029797 0.106064 -0.074315 0.106894 0.161863
364 0.030546 -0.015634 0.083012 -0.052585 0.054082 -0.184073 0.110087 -0.022388 0.048014 -0.164421 -0.053467 0.064809 -0.025148 -0.111100 -0.082636 0.004725 0.065537 0.033265 0.011028 0.082117 0.169215 -0.218637 0.150651 -0.022803 -0.118949 -0.185723 0.159155 -0.214054 -0.032683 0.057752 0.156259 -0.135843 -0.104208 -0.030087 -0.036710 -0.158954 0.131421 -0.109906 0.077466 -0.262161 0.001785 0.116170 -0.014651 0.011128 -0.256807 -0.070317 -0.096934 0.019862 0.004255 -0.059133 -0.118004 0.113213 0.110926 0.105874 -0.065003 0.201343 0.043051 -0.060852 0.023491 -0.005061 0.128786 -0.214685 0.205648 0.019563 0.101300 -0.345824 -0.232340 -0.007088 -0.226603 0.049939 0.091195 -0.229565 0.089600 0.215959 0.084190 0.002639 0.307330 -0.225684 0.115071 0.053500 -0.057934 0.066439 0.097397 0.196841 0.119455 -0.043291 -0.100848 -0.148906 -0.136323 -0.075101 0.297864 0.067739 0.065905 0.079501 -0.017924 0.036477 -0.191240 0.036009 -0.225460 -0.001991 0.003643 -0.061845 -0.091818 0.212779 -0.116640 -0.009415 0.135132 -0.067712 0.037617 0.013756 0.260819 0.122463 0.070437 -0.001773 0.008796 0.020265 -0.004500 -0.038351 -0.249720 0.051946 -0.144571 -0.032902 0.115496 0.012577 0.165759 0.000715 -0.085602 -0.076164
243 -0.067036 -0.291489 -0.260723 -0.078777 0.099294 -0.041056 -0.069192 0.107342 0.114800 -0.082827 0.081096 0.429792 0.109850 -0.075111 -0.295630 -0.073617 0.220378 0.002841 -0.047667 -0.255573 0.088320 -0.022330 0.096999 0.031985 -0.021778 -0.068549 -0.138502 -0.229542 0.106036 0.035110 0.116658 0.116263 0.048542 0.205077 -0.033287 -0.157991 0.026454 0.251961 -0.047793 -0.048456 0.133107 0.134439 0.157115 -0.051250 -0.090668 -0.124011 0.094514 0.161416 -0.082341 -0.068428 -0.092382 -0.143354 -0.069002 0.086138 0.071335 0.085752 -0.028260 -0.039495 -0.090922 0.095089 -0.054978 0.161232 -0.073460 -0.037340 0.078644 0.094721 0.083011 0.054299 0.040637 0.115020 -0.135713 -0.166068 0.167232 -0.029060 0.003289 -0.058930 0.106985 0.034701 0.075912 0.118960 -0.103398 0.068438 -0.145296 0.117458 0.190347 -0.092121 -0.024111 0.091082 -0.233912 -0.017404 0.037192 0.081398 -0.035877 -0.043272 0.222105 0.035111 0.052295 -0.085585 -0.117850 -0.039261 -0.055881 -0.451232 0.067618 0.260087 0.174288 0.094354 0.155420 -0.051426 -0.097228 0.122954 -0.088826 -0.006487 0.069737 0.206651 -0.163895 0.067964 0.104791 -0.068671 0.142214 -0.033559 -0.120941 0.122258 0.028482 0.283535 0.044076 0.037884 0.006521 -0.038507
86 -0.083406 -0.076460 0.177760 0.053167 0.053555 0.021105 0.223518 0.014157 0.136686 0.233335 0.158662 -0.108653 0.037611 0.112527 0.105299 0.398417 0.006269 0.210485 -0.169220 -0.173069 0.285990 0.037284 0.016433 0.013451 -0.171665 0.125560 -0.018640 -0.068526 0.098807 -0.014154 -0.003132 -0.107284 -0.281557 0.050461 0.093137 0.029543 -0.077850 -0.001017 -0.275736 -0.049246 0.264836 0.140703 0.156963 -0.098874 -0.325799 -0.091352 -0.060605 0.112615 0.107739 -0.277840 0.080911 0.072018 0.024381 -0.030460 0.124788 0.082215 -0.017555 0.127432 0.043788 -0.095021 -0.170254 -0.068892 0.139716 -0.278434 -0.127104 -0.202350 -0.029765 0.073505 0.029375 0.228604 0.026205 0.033290 0.077206 0.088671 -0.171535 -0.234549 -0.014400 0.083669 -0.007671 -0.044605 -0.041590 0.089926 -0.058888 0.157196 0.173313 0.175469 0.101020 0.052640 -0.183866 -0.059049 0.163125 0.108243 0.128853 -0.024828 0.000359 -0.117407 0.050686 -0.038703 -0.064172 0.147677 -0.112555 -0.125102 -0.014980 -0.104577 0.101309 -0.024494 0.001485 -0.010745 -0.124314 -0.219931 0.204130 0.141624 -0.055318 -0.215869 -0.296371 -0.134003 0.217331 -0.060710 -0.117572 -0.148959 -0.088115 -0.077955 0.033028 0.130331 -0.026019 -0.065542 0.077050 0.169442
136 0.147730 0.044894 0.079242 0.073523 0.121584 -0.015335 -0.031476 -0.174253 -0.016908 -0.018516 0.281346 0.175124 -0.135393 0.050086 -0.158469 -0.048023 -0.052630 0.031480 0.090992 -0.142282 0.046516 -0.069733 0.082061 0.073284 -0.081849 -0.022313 -0.098361 -0.031540 0.139318 -0.175414 0.075382 -0.088807 0.030876 -0.029700 0.224063 0.079383 -0.177840 0.006488 0.101426 -0.082174 0.083207 0.148403 0.183544 -0.080750 -0.160221 0.034854 -0.044169 0.110523 0.066721 -0.422271 0.013276 0.019834 0.020769 -0.124389 0.094104 0.032514 -0.210049 0.070023 -0.163296 -0.145700 -0.049082 0.045708 0.049098 0.063441 -0.023966 -0.125726 -0.067307 -0.361354 -0.132459 0.269437 0.063584 -0.141790 0.126527 0.055317 -0.023950 0.225073 -0.017906 -0.046291 0.019079 -0.021331 0.196386 0.089718 0.215391 0.068478 0.172917 0.024155 0.018334 -0.107519 0.051414 -0.135568 -0.062288 -0.009471 0.045428 0.154056 -0.075087 -0.009627 0.128663 0.008493 -0.211292 -0.144943 -0.181283 -0.038858 0.097008 0.117994 -0.063623 0.049825 0.016941 -0.064904 -0.013838 0.030385 0.068176 -0.078832 -0.137763 0.113195 -0.153902 -0.034571 0.090241 -0.120714 0.228428 -0.075307 -0.185278 0.044987 0.053552 -0.040178 -0.096211 0.089373 -0.017817 -0.102966
410 0.182539 -0.349458 0.125852 0.102105 0.175360 0.121601 -0.000861 -0.104056 0.031170 0.140334 0.101663 -0.057760 0.083881 0.115585 -0.199275 0.226459 -0.016567 -0.122574 0.102241 -0.094946 0.141625 -0.134633 0.062316 0.281792 0.094949 0.063386 0.289401 -0.156442 -0.091163 0.053964 0.051227 0.094540 0.059701 0.253733 0.016017 0.008424 -0.177880 0.106352 -0.114049 0.056409 -0.104501 0.013099 0.084019 -0.114904 -0.146798 -0.143241 0.102217 0.148369 -0.273595 0.017389 0.072636 -0.131839 0.122627 0.105991 0.124017 0.007978 0.122995 -0.036570 0.014957 -0.258522 0.171202 -0.066569 0.001499 -0.068859 -0.119238 -0.109907 -0.042214 0.180092 -0.115070 0.006940 0.243736 -0.225580 -0.150447 0.138636 0.110982 0.035222 0.092439 -0.103945 -0.070560 -0.094256 -0.221619 0.165389 0.111614 -0.126699 0.334024 -0.001630 -0.004154 -0.044752 -0.179407 0.028257 -0.043435 -0.143447 -0.045729 -0.065519 0.175949 0.088358 0.054403 -0.045276 0.005323 -0.267927 0.116115 0.130117 0.068503 0.093473 0.048783 -0.063690 -0.061455 -0.107247 0.017649 0.097326 -0.045005 0.000809 -0.024902 0.017686 -0.166274 0.105667 -0.090869 0.068248 0.088551 -0.238081 -0.023263 -0.073602 0.062714 0.327370 0.067640 0.123187 0.033620 -0.080860
48 0.003601 -0.233609 0.048805 -0.247949 0.164336 0.043380 -0.160657 -0.016460 -0.098264 -0.050244 -0.030131 0.043124 -0.059907 0.061225 0.053287 0.126692 0.090151 0.102212 0.210661 -0.215347 0.103944 0.047251 0.008968 0.065036 -0.086382 -0.051405 0.083467 -0.037633 -0.018971 0.010752 0.041006 0.031652 -0.070322 -0.026425 0.045020 0.098624 -0.071401 0.060343 -0.015710 -0.038977 -0.056048 0.000810 -0.257370 -0.092284 -0.109089 0.046144 0.023615 -0.015470 -0.137590 -0.060094 0.147368 0.027296 -0.065087 -0.045783 -0.085751 0.214643 0.249149 -0.150608 0.030769 -0.014065 -0.221107 -0.113445 0.041138 0.149756 -0.100171 -0.089184 -0.184365 -0.092593 -0.205670 0.063714 0.026896 -0.340553 -0.029438 0.187772 -0.020113 -0.120459 0.181448 -0.207199 0.034936 0.076799 0.003519 0.118814 -0.043784 0.002786 -0.040462 -0.091141 0.141014 0.021756 -0.151242 -0.356799 -0.023388 0.067087 0.042592 -0.010789 -0.051279 0.081067 -0.123669 0.182166 -0.065065 -0.169819 -0.157968 -0.180058 0.131910 -0.118110 -0.131672 -0.382507 -0.034055 0.166270 0.164283 0.190091 -0.046312 -0.038931 0.013656 -0.015978 0.008204 0.096396 0.053421 0.028154 0.202574 0.151368 -0.086578 0.005856 -0.013460 0.168877 -0.016552 0.264088 -0.008102 -0.025300
