1915 128
1633 -0.028839614 -0.08263388 -0.02437366 0.044684142 -0.024182854 0.02846542 -0.032415137 0.017373323 -0.06335195 -0.01490071 -5.4120195e-05 0.015219462 -0.003993556 0.022466784 0.06922773 -0.049285587 0.026583564 -0.00014780366 -0.02001151 0.04088111 0.004822248 -0.016110767 0.022843968 -0.011061793 0.039208326 0.037582982 0.06607436 0.057211876 -0.0028188056 0.027019823 -0.026459392 -0.033835646 -0.101604365 0.058932204 0.0463194 0.021683693 -0.04930515 0.009059478 0.10933184 -0.08239923 0.07465782 -0.02477011 -0.0010467651 -0.02159088 0.023034735 0.025623018 0.014921996 -0.0687437 -0.044011764 0.061530635 0.032401223 0.004762727 0.037128743 0.0145252915 0.032458045 -0.038615208 -0.07302094 0.038372587 0.082115576 -0.026705645 0.0038168575 -0.0432433 -0.070539996 -0.05614221 -0.04718919 0.04538669 -0.013078081 0.03745031 0.0040049986 0.075857885 0.008177688 -0.008332437 -0.029856242 -0.0129543105 -0.0011063395 -0.03182243 -0.07385889 0.06646297 -0.08756539 0.05424241 -0.02726919 0.051722053 -0.07777306 -0.019449871 0.04136086 -0.14238454 -0.036974635 -0.08939307 -0.054217786 -0.0461714 0.025946172 0.15862401 -0.09813994 -0.07684237 0.059949476 -0.06111141 0.10002545 -0.0016409707 -0.014062452 -0.015770746 0.015738504 -0.006291824 0.15253572 -0.043550868 -0.07164287 0.0002488651 0.057376724 -0.03777611 0.0096379 0.045449305 -0.10153158 0.049232014 -0.0028577899 0.013726082 0.027231095 -0.030253384 -0.017728614 0.04761769 0.056497768 0.059731867 0.039639413 -0.034955263 0.0020659408 -0.10424245 -0.055005457 0.009413154 -0.076605685 0.0584245
1649 0.008372013 -0.054577425 -0.0064167245 0.027819147 -0.007943211 0.00083492993 -0.012188871 -0.012844639 -0.032061093 -0.0068832915 0.003850312 0.006198223 -0.014867885 0.0015277762 0.040114135 -0.041981917 0.012672829 -0.020375293 -0.0127423 0.019069605 -0.005792617 -0.00570693 0.0026069502 -0.009177813 0.019216236 0.01692486 0.045883976 0.02279223 0.002124295 0.013343964 -0.012729837 -0.02586756 -0.055840813 0.021608613 0.03246022 0.0037193885 -0.03248757 0.011452035 0.050108 -0.056030557 0.035468154 -0.03528026 -0.0016185486 -0.014615441 0.014795042 -0.008925465 0.0073037017 -0.04159081 -0.020587545 0.039630555 0.0075155874 0.010502657 0.025176298 0.0153316995 0.02341726 -0.014385364 -0.022612436 0.022219168 0.05222376 -0.020626044 0.015516174 -0.020848626 -0.051791344 -0.031471282 -0.018688606 0.018058974 -0.011559727 0.035010476 0.0030868459 0.0445592 0.005020468 0.006532568 -0.01266189 0.0016975501 -0.0021119535 -0.016748304 -0.05810693 0.049190383 -0.0484186 0.027194228 -0.034012463 0.0364735 -0.05211404 -0.012882893 0.03281382 -0.07331353 -0.012119257 -0.05828404 -0.027468916 -0.014615346 0.030463127 0.0803875 -0.046078216 -0.047463626 0.034071516 -0.04717884 0.062265377 -0.0017848337 -0.010007291 0.00016457286 -0.00059999706 0.0041359253 0.07943773 -0.032257322 -0.05615241 0.006952657 0.031632718 -0.016955208 0.011495447 0.030205717 -0.05704844 0.010636484 0.0013230372 0.018954253 0.015907891 -0.020536149 -0.016064249 0.012595974 0.03274055 0.009889361 0.017768575 -0.014561111 0.013544914 -0.056232862 -0.0267681 0.006479716 -0.031434435 0.033764306
1194 -0.012830115 -0.09644624 -0.026931198 0.043211978 -0.033100672 0.021365032 -0.029246764 0.001188924 -0.070081696 -0.017450757 -0.00040007557 0.010147163 -0.016074702 0.02459333 0.07786486 -0.04755335 0.015073859 -0.011615954 -0.026621358 0.024158955 0.006243339 -0.023723884 0.025336677 -0.0062539927 0.035918396 0.029745579 0.080251254 0.07326229 -0.0025232735 0.021418607 -0.019578075 -0.039909087 -0.102268495 0.06587846 0.06258212 0.015407258 -0.056669295 0.010195055 0.1242764 -0.10022867 0.07458327 -0.043774746 0.0033434092 -0.028917363 0.013005808 0.01491111 0.020210057 -0.07782773 -0.04075404 0.06948745 0.035191964 0.012635164 0.054759424 0.015059638 0.02726841 -0.03323774 -0.075009465 0.04046953 0.0875651 -0.028677983 0.011730218 -0.048704587 -0.09209443 -0.048533972 -0.047697436 0.04498922 -0.023974804 0.039906807 0.0056528356 0.08814848 0.0062964717 -0.011847352 -0.031554066 -0.012698717 0.008167292 -0.023097195 -0.08407397 0.07306474 -0.09797893 0.044284012 -0.0521376 0.06322274 -0.0940947 -0.023432674 0.050276298 -0.14740199 -0.034979846 -0.110322796 -0.04774656 -0.052030116 0.0317416 0.17349058 -0.10760225 -0.098107874 0.056563545 -0.07909298 0.119339675 0.008426846 -0.019647922 -0.0054049925 0.0070771105 -0.004183094 0.16283025 -0.049990475 -0.08445897 -0.002669736 0.062676005 -0.03196448 0.014217397 0.047180902 -0.105490014 0.03398804 0.0024422773 0.021966472 0.040473606 -0.030722616 -0.01605744 0.046720807 0.060424507 0.06002839 0.028264621 -0.031640932 0.0014677604 -0.11503107 -0.05670773 0.021338284 -0.07209126 0.06275955
231 -0.0031105257 -0.075912416 -0.0078070215 0.053176817 -0.0061833663 0.014330595 -0.018307947 -0.0027352471 -0.06481722 -0.013550179 7.382882e-05 0.018968774 -0.016117347 0.011189244 0.07694153 -0.07048391 0.012277829 -0.012747058 -0.031787932 0.044036888 -0.011517592 -0.014716279 0.015196745 -0.024915827 0.04848955 0.023801172 0.06887489 0.03898856 0.0012531391 0.016157828 -0.018600855 -0.04430095 -0.10186242 0.041835517 0.05104831 0.0017155012 -0.06437318 0.008089938 0.08751399 -0.084100895 0.05962801 -0.047695063 0.00029395137 -0.020742662 0.01877121 -0.0016177063 0.005699629 -0.06562285 -0.038625985 0.05175275 0.018118313 0.009229328 0.027107153 0.016295414 0.031455606 -0.021971775 -0.055094857 0.03609844 0.08749692 -0.03851322 0.024301112 -0.029667664 -0.07041785 -0.05538725 -0.04935508 0.02920763 -0.018540068 0.055287965 0.017095359 0.0706295 0.009398059 0.006233748 -0.019235311 -0.0027737594 -0.0062074205 -0.024302244 -0.09501456 0.074491195 -0.084260486 0.055730544 -0.03775476 0.05841422 -0.0740236 -0.018539438 0.038356442 -0.1339917 -0.021381186 -0.098051995 -0.04858006 -0.025437756 0.04044441 0.13275789 -0.08266539 -0.07118343 0.06526125 -0.069856934 0.101639904 0.0010935899 -0.017698294 0.0050214278 0.0068837316 0.0021922986 0.1325495 -0.04939421 -0.082383744 -0.0037025644 0.06390381 -0.032716416 0.01784187 0.050575983 -0.08784118 0.02852842 -0.0002516628 0.020279303 0.018601594 -0.0294311 -0.03316901 0.023507347 0.05459706 0.030353159 0.02784586 -0.03704616 0.008514863 -0.10924333 -0.054382756 0.021236075 -0.068374366 0.046944898
1812 0.006146322 -0.053229816 -0.0011229222 0.030540548 0.0031872734 -0.006231939 -0.015166275 -0.014656818 -0.027923686 -0.005872369 0.0008398928 0.016081577 -0.015707277 -0.005908865 0.043353595 -0.042696934 0.0042775385 -0.016048802 -0.023245903 0.040787026 -0.012129354 -0.010857659 0.007272059 -0.018546443 0.034783978 0.015571669 0.038761225 0.020575773 0.0014289191 0.01190085 -0.0037673672 -0.033671837 -0.06426949 0.01298177 0.022039182 -0.0047703893 -0.042317923 0.0077817235 0.04390413 -0.04596196 0.0285894 -0.033546284 -0.00071255077 -0.012067356 0.015436848 -0.0099972235 -0.0044547156 -0.040140357 -0.024127359 0.035435926 0.002787256 0.003738915 0.007602204 0.011206539 0.02880974 -0.015382992 -0.01755666 0.025309706 0.057713732 -0.02577374 0.029824808 -0.01224882 -0.036739025 -0.04045276 -0.023908142 0.012146561 -0.012845913 0.03303285 0.019649252 0.04233221 0.009323629 0.011108196 -0.0030043724 0.0031420505 -0.013046544 -0.012897093 -0.06890313 0.05224771 -0.05068447 0.03808233 -0.024240507 0.033090793 -0.038481325 -0.011109319 0.028638493 -0.077429995 -0.006196929 -0.054060392 -0.03142726 -0.0026459517 0.032029428 0.07004764 -0.0457793 -0.031129248 0.04288515 -0.042427666 0.05869383 -0.008914342 -0.014556889 0.003443412 -0.0017026885 0.011898394 0.067184664 -0.030134818 -0.058082186 0.0012359372 0.034905415 -0.025312342 0.0136385495 0.039439812 -0.048704475 0.020997643 0.0052047237 0.013496423 0.0013388287 -0.016233142 -0.024620615 0.0045626834 0.032625932 -0.00083282473 0.01726882 -0.025598437 0.010665845 -0.06211054 -0.037799165 0.011484841 -0.04075427 0.029497052
1814 -0.012701223 -0.06965877 -0.015606421 0.034495678 -0.004095163 0.018474933 -0.036494862 0.017583055 -0.056787115 -0.015705187 0.0013096165 0.012487783 -0.020267678 0.014771387 0.07118577 -0.04573506 0.008171671 -0.014329822 -0.017287102 0.04446726 -0.0034341286 -0.018094033 0.0123748435 -0.009253436 0.045806665 0.030539297 0.058019407 0.04898706 -0.005512913 0.027723657 -0.023008646 -0.04109821 -0.08387762 0.050358504 0.037765365 0.012944308 -0.05814623 0.00877247 0.089138426 -0.078490384 0.06741072 -0.021251986 0.0063285874 -0.012643408 0.02355532 0.02294855 0.0032699024 -0.0672207 -0.040099856 0.055167235 0.024805326 -0.00017139982 0.023945687 0.017968563 0.02150107 -0.0282321 -0.05930201 0.035818517 0.077173926 -0.03102942 0.011891047 -0.038361307 -0.057816196 -0.055327844 -0.052746397 0.03958112 -0.0145921325 0.03451753 0.016384715 0.07081564 0.0019737973 -0.0072850636 -0.003943621 -0.002184464 -0.007361987 -0.020532815 -0.06753189 0.05907689 -0.07203131 0.05051664 -0.028085811 0.040356103 -0.0716462 -0.020301346 0.02331143 -0.119273014 -0.026575143 -0.07990497 -0.043027207 -0.03652854 0.038340267 0.13667825 -0.08267954 -0.069135584 0.053680833 -0.04986833 0.09960297 -0.011246681 -0.009129153 -0.014245045 0.0058361897 -0.0028727634 0.13674664 -0.04574546 -0.069764756 0.0045834566 0.052878723 -0.027027143 0.0135241775 0.04345103 -0.083049916 0.041647475 0.004680041 0.013250949 0.017996797 -0.024251007 -0.01914892 0.035335604 0.049107052 0.052841045 0.035626944 -0.033668436 -0.00014959811 -0.09812958 -0.047271498 0.012853966 -0.0619919 0.03605107
795 -0.015224706 -0.10402271 0.0055719474 0.087328 0.023808999 0.025306568 -0.017938647 -0.026894918 -0.0893551 -0.0069240695 0.0069484017 0.044476017 -0.023490645 0.008469555 0.10994206 -0.10736646 0.028834105 -0.010470689 -0.029521048 0.11506585 -0.030458447 -0.018567046 0.022731438 -0.029001089 0.07144794 0.04218437 0.08604851 0.033486526 0.0027183024 0.040880598 -0.022241473 -0.07542613 -0.13004017 0.04176794 0.04687974 -0.016131392 -0.10420001 -0.002076224 0.1018896 -0.08767888 0.07190116 -0.06657613 -0.017353194 -0.042140123 0.043071084 -0.010970693 -0.005461449 -0.099951446 -0.06725537 0.0816906 -0.0012930208 -0.0048448513 0.018078163 0.012837954 0.053983882 -0.044073734 -0.056451607 0.044179853 0.13506657 -0.04566404 0.03774677 -0.03488158 -0.06319266 -0.104855284 -0.08376579 0.029281605 -0.024473837 0.095956564 0.04317617 0.071882516 0.00093374477 0.016354425 -0.014616513 0.014180491 -0.025010867 -0.047047652 -0.15092807 0.09584399 -0.12755439 0.11104017 -0.035232797 0.06995605 -0.09666708 -0.013054331 0.050986636 -0.18672675 -0.021187924 -0.15082163 -0.0692782 -0.012536186 0.08056747 0.18954553 -0.11329233 -0.053617045 0.092146225 -0.07072662 0.114855036 -0.005513126 -0.022698354 0.0024179702 0.015453677 0.0037849315 0.1616542 -0.07869202 -0.1317943 -0.00042345212 0.10427364 -0.065718435 0.02761562 0.08427709 -0.1049998 0.056131344 0.010799026 0.032969832 0.011907354 -0.060452316 -0.053891174 0.031998966 0.061416514 0.031662915 0.060982876 -0.06482795 0.007497524 -0.16630846 -0.10039659 0.02127383 -0.07646679 0.05330765
1420 -0.021262906 -0.10889118 -0.013246601 0.07515641 -0.017077448 0.01208307 -0.021599239 -0.025609799 -0.0808667 -0.020152131 -0.012291003 0.0072363634 -0.016181417 0.005993245 0.07119322 -0.07928503 0.029855568 -0.013942827 -0.029373033 0.048211146 -0.013275594 -0.030302009 0.029561197 -0.023065222 0.046777863 0.031513367 0.094224714 0.06364656 0.0026117188 0.021724941 -0.0100197885 -0.052743286 -0.11877697 0.054941706 0.06770165 -0.0012715473 -0.06659189 0.019947072 0.10438705 -0.09639603 0.06371947 -0.07044969 0.0016527651 -0.042267416 0.02478198 -0.0016149337 0.020501314 -0.082939476 -0.052977625 0.07496959 0.010344443 0.015773635 0.042238455 0.015349477 0.053967763 -0.032441277 -0.05510826 0.034739748 0.1087931 -0.04594685 0.027918726 -0.038779147 -0.09655608 -0.06716177 -0.052067153 0.04116119 -0.016222859 0.06274318 0.015559657 0.09139894 0.006781825 0.012828266 -0.022062905 0.014224929 -0.021199506 -0.031217862 -0.11688377 0.08990089 -0.09920562 0.07464165 -0.053730436 0.06702298 -0.097742885 -0.03303329 0.044243377 -0.16913769 -0.021980848 -0.1198612 -0.04606857 -0.0449291 0.05266767 0.16777267 -0.09632086 -0.09885795 0.06750458 -0.085591435 0.10642915 0.010718285 -0.017757082 -0.00032183266 0.016824044 -0.002865825 0.18020245 -0.052672524 -0.09768569 0.0063021155 0.06794549 -0.03228553 0.023139065 0.05684985 -0.09626746 0.034334924 6.0483384e-05 0.024196982 0.03435701 -0.0319427 -0.016297495 0.024581987 0.05428942 0.041668095 0.026776906 -0.049340222 0.028474368 -0.11759416 -0.06447605 0.03605942 -0.065478094 0.069339104
1630 -0.0014701865 -0.06606302 -0.0116851125 0.05069298 0.0007491061 0.0061793607 -0.0145551255 0.01238664 -0.05590519 0.004240527 -0.004561029 0.0034728262 -0.021289203 -0.0009808318 0.05660438 -0.054011334 0.022703227 -0.01053673 -0.03208361 0.025564305 -0.013675008 -0.010370819 0.018963588 -0.017343562 0.045984313 0.023822179 0.055566367 0.034875706 -0.0013298035 0.01190286 -0.009914058 -0.034548134 -0.08772119 0.030243943 0.044734664 0.007425003 -0.046512473 0.022320872 0.067993335 -0.062255085 0.052918497 -0.026832258 0.008960314 -0.013361528 0.028632075 0.009617162 0.0066065667 -0.05043767 -0.03298828 0.04557541 0.0018369792 0.002559413 0.013825056 0.023991592 0.037094373 -0.013563345 -0.038017053 0.036294717 0.07305197 -0.02366676 0.020687668 -0.033077184 -0.053078137 -0.04897767 -0.03231943 0.025979236 -0.013463023 0.037050974 0.016889047 0.069079645 0.011483028 -0.0044408003 -0.002322921 0.0007941681 -0.021540748 -0.010033935 -0.069989584 0.0466231 -0.0639659 0.05566241 -0.036899395 0.04460509 -0.06157447 -0.016801495 0.030777758 -0.12381507 -0.017390717 -0.06518341 -0.04217892 -0.022679437 0.028537655 0.11091833 -0.056244895 -0.06746302 0.050998885 -0.059865687 0.081403 0.0032065755 -0.018345635 -0.0038114593 -0.0041540097 0.005050529 0.102398515 -0.04595964 -0.059541814 -0.0026548158 0.058681685 -0.026686551 0.015120533 0.042033464 -0.06513267 0.041683707 0.0024255605 0.010559624 0.015155535 -0.023836508 -0.017323008 0.016875768 0.040812504 0.0125830555 0.012534697 -0.037863914 0.019660866 -0.06879467 -0.049041312 0.02545004 -0.057431746 0.04333572
1232 -0.002903874 -0.064511515 -0.005394345 0.041402474 -0.015322936 0.0070869275 -0.009867396 -0.017816383 -0.042678736 -0.014754149 0.0014692671 0.01042456 -0.010334678 0.0012930209 0.046601202 -0.044897307 0.012972469 -0.014816277 -0.020058574 0.03132483 -0.009065139 -0.014358223 0.012538477 -0.009842543 0.021213263 0.015387799 0.05641939 0.030785162 -0.0005009965 0.008680046 -0.0047400477 -0.03433575 -0.06913641 0.03265903 0.041007508 -0.005625622 -0.040826038 0.0033771468 0.057015643 -0.062796265 0.036606215 -0.046884727 0.0013226129 -0.025266793 0.00785792 -0.007502287 0.0069647767 -0.04675407 -0.030004634 0.044878144 0.0054504448 0.012718753 0.030809406 0.011433195 0.023096928 -0.020571886 -0.036258347 0.02022343 0.06547959 -0.028220937 0.022198614 -0.024539024 -0.05864124 -0.036563583 -0.022784434 0.015650969 -0.017589979 0.040690586 0.011898128 0.050638787 0.002490546 0.0071305856 -0.019036759 0.0035916693 -0.0028303387 -0.018910425 -0.073773764 0.055918433 -0.05824324 0.03728172 -0.041247368 0.039319605 -0.054642554 -0.015158957 0.03702866 -0.09070787 -0.01609255 -0.07439755 -0.026579529 -0.024537649 0.0325497 0.101837985 -0.057603773 -0.053106174 0.03734493 -0.058240164 0.06982003 0.006428388 -0.009653254 0.0076241954 0.009723949 0.003321285 0.098735906 -0.03290651 -0.05978965 0.00060648634 0.037403792 -0.021129688 0.008286957 0.029455336 -0.06571294 0.018086592 0.0018692121 0.018194478 0.021809177 -0.026893046 -0.019317519 0.021351974 0.029601572 0.018176999 0.014696335 -0.018427184 0.00579243 -0.07573711 -0.037568312 0.018417424 -0.03311675 0.040919147
445 -0.0044280044 -0.06473732 -0.015780797 0.046126664 0.0011661578 0.0030480362 -0.019516155 0.008662074 -0.060135957 -0.0090099545 -0.009964933 0.010765043 -0.013008332 1.5634527e-05 0.060446817 -0.047784682 0.022185955 -0.004455628 -0.032288235 0.03701776 -0.014610117 -0.018077908 0.017963752 -0.021340426 0.04516092 0.024449395 0.058816746 0.04335688 0.009893727 0.022501346 -0.012790646 -0.042731244 -0.095782466 0.03499666 0.03921886 0.0075703566 -0.04868255 0.01847345 0.08796695 -0.07315877 0.06585171 -0.029874733 0.0058291876 -0.00728004 0.028074248 0.014815471 0.0068980437 -0.059835758 -0.040177967 0.049717627 0.011287001 0.011087681 0.016653392 0.014292296 0.041317523 -0.023498556 -0.044854593 0.033532105 0.081236795 -0.028774446 0.027206535 -0.027851466 -0.060757153 -0.058739126 -0.041001476 0.035463743 -0.011968113 0.041257832 0.018682623 0.069750026 0.012697111 -0.0037819315 -0.0024278825 -0.005476198 -0.017951347 -0.019394517 -0.07707993 0.05421291 -0.06834611 0.0565466 -0.026051678 0.04633344 -0.07030246 -0.020869952 0.027100839 -0.120253064 -0.02471131 -0.075178735 -0.046752058 -0.03025335 0.034439493 0.115807496 -0.07673055 -0.065571725 0.057387996 -0.057701714 0.08871556 -0.013915063 -0.012812916 -0.009838212 -0.0013956546 0.0045049656 0.12713294 -0.04429586 -0.07230083 -0.0034225576 0.06100551 -0.024148354 0.014822146 0.04410351 -0.06900866 0.04016062 -0.002340966 0.016027391 0.0132882325 -0.021415804 -0.020096343 0.0252192 0.046866048 0.033319604 0.022732591 -0.03767904 0.012749813 -0.089788646 -0.0432433 0.019308936 -0.061537776 0.04463783
1689 0.0016908707 -0.09366563 -0.008750749 0.051202442 -0.0031338637 0.009267145 -0.027049772 -0.0030842363 -0.071634136 -0.00060464273 0.00778124 0.026068922 -0.027757306 0.011491437 0.09022236 -0.08088332 0.01410745 -0.026596015 -0.036887493 0.06374957 -0.016507031 -0.005221597 0.017623577 -0.021665044 0.065842085 0.035672225 0.07863804 0.040509302 -0.013524508 0.03168877 -0.026821518 -0.045045964 -0.11863699 0.04907861 0.057031393 0.003949189 -0.079688795 0.012497711 0.09184043 -0.090376385 0.080254614 -0.041536234 -0.002568617 -0.020601857 0.040571444 0.0044813897 0.0027448747 -0.08010666 -0.04974862 0.069387764 0.013216694 0.0049204687 0.032536097 0.02645828 0.040121164 -0.030176898 -0.05923703 0.046595376 0.10973466 -0.037400167 0.027484091 -0.042582046 -0.07426007 -0.07454252 -0.06203599 0.0459416 -0.02719795 0.06512403 0.023187535 0.089878805 0.014465095 -0.0050810347 -0.019716393 -0.013334052 -0.016374713 -0.036265187 -0.1140742 0.080871485 -0.101111785 0.06882986 -0.0359264 0.06411231 -0.08272017 -0.026627613 0.055262264 -0.15650441 -0.029803637 -0.1132807 -0.058349214 -0.025119105 0.053796437 0.16619232 -0.10157727 -0.06810174 0.08098665 -0.07325383 0.11584207 -0.014853859 -0.019130168 -0.007673847 0.0013942968 0.0072687464 0.14621887 -0.071014635 -0.10772244 -0.002604267 0.07065454 -0.049491443 0.01732604 0.058378927 -0.102808915 0.04330585 0.011104287 0.020586416 0.014656303 -0.054566417 -0.039628096 0.030805495 0.06893017 0.030798225 0.04046565 -0.044387124 0.01465168 -0.12709287 -0.07542469 0.0077755367 -0.07445292 0.057215773
1607 -0.0221795 -0.11781831 -0.023596268 0.08387023 -0.00045622428 0.024554813 -0.033543736 0.019981233 -0.09413342 0.009177928 -0.0021251207 0.030473769 -0.021990275 0.016130826 0.10890365 -0.09548228 0.030730454 -0.01013455 -0.041077457 0.073977835 -0.026590232 -0.012172076 0.033446997 -0.02953427 0.08150583 0.05224406 0.09366698 0.05297918 -0.0031003987 0.031723347 -0.025170963 -0.054746605 -0.14485054 0.07006502 0.075360544 0.0023885185 -0.086606316 0.027565727 0.12143377 -0.09987941 0.09564811 -0.050401915 -0.013586481 -0.030888248 0.054026593 0.018438164 0.017047662 -0.098830774 -0.06265266 0.09770172 0.009775978 -0.0017861061 0.03488296 0.04101197 0.052417677 -0.046777505 -0.08079922 0.062292587 0.12895176 -0.032308992 0.025209663 -0.051258538 -0.090955764 -0.0991076 -0.071763 0.07104318 -0.027113698 0.07187237 0.021364909 0.10547362 0.014642873 -0.009263889 -0.020554611 -0.016026635 -0.018454323 -0.052934114 -0.12571724 0.09191053 -0.12913455 0.108080015 -0.04734388 0.08248856 -0.0979389 -0.024151066 0.055329554 -0.22608729 -0.040661313 -0.13402256 -0.06600159 -0.04658125 0.06236967 0.21987201 -0.115846984 -0.09481332 0.094936006 -0.088715635 0.13309988 0.00015042424 -0.022685777 -0.01255387 0.006779181 0.0003670414 0.1907219 -0.07446331 -0.11439959 -0.010452882 0.09432711 -0.051596113 0.020816665 0.07120094 -0.13174616 0.06727582 -0.0006584053 0.020521015 0.019819425 -0.055786338 -0.04295608 0.054485325 0.07359727 0.046711843 0.050467722 -0.0811522 0.017006556 -0.15273462 -0.10214772 0.028870251 -0.09649107 0.076609716
62 -0.009561255 -0.062435 -0.019185923 0.044917703 -0.0023402448 0.012123993 -0.02037469 0.020823909 -0.05143723 -0.002044833 -0.0027538564 0.011847939 -0.012945963 0.00978041 0.063306175 -0.04563639 0.018122006 -0.0015354403 -0.023493411 0.023274578 -0.0028487504 -0.009178217 0.020452922 -0.014123979 0.05219484 0.033285536 0.054275695 0.03977393 0.0012321909 0.02381237 -0.02379381 -0.029562043 -0.08732796 0.044503927 0.045470238 0.009225225 -0.043621805 0.018520266 0.07794584 -0.06639719 0.06995221 -0.017927475 0.0030743945 -0.012148614 0.032632705 0.019726606 0.0036589843 -0.053849265 -0.029017877 0.055089746 0.012578047 0.0021537663 0.026147356 0.025386658 0.028180717 -0.021734167 -0.05263293 0.036876522 0.067162625 -0.017452706 0.010629237 -0.031989533 -0.059368078 -0.056279454 -0.03390771 0.041666064 -0.009563762 0.034403667 0.010489325 0.07365809 0.013366591 -0.007161542 -0.0089531 -0.015210158 -0.012763376 -0.021109907 -0.062721714 0.058492027 -0.07021427 0.050037805 -0.029914863 0.049145687 -0.06197057 -0.020553272 0.031947743 -0.12701906 -0.033295367 -0.06891032 -0.042399716 -0.02878801 0.025519153 0.12668079 -0.07072306 -0.06646513 0.055974554 -0.055516515 0.08219416 -0.004608714 -0.015262547 -0.015250662 1.5635425e-05 -0.0018055952 0.11367797 -0.0446781 -0.058254622 -0.012206029 0.056170892 -0.023511594 0.008487303 0.041836936 -0.08116983 0.03784471 -0.008652811 0.005174295 0.012830982 -0.026067343 -0.014451353 0.033776097 0.046673086 0.03371605 0.023117492 -0.039091703 0.005802261 -0.079200596 -0.049130436 0.015264899 -0.06880332 0.03974086
1539 -0.02718808 -0.08349004 -0.00563684 0.0672548 -0.00045400028 0.029616168 -0.024468768 0.009864799 -0.082382254 -0.006273024 0.0061666374 0.025325553 -0.016871037 0.012060404 0.09165556 -0.07786209 0.02590919 0.0020525942 -0.030798927 0.073721744 -0.020173583 -0.021559339 0.03359933 -0.023050565 0.07164577 0.040523328 0.07527754 0.045210943 0.0019383754 0.029640274 -0.023878759 -0.05902274 -0.11402736 0.059079457 0.051194414 0.0053430293 -0.077239834 0.01778091 0.101292625 -0.085936554 0.081597 -0.037554756 -0.01216186 -0.026139624 0.04325254 0.017095586 0.008643456 -0.07899356 -0.046334803 0.068761915 0.008642086 0.0023393827 0.028571805 0.011823357 0.0418947 -0.036473725 -0.06280944 0.039400734 0.102505565 -0.024852935 0.021642214 -0.041006867 -0.07359997 -0.07291887 -0.06631173 0.051214766 -0.021341668 0.0564022 0.022240927 0.08656335 0.0068707853 0.0014230433 -0.014921024 -0.003789676 -0.021839626 -0.044683505 -0.10868568 0.078576244 -0.09761648 0.08642661 -0.02622177 0.06497428 -0.091121405 -0.016747443 0.03475201 -0.17803042 -0.033053916 -0.11582472 -0.052857988 -0.033802863 0.052902594 0.17469509 -0.10925089 -0.07782465 0.08107562 -0.07400179 0.10811331 -0.006304273 -0.011149823 -0.008514834 0.010793878 -0.009574414 0.15902339 -0.06752293 -0.09920854 -0.0052878433 0.093398936 -0.04810034 0.022238094 0.061449666 -0.09672447 0.05057997 0.001785908 0.0144951865 0.018054297 -0.044902563 -0.028815582 0.03362132 0.06975352 0.04462012 0.046553023 -0.053746495 0.013023063 -0.13586406 -0.07653634 0.025607765 -0.083511285 0.058955695
1189 -0.00038465168 -0.10146617 -0.0146296825 0.05902082 -0.0075430768 -0.009601559 -0.0307696 -0.0209248 -0.07003418 -0.01180548 -0.006530074 0.020403713 -0.03200694 0.00023563835 0.07833929 -0.07879265 0.023313966 -0.036785994 -0.040549103 0.05464646 -0.018684754 -0.028987348 0.011088412 -0.036829036 0.05630322 0.017942436 0.08593678 0.0441957 0.0012186308 0.010536067 -0.010047364 -0.0540583 -0.13241352 0.04500574 0.05113355 0.008057443 -0.078497365 0.024722774 0.09731335 -0.112917885 0.06664171 -0.0659686 0.015739681 -0.02752433 0.019922523 -0.01029811 0.007513242 -0.082364775 -0.05618786 0.07017198 0.0073546525 0.016687157 0.02990314 0.01863448 0.06281978 -0.02679944 -0.050392613 0.045040432 0.10958242 -0.04977646 0.047048427 -0.035214577 -0.07923055 -0.072240464 -0.045911606 0.032732066 -0.0137926135 0.066786736 0.030392952 0.091333784 0.021564497 0.007238726 -0.015430793 0.0079447 -0.01845587 -0.026543053 -0.12480018 0.0965501 -0.10376058 0.0708411 -0.056189355 0.06419037 -0.09175173 -0.029784914 0.054493487 -0.16149497 -0.015836708 -0.11063231 -0.060225368 -0.036353976 0.051783666 0.15493418 -0.088178284 -0.08453328 0.07711565 -0.08559216 0.11475451 -0.005375415 -0.027008528 0.0040254146 0.00029008772 0.027497772 0.15775858 -0.061969638 -0.1000557 0.0057100565 0.07172164 -0.0456509 0.02813178 0.065418564 -0.09693893 0.040990833 0.0028829076 0.038779695 0.021708196 -0.031150177 -0.025613792 0.013007175 0.063300274 0.014777713 0.022658737 -0.051565275 0.027351573 -0.10927544 -0.07225164 0.022589488 -0.08237203 0.06227296
45 0.00703702 -0.054781053 -0.0024636544 0.030232403 0.0015545625 -0.0047492962 -0.0035123052 -0.016378544 -0.024019657 0.0029651225 0.0044978815 0.017665464 -0.013850073 0.0032157681 0.033618737 -0.054362167 0.0042214785 -0.017383095 -0.009949225 0.032388523 -0.01048611 -0.0020735657 -0.0015646947 -0.011590875 0.020385921 0.014968393 0.046409626 0.009084337 -0.0011423772 0.009999522 -0.010472786 -0.024294462 -0.05805156 0.007981585 0.023570873 -0.0024903982 -0.04245436 0.0014855285 0.030383643 -0.039936915 0.030398985 -0.033703197 -0.0027436907 -0.009372917 0.011769729 -0.01593042 0.003121155 -0.039715603 -0.023520323 0.030606475 -0.0017691926 0.001043704 0.013816054 0.015036235 0.022724433 -0.006791867 -0.017886687 0.01783331 0.056474365 -0.021494985 0.021052364 -0.013476399 -0.037623394 -0.040745575 -0.023399124 0.009756047 -0.012148058 0.03586169 0.010970662 0.036652643 0.003508675 0.009117365 -0.0039933966 0.0022704005 -0.002866501 -0.014715822 -0.061048772 0.040106896 -0.049275603 0.036964454 -0.025614552 0.037457522 -0.03377365 -0.008547133 0.028273137 -0.06312912 -0.004556243 -0.053544745 -0.021195281 -0.0048702676 0.027873034 0.06294354 -0.03693861 -0.027477354 0.032924857 -0.034116987 0.053912897 -0.0033117873 -0.014496189 0.0036837861 -0.00535855 0.016195165 0.06315942 -0.032110013 -0.053942632 -0.000111770314 0.03009266 -0.022993747 0.0041440395 0.033055756 -0.04812026 0.01730749 0.004699012 0.014384853 0.0063832332 -0.02659988 -0.019824605 0.014408763 0.02789865 0.00031960147 0.020704908 -0.016869288 0.01461314 -0.054236423 -0.0336995 0.007963212 -0.028945051 0.01845219
1111 -0.0035248783 -0.04292947 -0.0057614534 0.022407465 -0.0005689536 0.0076979185 -0.015356929 0.0009318719 -0.031272467 -0.0063225594 -0.002513485 0.008294331 -0.014752217 0.002785057 0.03903136 -0.025798405 0.012260513 -0.0066195303 -0.014104407 0.018518008 -0.008653171 -0.0070883315 0.009621243 -0.012667317 0.02603671 0.013252056 0.034880374 0.024416467 -0.001690012 0.013996825 -0.007552608 -0.02084317 -0.05240571 0.025722241 0.029426945 0.0051774583 -0.035851095 0.0013787092 0.050248783 -0.04775983 0.032137007 -0.018126426 0.0024272364 -0.0044908165 0.009557096 0.0022409735 0.0027589786 -0.034395486 -0.028529039 0.035004675 0.013054571 0.0065723876 0.015739476 0.0101438025 0.02311173 -0.013585022 -0.03062334 0.018292498 0.04867371 -0.018863747 0.015637575 -0.019081894 -0.03967115 -0.033617936 -0.024645263 0.019569708 -0.008251186 0.02520599 0.009229935 0.03886327 0.007630089 0.0023989156 -0.005393915 -0.0011878002 -0.009446263 -0.0067254994 -0.050635822 0.039192617 -0.041838337 0.035392087 -0.02618012 0.026008544 -0.045788612 -0.0143538285 0.024228469 -0.06772575 -0.015364818 -0.04945615 -0.025107488 -0.016920064 0.026510999 0.077363744 -0.04653251 -0.041605644 0.03206841 -0.038025875 0.05608156 -0.0013057205 -0.010031832 -0.0017822216 0.0015726888 0.0071594105 0.07592597 -0.02750757 -0.04438555 0.0023620776 0.029275468 -0.016600322 0.008631926 0.025393542 -0.049422223 0.023381123 0.003329239 0.008618255 0.010840519 -0.014394987 -0.013741547 0.015489465 0.032233007 0.021884162 0.012617322 -0.019329634 0.009367409 -0.060963646 -0.022475405 0.01374362 -0.041029043 0.026940417
1646 0.0042239493 -0.079832144 -0.008624246 0.03996417 -0.00879405 0.015285272 -0.03381044 0.012726281 -0.053524394 -0.007137597 0.0013839444 0.009888986 -0.017846439 0.013005631 0.0680022 -0.05960227 0.019978184 -0.011777187 -0.025350261 0.040183514 -0.008442386 -0.009188613 0.012239529 -0.008512977 0.04790887 0.02295711 0.05658573 0.043383874 0.00048254785 0.027104888 -0.019890234 -0.03440074 -0.089917 0.043752708 0.045140628 0.011682908 -0.061836626 0.017770885 0.09154349 -0.0815337 0.06512351 -0.02368261 8.531028e-05 -0.018449323 0.029228434 0.0070825303 0.004497916 -0.059247494 -0.037681438 0.049337186 0.018452922 0.0054055 0.022013871 0.027295288 0.031537924 -0.025171876 -0.052502256 0.03900362 0.082034 -0.026637772 0.01629441 -0.03473219 -0.060562953 -0.057734217 -0.043452885 0.043264624 -0.014789296 0.043880202 0.00980676 0.07592976 0.015137846 -0.009280259 -0.011327622 -0.012093818 -0.008389961 -0.02357421 -0.08544066 0.057924017 -0.070538 0.051756613 -0.026711171 0.052188464 -0.068334706 -0.014591308 0.038529865 -0.13497633 -0.023105454 -0.07951509 -0.04762165 -0.030786784 0.03013182 0.12830245 -0.08458124 -0.06263797 0.05972815 -0.06051062 0.09297544 -0.008567543 -0.016565127 -0.005077013 0.0031242964 0.008738983 0.122661784 -0.05210598 -0.074203104 -0.0008543445 0.045596495 -0.02907823 0.003928351 0.05051958 -0.08347984 0.035032988 0.007949909 0.013309238 0.018479316 -0.031602148 -0.022512019 0.03601643 0.046788666 0.032579344 0.035671644 -0.031990957 0.00860702 -0.09760645 -0.047698777 0.0105131045 -0.07397367 0.05228671
856 -0.015023532 -0.07886222 -0.014777451 0.05623248 -0.0042192955 0.011442967 -0.015373671 -0.010740303 -0.068431266 -0.019152101 -0.0029765593 0.009891326 -0.014684083 0.005692962 0.0682685 -0.06258808 0.015667971 -0.0071853083 -0.031970672 0.04964946 -0.014101534 -0.026942588 0.023804368 -0.022907993 0.041596998 0.026448173 0.073722124 0.04540024 0.0067961374 0.01689161 -0.018669091 -0.05402121 -0.10188731 0.051390003 0.051102504 0.0038792382 -0.060233563 0.0016653608 0.09562468 -0.082578 0.059867647 -0.04461397 0.000987159 -0.01906622 0.017058246 0.011188985 0.009939893 -0.06595744 -0.040846303 0.055754673 0.01648129 0.0048517417 0.023975708 0.010951023 0.0392529 -0.022734515 -0.050453514 0.030774863 0.08347435 -0.04102235 0.028105086 -0.03438354 -0.07133953 -0.05769942 -0.049596656 0.033548117 -0.016201027 0.053391933 0.025096443 0.067863286 0.009658245 0.007001515 -0.012676938 0.0006052104 -0.012304719 -0.019993529 -0.08525206 0.06808364 -0.08243683 0.05873249 -0.03913387 0.050657455 -0.08513236 -0.024025997 0.038947392 -0.13292132 -0.0136039145 -0.09111617 -0.054670963 -0.030024854 0.045832746 0.13250332 -0.08874015 -0.08231782 0.061469957 -0.066671886 0.09582803 0.005586543 -0.015380704 0.008699813 0.0079095615 0.0012198627 0.1500705 -0.040408313 -0.081043035 -0.00039515327 0.06590702 -0.025969602 0.021577151 0.050140984 -0.08100349 0.037509415 0.00040526612 0.019142441 0.026313875 -0.02438209 -0.0158385 0.027216518 0.053432006 0.03349812 0.026017401 -0.03393184 0.011840499 -0.10896446 -0.049077783 0.022369146 -0.07141162 0.05079645
529 -0.0033676708 -0.1044056 -0.0062533803 0.07517442 0.0023730162 0.006213287 -0.027924702 -0.019746223 -0.08279887 -0.014908652 -0.019622536 0.009370248 -0.043234017 -0.0032678926 0.0836048 -0.08357754 0.029920021 -0.029940613 -0.045493107 0.06482922 -0.026461322 -0.03329712 0.019329803 -0.02700379 0.067964464 0.030920785 0.09999341 0.062095754 0.014110343 0.025571482 -0.015714139 -0.068510994 -0.14383759 0.050741613 0.05904759 0.0067457645 -0.08805489 0.029365234 0.11602525 -0.12163426 0.08219916 -0.06675174 0.011564058 -0.026049739 0.038337767 0.007845987 0.012455637 -0.09120827 -0.053363454 0.07438066 0.008002131 0.016185239 0.024623415 0.02200925 0.07214066 -0.028820826 -0.054140016 0.04849085 0.11256849 -0.054850247 0.049126577 -0.0376511 -0.08500849 -0.0816611 -0.053946473 0.037520513 -0.012976886 0.0662501 0.034064665 0.093515575 0.018741217 0.015980486 -0.0018092715 0.01677724 -0.030990606 -0.022382189 -0.12601167 0.1013649 -0.10579049 0.08386995 -0.0607129 0.07426842 -0.10606975 -0.03696918 0.04525296 -0.19226147 -0.02427063 -0.12258238 -0.06396549 -0.037733614 0.06756956 0.17354864 -0.10594532 -0.102087826 0.088857114 -0.08488035 0.13552138 0.0023154512 -0.027666733 0.0042394646 -0.0013841128 0.015981533 0.1861221 -0.06516536 -0.118306436 -0.0015808039 0.08365813 -0.04118616 0.029785054 0.07547549 -0.106076 0.03794936 0.0036933927 0.032750994 0.020875525 -0.027185725 -0.024273459 0.023998797 0.0681122 0.025695775 0.03487418 -0.067559935 0.032219585 -0.1305411 -0.06596414 0.032133102 -0.09247077 0.060717627
601 -0.0104405405 -0.104316644 -0.021814417 0.053403743 -0.014582068 0.013124651 -0.035992075 0.007805966 -0.06905264 -0.006608712 -0.0057074847 0.011676891 -0.018737715 0.012457529 0.08647497 -0.07007738 0.021347927 -0.02334095 -0.027972134 0.040714752 -0.0050021815 -0.02039963 0.026071379 -0.018484367 0.055005383 0.04038094 0.08593368 0.059371315 -0.0003531953 0.017700464 -0.027231317 -0.05144855 -0.1170301 0.057014123 0.056324895 0.013963345 -0.06533473 0.025818467 0.11517069 -0.10554843 0.08180199 -0.045313485 0.001451477 -0.018885829 0.02419037 0.010780466 0.014638245 -0.071945615 -0.047763105 0.072731115 0.02632702 0.017678319 0.043521926 0.02289875 0.041148547 -0.027768476 -0.06514954 0.04781748 0.10148663 -0.03013542 0.017282983 -0.044517767 -0.09450966 -0.0668052 -0.043991167 0.05393505 -0.017547572 0.048635703 0.019198254 0.09732323 0.016329816 -0.008937747 -0.02610441 -0.011282382 -0.00602917 -0.02403088 -0.10042742 0.07968543 -0.10409497 0.061744377 -0.051629778 0.07031389 -0.08580709 -0.029247202 0.050117005 -0.16821362 -0.028105082 -0.10700044 -0.058029868 -0.051940054 0.038225047 0.17866655 -0.101808034 -0.095660806 0.06883636 -0.092207626 0.120091945 -0.0029539305 -0.024279065 -0.004123047 -0.0012202715 0.0017067319 0.17348623 -0.057632104 -0.08733993 -0.0063963416 0.06739422 -0.03987728 0.015955882 0.0526221 -0.11305284 0.045936745 0.0031004515 0.019264683 0.032369234 -0.025276164 -0.025754292 0.04361825 0.061957933 0.045156114 0.03053343 -0.043002456 0.01296404 -0.11383968 -0.062389538 0.023385262 -0.08428031 0.068384096
590 -0.01770167 -0.07538485 -0.030798873 0.038717847 -0.012001233 0.027487742 -0.037157495 0.040044222 -0.07125866 -0.0035458866 -0.0037331893 0.008047213 -0.008585874 0.015556681 0.07934472 -0.044744473 0.016678121 0.005012055 -0.031441577 0.016446678 -0.0031804151 -0.01370787 0.021439444 -0.008127709 0.057234026 0.043466777 0.05570473 0.062030084 -0.0048182127 0.029139139 -0.022755641 -0.023168603 -0.09860587 0.05960982 0.053156875 0.026064709 -0.04574512 0.023424832 0.105059616 -0.07836411 0.08924661 -0.01614745 -0.0016467759 -0.008220741 0.034322873 0.03980946 0.0144218085 -0.06465866 -0.042619523 0.060910534 0.029550992 0.0057115727 0.033557184 0.0291032 0.020713681 -0.027084773 -0.08032371 0.045659807 0.084245116 -0.015092561 -0.004195324 -0.05285949 -0.07011327 -0.058888223 -0.05466508 0.06465802 -0.016683878 0.036921106 0.007844332 0.09401154 0.007934363 -0.024139205 -0.015817262 -0.018524744 -0.00897113 -0.029629927 -0.06666811 0.054887336 -0.08048983 0.05538581 -0.025697317 0.049289063 -0.078574896 -0.026133547 0.026816579 -0.15335801 -0.04351671 -0.0784125 -0.049102332 -0.04672711 0.017972182 0.16837263 -0.09583458 -0.084077 0.060048863 -0.05682684 0.102717 -0.0028981336 -0.014097973 -0.023765434 0.011639641 -0.012995615 0.1397995 -0.055329792 -0.06870779 -0.0030373516 0.0638998 -0.027990725 0.010100333 0.03477011 -0.10088581 0.04922136 0.0006933306 0.0040105036 0.020879256 -0.032362625 -0.021418588 0.05329445 0.058425296 0.0640654 0.030177357 -0.04170518 0.010249801 -0.098829605 -0.06464713 0.018483348 -0.07868502 0.049498066
182 -0.0057379263 -0.08772811 -0.014699205 0.045144692 -0.026388565 0.0013141747 -0.007937117 -0.031679764 -0.04600893 -0.009338848 0.002577143 0.010147888 -0.009494369 0.0055983383 0.045825273 -0.06640683 0.02536708 -0.019220093 -0.014755139 0.018372813 -0.011444182 -0.026302567 0.01844787 -0.017180417 0.01802478 0.025831433 0.07242279 0.04515355 -0.001672237 0.013755477 -0.009960641 -0.030048372 -0.07308966 0.039615043 0.05065665 -0.003360129 -0.03545307 0.01204174 0.07015498 -0.062929235 0.03655259 -0.05205731 0.0008265585 -0.029010009 0.0143888015 -0.0069555463 0.026291383 -0.04804644 -0.022061877 0.05632043 0.009716264 0.005385961 0.04812105 0.007630897 0.033903945 -0.026148275 -0.035401426 0.024674691 0.07140619 -0.031419177 0.011055213 -0.026162 -0.07772971 -0.03065914 -0.02678443 0.031954203 -0.021892596 0.048786867 2.2384334e-05 0.0654972 0.0041154125 0.007540058 -0.023961179 0.01227145 -0.00045141156 -0.027968837 -0.071602285 0.066527225 -0.07375599 0.038612954 -0.04823026 0.051358175 -0.062754646 -0.020525195 0.036609083 -0.11930864 -0.011041824 -0.077130705 -0.025883174 -0.033493496 0.03486203 0.11464846 -0.06074635 -0.07168349 0.0434268 -0.06634564 0.071294114 0.016297828 -0.02625866 0.01121381 0.0065939715 -0.0020511989 0.1252904 -0.02751787 -0.06614254 0.009855092 0.037186652 -0.009367103 0.010093525 0.038394876 -0.07769401 0.014714354 0.0027147678 0.018204344 0.030434033 -0.019912265 -0.010634122 0.025977813 0.030672394 0.023635322 0.020972248 -0.031969134 0.024340507 -0.064455256 -0.05152741 0.019510422 -0.049192958 0.056391805
1422 -0.022480395 -0.10871394 -0.02343987 0.06889359 -0.023402119 0.022020424 -0.0355585 -0.010246595 -0.08359224 -0.016622815 -0.0039685997 0.017773967 -0.01849982 0.015609474 0.08669183 -0.081937574 0.024732523 -0.0138830105 -0.030437559 0.054710746 -0.010124698 -0.033863388 0.02351343 -0.019372141 0.05730405 0.04017754 0.09745338 0.0684958 -5.6959825e-06 0.026304472 -0.0254488 -0.066509195 -0.13160351 0.06966687 0.06368611 0.0130935935 -0.07089506 0.010363775 0.1327903 -0.11261753 0.08709151 -0.05716697 0.0024157036 -0.029452084 0.031930454 0.010278364 0.018977894 -0.0872183 -0.05688364 0.074473366 0.024448125 0.012188567 0.048520606 0.012907173 0.04609421 -0.035008214 -0.0712857 0.041532166 0.11768926 -0.04482458 0.029397009 -0.051267076 -0.09875011 -0.07309168 -0.061188668 0.045513246 -0.023396293 0.066812515 0.015228338 0.104821175 0.014291682 0.0013993954 -0.02888183 -0.006209073 -0.008363978 -0.031121 -0.112445794 0.09595837 -0.113522574 0.077161916 -0.055024747 0.0769432 -0.11009452 -0.036611207 0.054384127 -0.18530893 -0.032090843 -0.12575345 -0.0566649 -0.05337776 0.056483634 0.19718432 -0.118675806 -0.11140184 0.07929968 -0.09721888 0.1298533 0.001098234 -0.02051842 -0.00013699968 0.010086026 -0.00288032 0.20250565 -0.0518416 -0.1037317 0.0032008444 0.08119465 -0.040888324 0.017890574 0.06357309 -0.11724446 0.045767833 -0.0037816311 0.019036045 0.032870688 -0.042716693 -0.029004911 0.037170313 0.07112075 0.05602091 0.038819898 -0.052697863 0.019767888 -0.14022872 -0.075482845 0.03023961 -0.08535415 0.06519744
1185 0.0092988 -0.108698346 0.004916639 0.08474864 0.008072839 -0.004679803 -0.0129094785 -0.055251393 -0.0794612 -0.018372396 -0.011175553 0.018722286 -0.035334297 -0.0029196863 0.08189452 -0.08583191 0.021158224 -0.031009894 -0.041441422 0.08260519 -0.038245685 -0.037419394 0.013458532 -0.033977505 0.057281528 0.016251083 0.106168255 0.04720437 0.013294179 0.022008054 -0.0071383864 -0.07658588 -0.1370434 0.044453956 0.05658517 -0.010967136 -0.09528369 0.01318496 0.102052376 -0.11833236 0.06653737 -0.09295435 0.009234869 -0.028660327 0.030687261 -0.023658464 0.012226721 -0.093765534 -0.063622184 0.07549961 0.001886613 0.018897794 0.025318546 0.0043069073 0.07611656 -0.033255633 -0.048175503 0.046775885 0.11757567 -0.06004577 0.058306497 -0.028576657 -0.09116384 -0.08395066 -0.052650716 0.0152978115 -0.024179732 0.08129507 0.04548019 0.087744415 0.012967702 0.02071211 -0.007276277 0.019112939 -0.026633339 -0.022595385 -0.15686099 0.114640616 -0.10703245 0.09069797 -0.06272858 0.07738789 -0.10833361 -0.02843048 0.057990085 -0.17217895 -0.0080258 -0.13873419 -0.057842724 -0.02516512 0.07773788 0.1659095 -0.10626545 -0.09307403 0.086600676 -0.09424329 0.12475493 -0.005670119 -0.022904387 0.02145845 0.003594812 0.022581324 0.18465765 -0.05977831 -0.13256979 0.0051915557 0.086975835 -0.04455946 0.026845975 0.07946387 -0.09944863 0.030843485 0.0054705697 0.04450799 0.021813389 -0.038652923 -0.029861897 8.433342e-05 0.06619504 0.010792705 0.033496067 -0.053209692 0.027644375 -0.13595015 -0.06723314 0.031589836 -0.083525576 0.058734223
769 -0.019004926 -0.07745876 -0.013448132 0.036162037 -0.0187665 0.02528758 -0.028082758 0.010610337 -0.052502394 -0.008905345 0.005188646 0.015968675 -0.00440208 0.01893256 0.060975753 -0.05641085 0.018105535 -0.003994992 -0.015534577 0.03993268 -0.0049967156 -0.013336423 0.022152755 -0.00788618 0.041060355 0.027865382 0.06365923 0.044399183 -0.0043893736 0.022629177 -0.0184634 -0.022359148 -0.083204284 0.04261771 0.04714401 0.01068858 -0.051125523 0.015420329 0.08121392 -0.06043189 0.061586145 -0.027506538 -0.006839778 -0.029605024 0.027535692 0.015364196 0.011009788 -0.05466495 -0.033565503 0.05594674 0.018143311 0.0073920307 0.041052848 0.017407496 0.028906874 -0.034056578 -0.06214543 0.03698594 0.080014266 -0.011471987 0.0010057196 -0.029372936 -0.051984698 -0.051516764 -0.046888363 0.041693415 -0.016962603 0.04400113 -0.0020612725 0.068089254 0.0008705567 -0.0061177276 -0.026674083 -0.007319864 -0.002370209 -0.03235427 -0.073830076 0.05448882 -0.08130706 0.05261682 -0.02096398 0.045325655 -0.05770374 -0.013722115 0.02745896 -0.13054882 -0.031915836 -0.078826204 -0.03831552 -0.031117193 0.027199948 0.1348822 -0.07356696 -0.06340504 0.052241012 -0.04550108 0.07578566 0.002834697 -0.0147179365 -0.014226523 0.020247184 -0.013015039 0.12030114 -0.047003645 -0.070515744 -0.0015437442 0.045399047 -0.03005148 0.006441745 0.03604899 -0.08568832 0.03983941 0.0075483522 0.012158292 0.019916192 -0.03397745 -0.015193517 0.039695516 0.041004766 0.04599189 0.037606463 -0.0411419 0.0059381546 -0.09001313 -0.054089166 0.012887506 -0.0634732 0.05374565
349 -0.014525663 -0.09511114 -0.027208073 0.053787082 -0.024004508 0.013349555 -0.024175182 0.0230744 -0.06378184 -0.0038461036 -0.0016021837 0.017962348 -0.0047325497 0.013923343 0.062006928 -0.059978932 0.029993474 -0.0063975407 -0.022952562 0.030214902 -0.005493482 -0.011935798 0.025586184 -0.017025236 0.049917877 0.039301123 0.077210754 0.047602836 -0.003261009 0.022431286 -0.01734769 -0.022853997 -0.1072413 0.052299738 0.057314903 0.020167967 -0.04848092 0.01726158 0.09397887 -0.07484119 0.06767168 -0.034136504 -0.0033474073 -0.029764537 0.032319047 0.015502934 0.018974075 -0.066577606 -0.03251228 0.06613075 0.018906984 0.0027820303 0.04606807 0.02913079 0.034595612 -0.03354262 -0.06758245 0.045671288 0.088112086 -0.013682188 0.008323836 -0.038053405 -0.07733828 -0.053988103 -0.045355555 0.04929932 -0.011491317 0.0470556 -0.0065338756 0.085808106 0.012123563 -0.012371504 -0.040993556 -0.014211426 0.0011470384 -0.038115732 -0.082614645 0.06640464 -0.087564625 0.05389095 -0.037380114 0.054562133 -0.068914555 -0.022532145 0.04518785 -0.16356519 -0.033996042 -0.09228405 -0.047669288 -0.042589217 0.026184399 0.15869056 -0.07893298 -0.08836627 0.05551016 -0.07332785 0.0925927 0.003378025 -0.016176814 -0.016939955 0.013906014 -0.00067247293 0.14455606 -0.048087005 -0.06440436 -0.004864015 0.05213064 -0.03252888 0.0111853415 0.04586552 -0.10071595 0.045591332 -0.0021518308 0.014426683 0.027849244 -0.03273606 -0.015580232 0.049252152 0.05234278 0.043791108 0.03928698 -0.04988137 0.019307278 -0.094655484 -0.06662066 0.019439407 -0.07070593 0.072975546
376 -0.016363785 -0.10851701 -0.0034145757 0.06802268 0.010572565 0.027973035 -0.036934804 -0.010581062 -0.088786945 -0.015536512 0.008911201 0.031756982 -0.024928289 0.026539842 0.123250894 -0.09810176 0.019879531 -0.017473632 -0.0286706 0.0919677 -0.013003731 -0.018176096 0.014476116 -0.018396998 0.07251099 0.045506474 0.100712836 0.058532182 -0.011134921 0.04443262 -0.03578906 -0.06847272 -0.12861903 0.055390198 0.058905937 -0.0013091573 -0.10776974 -0.009329471 0.12484266 -0.109079204 0.08717144 -0.052883305 -0.010228688 -0.02752244 0.035701644 0.005340966 0.010253049 -0.10017821 -0.06441453 0.07602609 0.031062968 0.012230581 0.03584604 0.008780615 0.0371421 -0.046042234 -0.080706924 0.043770447 0.1308026 -0.059421036 0.0312583 -0.045831162 -0.08059438 -0.09707025 -0.084457636 0.044589974 -0.030326264 0.08722218 0.036500465 0.09460063 0.0036330356 0.01327632 -0.015683824 -0.00307692 -0.006723299 -0.041032203 -0.13772376 0.10224808 -0.11829479 0.092480354 -0.040317446 0.072312795 -0.11082561 -0.03395092 0.06141098 -0.17656924 -0.03688333 -0.15011951 -0.063940555 -0.023547497 0.080211684 0.20717552 -0.12700033 -0.08493154 0.095763825 -0.078727394 0.14351211 -0.014676536 -0.022366798 0.0019120484 0.011001925 -0.0015059132 0.18667544 -0.07278029 -0.1267663 0.005090073 0.091561824 -0.05647336 0.026354926 0.07290197 -0.12280235 0.048288226 0.009070765 0.023081282 0.019963644 -0.065594435 -0.04156975 0.040902767 0.08243081 0.052217145 0.06375412 -0.042714585 -0.002348927 -0.17041394 -0.07427165 0.016295873 -0.09346084 0.04919166
1322 0.006830914 -0.055357706 -0.0018542715 0.041820526 0.005407067 -0.0047439863 0.0014926004 -0.0224027 -0.02701854 -0.0013636756 -0.0032198324 0.009134333 -0.00724262 -0.00633559 0.026751209 -0.048831902 0.0102465125 -0.019385796 -0.009147531 0.02723655 -0.021021007 -0.014643259 0.0053471085 -0.01649313 0.023156647 0.005210616 0.047526333 0.009106457 -0.0009041473 0.0015785397 -0.0010779069 -0.026285572 -0.05178077 0.012701947 0.02289207 -0.007256054 -0.02993197 0.0124902725 0.0282821 -0.031995486 0.019950204 -0.033853352 0.00017679264 -0.019121729 0.016876202 -0.01342011 -0.0004966223 -0.026932236 -0.024011113 0.02643208 -0.007557138 0.00465571 0.010537734 0.008653883 0.03445638 -0.011891307 -0.013579919 0.015810663 0.051874936 -0.018962974 0.021676045 -0.013670234 -0.033355538 -0.03370949 -0.012031505 0.005419682 -0.008427838 0.039473917 0.010846804 0.03233696 0.0069219084 0.011856562 -0.0038893525 0.007842743 -0.0150326695 -0.015919149 -0.064817555 0.03904943 -0.04419814 0.030776048 -0.027680067 0.033046935 -0.032253686 -0.007897316 0.017814055 -0.06759382 0.00083602977 -0.056142285 -0.016929224 -0.009867487 0.032235257 0.060143147 -0.02820243 -0.030307993 0.03541521 -0.03923036 0.034932647 0.0027967575 -0.011987141 0.011173944 0.0052038734 0.007340791 0.060758557 -0.024534997 -0.045361307 0.0059601404 0.034718987 -0.012075749 0.005409188 0.030482044 -0.036611114 0.014389873 0.0034792342 0.014399371 0.0095611 -0.01768956 -0.012014933 -0.00046967727 0.012706486 -0.0043644207 0.0072489944 -0.023580065 0.010612818 -0.04071053 -0.0342338 0.019538216 -0.023030728 0.026071116
187 -0.013629662 -0.074221335 -0.017306486 0.0422207 -0.003869355 0.018947152 -0.02654562 0.014047815 -0.063706525 -0.0042412532 0.000797241 0.014465512 -0.012965356 0.011559239 0.07096055 -0.052737124 0.021077272 -0.007955808 -0.034974895 0.042606372 -0.0057548997 -0.011545685 0.02315905 -0.011831449 0.04675604 0.025876911 0.06086873 0.05627092 0.00484435 0.020488674 -0.013469281 -0.037008774 -0.09718355 0.04523984 0.046438683 0.0134394895 -0.064602114 0.0113521125 0.090791926 -0.08329818 0.07034232 -0.023461934 0.0014315109 -0.01985697 0.02493169 0.01827341 0.007028678 -0.07096904 -0.04478064 0.067118 0.015763063 0.0032512196 0.024452424 0.017296722 0.0299857 -0.03109095 -0.06349429 0.033406362 0.08975428 -0.030305997 0.01691709 -0.036517628 -0.06570049 -0.059958648 -0.048791856 0.039599575 -0.014232052 0.038548913 0.016710965 0.07662749 0.0050689187 -0.009246083 -0.020528402 -0.006470775 -0.014666576 -0.021312293 -0.079704575 0.065850064 -0.084540136 0.061861876 -0.028988695 0.04875242 -0.076933496 -0.022128737 0.03399421 -0.13913184 -0.031955913 -0.090288766 -0.048257556 -0.033170417 0.04292695 0.14762692 -0.09007463 -0.071100205 0.059757814 -0.058810957 0.098209195 -0.0112040425 -0.009347407 -0.005910476 0.0071336827 -0.001400727 0.13557439 -0.04564732 -0.08231306 -0.0028262413 0.07011494 -0.032247074 0.0137628205 0.03908582 -0.079886355 0.040552247 0.0024996866 0.013900015 0.024920482 -0.036007322 -0.017096452 0.027644545 0.055309415 0.03830321 0.029449454 -0.037812278 0.0066093025 -0.10667388 -0.05804821 0.023269678 -0.069152534 0.05347132
224 -0.015094253 -0.09940824 -0.01676378 0.062892854 -0.009385192 0.015185124 -0.018293368 -0.002036729 -0.07285495 -0.01323594 0.0047910847 0.01669289 -0.008146753 0.00978626 0.08348247 -0.07868845 0.026578285 -0.010996958 -0.027436959 0.042959988 -0.008935876 -0.02612633 0.02498006 -0.01789708 0.050627064 0.031850994 0.088752195 0.05859074 -0.003907223 0.015761917 -0.022154145 -0.043447003 -0.118076 0.05853294 0.05524635 0.0051327175 -0.06875236 0.012127494 0.103082925 -0.08769899 0.07486614 -0.042596426 -0.0077811047 -0.025122596 0.026611889 0.009781216 0.014107458 -0.07276447 -0.047793355 0.07642136 0.01324821 0.007123717 0.039933167 0.018219044 0.04155557 -0.034305025 -0.06821371 0.036944155 0.106882475 -0.029549746 0.013261367 -0.040569782 -0.08342226 -0.06421704 -0.0472313 0.050755795 -0.020742083 0.05870547 0.017461222 0.09003714 0.0065857987 0.00033143838 -0.028048266 -0.011618234 -0.011566421 -0.040386733 -0.10033142 0.07488338 -0.099280275 0.0694625 -0.040042676 0.060948033 -0.086830124 -0.025209354 0.049328104 -0.16416164 -0.030866925 -0.11042986 -0.052558195 -0.045744143 0.043016702 0.17450196 -0.100091696 -0.0904048 0.06562941 -0.08177391 0.110986464 0.0040157745 -0.018856822 -0.010267046 0.011886788 -0.0030927933 0.16741277 -0.060438197 -0.08785125 0.0013247719 0.07363892 -0.03593565 0.024017211 0.048732392 -0.10184054 0.040070254 -0.0024371017 0.021712266 0.023447234 -0.040842287 -0.027946498 0.037779246 0.061403196 0.047610063 0.032521218 -0.053418793 0.016257778 -0.118190035 -0.07316396 0.021682834 -0.070676304 0.068782754
961 -0.009878312 -0.08327941 -0.014821628 0.0554713 -0.0035603999 0.015195305 -0.03433697 0.010874833 -0.07274093 0.0014015636 -0.00462313 0.0239769 -0.023934595 0.011374303 0.080102436 -0.065861 0.025767304 -0.014305614 -0.035397325 0.06722906 -0.021125449 -0.015781118 0.01160953 -0.016570095 0.0676775 0.028239202 0.07092036 0.038382724 -0.003827828 0.030939827 -0.015187153 -0.039190438 -0.11958187 0.04541235 0.046882436 0.01149259 -0.07092903 0.01571633 0.09719259 -0.08312945 0.07118708 -0.03294163 0.001607646 -0.02062029 0.03506988 0.014546026 0.0021104447 -0.077172235 -0.04838189 0.069729805 0.009193149 0.0024491113 0.023891093 0.025608119 0.042332236 -0.027166398 -0.06206924 0.046608146 0.1039954 -0.026990429 0.032390736 -0.031341996 -0.06438755 -0.07865353 -0.061239626 0.04221708 -0.013906362 0.05555721 0.021069447 0.078666575 0.014970866 -0.0018373381 -0.0065026027 -0.002184218 -0.022405034 -0.027096946 -0.0983625 0.075273134 -0.09125756 0.07223959 -0.025590967 0.060419794 -0.08188023 -0.022987321 0.038770907 -0.15911438 -0.030689143 -0.09976886 -0.059832476 -0.02628804 0.04593285 0.1488957 -0.08640893 -0.07636216 0.071959324 -0.066694945 0.106270164 -0.0047745644 -0.013126347 -0.010890087 0.0026620284 0.010122604 0.1392018 -0.057026885 -0.08594407 -0.005628861 0.07741773 -0.039470505 0.021827314 0.054923963 -0.097680524 0.051391818 0.0074533126 0.017040532 0.010326531 -0.038839795 -0.030480826 0.030194486 0.055009346 0.027218813 0.035431463 -0.046706114 0.00803503 -0.10783031 -0.06921237 0.02027475 -0.07948835 0.053734075
872 -0.018475696 -0.053975154 -0.00999855 0.025770528 -0.021029001 0.022072352 -0.01745024 0.0066440436 -0.03685547 -0.010584952 0.0023691275 0.0033549082 0.002373308 0.015654888 0.043200385 -0.03612383 0.016050817 0.0009234868 -0.015010797 0.01583772 0.008450742 -0.016357902 0.020444095 0.0015466448 0.024416044 0.029455598 0.050365478 0.044743024 -0.0073624384 0.016227221 -0.020629881 -0.017719477 -0.05954454 0.043325238 0.03499694 0.013374804 -0.027234074 0.00989451 0.068831556 -0.044211783 0.043395143 -0.020829255 -0.0042722668 -0.017024525 0.018857714 0.013596975 0.009836556 -0.04239583 -0.024921106 0.039799 0.019842442 0.0026367866 0.039420016 0.0113033205 0.009885384 -0.02718597 -0.048967022 0.024324762 0.04731821 -0.016555704 -0.0057083834 -0.031981837 -0.052449238 -0.037729964 -0.030598875 0.036791813 -0.01756117 0.03224143 -0.001784189 0.05600645 0.003857845 -0.007126016 -0.021547195 -0.011073846 0.0067918138 -0.022777885 -0.048455592 0.049373776 -0.051574994 0.032556243 -0.025672054 0.028591184 -0.054237075 -0.008187249 0.025237892 -0.092354864 -0.021864513 -0.06592177 -0.023367781 -0.027551511 0.016884256 0.111284114 -0.059613142 -0.05867856 0.039480943 -0.0387838 0.060503207 0.0051667104 -0.012246384 -0.005716736 0.008508559 -0.015111393 0.094587035 -0.030448418 -0.04135987 0.0040133256 0.03725622 -0.01066121 0.0110389255 0.020501303 -0.06350391 0.023985017 -0.0030649437 0.0007956129 0.018680042 -0.015829785 -0.007958154 0.03565108 0.029791098 0.03702164 0.022573931 -0.019483922 0.0025796252 -0.061601594 -0.039766558 0.012546803 -0.039674014 0.04055181
1451 -0.0144960545 -0.07197131 -0.011232212 0.047257185 -0.007016216 0.022017809 -0.025313986 0.005628306 -0.055207584 -0.008804826 -0.004429359 0.009635802 -0.006290156 0.010652937 0.06325272 -0.046534654 0.01691824 -0.0051992945 -0.020853912 0.033261046 -0.004100367 -0.019001225 0.019914087 -0.0118076615 0.036616765 0.02441196 0.0629989 0.048629355 0.0006057529 0.014616423 -0.011868838 -0.0353243 -0.08619109 0.04218652 0.042789325 0.004006617 -0.046839323 0.004537673 0.0811079 -0.07001363 0.05929415 -0.03644424 0.0014297208 -0.023878496 0.029695155 0.009436096 0.012204269 -0.058454897 -0.04064292 0.05409222 0.016238905 0.004934006 0.029284466 0.012195968 0.02541319 -0.030342983 -0.05208309 0.03162825 0.07857381 -0.022742538 0.012245568 -0.031976458 -0.061353028 -0.05141616 -0.046858557 0.039238546 -0.013791651 0.04060078 0.010640917 0.06463253 0.004657033 6.5329764e-06 -0.022660747 -0.0010260491 -0.005250283 -0.023776028 -0.076029606 0.06220351 -0.07513643 0.054283116 -0.031033212 0.044184133 -0.06761399 -0.013346662 0.026712889 -0.12154112 -0.029472781 -0.085095435 -0.03667162 -0.03296871 0.042275764 0.1350977 -0.07527577 -0.06628926 0.048662387 -0.05339517 0.08052543 -0.004083726 -0.010444355 -0.006948443 0.014460226 -0.0034440097 0.13204841 -0.043125298 -0.070168 -0.0047817053 0.0553847 -0.029226268 0.01493251 0.038022943 -0.07444959 0.03544276 0.005411481 0.010423591 0.019510144 -0.027253322 -0.014532339 0.02842673 0.046107847 0.04171995 0.027565485 -0.03576134 0.0051064664 -0.0887891 -0.055215668 0.015175515 -0.054816432 0.044324677
162 -0.023366177 -0.06679382 -0.022618905 0.030416392 -0.012576824 0.0227083 -0.041703798 0.03819321 -0.05750137 -0.0062860074 -0.008329171 0.008217473 0.005288622 0.01700081 0.060726754 -0.029708007 0.025625415 -0.002635709 -0.017750058 0.013598411 0.008684427 -0.009702205 0.025821691 -0.005058161 0.037380412 0.038406327 0.057089474 0.06063132 -0.010111557 0.018722748 -0.021228766 -0.026083454 -0.085314415 0.053695157 0.044895258 0.027604394 -0.04505801 0.008954249 0.095993556 -0.07060022 0.080753356 -0.0087668635 0.005223155 -0.0132048465 0.024639228 0.033187527 0.014507211 -0.05923657 -0.035935067 0.06251762 0.028384157 0.008067871 0.035340607 0.020408731 0.02284931 -0.030040704 -0.07189136 0.030660732 0.0706632 -0.016869567 -0.010429733 -0.04372955 -0.06369424 -0.04586195 -0.045539055 0.051276367 -0.006827267 0.031480543 0.0070792884 0.07112247 0.008411481 -0.027298037 -0.026620198 -0.016335221 0.005842242 -0.027416535 -0.05374233 0.050455965 -0.070598714 0.04355051 -0.022872938 0.046912294 -0.062302116 -0.018916985 0.033216074 -0.12964645 -0.042860188 -0.06756572 -0.046057362 -0.050123118 0.015804848 0.15439817 -0.078868024 -0.07741424 0.05218972 -0.05594021 0.08631276 -0.0022775037 -0.009295111 -0.028355503 0.0073546935 -0.0073804883 0.13680393 -0.046704803 -0.048744973 -0.0028116757 0.051699843 -0.02730144 0.0041920915 0.030034697 -0.09044355 0.045091495 -0.0009829721 0.0098260725 0.030868458 -0.024126116 -0.008762619 0.043394383 0.046636 0.060712047 0.035454296 -0.038967866 0.0026099137 -0.08578069 -0.042225692 0.017955508 -0.06769773 0.042507555
881 -0.0015127735 -0.07668477 -0.009701618 0.056898188 0.0049602534 0.00059434003 -0.019318368 -0.027086882 -0.06259044 -0.008965988 -0.0139220245 0.0086691575 -0.03458444 0.0024594106 0.07202645 -0.05841303 0.012723502 -0.02432627 -0.039356064 0.063374706 -0.026360527 -0.028565258 0.0024471446 -0.027330182 0.04823634 0.014616901 0.07111938 0.047321554 0.00080540014 0.026880512 -0.010924887 -0.05324663 -0.10540554 0.042246487 0.04445372 1.667415e-05 -0.07462254 0.005006632 0.094689146 -0.09898553 0.0599163 -0.051884785 0.012923792 -0.02082483 0.02272269 -0.013052189 0.002779907 -0.082808934 -0.052752804 0.0672563 0.008671126 0.009593362 0.022748075 0.010029532 0.055977263 -0.026556717 -0.043012302 0.03624937 0.09065577 -0.054499824 0.049337905 -0.03246452 -0.065750524 -0.05736683 -0.044757977 0.02759604 -0.018615767 0.05815303 0.029715654 0.07086265 0.0059469417 0.016430851 0.0032880772 0.016732628 -0.020280866 -0.011326305 -0.1046766 0.08373625 -0.08242885 0.06797091 -0.04034555 0.050378945 -0.08942362 -0.031117806 0.043681804 -0.12502727 -0.010572456 -0.105533175 -0.05307215 -0.025953442 0.055629242 0.12837024 -0.08189484 -0.0783826 0.060854346 -0.06708456 0.1043684 -0.0010849521 -0.01563802 3.4660006e-06 0.00094180065 0.012104251 0.14874947 -0.048755478 -0.091518186 0.0026351698 0.068681896 -0.042863585 0.026124157 0.057524554 -0.08246487 0.034702808 0.004191909 0.031297963 0.0155552225 -0.030344885 -0.020997295 0.0037174153 0.04965547 0.025136676 0.025131512 -0.036022726 0.015906792 -0.10528065 -0.050141532 0.02461966 -0.06715935 0.04357951
1184 -0.008017227 -0.12874912 0.0013635507 0.09629495 -0.005628693 0.0037730993 -0.01980382 -0.046911225 -0.08002752 -0.018960282 0.0006193423 0.02520984 -0.0256695 0.0072964784 0.09006897 -0.10755741 0.030167239 -0.0326587 -0.033451766 0.06577012 -0.025322 -0.04108289 0.024833245 -0.03394425 0.0640153 0.02096572 0.10615426 0.048416514 0.0069679413 0.02010439 -0.016873885 -0.07167623 -0.1399919 0.048170723 0.066770986 -0.0026336862 -0.082235515 0.019058188 0.107033424 -0.11496653 0.06381844 -0.0865235 0.003859817 -0.043599777 0.030569233 -0.016787782 0.01839141 -0.0878036 -0.055745173 0.077251084 0.004608651 0.009748882 0.03945139 0.01863346 0.06694741 -0.038082246 -0.04931493 0.04495473 0.12849343 -0.052591722 0.050554674 -0.036986623 -0.098465525 -0.08708718 -0.05476207 0.019402448 -0.023826113 0.083034895 0.0290052 0.09295763 0.018848557 0.02052287 -0.029072037 0.012249549 -0.028267523 -0.03355828 -0.14905387 0.11820874 -0.11937452 0.08908106 -0.061249737 0.081946425 -0.11532974 -0.03542256 0.060421456 -0.18624312 -0.017284164 -0.15235884 -0.05659647 -0.034488633 0.07372253 0.18234871 -0.10350823 -0.0993039 0.08831424 -0.10099399 0.12545472 0.0028618379 -0.027089672 0.016173571 0.0130937835 0.020537768 0.19439352 -0.062826715 -0.12427173 0.006179157 0.091441505 -0.041091498 0.03287129 0.07464345 -0.11348043 0.030154444 0.0059469254 0.039986722 0.03433924 -0.043303143 -0.04025054 0.013119693 0.07027308 0.02107209 0.038226012 -0.055685658 0.023049759 -0.13819587 -0.0864158 0.033110153 -0.07652201 0.076762475
1770 -0.009935514 -0.073045366 -0.0063488972 0.04581723 -0.00896961 0.011942258 -0.02139859 -0.0060088895 -0.044992086 -0.012790726 0.006063176 0.020370334 -0.01126624 0.012387845 0.057954643 -0.05680079 0.014137003 -0.014922449 -0.01507583 0.046928633 -0.011324506 -0.0117778415 0.014863743 -0.018095938 0.03772595 0.018268151 0.06223636 0.03148108 -0.0013958428 0.016134242 -0.013726088 -0.032604925 -0.07427303 0.03731236 0.04157668 0.0004729626 -0.048864868 0.0057763304 0.075942315 -0.070174515 0.046628382 -0.03562374 -0.0013590534 -0.025693478 0.022483056 -0.0001590139 0.011716417 -0.055684417 -0.035722084 0.045703817 0.0139812175 0.0072764405 0.03114123 0.015790163 0.029930748 -0.023918455 -0.0482447 0.02500836 0.07551359 -0.028505465 0.016350405 -0.0290433 -0.05633154 -0.05236578 -0.038016535 0.025932206 -0.016391085 0.044631947 0.014970801 0.051314 0.008661936 0.0016416409 -0.019898685 -0.0006683423 -0.008365886 -0.028930023 -0.08222098 0.064301394 -0.072496794 0.046096448 -0.035041604 0.04511399 -0.06512517 -0.019771451 0.037953228 -0.10303031 -0.023747087 -0.08779465 -0.03313585 -0.025278803 0.038767677 0.120951064 -0.06734976 -0.05408154 0.052002363 -0.054125097 0.07634578 0.0020998414 -0.017745612 0.0020587246 0.00782445 0.003243361 0.11562477 -0.03760186 -0.069875084 0.002679667 0.04560605 -0.028584713 0.016439404 0.03868026 -0.077806756 0.025991531 0.0045826817 0.017658819 0.019653706 -0.027447091 -0.019899145 0.02474255 0.045261595 0.0221802 0.034074113 -0.02832922 0.005323652 -0.083231226 -0.05004168 0.009650555 -0.04835727 0.041154362
46 -0.010672664 -0.03536629 0.005840503 0.019487597 0.01442138 0.011284735 -0.019385485 0.0026482937 -0.03682927 -0.0023075365 0.0014206545 0.01300388 -0.025787046 0.0039513037 0.055098973 -0.03446087 0.0019911905 0.0006435335 -0.02386727 0.06292226 -0.014721369 -0.009101191 0.004567126 -0.011005142 0.039446868 0.020290297 0.030446254 0.01896671 0.00055558176 0.025114354 -0.016000625 -0.03538884 -0.057749227 0.02262877 0.014277333 0.005561497 -0.05917315 0.0058723115 0.056542322 -0.045391236 0.04272891 -0.015592515 -0.005695341 -0.005766263 0.022189211 0.01431434 -0.0030618003 -0.055120077 -0.029664962 0.02983964 0.007223685 -0.001464748 -0.005191945 0.0066044065 0.024271276 -0.022072721 -0.022684187 0.029425537 0.053642713 -0.025256308 0.016583284 -0.020793628 -0.013143745 -0.04681612 -0.048196428 0.01561535 -0.0053404015 0.0367874 0.020789579 0.035436347 0.007601733 0.008261579 0.016486669 0.0063692606 -0.016795835 -0.007909507 -0.054927338 0.03877203 -0.05316342 0.052874863 -0.0016364414 0.02955656 -0.041602757 -0.011760424 0.005085121 -0.08148887 -0.009927194 -0.0537771 -0.033331804 -0.005782742 0.035829578 0.07104114 -0.064731106 -0.019637939 0.04656901 -0.016355546 0.066319086 -0.017530339 -0.0020343405 0.0006386562 0.006903747 -0.0029827487 0.06566327 -0.043947708 -0.06114579 -0.0014918331 0.04483153 -0.03427214 0.014374626 0.04022432 -0.03769296 0.038799863 0.006284646 0.010663437 -0.0043027974 -0.021818455 -0.017847909 0.013920678 0.034764964 0.02041943 0.025949214 -0.035652854 0.006447837 -0.07802847 -0.034045972 0.005334501 -0.04876568 0.021334577
411 -0.0054095867 -0.09100925 0.011897812 0.06737928 0.008149668 0.00929361 -0.01646396 -0.01674592 -0.0687258 -0.0068404167 0.003132052 0.026136406 -0.016698347 0.008195318 0.08447779 -0.08447922 0.025190089 -0.019362109 -0.020042768 0.07445417 -0.02539311 -0.022032678 0.014285354 -0.020203339 0.058525525 0.031701393 0.07848918 0.03322723 -0.004082134 0.028439736 -0.014735209 -0.052036293 -0.100010864 0.038442183 0.046685148 -0.0061935545 -0.08056486 -0.0028016379 0.07655947 -0.073221914 0.056489892 -0.04819598 -0.0064759636 -0.025850791 0.0406621 -0.008978465 0.0027855 -0.07346892 -0.046147082 0.0539279 0.00034860373 0.0012522907 0.025464475 0.016338963 0.0385244 -0.030620946 -0.047834195 0.039722633 0.10266327 -0.040652547 0.027680235 -0.027585747 -0.05499042 -0.07524666 -0.062775455 0.03273515 -0.024578836 0.069143325 0.019610884 0.07223744 0.010630994 0.01668547 -0.016071884 0.00085962814 -0.019124271 -0.035361424 -0.11367684 0.08391326 -0.09374331 0.076112695 -0.031968303 0.06177159 -0.0726302 -0.02155134 0.04363058 -0.14240049 -0.024261095 -0.11531859 -0.04527132 -0.011276337 0.06605384 0.14620642 -0.08002685 -0.0565672 0.06934937 -0.057736296 0.10111867 -0.0028587491 -0.016680583 0.0036671525 0.008130391 0.0048156944 0.13026382 -0.06342769 -0.10498034 -0.0023534521 0.06838606 -0.038823955 0.019240553 0.060126714 -0.08662668 0.033946414 0.0125923185 0.0274812 0.011185867 -0.049157 -0.037780326 0.025901737 0.04995473 0.024251038 0.041258022 -0.04266264 0.015796 -0.120669335 -0.07567077 0.015817404 -0.06075392 0.042732958
519 -0.019091835 -0.0530076 -0.011348371 0.037103496 -0.0020567307 0.015046833 -0.024011713 0.0077216807 -0.049785193 -0.0071271188 -0.010147039 0.0029367558 -0.003625351 0.0013596306 0.053141214 -0.027106844 0.01167975 -0.0037136516 -0.01522631 0.030020323 -0.008443266 -0.013823196 0.018740013 -0.0073616966 0.032417625 0.023816 0.048758157 0.044867516 2.0875852e-05 0.014501564 -0.015525748 -0.032879926 -0.07032731 0.036156055 0.033465877 0.004223953 -0.040443916 0.008262893 0.068656676 -0.06397391 0.0549386 -0.020052442 0.0035615037 -0.013233432 0.01674361 0.01471858 0.0070086853 -0.04194404 -0.03261677 0.03833424 0.01741347 0.009443783 0.015972598 0.011005706 0.025570784 -0.027422251 -0.042165987 0.022980202 0.0545103 -0.02092879 0.008409637 -0.02385522 -0.050313666 -0.037967715 -0.03495994 0.03263495 -0.015932653 0.031247323 0.013321508 0.05672151 0.0012327578 -0.0028709595 -0.013221474 -0.0076750806 -0.006525649 -0.01173035 -0.056360073 0.04610483 -0.058099937 0.04398914 -0.02828517 0.037496608 -0.05530118 -0.018252907 0.021150002 -0.09648285 -0.023341857 -0.061531268 -0.03350586 -0.029285533 0.024839533 0.10059536 -0.06774359 -0.05694351 0.049903005 -0.041968677 0.07094744 -0.006343432 -0.007225988 -0.0057425317 0.00867938 -0.0042210817 0.109732226 -0.03179622 -0.052373625 -0.004181128 0.047389004 -0.020813556 0.0073247263 0.02540486 -0.06381507 0.025891902 -0.00012353425 0.005693355 0.019943241 -0.020647442 -0.013142726 0.021556307 0.032157138 0.03106355 0.02013528 -0.02778063 0.0035230757 -0.0763156 -0.027951142 0.016211828 -0.047394764 0.037276402
453 0.0025008237 -0.060690008 -0.013320923 0.04608445 -0.011813889 -0.00595694 -0.0073075853 -0.017710429 -0.054470964 -0.005414051 -0.013879926 0.008411873 -0.026027916 -0.008373038 0.045060504 -0.055755433 0.023097275 -0.019648569 -0.03360803 0.036979865 -0.013201617 -0.011204974 0.010603295 -0.026537992 0.040449157 0.0077530337 0.05680991 0.02443029 0.006355 0.011952008 -0.0003631997 -0.043082066 -0.08685643 0.018280718 0.03729263 -0.0019308395 -0.04653512 0.018021919 0.057059865 -0.06530783 0.029467778 -0.0458756 0.010398153 -0.02856556 0.014220073 -0.011078179 0.00092062517 -0.052042905 -0.030534124 0.04442238 -0.00028085342 0.009197018 0.012281234 0.009468347 0.05093572 -0.015012903 -0.023982031 0.022117613 0.0624305 -0.023516357 0.033817023 -0.024520125 -0.05758924 -0.048860688 -0.016833777 0.011149937 -0.012038511 0.038368233 0.02070669 0.05717071 0.006171585 0.008882022 -0.010561204 0.0128045585 -0.020555008 -0.014052722 -0.08124466 0.06146442 -0.06717194 0.0437633 -0.04342793 0.04072526 -0.062013242 -0.01309798 0.04263633 -0.10491762 -0.010300925 -0.070355654 -0.037698895 -0.01654807 0.034063738 0.089034885 -0.052987553 -0.058432084 0.03904981 -0.056637768 0.07189848 0.004380077 -0.012415574 0.002450004 -0.004952914 0.02068419 0.10790105 -0.04072817 -0.06659401 0.004702128 0.05139773 -0.023855451 0.019678822 0.03980086 -0.054786153 0.02477112 0.0035379936 0.016468091 0.016593067 -0.01748799 -0.017335365 0.0073706084 0.036482982 -0.00065903756 0.012252033 -0.027566679 0.0156696 -0.0668748 -0.044834998 0.022337714 -0.04395131 0.04026536
1196 -0.0008627613 -0.017265446 -0.0016071608 0.017561672 0.004027265 0.010755725 -0.014106463 5.8101163e-05 -0.02254366 -0.0040686624 -0.009739483 0.0018443456 -0.012073562 -0.00043594412 0.024210105 -0.008681182 0.0055502513 0.0010182551 -0.0070794765 0.023995869 -0.008801497 -0.011285515 0.0055876905 -0.008317686 0.020931404 0.0071276315 0.014720669 0.019667516 -0.0031189865 0.009484021 -0.01010841 -0.019878753 -0.03825047 0.0126285 0.013896768 0.004624688 -0.023297999 0.0026736523 0.042189106 -0.033553127 0.025907628 -0.015721964 0.00791531 -0.0046778964 0.009346499 0.0069097118 0.0022494076 -0.027119009 -0.015512333 0.014293524 0.009431599 0.0022994957 0.0058573224 0.0009769946 0.012595139 -0.011260494 -0.020733751 0.012377396 0.030357778 -0.019595824 0.012206252 -0.016743535 -0.024375148 -0.021799406 -0.024543833 0.017779576 -0.0037338987 0.014950519 0.017930232 0.01942607 0.007916973 -0.001127646 0.0066250185 -0.0047302316 -0.009625465 0.00014285193 -0.031585626 0.024761168 -0.024814636 0.019611316 -0.008610553 0.012372699 -0.032720592 -0.012261856 0.006130045 -0.039365225 -0.012614995 -0.02940906 -0.01897674 -0.013367576 0.013165487 0.046950426 -0.031409957 -0.030072955 0.02779211 -0.023811247 0.037697684 -0.010801943 -0.0008887728 -0.00070200325 0.0023875807 0.0022485922 0.054789588 -0.016077446 -0.03344578 -0.004305453 0.023795472 -0.009495087 0.0050182794 0.013785491 -0.024737284 0.011600203 -0.0011786453 0.0043116314 0.0059465556 -0.009494864 -0.0011554516 0.005400694 0.020181373 0.022370772 0.014738106 -0.011648896 -0.004352986 -0.042168807 -0.0063232924 0.005889676 -0.025712058 0.011166954
1828 -0.028904378 -0.11031714 -0.024027847 0.05962372 -0.022000806 0.035600632 -0.047101323 0.02819856 -0.092618495 -0.016899329 0.005406187 0.019769004 -0.018588126 0.027544016 0.112432145 -0.076215535 0.027574943 -0.010625975 -0.03440696 0.057599265 0.0056992555 -0.015754038 0.025856635 -0.012710745 0.070053264 0.05109812 0.09691975 0.085528485 -0.0015656115 0.031972304 -0.036241584 -0.051585652 -0.13375492 0.083870925 0.07445596 0.023980374 -0.08139351 0.010098271 0.15004203 -0.12501243 0.11389583 -0.043012116 0.0013571052 -0.029419703 0.035830747 0.021466026 0.016109992 -0.099049956 -0.064795576 0.08736559 0.04042395 0.009889114 0.052467003 0.023941504 0.036961135 -0.05072211 -0.10215846 0.056016617 0.121424384 -0.040382896 0.013457766 -0.052629396 -0.102033556 -0.08248059 -0.06813933 0.07192213 -0.03256744 0.057445724 0.020422176 0.1144019 0.010743379 -0.013048745 -0.026464097 -0.028574362 0.0020345731 -0.036213405 -0.107943356 0.09429502 -0.12525342 0.07490188 -0.05176073 0.079989895 -0.12035468 -0.03451129 0.06021979 -0.19724934 -0.05702018 -0.13824672 -0.0715332 -0.05523619 0.04518946 0.22992146 -0.14003648 -0.11461139 0.08649599 -0.096557274 0.14694485 -0.008879872 -0.025799824 -0.017288435 0.013050993 -0.0068134125 0.21344501 -0.07238364 -0.106105596 -0.0074832696 0.08182732 -0.05395345 0.012152771 0.06206844 -0.1410252 0.06418301 -0.0013091987 0.022508463 0.040338814 -0.043093424 -0.024922956 0.061211895 0.0811562 0.08555051 0.05025094 -0.04385646 0.0058514844 -0.16167162 -0.069784425 0.018076744 -0.10816697 0.07439814
549 -0.019138953 -0.044453837 -0.0065946146 0.026128583 -0.0040032007 0.023093244 -0.027282177 0.020841409 -0.0437812 -0.0064525306 -0.0020485527 0.009480729 -0.013240309 0.018397275 0.057686366 -0.023965845 0.0046044695 0.00060643046 -0.016449926 0.039006688 0.001990308 -0.0027106218 0.012784585 -0.0034134784 0.032330863 0.02808479 0.03738933 0.040940132 -0.008660061 0.019610861 -0.020270888 -0.02290521 -0.062367886 0.039178707 0.029098148 0.009525746 -0.04479294 -0.005156944 0.068549514 -0.05322454 0.05576529 -0.008565545 0.0022515839 -0.008648102 0.015962983 0.020296667 0.0015611445 -0.04941362 -0.028773153 0.03723196 0.02523507 0.0055540767 0.012516648 0.00068822835 0.016522648 -0.026579957 -0.047484852 0.01968847 0.053483978 -0.016400453 0.008131871 -0.02736004 -0.03734987 -0.04205035 -0.043568626 0.030741058 -0.010006609 0.026991628 0.010831582 0.04802235 0.0029897944 -0.0006696012 -0.0034348285 -0.008002076 -0.006268948 -0.011346737 -0.047836825 0.040376555 -0.05335977 0.042165995 -0.017622156 0.032938767 -0.051676665 -0.007882215 0.02428967 -0.07839292 -0.026590372 -0.060178682 -0.03299353 -0.019100606 0.024767851 0.09731907 -0.06373721 -0.04611043 0.044106618 -0.03968732 0.06983331 -0.009672727 -0.006778035 -0.013642779 0.005332712 -0.0092936475 0.09048463 -0.03365513 -0.046348788 0.0015885724 0.048750807 -0.02797696 0.010627343 0.021539507 -0.058174565 0.034407586 0.0023762106 0.0035231118 0.0145823015 -0.023455756 -0.011565264 0.029149815 0.039651386 0.041077804 0.022061491 -0.021508904 -0.0029161372 -0.07760549 -0.030826876 0.009558063 -0.049057536 0.019501932
1372 -0.005057851 -0.08177971 -0.01681604 0.037900377 -0.021760441 0.00969561 -0.023322413 -0.0027124875 -0.05061878 -0.0050296197 -0.00277327 0.007118807 -0.019220674 0.0048888703 0.059762247 -0.051439054 0.020033026 -0.023774613 -0.024917582 0.025859216 -0.007497337 -0.0181217 0.01995062 -0.010846765 0.04040382 0.021823559 0.060517374 0.04750814 -0.003714028 0.02007922 -0.016789515 -0.033734523 -0.08584016 0.051455937 0.052618258 0.018564355 -0.040208023 0.022807471 0.08808137 -0.075606085 0.049218755 -0.03328427 0.0023428947 -0.013606772 0.019972896 0.0059013483 0.013582995 -0.057291847 -0.037245058 0.052881446 0.0122383395 0.006893935 0.036323912 0.030240322 0.030823179 -0.025625855 -0.0494783 0.031474903 0.06491148 -0.031433273 0.013924378 -0.038996786 -0.06670618 -0.044854954 -0.037069842 0.040065438 -0.01233849 0.03425459 0.007942457 0.076228246 0.016292872 -0.006447317 -0.015898256 -0.0018071829 -0.006020234 -0.015921226 -0.0707518 0.05956859 -0.07329365 0.04662595 -0.03929767 0.046116654 -0.061017808 -0.028711211 0.03341649 -0.120181225 -0.02207233 -0.07043129 -0.033715215 -0.039768703 0.035095237 0.1260272 -0.07047309 -0.077147074 0.045358203 -0.06357374 0.0926327 0.0037879066 -0.014003069 0.0010970938 0.0073880907 0.0031370139 0.13016675 -0.039496522 -0.069374435 0.001317347 0.04078526 -0.01675195 0.0100522265 0.041389134 -0.08069432 0.028836586 0.0035502326 0.01923908 0.021544503 -0.023150375 -0.016520577 0.038034122 0.042282417 0.03315323 0.023843419 -0.03494403 0.016775494 -0.07685238 -0.04427685 0.02043412 -0.057655383 0.05043567
1466 -0.018998805 -0.07565906 -0.013966159 0.04330641 -0.014987709 0.025343481 -0.022764083 -0.001717918 -0.06540584 -0.015589871 -0.007786487 0.0022517163 -0.0089150695 0.015727175 0.06005568 -0.038877822 0.017641947 0.0043878877 -0.022675853 0.03325486 -0.0066576675 -0.025867656 0.018112132 -0.008059893 0.031713173 0.028871112 0.067832984 0.06355107 0.005211991 0.024332285 -0.016540345 -0.04487809 -0.09093158 0.055878244 0.044309698 0.014674316 -0.0469814 0.0029472345 0.11164002 -0.08711859 0.0628109 -0.04028871 0.0018452662 -0.025916748 0.018543674 0.011689308 0.019604707 -0.06532459 -0.03525383 0.0568233 0.02343796 0.007788276 0.040404722 -0.0032826613 0.03026946 -0.026662862 -0.058992308 0.02925187 0.06915989 -0.036038663 0.011653592 -0.03327796 -0.07141902 -0.04273058 -0.0485868 0.042460784 -0.015670065 0.03684212 0.017694052 0.07026531 0.0063411715 0.00173647 -0.014541393 -0.003958117 -0.0015892774 -0.01932489 -0.06717906 0.06432773 -0.08176266 0.0546699 -0.030529922 0.0489861 -0.085109234 -0.024463376 0.036981244 -0.1244956 -0.020991322 -0.09089934 -0.04311024 -0.04330394 0.032991663 0.14031464 -0.09049765 -0.077040575 0.05145802 -0.0630218 0.09488414 -0.0036568358 -0.013103666 -0.0107335 0.008543228 -0.0068405536 0.15204693 -0.028244572 -0.07665342 0.004407864 0.053870395 -0.025014885 0.014891891 0.03884191 -0.08085389 0.035205904 -0.003768002 0.01971075 0.030408869 -0.020517923 -0.0105039 0.0321127 0.050071143 0.052276306 0.032811217 -0.03417392 0.007102766 -0.1032086 -0.042237896 0.018469349 -0.06400868 0.048968527
1333 -0.0093783615 -0.054722592 -0.01575031 0.022018244 -0.021970168 0.020238668 -0.027508741 0.007966193 -0.045126446 -0.017321434 -0.0036500832 0.005737755 -0.012391353 0.016330214 0.05061089 -0.04218822 0.015955927 -0.009020342 -0.012849897 0.021468537 0.007386701 -0.008987782 0.004571259 -0.0016635178 0.023039598 0.031442378 0.053621534 0.049937125 -0.012276159 0.018444184 -0.02006824 -0.019000534 -0.06547134 0.039773468 0.036917377 0.015260623 -0.045846496 -0.0005070757 0.07983609 -0.06713389 0.056385506 -0.018097574 0.007877791 -0.015126907 0.010015852 0.013903859 0.015237004 -0.05583304 -0.028818578 0.04852739 0.026475815 0.008420255 0.03462213 0.0033075674 0.018511396 -0.019900503 -0.051860098 0.030465722 0.054593362 -0.023605661 -0.00014667204 -0.029046407 -0.05653333 -0.03250479 -0.035788633 0.036134534 -0.011238015 0.03138153 0.010659267 0.050881602 0.0047147796 -0.008806023 -0.017648712 -0.0072237984 0.012613878 -0.01263302 -0.049530275 0.044884767 -0.05547036 0.034214273 -0.03247308 0.04112987 -0.060454957 -0.020506438 0.038885165 -0.08939066 -0.020407261 -0.063311584 -0.03621369 -0.035618715 0.02467395 0.117065646 -0.06204088 -0.06056733 0.0381554 -0.053770483 0.07694644 0.0036671276 -0.015332671 -0.007716494 0.0076560057 -0.0027195984 0.10716272 -0.029320886 -0.04353656 0.0009880499 0.03837069 -0.017426522 0.013180252 0.031743966 -0.07443945 0.02419889 -0.0021279263 0.015177324 0.028777428 -0.022688806 -0.0046549407 0.03206354 0.038013604 0.042563073 0.030453566 -0.019665886 -0.0016192258 -0.07356303 -0.03274034 0.002475642 -0.0505026 0.03515524
92 -0.025976367 -0.13781695 -0.011072632 0.08835315 -0.0069366726 0.020733627 -0.045760173 -0.007482207 -0.09747116 -0.012281032 0.00082716375 0.027158152 -0.018235274 0.0186919 0.114965 -0.0959146 0.029696416 -0.011417185 -0.029138753 0.08983938 -0.018600192 -0.028784217 0.029460043 -0.02909842 0.068503626 0.046553254 0.110345185 0.08024646 -0.0030463128 0.04704472 -0.028363233 -0.073048495 -0.16070063 0.07485728 0.07116134 0.01500858 -0.0995649 0.01546136 0.14989138 -0.121070065 0.10520312 -0.06709194 -0.0025072708 -0.043463536 0.049807083 0.008703354 0.009175905 -0.10727041 -0.07582539 0.091608904 0.02713713 0.0028569214 0.044695422 0.011400506 0.061546665 -0.05070082 -0.08535543 0.058552593 0.14349294 -0.050655913 0.028075293 -0.053461343 -0.0989337 -0.09861547 -0.08171464 0.060070485 -0.030179674 0.082977325 0.030614747 0.10714543 0.010064362 0.00075261516 -0.022079 0.004398938 -0.01689397 -0.048806656 -0.14279415 0.11882546 -0.13549937 0.09788981 -0.044545177 0.08659855 -0.12411598 -0.029079692 0.050618414 -0.23022807 -0.045491733 -0.16273792 -0.0764579 -0.044250906 0.07094975 0.23427159 -0.14167257 -0.111059 0.09958403 -0.084855616 0.14802043 -0.010965984 -0.026771186 -0.008992376 0.025410801 -0.007409202 0.22636195 -0.07988006 -0.13261448 0.00663161 0.09896267 -0.05090452 0.02909373 0.08399513 -0.13662536 0.06272611 0.003781932 0.03182573 0.026221279 -0.05429045 -0.03127426 0.044048272 0.07521848 0.070610866 0.06733466 -0.07626771 0.018476086 -0.17734268 -0.09765181 0.017303526 -0.10330556 0.07776543
1796 -0.0066270065 -0.04617651 -0.0024948448 0.034598272 0.013699163 0.015349283 -0.011161154 -0.0013788423 -0.04833686 0.0067349067 0.0044384003 0.010570234 -0.022581708 0.0038672076 0.05212377 -0.05004219 0.0091918055 -0.0029024128 -0.023359748 0.061070696 -0.017655397 -0.0056745745 0.007606464 -0.010815291 0.039676435 0.025395153 0.045237955 0.03271816 0.006787396 0.030907515 -0.013567409 -0.039544124 -0.075519636 0.030350452 0.031618346 0.00021968475 -0.06055922 0.015671851 0.065631986 -0.048774906 0.05513231 -0.027929535 -0.004105792 -0.017092548 0.033574503 0.012671038 0.00067670393 -0.06000405 -0.02795311 0.054981384 -0.0013233847 -0.008010662 0.011963067 0.004360512 0.034736 -0.017061438 -0.03126696 0.036496166 0.06985333 -0.025540115 0.014437091 -0.029317433 -0.04133518 -0.058688648 -0.044717133 0.034824245 -0.00920779 0.04491769 0.01562128 0.04455878 0.0017537344 0.0033620629 0.0052752965 0.005188351 -0.019021956 -0.024536895 -0.069131345 0.052883174 -0.06866644 0.06836124 -0.006479279 0.03569166 -0.055830736 -0.016773874 0.017866587 -0.11321221 -0.012025867 -0.066575974 -0.045337413 -0.0115139745 0.035653524 0.108409055 -0.06578054 -0.035795633 0.051606882 -0.03873721 0.07241669 -0.007472099 -0.009216342 -0.013551893 0.0013421072 -0.007943899 0.09107869 -0.049050964 -0.06394106 0.006182859 0.054753307 -0.033219926 0.01984597 0.04625133 -0.05704058 0.033104792 0.002526201 0.013647808 -0.005051634 -0.0254712 -0.02421011 0.013879208 0.0348591 0.02332774 0.031987734 -0.03861203 0.007813255 -0.08139326 -0.050732724 0.00878275 -0.05743319 0.033056397
1632 -0.008469524 -0.07065616 -0.011679968 0.044376504 -0.010575047 0.014991642 -0.02613322 -0.0011622465 -0.045560457 -0.007410133 0.006855548 0.010462742 -0.009394804 0.014181435 0.058261678 -0.056248423 0.0196012 -0.0043109152 -0.011477162 0.03610672 -0.0069989767 -0.01608611 0.012215073 -0.016676234 0.034120698 0.028572258 0.064312495 0.037581615 -5.8786176e-05 0.022093875 -0.017706957 -0.0351544 -0.07913166 0.043999102 0.03700236 0.007830129 -0.046722334 0.009265723 0.07729537 -0.06693889 0.052430976 -0.037290752 -0.003083086 -0.023123434 0.022618866 0.001707663 0.01618336 -0.061529618 -0.038203716 0.048476838 0.016316468 0.0072647324 0.031868644 0.014993377 0.032083023 -0.030711109 -0.048373636 0.032694343 0.072254084 -0.023177527 0.00815591 -0.023535764 -0.059049454 -0.052050438 -0.039116967 0.025953626 -0.010652746 0.042672127 0.009519286 0.059987467 -0.0007020432 0.0012993925 -0.020874478 -0.0039284686 0.0013677678 -0.026784299 -0.07959636 0.060728863 -0.071853 0.046902142 -0.03427871 0.0453062 -0.061003245 -0.014451392 0.03330441 -0.11797559 -0.021781087 -0.08126702 -0.032436773 -0.027535334 0.036565572 0.12548777 -0.07189237 -0.060448095 0.0481419 -0.05453609 0.080223665 -0.0016373739 -0.018662166 -0.0030560535 0.012899851 -0.0029060359 0.12505814 -0.03620293 -0.071982145 0.004229468 0.051422123 -0.02498054 0.012705461 0.040704098 -0.079865165 0.02624678 -0.0031950606 0.016712783 0.018408548 -0.031226128 -0.0134571865 0.026810098 0.040684897 0.032954052 0.03724431 -0.03536501 0.005514415 -0.08388071 -0.045143075 0.016647631 -0.04888044 0.04219492
183 0.0032101145 -0.10331444 0.0045278105 0.07650107 0.01759283 0.007647394 -0.020371582 -0.035827897 -0.07531993 -0.004510704 -0.002587853 0.023884239 -0.0353834 0.0005330772 0.09082959 -0.080537036 0.021121182 -0.021457635 -0.03713161 0.0960739 -0.032124788 -0.026569253 0.01440024 -0.033920612 0.06246729 0.023086742 0.079635985 0.042490322 0.008885083 0.03334128 -0.007916959 -0.0771946 -0.12470354 0.03836551 0.045505464 -0.008203632 -0.096332565 0.005291473 0.09932919 -0.103887156 0.059926823 -0.069962874 -0.00014055749 -0.032106362 0.04129403 -0.0068258047 -0.0014133381 -0.09166758 -0.06399983 0.06991743 0.008140443 0.0019528838 0.009941363 0.0069411313 0.066421464 -0.041420564 -0.04749108 0.044262107 0.11430122 -0.05042125 0.0556842 -0.03500108 -0.063505396 -0.08541389 -0.06542609 0.020172635 -0.01775989 0.08124111 0.04612358 0.077962734 0.015819166 0.025547905 0.0020038188 0.01677814 -0.02732562 -0.03063578 -0.13959669 0.09423527 -0.105259314 0.09132539 -0.040069483 0.06695764 -0.10000883 -0.024347624 0.044409394 -0.16451825 -0.014028265 -0.1279078 -0.056584645 -0.015540482 0.0799778 0.15072611 -0.10085756 -0.06586012 0.090298004 -0.07704096 0.11483573 -0.01616846 -0.01679871 0.011574777 0.007303835 0.01920306 0.1668469 -0.067288555 -0.1283885 0.009811334 0.08364951 -0.055625614 0.030521147 0.079543926 -0.08855881 0.040692534 0.0054601887 0.036156546 0.013305793 -0.050490092 -0.036161203 0.006942226 0.064426295 0.0234014 0.04582364 -0.05625968 0.018313734 -0.14391471 -0.072436325 0.022347685 -0.079817876 0.05427966
936 -0.01301826 -0.09692178 -0.0013380602 0.070041806 0.0020794054 0.013814281 -0.015908075 -0.032389127 -0.060988724 -0.012831049 0.0014339234 0.019063119 -0.020800814 0.00034232996 0.076675735 -0.07735093 0.024871929 -0.01949303 -0.028510539 0.06926961 -0.02991508 -0.020775774 0.017776068 -0.027277691 0.046819836 0.025620464 0.082046255 0.03136401 0.0037356054 0.016867952 -0.0147396065 -0.05904636 -0.104623884 0.04405807 0.04705722 -0.011084134 -0.06901953 0.013527375 0.0893833 -0.08345181 0.053709228 -0.060357187 -0.004943466 -0.033632353 0.034259543 -0.012694435 0.006737444 -0.07032411 -0.050500803 0.06650898 -9.528309e-05 0.004680709 0.02774338 0.012386901 0.057263628 -0.033961743 -0.049916696 0.031520233 0.0993801 -0.037845843 0.028161768 -0.025203248 -0.07283436 -0.07302926 -0.049757637 0.021279087 -0.02154761 0.07296858 0.025147567 0.06658542 0.0026471035 0.018880934 -0.020396598 0.007135901 -0.02003674 -0.032885343 -0.120934 0.08646491 -0.0916243 0.07360749 -0.04612104 0.060950648 -0.08667229 -0.019130554 0.04246947 -0.15005955 -0.015460628 -0.11866981 -0.041676562 -0.022191217 0.05437306 0.13921803 -0.0865194 -0.075763635 0.07318092 -0.066804454 0.097623125 -2.6911519e-05 -0.021404505 0.0042586266 0.018211547 0.01072376 0.14569983 -0.054500695 -0.09717706 0.0030479953 0.072833546 -0.042428892 0.018593308 0.056289747 -0.08558698 0.03887317 0.0016908953 0.0207594 0.018334575 -0.038754027 -0.030195706 0.011152809 0.052180696 0.022254452 0.032598373 -0.04813515 0.014802939 -0.12115347 -0.06610882 0.029690884 -0.06104583 0.055181254
410 -0.007456161 -0.08856246 -0.009126393 0.053826086 -0.0021453034 0.013731557 -0.027449694 -0.011736044 -0.07516009 -0.0077999122 -0.00053754327 0.029061494 -0.02473604 0.015519109 0.100660175 -0.079979576 0.022789799 -0.025532952 -0.028887486 0.078077495 -0.010324146 -0.011876617 0.010842392 -0.025127124 0.05452411 0.031760927 0.0830028 0.047399826 -0.014321774 0.030162686 -0.026735427 -0.058894116 -0.115320675 0.038066596 0.045358624 0.0072155776 -0.089454524 -0.00087310874 0.103329875 -0.09322265 0.07344402 -0.045109782 0.003136198 -0.02791139 0.027806714 0.0069375457 -0.0031391773 -0.08015479 -0.056428574 0.06954508 0.022191491 0.0045562177 0.030104958 0.01454367 0.035196587 -0.03639385 -0.05611321 0.041257765 0.10777538 -0.050083816 0.035596076 -0.04224784 -0.08033294 -0.0751845 -0.062949084 0.03713566 -0.020168321 0.06280759 0.030190742 0.07381391 0.006765604 0.0017942517 -0.015003717 -0.004463986 -0.010631134 -0.028594304 -0.11141668 0.087124735 -0.10816099 0.07156827 -0.040730596 0.060098782 -0.08909455 -0.024950167 0.05579085 -0.1440454 -0.027242955 -0.11926393 -0.068734504 -0.025738545 0.062237456 0.1686549 -0.09753762 -0.073541045 0.07428428 -0.0718991 0.12494885 -0.008348095 -0.016698716 -0.0074800015 0.0015636204 0.014230309 0.15900648 -0.063280426 -0.10624745 -0.001587946 0.0799977 -0.04917115 0.016868476 0.0650902 -0.10468717 0.04066859 0.011694437 0.02971197 0.017075326 -0.04542019 -0.035686564 0.043152023 0.07492772 0.034863707 0.050353546 -0.040707074 0.002866924 -0.13581039 -0.067727506 0.014047922 -0.07512758 0.04014567
1727 -0.029050138 -0.11517575 -0.028591955 0.06446759 -0.019925417 0.036087256 -0.030061256 0.011223851 -0.08914844 -0.0175448 -0.0027016841 0.015933042 -0.013077477 0.018123282 0.10403963 -0.06821663 0.030030003 -0.0051273974 -0.028243287 0.050877877 -0.0041592913 -0.028846646 0.0394604 -0.02209252 0.054087576 0.04759788 0.09872527 0.08349565 0.004656594 0.025777925 -0.027401647 -0.062249504 -0.13182731 0.07780509 0.074305154 0.019946977 -0.0759195 0.011867616 0.14688273 -0.11856614 0.09887869 -0.05365324 -0.003430002 -0.030967975 0.03317957 0.020803288 0.020222519 -0.09091454 -0.054201156 0.08305026 0.034678247 0.019100022 0.051253963 0.01820387 0.044384465 -0.042513378 -0.095495366 0.042729158 0.11868611 -0.045627084 0.018439442 -0.051565506 -0.10421633 -0.068752415 -0.06703965 0.05725523 -0.024260122 0.06312541 0.022687867 0.10434072 0.0077785337 -0.00949947 -0.032582816 -0.021864505 -0.0026474872 -0.03833544 -0.11508671 0.09270109 -0.11659422 0.08114251 -0.056141417 0.078730024 -0.117808186 -0.03259263 0.052258816 -0.19961885 -0.043867685 -0.13302195 -0.06518678 -0.06167049 0.047836117 0.21588287 -0.1314334 -0.11275958 0.08148081 -0.09558533 0.1395109 0.00028940753 -0.019993013 -0.00924075 0.017845413 -0.007964756 0.2193699 -0.056796245 -0.102998145 -0.0048467373 0.09148466 -0.040644348 0.023527779 0.052479822 -0.12578015 0.060467232 -0.0044560414 0.014948886 0.044274926 -0.040591918 -0.026923206 0.056168884 0.0752046 0.06666984 0.045908086 -0.0540498 0.0052884636 -0.15371972 -0.07098216 0.026886363 -0.09704177 0.06858022
53 -0.012652365 -0.07610334 -0.0073564565 0.053187132 -0.007463647 0.01009001 -0.010887234 -0.036930017 -0.061989434 -0.009432602 -0.0023573632 0.014017151 -0.023032617 0.0084325755 0.06342201 -0.06678006 0.019932264 -0.021242078 -0.021172801 0.05558145 -0.014300013 -0.018685872 0.013537764 -0.018574195 0.029846685 0.027108723 0.075531125 0.044157065 0.011784418 0.02047942 -0.014607088 -0.057552483 -0.09337723 0.036322117 0.04723748 0.00034081907 -0.06793959 0.0038165865 0.0806845 -0.083379425 0.052949388 -0.05959926 -0.003719965 -0.031531334 0.021264898 -0.013861237 0.010603737 -0.06986991 -0.044317365 0.053033475 0.010845208 0.0076551414 0.029495105 0.00058025896 0.03865701 -0.023554007 -0.047193184 0.026630607 0.08516057 -0.03755976 0.02705738 -0.031552184 -0.06640434 -0.056244135 -0.039223403 0.020879216 -0.025053864 0.056344803 0.02420545 0.064951375 -0.0016713055 0.013122912 -0.018621476 0.007541828 -0.008743008 -0.028589565 -0.098351926 0.079272725 -0.0882898 0.05799527 -0.041717503 0.051316254 -0.082523115 -0.02190949 0.038003124 -0.12502606 -0.010930386 -0.10997842 -0.0399325 -0.0292011 0.057607893 0.13481149 -0.090048425 -0.07024794 0.063251846 -0.06414445 0.09493611 0.0017087465 -0.018015357 0.004913384 0.006644628 -0.00023438659 0.14492999 -0.04368361 -0.09253368 0.0012634853 0.067183994 -0.034732673 0.020939333 0.048499882 -0.081832394 0.023359131 -0.00011976223 0.023627812 0.025774466 -0.03270698 -0.027856724 0.015229268 0.049078755 0.032038964 0.030088529 -0.03411445 0.008770701 -0.106006704 -0.05390916 0.019160895 -0.06283292 0.045515124
1595 -0.018235084 -0.074904606 -0.02419608 0.044559408 -0.013837036 0.013780143 -0.026163625 0.017398601 -0.060174044 0.0005316431 -0.00020180648 0.014465251 -0.0010498269 0.011702913 0.055895306 -0.04904916 0.019672021 -0.006278053 -0.019176213 0.023870144 -0.0042118332 -0.016433747 0.023395797 -0.013232841 0.042981114 0.031465113 0.061638784 0.04936835 -0.0046929996 0.01564477 -0.013576538 -0.028862644 -0.08939364 0.04545888 0.051138673 0.010648923 -0.03905037 0.019014644 0.07757082 -0.074584894 0.056761324 -0.025969625 -0.0022913842 -0.019780608 0.024749747 0.020076795 0.013727898 -0.053946376 -0.036948074 0.061952885 0.01185672 0.0033341323 0.03399266 0.025062133 0.03006644 -0.023377847 -0.06082047 0.0338177 0.076022 -0.018658755 0.0048586274 -0.04040894 -0.06548796 -0.04894182 -0.03914369 0.04012688 -0.01306726 0.038260423 0.005327407 0.07207749 0.0057583293 -0.009110154 -0.027615536 -0.014186894 -0.0034288128 -0.023997221 -0.066011116 0.05451995 -0.075383715 0.053330492 -0.031125836 0.045598343 -0.06353371 -0.019034542 0.032946993 -0.13306557 -0.026219297 -0.081815794 -0.039914615 -0.03483286 0.022276454 0.139847 -0.07511734 -0.073198296 0.04915368 -0.06078446 0.08052217 0.0005119618 -0.013271065 -0.01109459 0.0005793558 0.00044033537 0.12723194 -0.04653039 -0.058946084 -0.0020896627 0.04891675 -0.02702881 0.0076986835 0.039005816 -0.08435089 0.040848844 -0.0023752707 0.011789064 0.019605163 -0.024178302 -0.018870985 0.035347514 0.043963723 0.03551914 0.029219192 -0.041232888 0.018472327 -0.079606935 -0.06003391 0.013229134 -0.060133588 0.053766377
1748 0.0012712689 -0.054972548 0.0013196219 0.03642654 -0.0049668443 -0.0021307184 -0.002969217 -0.016421514 -0.02463925 -0.007317017 0.0028878648 0.0065277447 -0.00030161734 -0.00266539 0.027950304 -0.042611536 0.01098127 -0.016515117 -0.014327581 0.01600743 -0.013230708 -0.0155377155 0.0065482757 -0.01477607 0.021979433 0.007709516 0.04337428 0.01722829 -0.0013525378 0.0056232796 -0.006580305 -0.021735067 -0.04719035 0.01800549 0.025384704 -0.0034374457 -0.023195712 0.010925517 0.040091187 -0.029063223 0.023548415 -0.027504025 -0.0045074853 -0.019943163 0.012301097 -0.0029614123 0.009690341 -0.027818916 -0.017127091 0.02861403 0.0018157747 0.0054550203 0.017834181 0.010288927 0.0257536 -0.016862798 -0.01737374 0.016625576 0.045508053 -0.014554267 0.012336872 -0.013846532 -0.03765458 -0.024672495 -0.016933762 0.012427145 -0.009089843 0.036081076 0.004456048 0.03485485 0.005252094 -6.2141844e-05 -0.01422203 0.003863631 -0.007879906 -0.016189361 -0.055077486 0.038035892 -0.042231612 0.030319264 -0.018946541 0.02986569 -0.031507883 -0.008052422 0.018028628 -0.07178157 -0.005424144 -0.051368836 -0.021427842 -0.01195818 0.027818805 0.06796445 -0.030585712 -0.042214945 0.027536536 -0.028967587 0.038413055 0.0044967146 -0.012188483 0.0034605912 0.009706963 -0.0010931309 0.068811454 -0.024287054 -0.042035524 0.0011110858 0.028314542 -0.014624791 0.008731462 0.026307184 -0.042115908 0.010370447 0.0011276054 0.016011503 0.012832773 -0.01713256 -0.011492957 0.011702331 0.022573743 0.005014825 0.018448237 -0.027933946 0.018688295 -0.03934607 -0.03757939 0.013973913 -0.030611284 0.032953236
567 -0.0054282304 -0.058269363 -0.018067705 0.039607324 -0.01357141 0.0055620098 -0.01619322 -0.0031324031 -0.045592166 -0.012628408 -0.006467786 0.0052868733 -0.005203157 0.0099306 0.040088493 -0.042908486 0.016011536 -0.011938584 -0.019650204 0.016274258 -0.009396 -0.01688154 0.016792517 -0.0125263 0.026893592 0.018590277 0.054116398 0.045859285 0.0059341807 0.01670319 -0.013769345 -0.031788778 -0.08289944 0.0371305 0.042049266 0.013927954 -0.032154657 0.018901102 0.074068986 -0.06313474 0.04509405 -0.035698146 0.0077680885 -0.013108671 0.013362178 -5.4712727e-05 0.016187161 -0.048288684 -0.027582224 0.04401895 0.011322541 0.00821789 0.033765785 0.016417585 0.030298434 -0.018350976 -0.04218278 0.026424786 0.054417662 -0.021031804 0.009527512 -0.02540791 -0.066248894 -0.03612242 -0.022140108 0.026972275 -0.012372498 0.029440999 0.0041033486 0.06050289 0.010356519 -0.0065953587 -0.018072495 -0.0016004501 -0.005369696 -0.016313488 -0.06097977 0.05821497 -0.06236311 0.03566205 -0.03833606 0.044651642 -0.059917487 -0.019440433 0.025300037 -0.10965759 -0.0195638 -0.070956394 -0.029731756 -0.030641908 0.025274085 0.10270082 -0.06741746 -0.07192843 0.036440827 -0.05699566 0.07175822 0.004032436 -0.011726603 -0.0074582216 0.0012348173 -0.0037894933 0.116937876 -0.02412822 -0.05179297 -0.0037926275 0.038968902 -0.016877683 0.016517946 0.030493308 -0.065376215 0.015745295 -0.0019248424 0.017619902 0.030598635 -0.010529413 -0.010195757 0.016849112 0.030766238 0.027532728 0.014702814 -0.027964821 0.016743358 -0.07108111 -0.033570524 0.019368526 -0.05016079 0.04370451
1478 -0.020774594 -0.06753542 -0.013460771 0.05060307 -0.0041829534 0.030394308 -0.021747416 0.0077039776 -0.064217016 -0.009092707 -0.011293266 0.015122455 -0.011959576 0.015242389 0.067552045 -0.042405095 0.015684515 -0.005749907 -0.02189086 0.052255925 -0.010106478 -0.01782907 0.02645462 -0.01589039 0.046222787 0.026863161 0.0657467 0.052860163 0.0021740685 0.024694275 -0.012466547 -0.041802812 -0.10265199 0.0512681 0.03991349 0.0113503905 -0.058342177 0.008523684 0.09319547 -0.082311645 0.066482894 -0.03587465 -0.0033690236 -0.021588936 0.03165429 0.0143998945 0.010404743 -0.07024718 -0.046174854 0.06522803 0.02052458 0.0009060348 0.028399589 0.013193852 0.035394035 -0.029854128 -0.056523595 0.03047696 0.08145506 -0.028251061 0.016605211 -0.036283962 -0.070535876 -0.062437613 -0.053474024 0.03514219 -0.015940977 0.0434391 0.01691422 0.06442353 0.005032238 0.0008553917 -0.018788299 -0.0059610633 -0.016606035 -0.030152693 -0.0843128 0.06653199 -0.0856085 0.06160181 -0.029248282 0.04618805 -0.07775875 -0.018478433 0.038016655 -0.13099304 -0.032589953 -0.095542654 -0.04618585 -0.042306077 0.036668193 0.14676377 -0.08844509 -0.07228188 0.054915093 -0.0584983 0.09085474 -0.011290866 -0.0063480306 -0.016807396 0.006434853 -0.0022278412 0.14666785 -0.053715594 -0.07760887 0.00019512414 0.06699405 -0.040198907 0.020882094 0.0441616 -0.085445665 0.044883646 -0.0021024426 0.01576918 0.02485553 -0.031702075 -0.015674118 0.030755188 0.050209664 0.050948523 0.038403746 -0.04468823 0.0062520807 -0.10356674 -0.057120737 0.019444577 -0.065074064 0.046126865
1201 -0.00333925 -0.079436876 -0.0021126457 0.060439225 -0.0045769904 0.012745917 -0.016911982 -0.007394966 -0.055322565 -0.00900716 -0.0029095404 0.02111727 -0.016005863 0.0066220434 0.06525592 -0.06585334 0.023556357 -0.01688506 -0.026011897 0.061750744 -0.02327541 -0.020056244 0.016817834 -0.025831636 0.044817723 0.020423656 0.06439773 0.029820204 -2.4559416e-05 0.017182037 -0.009307062 -0.044017807 -0.10102 0.036546625 0.043026257 -0.0026482053 -0.065152414 0.010277482 0.08007032 -0.07376562 0.051939793 -0.04585577 -0.001189909 -0.020939969 0.023915274 -0.0043935943 0.006195326 -0.07616954 -0.04345396 0.063966446 0.00786363 0.0071699787 0.024672443 0.016408222 0.04578797 -0.028826864 -0.037707504 0.03392994 0.083307736 -0.029702703 0.03417287 -0.0259074 -0.06201348 -0.0641065 -0.050934546 0.022343855 -0.014582155 0.052841753 0.023164883 0.061838936 0.0050220545 0.0034931016 -0.014316643 0.0028379837 -0.016348567 -0.026117507 -0.10225325 0.069144964 -0.08627082 0.068180725 -0.038197517 0.052728515 -0.07423171 -0.026161896 0.030558456 -0.13064276 -0.017718988 -0.09700217 -0.042113468 -0.020263573 0.044528987 0.12403131 -0.07435761 -0.065010875 0.06132233 -0.05987008 0.08332621 -0.0028084351 -0.019599594 -0.001865946 0.010387269 0.006570698 0.13093306 -0.054315984 -0.08199197 0.0009591636 0.06408055 -0.038997628 0.01878731 0.05673484 -0.08288728 0.03696134 0.0038059296 0.024239337 0.012126734 -0.036999915 -0.023859302 0.020497615 0.048430268 0.017155398 0.029870493 -0.04760764 0.012869598 -0.09694943 -0.06471452 0.019611593 -0.06407335 0.047168013
140 -0.00039326827 -0.05539898 -0.008478741 0.0352413 -0.0010497312 0.0030801368 -0.011733445 -0.007954662 -0.036400538 -9.5567106e-05 0.0015695371 0.012469042 -0.019113792 0.0026681274 0.04103605 -0.045487612 0.009715526 -0.01829024 -0.014144969 0.030772615 -0.013977614 -0.01129366 0.003445877 -0.0110445395 0.024325011 0.014007585 0.042565808 0.020517737 0.0006148881 0.014829349 -0.0039924034 -0.026601411 -0.059449933 0.015549985 0.026797507 0.0056534098 -0.038079884 0.013062493 0.04598781 -0.046094216 0.026740143 -0.03658923 0.0030391484 -0.019009603 0.01646019 -0.001313111 0.0009999855 -0.041973468 -0.027404662 0.03849607 -0.00032475532 0.0025928537 0.014967029 0.009298246 0.02904378 -0.0100108 -0.02216653 0.020623317 0.049013127 -0.01616844 0.017744249 -0.02208535 -0.03934614 -0.034344096 -0.027538205 0.015112182 -0.013171382 0.036931768 0.01253768 0.04171765 0.010144606 0.0041532954 -0.008513902 0.008555104 -0.0027815602 -0.01096307 -0.05637281 0.0420164 -0.05608147 0.03590443 -0.023891373 0.031722665 -0.038301945 -0.011348969 0.027917039 -0.07606881 -0.010857985 -0.059348874 -0.029217642 -0.017614398 0.024451299 0.07441801 -0.04799297 -0.036872853 0.03486872 -0.044128843 0.054141 0.003747248 -0.017848676 0.0011970071 0.0033869834 0.008168583 0.078115426 -0.03176716 -0.05015733 0.0077877496 0.032294814 -0.019259451 0.009656907 0.035302456 -0.04830857 0.020261588 0.0035381336 0.012834512 0.010362799 -0.019912485 -0.01853298 0.012110301 0.031012207 0.008043407 0.021957355 -0.025619619 0.012197998 -0.053404205 -0.03786697 0.01312237 -0.0392446 0.032283686
