1915 128
924 0.018933019 -0.012774836 -0.016030548 0.0017758469 -0.0016810301 -0.023638064 0.041377258 0.024295717 -0.02433999 0.016967103 0.028296039 -0.038259514 0.02900399 -0.009869992 0.0104992585 -0.002708704 -0.016563855 -0.003041112 0.009179429 -0.018766329 0.008193932 0.027959138 -0.016407559 0.018138569 0.0032447819 0.008773757 0.006258962 -0.0041719433 -0.019267563 0.011378065 -0.0035429734 0.026765987 0.011996888 -0.0051251575 0.010868492 0.016240569 -0.007769592 -0.0013118584 -0.0058472143 -0.0044788104 -0.0077044456 -0.015047742 -0.015475705 0.0036621126 -0.011678427 0.024365311 0.0057417317 -0.015914544 -0.012822952 0.026340228 -0.0012654767 0.018471688 0.0028685043 0.0042684837 0.010134447 0.034434672 0.009375524 0.00015438485 -0.01224296 -0.013019992 -0.031406906 -0.008988951 0.007410223 -0.0029537813 0.0135699585 -0.023987485 0.020556834 0.017502027 -0.016934404 -0.002873624 0.019120567 -0.008753491 0.0113106575 0.01486916 -0.013035863 -0.037720058 -0.014687341 -0.02281091 -0.01185184 -0.0069646663 0.01997483 0.00011772 -0.0036752853 -0.007412855 -0.0047667585 0.0020727986 0.022648357 0.00020732009 -0.022635698 0.009436422 -0.0027887851 0.038369246 -0.0011379243 0.0018090508 -0.009870108 -0.023199566 0.006012098 -0.007391705 0.021662392 0.014254999 -0.018854806 0.010997073 -0.0054383003 0.04365082 0.01452191 0.034708507 0.0016613171 -0.012971262 0.016587412 -0.036802765 0.0076704384 0.005221933 0.012968396 -0.033020828 0.014757488 0.022550961 0.009025205 0.028349042 -0.007031345 0.023340771 -0.021177003 -0.023103036 0.011531065 -0.002447058 0.010057383 -0.005841261 -0.020989431 0.0007528936
1117 0.046741858 -0.028135963 -0.05340534 -0.015570705 -0.009219189 -0.07598141 0.12233202 0.07342082 -0.08156846 0.03617005 0.094180495 -0.10590069 0.075144865 -0.030791657 0.019552803 -0.005011661 -0.035743624 -0.009383757 0.047664333 -0.053708285 0.013227222 0.09677151 -0.045056373 0.05350052 0.03513465 0.0303296 0.019363856 -0.030177606 -0.061473742 0.046858363 0.0063371444 0.07097227 0.042126648 -0.006792993 0.04370741 0.049010143 -0.025278455 -0.017699676 -0.015307928 -0.00538447 -0.0265585 -0.04420773 -0.03366385 0.010034508 -0.045440596 0.06104598 0.018618034 -0.034917437 -0.04698201 0.056737814 -0.00081112736 0.039763715 0.0067776334 0.017813 0.018093739 0.08937394 0.030100029 -0.0068662977 -0.035176642 -0.03815051 -0.09318013 -0.032720003 0.025153125 -0.01999218 0.05258931 -0.05544669 0.06697834 0.032081332 -0.04723801 -0.021224199 0.046093065 -0.015767885 0.04091953 0.04435201 -0.03708365 -0.11144236 -0.040294 -0.078356035 -0.015896693 -0.0014334398 0.06484326 -0.0025467072 -0.013614153 -0.020144677 -0.033225548 0.0009035496 0.068697155 -0.0017060841 -0.05791727 0.028754992 -0.0197747 0.112907894 -0.0067875236 0.011289569 -0.04492148 -0.06375351 0.018378867 -0.021375325 0.064823404 0.04498181 -0.04489952 0.051565576 -0.02169965 0.11543091 0.04586447 0.10877674 0.022548363 -0.029714227 0.045137327 -0.104019955 0.017652038 -0.006241729 0.032706417 -0.09283656 0.046033286 0.06190021 0.029516267 0.086122595 -0.0149156805 0.0672852 -0.055954054 -0.06772695 0.039617505 -0.0099974815 0.014827193 -0.00815806 -0.05830534 0.009385106
275 0.020955734 -0.009562122 -0.01897937 -0.013096866 -0.0025844455 -0.026204832 0.04786408 0.03623144 -0.02498547 0.018817252 0.044407073 -0.04505652 0.028448489 -0.015577406 0.00625452 -0.0058312495 0.0003666529 -0.0074809743 0.018555963 -0.017975047 0.0027393035 0.03593869 -0.014310038 0.015266738 0.022417057 0.009798105 0.008970297 -0.004681559 -0.02239532 0.009181812 0.011924825 0.02839441 0.015753932 -0.010528376 0.015103726 0.011537862 -0.01569268 -0.013758395 0.0046660444 0.0013090434 -0.00952014 -0.015650637 -0.012059573 0.007470763 -0.018392725 0.03343765 0.004923873 -0.018585714 -0.02419725 0.018710317 0.005101303 0.012111136 0.002172638 0.009599494 0.0070002778 0.039356288 0.015184963 -0.00068896846 -0.015837144 -0.0097367475 -0.03556335 -0.013217635 0.011043769 -0.00094240624 0.024931774 -0.020304844 0.029617595 0.01647394 -0.016358094 -0.006207993 0.026031442 0.005618982 0.012153816 0.017490372 -0.013421515 -0.046284314 -0.019715294 -0.02832435 -0.0050592073 0.00047449532 0.024106055 0.0067039947 0.008005307 -0.006579079 -0.008628043 0.002800012 0.02516242 0.0049025654 -0.024503294 0.008012691 -0.010585171 0.046990372 -0.0023645544 0.002822492 -0.019336421 -0.029177148 0.009898522 -0.017269026 0.031941134 0.011957645 -0.016397774 0.01718881 -0.008782587 0.045118023 0.008027634 0.05027833 0.013263141 -0.014116469 0.016413888 -0.038035788 0.0022354082 -0.0040148785 0.017914891 -0.029612266 0.022879453 0.02540269 0.019172529 0.029097475 -0.003164683 0.021970399 -0.022883888 -0.031580385 0.00635485 0.0021254122 0.007658436 0.0036429728 -0.016516076 0.00020337613
1760 0.016633118 -0.059876014 -0.060352173 -0.007587266 -0.050712314 -0.004601945 0.10634249 0.05459817 -0.058628306 0.023181524 0.052741054 -0.09285896 0.036288716 -0.025917176 0.048531767 -0.04368764 -0.06410348 0.037606623 0.06399806 -0.027201544 0.071210824 0.09705192 -0.022931574 0.07915022 -0.01986621 0.02727302 0.00391357 -0.046157423 -0.08430221 0.06608501 -0.018242527 0.036913324 0.06363983 0.009595699 0.0370319 0.06273513 -0.0059661237 0.027662367 -0.06517144 -0.009374673 -0.04934315 -0.007127297 -0.05065707 0.0030431503 -0.0581214 0.009237951 0.021933842 0.005127521 -0.0535758 0.107311025 0.012892444 0.051400725 0.020493904 0.047230523 -0.012545617 0.050573464 0.044544384 -0.01982503 -0.02457066 -0.047636632 -0.10496989 0.01884715 0.030832473 -0.0076645277 0.04597576 -0.032811005 0.029702256 0.032675914 -0.030577794 -0.04411857 0.037766296 -0.09635886 0.030121474 0.07704845 -0.058620032 -0.08714932 -0.028898442 -0.09253244 0.0146796005 0.022038057 0.023189766 0.0054242276 -0.06367045 -0.025710573 -0.047939103 -0.03149293 0.03316779 0.0018247673 -0.051453322 0.0055932296 -0.004886586 0.06945859 -0.013632116 0.018492233 -0.05714808 -0.06693746 0.0012541512 -0.003445944 0.045271724 0.03908408 -0.04076393 0.04901107 -0.03163723 0.076638274 0.0814305 0.05490778 -0.00876462 0.022556428 0.049713217 -0.13274486 0.013172514 0.030431021 0.037070308 -0.08297475 0.025758965 0.04754688 -0.0003514217 0.08217203 -0.024038764 0.070323415 -0.037155144 -0.021777114 0.04193446 -0.012615747 -0.008481674 -0.027706485 -0.080355085 0.010345751
1336 0.008466255 -0.019633865 -0.025896877 -0.0072846445 -0.013911875 -0.009389777 0.042053282 0.019153882 -0.02714327 0.008743915 0.021939296 -0.040099945 0.016982308 -0.014393152 0.024510838 -0.016419174 -0.029609196 0.01130271 0.026623437 -0.015612622 0.037486374 0.03995023 -0.018707417 0.036083505 -0.0032722172 0.01450855 0.0021960747 -0.026217304 -0.028643446 0.031032994 -0.0009104928 0.010667306 0.02360961 0.008976153 0.015689056 0.024316644 -0.0003928823 0.007056401 -0.028805774 0.008772459 -0.01138429 -0.016752329 -0.01818469 -0.001650658 -0.022243114 0.009421112 0.008130524 0.0055361227 -0.01603001 0.03175439 0.0008605691 0.016708838 -0.002723027 0.014636337 0.008529995 0.027439494 0.0106799835 -0.011036494 -0.010986601 -0.018118164 -0.042650733 -0.000110375244 0.01530239 -0.0040937476 0.012398276 -0.018087303 0.011003993 0.007921599 -0.0090683885 -0.022504797 0.0070608435 -0.03632348 0.013481719 0.0224976 -0.015229247 -0.036450785 -0.0140976515 -0.031452384 0.010039388 -0.007531703 0.020654857 -0.0023268852 -0.030280525 -0.0062948493 -0.02108956 -0.00565092 0.0152960885 -0.007328039 -0.02104107 0.008055853 -0.0069436436 0.03244809 -0.0024930923 -0.0003600451 -0.024751246 -0.03311574 0.014641804 0.009921949 0.019597681 0.014255098 -0.0126098255 0.02625852 -0.006977605 0.034332134 0.028631443 0.025871878 -0.0016262213 0.008067663 0.022853779 -0.06253933 -0.0024587477 0.012545609 0.010401696 -0.03143556 0.004944498 0.013101194 -0.00419915 0.033324942 -0.0054430687 0.03534452 -0.010197108 -0.011885553 0.022420285 -0.011032338 0.0024628316 -0.010796809 -0.021340238 0.003924164
288 0.036835197 -0.023335192 -0.041394554 -0.0032436838 -0.010104653 -0.047842946 0.09939585 0.065679215 -0.06796834 0.030913616 0.0686389 -0.07746705 0.059463825 -0.019360097 0.0049152276 -0.016636128 -0.027299797 -0.0013533292 0.04779564 -0.035918016 -0.010664205 0.08099902 -0.027389953 0.03869348 0.023103174 0.0072978977 0.019463403 -0.027036909 -0.051483534 0.025368577 0.0011015312 0.06311848 0.031983998 -0.013442369 0.022511147 0.038355544 -0.035563994 -0.0047122813 -0.0069496534 -0.018339803 -0.03181537 -0.015478251 -0.045712903 0.005323664 -0.033354394 0.059987336 0.020703644 -0.043004453 -0.044899173 0.07586496 0.008556387 0.019909639 0.017425586 0.011504237 0.0033898023 0.064390294 0.036498707 0.0051879124 -0.037960205 -0.035899565 -0.07649581 -0.0076716547 -0.003878842 -0.009147946 0.0691644 -0.046153095 0.047145598 0.03693741 -0.041767854 -0.015519575 0.06968269 0.00030373887 0.038593747 0.041729257 -0.0503554 -0.09828169 -0.03213137 -0.060980946 -0.028679885 0.01614272 0.037540633 0.010401363 -0.0017509331 -0.011835229 -0.016390396 -0.0025615674 0.059410214 0.0067667444 -0.056606807 0.01844747 -0.016165188 0.09623285 -0.007997885 0.011025995 -0.03001714 -0.039612375 -6.586607e-05 -0.040990725 0.059917744 0.043056555 -0.032231115 0.038239717 -0.033819623 0.11096706 0.045548696 0.105644256 0.028230567 -0.010175164 0.03295638 -0.0807526 0.03130067 -0.0006949035 0.036966026 -0.06889376 0.03493148 0.05227218 0.0380616 0.06665416 -0.021318661 0.047539543 -0.06117759 -0.048432793 0.036186192 0.00093925593 -0.0014044532 -0.0011225096 -0.0681842 0.0053478396
473 0.019515255 -0.021803541 -0.030623294 -0.0055548484 -0.017371817 -0.035285573 0.05682253 0.036039177 -0.034522906 0.021073436 0.04068923 -0.06275528 0.03307598 -0.004503407 0.015320244 -0.014205822 -0.02620232 0.005485674 0.030242085 -0.017714815 0.028302282 0.05408755 -0.016177967 0.02640153 0.013393958 0.010107648 0.012783476 -0.01531453 -0.031561006 0.03729373 3.248109e-05 0.023068763 0.01981668 0.0028872152 0.013244035 0.03118346 -0.011980512 -0.0055726985 -0.016720593 -0.005195128 -0.015159449 -0.029873181 -0.02036966 0.002454859 -0.019909155 0.025807217 0.011350702 -0.0073282067 -0.03207101 0.030413888 -0.0045329724 0.021632401 0.0042101904 0.017907938 0.0019963414 0.04345927 0.011584928 -0.015892208 -0.02507836 -0.025248662 -0.04848831 0.003379785 0.011352845 -0.00880739 0.019195938 -0.02387227 0.028645555 0.02212907 -0.014085267 -0.01494801 0.021720335 -0.024702711 0.0197134 0.032581285 -0.022789871 -0.047495384 -0.026407262 -0.042751897 -0.00193299 -0.0037365009 0.022514215 -0.0010808419 -0.02357002 -0.0052628065 -0.02405341 -0.005869403 0.02729252 -0.0076013715 -0.03039064 0.009404294 -0.012134006 0.046666287 -0.00052426633 0.0100437 -0.024493326 -0.034280617 0.0053651035 -0.013583589 0.029996496 0.027521314 -0.011975354 0.030701526 -0.013051422 0.05356046 0.033284064 0.04388372 0.0085270945 -0.0042186584 0.024432747 -0.06422517 0.019817952 0.008519223 0.020852944 -0.035296537 0.023318307 0.02152943 0.0011552144 0.041724853 -0.0143909445 0.029673843 -0.025145123 -0.026883267 0.020872567 -0.0143123595 0.014964246 -0.01302367 -0.029638106 0.0016943123
1810 0.02890879 -0.031390574 -0.038744427 -0.007829993 -0.012354174 -0.0334608 0.08894919 0.049962115 -0.04866876 0.026752653 0.062118866 -0.07035646 0.04736043 -0.018715259 0.018559571 -0.012312203 -0.029940946 0.012404578 0.030698843 -0.032096833 0.020538818 0.06261377 -0.025402829 0.037988156 0.019791566 0.021926355 0.01047325 -0.023366667 -0.05418272 0.032015417 -0.0040442366 0.054170832 0.03377995 -0.007336445 0.027298503 0.038368117 -0.016789341 0.002999099 -0.022141976 -0.0094953915 -0.026075479 -0.014649494 -0.03702423 0.007894772 -0.04120172 0.037969396 0.016501244 -0.021125285 -0.041391928 0.056317948 0.0071695107 0.032878477 0.013398549 0.019300506 0.00337359 0.05794473 0.030679028 -0.011297637 -0.02860988 -0.029491872 -0.067344226 -0.002073635 0.011228838 -0.012046852 0.043081094 -0.03176058 0.039272092 0.030038621 -0.034056246 -0.016208597 0.050412275 -0.025018953 0.025241883 0.04121187 -0.03683526 -0.0851106 -0.025877504 -0.059127044 -0.004958978 0.015940962 0.032704376 0.0001472373 -0.018619014 -0.008419225 -0.01701832 -0.0030099496 0.04866589 0.009029803 -0.044184234 0.011399726 -0.017988045 0.07723625 -0.009115594 0.013337281 -0.035743393 -0.045641754 0.0024276795 -0.021543495 0.04574369 0.025250455 -0.035886094 0.042397395 -0.030594025 0.07686358 0.041991312 0.0675734 0.010273177 -0.007557662 0.03255519 -0.08421339 0.017104732 0.0014840409 0.032052536 -0.07117161 0.028708884 0.04088702 0.02284519 0.051111538 -0.021686302 0.050869014 -0.037004355 -0.0408421 0.028957302 -0.005420231 0.0019233437 -0.014566708 -0.058425702 0.0065413914
1707 0.013045434 -0.014448756 -0.012662551 -0.007789608 -0.014410268 -0.010429712 0.042472046 0.02613999 -0.021636875 0.01574287 0.026690176 -0.03579706 0.022524558 -0.01619896 0.02229111 -0.012259553 -0.016245916 3.6718662e-05 0.019817036 -0.026295783 0.015204025 0.039796665 -0.025362806 0.024394255 0.0023878478 0.0058794916 0.0012644283 -0.013409702 -0.029733503 0.02517561 0.0071812235 0.019236682 0.019651385 -0.001894081 0.023174653 0.023925705 -0.001582382 0.0077074803 -0.015297862 -0.00027271252 -0.017251268 -0.009147498 -0.01752167 0.010224951 -0.025941858 0.0100460015 0.011830989 -0.00093255745 -0.01962918 0.024881154 0.010140565 0.0131723145 0.0038516207 0.011326071 -0.000699614 0.030046457 0.01620024 -0.0003991803 -0.007082638 -0.008329078 -0.038977638 -0.012386946 0.01528436 -0.003616772 0.0219757 -0.017139437 0.023877943 0.007094882 -0.019671535 -0.018567672 0.0051697665 -0.021511976 0.011584072 0.022588419 -0.0082650045 -0.03973699 -0.012390389 -0.02518898 0.0021525845 0.002861077 0.019492783 0.002764354 -0.013723458 -0.011021236 -0.013639917 -0.0013946801 0.018850021 0.004261355 -0.021538887 0.010293048 -0.0051563 0.03506788 -0.007937539 -0.0017878909 -0.01918702 -0.027638394 0.007023977 -0.00034715884 0.022972532 0.012205203 -0.015966885 0.014270795 3.6857993e-05 0.034189787 0.021229103 0.03297444 0.005065896 -0.0015204436 0.022164047 -0.042734418 0.00027158193 0.0055934843 0.006673675 -0.035167813 0.017573204 0.018119877 0.0069813184 0.03447084 -0.004303475 0.02725097 -0.01965437 -0.0196522 0.017623713 -0.006391899 -0.0056011 0.0042631077 -0.022310203 0.008690255
1770 0.031212281 -0.022066537 -0.035803817 -0.013438487 -0.014329612 -0.039983045 0.08637447 0.04531663 -0.055659827 0.026922582 0.06320643 -0.078961544 0.046344794 -0.017402802 0.019323466 -0.017393112 -0.030765772 0.0059902403 0.041181926 -0.03272444 0.02733538 0.062853895 -0.03899004 0.039829716 0.020555476 0.022556065 0.015239169 -0.027071137 -0.04205424 0.041502226 0.0028588807 0.045698944 0.034435965 -0.008400075 0.030330397 0.025757024 -0.012276499 -0.0046771187 -0.012892991 -0.010002549 -0.023906888 -0.027141936 -0.030398041 0.014437928 -0.03794246 0.042511567 0.016431317 -0.013055325 -0.03713805 0.041492693 0.0032691432 0.025746958 0.006731016 0.020050583 0.0029388594 0.058920003 0.02475925 -0.0064546154 -0.01973217 -0.025536658 -0.06562031 -0.005254573 0.016759587 -0.0145653915 0.040963553 -0.03759168 0.038980056 0.020912604 -0.024157792 -0.02731446 0.034284644 -0.024435947 0.026560463 0.030552018 -0.019734055 -0.074351415 -0.02656676 -0.06166703 -0.00092535076 0.0005126819 0.04424 -0.0013323065 -0.015370183 -0.0075120307 -0.023840776 0.0007644704 0.04762041 -0.003643036 -0.04816211 0.017864829 -0.008871676 0.078619756 -0.01009531 0.0047527417 -0.03140085 -0.051436387 0.0087582525 -0.00860268 0.044001333 0.032771874 -0.028249083 0.034437064 -0.015122306 0.07472766 0.03536085 0.06840757 0.0077778473 -0.014930584 0.033436563 -0.08631614 0.016559474 0.0028068072 0.032722786 -0.06083016 0.0268483 0.03962122 0.018376254 0.061427746 -0.020045241 0.03984479 -0.03362427 -0.035374843 0.023721727 -0.014045153 0.008514994 -0.0076309 -0.041800443 0.007868976
1148 0.029028293 -0.041374303 -0.055023566 -0.017120024 -0.035068862 -0.02834439 0.10162649 0.058799792 -0.061775833 0.026540956 0.07245938 -0.09372332 0.049208242 -0.017686633 0.039221235 -0.03577613 -0.04219304 0.018449694 0.06109376 -0.0363055 0.050484583 0.08906236 -0.032584623 0.057249688 0.0043858173 0.014044847 0.017951773 -0.03207735 -0.065022305 0.055349007 -0.0015347917 0.046195984 0.045079526 -0.0013314598 0.038170572 0.05091798 -0.016536305 -0.007997916 -0.032428093 -0.0048529147 -0.033534788 -0.027830962 -0.05043172 0.012968715 -0.043096736 0.03477368 0.021122994 -0.007246165 -0.04902796 0.07653493 0.0057378607 0.048588376 0.012718655 0.033312693 8.869207e-05 0.06989008 0.04059803 -0.023193812 -0.027838834 -0.04650336 -0.08041301 -0.0036431528 0.023931354 -0.012880177 0.045623075 -0.037159704 0.04438131 0.029275915 -0.035824087 -0.0354177 0.0425909 -0.06095422 0.028703062 0.06833759 -0.05008639 -0.086180404 -0.031997778 -0.071832046 -0.002309869 0.00487809 0.031380754 0.0024515316 -0.043537322 -0.018864952 -0.033455532 -0.018432619 0.037028696 -0.00012473525 -0.052406322 0.014860715 -0.017210722 0.07818338 -0.008815973 0.0137556465 -0.043837886 -0.06318146 0.011243803 -0.016696068 0.05196638 0.042000163 -0.024459738 0.047483005 -0.03325522 0.082000144 0.06514955 0.07189481 0.0074410858 0.006101416 0.039151065 -0.11547832 0.015648827 0.018230023 0.035515755 -0.07293751 0.03387035 0.033250082 0.010532392 0.07158272 -0.030044004 0.054156624 -0.04441207 -0.033228673 0.033460606 -0.018303884 0.0044308836 -0.0221938 -0.055588335 0.0032129097
439 0.025681494 -0.020444516 -0.032106653 -0.0040716333 -0.010076907 -0.038734827 0.0668157 0.034313302 -0.043357857 0.01535727 0.044205755 -0.05329671 0.035395168 -0.017543452 0.011558415 -0.005398219 -0.01884823 0.0036442943 0.020413714 -0.028758094 0.0122353835 0.048966914 -0.016042521 0.02822554 0.008627335 0.009798497 0.004353981 -0.015086854 -0.03796793 0.025696337 0.0018999928 0.033222597 0.021772454 -0.0008323114 0.024227533 0.037589286 -0.016188325 0.0002488754 -0.020725992 0.004698121 -0.01337101 -0.019043688 -0.022489823 0.0006985948 -0.027077371 0.025273263 0.0106781805 -0.014697763 -0.023139969 0.042319104 0.0048945905 0.022996902 0.0022719402 0.009426553 0.0023854703 0.047050104 0.006877705 -0.008003 -0.016277535 -0.022166323 -0.050493423 -0.009293183 0.013783617 -0.005858817 0.021028817 -0.024320468 0.029625498 0.020250535 -0.028072901 -0.007409053 0.028561177 -0.014617231 0.020587593 0.03538832 -0.025158621 -0.05700572 -0.016361857 -0.041966986 -0.0054906947 0.0018078941 0.034256663 -0.0053604133 -0.012025603 -0.010020681 -0.02081546 -0.00053807657 0.03245402 0.0053510587 -0.02788328 0.009181923 -0.0079448465 0.055584386 0.0004700584 0.012325975 -0.027054116 -0.03470508 0.008387986 -0.0075673363 0.030354755 0.025412397 -0.018547704 0.02866354 -0.010028391 0.054904554 0.028683053 0.052668035 0.008585739 -0.012999859 0.018755862 -0.058175664 0.015067064 0.0012404467 0.015159068 -0.04840444 0.016905889 0.024876185 0.007297052 0.04085748 -0.0032611764 0.03999019 -0.023906663 -0.036136407 0.02172627 -0.00901933 0.008017909 -0.007870811 -0.033397462 -0.0014682534
1142 0.03740994 -0.02102779 -0.041554797 -0.020006536 -0.02028562 -0.04680436 0.09182096 0.049687702 -0.058454227 0.024607494 0.066569 -0.08234598 0.053159077 -0.024793677 0.02896097 -0.016216954 -0.034924816 -0.0018530105 0.04334406 -0.037327204 0.031147407 0.06983572 -0.039517198 0.041632384 0.024723392 0.020543935 0.010543865 -0.030900942 -0.05707546 0.044907413 0.0064106784 0.049756512 0.029669875 -0.0023400302 0.025137456 0.045535713 -0.01622316 -0.0019112225 -0.022095053 -0.0046994723 -0.024512269 -0.036717564 -0.029889753 0.0027139327 -0.042848274 0.03273555 0.012649127 -0.014235232 -0.040186856 0.0541678 0.00439528 0.03328228 0.005125935 0.014628068 0.0059970105 0.06467566 0.013400454 -0.010017439 -0.027423725 -0.030092925 -0.081736706 -0.016617615 0.021115866 -0.014692364 0.033261042 -0.047830023 0.043968756 0.02561202 -0.03474852 -0.02578518 0.030227143 -0.03538699 0.029957723 0.045786787 -0.034588102 -0.085092954 -0.025925871 -0.061244152 -0.0072112847 -0.0038245432 0.040461436 -0.0032672551 -0.018714167 -0.007997752 -0.028330423 -0.0056351987 0.044415094 -0.0022948347 -0.045153994 0.0066021495 -0.016606007 0.07703936 -0.009490207 0.005982747 -0.03964175 -0.053661283 0.015710425 -0.005441725 0.04755998 0.034408215 -0.024356885 0.044031817 -0.018753568 0.07834482 0.04594474 0.07395016 0.008053803 -0.016262012 0.045405988 -0.09417092 0.017701589 0.007495563 0.022332925 -0.070392616 0.02553568 0.034486525 0.0052244714 0.06135326 -0.017269626 0.05277523 -0.03838463 -0.042717725 0.034140587 -0.018106211 0.0080766985 -0.010852154 -0.05495725 0.0033186597
1846 0.02483068 -0.014752006 -0.02391407 -0.019674186 -0.015500183 -0.033829346 0.07144587 0.03743855 -0.039930232 0.023563975 0.05855244 -0.066338874 0.041362945 -0.018822381 0.022852367 -0.011185501 -0.015673203 0.00203815 0.028833304 -0.032177903 0.025993373 0.05870459 -0.024025885 0.03026232 0.019207288 0.02248291 0.009552639 -0.015543724 -0.0372156 0.027145732 0.004125383 0.03879543 0.02942731 -0.006445104 0.02319073 0.037593894 -0.006886748 -0.0043342733 -0.014309756 0.0035056893 -0.015909333 -0.019948827 -0.024366645 0.006457903 -0.029511087 0.0327951 0.011052337 -0.008465863 -0.031479724 0.03039435 0.00090417627 0.027413603 0.0015120641 0.010889592 0.0033010433 0.048336703 0.018061563 -0.008970452 -0.015126808 -0.022071246 -0.056485914 -0.017153941 0.020581068 -0.012631997 0.024091862 -0.027235312 0.03504855 0.016999915 -0.025876947 -0.017355999 0.02219886 -0.02428637 0.019070817 0.031384073 -0.016655747 -0.06411307 -0.017541198 -0.045700442 -0.0042186812 0.0037225867 0.038233686 -0.0060431035 -0.016140645 -0.009333002 -0.017409924 -0.0014243072 0.034217987 0.0044799848 -0.03497911 0.0144484425 -0.009182399 0.051659036 -0.010833331 0.007780255 -0.0284449 -0.040562 0.016037174 -0.0070675714 0.033605013 0.016826708 -0.016001917 0.03348495 -0.012602848 0.057040684 0.023994789 0.0558818 0.0046128314 -0.016756758 0.035476215 -0.070825174 0.0064223954 0.00020752085 0.025184996 -0.050252583 0.026490476 0.027913343 0.013276321 0.04240365 -0.015523616 0.034566645 -0.02628517 -0.03585724 0.014488801 -0.0037478996 0.0038623617 -0.01000265 -0.034381982 -0.0012116008
946 0.00747648 0.010340637 0.0076681213 -0.00462312 0.009538726 -0.0026162001 -0.005494659 -0.008036333 0.0026949588 0.0002888773 -0.0024856064 0.0100569185 0.0011417352 0.002877646 -0.013354109 0.006142886 0.011441031 -0.0041845567 -0.011390995 0.00020688582 -0.01632762 -0.0011834808 0.0017608954 -0.0131336795 0.011222592 -0.00088700594 0.0057235276 0.010530403 -0.000902265 -0.013153565 0.0055189314 0.009442174 -0.011590415 0.0016959963 -0.0042727976 0.003346321 -0.0032825877 -0.014049544 0.0056483555 0.01163315 2.0414009e-06 6.551759e-05 -0.003809831 0.0030688897 0.0031426565 -4.954848e-05 0.0010416358 -0.009675603 -0.00019421219 -0.00952808 6.434847e-05 -0.010717102 -0.0072005317 -0.008328415 -0.000791091 0.0014061301 0.0009696086 0.0014415967 -0.006363177 0.0031225877 0.013233696 -0.007831768 -0.0055043017 6.3394815e-05 -0.0054450682 -0.010064555 0.006304669 -0.0011956096 -0.005731312 0.010558436 -0.0067410115 0.0134442905 -0.00085841794 -0.008822851 0.0067784414 0.003445205 0.0024244795 0.00916038 -0.008011168 0.0019110702 -0.0061893896 -0.0028249128 0.013743076 0.0027448174 0.008295301 0.005116936 -0.0016832956 0.004740579 0.0033892815 -0.0039354726 -0.007460203 -0.00245562 -0.0025930183 0.0007525395 0.006222246 0.005741132 0.0008255143 -0.0030002235 -0.00032228726 -0.00813861 -0.0041138935 -0.00815075 -0.0034091985 0.0013426442 -0.013067694 -0.0006425839 -0.00022713863 -0.010925778 -0.007896364 0.017834801 -0.0038070465 -0.0058934465 -0.0060235513 -0.0028510408 -0.004952148 -0.005097691 0.008568172 -0.009483328 -0.0006340345 -0.002949853 0.0002550082 -0.013856765 -0.0042280667 0.007041961 0.00045895047 0.011921359 0.003148514 -0.005371111
449 0.015861483 -0.011573113 -0.027776545 0.0015943979 -0.014822458 -0.009381969 0.058260784 0.04274078 -0.031537656 0.010511556 0.04048237 -0.04897012 0.03553489 -0.018780075 0.007953746 -0.025893616 -0.022760712 0.013979043 0.030950421 -0.020689633 0.010934821 0.04916162 -0.02416704 0.023569401 0.008220727 -0.00039693367 0.013781824 -0.01939978 -0.04162375 0.021765176 -0.0009569148 0.036277313 0.03890126 -0.007432087 0.010816127 0.029124025 -0.012049526 0.0014601595 -0.015184138 -0.014308442 -0.02448093 0.004482342 -0.03109177 0.0058676302 -0.029892066 0.032805618 0.0098927645 -0.018439004 -0.03135963 0.053236406 0.010415412 0.017348168 0.011342709 0.019225359 -0.009459514 0.032799844 0.041244626 -0.002947362 -0.019050708 -0.014959713 -0.04546011 -0.003485484 0.0050431755 -0.0070455205 0.045775827 -0.02438874 0.029889898 0.020680884 -0.027278973 -0.017815998 0.04510107 -0.019519946 0.013503798 0.03521266 -0.024770444 -0.06413597 -0.01664037 -0.04046529 -0.012221938 0.019465426 0.01704204 0.011310227 -0.011682745 -0.010557209 -0.019085962 -0.0040930347 0.03268083 0.010548813 -0.037837487 0.0128212385 -0.008472041 0.045640904 -0.013456035 0.0087765865 -0.016921947 -0.030562647 -0.0062410156 -0.025427826 0.033898063 0.023874022 -0.017828975 0.022910044 -0.021868514 0.05166065 0.034414865 0.057189588 0.013563809 -0.0012481045 0.023571758 -0.055749558 0.01773891 0.002402124 0.022005167 -0.045131546 0.020476691 0.03361225 0.01593562 0.033944093 -0.027159335 0.027351476 -0.029477295 -0.03166458 0.02017582 0.0038082362 -0.0011191767 -0.0014617717 -0.041030448 0.0016272143
1191 0.03996577 -0.04669675 -0.057855193 -0.0074731796 -0.03376019 -0.036737893 0.1270195 0.06814951 -0.06789807 0.026774507 0.073668055 -0.10006988 0.05786277 -0.032214954 0.02310908 -0.037055574 -0.0483121 0.022267027 0.05576273 -0.037657324 0.0358664 0.09675673 -0.036158912 0.07336274 0.010010312 0.02644235 0.017132623 -0.04178736 -0.07668252 0.049501568 -0.014363574 0.059766714 0.053480998 -0.0044138543 0.034765285 0.06283243 -0.019261817 0.009946906 -0.041623842 -0.008901865 -0.05039196 -0.015107331 -0.064776786 0.005222396 -0.061810277 0.040802095 0.023224529 -0.019218279 -0.05242906 0.101416335 0.005507811 0.050279666 0.022922985 0.030172536 0.0021009217 0.07431548 0.04067469 -0.01124057 -0.04031089 -0.048789363 -0.09968321 -0.0019512845 0.018983148 -0.011145775 0.05595039 -0.054275036 0.047670454 0.040817745 -0.046792995 -0.030207142 0.062321283 -0.05742536 0.036493503 0.06310011 -0.056801848 -0.1074938 -0.032233253 -0.085512966 -0.0045530302 0.016138753 0.041516397 0.008316183 -0.039644577 -0.015687956 -0.032753758 -0.016946474 0.058050156 0.003966514 -0.0558314 0.016745403 -0.017355071 0.099641815 -0.010258452 0.019541036 -0.046478204 -0.0635277 0.0010219659 -0.020322263 0.064901814 0.054241963 -0.04442753 0.05314347 -0.03777977 0.10916768 0.06727794 0.09998864 0.007625098 -0.002758596 0.04143168 -0.11754167 0.024232926 0.013586694 0.03987755 -0.09145235 0.039315846 0.05157388 0.0215131 0.08213382 -0.03368794 0.068177566 -0.05847141 -0.046301987 0.04960702 -0.007845332 0.0068299985 -0.023903534 -0.08263744 0.00058167585
166 0.015823092 0.0011963263 -0.011332424 -0.012664761 0.0027008948 -0.0064487583 0.017675918 0.009940753 -0.008465847 0.0042758607 0.01967655 -0.014133037 0.011414497 -0.00796783 0.005968998 -0.008150783 -0.0013356645 0.0012942656 0.010630024 -0.0115399845 -0.0002577223 0.018070605 -0.009810884 0.0057653007 0.012463401 0.0003051674 0.007752888 -0.0020138505 -0.017649058 0.0042566773 0.0035431723 0.014253014 0.006590046 0.0013789653 0.008065629 0.014255782 -0.002526721 -0.008670828 0.004528114 0.00391874 0.0011882549 -0.00019873051 -0.0152173005 0.0028934323 -0.012098711 0.008881775 0.0025245782 -0.005585967 -0.0055773985 0.0095910365 0.00053318805 -8.39353e-06 0.0011579255 0.0062584872 -0.0001764559 0.007755908 0.013537972 -0.002319033 -0.004860612 0.0023955188 -0.016108837 -0.00833673 -0.0012452876 -0.0030927872 0.017599007 -0.009596961 0.01327753 0.005193587 -0.014449735 -0.0021015194 0.008375273 0.00041079713 0.004365019 0.012445697 -0.006846595 -0.019890042 0.0045045563 -0.012867299 -0.00699525 0.00942637 0.002875809 -0.0030103377 0.002022216 -0.0002047208 0.0019652469 -0.0024183786 0.007334936 0.004131501 -0.007583313 0.00041629846 -0.008908351 0.013982556 -0.011465091 0.00086061656 -0.0038576475 -0.018806897 0.0016882262 -0.0018862907 0.015746178 0.010668345 -0.0009931431 0.0062068165 -0.010023418 0.01548574 0.005135284 0.018713282 0.00042992478 -0.005860982 0.004422591 -0.014027502 -0.0029699567 -0.0041287835 -0.0018321581 -0.015732184 0.009365431 0.0036672282 0.013723213 0.0010833297 -0.00959448 0.0076633003 -0.0032329825 -0.016553849 0.00210202 0.0027928685 -0.006728833 0.005028897 -0.016658548 -0.0029289324
1566 0.023861883 -0.03223891 -0.036152977 -0.0040822956 -0.0181323 -0.03629882 0.08597577 0.056527875 -0.043202125 0.023097863 0.05923805 -0.071848564 0.05147061 -0.020037603 0.01735833 -0.01789884 -0.03456857 0.0067290897 0.037329473 -0.02640341 0.017382488 0.069678105 -0.021475846 0.043549303 0.011556285 0.018626915 0.016507415 -0.025536407 -0.05219051 0.029044697 -0.0058794175 0.045131497 0.038389057 -0.0041264165 0.020349888 0.042480875 -0.023490936 0.0015545626 -0.020952513 -0.01172302 -0.025880517 -0.025601897 -0.034618672 0.004773688 -0.030380264 0.035014246 0.009664778 -0.022607446 -0.0354876 0.06432967 0.0037683644 0.036840312 0.0062159207 0.01784626 0.0035481062 0.053571984 0.021994835 -0.010625784 -0.031631228 -0.028916446 -0.06604963 -0.004411454 0.010583357 -0.004016678 0.032505568 -0.042663995 0.0443812 0.03303362 -0.027223257 -0.015976733 0.03901878 -0.020934528 0.024840415 0.035147652 -0.04484469 -0.083050646 -0.027788857 -0.058179773 -0.0147922225 0.0027887153 0.03755171 0.0034788174 -0.015919432 -0.009146555 -0.025612906 -0.0007264595 0.045659576 -0.006921801 -0.041236337 0.017622972 -0.01020887 0.06854861 -0.006527892 0.009141995 -0.027296515 -0.042102445 0.0114453025 -0.017971905 0.043021653 0.033968102 -0.03217837 0.040743247 -0.028949127 0.08662853 0.03699773 0.07635214 0.012026066 -0.0063742343 0.027471524 -0.08444248 0.026673887 0.0040231613 0.024735529 -0.057948165 0.029817712 0.0412774 0.013761448 0.061052956 -0.0148298 0.046750974 -0.042578172 -0.039812442 0.031025704 -0.009440731 0.011954428 -0.018623495 -0.053701513 -0.0039028502
216 0.03284011 -0.022216607 -0.042351495 -0.016417583 -0.01091677 -0.06439648 0.094180465 0.048195872 -0.052681405 0.027185237 0.065882795 -0.07181402 0.059207033 -0.011446145 0.018551461 -0.010059547 -0.025455166 -0.008942399 0.041260496 -0.02402665 0.0042541083 0.07021054 -0.029822884 0.0367946 0.027775198 0.023343286 0.017263269 -0.025876066 -0.04307557 0.032121472 0.003377986 0.047379978 0.015609802 -0.009635258 0.020726612 0.039903134 -0.033690438 -0.016835243 -0.012973981 -0.0025266926 -0.030591583 -0.043422308 -0.021858275 0.0039450317 -0.024094796 0.04522871 0.012199835 -0.032124463 -0.03288224 0.042296175 -0.004402964 0.025713654 0.001160923 0.01536153 0.016608207 0.060492694 0.004031672 -0.004749427 -0.0267891 -0.03423234 -0.0667126 -0.013733594 0.011183568 -0.0102682 0.029589638 -0.041447073 0.044500034 0.0293685 -0.02563478 -0.02877822 0.03260498 -0.012998983 0.031574007 0.026703348 -0.031674232 -0.06704612 -0.03739614 -0.06253498 -0.0082347 -0.00895101 0.048929658 -0.0009828362 -0.009590847 -0.02075013 -0.01938164 0.0051590507 0.051069006 -0.007941815 -0.04741035 0.018218871 -0.015011255 0.084260024 0.008120099 0.009135905 -0.03564923 -0.043057565 0.014255509 -0.020835347 0.04869898 0.035974815 -0.034827933 0.03426194 -0.017915457 0.08445696 0.03960959 0.0801055 0.014125162 -0.01465215 0.028806917 -0.08185155 0.019684883 -0.002256374 0.024856783 -0.06148694 0.02799218 0.031977322 0.013660162 0.07225425 -0.0064491895 0.041580513 -0.047865186 -0.042429008 0.032441337 -0.015265038 0.022417983 -0.0091113355 -0.04848103 0.009872131
1392 0.021455878 -0.023681564 -0.028336678 -0.0069822404 -0.016194012 -0.041743893 0.073599264 0.04090137 -0.04656261 0.028397152 0.061561063 -0.07398944 0.04605762 -0.021547925 0.015502635 -0.00423169 -0.022356756 0.0012535488 0.03108181 -0.030892754 0.01625539 0.06025507 -0.029895954 0.03788478 0.017907368 0.018569475 0.0112279635 -0.017058609 -0.039822184 0.030240336 0.0069463016 0.03469728 0.024912437 -0.0031631738 0.027987596 0.037229843 -0.0158013 -0.009882213 -0.018958503 0.0039693005 -0.02016842 -0.023096789 -0.017367497 0.008990924 -0.033232506 0.03844117 0.008200041 -0.017860344 -0.03326162 0.041753344 0.003735825 0.025571965 0.002158094 0.015430034 0.010539028 0.05281544 0.017898168 -0.0078027844 -0.019949714 -0.018483099 -0.056761045 -0.016984629 0.017471923 -0.0057494384 0.03194391 -0.035602488 0.03706341 0.018336814 -0.02869203 -0.0151655525 0.02322934 -0.020139052 0.023917316 0.029538414 -0.020028893 -0.07118703 -0.025327982 -0.05069611 -0.0035916774 -0.0010725686 0.04218323 -0.003988992 -0.018021159 -0.007421234 -0.023574619 0.0026588154 0.036140103 0.0044937623 -0.037911166 0.012971063 -0.008265772 0.06666821 -0.0043947524 0.012258481 -0.029243037 -0.04044849 0.014787596 -0.008614084 0.03494748 0.023952236 -0.025930598 0.030231731 -0.008924326 0.07047848 0.0321865 0.0637575 0.007760926 -0.013588826 0.033196047 -0.068574056 0.0067235436 0.0026062445 0.026087392 -0.060353115 0.030015431 0.03139483 0.01292553 0.05349835 -0.0107156765 0.03733872 -0.032287188 -0.039834447 0.023423802 -0.008674448 0.00804487 -0.009509214 -0.03177933 0.00054725126
1574 0.028435623 -0.010337843 -0.025852077 -0.012817411 -0.005706716 -0.04103666 0.07304186 0.037840243 -0.03714668 0.025050158 0.053964987 -0.055389784 0.03949573 -0.016564712 0.0065564564 0.0036089572 -0.007189589 -0.003990613 0.01796639 -0.026433034 0.0030402555 0.044702 -0.026771706 0.025336124 0.0290619 0.021358194 0.014712998 -0.0143994335 -0.02593203 0.017563548 0.0052999356 0.041789908 0.023887334 -0.0068469252 0.018911667 0.02321768 -0.0142906 -0.010300477 -0.0040225545 -0.0023315 -0.008718519 -0.020308213 -0.015599266 0.00818138 -0.019887092 0.042884085 0.005996631 -0.024336742 -0.024183983 0.02143751 0.0025477281 0.02502746 0.0047356887 0.011614462 0.008757049 0.04991336 0.013161055 -0.0019289907 -0.02522655 -0.019786147 -0.050702065 -0.013215526 0.013798658 -0.010564367 0.022334594 -0.037748653 0.041251067 0.025202554 -0.017436573 -0.010079596 0.029408429 0.0024451832 0.02393271 0.016443102 -0.022636116 -0.058167435 -0.0267224 -0.039219283 -0.008673828 2.1879463e-05 0.041558474 -0.0009360274 2.3634726e-05 -0.0066024195 -0.014538437 0.0063821897 0.04226321 -0.00015765947 -0.03375384 0.018494584 -0.009226705 0.066010505 -0.0053821513 0.008361335 -0.022366943 -0.03697884 0.014713848 -0.017856836 0.03385582 0.01960683 -0.024573192 0.033368796 -0.015286425 0.061485052 0.016997445 0.058579504 0.0099589415 -0.018331634 0.018054057 -0.0505154 0.010132139 -0.009102552 0.02557023 -0.048453044 0.022639433 0.035264853 0.020246662 0.042771332 -0.00838331 0.035164077 -0.037255764 -0.035600305 0.017366188 -0.002470543 0.014288823 -0.0050734584 -0.037197597 0.0072181933
153 0.029773839 -0.0254256 -0.039471075 -0.012765253 -0.018454993 -0.03705168 0.084047616 0.047264446 -0.04388931 0.022051241 0.05852727 -0.07362387 0.049824603 -0.016195154 0.01774405 -0.01567365 -0.034358863 0.006328488 0.03912451 -0.03368452 0.026956987 0.06519203 -0.034830093 0.038225245 0.015214332 0.015724473 0.01646042 -0.027485518 -0.04466012 0.0319751 -0.0035106912 0.045851562 0.035994854 -0.0003268493 0.02256958 0.04070484 -0.013706351 -0.0027016283 -0.020188471 -0.006558055 -0.0244785 -0.028630644 -0.03733966 0.008503468 -0.038460784 0.035629913 0.015469575 -0.013822228 -0.040785234 0.049171794 0.0059875697 0.027308134 0.002729141 0.019309483 0.0043864823 0.05234531 0.023688275 -0.010838076 -0.027470224 -0.023949727 -0.070768796 -0.0069502825 0.009213647 -0.008666194 0.038074832 -0.03774282 0.03367499 0.021266095 -0.030429266 -0.01939448 0.03323241 -0.028398162 0.02699037 0.0449642 -0.032663565 -0.07775673 -0.024359396 -0.056424297 -0.0053377566 0.0043957015 0.03133499 0.0024727227 -0.018125242 -0.009852322 -0.026951078 -0.006563736 0.046430804 0.0051627783 -0.046517987 0.014350327 -0.016920239 0.069131605 -0.009385099 0.008091236 -0.030846197 -0.04387504 0.0077126566 -0.015371179 0.043749213 0.03847658 -0.021564033 0.03366623 -0.022578955 0.07611601 0.041463893 0.06917096 0.009493172 -0.005981004 0.033020414 -0.07426977 0.0145069575 0.0040247473 0.02788858 -0.05992512 0.025707318 0.03205796 0.014566097 0.05636666 -0.022562478 0.046947222 -0.03852132 -0.037496522 0.026117105 -0.0119857825 0.0030046408 -0.009000552 -0.049886335 0.006569625
1272 0.011157625 -0.024003284 -0.029574318 0.0038294639 -0.027381184 -0.0068616136 0.060358945 0.035229523 -0.027966501 0.009640749 0.02640969 -0.053310093 0.02145923 -0.01967293 0.02142402 -0.029033216 -0.033406544 0.017263338 0.032251842 -0.018068708 0.031056099 0.051483158 -0.013967238 0.041795578 -0.010668481 0.011783092 0.0042055743 -0.026347304 -0.04689629 0.031467102 -0.007994095 0.024775526 0.03165906 0.0041162265 0.019070357 0.041408397 -0.0048364666 0.015714413 -0.037245166 -0.006626116 -0.029394856 0.00536165 -0.029859116 -0.002287715 -0.03840745 0.0057225158 0.015852187 -0.0048819627 -0.036999583 0.0623688 0.014631643 0.022562543 0.008329828 0.021155922 -0.0096938005 0.026949786 0.023637306 -0.010124088 -0.018296931 -0.022559062 -0.061967537 0.002829937 0.012754499 -0.0011477034 0.03384822 -0.022867814 0.026858449 0.016275184 -0.026038002 -0.015620984 0.023387589 -0.04531996 0.01478993 0.044442136 -0.02898696 -0.05986783 -0.014679665 -0.047668144 0.0059949188 0.014239722 0.016058315 0.003383551 -0.026592974 -0.013916136 -0.019114448 -0.010554662 0.023111437 0.008859619 -0.031744666 0.0048667267 -0.0074523306 0.040757313 -0.0153142065 0.010143075 -0.028088147 -0.03357489 0.001873391 -0.0034406043 0.028723268 0.023183323 -0.02713559 0.02599718 -0.01346361 0.043028306 0.043599293 0.041321535 -0.0063314606 0.006688779 0.028065933 -0.066285454 0.006199367 0.018681966 0.018716786 -0.045042966 0.015965216 0.029471844 0.006558754 0.04413287 -0.013888885 0.04050182 -0.022464741 -0.023619294 0.029456532 -0.0012404517 -0.0070078727 -0.007261916 -0.04767383 0.0057506864
1119 0.012497046 -0.017667076 -0.01978704 -0.0022948913 -0.009207043 -0.021713588 0.052690633 0.026184628 -0.03369353 0.016326355 0.032944884 -0.034622833 0.02910483 -0.017696073 0.0023679659 -0.011886796 -0.014323431 0.004744578 0.01857079 -0.019377802 0.0014905782 0.044401173 -0.019835837 0.025927316 0.0047252136 0.011114177 0.008061928 -0.014495526 -0.02693514 0.010052638 -0.0012069301 0.030462837 0.019291438 -0.0020223102 0.017676435 0.026916252 -0.01459102 0.0036777637 -0.007197017 0.000719545 -0.02084765 -0.004420193 -0.019564783 0.0059883427 -0.029529925 0.019517938 0.014571391 -0.015389088 -0.02174037 0.040649332 0.0045727254 0.014482832 0.0062033045 0.008513563 0.0002955567 0.032530107 0.016742127 0.0065945177 -0.01611837 -0.013342454 -0.040885583 -0.0071660797 -0.0005859052 -0.0030659942 0.03549207 -0.028164027 0.022853415 0.018025067 -0.025190867 -0.0083407145 0.028100166 -0.00757949 0.02052782 0.021269454 -0.020585043 -0.04013396 -0.018109577 -0.032134805 -0.009904265 0.010915344 0.021627815 0.0059461403 -0.0050727315 -0.01000465 -0.014265035 0.001055207 0.030395871 0.0041514407 -0.02828247 0.005245911 0.0006504838 0.040535823 -0.005028273 0.0077888505 -0.017218545 -0.018580463 -0.0033371993 -0.007969637 0.02589462 0.018667867 -0.022314036 0.009817549 -0.010600416 0.048075493 0.027457906 0.050800215 0.010643466 -0.009873207 0.016970173 -0.042966437 0.00790992 0.0020088563 0.0118161235 -0.040564258 0.015733726 0.030603739 0.020742876 0.03813328 -0.0045359405 0.025631523 -0.024301104 -0.022821197 0.013849457 -0.002342614 0.0012444706 0.0017446959 -0.037666164 0.00034354397
553 0.03973293 -0.03365755 -0.03928402 -0.012529994 -0.014079501 -0.06659038 0.10890356 0.06356991 -0.070606664 0.033396825 0.07788538 -0.099423714 0.07657049 -0.033550557 0.018864186 -0.012950026 -0.030124215 -0.0058965757 0.038283598 -0.052187495 0.017671566 0.09421181 -0.044794466 0.051999006 0.023611855 0.028131569 0.013409528 -0.02286462 -0.054934062 0.04363667 0.0026882894 0.059640847 0.038251646 -0.006173731 0.038343005 0.04933664 -0.029431148 -0.015581111 -0.015917525 0.0008591476 -0.031393964 -0.0402538 -0.04048278 0.007410648 -0.043989573 0.05202636 0.020496236 -0.027136102 -0.048098747 0.05905789 0.0021631448 0.03899603 0.0051713265 0.018366536 0.01164712 0.08322136 0.028579537 -0.0127898175 -0.032357212 -0.03570628 -0.079525836 -0.027155137 0.020273693 -0.016700584 0.049538553 -0.054400057 0.06161071 0.032961786 -0.043494977 -0.019932354 0.037415363 -0.021260323 0.034332097 0.04462674 -0.034899775 -0.09948698 -0.0444877 -0.074982874 -0.01838947 -0.0039328435 0.0634341 0.005518629 -0.014066379 -0.013747844 -0.030071342 0.005979354 0.05721742 -0.0053056916 -0.049757794 0.018031286 -0.011239308 0.0898386 -0.0075571183 0.011055873 -0.04368296 -0.051931184 0.019339494 -0.014215536 0.0585776 0.0417468 -0.03882582 0.043654904 -0.019816682 0.10712187 0.048333697 0.102940634 0.022772139 -0.027158871 0.04672714 -0.09340944 0.018585173 -0.0019125658 0.027322074 -0.08051806 0.045454323 0.05282144 0.029194983 0.07482897 -0.009461479 0.058222633 -0.05086369 -0.06563768 0.03846636 -0.0095859775 0.014356009 -0.006315959 -0.05786253 0.0020869607
1168 -0.004329284 0.003979347 0.0044676326 0.0011845814 -0.0029672333 0.00046886536 -0.008515712 -0.0053395135 0.006223316 -0.0021348216 -0.003682958 0.008209731 0.0048677903 -0.0021275468 -0.0033110997 0.0024618877 0.0063372627 -0.005359468 0.00095913006 -0.0042437194 -0.00447631 -0.0027489036 -0.005285022 -0.00614217 0.000116981115 -0.002305979 -0.0012408852 0.0067876875 0.00374156 -0.0009717764 0.0063425116 -0.0041031796 -0.007905524 -0.0056833355 -0.007476206 -0.0032062419 0.003429457 -0.0013861388 0.0065811574 -0.0031529253 0.0015554049 0.0037909276 0.0028630432 -0.0049394723 0.0042866687 -0.002127432 -0.0018726093 0.0017378293 0.0012052294 -0.012923573 0.002591431 -0.0038378898 5.970802e-05 -0.010727586 0.00074008555 -0.0075256526 0.0015789934 -0.002604802 -0.0036228683 0.010371794 0.006483694 -0.0062063653 -0.00058805716 -0.0011255128 0.0055679604 0.0007072921 -0.0019166952 0.0012485883 -0.002596074 -0.003524886 -0.0068106335 0.010703031 -0.0025010242 -0.0073744473 0.007433866 0.0030335828 -0.0024187174 0.009633794 -0.0002187897 0.0031010145 0.0023590808 0.0059490856 -0.0015915245 0.0008182332 0.0002614852 0.00011764969 -0.0022530605 -5.271553e-05 -0.0030184847 -0.005572407 0.0043457835 -0.006918901 0.002685684 0.00021552903 0.0052406853 -0.003382482 -0.0012468904 -0.00065835984 -0.0028187013 0.0016769822 0.003082906 -0.001283703 0.0025364913 -0.003569884 -0.00013000674 -0.004693002 -0.0021589508 -0.002338087 0.0056329323 0.0050983024 -0.006556632 -0.00040600265 -0.00724296 0.0071952073 0.0028686489 -0.006249891 -0.0004904976 -0.005134362 0.00535442 -0.007245324 0.0055374093 0.0037567443 -0.0065983003 -0.0026336266 -0.0027247535 0.0020546631 0.00820396 -0.0017575044
1003 0.028591387 -0.026247786 -0.041775674 -0.0006067983 -0.017483179 -0.04197171 0.094161265 0.048124716 -0.049740028 0.027514126 0.063773625 -0.06861306 0.05165588 -0.018012619 0.011491405 -0.016501455 -0.02965372 0.0044198055 0.030882718 -0.030053906 0.011521895 0.07241602 -0.02381862 0.040629115 0.014722999 0.020898394 0.0076633305 -0.021449685 -0.05041526 0.028754078 -0.0013587583 0.05257341 0.030380018 -0.012812214 0.018006982 0.03967815 -0.020691324 0.0012022756 -0.01950772 -0.006562586 -0.0331621 -0.011355971 -0.040088747 0.0012816273 -0.04144318 0.038756818 0.016030164 -0.021513877 -0.037984997 0.062241867 0.008085718 0.026884703 0.01661447 0.010963914 0.0012813003 0.059684936 0.024767803 0.0035601314 -0.027066918 -0.031846676 -0.07680164 -0.008908903 0.007122848 -0.014051358 0.050120626 -0.044668112 0.039616425 0.03098371 -0.032373596 -0.018023735 0.04880898 -0.019097341 0.035122074 0.04054134 -0.039894585 -0.08444815 -0.026877081 -0.058057155 -0.011201299 0.015243108 0.04432668 0.0069776303 -0.019854743 -0.016228195 -0.024126431 -0.001152091 0.05330008 0.0036734869 -0.04552327 0.016244693 -0.006265083 0.08097175 -0.00950376 0.015398192 -0.035423294 -0.04118408 0.0075122407 -0.019386895 0.048706207 0.036036562 -0.033854175 0.03092499 -0.01705748 0.08351454 0.042798303 0.07456152 0.009959522 -0.006702311 0.030345317 -0.07722564 0.019954264 -0.002627826 0.025055885 -0.064204 0.025495814 0.046025146 0.02757815 0.06917195 -0.017487653 0.049749248 -0.04750691 -0.03969044 0.029444676 -0.0051740576 0.007233472 -0.006844157 -0.059121877 0.0052607013
689 0.021266583 -0.026133932 -0.032948524 -0.010486355 -0.010358893 -0.030037878 0.06890738 0.04147622 -0.040464964 0.027764574 0.046791106 -0.06653528 0.037373643 -0.015809154 0.0133814225 -0.016294401 -0.019130671 0.012288912 0.039948266 -0.029300578 0.02428137 0.059739202 -0.026602065 0.03946224 0.010455814 0.022322992 0.0062714526 -0.025557429 -0.036025632 0.032008167 0.0017503931 0.036094006 0.03690322 -0.011027825 0.023789288 0.02633451 -0.009952129 -0.002819374 -0.02420566 -0.005752913 -0.015507683 -0.014546086 -0.028905049 0.0090523865 -0.02836931 0.037624937 0.00984456 -0.011328603 -0.032001812 0.03761773 0.0046405257 0.018749557 0.0042325994 0.016001988 0.006538323 0.045694593 0.030061137 -0.010309154 -0.017204119 -0.026863959 -0.061110854 -0.0032076542 0.02309669 -0.011791292 0.039040405 -0.024039246 0.03458289 0.018287428 -0.024056174 -0.020325718 0.028281452 -0.024819551 0.021425448 0.031038843 -0.017899238 -0.05904324 -0.013858313 -0.04272464 -0.0018253517 0.009997658 0.031498726 -0.0016063554 -0.022080883 -0.015624425 -0.019068774 -0.0034651493 0.03753985 0.0057370723 -0.034439005 0.016300729 -0.0077703875 0.060804173 -0.015952246 0.0074594 -0.026434023 -0.04706786 0.0037600177 -0.010977895 0.041852932 0.014828308 -0.025624739 0.034304935 -0.017645387 0.056285992 0.033492472 0.052596655 0.011517272 -0.004656629 0.024811951 -0.066455945 0.0052741384 0.002126887 0.02541717 -0.052119266 0.02831986 0.030283235 0.018556496 0.049192086 -0.01996099 0.040513918 -0.030524202 -0.025260422 0.01515287 -0.0034133515 -0.0010670656 -0.008196172 -0.03323761 0.0059691207
43 0.025228826 -0.030894073 -0.03662811 -0.00060273026 -0.0063686017 -0.041118924 0.09465998 0.052377515 -0.045783088 0.029162116 0.059815597 -0.07177383 0.047840245 -0.013416379 0.008357908 -0.018878523 -0.018767502 0.01005491 0.0382132 -0.019849433 0.003776407 0.06439353 -0.018539887 0.045155507 0.010066094 0.012008133 0.023242904 -0.023700245 -0.045772437 0.017825134 -0.014195661 0.05375978 0.039544765 -0.012229404 0.013558467 0.038017448 -0.025237873 -0.0060229977 -0.019634219 -0.018895138 -0.034403145 -0.002934075 -0.045287944 -0.002311366 -0.035592083 0.044225536 0.011346468 -0.03167326 -0.03893542 0.067777224 -0.002934061 0.02945954 0.019997945 0.016755955 0.000522125 0.055168573 0.026828684 -0.0077693784 -0.030915515 -0.035195816 -0.06434279 0.004868601 0.00042956785 -0.0072943717 0.04784912 -0.031015428 0.045435496 0.03396418 -0.0351756 -0.013335935 0.060535964 -0.014264465 0.027921716 0.03888609 -0.04199736 -0.082343005 -0.02935251 -0.06645586 -0.017000651 0.02085802 0.035423562 0.006464155 -0.015307533 -0.017742902 -0.015591142 -0.014035212 0.05515325 0.0038083754 -0.0420653 0.017553156 -0.013457088 0.072909325 -0.0066645457 0.020381484 -0.03016881 -0.036514662 -0.0066329883 -0.037450243 0.0513245 0.029897204 -0.032639705 0.035259657 -0.03239599 0.095831536 0.050924737 0.077963546 0.008677391 -0.008854913 0.021467393 -0.06639782 0.028789578 0.0076963454 0.032812487 -0.06210614 0.030611763 0.046043158 0.027495844 0.06268976 -0.020618169 0.039317895 -0.055661276 -0.04333979 0.036313176 -0.0030657456 0.0029022102 -0.012642848 -0.065835446 0.008730169
160 0.033765715 -0.02217254 -0.037449952 -0.01728658 -0.007198217 -0.056262933 0.10194282 0.05603129 -0.05637281 0.031823847 0.06981133 -0.08010525 0.061542526 -0.021103282 0.016643787 -0.011602709 -0.028121283 -0.0011323575 0.03726537 -0.037261724 0.015377622 0.07883434 -0.027845394 0.041487362 0.020541107 0.016330617 0.019687237 -0.01719314 -0.055090778 0.030152718 0.0014157993 0.060351215 0.034561083 -0.007921738 0.028549453 0.043512158 -0.029516486 -0.014061738 -0.014791424 -0.0008892414 -0.02511146 -0.028655559 -0.036979914 0.01268041 -0.039477672 0.048349988 0.009012055 -0.02587739 -0.039149195 0.056269046 0.0012046446 0.028842803 0.00862542 0.026035588 0.007186362 0.06801869 0.024590738 -0.010022949 -0.032191623 -0.029728442 -0.071169816 -0.011421464 0.013680525 -0.0083482545 0.039701875 -0.043437228 0.051094417 0.03118401 -0.030775053 -0.013371236 0.044604115 -0.015397651 0.03519437 0.03959417 -0.0395303 -0.088942744 -0.030199721 -0.055420622 -0.016465649 -0.0007398304 0.048242405 0.005043687 -0.011858571 -0.016797138 -0.016391614 0.002462679 0.05524175 0.0031764994 -0.042200044 0.011257281 -0.018988455 0.08158488 -0.0044361656 0.0077083446 -0.0357697 -0.053316835 0.01121779 -0.021417705 0.046865527 0.03575532 -0.032262336 0.041482706 -0.02175319 0.08328322 0.037679862 0.08321211 0.012521199 -0.016503472 0.03022379 -0.08202232 0.012375969 0.004310655 0.031578224 -0.06514648 0.03470175 0.043578383 0.021679336 0.06744843 -0.016100517 0.050127715 -0.044748172 -0.054697417 0.03137942 -0.00980773 0.011588228 -0.010962759 -0.053250123 -0.0019268256
1387 0.044963166 -0.027920285 -0.03856679 -0.019291207 -0.024171636 -0.05344028 0.107131615 0.07019491 -0.06327746 0.038432747 0.09394753 -0.10686176 0.06321068 -0.026819574 0.031599242 -0.013020429 -0.027269587 0.00852482 0.05052141 -0.05078887 0.034041256 0.09279437 -0.044303708 0.04662606 0.039063305 0.03133283 0.018001191 -0.028223395 -0.058692697 0.045788657 0.013774327 0.056771275 0.054359306 -0.0077269054 0.040195245 0.047320463 -0.019357884 -0.012684514 -0.021211179 -0.004542938 -0.02579566 -0.039073396 -0.040366992 0.019954082 -0.046981134 0.06998401 0.012860627 -0.02236499 -0.05170852 0.052377522 0.0041128923 0.03700321 -0.0052137664 0.014595442 0.013836716 0.08172448 0.035602808 -0.0072379746 -0.032063972 -0.022582922 -0.09619278 -0.02248778 0.03994161 -0.013115033 0.04775263 -0.060490437 0.05575299 0.030573115 -0.034441795 -0.02928068 0.037916332 -0.027864432 0.03084937 0.051203147 -0.01735793 -0.11008764 -0.03620709 -0.06693405 -0.01020146 -0.0069492003 0.0631347 0.004876935 -0.021323266 -0.0038535243 -0.029954689 0.00478118 0.057673793 0.009911317 -0.061674032 0.01922814 -0.015065251 0.0930071 -0.011972401 0.005752057 -0.04737583 -0.0782074 0.02497241 -0.017198838 0.062448002 0.028922996 -0.02525588 0.05172642 -0.011442985 0.097097166 0.0307018 0.09464578 0.014590201 -0.021206457 0.05240454 -0.09726912 0.014015876 -0.009648882 0.034200236 -0.0801774 0.042872712 0.048694365 0.029982055 0.061706945 -0.026811386 0.051900957 -0.050530814 -0.0525893 0.025649354 -0.01547888 0.0038902306 -0.0037979411 -0.049033865 0.0058888216
1350 0.034307692 -0.03505895 -0.044580698 -0.013072761 -0.022606835 -0.059159826 0.113565154 0.06570273 -0.07461721 0.03284712 0.08553031 -0.09936508 0.063610494 -0.03398107 0.022583397 -0.013343632 -0.040940505 0.00087397906 0.043239295 -0.052485377 0.020446949 0.08998859 -0.038293462 0.059727613 0.021763042 0.028046833 0.008193764 -0.027219098 -0.061094917 0.04632425 0.0030816842 0.06451268 0.042646933 -0.012743712 0.041771136 0.051538203 -0.025062133 -0.002853083 -0.029640941 -0.0045310683 -0.03236784 -0.029393753 -0.033074014 0.011307521 -0.055277202 0.05002901 0.023408959 -0.024866367 -0.04871051 0.0685528 0.006075598 0.033616085 0.0031657186 0.02074473 0.015388758 0.079214655 0.028334472 -0.008111396 -0.032581456 -0.035804987 -0.09498438 -0.021546612 0.025139231 -0.01712254 0.05774294 -0.057839736 0.061838042 0.030789036 -0.03821246 -0.031104738 0.03982091 -0.031955756 0.033871353 0.047407232 -0.038831554 -0.10287774 -0.037200596 -0.07470462 -0.008483385 0.0038691622 0.06479138 0.0007134607 -0.019635916 -0.021576857 -0.032488495 0.0049961274 0.06538291 0.005418139 -0.06435463 0.025477814 -0.0100728385 0.094500594 -0.0107606 0.013900359 -0.04536246 -0.060924232 0.022543328 -0.014969712 0.060922366 0.033145007 -0.038492657 0.044777572 -0.016494941 0.10619461 0.048558757 0.09608179 0.01070238 -0.02218747 0.05123132 -0.10683766 0.017112399 -0.006482909 0.034862444 -0.08623387 0.043237366 0.056568608 0.026405476 0.081939094 -0.012202627 0.058354035 -0.052913375 -0.057856236 0.030175745 -0.012054973 0.014877141 -0.010431559 -0.05761234 0.0033039742
570 0.021261172 -0.029194022 -0.038582325 -0.0034958317 -0.018201409 -0.018777011 0.07814207 0.042030156 -0.043178182 0.022060994 0.047651798 -0.064181864 0.035121493 -0.021992847 0.018732868 -0.024047663 -0.039030325 0.0114950435 0.039588943 -0.025458327 0.03264882 0.06320272 -0.018366234 0.04192633 0.00550103 0.0115665635 0.005351205 -0.025132658 -0.054470118 0.036463376 -0.005516727 0.041039154 0.03776411 0.0032572725 0.02207649 0.040818904 -0.009323909 0.0018944038 -0.025196249 -0.008290424 -0.029595507 -0.0047100545 -0.036043137 0.0023407158 -0.03704751 0.022954168 0.021890927 -0.00707041 -0.037429713 0.06425958 0.005196386 0.027606776 0.008181358 0.029784868 0.0004916029 0.051855702 0.02866674 -0.0058279447 -0.026726175 -0.033700474 -0.06880628 0.0028541365 0.0095999865 -0.009394563 0.039232995 -0.03226637 0.031142278 0.02089526 -0.026411759 -0.020996211 0.037139554 -0.044810966 0.021430133 0.044384062 -0.043427017 -0.07060218 -0.019085644 -0.06287628 0.0028504122 0.012824255 0.025265438 0.0017922511 -0.022767847 -0.0140002975 -0.025266074 -0.014093891 0.03379061 0.007925817 -0.03197309 0.012426812 -0.007204808 0.063482426 -0.009370702 0.014304311 -0.034555726 -0.048175808 -0.0028297189 -0.01120684 0.04007446 0.029938115 -0.028653702 0.03415132 -0.024619592 0.062028352 0.051899213 0.053495154 -0.00089425425 0.0015155857 0.029430907 -0.08581435 0.014814431 0.013935952 0.021017857 -0.057074536 0.026259728 0.038018785 0.010974425 0.055978768 -0.018514093 0.043974385 -0.03370792 -0.029824479 0.03271039 -0.0060559446 0.0004452702 -0.013665361 -0.058175623 0.0028696526
1882 0.018041646 -0.018498259 -0.024072751 -0.0051734173 -0.012612292 -0.021552274 0.058564235 0.036220312 -0.031021986 0.021823429 0.045988105 -0.052731402 0.03064086 -0.011724623 0.011352552 -0.016556185 -0.018502712 0.0028243805 0.027360095 -0.02116555 0.0025293522 0.04359464 -0.017045727 0.024705445 0.016218582 0.009275118 0.015169181 -0.011605747 -0.033403676 0.023087213 -0.000789353 0.03150221 0.023379207 -0.012151083 0.013505742 0.021726163 -0.018412504 -0.008551008 -0.006795815 -0.009564501 -0.023652198 -0.011552218 -0.028686527 0.009580195 -0.030196724 0.03472831 0.016526388 -0.024714632 -0.030039718 0.046352513 0.0025112396 0.021915143 0.009994882 0.017197864 -0.004593376 0.043770574 0.02657012 -0.0055923467 -0.024444476 -0.02271449 -0.042343646 -0.0028895761 0.0052468707 -0.0076123727 0.037894227 -0.025773007 0.027159644 0.021959573 -0.021840625 -0.014059647 0.039207734 -0.018836722 0.017922863 0.03174429 -0.029202456 -0.057377156 -0.014949217 -0.044653486 -0.009352583 0.019593868 0.025839612 0.0049363594 -0.013257901 -0.01046448 -0.01603032 -0.00882047 0.03817809 0.0022276284 -0.031740077 0.01352735 -0.010317302 0.050536238 -0.0066364068 0.00793408 -0.03014452 -0.026726414 -0.004559461 -0.016169118 0.034765527 0.027108306 -0.02622009 0.02860368 -0.021440787 0.059676543 0.028824441 0.05591796 0.00752134 -0.0031140714 0.020170614 -0.056565706 0.011802164 0.0034408083 0.02210197 -0.042665716 0.02331783 0.028561952 0.023535702 0.040046062 -0.012947337 0.031266022 -0.03322486 -0.024023924 0.015342916 -0.004311771 0.005133387 -0.0076752976 -0.035578772 -0.0001963853
1388 0.026504513 -0.00042772468 -0.013728024 0.0014493127 0.0052296203 -0.026751248 0.05529643 0.036170293 -0.032144975 0.012475523 0.048591625 -0.03946485 0.033201404 -0.015132634 -0.0048397724 0.0007402584 0.0007410319 -0.0038402353 0.020437077 -0.025992697 -0.027918322 0.040811922 -0.016678864 0.0110952305 0.027175914 0.0071664583 0.006789899 -0.008238108 -0.025506292 -0.0012951995 0.0071581085 0.0422427 0.016420892 -0.018409317 0.016453344 0.019054811 -0.020543177 -0.007197875 0.004349438 -0.014810713 -0.021461235 0.007839872 -0.026247026 0.007840472 -0.023535633 0.043051466 0.013449933 -0.031631 -0.030294249 0.037666824 0.0017783329 0.0041427338 0.013105692 0.0006500103 0.0013207387 0.04060688 0.023073504 0.008310964 -0.022672622 -0.011483181 -0.032172803 -0.0070262915 -0.005488823 -0.0016869723 0.044452786 -0.02477795 0.03675259 0.013971836 -0.031884257 -0.0020568601 0.036748976 0.013628677 0.018560737 0.016961152 -0.016320996 -0.053533304 -0.01882516 -0.032408312 -0.0165877 0.02371025 0.025431672 0.0019985454 0.0056018895 -0.0069322423 -0.007591162 0.010627519 0.03629276 0.0066355197 -0.024980137 0.013660891 -0.0061712377 0.055694766 -0.004251031 0.0032145395 -0.017592056 -0.017611496 -0.008252122 -0.029163688 0.038034473 0.020101106 -0.025873037 0.0120763 -0.01570256 0.057650384 0.016875666 0.06979483 0.01587214 -0.014248406 0.012080587 -0.035111677 0.018834854 -0.004857011 0.013916665 -0.044087507 0.021748234 0.03373277 0.03384062 0.026941624 -0.0135662835 0.01753059 -0.03697111 -0.03708642 0.012729799 0.008805283 -0.0063894293 0.007856192 -0.040615134 0.0058020805
105 0.024000993 -0.0126329195 -0.027400035 -0.015569326 -0.00627052 -0.055268425 0.06715609 0.04010471 -0.04705224 0.023154529 0.059516247 -0.06276389 0.05105452 -0.01829497 0.009707168 0.0011143183 -0.01830601 -0.010662346 0.021342846 -0.032007553 0.0031614339 0.051368188 -0.028514134 0.027523035 0.025118658 0.018793339 0.016811963 -0.009936435 -0.027860358 0.02514813 0.0029219 0.044667684 0.020034414 -0.0024200957 0.027906314 0.030381657 -0.01688696 -0.016175343 -0.002352415 0.008090112 -0.01472696 -0.03126558 -0.014306503 0.0031452065 -0.026703823 0.03660514 0.0040534213 -0.02483656 -0.021942073 0.030266913 -0.0060804226 0.021203078 0.0010437346 0.009431667 0.016155392 0.057929426 0.010721789 -0.0028631086 -0.022935031 -0.02179661 -0.049399223 -0.017865235 0.01714382 -0.014491105 0.018012173 -0.0345873 0.03710414 0.020300325 -0.025039602 -0.009723976 0.023181858 -0.004433605 0.026047952 0.017164687 -0.019126775 -0.061807808 -0.029022358 -0.04653802 -0.009033294 -0.0072809476 0.042636763 0.002157746 -0.001121036 -0.012067546 -0.017884938 0.0065834597 0.04121059 -0.002074716 -0.033999376 0.0160205 -0.0130502945 0.06415521 0.004562027 0.0068039596 -0.02842374 -0.040676832 0.014255346 -0.014900728 0.039723024 0.022622472 -0.01899579 0.027896749 -0.006993387 0.06731377 0.026098503 0.062115096 0.015156317 -0.019099962 0.024646426 -0.06356352 0.009079038 -0.008938595 0.01957132 -0.053137537 0.025348246 0.028357986 0.017995907 0.0522184 0.00019592655 0.037885398 -0.032592185 -0.04507068 0.018308997 -0.013095005 0.019244459 -0.0023525492 -0.030653752 0.0040163216
1695 0.023529151 -0.017764723 -0.02919508 -0.007464919 -0.007865228 -0.04141457 0.06903667 0.049488407 -0.042275876 0.021611908 0.05603963 -0.060157638 0.038013373 -0.014489064 0.0074159186 -0.0074104615 -0.017892297 -0.005299032 0.023253556 -0.025401756 0.0038026143 0.056601826 -0.01878201 0.030341476 0.019203966 0.013594579 0.01113089 -0.011465752 -0.03574138 0.026675543 0.007138732 0.038956013 0.027774481 -0.007333335 0.017756324 0.03338592 -0.02687513 -0.014732561 -0.012036231 -0.004869123 -0.01092593 -0.023929339 -0.024070948 0.00089395646 -0.029095769 0.03749283 0.0073182457 -0.028469622 -0.025999498 0.035487004 -0.0027358064 0.021444226 0.009986719 0.01120767 0.0047959974 0.047773436 0.012046022 -0.0079245465 -0.027434548 -0.02255381 -0.05165795 -0.008197205 0.005867042 -0.007754626 0.02636654 -0.032761004 0.039362006 0.024459057 -0.017715095 -0.017791875 0.030036388 -0.008938282 0.026572438 0.027697306 -0.025092043 -0.06156574 -0.026618695 -0.047194634 -0.011585196 -0.00073654036 0.028630849 0.0053986884 -0.0043912744 -0.011268167 -0.011057416 0.0032144722 0.039137542 -0.0034713165 -0.037368253 0.016903307 -0.014027936 0.057208493 0.0029776236 0.008239609 -0.026706107 -0.031311937 0.013867875 -0.025600841 0.03423842 0.019041851 -0.02413494 0.028102616 -0.017520564 0.06998084 0.026631342 0.06569217 0.014204151 -0.021155456 0.03019149 -0.058916386 0.018376876 -6.381622e-05 0.01984439 -0.050516628 0.030347912 0.032595668 0.014077546 0.039204348 -0.0078743175 0.028209904 -0.03329129 -0.03552006 0.014393923 -0.008030727 0.009022661 -0.003225918 -0.03559652 -0.0013679254
140 0.0033155025 -0.006293056 -0.008798593 -8.199981e-05 0.0043579037 -0.013495309 0.008567343 0.007448804 -0.011165913 0.006749041 0.011939466 -0.014732148 0.011150594 -0.002815001 0.0019218251 0.0030448632 -0.0065085464 -0.0058215186 0.0011221999 -0.011107989 0.005507221 0.0071499646 -0.0041254163 -0.001992445 0.00856993 0.0011586712 0.0034549925 -0.002623973 -0.001073038 0.0028608216 0.0004960574 0.0076552993 -0.0022339262 -0.0003210333 0.0018743945 0.004424285 0.0007300481 -0.004302972 -0.0016526659 0.0035872834 -0.0015332265 -0.018624276 -0.0030773764 -0.0064872135 0.000589486 0.003363866 0.0025519822 -0.0056483652 0.00024475256 -0.0044636684 -0.007780442 0.0031685063 -0.00087673333 -0.00023790472 0.004462259 0.011741345 -0.0026772749 -0.0029928866 -0.008415632 -0.008891158 -0.009689234 -0.0061649783 0.0016419486 0.0003808383 -0.006589782 -0.007675325 0.0034312783 0.0025245242 -0.0047997506 -0.005031491 -0.0034855222 -0.001636076 0.0061560054 0.0049666925 -0.0016033283 -0.011437007 -0.0027749245 -0.008104076 0.0019650918 -0.014850574 0.008076729 -0.0042767012 -0.0015842465 -0.0005227663 0.0006271842 0.0023733128 0.0005019453 -0.0048892507 -0.006312676 -0.00056482706 -0.007923946 0.013979041 0.0028026348 0.001505786 -0.004690521 -0.012603293 0.005516165 0.0021749483 0.0052026436 0.004260342 0.0021887475 0.005939817 0.0008680336 0.016593277 -0.0003817104 0.0057280497 0.0058467095 -0.007949723 0.0063442243 -0.010409032 -0.0020392009 0.0030719617 0.0034904946 -0.013999848 -0.0008693312 0.0046667755 -0.0037000005 0.007279197 0.005655761 0.007205187 -0.0063271616 -0.009047324 0.0051286356 -0.0024918707 0.009480437 -0.0075123417 -0.0028025287 0.002829775
569 0.021995626 -0.023099931 -0.03095856 -0.0026035602 -0.008656341 -0.025910048 0.061890747 0.038442675 -0.03603888 0.016616665 0.043179616 -0.046613023 0.03246443 -0.016013496 0.010085489 -0.016004592 -0.02088495 0.0014795631 0.022380523 -0.020646494 0.010401898 0.050137423 -0.018572364 0.028962964 0.013179367 0.010096946 0.012572808 -0.01199899 -0.033321373 0.026488818 0.000649249 0.031636998 0.022804027 -0.00023448133 0.014222554 0.023665424 -0.016968356 -0.0043536345 -0.016180066 -0.008433543 -0.017133383 -0.01830349 -0.021641972 0.0024275507 -0.019281236 0.02971777 0.012781576 -0.017721284 -0.02748472 0.042713612 0.0022816958 0.019042809 0.011508506 0.014397917 -9.721704e-05 0.03887218 0.012278835 -0.00546746 -0.020360729 -0.019377109 -0.044204235 -0.0035528522 0.005636515 -0.010168554 0.02842373 -0.022308955 0.026121689 0.017112678 -0.020309303 -0.018997433 0.03412178 -0.012885941 0.025532387 0.021760248 -0.02714172 -0.04721002 -0.021836795 -0.038549382 -0.013383948 0.0029259587 0.024140893 0.0031708083 -0.01608456 -0.007993729 -0.01948747 -0.0014218229 0.035626557 -0.0045874044 -0.033833165 0.012226725 -0.0064694113 0.052102957 0.0007718331 0.005262973 -0.025055457 -0.029993126 0.0042826924 -0.010216449 0.032283466 0.028930956 -0.015597175 0.028198786 -0.017364511 0.056127932 0.0319351 0.04996646 0.008634965 -0.010263243 0.0245749 -0.057206314 0.015470031 0.003333822 0.021699127 -0.03612666 0.021997595 0.025342558 0.008034548 0.04147252 -0.008794039 0.02933944 -0.027089294 -0.031034335 0.019063642 -0.008129006 0.011475096 -0.012112339 -0.035101227 0.0057192007
536 0.025282959 -0.01758416 -0.03401302 -0.002491583 -0.0041068653 -0.045558017 0.06906015 0.039090052 -0.039294418 0.019087683 0.05258134 -0.061688818 0.042635728 -0.011081889 0.012889728 -0.0044778003 -0.01995818 -0.0041918564 0.023568667 -0.02765956 0.0069876495 0.050501984 -0.017870879 0.02810388 0.015932616 0.019485364 0.014874806 -0.01989822 -0.03495162 0.02083887 0.0031307833 0.030198803 0.025160037 -0.00948347 0.01285066 0.025918506 -0.02363218 -0.002888423 -0.010769845 -0.007420151 -0.01937051 -0.022806114 -0.022401763 -0.003951729 -0.032318916 0.031654824 0.008184909 -0.0142416945 -0.030372936 0.037805744 -0.0013217392 0.023653109 0.010087888 0.004429755 0.008817309 0.052172396 0.008533047 -0.009539421 -0.021038821 -0.021379238 -0.047213506 -0.013992045 0.011543562 -0.009197978 0.028316166 -0.033280786 0.030882835 0.021418856 -0.02107264 -0.011675219 0.032487333 -0.0031594776 0.028538808 0.025101824 -0.02664432 -0.064954616 -0.02039108 -0.047104083 -0.014199788 0.0039490624 0.03863531 0.0027393438 -0.004777858 -0.0047940942 -0.01950978 -0.0013428425 0.045073267 0.0023308669 -0.029534264 0.01097843 -0.01294986 0.060994487 0.00026358658 0.012353553 -0.025400152 -0.030411165 0.015498497 -0.01805944 0.032780927 0.028021907 -0.022336913 0.024332765 -0.0101770945 0.06349016 0.031997595 0.06035392 0.013024075 -0.0135471355 0.018167624 -0.05882996 0.019750375 0.00038607547 0.015597646 -0.049473196 0.024213938 0.026729016 0.009928546 0.04532581 -0.009958413 0.038530517 -0.030679243 -0.03751324 0.023788763 -0.0070444928 0.0075855814 -0.0080123395 -0.036333006 0.004450216
1748 0.030870836 -0.022860799 -0.038623124 -0.004669023 -0.009712444 -0.04484806 0.08488862 0.04973107 -0.056279644 0.021687567 0.05911245 -0.067809336 0.051209543 -0.020248862 0.014937951 -0.014320547 -0.029389303 -0.0009690553 0.03477065 -0.030990185 0.0136382785 0.068286955 -0.030101655 0.043648247 0.01978919 0.018944496 0.008007553 -0.017823404 -0.047860965 0.03070426 0.0030169366 0.04650529 0.028807307 -0.0042093983 0.030469455 0.04164025 -0.021825796 -0.0005113002 -0.019348722 -0.006610554 -0.025087675 -0.026866367 -0.032154106 0.0054306225 -0.03265773 0.03994231 0.015427053 -0.02583945 -0.040659025 0.05439795 -0.001922267 0.025017183 0.005673831 0.017142562 0.0042540515 0.05794422 0.020073855 -0.0010411955 -0.019791491 -0.027520914 -0.06587289 -0.010266977 0.0095336735 -0.014947054 0.035893735 -0.03898008 0.040865198 0.022360716 -0.02973886 -0.021039156 0.038387317 -0.023847345 0.031670894 0.031304386 -0.03604196 -0.074690096 -0.029779727 -0.057962626 -0.00860859 0.0083748 0.04301931 -0.0005146322 -0.016187657 -0.017009266 -0.016733974 -0.003329017 0.04681042 0.0025079604 -0.044885073 0.015057406 -0.013593481 0.07642787 -0.005792234 0.009886608 -0.03417187 -0.037249085 0.009458185 -0.01825762 0.04403179 0.035475668 -0.031930845 0.038724724 -0.016531475 0.083734356 0.04047999 0.07495537 0.015416652 -0.008780615 0.031048229 -0.07576637 0.01805702 0.0034936755 0.025856812 -0.061224066 0.028106429 0.037791267 0.014768252 0.05868386 -0.013823149 0.04791782 -0.041643515 -0.04307826 0.024838384 -0.007709385 0.012754088 -0.0060905097 -0.053073365 0.003524242
529 0.012170572 -0.014098703 -0.014609327 -0.0034510752 -0.006992119 -0.0054241507 0.045748275 0.03310787 -0.030883066 0.014352323 0.03163381 -0.034985717 0.02619648 -0.015195581 0.004412015 -0.011018658 -0.01618147 0.007971546 0.022717103 -0.016920203 -0.0026915837 0.035723154 -0.0100484565 0.021161377 0.003840519 0.0069239032 0.0023808272 -0.012096725 -0.028461488 0.00915462 0.0019402279 0.034252867 0.021828374 -0.0073480755 0.007393655 0.02383317 -0.0067907125 0.00962834 -0.008317161 -0.019436158 -0.016242292 0.012901346 -0.020884924 0.0071974196 -0.03174858 0.026692439 0.015456726 -0.014276686 -0.026681202 0.04768476 0.00854794 0.008530145 0.009658417 0.007983231 -0.007488971 0.025550231 0.026747491 -0.0008567035 -0.015044316 -0.014836863 -0.03381782 0.0018574167 -0.003480042 -0.00371581 0.045115396 -0.023324016 0.021005416 0.015464197 -0.028739322 -0.0056334445 0.041891627 -0.010045012 0.012117591 0.026788408 -0.019468851 -0.047937132 -0.014594492 -0.025628194 -0.012990028 0.02311441 0.018596658 0.012281624 -0.0070902808 -0.009936183 -0.007249858 -0.0007730737 0.02969161 0.007234027 -0.022737022 0.01241393 -0.0027174738 0.037576035 -0.01129366 0.0012847004 -0.014521186 -0.017407808 -0.010251137 -0.015655663 0.032990023 0.0124946525 -0.020888366 0.019129163 -0.016095323 0.042740483 0.028392857 0.0526018 0.005371525 -0.0022690587 0.021455405 -0.0349304 0.019151304 2.6727927e-05 0.023741215 -0.030288318 0.018731035 0.032320507 0.02411695 0.032121405 -0.018116863 0.023247628 -0.029405495 -0.019760475 0.0122472355 0.004613223 -0.009686714 -0.0019742935 -0.044447433 0.0029469556
796 0.023193713 -0.01341841 -0.031357646 -0.012847153 -0.009771687 -0.02639364 0.068964764 0.04494607 -0.039036777 0.018650198 0.051035907 -0.06540898 0.04099084 -0.018764485 0.013860365 -0.017470844 -0.017263077 0.010229229 0.030715654 -0.03357131 0.019678595 0.05828298 -0.028719911 0.030198336 0.015708426 0.011787548 0.015184896 -0.019903231 -0.039727625 0.027071694 0.0047756047 0.03612867 0.031838994 -0.0063270736 0.02163451 0.040289648 -0.013886052 -0.009516177 -0.010426844 -0.0033730532 -0.016450396 -0.0150109595 -0.02486127 0.0068630106 -0.028881008 0.028140718 0.010065696 -0.01776529 -0.03256412 0.037793398 0.004917066 0.025559507 0.008430991 0.0151255885 -0.002353993 0.042555757 0.025107078 -0.0076873256 -0.016562192 -0.018110428 -0.054286428 -0.01085533 0.01216768 -0.006023828 0.033808023 -0.027257863 0.036509097 0.02319066 -0.028394988 -0.016430449 0.030644415 -0.022814361 0.023076456 0.03938803 -0.023460375 -0.058830746 -0.024449224 -0.044156652 -0.0034236892 0.009980345 0.031159889 0.004172931 -0.008352926 -0.007931678 -0.012993891 -0.0036834315 0.03477911 0.006320577 -0.03056571 0.012978195 -0.015191903 0.056711413 -0.0068705 0.006257418 -0.021041743 -0.04699851 0.0091495095 -0.014893604 0.036899287 0.019040793 -0.021784721 0.030656485 -0.013623814 0.060569506 0.025467683 0.056703668 0.010373968 -0.005228286 0.023748983 -0.06410083 0.009333506 0.005539649 0.015375579 -0.050562143 0.0280231 0.030384343 0.011602772 0.037640817 -0.018766256 0.03815914 -0.030486831 -0.0356605 0.01585272 -0.00073908275 0.0036229664 -0.0024345743 -0.04061416 0.001939186
1408 0.01749757 -0.015125815 -0.020415446 -0.004797156 -0.010324212 -0.0147394305 0.04963449 0.03276918 -0.02502951 0.012317221 0.03474527 -0.043900378 0.021409543 -0.015421037 0.0065997406 -0.020128613 -0.022484487 0.009555402 0.02208409 -0.013601711 0.01526353 0.0396195 -0.018894287 0.029252889 0.0057124295 0.011015961 0.003207382 -0.015014494 -0.034603387 0.020069867 0.0007835369 0.024661064 0.0279417 -0.0042019696 0.013374734 0.022398967 -0.004852072 -0.00130753 -0.011380287 -0.005508533 -0.021726219 0.00035680787 -0.02466549 0.008000972 -0.026928445 0.016571155 0.014838117 -0.011581426 -0.03222791 0.046516974 0.005612262 0.021193724 0.011932657 0.018776942 -0.003138146 0.025370432 0.024699176 -0.0037802926 -0.017297504 -0.022435466 -0.042301845 -0.0002752802 0.010364492 -0.0042105797 0.032420494 -0.019018618 0.023460023 0.01159405 -0.023755029 -0.017116964 0.024737393 -0.023083622 0.016563721 0.030103767 -0.025410704 -0.045431126 -0.010564174 -0.037136614 -0.002964492 0.016849434 0.018497359 0.0031536685 -0.015182134 -0.015362227 -0.01397064 -0.0056597567 0.023331868 0.004378839 -0.026206976 0.010428035 -0.00729501 0.038338933 -0.0058031594 0.009565751 -0.018484011 -0.024414912 -0.0020258697 -0.013767961 0.028205087 0.021797959 -0.021959314 0.021854192 -0.01825627 0.03864833 0.027948987 0.035188057 0.004533806 -0.00091260625 0.020892946 -0.04744568 0.010634033 0.003798577 0.017781453 -0.032155383 0.015791917 0.01946316 0.014471218 0.03507541 -0.017974764 0.028503645 -0.022148566 -0.017084874 0.012147366 0.00020962823 0.00013900892 -0.0076937987 -0.031494454 0.0044888896
1577 0.003186013 -0.014822327 -0.015921468 -0.0013614945 -0.0075974897 0.003971366 0.033362255 0.015636599 -0.013267074 0.0063537895 0.014856829 -0.027759794 0.009083037 -0.0065957876 0.005905358 -0.018822527 -0.016362198 0.018367074 0.012523926 -0.005077524 0.020026382 0.028824266 0.0031472107 0.025619049 -0.008599423 0.005720982 -0.00040439566 -0.014718374 -0.020432366 0.013171312 -0.007597006 0.011520985 0.023558794 0.0018379489 0.009658066 0.016390936 -0.0073503815 0.0030352925 -0.022381525 -0.003745433 -0.013402747 0.0063882917 -0.021333145 -0.0018865672 -0.019108744 0.006615619 0.009469301 -0.0025282803 -0.013927606 0.037419595 -0.0012744607 0.018849751 0.010854831 0.013936111 -0.0057299365 0.014283137 0.017691905 -0.0039484035 -0.0067508677 -0.017739233 -0.029469397 0.01172691 0.005279569 -0.0032756815 0.017430771 -0.0053673196 0.014707162 0.009820236 -0.0072032884 -0.0072354637 0.018493913 -0.029147321 0.0049494165 0.026110137 -0.023212591 -0.031673662 -0.006611621 -0.024535473 0.0078101973 0.016145974 0.0017814589 -0.0027370474 -0.018797902 -0.0074114064 -0.0077720913 -0.011377499 0.0120296115 0.00040394167 -0.006531916 0.005748063 -0.0075900587 0.020033928 -0.008244514 0.0082198465 -0.016885407 -0.01805681 -0.0020447192 -0.0059928414 0.014018305 0.013135786 -0.009805001 0.015438627 -0.016135566 0.023607546 0.022220047 0.013779706 -0.00353022 0.01080848 0.00900469 -0.036628455 0.0034422982 0.010500361 0.013826555 -0.026698008 0.012984874 0.012791568 0.0037096913 0.018606398 -0.01601718 0.020821113 -0.013793439 -0.003169584 0.0122069 -0.0016270175 0.00015769935 -0.008072654 -0.026969226 0.0034091559
955 0.009982523 -0.012006155 -0.029649982 -0.0018980531 -0.017544428 -0.008277556 0.059200212 0.02097689 -0.032309856 0.008962818 0.032301843 -0.041232616 0.016672203 -0.015350524 0.018583512 -0.018695267 -0.033686683 0.015824724 0.025108112 -0.023224935 0.027939362 0.045766454 -0.02860457 0.03074436 -0.003933086 0.012095258 -0.006207708 -0.01994143 -0.04041374 0.020999976 -0.0037928089 0.03362689 0.020581564 -0.0008754289 0.021110721 0.03964172 -0.0015702096 0.008697899 -0.022542462 -0.00014680866 -0.022213435 -0.0020777753 -0.023759892 0.004182403 -0.03777699 0.008348929 0.017729802 -0.0039886534 -0.028465498 0.04139789 0.013041871 0.019535081 0.0050904797 0.021555314 0.00026351833 0.03282898 0.016819196 0.0056711324 -0.012578705 -0.021180604 -0.059503555 -0.0063593197 0.0128355585 -0.008553299 0.02308581 -0.025948087 0.025524361 0.020097906 -0.019864 -0.013904176 0.013731786 -0.03234588 0.01917184 0.032215882 -0.023921078 -0.049106758 -0.01663451 -0.042292975 0.0014942581 0.0033842896 0.023169486 -0.004982876 -0.021140065 -0.018010076 -0.020022629 -0.011358825 0.02068626 0.0018489916 -0.023913752 0.002294771 -0.003867995 0.045163535 -0.016134225 0.008782462 -0.020722732 -0.038009543 0.0066454187 -0.0017184131 0.027321938 0.017139247 -0.019141516 0.02141779 -0.010093981 0.03730878 0.03742453 0.029521113 -0.002491153 0.00049304345 0.024557453 -0.058989894 0.004835445 0.011883669 0.015781062 -0.04836881 0.0044811335 0.02355929 0.011604686 0.03935902 -0.012543079 0.04156453 -0.015468448 -0.02076768 0.018576883 -0.002535144 -0.011049619 -0.0020562224 -0.044874076 0.0069375876
664 0.026078738 -0.033010766 -0.042506587 -0.008341551 -0.025873337 -0.020019533 0.08009297 0.059170444 -0.04675021 0.017190184 0.051017668 -0.07183136 0.033110786 -0.019711213 0.016538363 -0.026562715 -0.031033283 0.018849276 0.040433396 -0.028464222 0.024080545 0.06972237 -0.02168744 0.050956607 0.0024841393 0.01078147 0.007340304 -0.027244141 -0.055060066 0.036599908 -0.0012020272 0.042274926 0.04851001 -0.00710866 0.019158566 0.04308885 -0.011146982 0.0032988854 -0.030324694 -0.008938149 -0.03458011 -0.0043207477 -0.042019974 0.0049593057 -0.042953607 0.03569016 0.01304138 -0.014398059 -0.044361092 0.071938425 0.00905708 0.033924434 0.01427073 0.023920916 -0.0035768 0.04662883 0.03732048 -0.009889975 -0.020922752 -0.028050411 -0.069265336 0.0029875904 0.018362544 -0.003474737 0.04473251 -0.031080103 0.03782712 0.022889135 -0.033199847 -0.028366499 0.04649568 -0.04033017 0.022577701 0.04857731 -0.0429328 -0.08197067 -0.025675042 -0.06277662 -0.006612005 0.022798738 0.025886448 0.003456558 -0.024576591 -0.010457133 -0.019946944 -0.008897398 0.04107505 0.007936068 -0.044366393 0.010931273 -0.008290672 0.06308139 -0.01384713 0.008632237 -0.03862394 -0.04338523 0.0036377038 -0.024175297 0.044943396 0.033464506 -0.031013036 0.03456271 -0.02400181 0.06729618 0.042898074 0.06492428 0.000945886 0.005082009 0.034005374 -0.080647044 0.021394288 0.0067787687 0.030583054 -0.06536144 0.031435613 0.040365156 0.020991622 0.052422475 -0.025534507 0.046149347 -0.036719646 -0.028517062 0.027986262 -0.0044231317 0.002469457 -0.011228255 -0.060123377 0.005502732
1109 0.010688865 -0.021523476 -0.025373884 0.0025586016 -0.017181939 -0.02216383 0.060690187 0.03319502 -0.030541398 0.01731807 0.037193455 -0.04099939 0.028185325 -0.01666648 0.010892596 -0.014100972 -0.024474137 0.0039671813 0.021481257 -0.020907352 0.0069005485 0.045015417 -0.02089543 0.0349517 0.0051044645 0.013231388 0.00447875 -0.016732505 -0.03627877 0.018793441 0.0008613304 0.033869166 0.023038706 -0.008557972 0.016309865 0.034323573 -0.013576586 0.0038634592 -0.019376734 -0.0067489366 -0.017166708 -0.0003717907 -0.024575701 0.0008667635 -0.03487728 0.017428704 0.014174077 -0.008654875 -0.029253187 0.05126287 0.01002163 0.019398391 0.014475885 0.013844088 -0.0020309614 0.037453625 0.014326484 -0.0035342942 -0.013578369 -0.018304642 -0.043306325 -0.0029657108 0.009758485 -0.0037424886 0.04040585 -0.019612346 0.029076567 0.01730182 -0.02773857 -0.018864702 0.031660832 -0.022410426 0.022857297 0.03377048 -0.026567351 -0.04903578 -0.017536102 -0.03893344 -0.0062362417 0.022307068 0.03039521 0.0030622173 -0.016427593 -0.016490176 -0.018070249 -0.007437778 0.030422745 0.0089295525 -0.03280454 0.013218111 -0.0071891053 0.04325942 -0.0071573937 0.008493323 -0.020772265 -0.023193078 -0.0034594561 -0.0089209415 0.029818455 0.021557756 -0.023981158 0.020640846 -0.011139713 0.053499438 0.03520724 0.05001218 0.0048985067 -0.0047910735 0.020802882 -0.05359571 0.016344344 0.0025130005 0.012911222 -0.046177182 0.018548433 0.02905596 0.0089719 0.044889517 -0.008580047 0.03232646 -0.0245817 -0.026063496 0.014564037 0.0033068429 -0.00083786255 -0.0033691928 -0.04573972 0.001471021
1426 0.0066443826 -0.0019426122 -0.0091535235 -0.0031298662 -0.007332854 -0.011514455 0.011383495 0.00619549 -0.0076040006 0.006539736 0.010025995 -0.011955659 0.008114539 -0.007757995 0.006604219 -0.0023290159 -0.005073344 -0.003405042 0.0063148295 -0.0016761046 0.0034775787 0.008413706 -0.005348354 0.0086468235 0.00020867414 0.005774891 0.0047272346 -0.0019512934 -0.0067722434 0.0044225752 0.0040127374 0.0020201157 0.00479022 -0.0019733936 0.0032457965 0.002371374 -0.00069481356 -0.0006000612 -0.00032889092 -0.0007261702 -0.0046409736 -0.007207303 0.00096717017 -0.0030064099 -0.0019187618 0.0071304343 0.006013025 0.004134004 -0.0069361385 0.0011007709 0.0023339167 0.0017037572 -0.005418403 0.003913638 0.0025867675 0.0066794083 0.0021468902 -0.0025187782 -0.004292507 -0.0049346727 -0.008426826 -0.006380112 0.0019652112 -0.0025949702 0.0034791427 -0.0060967603 0.0025132755 0.003381029 -0.0021179423 -0.004551478 0.0017512469 -0.0051834276 0.005793363 0.00056186155 -0.003010928 -0.009079452 -0.0035401145 -0.008272647 0.0033326345 -0.0021397988 0.009490479 0.0027996772 0.0025749567 -0.0043442696 -0.0022363444 0.0038899449 0.008126562 -0.0060122954 -0.0047829538 -0.0014275012 -0.0049616974 0.007907041 -0.0021957934 0.0026260426 -0.0032999376 -0.008174648 0.0075368253 -0.00040580676 0.0050335503 0.0064188456 -0.0064731636 0.002596192 -0.0026212875 0.0061476384 0.004402264 0.011668032 0.00444923 -0.0041320277 0.008366249 -0.008082308 0.0002792533 0.0039061916 -0.0009446991 -0.008181774 0.005593271 0.004745874 0.00033384608 0.007642004 0.004148295 0.005007908 -0.0022059567 -0.01014872 0.0059582796 0.0004952997 0.0016070999 0.00044462725 -0.00093889085 0.00011914119
93 0.010529619 -0.01053065 -0.015451577 -0.0005802021 -0.0010459943 -0.027325768 0.043305334 0.016185867 -0.021553366 0.016578136 0.026185777 -0.02447364 0.023892708 -0.013627842 0.0037853983 -0.0027304962 -0.008486069 -0.009379757 0.019198857 -0.020694107 0.004595549 0.03200787 -0.013374213 0.025035324 0.00592358 0.013438419 -0.0005041309 -0.0122752655 -0.018557347 0.012855255 -0.004068008 0.017136592 0.01144044 0.0013083721 0.009877193 0.015294958 -0.006814776 0.005863116 -0.013760556 0.005757211 -0.012631748 -0.005222367 -0.0053208633 -0.0013264879 -0.022153938 0.014373744 0.0021700598 -0.008715853 -0.012288829 0.023215236 -0.0058268323 0.009474961 0.0022458038 0.0027455934 0.0062984717 0.023916362 0.0002493904 0.005613007 -0.0065194718 -0.014933678 -0.037121832 -0.0075193304 0.012417305 -0.005917192 0.018537654 -0.016776264 0.015463553 0.0070401244 -0.011584591 -0.009929556 0.0122385565 -0.0059342086 0.011378676 0.011190706 -0.011925622 -0.026713932 -0.008686513 -0.027543128 -0.004384024 0.0031285582 0.021789633 0.002238244 -0.0053174216 -0.009588784 -0.0064020925 0.0023053095 0.0265253 -0.0009770328 -0.017610751 0.011643612 -0.0041790972 0.030734535 -0.007692157 0.007239005 -0.014046989 -0.018358333 0.001319585 -0.0070301783 0.018363938 0.012789055 -0.011273351 0.0104114525 0.0004673413 0.03007368 0.023371024 0.02986754 0.0067440076 -0.008574117 0.00850774 -0.029273951 0.0048317784 -0.0035603023 0.004154425 -0.03694358 0.013273883 0.023012191 0.012566814 0.03426376 0.005842537 0.0222235 -0.018278578 -0.023166172 0.017507168 -0.0017500343 -0.0006798414 -0.004108765 -0.030016324 0.0032693143
1039 0.023261236 -0.013098463 -0.031023558 -0.01468755 -0.01612689 -0.035220593 0.070020705 0.046022072 -0.031105006 0.022417799 0.053907663 -0.058417857 0.03242359 -0.010597484 0.015264086 -0.010154225 -0.011992548 -0.0016807327 0.026806766 -0.021274462 0.009656424 0.049100243 -0.017539056 0.026880747 0.025350109 0.014648799 0.01496994 -0.019133363 -0.03364053 0.021775387 0.005269069 0.040929023 0.026586156 -0.009501437 0.019149963 0.03194483 -0.018161278 -0.016057633 -0.012931666 -0.0053806594 -0.012486728 -0.026048511 -0.022476966 -0.00022693649 -0.020263271 0.038021483 0.003128395 -0.028184844 -0.029036084 0.03576095 0.00018446134 0.022190003 0.008227977 0.0071607335 0.00044780853 0.046880946 0.00822115 -0.0043716873 -0.028860943 -0.027861783 -0.057005987 -0.0021181635 0.014022847 -0.005384486 0.02325867 -0.03128035 0.033525027 0.025294239 -0.019683285 -0.012241761 0.030085372 -0.014928072 0.027031997 0.03077011 -0.02792964 -0.06386296 -0.020092132 -0.04681393 -0.005955593 0.00048922317 0.036045667 0.0022168644 -0.010379196 -0.014690918 -0.010315477 0.001053067 0.037996598 0.000755776 -0.03524983 0.010388262 -0.01634758 0.06328164 -0.0042100623 0.0025986882 -0.023509072 -0.034380585 0.012897392 -0.01862949 0.040207982 0.01718945 -0.021177687 0.03089316 -0.019200461 0.0658373 0.026793897 0.055156846 0.006297361 -0.013419102 0.02437787 -0.062109683 0.018467292 -0.0031049603 0.018683441 -0.052535232 0.019329298 0.033426657 0.0129270535 0.0467534 -0.0075969505 0.030239327 -0.034726627 -0.03417224 0.016304785 -0.0024117923 0.011058383 -0.0092167435 -0.037826438 -0.0020450845
137 0.041627556 -0.036637675 -0.05632192 -0.013421731 -0.033995077 -0.057095107 0.13238485 0.078233734 -0.075466886 0.03790676 0.09230329 -0.115506425 0.07439253 -0.032167546 0.034211703 -0.028803188 -0.04348665 0.010865708 0.0573021 -0.04636158 0.037537847 0.102692164 -0.04435711 0.0700182 0.020490322 0.03352218 0.013944916 -0.03889799 -0.076292016 0.055196404 0.007365852 0.061686564 0.049380314 -0.0129732825 0.0387385 0.060864944 -0.026437957 -0.0056512654 -0.036608666 -0.006518483 -0.0433281 -0.033129223 -0.043938313 0.008516574 -0.05807545 0.05800725 0.025172831 -0.022986112 -0.06555755 0.077686116 0.0021046924 0.048146524 0.011196049 0.027116615 0.008161508 0.087152824 0.037329484 -0.015869595 -0.031399358 -0.04129258 -0.10133873 -0.013095466 0.029636923 -0.014113047 0.05378606 -0.0546172 0.058685485 0.040132117 -0.049558904 -0.036480267 0.04477749 -0.04821253 0.043078754 0.06310764 -0.04531576 -0.11919157 -0.0400862 -0.0879628 -0.0074045104 0.017789394 0.062420174 -0.003902979 -0.03486129 -0.02241898 -0.03931219 -0.0029284866 0.062369544 0.008037298 -0.069869824 0.019618386 -0.011493253 0.09925205 -0.011050226 0.02050835 -0.05935588 -0.07361752 0.01321786 -0.022881934 0.060217164 0.043578442 -0.036215845 0.056725085 -0.019961538 0.10751012 0.06472694 0.09942148 0.012163106 -0.014704518 0.05698958 -0.12929457 0.017668111 0.0032050665 0.037167974 -0.09228726 0.049006067 0.054977667 0.022650361 0.08743932 -0.02314194 0.072687514 -0.057203524 -0.058505174 0.04035053 -0.013490732 0.01305182 -0.013942852 -0.07343651 0.0072682854
1092 0.02051285 -0.02596656 -0.036371816 -0.007312493 -0.016363047 -0.030772952 0.074126095 0.043650605 -0.039938975 0.016962655 0.0539049 -0.05888313 0.035801943 -0.01920789 0.014556707 -0.016196808 -0.030957613 0.0096874125 0.031874966 -0.03203727 0.019847745 0.065131046 -0.01989675 0.037941292 0.0053176004 0.015887704 0.0050651324 -0.019424617 -0.046128027 0.026774982 0.0015643232 0.03482351 0.031967197 -0.0037118809 0.025074953 0.0403003 -0.014741802 -0.000892068 -0.024050917 0.0035055026 -0.027093483 -0.01323745 -0.03052494 0.0050205104 -0.03993016 0.019738328 0.016920589 -0.0074480143 -0.0293485 0.050831825 0.0098893745 0.028002117 0.0075733513 0.015594241 -0.0031136656 0.046678085 0.023883961 -0.009678153 -0.016693367 -0.023259984 -0.05785713 -0.008177386 0.015989495 -0.008731214 0.033162434 -0.028503565 0.0349478 0.021613976 -0.032386307 -0.012877742 0.025227783 -0.029720234 0.022798691 0.03465806 -0.032249354 -0.064788714 -0.023689134 -0.05531742 -0.005640304 0.007906422 0.029687468 0.00015711896 -0.020227322 -0.012515523 -0.019194312 -0.0068065953 0.032570444 0.0031166077 -0.03597436 0.01597677 -0.0064195213 0.051268525 -0.0037632769 0.011718477 -0.02738429 -0.03595657 0.0078063323 -0.007151382 0.035064533 0.030473975 -0.029280154 0.030903742 -0.013861387 0.06122568 0.03831209 0.05754988 0.0040238467 -0.008340097 0.031684168 -0.06691189 0.0079741 0.0037194772 0.019104486 -0.056037627 0.025446225 0.03288257 0.010018843 0.05479318 -0.0146007035 0.040149815 -0.032908272 -0.035106525 0.0199251 -0.005128822 0.00726474 -0.005557912 -0.042794157 0.0077144965
1268 0.0089904675 -0.016863419 -0.020093735 0.004129251 -0.020966833 0.0016573017 0.03861333 0.021840185 -0.020382259 0.005465328 0.020121476 -0.030172491 0.021068567 -0.021240946 0.009818999 -0.021055339 -0.028583277 0.016435772 0.0204012 -0.01808273 0.016039206 0.042037424 -0.020748433 0.029592667 -0.010633516 0.0038704409 -0.003087484 -0.018649327 -0.028051816 0.02207503 -0.00372511 0.024196733 0.020754306 -0.0035931075 0.013439168 0.039456 -0.0062257024 0.0078081177 -0.020993719 -0.0013796169 -0.022985693 0.0053183744 -0.026570642 -0.0035038567 -0.02654073 0.0043264534 0.012613916 -0.0040349453 -0.024050497 0.048776705 0.009694442 0.017846236 0.01349371 0.00881713 -0.0011568737 0.017555106 0.02462927 0.0043165856 -0.008493596 -0.013804717 -0.032752696 -0.0048504444 0.007570975 -0.0048124394 0.03282471 -0.016987113 0.02097189 0.008805456 -0.023564462 -0.01041037 0.015407372 -0.031978313 0.009674797 0.032875963 -0.023072163 -0.042817377 -0.012615157 -0.037619468 -0.0003427614 0.021056455 0.010381175 -0.00011577769 -0.013338309 -0.015643362 -0.014133888 -0.012774758 0.014775474 0.0060685626 -0.01766961 0.006108142 -0.0032666456 0.024139954 -0.008139205 0.009900112 -0.020153537 -0.0206142 -0.004983464 -0.0017639288 0.02137929 0.02246712 -0.01516564 0.00891979 -0.009865136 0.034406252 0.039264847 0.030319866 -0.0024449371 -0.0012330094 0.023223164 -0.042842995 0.0027091473 0.007686799 0.0046472442 -0.034096655 0.016135935 0.019158492 0.005621716 0.03457255 -0.010729388 0.026343003 -0.016332056 -0.017603213 0.010637421 0.0052264715 -0.0147349555 -0.0017668164 -0.038407095 0.006067189
1564 0.033854555 -0.025695985 -0.044111535 -0.009859607 -0.008456953 -0.050619677 0.10219056 0.051889975 -0.052756596 0.031027358 0.06798261 -0.075218454 0.058476664 -0.01828262 0.020268504 -0.010656994 -0.028915731 0.0019973961 0.047158413 -0.03366407 0.01328329 0.07654507 -0.033184048 0.048294704 0.021739922 0.0199128 0.009204012 -0.021708364 -0.05434521 0.032739867 0.010295283 0.05138527 0.038978197 -0.011979762 0.036876287 0.04692435 -0.022916047 -0.015828222 -0.021567278 0.0015101406 -0.023239424 -0.024936948 -0.04061408 0.0051952293 -0.036829233 0.039054904 0.017846296 -0.026734974 -0.04860536 0.055407424 -0.0012078092 0.024875805 0.003414353 0.019297574 0.009922504 0.068687364 0.024021586 -0.0036182853 -0.02815377 -0.033285506 -0.07896884 -0.0068310765 0.01818082 -0.010259511 0.0414773 -0.04029245 0.047583148 0.027839188 -0.03733057 -0.018794108 0.040356755 -0.021815458 0.03302118 0.03683944 -0.03303287 -0.08794816 -0.02958385 -0.06618587 -0.005251245 0.0036162331 0.051507317 0.0027138302 -0.020046595 -0.016909417 -0.023501623 -0.0031307577 0.05109358 0.002375587 -0.051550023 0.015501886 -0.010904669 0.08101744 -0.006312568 0.012358841 -0.039006513 -0.05053008 0.0055550653 -0.019936878 0.054050367 0.031812437 -0.030796463 0.0374059 -0.025483593 0.07942364 0.042609878 0.08241332 0.017922396 -0.013757313 0.037099246 -0.0942856 0.011158135 -0.002923069 0.02738378 -0.06653088 0.02947476 0.03771738 0.028741557 0.06421503 -0.015150803 0.05558853 -0.045376837 -0.04932853 0.025632652 -0.0054276898 0.007969981 0.002088653 -0.05796568 0.009180643
1302 0.021657517 -0.020691348 -0.02748301 -0.011683347 -0.019247841 -0.028746016 0.06622733 0.04233345 -0.039846815 0.021883417 0.053101327 -0.057160806 0.03874208 -0.018516582 0.022585442 -0.010933041 -0.027688738 0.005227575 0.02897499 -0.032081343 0.019819759 0.05640952 -0.031126589 0.032680046 0.012605547 0.020481804 0.00968013 -0.026146302 -0.041659325 0.033201292 0.0020856247 0.02826527 0.031966556 -0.00754816 0.017737594 0.031296425 -0.015403174 0.004600067 -0.023735369 -0.006919757 -0.01903088 -0.011848577 -0.01954789 0.007160208 -0.031825524 0.028709024 0.0084790485 -0.012593912 -0.032151375 0.03586981 0.0023953032 0.018529765 0.0037985302 0.0144592775 0.0032312174 0.04199542 0.01847416 -0.008671368 -0.019290017 -0.017382057 -0.05826972 -0.011820135 0.015768463 -0.007275767 0.030520832 -0.031828705 0.029931817 0.020923315 -0.025437474 -0.01824866 0.02019329 -0.021350345 0.022060579 0.02980713 -0.015448159 -0.063765354 -0.01828737 -0.048038702 -0.0014547728 0.0020399902 0.031479854 -0.0010323027 -0.018003913 -0.012829046 -0.025200218 -0.002316008 0.03645255 0.0021039078 -0.036723588 0.010271462 -0.0051893466 0.057123765 -0.009709416 0.0018371607 -0.029965872 -0.040937394 0.013082914 -0.006139103 0.03587873 0.024947578 -0.021359516 0.027142348 -0.0050282595 0.055833206 0.028490119 0.048432518 0.008017397 -0.006994401 0.030712208 -0.07086083 0.008195901 0.007244048 0.018990098 -0.04779038 0.025753338 0.031528804 0.008151282 0.041014 -0.012350947 0.037056718 -0.029531587 -0.030921467 0.020237606 -0.0075880215 0.0027170838 -0.0062785335 -0.037231576 0.006849982
1261 0.02531508 -0.024464829 -0.038651247 -0.011194443 -0.013193352 -0.03824942 0.06838361 0.039304797 -0.04144685 0.021791268 0.048737753 -0.056382634 0.034001455 -0.010351144 0.01212657 -0.0048114695 -0.02643556 -0.0006324932 0.03297378 -0.026663033 0.0184736 0.052359395 -0.01908334 0.03324595 0.013150801 0.0154418 0.013154764 -0.01812247 -0.035695434 0.028474947 -0.0021660326 0.0399971 0.023779036 0.0010557964 0.01787266 0.032873675 -0.017303096 -0.008997702 -0.01706469 -0.007935211 -0.019428689 -0.023740828 -0.02064202 0.0038518244 -0.027119722 0.034461007 0.011208398 -0.01700752 -0.03139169 0.039766677 -0.0011306762 0.021383228 0.007432869 0.013932925 0.006828287 0.038611908 0.0039053885 -0.008944482 -0.022745136 -0.027110353 -0.06071944 0.0021485868 0.012543571 -0.0065075285 0.014462589 -0.031173078 0.028377056 0.022024786 -0.016990721 -0.02373617 0.03022285 -0.024465268 0.026049837 0.030310936 -0.034521226 -0.059600633 -0.02048389 -0.05159315 -0.002078353 -0.0029997083 0.03319644 -0.0045935344 -0.01517909 -0.017102504 -0.02055731 -0.0030995838 0.037474677 0.003314589 -0.036344092 0.012128905 -0.014936104 0.062305678 -0.006506256 0.012344152 -0.029355263 -0.037365533 0.011328153 -0.011690219 0.039442748 0.0211786 -0.02123797 0.029393587 -0.01910727 0.06570723 0.02779709 0.05536422 0.008925811 -0.005807573 0.025137909 -0.06503781 0.019140692 0.0041622696 0.023823198 -0.053260148 0.021921035 0.03530228 0.0042453734 0.053502925 -0.012114805 0.036151625 -0.034352507 -0.030758211 0.022875812 -0.013949316 0.013556424 -0.011838205 -0.040520407 0.0020315342
1124 0.040426083 -0.03446928 -0.052428465 -0.010917333 -0.014511372 -0.06156349 0.12354855 0.06297949 -0.06741625 0.030869998 0.07777237 -0.10168698 0.07147789 -0.027499918 0.028731482 -0.015346735 -0.044084944 0.00070688454 0.046395235 -0.04443886 0.020600894 0.08805344 -0.0385535 0.0599322 0.022971727 0.02659619 0.018081605 -0.03035746 -0.062351946 0.04418542 0.00543596 0.059075203 0.035561446 -0.00025215882 0.043859553 0.054326013 -0.027597789 -0.013464365 -0.026000764 0.0037911674 -0.0283269 -0.041665453 -0.038360775 0.009493934 -0.04890594 0.051322952 0.012795257 -0.030976878 -0.045562383 0.06536724 -0.00087577844 0.043068193 0.00920017 0.019448929 0.018085998 0.07883222 0.022775773 -0.012568536 -0.0302474 -0.044687048 -0.0806283 -0.019360505 0.022004696 -0.011182129 0.04238356 -0.04959433 0.05370401 0.031490833 -0.041470118 -0.02337523 0.044322055 -0.03008211 0.044346727 0.040586535 -0.04445745 -0.09171639 -0.03759273 -0.07671734 -0.0135619575 -0.0029854053 0.056923296 -0.005241541 -0.023600455 -0.018973323 -0.025009787 0.0031535816 0.06224323 -0.005293116 -0.057894137 0.023207827 -0.01280256 0.10143858 -0.0027988586 0.009754877 -0.04684084 -0.059942733 0.017079536 -0.020653151 0.059250303 0.045124598 -0.040737104 0.040717788 -0.029007625 0.10505768 0.05118284 0.09993639 0.01841494 -0.017733067 0.039582822 -0.11198168 0.022557156 -0.0003919019 0.026156968 -0.08349047 0.034910556 0.053862132 0.022019718 0.084445745 -0.013042549 0.06497137 -0.05185671 -0.053625282 0.03913256 -0.01717103 0.016469674 -0.015864704 -0.06480799 0.004619552
944 0.015125317 -0.023184568 -0.02773823 0.002573001 -0.024484998 -0.013605118 0.056888107 0.036233626 -0.024881419 0.008307323 0.04164988 -0.0526579 0.02636162 -0.013848106 0.019414287 -0.021630595 -0.022468228 0.0082575735 0.033190507 -0.024414353 0.014730843 0.04668197 -0.025968434 0.034018014 0.0054850453 0.006586054 0.0014600572 -0.014914955 -0.03980942 0.029825391 -0.00096646737 0.0259982 0.033023372 -0.0038468854 0.018224262 0.03517481 -0.005281339 0.011442333 -0.015075581 -0.0058261794 -0.020649523 -0.0014158157 -0.027112475 -0.0024301754 -0.029730491 0.027989348 0.013735661 -0.00767525 -0.029380947 0.04566339 0.007757415 0.022053394 0.0069230315 0.014937264 0.0032427786 0.037793275 0.02052459 -0.0045681167 -0.016786242 -0.018186012 -0.05078561 -0.0029900253 0.014184804 -0.008084084 0.044992723 -0.03257806 0.024344146 0.015782118 -0.016865546 -0.019145893 0.026517734 -0.030847363 0.017013911 0.027956646 -0.01754099 -0.05376826 -0.014540205 -0.035410628 -0.009309607 0.015287094 0.022057483 0.0018731427 -0.021464732 -0.0074567366 -0.017581938 -0.0014771323 0.030600008 0.004542176 -0.04141652 0.011479919 -0.0056803552 0.042465795 -0.0138680665 0.007387729 -0.024726545 -0.037259657 0.0010553731 -0.015145813 0.029016608 0.022472836 -0.019304035 0.024620287 -0.013560106 0.050810292 0.032957528 0.043891102 0.0025502213 -0.006669437 0.02895544 -0.05501494 0.012271155 0.003156948 0.020806748 -0.04576622 0.01708605 0.023276847 0.01629435 0.036802635 -0.018725181 0.027901419 -0.029480109 -0.019438323 0.014978938 0.0009392076 -0.001809115 -0.009933532 -0.041071843 0.0027672742
438 0.019810513 -0.022366675 -0.027344527 -0.004471921 -0.006846383 -0.0304408 0.05952857 0.029280627 -0.034729533 0.014961285 0.04038932 -0.04812177 0.03406942 -0.01295538 0.014077684 -0.0054903165 -0.016000928 -0.004355002 0.018969562 -0.02239531 0.009966924 0.043393698 -0.016095867 0.030828467 0.0035079108 0.017157724 0.010652293 -0.015289113 -0.032615233 0.024996908 0.0033132795 0.028861184 0.020682499 -0.00012665063 0.021362515 0.0261226 -0.0101844035 -0.0044000945 -0.011865008 0.00064975745 -0.017627811 -0.012246648 -0.013799846 0.005688785 -0.025847886 0.0220212 0.010185843 -0.010325992 -0.020519668 0.029833833 0.0017118242 0.022056242 0.007757185 0.010807207 0.0047470797 0.039454095 0.0074955886 -0.008904688 -0.009508929 -0.021403113 -0.037794363 -0.012945726 0.014896929 -0.0034187268 0.022079298 -0.021606125 0.030607808 0.015254647 -0.021188553 -0.010974245 0.023280343 -0.010660573 0.020582573 0.024227066 -0.01771443 -0.045640726 -0.019389702 -0.04130486 -0.0067859055 -0.0009505334 0.024987161 0.0011530168 -0.007890984 -0.015126466 -0.015728492 0.00020254336 0.024112197 0.0017681685 -0.022943787 0.0069749053 -0.0049413946 0.049491286 -0.00041711165 0.010795158 -0.025832443 -0.03337488 0.010405357 -0.01278177 0.028825544 0.019909203 -0.024727816 0.021361807 -0.007772662 0.044937354 0.02893152 0.04401891 0.0074700746 -0.012615676 0.021208566 -0.056919903 0.00882038 0.0022292866 0.019405445 -0.04072826 0.018546434 0.027770063 0.008599426 0.04219368 -0.0026076594 0.032834645 -0.026921058 -0.02675572 0.019478502 -0.0030259998 0.0086979745 -0.0072550387 -0.026707398 0.0066545648
82 0.014683241 -0.035358295 -0.03518914 8.886788e-05 -0.025011878 -0.02380362 0.07300864 0.036268838 -0.036737416 0.0159662 0.034464434 -0.06110835 0.021127068 -0.0137111405 0.024802536 -0.013280449 -0.03127611 0.014241819 0.029465642 -0.012849997 0.03105872 0.056677125 -0.008218829 0.04518711 -0.0032027322 0.015323153 0.006429218 -0.014602832 -0.03709303 0.03649733 -0.0056244098 0.03077441 0.03107534 -0.00043146018 0.023657423 0.03519028 -0.010568722 -0.00061634846 -0.037160344 -0.0016184985 -0.02594637 -0.011796075 -0.034412418 0.004698076 -0.029782312 0.01826984 0.0033231303 0.0025190036 -0.02463746 0.044730477 0.00041909565 0.030549753 0.01457036 0.026585478 0.0055000694 0.042203903 0.011827913 -0.017338142 -0.015357658 -0.035731345 -0.055832542 0.0061197444 0.025756512 -0.0015148368 0.018750478 -0.022886237 0.026760532 0.020702453 -0.010936318 -0.020452322 0.024636172 -0.044400536 0.02330204 0.039934464 -0.031006647 -0.04289312 -0.02690332 -0.05629767 0.010218844 -0.0027106504 0.029577374 0.0037016873 -0.035501912 -0.014606819 -0.01999357 -0.015249595 0.023463828 -0.004101408 -0.025294688 0.008181922 -0.0033940289 0.050990928 -0.0023895209 0.0128174275 -0.0337436 -0.033524048 0.007804265 -0.011115443 0.032025255 0.018826172 -0.02307132 0.036031514 -0.01950252 0.053516243 0.040703118 0.04337325 -0.0013873995 0.0015776991 0.02326313 -0.075414486 0.012273205 0.009226645 0.025926013 -0.048557684 0.021346007 0.024116099 0.0011684359 0.053179815 -0.011770287 0.036306877 -0.030660747 -0.01727071 0.019228324 -0.004778595 0.007470746 -0.02152246 -0.04007464 0.010387991
